svm_type c_svc
kernel_type rbf
gamma 100
nr_class 2
total_sv 108
rho -1.40651
label 0 1
probA -2.97478
probB 0.619927
nr_sv 80 28
SV
1 1:0.087087087 2:0.066066066 3:0.069069069 4:0.066066066 5:0.036036036 6:0.021021021 7:0.039039039 8:0.051051051 9:0.048048048 10:0.03003003 11:0.033033033 12:0.063063063 13:0.045045045 14:0.051051051 15:0.042042042 16:0.039039039 17:0.075075075 18:0.036036036 19:0.06006006 20:0.042042042 
1 1:0.040816327 2:0.071428571 3:0.071428571 4:0.14285714 5:0.051020408 6:0.040816327 7:0.020408163 8:0.020408163 9:0.020408163 10:0.020408163 11:0.081632653 12:0.071428571 13:0.071428571 14:0.020408163 15:0.051020408 16:0.040816327 17:0.020408163 18:0.010204082 19:0.040816327 20:0.091836735 
1 1:0.11904762 2:0.098639456 3:0.068027211 4:0.088435374 5:0.034013605 6:0.0034013605 7:0.010204082 8:0.051020408 9:0.013605442 10:0.0068027211 11:0.037414966 12:0.10884354 13:0.051020408 14:0.078231293 15:0.051020408 16:0.047619048 17:0.013605442 18:0.023809524 19:0.051020408 20:0.044217687 
1 1:0.066568047 2:0.036982249 3:0.039940828 4:0.071005917 5:0.022189349 6:0.023668639 7:0.020710059 8:0.025147929 9:0.032544379 10:0.013313609 11:0.035502959 12:0.073964497 13:0.054733728 14:0.056213018 15:0.057692308 16:0.069526627 17:0.11094675 18:0.051775148 19:0.076923077 20:0.060650888 
0.8108976419037872 1:0.017021277 2:0.042553191 3:0.093617021 4:0.12765957 5:0.059574468 6:0.042553191 7:0.025531915 8:0.021276596 9:0.034042553 10:0.021276596 11:0.05106383 12:0.076595745 13:0.05106383 14:0.034042553 15:0.063829787 16:0.059574468 17:0.063829787 18:0.021276596 19:0.055319149 20:0.038297872 
1 1:0.089552239 2:0.067164179 3:0.049751244 4:0.17412935 5:0.024875622 6:0.0099502488 7:0.017412935 8:0.024875622 9:0.0024875622 10:0.027363184 11:0.087064677 12:0.087064677 13:0.042288557 14:0.027363184 15:0.049751244 16:0.05721393 17:0.042288557 18:0.032338308 19:0.029850746 20:0.05721393 
0.06524466989112779 1:0.071428571 2:0.042857143 3:0.042857143 4:0.092857143 5:0.05 6:0.057142857 7:0.021428571 8:0.064285714 9:0.071428571 10:0.035714286 11:0.035714286 12:0.071428571 13:0.042857143 14:0.05 15:0.014285714 16:0.085714286 17:0.042857143 18:0.0071428571 19:0.085714286 20:0.014285714 
1 1:0.074829932 2:0.034013605 3:0.06122449 4:0.10204082 5:0.047619048 6:0.054421769 7:0.040816327 8:0.027210884 9:0.034013605 10:0.0068027211 11:0.034013605 12:0.054421769 13:0.068027211 14:0.054421769 15:0.054421769 16:0.040816327 17:0.034013605 18:0.047619048 19:0.034013605 20:0.095238095 
0.04510106222223904 1:0.044642857 2:0.053571429 3:0.080357143 4:0.14285714 5:0.0625 6:0.053571429 7:0.035714286 8:0.044642857 9:0.017857143 10:0.017857143 11:0.035714286 12:0.035714286 13:0.044642857 14:0.053571429 15:0.044642857 16:0.035714286 17:0.089285714 18:0 19:0.053571429 20:0.053571429 
1 1:0.061135371 2:0.043668122 3:0.061135371 4:0.13537118 5:0.048034934 6:0.030567686 7:0.034934498 8:0.026200873 9:0.030567686 10:0.0087336245 11:0.048034934 12:0.087336245 13:0.03930131 14:0.056768559 15:0.03930131 16:0.048034934 17:0.065502183 18:0.034934498 19:0.048034934 20:0.052401747 
1 1:0.039647577 2:0.052863436 3:0.052863436 4:0.14096916 5:0.061674009 6:0.030837004 7:0.026431718 8:0.022026432 9:0.030837004 10:0.013215859 11:0.044052863 12:0.092511013 13:0.035242291 14:0.052863436 15:0.044052863 16:0.035242291 17:0.079295154 18:0.039647577 19:0.052863436 20:0.052863436 
1 1:0.058823529 2:0.085192698 3:0.073022312 4:0.13590264 5:0.044624746 6:0.0081135903 7:0.032454361 8:0.054766734 9:0.024340771 10:0.0060851927 11:0.054766734 12:0.077079108 13:0.058823529 14:0.028397566 15:0.040567951 16:0.042596349 17:0.058823529 18:0.018255578 19:0.034482759 20:0.062880325 
1 1:0.038135593 2:0.06779661 3:0.055084746 4:0.11864407 5:0.038135593 6:0.038135593 7:0.021186441 8:0.038135593 9:0.025423729 10:0.012711864 11:0.046610169 12:0.072033898 13:0.050847458 14:0.063559322 15:0.033898305 16:0.042372881 17:0.080508475 18:0.038135593 19:0.059322034 20:0.059322034 
0.1804094125496055 1:0.047619048 2:0.085714286 3:0.085714286 4:0.17142857 5:0.066666667 6:0.038095238 7:0.0095238095 8:0.0095238095 9:0.0095238095 10:0 11:0.066666667 12:0.1047619 13:0.038095238 14:0.0095238095 15:0.019047619 16:0.028571429 17:0.047619048 18:0.019047619 19:0.085714286 20:0.057142857 
1 1:0.0625 2:0.067307692 3:0.060096154 4:0.12740385 5:0.055288462 6:0.0048076923 7:0.012019231 8:0.048076923 9:0.026442308 10:0.0096153846 11:0.057692308 12:0.081730769 13:0.069711538 14:0.036057692 15:0.045673077 16:0.050480769 17:0.0625 18:0.012019231 19:0.060096154 20:0.050480769 
0.111002356856922 1:0.08 2:0.13 3:0.05 4:0.13 5:0.01 6:0.03 7:0.02 8:0.03 9:0.04 10:0.01 11:0.09 12:0.03 13:0.02 14:0.01 15:0.02 16:0.07 17:0.08 18:0.02 19:0.05 20:0.08 
0.5734657820516904 1:0.064338235 2:0.049632353 3:0.068014706 4:0.068014706 5:0.040441176 6:0.011029412 7:0.022058824 8:0.034926471 9:0.03125 10:0.0091911765 11:0.025735294 12:0.058823529 13:0.040441176 14:0.15992647 15:0.071691176 16:0.075367647 17:0.038602941 18:0.022058824 19:0.058823529 20:0.049632353 
0.5828765953933648 1:0.057142857 2:0.15714286 3:0.1 4:0.085714286 5:0.071428571 6:0 7:0.028571429 8:0.028571429 9:0.042857143 10:0.014285714 11:0.1 12:0.028571429 13:0.028571429 14:0.014285714 15:0.028571429 16:0.028571429 17:0.1 18:0 19:0.057142857 20:0.028571429 
1 1:0.070886076 2:0.06835443 3:0.063291139 4:0.093670886 5:0.055696203 6:0.010126582 7:0.035443038 8:0.065822785 9:0.048101266 10:0.025316456 11:0.053164557 12:0.063291139 13:0.055696203 14:0.06835443 15:0.035443038 16:0.048101266 17:0.037974684 18:0.027848101 19:0.055696203 20:0.017721519 
1 1:0.044025157 2:0.075471698 3:0.056603774 4:0.075471698 5:0.06918239 6:0.056603774 7:0.025157233 8:0.050314465 9:0.025157233 10:0.025157233 11:0.056603774 12:0.081761006 13:0.037735849 14:0.037735849 15:0.031446541 16:0.062893082 17:0.081761006 18:0.018867925 19:0.06918239 20:0.018867925 
0.7985669929309324 1:0.071428571 2:0.045031056 3:0.045031056 4:0.062111801 5:0.049689441 6:0.029503106 7:0.01242236 8:0.038819876 9:0.02484472 10:0.010869565 11:0.060559006 12:0.077639752 13:0.082298137 14:0.046583851 15:0.055900621 16:0.063664596 17:0.063664596 18:0.048136646 19:0.079192547 20:0.032608696 
1 1:0.033653846 2:0.051282051 3:0.1025641 4:0.09775641 5:0.046474359 6:0.0064102564 7:0.020833333 8:0.048076923 9:0.052884615 10:0.017628205 11:0.056089744 12:0.051282051 13:0.049679487 14:0.056089744 15:0.046474359 16:0.048076923 17:0.072115385 18:0.043269231 19:0.051282051 20:0.048076923 
1 1:0.085526316 2:0.072368421 3:0.072368421 4:0.065789474 5:0.039473684 6:0.046052632 7:0.019736842 8:0.052631579 9:0.039473684 10:0.039473684 11:0.0065789474 12:0.092105263 13:0.039473684 14:0.032894737 15:0.046052632 16:0.039473684 17:0.092105263 18:0.013157895 19:0.065789474 20:0.039473684 
0.2542640858105983 1:0.10619469 2:0.061946903 3:0.097345133 4:0.11504425 5:0.017699115 6:0.053097345 7:0.053097345 8:0.053097345 9:0.026548673 10:0.017699115 11:0.061946903 12:0.03539823 13:0.017699115 14:0.03539823 15:0.053097345 16:0.053097345 17:0.044247788 18:0.026548673 19:0.03539823 20:0.03539823 
0.7220287166127612 1:0.074766355 2:0.074766355 3:0.074766355 4:0.14018692 5:0.018691589 6:0.056074766 7:0.0093457944 8:0.037383178 9:0.056074766 10:0.0093457944 11:0.056074766 12:0.074766355 13:0.018691589 14:0.037383178 15:0.056074766 16:0.0093457944 17:0.08411215 18:0.028037383 19:0.028037383 20:0.056074766 
0.3214353550085086 1:0.1 2:0.063636364 3:0.054545455 4:0.16363636 5:0.018181818 6:0.054545455 7:0.036363636 8:0.027272727 9:0.027272727 10:0.018181818 11:0.036363636 12:0.036363636 13:0.063636364 14:0.027272727 15:0.081818182 16:0.045454545 17:0.054545455 18:0.027272727 19:0.018181818 20:0.045454545 
0.6743991678990774 1:0.02994012 2:0.035928144 3:0.047904192 4:0.11976048 5:0.05988024 6:0.017964072 7:0.017964072 8:0.065868263 9:0.041916168 10:0.005988024 11:0.011976048 12:0.10179641 13:0.047904192 14:0.071856287 15:0.041916168 16:0.05988024 17:0.047904192 18:0.011976048 19:0.10179641 20:0.05988024 
1 1:0.036065574 2:0.055737705 3:0.055737705 4:0.072131148 5:0.045901639 6:0.02295082 7:0.016393443 8:0.026229508 9:0.045901639 10:0 11:0.081967213 12:0.078688525 13:0.06557377 14:0.062295082 15:0.039344262 16:0.062295082 17:0.085245902 18:0.02295082 19:0.062295082 20:0.062295082 
1 1:0.048192771 2:0.030120482 3:0.06626506 4:0.14457831 5:0.042168675 6:0.024096386 7:0.024096386 8:0.036144578 9:0.012048193 10:0 11:0.060240964 12:0.10843373 13:0.06626506 14:0.048192771 15:0.024096386 16:0.060240964 17:0.054216867 18:0.024096386 19:0.054216867 20:0.072289157 
1 1:0.053398058 2:0.097087379 3:0.087378641 4:0.058252427 5:0.048543689 6:0.019417476 7:0.014563107 8:0.053398058 9:0.067961165 10:0.014563107 11:0.038834951 12:0.058252427 13:0.053398058 14:0.058252427 15:0.024271845 16:0.067961165 17:0.048543689 18:0.029126214 19:0.09223301 20:0.014563107 
0.3648073615243922 1:0.066666667 2:0.094444444 3:0.05 4:0.10555556 5:0.022222222 6:0.044444444 7:0.022222222 8:0.055555556 9:0.027777778 10:0.0055555556 11:0.083333333 12:0.066666667 13:0.055555556 14:0.011111111 15:0.027777778 16:0.038888889 17:0.055555556 18:0.016666667 19:0.038888889 20:0.11111111 
1 1:0.062146893 2:0.050847458 3:0.056497175 4:0.10169492 5:0.050847458 6:0.033898305 7:0.033898305 8:0.062146893 9:0.016949153 10:0.011299435 11:0.04519774 12:0.073446328 13:0.056497175 14:0.04519774 15:0.04519774 16:0.050847458 17:0.073446328 18:0.02259887 19:0.050847458 20:0.056497175 
0.7776675530751632 1:0.055555556 2:0.083333333 3:0.125 4:0.097222222 5:0.055555556 6:0.041666667 7:0.027777778 8:0.027777778 9:0.027777778 10:0.013888889 11:0.027777778 12:0.097222222 13:0.013888889 14:0.055555556 15:0.055555556 16:0.013888889 17:0.069444444 18:0.013888889 19:0.083333333 20:0.013888889 
0.7291861764956037 1:0.14418605 2:0.074418605 3:0.055813953 4:0.069767442 5:0.051162791 6:0.013953488 7:0.027906977 8:0.055813953 9:0.023255814 10:0.0093023256 11:0.12093023 12:0.074418605 13:0.018604651 14:0.03255814 15:0.037209302 16:0.027906977 17:0.055813953 18:0.013953488 19:0.060465116 20:0.03255814 
0.5670618489571134 1:0.052631579 2:0.1 3:0.089473684 4:0.063157895 5:0.026315789 6:0.021052632 7:0.031578947 8:0.042105263 9:0.057894737 10:0.021052632 11:0.021052632 12:0.031578947 13:0.063157895 14:0.094736842 15:0.031578947 16:0.094736842 17:0.078947368 18:0.0052631579 19:0.052631579 20:0.021052632 
1 1:0.091324201 2:0.03196347 3:0.082191781 4:0.095890411 5:0.0456621 6:0.01826484 7:0.01826484 8:0.077625571 9:0.050228311 10:0.01369863 11:0.059360731 12:0.03652968 13:0.054794521 14:0.050228311 15:0.050228311 16:0.03652968 17:0.073059361 18:0.02739726 19:0.068493151 20:0.01826484 
1 1:0.073170732 2:0.06097561 3:0.13414634 4:0.1097561 5:0.024390244 6:0 7:0.048780488 8:0.012195122 9:0.024390244 10:0.036585366 11:0.048780488 12:0.073170732 13:0.06097561 14:0.012195122 15:0.036585366 16:0.036585366 17:0.06097561 18:0.036585366 19:0.06097561 20:0.048780488 
1 1:0.0875 2:0.075 3:0.125 4:0.0875 5:0.0375 6:0.025 7:0.0375 8:0.0125 9:0.025 10:0.0375 11:0.0625 12:0.075 13:0.0125 14:0.025 15:0.0375 16:0.025 17:0.075 18:0.025 19:0.05 20:0.0625 
0.7137084087554637 1:0.057803468 2:0.10982659 3:0.092485549 4:0.080924855 5:0.01734104 6:0.0057803468 7:0.023121387 8:0.092485549 9:0.011560694 10:0.023121387 11:0.028901734 12:0.046242775 13:0.01734104 14:0.046242775 15:0.034682081 16:0.063583815 17:0.052023121 18:0.046242775 19:0.11560694 20:0.034682081 
1 1:0.047738693 2:0.072864322 3:0.087939698 4:0.090452261 5:0.08040201 6:0.010050251 7:0.027638191 8:0.050251256 9:0.012562814 10:0.015075377 11:0.057788945 12:0.085427136 13:0.057788945 14:0.060301508 15:0.030150754 16:0.045226131 17:0.037688442 18:0.022613065 19:0.072864322 20:0.035175879 
0.2449866740017469 1:0.10576923 2:0.10576923 3:0.028846154 4:0.125 5:0.0096153846 6:0.019230769 7:0.019230769 8:0.019230769 9:0.0096153846 10:0.048076923 11:0.086538462 12:0.067307692 13:0.0096153846 14:0.019230769 15:0.086538462 16:0.048076923 17:0.067307692 18:0.038461538 19:0.028846154 20:0.057692308 
1 1:0.052631579 2:0.11004785 3:0.057416268 4:0.081339713 5:0.057416268 6:0.009569378 7:0.023923445 8:0.057416268 9:0.043062201 10:0.004784689 11:0.019138756 12:0.038277512 13:0.052631579 14:0.028708134 15:0.052631579 16:0.057416268 17:0.09569378 18:0.038277512 19:0.090909091 20:0.028708134 
0.09330977777193147 1:0.064516129 2:0.041474654 3:0.073732719 4:0.078341014 5:0.023041475 6:0.036866359 7:0.01843318 8:0.073732719 9:0.036866359 10:0.0092165899 11:0.036866359 12:0.11059908 13:0.069124424 14:0.01843318 15:0.023041475 16:0.059907834 17:0.082949309 18:0.064516129 19:0.055299539 20:0.023041475 
1 1:0.054621849 2:0.046218487 3:0.071428571 4:0.10084034 5:0.054621849 6:0.021008403 7:0.012605042 8:0.067226891 9:0.033613445 10:0.025210084 11:0.050420168 12:0.088235294 13:0.058823529 14:0.046218487 15:0.054621849 16:0.046218487 17:0.050420168 18:0.025210084 19:0.06302521 20:0.029411765 
1 1:0.043209877 2:0.074074074 3:0.055555556 4:0.11111111 5:0.024691358 6:0.0061728395 7:0.037037037 8:0.030864198 9:0.030864198 10:0.0061728395 11:0.074074074 12:0.074074074 13:0.037037037 14:0.049382716 15:0.055555556 16:0.043209877 17:0.098765432 18:0.012345679 19:0.030864198 20:0.10493827 
0.660920838501454 1:0.079207921 2:0.11881188 3:0.084158416 4:0.11881188 5:0.01980198 6:0.014851485 7:0.0099009901 8:0.054455446 9:0.02970297 10:0.0099009901 11:0.04950495 12:0.054455446 13:0.059405941 14:0.004950495 15:0.084158416 16:0.03960396 17:0.044554455 18:0.024752475 19:0.024752475 20:0.074257426 
0.4900482520424783 1:0.059701493 2:0.02238806 3:0.12686567 4:0.10447761 5:0.02238806 6:0.059701493 7:0.029850746 8:0.044776119 9:0.037313433 10:0 11:0.02238806 12:0.1119403 13:0.037313433 14:0.052238806 15:0.037313433 16:0.059701493 17:0.037313433 18:0.0074626866 19:0.052238806 20:0.074626866 
1 1:0.040767386 2:0.06235012 3:0.050359712 4:0.067146283 5:0.079136691 6:0.011990408 7:0.03117506 8:0.045563549 9:0.050359712 10:0.023980815 11:0.045563549 12:0.059952038 13:0.057553957 14:0.057553957 15:0.026378897 16:0.055155875 17:0.064748201 18:0.026378897 19:0.088729017 20:0.055155875 
1 1:0.054320988 2:0.066666667 3:0.071604938 4:0.12592593 5:0.054320988 6:0.0074074074 7:0.037037037 8:0.056790123 9:0.02962963 10:0.014814815 11:0.034567901 12:0.091358025 13:0.071604938 14:0.054320988 15:0.04691358 16:0.049382716 17:0.039506173 18:0.027160494 19:0.041975309 20:0.024691358 
0.004483686554795299 1:0.011049724 2:0.077348066 3:0.08839779 4:0.071823204 5:0.066298343 6:0.0055248619 7:0.038674033 8:0.027624309 9:0.055248619 10:0.0055248619 11:0.13259669 12:0.082872928 13:0.08839779 14:0.08839779 15:0.033149171 16:0.027624309 17:0.044198895 18:0.0055248619 19:0.011049724 20:0.038674033 
0.08034022397474375 1:0.021551724 2:0.060344828 3:0.081896552 4:0.13362069 5:0.043103448 6:0.0043103448 7:0.025862069 8:0.038793103 9:0.021551724 10:0 11:0.15948276 12:0.056034483 13:0.034482759 14:0.021551724 15:0.099137931 16:0.017241379 17:0.077586207 18:0.021551724 19:0.060344828 20:0.021551724 
0.3239116884092197 1:0.015151515 2:0.060606061 3:0.055555556 4:0.070707071 5:0.055555556 6:0.0050505051 7:0.035353535 8:0.055555556 9:0.03030303 10:0.01010101 11:0.060606061 12:0.1010101 13:0.03030303 14:0.03030303 15:0.11111111 16:0.02020202 17:0.12121212 18:0.03030303 19:0.060606061 20:0.04040404 
1 1:0.056782334 2:0.034700315 3:0.066246057 4:0.072555205 5:0.047318612 6:0.0063091483 7:0.025236593 8:0.041009464 9:0.050473186 10:0.015772871 11:0.047318612 12:0.085173502 13:0.072555205 14:0.066246057 15:0.03785489 16:0.056782334 17:0.072555205 18:0.041009464 19:0.069400631 20:0.034700315 
1 1:0.047619048 2:0.058201058 3:0.047619048 4:0.11111111 5:0.058201058 6:0.021164021 7:0.026455026 8:0.058201058 9:0.058201058 10:0.021164021 11:0.068783069 12:0.052910053 13:0.074074074 14:0.058201058 15:0.037037037 16:0.042328042 17:0.068783069 18:0.010582011 19:0.063492063 20:0.015873016 
0.2919670711269649 1:0.026455026 2:0.15873016 3:0.074074074 4:0.068783069 5:0.010582011 6:0.0052910053 7:0.021164021 8:0.047619048 9:0.0052910053 10:0 11:0.015873016 12:0.074074074 13:0.037037037 14:0.052910053 15:0.079365079 16:0.047619048 17:0.1005291 18:0.026455026 19:0.12698413 20:0.021164021 
0.1061527205573043 1:0.04950495 2:0.069306931 3:0.069306931 4:0.14851485 5:0.0099009901 6:0 7:0.02970297 8:0.03960396 9:0.04950495 10:0.0099009901 11:0.04950495 12:0.089108911 13:0.099009901 14:0.0099009901 15:0.079207921 16:0.03960396 17:0.079207921 18:0 19:0.059405941 20:0.01980198 
1 1:0.045364892 2:0.060267368 3:0.055226824 4:0.11724742 5:0.062458909 6:0.0054788516 7:0.017313171 8:0.049090511 9:0.033092264 10:0.0081087004 11:0.037475345 12:0.085908394 13:0.06574622 14:0.054131054 15:0.050405435 16:0.051062897 17:0.065307911 18:0.025202718 19:0.078238001 20:0.03287311 
0.1815495562150098 1:0.041509434 2:0.10188679 3:0.067924528 4:0.14339623 5:0.01509434 6:0 7:0.0075471698 8:0.026415094 9:0.022641509 10:0.018867925 11:0.030188679 12:0.056603774 13:0.033962264 14:0.01509434 15:0.086792453 16:0.064150943 17:0.10188679 18:0.018867925 19:0.086792453 20:0.060377358 
1 1:0.089238845 2:0.072178478 3:0.07480315 4:0.085301837 5:0.028871391 6:0.01312336 7:0.020997375 8:0.060367454 9:0.040682415 10:0.019685039 11:0.083989501 12:0.066929134 13:0.049868766 14:0.031496063 15:0.059055118 16:0.04855643 17:0.051181102 18:0.031496063 19:0.022309711 20:0.049868766 
0.9619719856616777 1:0.04379562 2:0.068126521 3:0.058394161 4:0.12408759 5:0.04622871 6:0.0072992701 7:0.03163017 8:0.063260341 9:0.02189781 10:0.00486618 11:0.04379562 12:0.080291971 13:0.070559611 14:0.051094891 15:0.04136253 16:0.063260341 17:0.055961071 18:0.02676399 19:0.063260341 20:0.03406326 
0.1059028320854746 1:0.048543689 2:0.067961165 3:0.063106796 4:0.13349515 5:0.041262136 6:0.0048543689 7:0.026699029 8:0.053398058 9:0.014563107 10:0.0072815534 11:0.04368932 12:0.075242718 13:0.082524272 14:0.053398058 15:0.033980583 16:0.053398058 17:0.07038835 18:0.036407767 19:0.063106796 20:0.026699029 
1 1:0.048309179 2:0.048309179 3:0.062801932 4:0.11111111 5:0.06763285 6:0.0096618357 7:0.038647343 8:0.043478261 9:0.019323671 10:0.014492754 11:0.038647343 12:0.038647343 13:0.057971014 14:0.048309179 15:0.053140097 16:0.06763285 17:0.086956522 18:0.033816425 19:0.077294686 20:0.033816425 
1 1:0.078313253 2:0.10542169 3:0.06626506 4:0.09939759 5:0.048192771 6:0.024096386 7:0.024096386 8:0.030120482 9:0.039156627 10:0.012048193 11:0.048192771 12:0.081325301 13:0.054216867 14:0.045180723 15:0.048192771 16:0.051204819 17:0.039156627 18:0.015060241 19:0.069277108 20:0.021084337 
1 1:0.073394495 2:0.11314985 3:0.067278287 4:0.070336391 5:0.073394495 6:0.006116208 7:0.018348624 8:0.03058104 9:0.039755352 10:0.021406728 11:0.042813456 12:0.088685015 13:0.055045872 14:0.051987768 15:0.03058104 16:0.064220183 17:0.039755352 18:0.024464832 19:0.067278287 20:0.021406728 
0.1687577582102613 1:0.098318241 2:0.089262613 3:0.072445019 4:0.072445019 5:0.04915912 6:0.0051746442 7:0.010349288 8:0.046571798 9:0.032341527 10:0.02457956 11:0.069857697 12:0.094437257 13:0.099611902 14:0.062095731 15:0.045278137 16:0.04915912 17:0.016817594 18:0.014230272 19:0.023285899 20:0.02457956 
1 1:0.066047472 2:0.060887513 3:0.067079463 4:0.079463364 5:0.055727554 6:0.008255934 7:0.025799794 8:0.045407637 9:0.072239422 10:0.018575851 11:0.053663571 12:0.092879257 13:0.072239422 14:0.074303406 15:0.039215686 16:0.058823529 17:0.044375645 18:0.01754386 19:0.01754386 20:0.029927761 
1 1:0.11895911 2:0.074349442 3:0.066914498 4:0.05204461 5:0.040892193 6:0.029739777 7:0.018587361 8:0.037174721 9:0.029739777 10:0.022304833 11:0.063197026 12:0.063197026 13:0.059479554 14:0.029739777 15:0.0074349442 16:0.074349442 17:0.07063197 18:0.018587361 19:0.10037175 20:0.022304833 
1 1:0.042016807 2:0.050420168 3:0.11764706 4:0.13445378 5:0.050420168 6:0.025210084 7:0.016806723 8:0.050420168 9:0 10:0.0084033613 11:0.042016807 12:0.075630252 13:0.058823529 14:0.058823529 15:0.058823529 16:0.042016807 17:0.067226891 18:0.0084033613 19:0.067226891 20:0.025210084 
1 1:0.10958904 2:0.11187215 3:0.063926941 4:0.077625571 5:0.052511416 6:0.01369863 7:0.029680365 8:0.03652968 9:0.03652968 10:0.03652968 11:0.038812785 12:0.054794521 13:0.038812785 14:0.04109589 15:0.02739726 16:0.084474886 17:0.029680365 18:0.029680365 19:0.052511416 20:0.034246575 
0.1119783985276263 1:0.090047393 2:0.037914692 3:0.052132701 4:0.09478673 5:0.042654028 6:0.056872038 7:0.028436019 8:0.028436019 9:0.075829384 10:0.033175355 11:0.047393365 12:0.066350711 13:0.056872038 14:0.037914692 15:0.037914692 16:0.037914692 17:0.033175355 18:0.023696682 19:0.08056872 20:0.037914692 
0.8379370005206137 1:0.084158416 2:0.074257426 3:0.064356436 4:0.17326733 5:0.024752475 6:0.004950495 7:0.0099009901 8:0.064356436 9:0.034653465 10:0.0099009901 11:0.079207921 12:0.11881188 13:0.044554455 14:0.014851485 15:0.04950495 16:0.014851485 17:0.0099009901 18:0.054455446 19:0.024752475 20:0.044554455 
1 1:0.075284091 2:0.092329545 3:0.069602273 4:0.090909091 5:0.029829545 6:0.048295455 7:0.0085227273 8:0.045454545 9:0.03125 10:0.014204545 11:0.045454545 12:0.066761364 13:0.048295455 14:0.046875 15:0.056818182 16:0.044034091 17:0.055397727 18:0.011363636 19:0.066761364 20:0.052556818 
1 1:0.070247934 2:0.093663912 3:0.055096419 4:0.08953168 5:0.046831956 6:0.038567493 7:0.013774105 8:0.027548209 9:0.041322314 10:0.011019284 11:0.060606061 12:0.063360882 13:0.044077135 14:0.049586777 15:0.02892562 16:0.068870523 17:0.064738292 18:0.033057851 19:0.050964187 20:0.048209366 
0.144363084201786 1:0.0625 2:0.0625 3:0.05625 4:0.03125 5:0.0625 6:0.04375 7:0.0125 8:0.0875 9:0.0375 10:0.00625 11:0.03125 12:0.08125 13:0.0875 14:0.05 15:0.0375 16:0.075 17:0.075 18:0.00625 19:0.08125 20:0.0125 
0.9069046380611294 1:0.10569106 2:0.081300813 3:0.073170732 4:0.06504065 5:0.077235772 6:0.048780488 7:0.020325203 8:0.020325203 9:0.040650407 10:0.016260163 11:0.048780488 12:0.10162602 13:0.032520325 14:0.06097561 15:0.056910569 16:0.040650407 17:0.020325203 18:0.012195122 19:0.048780488 20:0.028455285 
0.8831733187066904 1:0.066666667 2:0.10666667 3:0.11333333 4:0.086666667 5:0.013333333 6:0.0066666667 7:0.013333333 8:0.073333333 9:0.033333333 10:0.013333333 11:0.04 12:0.093333333 13:0.08 14:0.013333333 15:0.02 16:0.053333333 17:0.066666667 18:0.04 19:0.046666667 20:0.02 
1 1:0.074829932 2:0.10204082 3:0.095238095 4:0.088435374 5:0.034013605 6:0.013605442 7:0.013605442 8:0.040816327 9:0.034013605 10:0.013605442 11:0.054421769 12:0.088435374 13:0.081632653 14:0.020408163 15:0 16:0.034013605 17:0.088435374 18:0.034013605 19:0.054421769 20:0.034013605 
0.7275721906066234 1:0.053030303 2:0.068181818 3:0.098484848 4:0.11363636 5:0.037878788 6:0.053030303 7:0.015151515 8:0.0075757576 9:0.045454545 10:0 11:0.037878788 12:0.03030303 13:0.075757576 14:0.037878788 15:0.022727273 16:0.075757576 17:0.083333333 18:0.022727273 19:0.083333333 20:0.037878788 
1 1:0.077894737 2:0.067368421 3:0.04 4:0.067368421 5:0.033684211 6:0.027368421 7:0.010526316 8:0.048421053 9:0.056842105 10:0.021052632 11:0.075789474 12:0.086315789 13:0.046315789 14:0.023157895 15:0.054736842 16:0.058947368 17:0.08 18:0.012631579 19:0.04 20:0.071578947 
1 1:0.054054054 2:0.054054054 3:0.063063063 4:0.12387387 5:0.036036036 6:0.0045045045 7:0.047297297 8:0.063063063 9:0.022522523 10:0.009009009 11:0.058558559 12:0.058558559 13:0.067567568 14:0.036036036 15:0.038288288 16:0.040540541 17:0.078828829 18:0.02027027 19:0.072072072 20:0.051801802 
-3.52030266301498 1:0.07751938 2:0.058139535 3:0.10077519 4:0.15503876 5:0.027131783 6:0.007751938 7:0.019379845 8:0.031007752 9:0.031007752 10:0.007751938 11:0.034883721 12:0.081395349 13:0.065891473 14:0.042635659 15:0.034883721 16:0.054263566 17:0.065891473 18:0.015503876 19:0.062015504 20:0.027131783 
-0.08734237400012414 1:0.054368932 2:0.13203883 3:0.073786408 4:0.081553398 5:0.048543689 6:0.0077669903 7:0.0038834951 8:0.058252427 9:0.034951456 10:0.0077669903 11:0.060194175 12:0.050485437 13:0.036893204 14:0.033009709 15:0.027184466 16:0.067961165 17:0.089320388 18:0.021359223 19:0.093203883 20:0.017475728 
-2.081983675239746 1:0.14723926 2:0.049079755 3:0.049079755 4:0.09202454 5:0.055214724 6:0.012269939 7:0.012269939 8:0.061349693 9:0.030674847 10:0.0061349693 11:0.042944785 12:0.061349693 13:0.049079755 14:0.012269939 15:0.036809816 16:0.067484663 17:0.079754601 18:0.012269939 19:0.098159509 20:0.024539877 
-1.823937576420721 1:0.08839779 2:0.055248619 3:0.082872928 4:0.063535912 5:0.035911602 6:0.019337017 7:0.03038674 8:0.038674033 9:0.03038674 10:0.022099448 11:0.024861878 12:0.091160221 13:0.049723757 14:0.069060773 15:0.033149171 16:0.05801105 17:0.069060773 18:0.033149171 19:0.077348066 20:0.027624309 
-4.3 1:0.088888889 2:0.080555556 3:0.052777778 4:0.055555556 5:0.058333333 6:0.019444444 7:0.019444444 8:0.044444444 9:0.038888889 10:0.019444444 11:0.027777778 12:0.088888889 13:0.05 14:0.061111111 15:0.047222222 16:0.052777778 17:0.069444444 18:0.019444444 19:0.066666667 20:0.038888889 
-2.587467394879817 1:0.098924731 2:0.066666667 3:0.060215054 4:0.094623656 5:0.04516129 6:0.010752688 7:0.017204301 8:0.055913978 9:0.017204301 10:0.012903226 11:0.055913978 12:0.053763441 13:0.049462366 14:0.075268817 15:0.11397849 16:0.027956989 17:0.047311828 18:0.019354839 19:0.032258065 20:0.04516129 
-0.276919807112939 1:0.058962264 2:0.094339623 3:0.033018868 4:0.047169811 5:0.058962264 6:0.0070754717 7:0.0094339623 8:0.033018868 9:0.037735849 10:0.028301887 11:0.058962264 12:0.051886792 13:0.04009434 14:0.025943396 15:0.028301887 16:0.12971698 17:0.10377358 18:0.021226415 19:0.12028302 20:0.011792453 
-3.569136960722672 1:0.059701493 2:0.099502488 3:0.084577114 4:0.094527363 5:0.049751244 6:0.014925373 7:0.024875622 8:0.044776119 9:0.019900498 10:0.019900498 11:0.069651741 12:0.089552239 13:0.039800995 14:0.024875622 15:0.044776119 16:0.054726368 17:0.064676617 18:0.034825871 19:0.034825871 20:0.029850746 
-2.629675814368206 1:0.053475936 2:0.048128342 3:0.096256684 4:0.085561497 5:0.053475936 6:0.016042781 7:0.021390374 8:0.042780749 9:0.037433155 10:0.026737968 11:0.069518717 12:0.080213904 13:0.058823529 14:0.037433155 15:0.042780749 16:0.032085561 17:0.069518717 18:0.058823529 19:0.037433155 20:0.032085561 
-3.114858619528646 1:0.029126214 2:0.04368932 3:0.067961165 4:0.10194175 5:0.072815534 6:0.014563107 7:0.019417476 8:0.058252427 9:0.033980583 10:0.014563107 11:0.024271845 12:0.072815534 13:0.033980583 14:0.058252427 15:0.04368932 16:0.029126214 17:0.12135922 18:0.0097087379 19:0.10194175 20:0.048543689 
-2.203678561873885 1:0.051485149 2:0.14059406 3:0.069306931 4:0.063366337 5:0.053465347 6:0.011881188 7:0.0059405941 8:0.053465347 9:0.033663366 10:0.003960396 11:0.045544554 12:0.047524752 13:0.065346535 14:0.025742574 15:0.027722772 16:0.065346535 17:0.1049505 18:0.011881188 19:0.1049505 20:0.013861386 
-0.6339874087130938 1:0.044715447 2:0.091463415 3:0.081300813 4:0.085365854 5:0.044715447 6:0.014227642 7:0.022357724 8:0.06097561 9:0.036585366 10:0.0081300813 11:0.050813008 12:0.06504065 13:0.042682927 14:0.036585366 15:0.030487805 16:0.095528455 17:0.077235772 18:0.0081300813 19:0.087398374 20:0.016260163 
-0.2545503952482645 1:0.046666667 2:0.051111111 3:0.075555556 4:0.097777778 5:0.073333333 6:0 7:0.02 8:0.026666667 9:0.066666667 10:0.02 11:0.057777778 12:0.068888889 13:0.073333333 14:0.06 15:0.028888889 16:0.051111111 17:0.073333333 18:0.015555556 19:0.04 20:0.053333333 
-0.5532585718664667 1:0.047393365 2:0.061611374 3:0.1042654 4:0.09478673 5:0.071090047 6:0.009478673 7:0.0047393365 8:0.042654028 9:0.023696682 10:0.014218009 11:0.014218009 12:0.071090047 13:0.052132701 14:0.052132701 15:0.042654028 16:0.071090047 17:0.08056872 18:0.014218009 19:0.042654028 20:0.085308057 
-0.509293277122419 1:0.050925926 2:0.032407407 3:0.087962963 4:0.11111111 5:0.055555556 6:0.013888889 7:0.027777778 8:0.064814815 9:0.046296296 10:0.018518519 11:0.013888889 12:0.087962963 13:0.032407407 14:0.037037037 15:0.041666667 16:0.055555556 17:0.078703704 18:0.018518519 19:0.069444444 20:0.055555556 
-1.913154116591308 1:0.08401084 2:0.14092141 3:0.081300813 4:0.097560976 5:0.032520325 6:0.010840108 7:0.0027100271 8:0.043360434 9:0.027100271 10:0.0081300813 11:0.043360434 12:0.054200542 13:0.054200542 14:0.029810298 15:0.0081300813 16:0.059620596 17:0.075880759 18:0.0081300813 19:0.11382114 20:0.024390244 
-0.7856315393187185 1:0.059760956 2:0.051792829 3:0.055776892 4:0.093625498 5:0.077689243 6:0.011952191 7:0.025896414 8:0.033864542 9:0.027888446 10:0.027888446 11:0.071713147 12:0.059760956 13:0.055776892 14:0.061752988 15:0.035856574 16:0.049800797 17:0.081673307 18:0.025896414 19:0.053784861 20:0.037848606 
-2.186518974746765 1:0.065454545 2:0.076363636 3:0.050909091 4:0.13454545 5:0.043636364 6:0.021818182 7:0.021818182 8:0.036363636 9:0.025454545 10:0.029090909 11:0.10545455 12:0.08 13:0.069090909 14:0.025454545 15:0.043636364 16:0.043636364 17:0.036363636 18:0.018181818 19:0.029090909 20:0.043636364 
-4.069862179582948 1:0.073333333 2:0.043333333 3:0.051666667 4:0.11333333 5:0.046666667 6:0.021666667 7:0.028333333 8:0.065 9:0.045 10:0.015 11:0.081666667 12:0.055 13:0.051666667 14:0.031666667 15:0.046666667 16:0.041666667 17:0.058333333 18:0.03 19:0.04 20:0.06 
-4.3 1:0.068071313 2:0.074554295 3:0.072933549 4:0.14100486 5:0.032414911 6:0.030794165 7:0.01458671 8:0.024311183 9:0.017828201 10:0.017828201 11:0.066450567 12:0.09076175 13:0.059967585 14:0.02917342 15:0.035656402 16:0.038897893 17:0.061588331 18:0.021069692 19:0.025931929 20:0.076175041 
-2.983450560681898 1:0.057513915 2:0.079777365 3:0.064935065 4:0.10946197 5:0.051948052 6:0.011131725 7:0.014842301 8:0.033395176 9:0.038961039 10:0.016697588 11:0.044526902 12:0.038961039 13:0.048237477 14:0.06122449 15:0.025974026 16:0.059369202 17:0.081632653 18:0.027829314 19:0.070500928 20:0.063079777 
-0.7632601214768931 1:0.083146067 2:0.080898876 3:0.10561798 4:0.098876404 5:0.047191011 6:0 7:0.008988764 8:0.056179775 9:0.031460674 10:0.008988764 11:0.033707865 12:0.083146067 13:0.053932584 14:0.042696629 15:0.031460674 16:0.049438202 17:0.047191011 18:0.033707865 19:0.058426966 20:0.04494382 
-4.3 1:0.057731959 2:0.053608247 3:0.068041237 4:0.092783505 5:0.045360825 6:0.012371134 7:0.035051546 8:0.026804124 9:0.053608247 10:0.018556701 11:0.032989691 12:0.082474227 13:0.068041237 14:0.057731959 15:0.057731959 16:0.051546392 17:0.057731959 18:0.024742268 19:0.051546392 20:0.051546392 
-3.06861195513138 1:0.049586777 2:0.064049587 3:0.084710744 4:0.08677686 5:0.039256198 6:0.018595041 7:0.01446281 8:0.05785124 9:0.04338843 10:0.0082644628 11:0.051652893 12:0.090909091 13:0.039256198 14:0.061983471 15:0.01446281 16:0.07231405 17:0.059917355 18:0.016528926 19:0.095041322 20:0.030991736 
-1.613106227209167 1:0.051724138 2:0.054187192 3:0.051724138 4:0.049261084 5:0.049261084 6:0.014778325 7:0.017241379 8:0.041871921 9:0.032019704 10:0.027093596 11:0.061576355 12:0.036945813 13:0.04679803 14:0.039408867 15:0.032019704 16:0.14285714 17:0.10344828 18:0.022167488 19:0.10837438 20:0.017241379 
-0.6871095270932651 1:0.052256532 2:0.045130641 3:0.042755344 4:0.06888361 5:0.064133017 6:0.016627078 7:0.014251781 8:0.047505938 9:0.03087886 10:0.023752969 11:0.054631829 12:0.049881235 13:0.033254157 14:0.045130641 15:0.028503563 16:0.10926366 17:0.13776722 18:0.028503563 19:0.085510689 20:0.021377672 
-4.205652319140528 1:0.054545455 2:0.054545455 3:0.075757576 4:0.10606061 5:0.072727273 6:0.015151515 7:0.045454545 8:0.045454545 9:0.036363636 10:0.012121212 11:0.048484848 12:0.072727273 13:0.039393939 14:0.060606061 15:0.048484848 16:0.048484848 17:0.033333333 18:0.027272727 19:0.054545455 20:0.048484848 
-0.5956042625910355 1:0.065769806 2:0.082212257 3:0.061285501 4:0.11958146 5:0.034379671 6:0.020926756 7:0.014947683 8:0.047832586 9:0.019431988 10:0.029895366 11:0.094170404 12:0.092675635 13:0.052316891 14:0.019431988 15:0.047832586 16:0.040358744 17:0.040358744 18:0.02690583 19:0.028400598 20:0.061285501 
