svm_type c_svc
kernel_type rbf
gamma 100
nr_class 2
total_sv 278
rho 0.353292
label 0 1
probA -2.05864
probB -0.203093
nr_sv 113 165
SV
0.7453941931562558 1:0.072908036 2:0.062551781 3:0.043910522 4:0.073322287 5:0.031068766 6:0.021126761 7:0.048467274 8:0.018227009 9:0.018641259 10:0.0049710025 11:0.11806131 12:0.08077879 13:0.051367026 14:0.050952775 15:0.11474731 16:0.032311516 17:0.041839271 18:0.028583264 19:0.044739022 20:0.041425021 
1.027610687929196 1:0.043478261 2:0.056856187 3:0.056856187 4:0.076923077 5:0.030100334 6:0.0066889632 7:0.013377926 8:0.02006689 9:0.016722408 10:0.0066889632 11:0.063545151 12:0.080267559 13:0.060200669 14:0.036789298 15:0.040133779 16:0.10033445 17:0.12374582 18:0.016722408 19:0.12374582 20:0.026755853 
0.8938568663311012 1:0.12195122 2:0.18292683 3:0.073170732 4:0.083333333 5:0.042682927 6:0.006097561 7:0.0081300813 8:0.016260163 9:0.024390244 10:0.0020325203 11:0.075203252 12:0.069105691 13:0.056910569 14:0.040650407 15:0.046747967 16:0.012195122 17:0.058943089 18:0.0040650407 19:0.048780488 20:0.026422764 
0.8946864029996714 1:0.081428571 2:0.10571429 3:0.061428571 4:0.087142857 5:0.033571429 6:0.026428571 7:0.013571429 8:0.036428571 9:0.02 10:0.0092857143 11:0.084285714 12:0.072857143 13:0.040714286 14:0.016428571 15:0.061428571 16:0.046428571 17:0.055 18:0.034285714 19:0.043571429 20:0.07 
1.807657971387629 1:0.059347181 2:0.044510386 3:0.029673591 4:0.10089021 5:0.026706231 6:0.023738872 7:0.026706231 8:0.038575668 9:0.044510386 10:0.0029673591 11:0.077151335 12:0.077151335 13:0.053412463 14:0.050445104 15:0.044510386 16:0.035608309 17:0.091988131 18:0.026706231 19:0.071216617 20:0.074183976 
2.565255652329604 1:0.072335025 2:0.10025381 3:0.08248731 4:0.065989848 5:0.024111675 6:0.0063451777 7:0.016497462 8:0.010152284 9:0.013959391 10:0.0025380711 11:0.041878173 12:0.078680203 13:0.04822335 14:0.034263959 15:0.045685279 16:0.053299492 17:0.19416244 18:0.0076142132 19:0.078680203 20:0.02284264 
0.5460339956475226 1:0.10083037 2:0.090154211 3:0.054567023 4:0.085409253 5:0.039145907 6:0.014234875 7:0.029655991 8:0.024911032 9:0.033214709 10:0.0023724792 11:0.068801898 12:0.12811388 13:0.03202847 14:0.0628707 15:0.042704626 16:0.040332147 17:0.027283511 18:0.039145907 19:0.046263345 20:0.037959668 
0.4412312187733677 1:0.075949367 2:0.082278481 3:0.063291139 4:0.08649789 5:0.016877637 6:0.0063291139 7:0.023206751 8:0.014767932 9:0.021097046 10:0.010548523 11:0.037974684 12:0.088607595 13:0.048523207 14:0.021097046 15:0.056962025 16:0.048523207 17:0.12447257 18:0.018987342 19:0.050632911 20:0.10337553 
3.4 1:0.041025641 2:0.087179487 3:0.051282051 4:0.11111111 5:0.035897436 6:0.0085470085 7:0.022222222 8:0.0068376068 9:0.023931624 10:0.0068376068 11:0.022222222 12:0.087179487 13:0.05982906 14:0.034188034 15:0.052991453 16:0.052991453 17:0.13504274 18:0.011965812 19:0.066666667 20:0.082051282 
0.5810644007759087 1:0.06557377 2:0.06088993 3:0.025761124 4:0.084309133 5:0.049180328 6:0.0070257611 7:0.021077283 8:0.044496487 9:0.014051522 10:0.0093676815 11:0.030444965 12:0.051522248 13:0.035128806 14:0.058548009 15:0.039812646 16:0.077283372 17:0.11241218 18:0.0093676815 19:0.15690867 20:0.046838407 
0.5975603308587597 1:0.087022901 2:0.10992366 3:0.073282443 4:0.06870229 5:0.042748092 6:0.0061068702 7:0.0091603053 8:0.016793893 9:0.016793893 10:0.0030534351 11:0.11450382 12:0.082442748 13:0.067175573 14:0.030534351 15:0.058015267 16:0.029007634 17:0.045801527 18:0.032061069 19:0.039694656 20:0.067175573 
3.4 1:0.0515625 2:0.071875 3:0.0640625 4:0.0609375 5:0.0578125 6:0.0203125 7:0.021875 8:0.0421875 9:0.0265625 10:0.003125 11:0.0421875 12:0.084375 13:0.08125 14:0.053125 15:0.0421875 16:0.0296875 17:0.084375 18:0.0265625 19:0.0828125 20:0.053125 
1.837254267015333 1:0.079276773 2:0.069541029 3:0.055632823 4:0.076495132 5:0.043115438 6:0.018080668 7:0.022253129 8:0.019471488 9:0.031988873 10:0.011126565 11:0.098748261 12:0.083449235 13:0.045897079 14:0.040333797 15:0.054242003 16:0.052851182 17:0.058414465 18:0.033379694 19:0.052851182 20:0.052851182 
2.189517812905855 1:0.042838019 2:0.060240964 3:0.0562249 4:0.066934404 5:0.041499331 6:0.049531459 7:0.025435074 8:0.045515395 9:0.029451138 10:0.010709505 11:0.057563588 12:0.073627845 13:0.042838019 14:0.0562249 15:0.045515395 16:0.0562249 17:0.074966533 18:0.026773762 19:0.082998661 20:0.054886212 
3.4 1:0.074074074 2:0.073170732 3:0.074074074 4:0.11562782 5:0.040650407 6:0.023486902 7:0.020776874 8:0.035230352 9:0.028906956 10:0.009936766 11:0.070460705 12:0.059620596 13:0.042457091 14:0.017163505 15:0.04968383 16:0.054200542 17:0.070460705 18:0.019873532 19:0.041553749 20:0.078590786 
3.4 1:0.093700787 2:0.067716535 3:0.063779528 4:0.082677165 5:0.060629921 6:0.018110236 7:0.024409449 8:0.04015748 9:0.037795276 10:0.0086614173 11:0.056692913 12:0.05984252 13:0.048031496 14:0.049606299 15:0.043307087 16:0.044094488 17:0.071653543 18:0.020472441 19:0.051181102 20:0.057480315 
2.636948404071596 1:0.063716814 2:0.15575221 3:0.07079646 4:0.063716814 5:0.028318584 6:0.028318584 7:0.015929204 8:0.017699115 9:0.019469027 10:0.0088495575 11:0.076106195 12:0.072566372 13:0.083185841 14:0.031858407 15:0.038938053 16:0.042477876 17:0.074336283 18:0.02300885 19:0.044247788 20:0.040707965 
2.12838489225755 1:0.15625 2:0.083333333 3:0.046875 4:0.036458333 5:0.026041667 6:0.078125 7:0.0052083333 8:0.041666667 9:0.046875 10:0.010416667 11:0.036458333 12:0.0625 13:0.046875 14:0.03125 15:0.03125 16:0.020833333 17:0.067708333 18:0.03125 19:0.11979167 20:0.020833333 
3.4 1:0.034313725 2:0.049019608 3:0.056372549 4:0.1004902 5:0.06372549 6:0.026960784 7:0.031862745 8:0.051470588 9:0.029411765 10:0.017156863 11:0.06372549 12:0.06372549 13:0.049019608 14:0.039215686 15:0.058823529 16:0.053921569 17:0.071078431 18:0.022058824 19:0.073529412 20:0.044117647 
1.457383107455896 1:0.097560976 2:0.06097561 3:0.024390244 4:0.097560976 5:0.012195122 6:0.024390244 7:0.024390244 8:0.036585366 9:0.012195122 10:0.018292683 11:0.091463415 12:0.091463415 13:0.054878049 14:0.006097561 15:0.030487805 16:0.067073171 17:0.06097561 18:0.030487805 19:0.042682927 20:0.11585366 
2.589647526525938 1:0.060081466 2:0.048879837 3:0.043788187 4:0.091649695 5:0.049898167 6:0.026476578 7:0.019348269 8:0.032586558 9:0.023421589 10:0.0081466395 11:0.12525458 12:0.082484725 13:0.037678208 14:0.040733198 15:0.037678208 16:0.068228106 17:0.050916497 18:0.028513238 19:0.056008147 20:0.068228106 
1.781822293592666 1:0.07992074 2:0.074636724 3:0.050858653 4:0.089167768 5:0.027741083 6:0.020475561 7:0.014531044 8:0.022457067 9:0.0085865258 10:0.0079260238 11:0.07992074 12:0.12351387 13:0.05680317 14:0.030383091 15:0.052840159 16:0.049537649 17:0.07992074 18:0.019154557 19:0.052840159 20:0.058784676 
1.422456919228355 1:0.11824324 2:0.042567568 3:0.10202703 4:0.070945946 5:0.043918919 6:0.0016891892 7:0.038851351 8:0.025675676 9:0.002027027 10:0.0043918919 11:0.11621622 12:0.066891892 13:0.021621622 14:0.022297297 15:0.014189189 16:0.0875 17:0.061824324 18:0.016554054 19:0.13445946 20:0.0081081081 
3.4 1:0.020992366 2:0.066793893 3:0.061068702 4:0.11832061 5:0.053435115 6:0.013358779 7:0.030534351 8:0.055343511 9:0.034351145 10:0.011450382 11:0.064885496 12:0.049618321 13:0.038167939 14:0.041984733 15:0.04389313 16:0.049618321 17:0.08778626 18:0.032442748 19:0.083969466 20:0.041984733 
3.4 1:0.066895369 2:0.068610635 3:0.044596913 4:0.10806175 5:0.034305317 6:0.017152659 7:0.036020583 8:0.027444254 9:0.036020583 10:0.012006861 11:0.044596913 12:0.060034305 13:0.046312178 14:0.058319039 15:0.048027444 16:0.046312178 17:0.075471698 18:0.025728988 19:0.089193825 20:0.054888508 
3.4 1:0.081256771 2:0.080173348 3:0.053087757 4:0.12026002 5:0.034669556 6:0.02383532 7:0.017334778 8:0.032502709 9:0.022751896 10:0.0065005417 11:0.10617551 12:0.10292524 13:0.03900325 14:0.019501625 15:0.052004334 16:0.043336945 17:0.053087757 18:0.018418202 19:0.045503792 20:0.047670639 
3.4 1:0.063241107 2:0.11067194 3:0.067193676 4:0.11067194 5:0.035573123 6:0.0079051383 7:0.023715415 8:0.043478261 9:0.023715415 10:0 11:0.04743083 12:0.067193676 13:0.055335968 14:0.019762846 15:0.027667984 16:0.039525692 17:0.083003953 18:0.019762846 19:0.055335968 20:0.098814229 
3.4 1:0.10362694 2:0.067357513 3:0.067357513 4:0.094991364 5:0.03626943 6:0.022452504 7:0.015544041 8:0.029360967 9:0.020725389 10:0.0069084629 11:0.11571675 12:0.081174439 13:0.043177893 14:0.022452504 15:0.027633851 16:0.058721934 17:0.062176166 18:0.02417962 19:0.037996546 20:0.062176166 
3.4 1:0.048494983 2:0.06187291 3:0.050167224 4:0.076923077 5:0.046822742 6:0.02006689 7:0.023411371 8:0.043478261 9:0.030100334 10:0.0066889632 11:0.081939799 12:0.093645485 13:0.053511706 14:0.065217391 15:0.063545151 16:0.058528428 17:0.051839465 18:0.028428094 19:0.050167224 20:0.045150502 
3.4 1:0.053445851 2:0.087201125 3:0.05625879 4:0.11533052 5:0.032348805 6:0.025316456 7:0.032348805 8:0.022503516 9:0.025316456 10:0.0084388186 11:0.082981716 12:0.085794655 13:0.064697609 14:0.014064698 15:0.049226442 16:0.049226442 17:0.05766526 18:0.037974684 19:0.022503516 20:0.077355837 
3.28657250086096 1:0.051124744 2:0.036809816 3:0.053169734 4:0.098159509 5:0.063394683 6:0.026584867 7:0.014314928 8:0.049079755 9:0.030674847 10:0.012269939 11:0.047034765 12:0.13701431 13:0.059304703 14:0.032719836 15:0.055214724 16:0.034764826 17:0.059304703 18:0.016359918 19:0.075664622 20:0.047034765 
2.181239911226344 1:0.082066869 2:0.09118541 3:0.039513678 4:0.09118541 5:0.042553191 6:0.015197568 7:0.036474164 8:0.024316109 9:0.018237082 10:0.015197568 11:0.060790274 12:0.048632219 13:0.042553191 14:0.027355623 15:0.045592705 16:0.048632219 17:0.085106383 18:0.030395137 19:0.066869301 20:0.088145897 
3.4 1:0.058548009 2:0.074941452 3:0.046838407 4:0.072599532 5:0.058548009 6:0.011709602 7:0.023419204 8:0.042154567 9:0.042154567 10:0.014051522 11:0.072599532 12:0.10070258 13:0.044496487 14:0.035128806 15:0.051522248 16:0.035128806 17:0.072599532 18:0.030444965 19:0.06323185 20:0.049180328 
0.648328374916861 1:0.13302752 2:0.090214067 3:0.036697248 4:0.093272171 5:0.010703364 6:0.003058104 7:0.019877676 8:0.024464832 9:0.021406728 10:0.004587156 11:0.091743119 12:0.14373089 13:0.042813456 14:0.024464832 15:0.032110092 16:0.04587156 17:0.059633028 18:0.036697248 19:0.035168196 20:0.050458716 
3.098205311402423 1:0.049853372 2:0.1026393 3:0.055718475 4:0.11730205 5:0.008797654 6:0.017595308 7:0.023460411 8:0.035190616 9:0.011730205 10:0.014662757 11:0.099706745 12:0.08797654 13:0.038123167 14:0.017595308 15:0.041055718 16:0.023460411 17:0.08797654 18:0.04398827 19:0.052785924 20:0.070381232 
1.715970467806662 1:0.046370968 2:0.040322581 3:0.068548387 4:0.10282258 5:0.052419355 6:0.038306452 7:0.028225806 8:0.026209677 9:0.034274194 10:0.016129032 11:0.048387097 12:0.064516129 13:0.026209677 14:0.052419355 15:0.066532258 16:0.046370968 17:0.086693548 18:0.028225806 19:0.076612903 20:0.050403226 
3.041044228704263 1:0.066 2:0.094 3:0.048 4:0.086 5:0.034 6:0.006 7:0.028 8:0.028 9:0.012 10:0.014 11:0.062 12:0.08 13:0.05 14:0.044 15:0.04 16:0.04 17:0.098 18:0.012 19:0.088 20:0.07 
3.4 1:0.062370062 2:0.059251559 3:0.06029106 4:0.092515593 5:0.033264033 6:0.025987526 7:0.022869023 8:0.037422037 9:0.040540541 10:0.015592516 11:0.04989605 12:0.095634096 13:0.047817048 14:0.041580042 15:0.044698545 16:0.064449064 17:0.073804574 18:0.024948025 19:0.061330561 20:0.045738046 
1.284721096453765 1:0.059925094 2:0.093632959 3:0.037453184 4:0.078651685 5:0.026217228 6:0.026217228 7:0.026217228 8:0.026217228 9:0.029962547 10:0.014981273 11:0.052434457 12:0.029962547 13:0.037453184 14:0.02247191 15:0.037453184 16:0.059925094 17:0.12734082 18:0.026217228 19:0.086142322 20:0.1011236 
1.264279850320074 1:0.04494382 2:0.059925094 3:0.056179775 4:0.071161049 5:0.041198502 6:0.033707865 7:0.026217228 8:0.02247191 9:0.033707865 10:0.011235955 11:0.04494382 12:0.04494382 13:0.029962547 14:0.029962547 15:0.033707865 16:0.056179775 17:0.14981273 18:0.029962547 19:0.11610487 20:0.063670412 
2.230277577491945 1:0.029090909 2:0.054545455 3:0.054545455 4:0.069090909 5:0.04 6:0.0072727273 7:0.010909091 8:0.065454545 9:0.018181818 10:0.0036363636 11:0.043636364 12:0.08 13:0.036363636 14:0.069090909 15:0.043636364 16:0.054545455 17:0.12 18:0.014545455 19:0.11272727 20:0.072727273 
0.2851719589835108 1:0.018957346 2:0.061611374 3:0.042654028 4:0.066350711 5:0.047393365 6:0.018957346 7:0.028436019 8:0.037914692 9:0.037914692 10:0 11:0.14691943 12:0.09478673 13:0.037914692 14:0.071090047 15:0.066350711 16:0.052132701 17:0.014218009 18:0.042654028 19:0.052132701 20:0.061611374 
3.4 1:0.038594073 2:0.05306685 3:0.048242591 4:0.084769125 5:0.070985527 6:0.0048242591 7:0.013783598 8:0.039972433 9:0.042039972 10:0.0075809786 11:0.031013094 12:0.068228808 13:0.043418332 14:0.068228808 15:0.040661613 16:0.084769125 17:0.1061337 18:0.022742936 19:0.079944866 20:0.050999311 
3.4 1:0.041666667 2:0.041666667 3:0.041666667 4:0.13636364 5:0.049242424 6:0.022727273 7:0.015151515 8:0.026515152 9:0.015151515 10:0 11:0.026515152 12:0.10606061 13:0.064393939 14:0.056818182 15:0.056818182 16:0.037878788 17:0.09469697 18:0.022727273 19:0.075757576 20:0.068181818 
0.9642369440198911 1:0.053571429 2:0.058035714 3:0.022321429 4:0.16517857 5:0.049107143 6:0.022321429 7:0.040178571 8:0.017857143 9:0.03125 10:0.0089285714 11:0.013392857 12:0.075892857 13:0.03125 14:0.049107143 15:0.080357143 16:0.022321429 17:0.080357143 18:0.0089285714 19:0.080357143 20:0.089285714 
3.4 1:0.09223301 2:0.089805825 3:0.050970874 4:0.075242718 5:0.041262136 6:0.014563107 7:0.02184466 8:0.031553398 9:0.031553398 10:0.014563107 11:0.067961165 12:0.048543689 13:0.031553398 14:0.038834951 15:0.04368932 16:0.048543689 17:0.097087379 18:0.024271845 19:0.04368932 20:0.09223301 
2.545679447549333 1:0.033333333 2:0.057142857 3:0.038095238 4:0.13333333 5:0.047619048 6:0.014285714 7:0.052380952 8:0.033333333 9:0.023809524 10:0 11:0.042857143 12:0.071428571 13:0.019047619 14:0.047619048 15:0.10952381 16:0.061904762 17:0.071428571 18:0.033333333 19:0.047619048 20:0.061904762 
0.1311630214067237 1:0.10769231 2:0.061538462 3:0.066666667 4:0.087179487 5:0.030769231 6:0.015384615 7:0.051282051 8:0.030769231 9:0.025641026 10:0.015384615 11:0.035897436 12:0.082051282 13:0.01025641 14:0.041025641 15:0.015384615 16:0.076923077 17:0.076923077 18:0.015384615 19:0.11794872 20:0.035897436 
1.823827003893319 1:0.074074074 2:0.074074074 3:0.057613169 4:0.090534979 5:0.012345679 6:0.012345679 7:0.049382716 8:0.037037037 9:0.020576132 10:0.012345679 11:0.057613169 12:0.090534979 13:0.057613169 14:0.041152263 15:0.012345679 16:0.061728395 17:0.086419753 18:0.0082304527 19:0.098765432 20:0.04526749 
0.7088545010199093 1:0.084656085 2:0.026455026 3:0.068783069 4:0.068783069 5:0.042328042 6:0.037037037 7:0.031746032 8:0.031746032 9:0.042328042 10:0.015873016 11:0.042328042 12:0.079365079 13:0.042328042 14:0.047619048 15:0.015873016 16:0.058201058 17:0.1005291 18:0.0052910053 19:0.1005291 20:0.058201058 
0.2034412826544406 1:0.076628352 2:0.072796935 3:0.072796935 4:0.088122605 5:0.049808429 6:0.01532567 7:0.030651341 8:0.01532567 9:0.019157088 10:0.011494253 11:0.030651341 12:0.1532567 13:0.072796935 14:0.030651341 15:0.030651341 16:0.061302682 17:0.053639847 18:0.0038314176 19:0.061302682 20:0.049808429 
2.059276754859954 1:0.11788618 2:0.069105691 3:0.077235772 4:0.081300813 5:0.024390244 6:0 7:0.032520325 8:0.028455285 9:0.0081300813 10:0.016260163 11:0.044715447 12:0.085365854 13:0.048780488 14:0.048780488 15:0.032520325 16:0.048780488 17:0.077235772 18:0.012195122 19:0.085365854 20:0.06097561 
1.270068212394506 1:0.085714286 2:0.062857143 3:0.068571429 4:0.068571429 5:0.034285714 6:0.011428571 7:0.045714286 8:0.04 9:0.051428571 10:0.017142857 11:0.022857143 12:0.14285714 13:0.04 14:0.057142857 15:0.0057142857 16:0.051428571 17:0.091428571 18:0.011428571 19:0.034285714 20:0.057142857 
2.183347946535706 1:0.051612903 2:0.05483871 3:0.093548387 4:0.10322581 5:0.041935484 6:0.0096774194 7:0.022580645 8:0.032258065 9:0.032258065 10:0 11:0.041935484 12:0.070967742 13:0.041935484 14:0.041935484 15:0.012903226 16:0.048387097 17:0.070967742 18:0.041935484 19:0.12903226 20:0.058064516 
1.470788803041327 1:0.070945946 2:0.033783784 3:0.027027027 4:0.060810811 5:0.027027027 6:0.016891892 7:0.043918919 8:0.040540541 9:0.027027027 10:0.013513514 11:0.067567568 12:0.12162162 13:0.081081081 14:0.12837838 15:0.054054054 16:0.037162162 17:0.027027027 18:0.027027027 19:0.047297297 20:0.047297297 
2.456046561575615 1:0.04048583 2:0.028340081 3:0.044534413 4:0.13360324 5:0.04048583 6:0.008097166 7:0.044534413 8:0.032388664 9:0.020242915 10:0.004048583 11:0.04048583 12:0.04048583 13:0.060728745 14:0.052631579 15:0.089068826 16:0.04048583 17:0.10526316 18:0.036437247 19:0.076923077 20:0.060728745 
3.233867811080039 1:0.057268722 2:0.035242291 3:0.057268722 4:0.10572687 5:0.070484581 6:0.0044052863 7:0.022026432 8:0.026431718 9:0.030837004 10:0.0044052863 11:0.026431718 12:0.066079295 13:0.04845815 14:0.070484581 15:0.04845815 16:0.052863436 17:0.074889868 18:0.039647577 19:0.079295154 20:0.079295154 
3.4 1:0.088825215 2:0.091690544 3:0.068767908 4:0.094555874 5:0.068767908 6:0.014326648 7:0.028653295 8:0.040114613 9:0.022922636 10:0 11:0.031518625 12:0.048710602 13:0.051575931 14:0.028653295 15:0.045845272 16:0.05730659 17:0.083094556 18:0.017191977 19:0.065902579 20:0.051575931 
3.4 1:0.053164557 2:0.07721519 3:0.064556962 4:0.091139241 5:0.060759494 6:0.016455696 7:0.017721519 8:0.041772152 9:0.024050633 10:0.0063291139 11:0.049367089 12:0.082278481 13:0.062025316 14:0.039240506 15:0.032911392 16:0.064556962 17:0.067088608 18:0.012658228 19:0.087341772 20:0.049367089 
3.4 1:0.061979648 2:0.062904718 3:0.064754857 4:0.098057354 5:0.067530065 6:0.017576318 7:0.024976873 8:0.039777983 9:0.037002775 10:0.0055504163 11:0.049953747 12:0.07400555 13:0.051803885 14:0.036077706 15:0.040703053 16:0.049953747 17:0.067530065 18:0.018501388 19:0.070305273 20:0.061054579 
3.4 1:0.056066176 2:0.0625 3:0.068933824 4:0.099264706 5:0.073529412 6:0.022058824 7:0.023897059 8:0.042279412 9:0.037683824 10:0.0073529412 11:0.045955882 12:0.073529412 13:0.045036765 14:0.040441176 15:0.036764706 16:0.049632353 17:0.068933824 18:0.021139706 19:0.0625 20:0.0625 
0.9547581045666905 1:0.044444444 2:0.075555556 3:0.057777778 4:0.044444444 5:0.035555556 6:0.017777778 7:0.017777778 8:0.057777778 9:0.0088888889 10:0.013333333 11:0.10222222 12:0.10222222 13:0.053333333 14:0.053333333 15:0.035555556 16:0.093333333 17:0.026666667 18:0.017777778 19:0.035555556 20:0.10666667 
2.044803693176954 1:0.064066852 2:0.1086351 3:0.04178273 4:0.091922006 5:0.033426184 6:0.019498607 7:0.025069638 8:0.027855153 9:0.033426184 10:0.013927577 11:0.027855153 12:0.058495822 13:0.04735376 14:0.022284123 15:0.038997214 16:0.052924791 17:0.08913649 18:0.066852368 19:0.050139276 20:0.086350975 
0.9375305636027815 1:0.01459854 2:0.21167883 3:0.098540146 4:0.03649635 5:0.025547445 6:0 7:0.0072992701 8:0.010948905 9:0.0072992701 10:0 11:0.069343066 12:0.062043796 13:0.087591241 14:0.01459854 15:0.0072992701 16:0.01459854 17:0.051094891 18:0.003649635 19:0.23357664 20:0.04379562 
1.018329381252116 1:0.030769231 2:0.18846154 3:0.042307692 4:0.026923077 5:0.015384615 6:0 7:0.0038461538 8:0.015384615 9:0.0076923077 10:0 11:0.12692308 12:0.05 13:0.05 14:0.011538462 15:0.0076923077 16:0.019230769 17:0.076923077 18:0.0076923077 19:0.31153846 20:0.0076923077 
1.616680296610615 1:0.064516129 2:0.12903226 3:0.064516129 4:0.12903226 5:0.064516129 6:0 7:0.064516129 8:0 9:0 10:0 11:0 12:0.064516129 13:0.12903226 14:0 15:0.032258065 16:0 17:0.064516129 18:0 19:0.16129032 20:0.032258065 
0.2325249057188009 1:0.026415094 2:0.16981132 3:0.11698113 4:0.030188679 5:0.030188679 6:0 7:0.0075471698 8:0.011320755 9:0.0075471698 10:0 11:0.098113208 12:0.064150943 13:0.056603774 14:0.018867925 15:0.01509434 16:0.0037735849 17:0.064150943 18:0.0037735849 19:0.26415094 20:0.011320755 
0.4935400008553048 1:0.038216561 2:0.14649682 3:0.076433121 4:0.038216561 5:0.038216561 6:0 7:0.01910828 8:0.01910828 9:0.025477707 10:0 11:0.063694268 12:0.082802548 13:0.057324841 14:0.01910828 15:0.01910828 16:0.025477707 17:0.089171975 18:0.012738854 19:0.21019108 20:0.01910828 
0.7325568228276399 1:0.061643836 2:0.13013699 3:0.054794521 4:0.047945205 5:0.061643836 6:0 7:0.02739726 8:0.02739726 9:0.020547945 10:0 11:0.068493151 12:0.075342466 13:0.047945205 14:0.020547945 15:0.0068493151 16:0.034246575 17:0.075342466 18:0.020547945 19:0.15753425 20:0.061643836 
3.4 1:0.094890511 2:0.047445255 3:0.054744526 4:0.087591241 5:0.032846715 6:0.032846715 7:0.01459854 8:0.03649635 9:0.01459854 10:0.003649635 11:0.051094891 12:0.10218978 13:0.072992701 14:0.040145985 15:0.051094891 16:0.040145985 17:0.080291971 18:0.018248175 19:0.065693431 20:0.058394161 
0.9343303294978097 1:0.12034384 2:0.085959885 3:0.042979943 4:0.040114613 5:0.011461318 6:0.0028653295 7:0.031518625 8:0.014326648 9:0.028653295 10:0.011461318 11:0.12034384 12:0.10888252 13:0.048710602 14:0.06017192 15:0.042979943 16:0.031518625 17:0.077363897 18:0.028653295 19:0.054441261 20:0.037249284 
3.4 1:0.055033557 2:0.072483221 3:0.06442953 4:0.091275168 5:0.041610738 6:0.013422819 7:0.02147651 8:0.034899329 9:0.013422819 10:0.013422819 11:0.04295302 12:0.10604027 13:0.060402685 14:0.038926174 15:0.04966443 16:0.057718121 17:0.076510067 18:0.025503356 19:0.056375839 20:0.06442953 
0.07229980842636564 1:0.034090909 2:0.034090909 3:0 4:0.13636364 5:0.034090909 6:0.022727273 7:0.011363636 8:0.011363636 9:0.034090909 10:0.056818182 11:0.045454545 12:0.056818182 13:0.011363636 14:0.045454545 15:0.056818182 16:0.034090909 17:0.090909091 18:0.022727273 19:0.18181818 20:0.079545455 
0.04850247786146529 1:0.035294118 2:0.047058824 3:0.011764706 4:0.11764706 5:0.023529412 6:0.011764706 7:0.035294118 8:0.023529412 9:0.035294118 10:0.058823529 11:0.058823529 12:0.058823529 13:0.035294118 14:0.047058824 15:0.023529412 16:0.047058824 17:0.058823529 18:0.023529412 19:0.15294118 20:0.094117647 
0.6860104798757842 1:0.070588235 2:0.047058824 3:0 4:0.12941176 5:0.023529412 6:0 7:0.011764706 8:0.023529412 9:0.047058824 10:0.058823529 11:0.058823529 12:0.023529412 13:0.035294118 14:0.035294118 15:0.058823529 16:0.011764706 17:0.082352941 18:0.047058824 19:0.16470588 20:0.070588235 
0.6276563499076645 1:0.034090909 2:0.068181818 3:0 4:0.14772727 5:0.022727273 6:0 7:0 8:0.011363636 9:0.045454545 10:0.068181818 11:0.034090909 12:0.068181818 13:0.011363636 14:0.068181818 15:0.056818182 16:0.034090909 17:0.068181818 18:0.034090909 19:0.13636364 20:0.090909091 
1.126526199379842 1:0.055555556 2:0.11805556 3:0.048611111 4:0.020833333 5:0.0069444444 6:0 7:0.013888889 8:0.034722222 9:0.020833333 10:0.0069444444 11:0.041666667 12:0.069444444 13:0.027777778 14:0.048611111 15:0.041666667 16:0.11111111 17:0.097222222 18:0.0069444444 19:0.20138889 20:0.027777778 
1.008268194908566 1:0.074534161 2:0.1863354 3:0.037267081 4:0.01863354 5:0.01242236 6:0 7:0.01242236 8:0.031055901 9:0.01863354 10:0.0062111801 11:0.043478261 12:0.074534161 13:0 14:0.043478261 15:0.0062111801 16:0.086956522 17:0.13043478 18:0 19:0.19875776 20:0.01863354 
3.4 1:0.054131054 2:0.037037037 3:0.082621083 4:0.07977208 5:0.045584046 6:0.0028490028 7:0.042735043 8:0.045584046 9:0.017094017 10:0.014245014 11:0.03988604 12:0.085470085 13:0.054131054 14:0.037037037 15:0.068376068 16:0.065527066 17:0.1025641 18:0.014245014 19:0.056980057 20:0.054131054 
0.5526855859919846 1:0.075901328 2:0.066413662 3:0.05313093 4:0.079696395 5:0.04743833 6:0.009487666 7:0.034155598 8:0.036053131 9:0.009487666 10:0.011385199 11:0.075901328 12:0.096774194 13:0.036053131 14:0.05313093 15:0.087286528 16:0.060721063 17:0.058823529 18:0.018975332 19:0.05313093 20:0.036053131 
0.4363950796166151 1:0.042424242 2:0.036363636 3:0.060606061 4:0.060606061 5:0.066666667 6:0.012121212 7:0.024242424 8:0.036363636 9:0.018181818 10:0.0060606061 11:0.012121212 12:0.084848485 13:0.042424242 14:0.03030303 15:0.018181818 16:0.078787879 17:0.15151515 18:0.0060606061 19:0.15757576 20:0.054545455 
2.958257211909483 1:0.076923077 2:0.087912088 3:0.035714286 4:0.11263736 5:0.027472527 6:0.0082417582 7:0.024725275 8:0.021978022 9:0.035714286 10:0.016483516 11:0.06043956 12:0.10164835 13:0.032967033 14:0.027472527 15:0.071428571 16:0.032967033 17:0.07967033 18:0.049450549 19:0.06043956 20:0.035714286 
1.212939595578301 1:0.17808219 2:0.047945205 3:0.061643836 4:0.061643836 5:0.034246575 6:0.020547945 7:0.034246575 8:0.0068493151 9:0.020547945 10:0.01369863 11:0.054794521 12:0.04109589 13:0.04109589 14:0.034246575 15:0.020547945 16:0.068493151 17:0.047945205 18:0.020547945 19:0.075342466 20:0.11643836 
3.4 1:0.028708134 2:0.076555024 3:0.10047847 4:0.076555024 5:0.066985646 6:0.014354067 7:0.033492823 8:0.038277512 9:0.033492823 10:0.019138756 11:0.028708134 12:0.081339713 13:0.057416268 14:0.033492823 15:0.023923445 16:0.066985646 17:0.09569378 18:0.014354067 19:0.076555024 20:0.033492823 
3.4 1:0.073333333 2:0.085 3:0.076666667 4:0.086666667 5:0.06 6:0.01 7:0.038333333 8:0.016666667 9:0.026666667 10:0.0016666667 11:0.03 12:0.063333333 13:0.051666667 14:0.045 15:0.038333333 16:0.078333333 17:0.068333333 18:0.028333333 19:0.053333333 20:0.068333333 
2.853939114958902 1:0.053701016 2:0.047895501 3:0.039187228 4:0.082728592 5:0.043541364 6:0.044992743 7:0.015965167 8:0.034833091 9:0.037735849 10:0.0087082729 11:0.037735849 12:0.074020319 13:0.044992743 14:0.04934688 15:0.037735849 16:0.078374456 17:0.10014514 18:0.026124819 19:0.074020319 20:0.068214804 
1.505721742341639 1:0.030261348 2:0.071526823 3:0.057771664 4:0.13480055 5:0.034387895 6:0.0055020633 7:0.011004127 8:0.015130674 9:0.012379642 10:0.0013755158 11:0.013755158 12:0.10729023 13:0.044016506 14:0.044016506 15:0.038514443 16:0.053645117 17:0.14305365 18:0.0096286107 19:0.11554333 20:0.056396149 
3.4 1:0.065060241 2:0.06746988 3:0.081927711 4:0.079518072 5:0.036144578 6:0.0096385542 7:0.024096386 8:0.038554217 9:0.021686747 10:0.031325301 11:0.053012048 12:0.077108434 13:0.043373494 14:0.043373494 15:0.043373494 16:0.074698795 17:0.091566265 18:0.036144578 19:0.048192771 20:0.03373494 
3.4 1:0.086092715 2:0.10927152 3:0.049668874 4:0.089403974 5:0.029801325 6:0.033112583 7:0.0099337748 8:0.033112583 9:0.026490066 10:0.023178808 11:0.066225166 12:0.079470199 13:0.013245033 14:0.043046358 15:0.049668874 16:0.059602649 17:0.07615894 18:0.026490066 19:0.049668874 20:0.046357616 
0.1822152682128435 1:0.039735099 2:0.13245033 3:0.059602649 4:0.099337748 5:0.013245033 6:0 7:0.039735099 8:0.0066225166 9:0.01986755 10:0.0066225166 11:0.052980132 12:0.092715232 13:0.033112583 14:0.026490066 15:0.052980132 16:0.066225166 17:0.079470199 18:0.026490066 19:0.013245033 20:0.13907285 
1.29729282502376 1:0.055276382 2:0.070351759 3:0.025125628 4:0.087939698 5:0.032663317 6:0.0050251256 7:0.040201005 8:0.022613065 9:0.012562814 10:0.0050251256 11:0.042713568 12:0.09798995 13:0.052763819 14:0.055276382 15:0.15577889 16:0.050251256 17:0.06281407 18:0.025125628 19:0.052763819 20:0.047738693 
0.6348905128760599 1:0.052884615 2:0.0625 3:0.043269231 4:0.10096154 5:0.081730769 6:0.014423077 7:0.0625 8:0.019230769 9:0.014423077 10:0.0048076923 11:0.014423077 12:0.048076923 13:0.014423077 14:0.0625 15:0.072115385 16:0.0625 17:0.076923077 18:0.028846154 19:0.096153846 20:0.067307692 
2.359881763052715 1:0.052419355 2:0.068548387 3:0.10483871 4:0.044354839 5:0.028225806 6:0.0080645161 7:0.012096774 8:0.060483871 9:0.016129032 10:0.012096774 11:0.044354839 12:0.068548387 13:0.092741935 14:0.040322581 15:0.012096774 16:0.10483871 17:0.076612903 18:0.016129032 19:0.056451613 20:0.080645161 
3.4 1:0.043887147 2:0.072100313 3:0.078369906 4:0.078369906 5:0.068965517 6:0.018808777 7:0.034482759 8:0.034482759 9:0.021943574 10:0.0031347962 11:0.040752351 12:0.07523511 13:0.068965517 14:0.028213166 15:0.028213166 16:0.084639498 17:0.087774295 18:0.021943574 19:0.065830721 20:0.043887147 
3.4 1:0.096590909 2:0.056818182 3:0.10795455 4:0.0625 5:0.079545455 6:0.022727273 7:0.034090909 8:0.085227273 9:0.011363636 10:0 11:0.039772727 12:0.028409091 13:0.0625 14:0.034090909 15:0.028409091 16:0.0625 17:0.051136364 18:0.022727273 19:0.068181818 20:0.045454545 
3.099622699524673 1:0.056338028 2:0.056338028 3:0.070422535 4:0.14084507 5:0.042253521 6:0.056338028 7:0.056338028 8:0.014084507 9:0.056338028 10:0.014084507 11:0.028169014 12:0.014084507 13:0.056338028 14:0.056338028 15:0.014084507 16:0.084507042 17:0.056338028 18:0.014084507 19:0.056338028 20:0.056338028 
2.250540431626997 1:0.059659091 2:0.0625 3:0.053977273 4:0.073863636 5:0.051136364 6:0 7:0.014204545 8:0.036931818 9:0.017045455 10:0.0085227273 11:0.071022727 12:0.053977273 13:0.051136364 14:0.053977273 15:0.036931818 16:0.056818182 17:0.082386364 18:0.025568182 19:0.15340909 20:0.036931818 
1.634563658049331 1:0.075842697 2:0.061797753 3:0.04494382 4:0.028089888 5:0.02247191 6:0.0028089888 7:0.014044944 8:0.030898876 9:0.047752809 10:0.0028089888 11:0.084269663 12:0.10955056 13:0.02247191 14:0.030898876 15:0.014044944 16:0.070224719 17:0.092696629 18:0.0056179775 19:0.050561798 20:0.18820225 
1.682487118296228 1:0.086419753 2:0.037037037 3:0.14814815 4:0.074074074 5:0.061728395 6:0 7:0.061728395 8:0.024691358 9:0.012345679 10:0 11:0.037037037 12:0.037037037 13:0.049382716 14:0.11111111 15:0.049382716 16:0.049382716 17:0.049382716 18:0 19:0.061728395 20:0.049382716 
2.727768825138058 1:0.085201794 2:0.096412556 3:0.089686099 4:0.082959641 5:0.040358744 6:0.020179372 7:0.01793722 8:0.042600897 9:0.015695067 10:0.02690583 11:0.02690583 12:0.076233184 13:0.073991031 14:0.033632287 15:0.022421525 16:0.067264574 17:0.047085202 18:0.031390135 19:0 20:0.10313901 
0.3573532897743186 1:0.087799316 2:0.057012543 3:0.057012543 4:0.069555302 5:0.029646522 6:0.0068415051 7:0.042189282 8:0.034207526 9:0.017103763 10:0.0057012543 11:0.06613455 12:0.10718358 13:0.028506271 14:0.088939567 15:0.15507412 16:0.021664766 17:0.038768529 18:0.014823261 19:0.027366021 20:0.044469783 
3.4 1:0.085139319 2:0.052631579 3:0.069659443 4:0.07120743 5:0.043343653 6:0 7:0.021671827 8:0.051083591 9:0.023219814 10:0.0077399381 11:0.046439628 12:0.089783282 13:0.043343653 14:0.046439628 15:0.040247678 16:0.091331269 17:0.063467492 18:0.024767802 19:0.089783282 20:0.03869969 
1.320187943773954 1:0.092405063 2:0.048101266 3:0.083544304 4:0.073417722 5:0.051898734 6:0.032911392 7:0.021518987 8:0.025316456 9:0.032911392 10:0.0063291139 11:0.041772152 12:0.086075949 13:0.030379747 14:0.040506329 15:0.035443038 16:0.056962025 17:0.082278481 18:0.016455696 19:0.082278481 20:0.059493671 
3.4 1:0.081538462 2:0.061538462 3:0.075384615 4:0.076923077 5:0.046153846 6:0.021538462 7:0.030769231 8:0.043076923 9:0.035384615 10:0.0092307692 11:0.06 12:0.090769231 13:0.036923077 14:0.049230769 15:0.04 16:0.066153846 17:0.061538462 18:0.016923077 19:0.026153846 20:0.070769231 
3.4 1:0.055 2:0.09 3:0.07 4:0.08 5:0.085 6:0.015 7:0.03 8:0.06 9:0.035 10:0 11:0.055 12:0.065 13:0.04 14:0.035 15:0.035 16:0.04 17:0.05 18:0.01 19:0.1 20:0.05 
3.4 1:0.10300429 2:0.11587983 3:0.094420601 4:0.081545064 5:0.064377682 6:0.012875536 7:0.025751073 8:0.042918455 9:0.034334764 10:0 11:0.051502146 12:0.060085837 13:0.034334764 14:0.025751073 15:0.038626609 16:0.034334764 17:0.042918455 18:0.012875536 19:0.068669528 20:0.055793991 
3.4 1:0.052734375 2:0.059570312 3:0.065429688 4:0.12207031 5:0.052734375 6:0.021484375 7:0.017578125 8:0.04296875 9:0.028320312 10:0.00390625 11:0.041992188 12:0.095703125 13:0.0390625 14:0.032226562 15:0.032226562 16:0.061523438 17:0.071289062 18:0.02734375 19:0.081054688 20:0.05078125 
0.3549183233385833 1:0.037383178 2:0.056074766 3:0.028037383 4:0.093457944 5:0.065420561 6:0 7:0.037383178 8:0.037383178 9:0.037383178 10:0 11:0.028037383 12:0.070093458 13:0.028037383 14:0.03271028 15:0.046728972 16:0.046728972 17:0.10747664 18:0.028037383 19:0.14018692 20:0.079439252 
3.4 1:0.047376093 2:0.039358601 3:0.078717201 4:0.10932945 5:0.053206997 6:0.023323615 7:0.024781341 8:0.042274052 9:0.024781341 10:0.0094752187 11:0.043731778 12:0.093294461 13:0.040816327 14:0.055393586 15:0.04154519 16:0.059766764 17:0.072886297 18:0.021137026 19:0.064139942 20:0.054664723 
0.5674537126223953 1:0.048850575 2:0.031609195 3:0.060344828 4:0.074712644 5:0.022988506 6:0.022988506 7:0.0086206897 8:0.028735632 9:0.014367816 10:0.014367816 11:0.10344828 12:0.11781609 13:0.063218391 14:0.045977011 15:0.066091954 16:0.08045977 17:0.077586207 18:0.017241379 19:0.048850575 20:0.051724138 
3.4 1:0.052975327 2:0.041364296 3:0.07329463 4:0.12119013 5:0.053701016 6:0.026124819 7:0.019593614 8:0.047169811 9:0.02394775 10:0.01161103 11:0.044267054 12:0.08490566 13:0.041364296 14:0.056603774 15:0.038461538 16:0.058780842 17:0.07256894 18:0.023222061 19:0.057329463 20:0.051523948 
3.4 1:0.049792531 2:0.053941909 3:0.066390041 4:0.078838174 5:0.049792531 6:0.029045643 7:0.033195021 8:0.037344398 9:0.049792531 10:0.0082987552 11:0.037344398 12:0.091286307 13:0.049792531 14:0.058091286 15:0.053941909 16:0.074688797 17:0.049792531 18:0.029045643 19:0.053941909 20:0.045643154 
3.09804925196774 1:0.02811245 2:0.060240964 3:0.048192771 4:0.072289157 5:0.052208835 6:0.024096386 7:0.032128514 8:0.044176707 9:0.052208835 10:0.0080321285 11:0.0562249 12:0.092369478 13:0.0562249 14:0.052208835 15:0.0562249 16:0.092369478 17:0.052208835 18:0.024096386 19:0.052208835 20:0.044176707 
-2 1:0.048582996 2:0.10526316 3:0.052631579 4:0.10526316 5:0.036437247 6:0.016194332 7:0.028340081 8:0.016194332 9:0.036437247 10:0.008097166 11:0.012145749 12:0.064777328 13:0.052631579 14:0.044534413 15:0.052631579 16:0.060728745 17:0.12550607 18:0.004048583 19:0.08097166 20:0.048582996 
-2 1:0.050383352 2:0.056955093 3:0.050383352 4:0.11500548 5:0.033953998 6:0.015334064 7:0.026286966 8:0.031763417 9:0.014238773 10:0.004381161 11:0.061336254 12:0.10952903 13:0.059145674 14:0.039430449 15:0.064622125 16:0.040525739 17:0.10186199 18:0.023001095 19:0.049288061 20:0.052573932 
-2 1:0.07699115 2:0.085840708 3:0.054867257 4:0.084955752 5:0.02920354 6:0.012389381 7:0.015929204 8:0.025663717 9:0.026548673 10:0.011504425 11:0.079646018 12:0.10619469 13:0.057522124 14:0.03539823 15:0.02920354 16:0.037168142 17:0.080530973 18:0.021238938 19:0.072566372 20:0.056637168 
-2 1:0.029411765 2:0.029411765 3:0.068627451 4:0.10784314 5:0.039215686 6:0 7:0.029411765 8:0.058823529 9:0.039215686 10:0.0098039216 11:0.049019608 12:0.088235294 13:0.058823529 14:0.049019608 15:0.078431373 16:0.068627451 17:0.088235294 18:0.019607843 19:0.068627451 20:0.019607843 
-0.4112527273343248 1:0.052147239 2:0.049079755 3:0.067484663 4:0.09202454 5:0.064417178 6:0.015337423 7:0.024539877 8:0.039877301 9:0.04601227 10:0.012269939 11:0.064417178 12:0.055214724 13:0.055214724 14:0.052147239 15:0.024539877 16:0.049079755 17:0.085889571 18:0.027607362 19:0.076687117 20:0.04601227 
-0.5508292027998631 1:0.032 2:0.04 3:0.024 4:0.048 5:0.04 6:0.048 7:0.024 8:0.056 9:0.024 10:0.032 11:0.056 12:0.056 13:0.048 14:0.024 15:0.072 16:0.112 17:0.072 18:0.024 19:0.056 20:0.112 
-2 1:0.063063063 2:0.10810811 3:0.036036036 4:0.072072072 5:0.009009009 6:0 7:0.027027027 8:0.018018018 9:0.027027027 10:0 11:0.09009009 12:0.063063063 13:0.054054054 14:0.018018018 15:0.063063063 16:0.063063063 17:0.09009009 18:0.018018018 19:0.14414414 20:0.036036036 
-2 1:0.051282051 2:0.052083333 3:0.069711538 4:0.11137821 5:0.052884615 6:0.032852564 7:0.020833333 8:0.040064103 9:0.024839744 10:0.020833333 11:0.024038462 12:0.081730769 13:0.050480769 14:0.041666667 15:0.046474359 16:0.068910256 17:0.0625 18:0.038461538 19:0.071314103 20:0.037660256 
-2 1:0.078994614 2:0.044883303 3:0.052064632 4:0.071813285 5:0.037701975 6:0.057450628 7:0.028725314 8:0.028725314 9:0.044883303 10:0.021543986 11:0.030520646 12:0.044883303 13:0.035906643 14:0.053859964 15:0.052064632 16:0.071813285 17:0.1005386 18:0.032315978 19:0.064631957 20:0.046678636 
-2 1:0.055232558 2:0.063953488 3:0.061046512 4:0.11627907 5:0.052325581 6:0.014534884 7:0.023255814 8:0.029069767 9:0.037790698 10:0.011627907 11:0.072674419 12:0.063953488 13:0.040697674 14:0.034883721 15:0.037790698 16:0.034883721 17:0.072674419 18:0.037790698 19:0.063953488 20:0.075581395 
-2 1:0.11730205 2:0.058651026 3:0.04398827 4:0.093841642 5:0.023460411 6:0.0058651026 7:0.023460411 8:0.029325513 9:0.026392962 10:0.014662757 11:0.06744868 12:0.064516129 13:0.04398827 14:0.023460411 15:0.049853372 16:0.08797654 17:0.10557185 18:0.008797654 19:0.04398827 20:0.06744868 
-2 1:0.077220077 2:0.073359073 3:0.077220077 4:0.065637066 5:0.042471042 6:0.027027027 7:0.011583012 8:0.042471042 9:0.030888031 10:0.027027027 11:0.065637066 12:0.077220077 13:0.038610039 14:0.042471042 15:0.038610039 16:0.054054054 17:0.054054054 18:0.057915058 19:0.061776062 20:0.034749035 
-0.9824948617454973 1:0.062119367 2:0.053593179 3:0.053593179 4:0.071863581 5:0.057247259 6:0.019488429 7:0.02679659 8:0.056029233 9:0.03045067 10:0.020706456 11:0.047503045 12:0.065773447 13:0.048721072 14:0.049939099 15:0.045066991 16:0.069427527 17:0.073081608 18:0.025578563 19:0.070645554 20:0.052375152 
-2 1:0.050796813 2:0.072709163 3:0.059760956 4:0.13346614 5:0.02689243 6:0.028884462 7:0.022908367 8:0.020916335 9:0.017928287 10:0.0099601594 11:0.039840637 12:0.086653386 13:0.042828685 14:0.017928287 15:0.069721116 16:0.052788845 17:0.096613546 18:0.024900398 19:0.045816733 20:0.078685259 
-2 1:0.067328918 2:0.06401766 3:0.039735099 4:0.088300221 5:0.040838852 6:0.025386313 7:0.025386313 8:0.036423841 9:0.024282561 10:0.011037528 11:0.10485651 12:0.10154525 13:0.05187638 14:0.033112583 15:0.041942605 16:0.055187638 17:0.060706402 18:0.024282561 19:0.05187638 20:0.05187638 
-2 1:0.078212291 2:0.068901304 3:0.074487896 4:0.083798883 5:0.044692737 6:0.040968343 7:0.013035382 8:0.040968343 9:0.022346369 10:0.020484171 11:0.04283054 12:0.083798883 13:0.046554935 14:0.022346369 15:0.04283054 16:0.046554935 17:0.061452514 18:0.04283054 19:0.057728119 20:0.065176909 
-2 1:0.065646395 2:0.06725735 3:0.069673782 4:0.096657269 5:0.062424487 6:0.01449859 7:0.029802658 8:0.041482078 9:0.030608135 10:0.011276681 11:0.05275876 12:0.066451873 13:0.050745066 14:0.038260169 15:0.041884817 16:0.051147805 17:0.07007652 18:0.02617801 19:0.049134112 20:0.064035441 
-0.6460944352035102 1:0.058823529 2:0.021008403 3:0.071428571 4:0.0042016807 5:0.050420168 6:0.046218487 7:0.016806723 8:0.0084033613 9:0.029411765 10:0 11:0.20588235 12:0.096638655 13:0.11764706 14:0.033613445 15:0.06302521 16:0.037815126 17:0.058823529 18:0.012605042 19:0.054621849 20:0.012605042 
-0.6429877395671173 1:0 2:0.02247191 3:0.056179775 4:0 5:0.02247191 6:0.08988764 7:0.011235955 8:0 9:0 10:0 11:0.30337079 12:0.02247191 13:0.056179775 14:0.011235955 15:0.20224719 16:0 17:0.06741573 18:0.011235955 19:0.12359551 20:0 
-0.9555158453683688 1:0.033653846 2:0.15384615 3:0.038461538 4:0.024038462 5:0 6:0 7:0 8:0.0096153846 9:0.0048076923 10:0.0048076923 11:0.0625 12:0.086538462 13:0.076923077 14:0.033653846 15:0.0625 16:0.048076923 17:0.16826923 18:0.0048076923 19:0.16826923 20:0.019230769 
-2 1:0.074418605 2:0.11162791 3:0.076744186 4:0.095348837 5:0.058139535 6:0.018604651 7:0.020930233 8:0.025581395 9:0.01627907 10:0.0069767442 11:0.062790698 12:0.055813953 13:0.055813953 14:0.03255814 15:0.034883721 16:0.053488372 17:0.060465116 18:0.044186047 19:0.030232558 20:0.065116279 
-0.9453689794600213 1:0.094262295 2:0.079918033 3:0.014344262 4:0.020491803 5:0.006147541 6:0 7:0.006147541 8:0.0081967213 9:0.0081967213 10:0.0040983607 11:0.043032787 12:0.11270492 13:0.022540984 14:0.0081967213 15:0.016393443 16:0.10655738 17:0.11065574 18:0.006147541 19:0.30122951 20:0.030737705 
-2 1:0.044776119 2:0.093816631 3:0.0554371 4:0.10447761 5:0.038379531 6:0.0021321962 7:0.019189765 8:0.025586354 9:0.029850746 10:0.0021321962 11:0.021321962 12:0.076759062 13:0.053304904 14:0.042643923 15:0.068230277 16:0.049040512 17:0.12153518 18:0.012793177 19:0.046908316 20:0.091684435 
-1.889605474165042 1:0.097859327 2:0.11620795 3:0.097859327 4:0.12844037 5:0.012232416 6:0.018348624 7:0.018348624 8:0.039755352 9:0.018348624 10:0.003058104 11:0.06116208 12:0.058103976 13:0.048929664 14:0.01529052 15:0.024464832 16:0.051987768 17:0.070336391 18:0.021406728 19:0.027522936 20:0.070336391 
-0.3762679956733211 1:0.086956522 2:0.072463768 3:0.094202899 4:0.097826087 5:0.047101449 6:0.018115942 7:0.014492754 8:0.036231884 9:0.010869565 10:0.010869565 11:0.050724638 12:0.061594203 13:0.057971014 14:0.025362319 15:0.050724638 16:0.050724638 17:0.065217391 18:0.02173913 19:0.065217391 20:0.061594203 
-0.3638835685888573 1:0.10179641 2:0.062874251 3:0.032934132 4:0.068862275 5:0.065868263 6:0.005988024 7:0.01497006 8:0.05988024 9:0.026946108 10:0.005988024 11:0.074850299 12:0.056886228 13:0.04491018 14:0.041916168 15:0.047904192 16:0.071856287 17:0.056886228 18:0.01497006 19:0.095808383 20:0.047904192 
-0.7984260331887415 1:0.05238829 2:0.1155624 3:0.049306626 4:0.069337442 5:0.026194145 6:0.012326656 7:0.013867488 8:0.027734977 9:0.013867488 10:0.0092449923 11:0.097072419 12:0.064714946 13:0.053929122 14:0.021571649 15:0.057010786 16:0.053929122 17:0.15254237 18:0.018489985 19:0.033898305 20:0.057010786 
-2 1:0.0625 2:0.059375 3:0.04375 4:0.1125 5:0.040625 6:0.025 7:0.0125 8:0.046875 9:0.0375 10:0.00625 11:0.06875 12:0.11875 13:0.053125 14:0.05625 15:0.040625 16:0.053125 17:0.053125 18:0.021875 19:0.046875 20:0.040625 
-2 1:0.0859375 2:0.083333333 3:0.046875 4:0.14583333 5:0.0234375 6:0.0234375 7:0.013020833 8:0.0390625 9:0.026041667 10:0.0078125 11:0.080729167 12:0.1015625 13:0.026041667 14:0.033854167 15:0.036458333 16:0.0390625 17:0.072916667 18:0.015625 19:0.020833333 20:0.078125 
-0.5386836631848002 1:0.045753065 2:0.066987741 3:0.073992995 4:0.11558669 5:0.047504378 6:0.011821366 7:0.028677758 8:0.038091068 9:0.024299475 10:0.018169877 11:0.032618214 12:0.069176883 13:0.054290718 14:0.041593695 15:0.056698774 16:0.058231173 17:0.076401051 18:0.019702277 19:0.060201401 20:0.060201401 
-1.430271732147845 1:0.11450382 2:0.061068702 3:0.1221374 4:0.045801527 5:0.038167939 6:0 7:0.015267176 8:0.038167939 9:0.053435115 10:0.0076335878 11:0.0076335878 12:0.10687023 13:0.06870229 14:0.038167939 15:0.022900763 16:0.091603053 17:0.045801527 18:0.0076335878 19:0.091603053 20:0.022900763 
-0.5169369700154569 1:0.074074074 2:0.059259259 3:0.074074074 4:0.066666667 5:0.037037037 6:0.044444444 7:0.051851852 8:0.02962963 9:0.014814815 10:0.014814815 11:0.0074074074 12:0.037037037 13:0.11111111 14:0.037037037 15:0.037037037 16:0.059259259 17:0.088888889 18:0.014814815 19:0.1037037 20:0.037037037 
-0.2829309681737703 1:0.064 2:0.056 3:0.088 4:0.072 5:0.056 6:0.008 7:0.024 8:0.048 9:0.016 10:0.008 11:0.024 12:0.048 13:0.104 14:0.032 15:0.048 16:0.048 17:0.088 18:0.016 19:0.112 20:0.04 
-0.5598570936606386 1:0.086614173 2:0.023622047 3:0.078740157 4:0.062992126 5:0.094488189 6:0.0078740157 7:0.031496063 8:0.062992126 9:0.0078740157 10:0 11:0.0078740157 12:0.05511811 13:0.094488189 14:0.05511811 15:0.05511811 16:0.031496063 17:0.1023622 18:0.0078740157 19:0.11811024 20:0.015748031 
-0.9564823553112068 1:0.078947368 2:0.070175439 3:0.078947368 4:0.035087719 5:0.061403509 6:0.01754386 7:0.035087719 8:0.052631579 9:0.0087719298 10:0.01754386 11:0.0087719298 12:0.078947368 13:0.13157895 14:0.026315789 15:0.026315789 16:0.078947368 17:0.078947368 18:0.0087719298 19:0.070175439 20:0.035087719 
-2 1:0.035830619 2:0.048859935 3:0.053745928 4:0.091205212 5:0.048859935 6:0.024429967 7:0.042345277 8:0.050488599 9:0.026058632 10:0.006514658 11:0.034201954 12:0.10260586 13:0.058631922 14:0.058631922 15:0.053745928 16:0.060260586 17:0.052117264 18:0.035830619 19:0.053745928 20:0.061889251 
-2 1:0.059405941 2:0.064356436 3:0.04950495 4:0.094059406 5:0.069306931 6:0.014851485 7:0.02970297 8:0.034653465 9:0.034653465 10:0.004950495 11:0.03960396 12:0.084158416 13:0.024752475 14:0.024752475 15:0.059405941 16:0.04950495 17:0.094059406 18:0.01980198 19:0.069306931 20:0.079207921 
-2 1:0.054726368 2:0.094527363 3:0.049751244 4:0.094527363 5:0.069651741 6:0.019900498 7:0.019900498 8:0.029850746 9:0.034825871 10:0.0049751244 11:0.039800995 12:0.069651741 13:0.039800995 14:0.019900498 15:0.07960199 16:0.064676617 17:0.064676617 18:0.014925373 19:0.044776119 20:0.089552239 
-2 1:0.051239669 2:0.061157025 3:0.062809917 4:0.095867769 5:0.05785124 6:0.041322314 7:0.023140496 8:0.024793388 9:0.031404959 10:0.023140496 11:0.036363636 12:0.082644628 13:0.056198347 14:0.044628099 15:0.033057851 16:0.061157025 17:0.05785124 18:0.026446281 19:0.052892562 20:0.076033058 
-2 1:0.098068351 2:0.05794948 3:0.062407132 4:0.068350669 5:0.03268945 6:0.0089153046 7:0.016344725 8:0.028231798 9:0.02526003 10:0.0044576523 11:0.071322437 12:0.096582467 13:0.052005944 14:0.046062407 15:0.031203566 16:0.052005944 17:0.098068351 18:0.010401189 19:0.040118871 20:0.099554235 
-2 1:0.082191781 2:0.071232877 3:0.046575342 4:0.057534247 5:0.057534247 6:0.035616438 7:0.016438356 8:0.030136986 9:0.043835616 10:0.021917808 11:0.065753425 12:0.063013699 13:0.052054795 14:0.049315068 15:0.030136986 16:0.079452055 17:0.063013699 18:0.02739726 19:0.046575342 20:0.060273973 
-0.3472526645494503 1:0.091152815 2:0.067024129 3:0.045576408 4:0.056300268 5:0.048257373 6:0.029490617 7:0.032171582 8:0.045576408 9:0.040214477 10:0.018766756 11:0.061662198 12:0.056300268 13:0.053619303 14:0.053619303 15:0.032171582 16:0.050938338 17:0.072386059 18:0.029490617 19:0.050938338 20:0.064343164 
-1.23432229949125 1:0.045248869 2:0.07239819 3:0.045248869 4:0.13574661 5:0.067873303 6:0.0045248869 7:0.031674208 8:0.045248869 9:0.045248869 10:0.0045248869 11:0.054298643 12:0.054298643 13:0.018099548 14:0.031674208 15:0.022624434 16:0.054298643 17:0.090497738 18:0.013574661 19:0.10859729 20:0.054298643 
-2 1:0.072874494 2:0.071524966 3:0.048582996 4:0.10121457 5:0.018893387 6:0.010796221 7:0.012145749 8:0.021592443 9:0.0053981107 10:0.0026990553 11:0.1120108 12:0.14304993 13:0.064777328 14:0.02294197 15:0.060728745 16:0.04048583 17:0.05802969 18:0.010796221 19:0.055330634 20:0.066126856 
-1.991070401137781 1:0.054187192 2:0.093596059 3:0.073891626 4:0.10837438 5:0.034482759 6:0.02955665 7:0.039408867 8:0.049261084 9:0.034482759 10:0.0049261084 11:0.054187192 12:0.034482759 13:0.044334975 14:0.02955665 15:0.019704433 16:0.0591133 17:0.073891626 18:0.024630542 19:0.083743842 20:0.054187192 
-0.2474683988757505 1:0.044211196 2:0.075063613 3:0.073791349 4:0.13295165 5:0.047391858 6:0.022264631 7:0.020992366 8:0.030216285 9:0.019720102 10:0.010178117 11:0.059796438 12:0.097328244 13:0.054071247 14:0.028625954 15:0.057888041 16:0.044211196 17:0.06456743 18:0.028307888 19:0.039440204 20:0.048982188 
-2 1:0.059405941 2:0.059405941 3:0.056930693 4:0.079207921 5:0.066831683 6:0.02970297 7:0.037128713 8:0.042079208 9:0.017326733 10:0.0074257426 11:0.044554455 12:0.081683168 13:0.064356436 14:0.03960396 15:0.042079208 16:0.059405941 17:0.076732673 18:0.01980198 19:0.066831683 20:0.04950495 
-2 1:0.057761733 2:0.0433213 3:0.046931408 4:0.072202166 5:0.068592058 6:0.028880866 7:0.036101083 8:0.054151625 9:0.036101083 10:0.0072202166 11:0.025270758 12:0.093862816 13:0.057761733 14:0.054151625 15:0.014440433 16:0.075812274 17:0.068592058 18:0.028880866 19:0.079422383 20:0.050541516 
-1.873003343142981 1:0.039797395 2:0.049204052 3:0.03617945 4:0.085383502 5:0.032561505 6:0.005065123 7:0.020984081 8:0.017366136 9:0.017366136 10:0.019536903 11:0.049204052 12:0.049204052 13:0.028219971 14:0.027496382 15:0.049204052 16:0.10202605 17:0.12952243 18:0.016642547 19:0.062228654 20:0.16280753 
-0.1162736431921125 1:0.11023622 2:0.031496063 3:0.078740157 4:0.031496063 5:0.05511811 6:0.0078740157 7:0.039370079 8:0.062992126 9:0.039370079 10:0.0078740157 11:0.015748031 12:0.070866142 13:0.062992126 14:0.039370079 15:0.047244094 16:0.047244094 17:0.1023622 18:0.0078740157 19:0.1023622 20:0.039370079 
-2 1:0.030534351 2:0.057251908 3:0.066793893 4:0.099236641 5:0.089694656 6:0.032442748 7:0.030534351 8:0.034351145 9:0.032442748 10:0.0057251908 11:0.022900763 12:0.091603053 13:0.04389313 14:0.045801527 15:0.038167939 16:0.066793893 17:0.080152672 18:0.022900763 19:0.041984733 20:0.066793893 
-0.5708604673245672 1:0.014409222 2:0.020172911 3:0.07204611 4:0.083573487 5:0 6:0.0086455331 7:0.0057636888 8:0 9:0.0057636888 10:0.0028818444 11:0.04610951 12:0.051873199 13:0.020172911 14:0 15:0.34005764 16:0.043227666 17:0.16426513 18:0.074927954 19:0.034582133 20:0.011527378 
-0.6217440001457587 1:0.040492958 2:0.01056338 3:0.033450704 4:0.11443662 5:0.0070422535 6:0.012323944 7:0.0088028169 8:0.0035211268 9:0.0070422535 10:0 11:0.070422535 12:0.044014085 13:0.029929577 14:0.0070422535 15:0.22711268 16:0.029929577 17:0.16373239 18:0.077464789 19:0.095070423 20:0.017605634 
-0.1878969964426674 1:0.058823529 2:0.053921569 3:0.029411765 4:0.068627451 5:0.024509804 6:0.0098039216 7:0.014705882 8:0.0098039216 9:0.0098039216 10:0.0049019608 11:0.11764706 12:0.098039216 13:0.024509804 14:0.019607843 15:0.06372549 16:0.058823529 17:0.19117647 18:0.024509804 19:0.039215686 20:0.078431373 
-1.829515008083157 1:0.057518488 2:0.07641742 3:0.050123254 4:0.087921118 5:0.040262942 6:0.0016433854 7:0.016433854 8:0.027115859 9:0.013968776 10:0.020542317 11:0.078882498 12:0.075595727 13:0.050123254 14:0.024650781 15:0.092029581 16:0.039441249 17:0.096959737 18:0.013968776 19:0.075595727 20:0.060805259 
-2 1:0.052476415 2:0.056603774 3:0.040683962 4:0.11143868 5:0.041863208 6:0.01120283 7:0.025943396 8:0.033608491 9:0.023584906 10:0.016509434 11:0.051886792 12:0.083136792 13:0.050707547 14:0.044221698 15:0.071933962 16:0.04009434 17:0.092570755 18:0.014150943 19:0.088443396 20:0.048938679 
-2 1:0.079518072 2:0.053012048 3:0.045783133 4:0.093975904 5:0.05060241 6:0.012048193 7:0.031325301 8:0.038554217 9:0.043373494 10:0.0072289157 11:0.045783133 12:0.084337349 13:0.053012048 14:0.038554217 15:0.031325301 16:0.05060241 17:0.055421687 18:0.028915663 19:0.057831325 20:0.098795181 
-2 1:0.080672269 2:0.094117647 3:0.05210084 4:0.084033613 5:0.040336134 6:0.016806723 7:0.028571429 8:0.033613445 9:0.013445378 10:0.0067226891 11:0.078991597 12:0.065546218 13:0.050420168 14:0.040336134 15:0.038655462 16:0.050420168 17:0.080672269 18:0.016806723 19:0.087394958 20:0.040336134 
-0.6101317956643534 1:0.078549849 2:0.054380665 3:0.10271903 4:0.11480363 5:0.069486405 6:0.01510574 7:0.024169184 8:0.021148036 9:0.024169184 10:0.018126888 11:0.033232628 12:0.072507553 13:0.042296073 14:0.045317221 15:0.036253776 16:0.054380665 17:0.054380665 18:0.021148036 19:0.084592145 20:0.033232628 
-0.1510160576459646 1:0.060126582 2:0.041139241 3:0.079113924 4:0.088607595 5:0.079113924 6:0.012658228 7:0.022151899 8:0.063291139 9:0.025316456 10:0.012658228 11:0.041139241 12:0.075949367 13:0.041139241 14:0.066455696 15:0.037974684 16:0.047468354 17:0.056962025 18:0.025316456 19:0.056962025 20:0.066455696 
-2 1:0.085714286 2:0.047619048 3:0.085714286 4:0.066666667 5:0.047619048 6:0.085714286 7:0 8:0.047619048 9:0.038095238 10:0 11:0.038095238 12:0.12380952 13:0.047619048 14:0.038095238 15:0.019047619 16:0.028571429 17:0.085714286 18:0 19:0.066666667 20:0.047619048 
-2 1:0.057815846 2:0.055674518 3:0.053533191 4:0.11134904 5:0.064239829 6:0.017130621 7:0.032119914 8:0.027837259 9:0.040685225 10:0.010706638 11:0.059957173 12:0.079229122 13:0.042826552 14:0.03640257 15:0.032119914 16:0.057815846 17:0.08137045 18:0.029978587 19:0.055674518 20:0.053533191 
-0.3828548375768816 1:0.10714286 2:0.14285714 3:0.035714286 4:0.071428571 5:0.071428571 6:0.035714286 7:0 8:0.035714286 9:0.035714286 10:0 11:0 12:0.071428571 13:0.071428571 14:0.035714286 15:0.071428571 16:0.035714286 17:0.071428571 18:0 19:0.10714286 20:0 
-1.183079434781049 1:0.038305709 2:0.069244936 3:0.05359116 4:0.11860037 5:0.042725599 6:0.01160221 7:0.021731123 8:0.02412523 9:0.015101289 10:0.014180479 11:0.026887661 12:0.079189687 13:0.05174954 14:0.032965009 15:0.083793738 16:0.055616943 17:0.10957643 18:0.023020258 19:0.073848987 20:0.054143646 
-2 1:0.04680468 2:0.04680468 3:0.053105311 4:0.14671467 5:0.0450045 6:0.03690369 7:0.02970297 8:0.03150315 9:0.01980198 10:0.01350135 11:0.03150315 12:0.090009001 13:0.04860486 14:0.04410441 15:0.059405941 16:0.054905491 17:0.073807381 18:0.02070207 19:0.070207021 20:0.03690369 
-2 1:0.078895464 2:0.090729783 3:0.078895464 4:0.10848126 5:0.021696252 6:0.019723866 7:0.023668639 8:0.033530572 9:0.019723866 10:0.019723866 11:0.057199211 12:0.069033531 13:0.035502959 14:0.017751479 15:0.033530572 16:0.037475345 17:0.078895464 18:0.039447732 19:0.063116371 20:0.072978304 
-1.079223112560157 1:0.070921986 2:0.046099291 3:0.070921986 4:0.085106383 5:0.014184397 6:0.021276596 7:0.042553191 8:0.067375887 9:0.053191489 10:0.024822695 11:0.070921986 12:0.046099291 13:0.039007092 14:0.024822695 15:0.04964539 16:0.10283688 17:0.042553191 18:0.035460993 19:0.053191489 20:0.039007092 
-2 1:0.077669903 2:0.087378641 3:0.035598706 4:0.038834951 5:0.035598706 6:0.0064724919 7:0.080906149 8:0.042071197 9:0.012944984 10:0 11:0.064724919 12:0.077669903 13:0.048543689 14:0.048543689 15:0.071197411 16:0.064724919 17:0.058252427 18:0.042071197 19:0.03236246 20:0.074433657 
-1.622896581595954 1:0.052447552 2:0.073426573 3:0.052447552 4:0.14685315 5:0.017482517 6:0.017482517 7:0.017482517 8:0.031468531 9:0.01048951 10:0.006993007 11:0.15034965 12:0.062937063 13:0.06993007 14:0.020979021 15:0.045454545 16:0.031468531 17:0.062937063 18:0.031468531 19:0.020979021 20:0.076923077 
-1.011765021019272 1:0.049429658 2:0.070342205 3:0.074144487 4:0.093155894 5:0.036121673 6:0.017110266 7:0.024714829 8:0.038022814 9:0.034220532 10:0.015209125 11:0.070342205 12:0.05513308 13:0.039923954 14:0.034220532 15:0.060836502 16:0.047528517 17:0.095057034 18:0.013307985 19:0.095057034 20:0.036121673 
-2 1:0.054313099 2:0.057507987 3:0.054313099 4:0.099041534 5:0.057507987 6:0.028753994 7:0.038338658 8:0.041533546 9:0.041533546 10:0.0095846645 11:0.067092652 12:0.067092652 13:0.03514377 14:0.031948882 15:0.047923323 16:0.054313099 17:0.054313099 18:0.044728435 19:0.067092652 20:0.047923323 
-2 1:0.099080695 2:0.056179775 3:0.064351379 4:0.1011236 5:0.04392237 6:0.031664964 7:0.020429009 8:0.027579162 9:0.029622063 10:0.011235955 11:0.049029622 12:0.076608784 13:0.057201226 14:0.038815117 15:0.045965271 16:0.049029622 17:0.075587334 18:0.023493361 19:0.056179775 20:0.042900919 
-2 1:0.050410317 2:0.055099648 3:0.053927315 4:0.063305979 5:0.035169988 6:0.017584994 7:0.037514654 8:0.03985932 9:0.052754982 10:0.0082063306 11:0.1137163 12:0.065650645 13:0.043376319 14:0.056271981 15:0.058616647 16:0.051582649 17:0.058616647 18:0.035169988 19:0.046893318 20:0.056271981 
-2 1:0.074534161 2:0.11335404 3:0.065217391 4:0.072981366 5:0.037267081 6:0.0093167702 7:0.034161491 8:0.043478261 9:0.027950311 10:0.0031055901 11:0.060559006 12:0.068322981 13:0.032608696 14:0.040372671 15:0.060559006 16:0.041925466 17:0.065217391 18:0.017080745 19:0.072981366 20:0.059006211 
-2 1:0.072562358 2:0.0861678 3:0.047619048 4:0.070294785 5:0.020408163 6:0.013605442 7:0.027210884 8:0.024943311 9:0.036281179 10:0.024943311 11:0.031746032 12:0.052154195 13:0.038548753 14:0.036281179 15:0.068027211 16:0.068027211 17:0.11791383 18:0.015873016 19:0.097505669 20:0.049886621 
-2 1:0.037634409 2:0.043010753 3:0.088709677 4:0.13709677 5:0.045698925 6:0.002688172 7:0.018817204 8:0.040322581 9:0.016129032 10:0.0053763441 11:0.061827957 12:0.064516129 13:0.048387097 14:0.045698925 15:0.048387097 16:0.059139785 17:0.088709677 18:0.018817204 19:0.086021505 20:0.043010753 
-0.2100705668668886 1:0.08040201 2:0.060301508 3:0.075376884 4:0.060301508 5:0.065326633 6:0.020100503 7:0.015075377 8:0.075376884 9:0.025125628 10:0.010050251 11:0.065326633 12:0.065326633 13:0.045226131 14:0.030150754 15:0.045226131 16:0.08040201 17:0.035175879 18:0.020100503 19:0.095477387 20:0.030150754 
-0.7701123201937411 1:0.1 2:0.04 3:0.08 4:0.08 5:0.06 6:0.12 7:0 8:0.02 9:0.06 10:0 11:0.14 12:0.06 13:0.02 14:0.02 15:0 16:0.02 17:0 18:0.02 19:0.04 20:0.12 
-0.5010375346386028 1:0.052631579 2:0.026315789 3:0.026315789 4:0.026315789 5:0.10526316 6:0 7:0 8:0.026315789 9:0.026315789 10:0 11:0.13157895 12:0 13:0.026315789 14:0.078947368 15:0.026315789 16:0.078947368 17:0.026315789 18:0 19:0.078947368 20:0.078947368 
-2 1:0.10136986 2:0.078082192 3:0.07260274 4:0.095890411 5:0.042465753 6:0.0082191781 7:0.01369863 8:0.039726027 9:0.020547945 10:0.0068493151 11:0.042465753 12:0.089041096 13:0.045205479 14:0.04109589 15:0.042465753 16:0.078082192 17:0.065753425 18:0.0095890411 19:0.068493151 20:0.038356164 
-2 1:0.041025641 2:0.047435897 3:0.053846154 4:0.06025641 5:0.058974359 6:0.019230769 7:0.016666667 8:0.032051282 9:0.025641026 10:0.011538462 11:0.084615385 12:0.092307692 13:0.069230769 14:0.051282051 15:0.043589744 16:0.062820513 17:0.085897436 18:0.029487179 19:0.061538462 20:0.052564103 
-2 1:0.034337772 2:0.080588648 3:0.045550105 4:0.10932025 5:0.03293623 6:0.009110021 7:0.023125438 8:0.020322355 9:0.0063069376 10:0.0035038542 11:0.023826209 12:0.085494043 13:0.061667835 14:0.039943938 15:0.063069376 16:0.049053959 17:0.1394534 18:0.018220042 19:0.10721794 20:0.046951647 
-0.57724779588439 1:0.066176471 2:0.073529412 3:0.073529412 4:0.073529412 5:0.044117647 6:0.022058824 7:0.014705882 8:0.044117647 9:0.022058824 10:0.022058824 11:0.022058824 12:0.036764706 13:0.10294118 14:0.051470588 15:0.022058824 16:0.058823529 17:0.10294118 18:0.014705882 19:0.066176471 20:0.066176471 
-2 1:0.021276596 2:0.068085106 3:0.042553191 4:0.085106383 5:0.05106383 6:0.012765957 7:0.021276596 8:0.072340426 9:0.021276596 10:0.012765957 11:0.029787234 12:0.085106383 13:0.05106383 14:0.029787234 15:0.046808511 16:0.055319149 17:0.09787234 18:0.029787234 19:0.09787234 20:0.068085106 
-2 1:0.064083458 2:0.050670641 3:0.052160954 4:0.087928465 5:0.052160954 6:0.01490313 7:0.035767511 8:0.026825633 9:0.041728763 10:0.010432191 11:0.056631893 12:0.084947839 13:0.043219076 14:0.059612519 15:0.047690015 16:0.043219076 17:0.086438152 18:0.032786885 19:0.06557377 20:0.043219076 
-0.6222250713486005 1:0.024390244 2:0.048780488 3:0.048780488 4:0.17073171 5:0.048780488 6:0 7:0.024390244 8:0 9:0.097560976 10:0 11:0 12:0.048780488 13:0.048780488 14:0.024390244 15:0 16:0.12195122 17:0.073170732 18:0.048780488 19:0.073170732 20:0 
-0.6202860713721594 1:0.043956044 2:0.054945055 3:0.076923077 4:0.087912088 5:0.032967033 6:0.021978022 7:0.043956044 8:0.076923077 9:0.010989011 10:0 11:0 12:0.043956044 13:0.032967033 14:0.032967033 15:0.032967033 16:0.076923077 17:0.17582418 18:0.054945055 19:0.087912088 20:0.010989011 
-2 1:0.067307692 2:0.067307692 3:0.048076923 4:0.10576923 5:0.038461538 6:0.028846154 7:0.019230769 8:0.038461538 9:0.0096153846 10:0.0096153846 11:0.038461538 12:0.086538462 13:0.038461538 14:0.048076923 15:0.048076923 16:0.038461538 17:0.125 18:0.028846154 19:0.057692308 20:0.057692308 
-2 1:0.053598775 2:0.062787136 3:0.039816233 4:0.076569678 5:0.050535988 6:0.018376723 7:0.013782542 8:0.019908116 9:0.018376723 10:0.0061255743 11:0.056661562 12:0.087289433 13:0.075038285 14:0.070444104 15:0.052067381 16:0.068912711 17:0.053598775 18:0.019908116 19:0.070444104 20:0.08575804 
-2 1:0.074550129 2:0.084832905 3:0.038560411 4:0.092544987 5:0.030848329 6:0.01285347 7:0.010282776 8:0.030848329 9:0.025706941 10:0.015424165 11:0.13624679 12:0.06940874 13:0.053984576 14:0.025706941 15:0.071979434 16:0.020565553 17:0.074550129 18:0.038560411 19:0.025706941 20:0.066838046 
-2 1:0.09948542 2:0.073756432 3:0.056603774 4:0.097770154 5:0.025728988 6:0.015437393 7:0.027444254 8:0.027444254 9:0.018867925 10:0.0068610635 11:0.11492281 12:0.075471698 13:0.041166381 14:0.036020583 15:0.041166381 16:0.053173242 17:0.063464837 18:0.024013722 19:0.036020583 20:0.065180103 
-2 1:0.091428571 2:0.11428571 3:0.062857143 4:0.091428571 5:0.017142857 6:0.085714286 7:0.022857143 8:0.028571429 9:0.022857143 10:0.0057142857 11:0.045714286 12:0.08 13:0.034285714 14:0.0057142857 15:0.057142857 16:0.045714286 17:0.057142857 18:0.022857143 19:0.04 20:0.068571429 
-0.7528486748528104 1:0.17333333 2:0.06 3:0.1 4:0.053333333 5:0.04 6:0.026666667 7:0 8:0.046666667 9:0 10:0 11:0.033333333 12:0.04 13:0.046666667 14:0.053333333 15:0.04 16:0.093333333 17:0.046666667 18:0.046666667 19:0.066666667 20:0.033333333 
-2 1:0.063897764 2:0.044728435 3:0.060702875 4:0.073482428 5:0.019169329 6:0.086261981 7:0.0095846645 8:0.012779553 9:0.022364217 10:0.0095846645 11:0.076677316 12:0.12460064 13:0.057507987 14:0.031948882 15:0.047923323 16:0.044728435 17:0.044728435 18:0.038338658 19:0.051118211 20:0.079872204 
-1.150226940371421 1:0.044117647 2:0.18382353 3:0.044117647 4:0.080882353 5:0.022058824 6:0.014705882 7:0.022058824 8:0.029411765 9:0.022058824 10:0 11:0.029411765 12:0.051470588 13:0.11764706 14:0.036764706 15:0.029411765 16:0.036764706 17:0.044117647 18:0 19:0.14705882 20:0.044117647 
-2 1:0.03960396 2:0.099009901 3:0.041018388 4:0.11032532 5:0.046676096 6:0.01980198 7:0.012729844 8:0.024045262 9:0.035360679 10:0.0042432815 11:0.042432815 12:0.079207921 13:0.043847242 14:0.057991513 15:0.066478076 16:0.046676096 17:0.076379066 18:0.0099009901 19:0.079207921 20:0.065063649 
-0.6513847796972657 1:0.068075117 2:0.05399061 3:0.044600939 4:0.098591549 5:0.0657277 6:0.0093896714 7:0.011737089 8:0.042253521 9:0.023474178 10:0.011737089 11:0.058685446 12:0.077464789 13:0.056338028 14:0.023474178 15:0.035211268 16:0.05399061 17:0.093896714 18:0.037558685 19:0.082159624 20:0.051643192 
-2 1:0.076512456 2:0.085409253 3:0.056939502 4:0.11921708 5:0.010676157 6:0.0088967972 7:0.012455516 8:0.019572954 9:0.014234875 10:0.019572954 11:0.087188612 12:0.09430605 13:0.035587189 14:0.017793594 15:0.065836299 16:0.055160142 17:0.087188612 18:0.023131673 19:0.03202847 20:0.078291815 
-2 1:0.040677966 2:0.020338983 3:0.081355932 4:0.06779661 5:0.054237288 6:0.013559322 7:0.047457627 8:0.06779661 9:0.040677966 10:0.020338983 11:0.050847458 12:0.074576271 13:0.044067797 14:0.050847458 15:0.027118644 16:0.057627119 17:0.081355932 18:0.023728814 19:0.10847458 20:0.027118644 
-2 1:0.051896208 2:0.071856287 3:0.075848303 4:0.081836327 5:0.055888224 6:0.013972056 7:0.02994012 8:0.0499002 9:0.02994012 10:0.001996008 11:0.047904192 12:0.053892216 13:0.045908184 14:0.033932136 15:0.061876248 16:0.057884232 17:0.081836327 18:0.027944112 19:0.057884232 20:0.067864271 
-1.651481595287322 1:0.058720421 2:0.060473269 3:0.099035933 4:0.096406661 5:0.042944785 6:0.0096406661 7:0.020157756 8:0.045574058 9:0.036809816 10:0.021034181 11:0.042944785 12:0.058720421 13:0.052585451 14:0.045574058 15:0.026292726 16:0.062226117 17:0.071866784 18:0.024539877 19:0.070990359 20:0.053461876 
-1.597724598321246 1:0 2:0.08 3:0.053333333 4:0.093333333 5:0.026666667 6:0 7:0.026666667 8:0.04 9:0.053333333 10:0.013333333 11:0.026666667 12:0.08 13:0.053333333 14:0.066666667 15:0.026666667 16:0.04 17:0.13333333 18:0.013333333 19:0.16 20:0.013333333 
-2 1:0.037647059 2:0.054117647 3:0.04 4:0.091764706 5:0.051764706 6:0.025882353 7:0.011764706 8:0.04 9:0.0094117647 10:0.0047058824 11:0.075294118 12:0.084705882 13:0.072941176 14:0.054117647 15:0.063529412 16:0.072941176 17:0.070588235 18:0.018823529 19:0.068235294 20:0.051764706 
-0.163146071821156 1:0.077504726 2:0.10964083 3:0.079395085 4:0.10396975 5:0.077504726 6:0.013232514 7:0.024574669 8:0.02268431 9:0.0094517958 10:0 11:0.024574669 12:0.066162571 13:0.039697543 14:0.034026465 15:0.037807183 16:0.060491493 17:0.079395085 18:0.018903592 19:0.071833648 20:0.049149338 
-1.605195049416914 1:0.095854922 2:0.067357513 3:0.067357513 4:0.033678756 5:0.041450777 6:0.015544041 7:0.038860104 8:0.041450777 9:0.044041451 10:0.025906736 11:0.059585492 12:0.075129534 13:0.062176166 14:0.059585492 15:0.093264249 16:0.033678756 17:0.041450777 18:0.020725389 19:0.049222798 20:0.033678756 
-2 1:0.10755814 2:0.078488372 3:0.058139535 4:0.081395349 5:0.031976744 6:0.0087209302 7:0.020348837 8:0.061046512 9:0.026162791 10:0.0058139535 11:0.081395349 12:0.11918605 13:0.034883721 14:0.043604651 15:0.052325581 16:0.034883721 17:0.055232558 18:0.011627907 19:0.058139535 20:0.029069767 
-2 1:0.054982818 2:0.057560137 3:0.048969072 4:0.11941581 5:0.028350515 6:0.014604811 7:0.024914089 8:0.02233677 9:0.02233677 10:0.0060137457 11:0.071305842 12:0.099656357 13:0.060137457 14:0.028350515 15:0.052405498 16:0.052405498 17:0.082474227 18:0.041237113 19:0.060996564 20:0.051546392 
-0.5600931687612255 1:0.049180328 2:0.06147541 3:0.036885246 4:0.099726776 5:0.050546448 6:0.036885246 7:0.023224044 8:0.049180328 9:0.030054645 10:0.0081967213 11:0.068306011 12:0.06420765 13:0.028688525 14:0.031420765 15:0.056010929 16:0.06420765 17:0.10928962 18:0.027322404 19:0.06147541 20:0.043715847 
-2 1:0.035805627 2:0.059676044 3:0.051150895 4:0.11764706 5:0.045183291 6:0.019607843 7:0.034953112 8:0.047740835 9:0.024722933 10:0.0068201194 11:0.057971014 12:0.092924126 13:0.05370844 14:0.038363171 15:0.0571185 16:0.052855925 17:0.074168798 18:0.018755328 19:0.052855925 20:0.057971014 
-2 1:0.067238913 2:0.064377682 3:0.054363376 4:0.1130186 5:0.050071531 6:0.020028612 7:0.008583691 8:0.035765379 9:0.030042918 10:0.0042918455 11:0.050071531 12:0.084406295 13:0.04148784 14:0.048640916 15:0.058655222 16:0.040057225 17:0.074391989 18:0.030042918 19:0.067238913 20:0.057224607 
-2 1:0.093421053 2:0.092105263 3:0.060526316 4:0.096052632 5:0.030263158 6:0.015789474 7:0.014473684 8:0.027631579 9:0.013157895 10:0.011842105 11:0.065789474 12:0.093421053 13:0.046052632 14:0.027631579 15:0.032894737 16:0.069736842 17:0.075 18:0.032894737 19:0.048684211 20:0.052631579 
-0.1872655330339813 1:0.030848329 2:0.057840617 3:0.059125964 4:0.13496144 5:0.05655527 6:0.019280206 7:0.026992288 8:0.033419023 9:0.026992288 10:0.0077120823 11:0.039845758 12:0.082262211 13:0.055269923 14:0.038560411 15:0.052699229 16:0.043701799 17:0.09125964 18:0.025706941 19:0.074550129 20:0.042416452 
-1.396667525966809 1:0.037162162 2:0.094594595 3:0.037162162 4:0.052364865 5:0.047297297 6:0.0016891892 7:0.0084459459 8:0.028716216 9:0.018581081 10:0.013513514 11:0.11148649 12:0.086148649 13:0.037162162 14:0.050675676 15:0.033783784 16:0.079391892 17:0.12668919 18:0.0067567568 19:0.099662162 20:0.028716216 
-0.6950833234511915 1:0.097765363 2:0.086592179 3:0.078212291 4:0.092178771 5:0.061452514 6:0.011173184 7:0.025139665 8:0.025139665 9:0.011173184 10:0.0083798883 11:0.061452514 12:0.075418994 13:0.044692737 14:0.033519553 15:0.01396648 16:0.06424581 17:0.061452514 18:0.044692737 19:0.047486034 20:0.055865922 
-2 1:0.035087719 2:0.084795322 3:0.058479532 4:0.10526316 5:0.040935673 6:0.01754386 7:0.029239766 8:0.043859649 9:0.035087719 10:0.01754386 11:0.046783626 12:0.070175439 13:0.058479532 14:0.032163743 15:0.023391813 16:0.061403509 17:0.096491228 18:0.026315789 19:0.055555556 20:0.061403509 
-2 1:0.079445145 2:0.087011349 3:0.070617907 4:0.090163934 5:0.066834805 6:0.013871375 7:0.024590164 8:0.031525851 9:0.024590164 10:0.011349306 11:0.054224464 12:0.077553594 13:0.061790668 14:0.039722573 15:0.025851198 16:0.047919294 17:0.062421185 18:0.018915511 19:0.051071879 20:0.060529634 
-0.4951159663333491 1:0.020833333 2:0.045833333 3:0.045833333 4:0.1375 5:0.075 6:0.016666667 7:0.020833333 8:0.058333333 9:0.045833333 10:0 11:0.05 12:0.054166667 13:0.041666667 14:0.033333333 15:0.083333333 16:0.066666667 17:0.058333333 18:0.029166667 19:0.070833333 20:0.045833333 
-0.1444083371665373 1:0.047058824 2:0.10588235 3:0.070588235 4:0.035294118 5:0.082352941 6:0.011764706 7:0.047058824 8:0.11764706 9:0.023529412 10:0.011764706 11:0.011764706 12:0.058823529 13:0.047058824 14:0.011764706 15:0.035294118 16:0.035294118 17:0.070588235 18:0.047058824 19:0.094117647 20:0.035294118 
-2 1:0.073068894 2:0.089770355 3:0.077244259 4:0.089770355 5:0.056367432 6:0.010438413 7:0.025052192 8:0.033402923 9:0.035490605 10:0.006263048 11:0.050104384 12:0.066805846 13:0.050104384 14:0.035490605 15:0.041753653 16:0.052192067 17:0.064718163 18:0.029227557 19:0.066805846 20:0.045929019 
-1.986920858225764 1:0.096103896 2:0.083116883 3:0.10649351 4:0.07012987 5:0.05974026 6:0.023376623 7:0.023376623 8:0.044155844 9:0.020779221 10:0.0077922078 11:0.038961039 12:0.051948052 13:0.041558442 14:0.041558442 15:0.028571429 16:0.049350649 17:0.088311688 18:0.015584416 19:0.057142857 20:0.051948052 
-2 1:0.043055556 2:0.098611111 3:0.079166667 4:0.076388889 5:0.066666667 6:0.0055555556 7:0.015277778 8:0.0375 9:0.030555556 10:0.0041666667 11:0.05 12:0.066666667 13:0.051388889 14:0.044444444 15:0.023611111 16:0.054166667 17:0.11388889 18:0.0083333333 19:0.077777778 20:0.052777778 
-1.263465835525584 1:0.081481481 2:0.09382716 3:0.066666667 4:0.10864198 5:0.064197531 6:0.012345679 7:0.022222222 8:0.027160494 9:0.0098765432 10:0.0074074074 11:0.056790123 12:0.088888889 13:0.059259259 14:0.02962963 15:0.017283951 16:0.061728395 17:0.066666667 18:0.0074074074 19:0.061728395 20:0.056790123 
-2 1:0.042207792 2:0.068181818 3:0.055194805 4:0.081168831 5:0.045454545 6:0.0097402597 7:0.032467532 8:0.035714286 9:0.032467532 10:0.012987013 11:0.038961039 12:0.077922078 13:0.071428571 14:0.068181818 15:0.071428571 16:0.068181818 17:0.074675325 18:0.0097402597 19:0.042207792 20:0.061688312 
-1.44137277952862 1:0.074468085 2:0.063829787 3:0.090425532 4:0.10106383 5:0.087765957 6:0.013297872 7:0.021276596 8:0.02393617 9:0.026595745 10:0 11:0.053191489 12:0.098404255 13:0.037234043 14:0.063829787 15:0.042553191 16:0.053191489 17:0.037234043 18:0.029255319 19:0.045212766 20:0.037234043 
-2 1:0.03985932 2:0.071512309 3:0.038686987 4:0.11606096 5:0.051582649 6:0.0093786635 7:0.017584994 8:0.048065651 9:0.055099648 10:0.0093786635 11:0.033997655 12:0.067995311 13:0.033997655 14:0.055099648 15:0.042203986 16:0.069167644 17:0.070339977 18:0.014067995 19:0.11254396 20:0.043376319 
-2 1:0.020972355 2:0.043851287 3:0.052430887 4:0.12964728 5:0.045757865 6:0.013346044 7:0.026692088 8:0.05815062 9:0.035271687 10:0.0076263108 11:0.03336511 12:0.09914204 13:0.04957102 14:0.056244042 15:0.03336511 16:0.055290753 17:0.096282173 18:0.017159199 19:0.070543375 20:0.055290753 
-0.901371891683885 1:0.04 2:0.04 3:0.056 4:0.112 5:0.048 6:0 7:0.024 8:0.08 9:0.048 10:0 11:0.04 12:0.072 13:0.064 14:0.08 15:0.096 16:0.08 17:0.04 18:0.016 19:0.024 20:0.04 
-0.4803189301605775 1:0.041420118 2:0.073964497 3:0.062130178 4:0.076923077 5:0.082840237 6:0.020710059 7:0.026627219 8:0.071005917 9:0.01183432 10:0.0029585799 11:0.023668639 12:0.085798817 13:0.056213018 14:0.068047337 15:0.032544379 16:0.065088757 17:0.062130178 18:0.026627219 19:0.076923077 20:0.032544379 
-2 1:0.061933535 2:0.048338369 3:0.058912387 4:0.10271903 5:0.048338369 6:0.02265861 7:0.027190332 8:0.039274924 9:0.031722054 10:0.0090634441 11:0.040785498 12:0.10271903 13:0.066465257 14:0.051359517 15:0.039274924 16:0.054380665 17:0.064954683 18:0.016616314 19:0.054380665 20:0.058912387 
-1.85199403079832 1:0.083333333 2:0.064102564 3:0.070512821 4:0.070512821 5:0.057692308 6:0.025641026 7:0.025641026 8:0.064102564 9:0.032051282 10:0.0064102564 11:0.038461538 12:0.076923077 13:0.038461538 14:0.064102564 15:0.025641026 16:0.070512821 17:0.038461538 18:0.019230769 19:0.070512821 20:0.057692308 
-0.9124584223687545 1:0.091575092 2:0.098901099 3:0.071428571 4:0.067765568 5:0.056776557 6:0.012820513 7:0.016483516 8:0.051282051 9:0.04029304 10:0.016483516 11:0.058608059 12:0.065934066 13:0.053113553 14:0.051282051 15:0.042124542 16:0.031135531 17:0.062271062 18:0.014652015 19:0.054945055 20:0.042124542 
-2 1:0.045454545 2:0.050909091 3:0.078181818 4:0.070909091 5:0.056363636 6:0.021818182 7:0.012727273 8:0.050909091 9:0.04 10:0.014545455 11:0.056363636 12:0.12909091 13:0.050909091 14:0.061818182 15:0.038181818 16:0.058181818 17:0.038181818 18:0.021818182 19:0.06 20:0.043636364 
-0.5731969494708408 1:0.079081633 2:0.084183673 3:0.091836735 4:0.051020408 5:0.051020408 6:0.0051020408 7:0.022959184 8:0.033163265 9:0.028061224 10:0.015306122 11:0.038265306 12:0.051020408 13:0.071428571 14:0.017857143 15:0.020408163 16:0.043367347 17:0.051020408 18:0.048469388 19:0.13010204 20:0.066326531 
-0.7726269225366548 1:0.067340067 2:0.10774411 3:0.043771044 4:0.077441077 5:0.047138047 6:0.0033670034 7:0.0067340067 8:0.047138047 9:0.057239057 10:0.0067340067 11:0.033670034 12:0.053872054 13:0.070707071 14:0.013468013 15:0.04040404 16:0.063973064 17:0.090909091 18:0.02020202 19:0.070707071 20:0.077441077 
-2 1:0.068493151 2:0.047945205 3:0.068493151 4:0.10273973 5:0.068493151 6:0.0068493151 7:0.01369863 8:0.020547945 9:0.02739726 10:0.01369863 11:0.01369863 12:0.02739726 13:0.068493151 14:0.061643836 15:0.054794521 16:0.054794521 17:0.047945205 18:0.047945205 19:0.075342466 20:0.10958904 
-1.765927299116312 1:0.069269521 2:0.041561713 3:0.060453401 4:0.098236776 5:0.095717884 6:0.0037783375 7:0.020151134 8:0.040302267 9:0.025188917 10:0.0025188917 11:0.054156171 12:0.068010076 13:0.044080605 14:0.06675063 15:0.04534005 16:0.069269521 17:0.054156171 18:0.018891688 19:0.075566751 20:0.046599496 
-2 1:0.074742268 2:0.087628866 3:0.041237113 4:0.051546392 5:0.023195876 6:0 7:0.010309278 8:0.036082474 9:0.010309278 10:0.010309278 11:0.087628866 12:0.1056701 13:0.085051546 14:0.033505155 15:0.010309278 16:0.072164948 17:0.095360825 18:0.0051546392 19:0.054123711 20:0.1056701 
-1.365346421157502 1:0.037267081 2:0.043478261 3:0.060869565 4:0.10310559 5:0.08447205 6:0.011180124 7:0.026086957 8:0.052173913 9:0.037267081 10:0.0086956522 11:0.022360248 12:0.064596273 13:0.052173913 14:0.048447205 15:0.044720497 16:0.069565217 17:0.094409938 18:0.014906832 19:0.08447205 20:0.039751553 
-2 1:0.061728395 2:0.018518519 3:0.061728395 4:0.080246914 5:0.061728395 6:0.012345679 7:0.037037037 8:0.067901235 9:0.024691358 10:0.0061728395 11:0.061728395 12:0.098765432 13:0.030864198 14:0.049382716 15:0.018518519 16:0.018518519 17:0.098765432 18:0.043209877 19:0.080246914 20:0.067901235 
-0.1116759570058243 1:0.15 2:0.083333333 3:0.066666667 4:0.058333333 5:0.05 6:0.016666667 7:0.016666667 8:0.016666667 9:0 10:0 11:0.05 12:0.1 13:0.066666667 14:0.075 15:0.025 16:0.075 17:0.025 18:0.083333333 19:0.025 20:0.016666667 
-0.176350111874905 1:0.12546816 2:0.1011236 3:0.050561798 4:0.080524345 5:0.054307116 6:0.0074906367 7:0.065543071 8:0.035580524 9:0.013108614 10:0 11:0.029962547 12:0.056179775 13:0.058052434 14:0.024344569 15:0.058052434 16:0.054307116 17:0.046816479 18:0.016853933 19:0.06928839 20:0.052434457 
-1.186347309921761 1:0.11940299 2:0.095149254 3:0.054104478 4:0.067164179 5:0.059701493 6:0.0055970149 7:0.083955224 8:0.037313433 9:0.0074626866 10:0 11:0.035447761 12:0.076492537 13:0.039179104 14:0.035447761 15:0.057835821 16:0.052238806 17:0.050373134 18:0.0093283582 19:0.074626866 20:0.039179104 
-0.3377968170284979 1:0.12643678 2:0.034482759 3:0.045977011 4:0.057471264 5:0.068965517 6:0.045977011 7:0.045977011 8:0.045977011 9:0.057471264 10:0.022988506 11:0.045977011 12:0.034482759 13:0.057471264 14:0.022988506 15:0.011494253 16:0.091954023 17:0.045977011 18:0.011494253 19:0.034482759 20:0.091954023 
-2 1:0.056277056 2:0.051948052 3:0.060606061 4:0.088744589 5:0.056277056 6:0.017316017 7:0.012987013 8:0.043290043 9:0.045454545 10:0.012987013 11:0.041125541 12:0.062770563 13:0.028138528 14:0.04978355 15:0.045454545 16:0.051948052 17:0.11038961 18:0.019480519 19:0.10822511 20:0.036796537 
-2 1:0.064032698 2:0.053133515 3:0.0626703 4:0.084468665 5:0.047683924 6:0.016348774 7:0.029972752 8:0.053133515 9:0.032697548 10:0.017711172 11:0.038147139 12:0.064032698 13:0.040871935 14:0.04359673 15:0.036784741 16:0.059945504 17:0.08719346 18:0.025885559 19:0.088555858 20:0.053133515 
-0.9898433467746079 1:0.059850374 2:0.092269327 3:0.072319202 4:0.10972569 5:0.044887781 6:0.0074812968 7:0.034912718 8:0.034912718 9:0.037406484 10:0.0024937656 11:0.049875312 12:0.06234414 13:0.042394015 14:0.032418953 15:0.039900249 16:0.057356608 17:0.072319202 18:0.014962594 19:0.092269327 20:0.039900249 
-0.2101028440418362 1:0.076502732 2:0.043715847 3:0.087431694 4:0.073770492 5:0.06010929 6:0.019125683 7:0.046448087 8:0.021857923 9:0.046448087 10:0.013661202 11:0.054644809 12:0.051912568 13:0.068306011 14:0.030054645 15:0.019125683 16:0.054644809 17:0.095628415 18:0.032786885 19:0.054644809 20:0.049180328 
-0.6977117475423434 1:0.077348066 2:0.093922652 3:0.10497238 4:0.08839779 5:0.08839779 6:0.016574586 7:0.016574586 8:0.044198895 9:0.016574586 10:0 11:0.066298343 12:0.033149171 13:0.044198895 14:0.011049724 15:0.022099448 16:0.077348066 17:0.071823204 18:0.0055248619 19:0.066298343 20:0.055248619 
-0.634732525995922 1:0.23809524 2:0.095238095 3:0 4:0.023809524 5:0.047619048 6:0 7:0.023809524 8:0.023809524 9:0.023809524 10:0 11:0.047619048 12:0.047619048 13:0.095238095 14:0.071428571 15:0 16:0.047619048 17:0.023809524 18:0 19:0.023809524 20:0 
-0.1218771410019597 1:0.067961165 2:0.040776699 3:0.07184466 4:0.10485437 5:0.06407767 6:0.0077669903 7:0.013592233 8:0.040776699 9:0.040776699 10:0.011650485 11:0.06407767 12:0.060194175 13:0.040776699 14:0.029126214 15:0.040776699 16:0.06407767 17:0.083495146 18:0.023300971 19:0.066019417 20:0.06407767 
-0.856123898721212 1:0.045751634 2:0.058823529 3:0.08496732 4:0.039215686 5:0.071895425 6:0.0065359477 7:0.039215686 8:0.045751634 9:0 10:0.019607843 11:0.058823529 12:0.065359477 13:0.045751634 14:0.026143791 15:0.019607843 16:0.065359477 17:0.13071895 18:0.013071895 19:0.091503268 20:0.071895425 
-1.27700260345794 1:0.051948052 2:0.025974026 3:0.090909091 4:0.045454545 5:0.045454545 6:0 7:0.038961039 8:0.064935065 9:0 10:0.012987013 11:0.064935065 12:0.097402597 13:0.032467532 14:0.038961039 15:0.012987013 16:0.064935065 17:0.12337662 18:0.012987013 19:0.097402597 20:0.077922078 
-2 1:0.046666667 2:0.066666667 3:0.13333333 4:0.053333333 5:0.026666667 6:0 7:0.013333333 8:0.053333333 9:0 10:0.02 11:0.053333333 12:0.08 13:0.033333333 14:0.046666667 15:0.02 16:0.073333333 17:0.1 18:0.013333333 19:0.1 20:0.066666667 
-1.260684450627065 1:0.071428571 2:0.058441558 3:0.077922078 4:0.051948052 5:0.045454545 6:0 7:0.019480519 8:0.064935065 9:0 10:0.019480519 11:0.071428571 12:0.077922078 13:0.038961039 14:0.025974026 15:0.025974026 16:0.071428571 17:0.1038961 18:0.012987013 19:0.097402597 20:0.064935065 
-1.814250575063281 1:0.068493151 2:0.062622309 3:0.097847358 4:0.070450098 5:0.072407045 6:0.0058708415 7:0.04109589 8:0.04109589 9:0.029354207 10:0.0078277886 11:0.050880626 12:0.066536204 13:0.052837573 14:0.066536204 15:0.025440313 16:0.060665362 17:0.062622309 18:0.019569472 19:0.068493151 20:0.029354207 
-2 1:0.033175355 2:0.061611374 3:0.071090047 4:0.090047393 5:0.075829384 6:0.014218009 7:0.028436019 8:0.028436019 9:0.047393365 10:0.0047393365 11:0.075829384 12:0.066350711 13:0.014218009 14:0.047393365 15:0.028436019 16:0.090047393 17:0.066350711 18:0.023696682 19:0.061611374 20:0.071090047 
-2 1:0.062992126 2:0.088582677 3:0.086614173 4:0.088582677 5:0.066929134 6:0.025590551 7:0.037401575 8:0.025590551 9:0.013779528 10:0.0039370079 11:0.045275591 12:0.070866142 13:0.061023622 14:0.043307087 15:0.025590551 16:0.062992126 17:0.057086614 18:0.019685039 19:0.070866142 20:0.043307087 
-2 1:0.082608696 2:0.11304348 3:0.086956522 4:0.086956522 5:0.039130435 6:0.0086956522 7:0.039130435 8:0.02173913 9:0.039130435 10:0.0086956522 11:0.069565217 12:0.07826087 13:0.047826087 14:0.02173913 15:0.034782609 16:0.060869565 17:0.060869565 18:0.026086957 19:0.030434783 20:0.043478261 
-1.139660492209887 1:0.1 2:0.05625 3:0.0625 4:0.04375 5:0.06875 6:0.025 7:0.01875 8:0.0625 9:0.025 10:0.00625 11:0.05 12:0.075 13:0.05 14:0.025 15:0.03125 16:0.025 17:0.03125 18:0.03125 19:0.13125 20:0.08125 
-2 1:0.080213904 2:0.080213904 3:0.080213904 4:0.10160428 5:0.037433155 6:0.0053475936 7:0.021390374 8:0.048128342 9:0.016042781 10:0 11:0.048128342 12:0.053475936 13:0.058823529 14:0.026737968 15:0.010695187 16:0.037433155 17:0.042780749 18:0.021390374 19:0.12834225 20:0.10160428 
-1.722650624097101 1:0.049676026 2:0.048596112 3:0.062634989 4:0.12419006 5:0.06587473 6:0.014038877 7:0.033477322 8:0.041036717 9:0.036717063 10:0.018358531 11:0.032397408 12:0.07775378 13:0.044276458 14:0.048596112 15:0.032397408 16:0.046436285 17:0.071274298 18:0.025917927 19:0.064794816 20:0.061555076 
-2 1:0.061776062 2:0.069498069 3:0.065637066 4:0.065637066 5:0.073359073 6:0.011583012 7:0.019305019 8:0.042471042 9:0.019305019 10:0.011583012 11:0.027027027 12:0.057915058 13:0.057915058 14:0.030888031 15:0.05019305 16:0.065637066 17:0.061776062 18:0.015444015 19:0.11969112 20:0.073359073 
-0.5819855411196813 1:0.095238095 2:0.14285714 3:0.23809524 4:0.095238095 5:0 6:0 7:0 8:0.047619048 9:0 10:0 11:0.047619048 12:0.047619048 13:0.095238095 14:0 15:0.047619048 16:0.047619048 17:0 18:0 19:0.095238095 20:0 
-1.809323098259934 1:0.082774049 2:0.060402685 3:0.067114094 4:0.073825503 5:0.03803132 6:0.026845638 7:0.046979866 8:0.051454139 9:0.035794183 10:0.011185682 11:0.040268456 12:0.067114094 13:0.058165548 14:0.051454139 15:0.046979866 16:0.055928412 17:0.082774049 18:0.020134228 19:0.031319911 20:0.051454139 
-0.5486540146630762 1:0.071428571 2:0.1875 3:0.11607143 4:0.0625 5:0.053571429 6:0.017857143 7:0.017857143 8:0.035714286 9:0.017857143 10:0.017857143 11:0.035714286 12:0.035714286 13:0.044642857 14:0.0089285714 15:0.017857143 16:0.089285714 17:0.035714286 18:0.026785714 19:0.10714286 20:0 
