svm_type c_svc
kernel_type rbf
gamma 0.01
nr_class 2
total_sv 33
rho -0.141816
label 0 1
probA -69.1546
probB -2.08038
nr_sv 19 14
SV
5 1:0.8881 2:0.0286232 3:0.0832767 4:0.957026 5:0.00126614 6:0.0233105 7:0.061456 8:0.0268871 9:0.0330191 10:0.746705 11:0.0275481 12:0.0759377 13:0.00998256 14:0.0171982 15:0 16:0 17:0 18:0 19:0 20:0 21:1 22:0.00330159 23:0.019303 24:0.0707162 25:0.0158278 26:0.00104691 27:0.876669 28:0.00210014 29:0.0016307 30:0.00940421 31:0.00311198 32:0.0243478 33:0.0975118 34:0.00225559 35:0.00281492 36:0.841104 37:0.00985428 38:0.0090581 39:0.00994148 40:0.000148421 41:0.0361248 42:0.0146656 43:0.0025783 44:0.00097675 45:0.886004 46:0.0500243 47:0.00259432 48:0.00688341 
4.310161701178214 1:0.479763 2:0.427642 3:0.0925949 4:0.726456 5:0.0164164 6:0.169458 7:0.0285007 8:0.043289 9:0.315666 10:0.240612 11:0.0313538 12:0.0621744 13:0.198237 14:0.0637503 15:1 16:0 17:0 18:0 19:0 20:0 21:1 22:0.0450695 23:0.0606362 24:0.248226 25:0.0512151 26:0.00393404 27:0.51816 28:0.0576472 29:0.00222835 30:0.0128835 31:0.00308427 32:0.00525355 33:0.00448372 34:0.0033782 35:0.220207 36:0.0212632 37:0.0314647 38:0.697381 39:0.0134845 40:8.50509e-10 41:4.86006e-09 42:1.6049e-09 43:1.63155e-09 44:2.53102e-09 45:0.999977 46:1.86792e-05 47:1.53383e-06 48:2.63063e-06 
5 1:0.789237 2:0.0889454 3:0.121817 4:0.844162 5:0.0123211 6:0.213857 7:0.0165008 8:0.0208426 9:0.125296 10:0.642377 11:0.0231164 12:0.0119593 13:0.122541 14:0.0250454 15:0 16:0 17:0 18:0 19:0 20:0 21:1 22:0.48878 23:0.078051 24:0.148016 25:0.130337 26:0.0118469 27:0.0443649 28:0.0552705 29:0.00539246 30:0.0379418 31:0.00253501 32:0.00649403 33:0.0063062 34:0.00472962 35:0.196768 36:0.0732007 37:0.0348674 38:0.66365 39:0.0114494 40:9.51193e-09 41:3.4247e-08 42:1.31124e-08 43:1.54057e-08 44:3.64803e-08 45:0.999899 46:8.59961e-05 47:1.48127e-05 48:5.22076e-07 
5 1:0.753195 2:0.0489762 3:0.197829 4:0.803066 5:0.00203391 6:0.0169665 7:0.224918 8:0.0479541 9:0.0400021 10:0.107949 11:0.276463 12:0.093407 13:0.013408 14:0.193865 15:0 16:0 17:1 18:0 19:0 20:0 21:0 22:0.0257113 23:0.0653153 24:0.0787111 25:0.035544 26:0.038422 27:0.409767 28:0.0928373 29:0.0928265 30:0.160865 31:0.00461016 32:0.348451 33:0.526383 34:0.00533055 35:0.0140905 36:0.0673172 37:0.0130716 38:0.00175701 39:0.0189891 40:0.00585042 41:0.0908846 42:0.0487307 43:0.041445 44:0.0194331 45:0.570235 46:0.0232953 47:0.151693 48:0.048432 
5 1:0.648847 2:0.0471582 3:0.303995 4:-0.968518 5:0.0291036 6:0.261637 7:0.0139216 8:0.133747 9:0.347962 10:0.109998 11:0.144811 12:0.126698 13:0.0242207 14:0.0695379 15:0 16:0 17:1 18:0 19:0 20:0 21:0 22:0.0160802 23:0.0519963 24:0.00904067 25:0.0467522 26:0.0950519 27:0.00917107 28:0.0323953 29:0.349539 30:0.389974 31:0.0257136 32:0.143828 33:0.0340679 34:0.136187 35:0.0238264 36:0.0496247 37:0.0546016 38:0.0316073 39:0.500544 40:4.58008e-05 41:0.0143523 42:0.0046074 43:0.000294294 44:5.88543e-05 45:0.978675 46:0.000580132 47:0.000110457 48:0.00127545 
5 1:0.74474 2:0.103977 3:0.151283 4:0.860642 5:0.0101343 6:0.0775197 7:0.0940772 8:0.0464147 9:0.147396 10:0.221 11:0.0771887 12:0.0388216 13:0.021151 14:0.343816 15:0 16:0 17:0 18:0 19:0 20:0 21:1 22:0.0154804 23:0.0639174 24:0.0503718 25:0.0176319 26:0.0247913 27:0.34488 28:0.0666752 29:0.0746308 30:0.341621 31:0.00508379 32:0.058983 33:0.108204 34:0.00999339 35:0.00880767 36:0.730841 37:0.00675326 38:0.00425731 39:0.0670767 40:0.0323555 41:0.252342 42:0.123341 43:0.0887201 44:0.0187373 45:0.438017 46:0.0276903 47:0.00378816 48:0.0150078 
5 1:0.261927 2:0.0714138 3:0.666659 4:-0.956882 5:0.0119571 6:0.236739 7:0.373193 8:0.0317217 9:0.109465 10:0.0203613 11:0.0727379 12:0.0200833 13:0.331174 14:0.0293064 15:0 16:0 17:0 18:0 19:0 20:0 21:0 22:0.00635065 23:0.0288285 24:0.0199661 25:0.00348415 26:0.00792899 27:0.70111 28:0.182293 29:0.0296503 30:0.020388 31:0.00633693 32:0.0167526 33:0.0367936 34:0.011053 35:0.0430306 36:0.759068 37:0.0237869 38:0.0466762 39:0.0565019 40:0.11 41:0.11 42:0.11 43:0.11 44:0.11 45:0.11 46:0.11 47:0.11 48:0.11 
1.468598196417684 1:0.242352 2:0.10525 3:0.652399 4:-0.948425 5:0.130912 6:0.574123 7:0.00317781 8:0.199703 9:0.0626806 10:0.127422 11:0.0348419 12:0.0129841 13:0.422579 14:0.0057004 15:0 16:0 17:0 18:0 19:0 20:0 21:0 22:0.0380267 23:0.383504 24:0.0827134 25:0.0160868 26:0.0154921 27:0.346662 28:0.0249871 29:0.0568695 30:0.0356583 31:0.00732849 32:0.0500751 33:0.0203245 34:0.00464711 35:0.00236588 36:0.901933 37:0.00467046 38:0.00366411 39:0.00499152 40:0.00642469 41:0.753469 42:0.0886511 43:0.00661644 44:0.00491088 45:0.0143542 46:0.0628912 47:0.0223108 48:0.0403718 
5 1:0.834722 2:0.0216728 3:0.143605 4:-0.945679 5:0.0130864 6:0.0940631 7:0.022181 8:0.186216 9:0.0335983 10:0.0325858 11:0.355827 12:0.108884 13:0.130069 14:0.117553 15:0 16:0 17:0 18:0 19:0 20:0 21:0 22:0.100176 23:0.515623 24:0.138973 25:0.162269 26:0.016264 27:0.0146632 28:0.0397033 29:0.00192991 30:0.0103984 31:0.0339086 32:0.631174 33:0.24157 34:0.00852281 35:0.00456494 36:0.0273545 37:0.0410104 38:0.00416816 39:0.00772666 40:1.97542e-09 41:5.69989e-09 42:4.55805e-09 43:2.21359e-09 44:1.94062e-09 45:0.999972 46:2.18294e-05 47:3.05244e-06 48:3.15924e-06 
5 1:0.446407 2:0.453294 3:0.100299 4:-0.96056 5:0.0051895 6:0.0795646 7:0.530482 8:0.0136788 9:0.0542213 10:0.105045 11:0.0245893 12:0.0852225 13:0.0872568 14:0.0943153 15:0 16:0 17:0 18:0 19:0 20:0 21:0 22:0.0049333 23:0.0115167 24:0.131221 25:0.00235534 26:0.00086033 27:0.801976 28:0.0305725 29:0.00227543 30:0.0142892 31:0.00308427 32:0.00525355 33:0.00448372 34:0.0033782 35:0.220207 36:0.0212632 37:0.0314647 38:0.697381 39:0.0134845 40:0.0744607 41:0.278626 42:0.0621968 43:0.146366 44:0.213282 45:0.0127279 46:0.0455509 47:0.0282006 48:0.138589 
5 1:0.57567 2:0.275084 3:0.149246 4:0.936016 5:0.00248238 6:0.0838102 7:0.0683567 8:0.00918795 9:0.010786 10:0.15139 11:0.334612 12:0.0282777 13:0.0469709 14:0.347937 15:0 16:0 17:0 18:0 19:0 20:0 21:0 22:0.00823713 23:0.114944 24:0.139694 25:0.00279776 26:0.000603553 27:0.488154 28:0.238456 29:0.0042139 30:0.002899 31:0.000823773 32:0.0109184 33:0.0477331 34:0.00223898 35:0.00707913 36:0.863039 37:0.0256167 38:0.0295503 39:0.0130009 40:5.54158e-10 41:1.62086e-09 42:6.27421e-10 43:4.40565e-10 44:7.70262e-10 45:0.999971 46:1.80615e-05 47:8.20719e-06 48:2.23572e-06 
1.026749908725842 1:0.275577 2:0.0737568 3:0.650666 4:-0.955117 5:0.0723971 6:0.161276 7:0.00554557 8:0.180075 9:0.159846 10:0.0384386 11:0.354773 12:0.14778 13:0.0281528 14:0.0129926 15:0 16:0 17:0 18:0 19:0 20:0 21:0 22:0.0604996 23:0.13685 24:0.322579 25:0.0201112 26:0.0135408 27:0.282521 28:0.110322 29:0.0187097 30:0.0348668 31:0.00315443 32:0.0372474 33:0.0166198 34:0.00423024 35:0.00190058 36:0.901993 37:0.0210315 38:0.00919343 39:0.00462949 40:0.11 41:0.11 42:0.11 43:0.11 44:0.11 45:0.11 46:0.11 47:0.11 48:0.11 
5 1:0.189755 2:0.095023 3:0.715222 4:0.875902 5:0.0837534 6:0.242926 7:0.00720479 8:0.174198 9:0.084062 10:0.12768 11:0.11201 12:0.0700073 13:0.187264 14:0.153821 15:0 16:0 17:0 18:0 19:0 20:0 21:0 22:0.251148 23:0.0158791 24:0.300573 25:0.00834134 26:0.00467509 27:0.218663 28:0.179253 29:0.0122596 30:0.00920805 31:0.11 32:0.11 33:0.11 34:0.11 35:0.11 36:0.11 37:0.11 38:0.11 39:0.11 40:6.21674e-10 41:1.16691e-09 42:8.47953e-10 43:2.39938e-10 44:3.03288e-10 45:0.999982 46:6.85324e-06 47:1.02714e-05 48:1.03571e-06 
5 1:0.200539 2:0.077444 3:0.722017 4:-0.959953 5:0.0110494 6:0.193292 7:0.00792866 8:0.0137445 9:0.00783203 10:0.454268 11:0.0312443 12:0.00704199 13:0.0354131 14:0.431478 15:0 16:0 17:1 18:0 19:0 20:0 21:0 22:0.177199 23:0.122938 24:0.0927675 25:0.0295517 26:0.0178862 27:0.147097 28:0.158078 29:0.224945 30:0.029538 31:0.11 32:0.11 33:0.11 34:0.11 35:0.11 36:0.11 37:0.11 38:0.11 39:0.11 40:0.11 41:0.11 42:0.11 43:0.11 44:0.11 45:0.11 46:0.11 47:0.11 48:0.11 
5 1:0.450775 2:0.0894941 3:0.459731 4:0.920605 5:0.0182303 6:0.274808 7:0.00760951 8:0.0557339 9:0.0508753 10:0.246597 11:0.0849257 12:0.0465079 13:0.412414 14:0.0771057 15:0 16:0 17:0 18:0 19:0 20:0 21:0 22:0.00565694 23:0.0201121 24:0.0547335 25:0.00803606 26:0.00284298 27:0.812255 28:0.0825074 29:0.00416638 30:0.00968959 31:0.11 32:0.11 33:0.11 34:0.11 35:0.11 36:0.11 37:0.11 38:0.11 39:0.11 40:7.88924e-11 41:3.44926e-10 42:1.75522e-10 43:9.65825e-11 44:1.64376e-10 45:0.999991 46:3.88238e-06 47:3.65571e-06 48:1.85658e-06 
5 1:0.369671 2:0.11143 3:0.518899 4:-0.97739 5:0.0205573 6:0.0887788 7:0.00722648 8:0.319838 9:0.0439607 10:0.268425 11:0.209647 12:0.0076153 13:0.111703 14:0.0110274 15:0 16:0 17:0 18:0 19:0 20:0 21:0 22:0.0141978 23:0.26948 24:0.534678 25:0.0136911 26:0.0172634 27:0.108783 28:0.0232821 29:0.0049815 30:0.0136435 31:0.00375249 32:0.0465354 33:0.0825783 34:0.00318311 35:0.00339943 36:0.840921 37:0.00806406 38:0.00860283 39:0.00296375 40:0.11 41:0.11 42:0.11 43:0.11 44:0.11 45:0.11 46:0.11 47:0.11 48:0.11 
2.588600635333697 1:0.279548 2:0.150299 3:0.570154 4:-0.966409 5:0.017402 6:0.152647 7:0.0106759 8:0.0778605 9:0.0997375 10:0.0560826 11:0.43611 12:0.275246 13:0.016409 14:0.0104763 15:0 16:0 17:1 18:0 19:0 20:0 21:0 22:0.0144471 23:0.0756684 24:0.834323 25:0.00586819 26:0.00606421 27:0.044812 28:0.00617843 29:0.00343177 30:0.00920683 31:0.0193373 32:0.121774 33:0.743819 34:0.0265214 35:0.00919279 36:0.0312391 37:0.0182997 38:0.00964832 39:0.0201686 40:4.91315e-06 41:1.00251e-05 42:0.997766 43:4.23477e-06 44:2.0611e-06 45:0.00142671 46:6.85539e-05 47:0.000714174 48:3.8062e-06 
5 1:0.55687 2:0.221324 3:0.221806 4:-0.960044 5:0.0191293 6:0.341987 7:0.0299634 8:0.0294087 9:0.0573306 10:0.411639 11:0.17723 12:0.228976 13:0.0204562 14:0.0258675 15:0 16:0 17:0 18:0 19:0 20:0 21:1 22:0.273459 23:0.0250317 24:0.0280412 25:0.022492 26:0.0402684 27:0.451694 28:0.110821 29:0.0385183 30:0.00967446 31:0.0162424 32:0.0405794 33:0.027651 34:0.00368786 35:0.00628552 36:0.887026 37:0.00903017 38:0.00487772 39:0.00462015 40:0.11 41:0.11 42:0.11 43:0.11 44:0.11 45:0.11 46:0.11 47:0.11 48:0.11 
5 1:0.255475 2:0.12645 3:0.618075 4:-0.969624 5:0.00245734 6:0.0192797 7:0.0271336 8:0.15111 9:0.493771 10:0.265479 11:0.0166668 12:0.0181727 13:0.0145565 14:0.0106537 15:0 16:0 17:0 18:0 19:0 20:0 21:0 22:0.157052 23:0.288769 24:0.270139 25:0.0357672 26:0.0188185 27:0.0733961 28:0.122398 29:0.0099198 30:0.0237406 31:0.00821073 32:0.324285 33:0.489113 34:0.00914521 35:0.0130214 36:0.0963702 37:0.0149155 38:0.00258054 39:0.0423589 40:0.0358613 41:0.585635 42:0.0775423 43:0.0319671 44:0.00562615 45:0.171636 46:0.0491122 47:0.0151265 48:0.0274936 
-8 1:0.723477 2:0.03808 3:0.238443 4:-0.941769 5:0.00778284 6:0.0797552 7:0.46052 8:0.046886 9:0.151725 10:0.181057 11:0.0553539 12:0.0223899 13:0.0472172 14:0.0270689 15:0 16:0 17:0 18:0 19:0 20:0 21:0 22:0.0151282 23:0.0433102 24:0.0365397 25:0.0196297 26:0.0164802 27:0.555026 28:0.125545 29:0.129239 30:0.0591029 31:0.0219591 32:0.0492118 33:0.0341229 34:0.0509358 35:0.0157294 36:0.029321 37:0.0268162 38:0.0439343 39:0.727969 40:0.11 41:0.11 42:0.11 43:0.11 44:0.11 45:0.11 46:0.11 47:0.11 48:0.11 
-8 1:0.860999 2:0.0568483 3:0.0821531 4:-0.875732 5:0.00332537 6:0.0855334 7:0.296923 8:0.0447639 9:0.0468527 10:0.0499763 11:0.0362685 12:0.114513 13:0.0901129 14:0.317264 15:0 16:0 17:0 18:0 19:0 20:0 21:0 22:0.00649945 23:0.0314257 24:0.00880175 25:0.011617 26:0.00401486 27:0.0391024 28:0.115016 29:0.17959 30:0.603933 31:0.11 32:0.11 33:0.11 34:0.11 35:0.11 36:0.11 37:0.11 38:0.11 39:0.11 40:0.00336235 41:0.039804 42:0.0316479 43:0.0715948 44:0.18785 45:0.00482296 46:0.0158662 47:0.094006 48:0.551046 
-4.491530791983383 1:0.368249 2:0.172894 3:0.458858 4:0.959219 5:0.00038399 6:0.197925 7:0.746029 8:0.0015005 9:0.00230062 10:0.0040281 11:0.0207643 12:0.153088 13:0.00200584 14:0.0698997 15:0 16:0 17:0 18:0 19:0 20:0 21:0 22:0.0726994 23:0.28212 24:0.033258 25:0.0509329 26:0.0705197 27:0.25971 28:0.0934808 29:0.0290347 30:0.108245 31:0.03379 32:0.566795 33:0.0249214 34:0.0341469 35:0.0114583 36:0.0434607 37:0.11145 38:0.134074 39:0.0399025 40:0.000469413 41:0.0153623 42:0.00650576 43:0.00283976 44:0.00518057 45:0.00193028 46:0.00463426 47:0.00697261 48:0.956105 
-8 1:0.919708 2:0.0491829 3:0.0311092 4:-0.60878 5:0.00669628 6:0.0614253 7:0.468748 8:0.0177471 9:0.0662127 10:0.114901 11:0.0831931 12:0.112281 13:0.0143644 14:0.115857 15:0 16:0 17:0 18:0 19:0 20:0 21:0 22:0.00476585 23:0.0199199 24:0.0247584 25:0.0195816 26:0.016833 27:0.0578729 28:0.033402 29:0.129683 30:0.693183 31:0.11 32:0.11 33:0.11 34:0.11 35:0.11 36:0.11 37:0.11 38:0.11 39:0.11 40:0.066353 41:0.392386 42:0.0398794 43:0.0748954 44:0.0649335 45:0.0055752 46:0.0899802 47:0.105859 48:0.160138 
-5.195775472237337 1:0.534573 2:0.324023 3:0.141405 4:-0.916916 5:0.0078252 6:0.321127 7:0.725211 8:0.0211334 9:0.00491511 10:0.0307083 11:0.00398875 12:0.0111784 13:0.0816522 14:0.113387 15:0 16:0 17:1 18:0 19:0 20:0 21:0 22:0.00988558 23:0.0141309 24:0.0241696 25:0.0209006 26:0.00336777 27:0.00473848 28:0.117922 29:0.00432382 30:0.800562 31:0.00371969 32:0.0064978 33:0.00170831 34:0.0320099 35:0.00102221 36:0.00126833 37:0.00271922 38:0.00277464 39:0.94828 40:0.00422448 41:0.0747068 42:0.0216084 43:0.00474816 44:0.0018691 45:0.00367994 46:0.019049 47:0.0748137 48:0.795301 
-8 1:0.814954 2:0.112649 3:0.0723969 4:-0.962186 5:0.0239278 6:0.231055 7:0.0604829 8:0.0662647 9:0.239306 10:0.14762 11:0.0554591 12:0.36356 13:0.0346732 14:0.00870652 15:0 16:0 17:0 18:0 19:0 20:0 21:0 22:0.00687636 23:0.0430453 24:0.0182953 25:0.748188 26:0.0740205 27:0.00906828 28:0.0192637 29:0.0209665 30:0.060276 31:0.0194874 32:0.0489365 33:0.0189515 34:0.0856082 35:0.0260414 36:0.0210266 37:0.0392499 38:0.117827 39:0.622871 40:0.000229036 41:0.00525408 42:0.00393825 43:0.00607962 44:0.00491835 45:0.00151282 46:0.0189239 47:0.0118238 48:0.94732 
-2.955135996820436 1:0.837956 2:0.0864654 3:0.075579 4:-0.521935 5:0.0171626 6:0.218664 7:0.179882 8:0.0506749 9:0.0745921 10:0.223259 11:0.0694464 12:0.0888465 13:0.170415 14:0.125722 15:0 16:0 17:0 18:1 19:0 20:0 21:0 22:0.0755694 23:0.118507 24:0.0101817 25:0.0064386 26:0.00386723 27:0.0141259 28:0.224782 29:0.198534 30:0.347994 31:0.00209035 32:0.00815069 33:0.000951958 34:0.0221677 35:0.0038819 36:0.00105781 37:0.00147087 38:0.00966162 39:0.950567 40:0.0310774 41:0.170284 42:0.00713257 43:0.18122 44:0.0311317 45:0.0036319 46:0.509664 47:0.023972 48:0.0418872 
-7.358222217981603 1:0.838084 2:0.0482467 3:0.11367 4:0.900966 5:0.00914617 6:0.0344623 7:0.0396543 8:0.0765772 9:0.0145964 10:0.123779 11:0.116856 12:0.37141 13:0.00795721 14:0.240024 15:0 16:0 17:0 18:0 19:0 20:0 21:1 22:0.0127635 23:0.0313932 24:0.00678445 25:0.00876473 26:0.018061 27:0.359296 28:0.227074 29:0.0649657 30:0.270897 31:0.000730583 32:0.00279484 33:0.00139446 34:0.0183316 35:0.00365941 36:0.00295175 37:0.000638404 38:0.00738808 39:0.962111 40:0.11 41:0.11 42:0.11 43:0.11 44:0.11 45:0.11 46:0.11 47:0.11 48:0.11 
-6.587375392881066 1:0.891447 2:0.0338757 3:0.0746774 4:0.964933 5:0.0359008 6:0.158164 7:0.0511512 8:0.188143 9:0.0378145 10:0.0707821 11:0.128429 12:0.100213 13:0.17965 14:0.207917 15:0 16:0 17:0 18:0 19:0 20:0 21:1 22:0.127712 23:0.192519 24:0.0282067 25:0.061004 26:0.0418046 27:0.0598917 28:0.0724329 29:0.0843972 30:0.332032 31:0.0288967 32:0.143992 33:0.0846038 34:0.0449219 35:0.37891 36:0.0598197 37:0.0600146 38:0.103302 39:0.0955391 40:0.000325694 41:0.00246959 42:0.000715918 43:0.0178068 44:0.961992 45:0.000294851 46:0.00517757 47:0.00322412 48:0.00799326 
-7.892459448609313 1:0.613785 2:0.26586 3:0.120355 4:0.73909 5:0.00738701 6:0.6194 7:0.0300419 8:0.00713274 9:0.000475239 10:0.00447689 11:0.00108912 12:0.0145715 13:0.205427 14:0.729398 15:0 16:0 17:0 18:1 19:0 20:0 21:1 22:0.199427 23:0.134402 24:0.00489149 25:0.173927 26:0.367643 27:0.00567502 28:0.0377796 29:0.0124526 30:0.0638031 31:0.0162436 32:0.198991 33:0.0886097 34:0.0679438 35:0.0770114 36:0.0667377 37:0.215703 38:0.21417 39:0.0545902 40:2.08429e-07 41:2.82231e-07 42:1.64229e-07 43:5.47021e-07 44:0.999736 45:4.34625e-05 46:7.60913e-05 47:0.000135317 48:7.74793e-06 
-8 1:0.889588 2:0.0287148 3:0.0816973 4:0.966082 5:0.00914625 6:0.024527 7:0.177158 8:0.100761 9:0.0699014 10:0.164693 11:0.191726 12:0.128318 13:0.0410797 14:0.117217 15:0 16:0 17:0 18:0 19:0 20:0 21:0 22:0.0894245 23:0.0817716 24:0.0197773 25:0.0489568 26:0.0239202 27:0.0291234 28:0.166058 29:0.361855 30:0.179113 31:0.0033351 32:0.177345 33:0.14671 34:0.00843439 35:0.0224462 36:0.617065 37:0.0112521 38:0.00296565 39:0.0104472 40:0.0039439 41:0.0425095 42:0.0135212 43:0.0164184 44:0.00502899 45:0.0750442 46:0.0182479 47:0.231978 48:0.593308 
-0.4014302416889037 1:0.896481 2:0.045543 3:0.0579763 4:0.952704 5:0.000205655 6:0.0418434 7:0.576778 8:0.00159166 9:0.000245737 10:0.00275798 11:0.00630029 12:0.0182733 13:0.0611036 14:0.332744 15:0 16:0 17:0 18:0 19:0 20:0 21:1 22:0.025867 23:0.0874962 24:0.00570967 25:0.0141625 26:0.0154935 27:0.756191 28:0.0392173 29:0.00639883 30:0.0494638 31:0.00407644 32:0.00760185 33:0.0218759 34:0.00888258 35:0.417533 36:0.0257331 37:0.0462432 38:0.392016 39:0.0760374 40:0.0092407 41:0.0249734 42:0.00891079 43:0.00151002 44:0.0752155 45:0.000749044 46:0.00984997 47:0.00259712 48:0.866953 
-1.512180879453396 1:0.893996 2:0.0410085 3:0.0649953 4:0.936843 5:0.0252352 6:0.404337 7:0.130753 8:0.0481392 9:0.0934758 10:0.0390959 11:0.0611992 12:0.255807 13:0.0559413 14:0.290354 15:0 16:0 17:0 18:0 19:0 20:0 21:0 22:0.00744989 23:0.0244403 24:0.00617523 25:0.0289402 26:0.479236 27:0.00644744 28:0.109416 29:0.0614799 30:0.276415 31:0.0112723 32:0.0342059 33:0.0471567 34:0.782938 35:0.0317132 36:0.0272692 37:0.0176911 38:0.0101527 39:0.0376004 40:0.0140346 41:0.0990463 42:0.335766 43:0.203623 44:0.0726265 45:0.0115937 46:0.094183 47:0.0321683 48:0.136958 
-8 1:0.886808 2:0.0379676 3:0.0752242 4:0.945599 5:0.00104104 6:0.0636553 7:0.356816 8:0.00480555 9:0.0362877 10:0.219783 11:0.0456104 12:0.314772 13:0.013317 14:0.00756828 15:0 16:0 17:0 18:0 19:0 20:0 21:0 22:0.0299647 23:0.186662 24:0.276221 25:0.0404522 26:0.0159521 27:0.0481563 28:0.23648 29:0.0331389 30:0.132973 31:0.0596279 32:0.623722 33:0.0311473 34:0.0894733 35:0.0154185 36:0.0890685 37:0.0430009 38:0.0159924 39:0.032549 40:0.00222793 41:0.437833 42:0.0361696 43:0.0269938 44:0.00637225 45:0.00450414 46:0.105327 47:0.052472 48:0.3281 
