svm_type c_svc
kernel_type rbf
gamma 0.01
nr_class 2
total_sv 760
rho 0.0649166
label 0 1
probA -1.76202
probB 0.13501
nr_sv 522 238
SV
0.737927847565799 19904:1 
20 19904:1 
20 334:1 5506:1 8152:1 
20 3824:1 3987:1 8152:1 16208:1 
20 3824:1 3878:1 4775:1 5488:1 5524:1 5737:1 8152:1 44262:1 46912:1 
0.5671722261408384 159:1 7165:1 8601:1 
20 3824:1 3987:1 8152:1 16208:1 
20 6118:1 16491:1 
20 3824:1 6520:1 8483:1 9058:1 16769:1 30170:1 
3.735772803565045 3824:1 5488:1 8152:1 8270:1 16491:1 
20 3824:1 5488:1 8152:1 8270:1 16491:1 
20 3824:1 5488:1 8152:1 8270:1 16491:1 
20 3824:1 5488:1 8152:1 8270:1 16491:1 
20 3824:1 5488:1 8152:1 8270:1 16491:1 
20 3824:1 6118:1 9055:1 16491:1 46872:1 50660:1 51287:1 51536:1 
20 3824:1 5488:1 8152:1 8270:1 16491:1 
4.928437487112634 6457:1 20027:1 30097:1 30492:1 50821:1 
20 16491:1 
20 3824:1 5488:1 8152:1 8270:1 16491:1 
20 3824:1 5488:1 8152:1 8270:1 16491:1 
20 16491:1 
20 3824:1 9058:1 16769:1 16847:1 30170:1 
20 3824:1 5488:1 8152:1 8270:1 16491:1 
20 3824:1 5488:1 8152:1 8270:1 16491:1 
20 3824:1 5488:1 8152:1 8270:1 16491:1 
20 16491:1 
20 16491:1 
20 3824:1 5488:1 8152:1 8270:1 16491:1 
20 16491:1 
15.47877847858193 4060:1 8152:1 16407:1 
13.28481963911612 5622:1 6916:1 
20 3824:1 5622:1 16070:1 
20 4060:1 8152:1 16407:1 
20 4197:1 6508:1 
20 3824:1 5198:1 5524:1 7155:1 8152:1 15629:1 
7.496238720789755 42981:1 
20 3824:1 4084:1 8152:1 9081:1 
20 3824:1 4329:1 5488:1 5524:1 8152:1 9396:1 
20 16491:1 
20 3824:1 5488:1 8152:1 16491:1 
18.51797048083754 5506:1 6118:1 16491:1 16706:1 45329:1 
20 4053:1 6527:1 16813:1 46872:1 
14.50723743840629 3677:1 5488:1 6306:1 8170:1 
20 4089:1 6730:1 8270:1 
20 4089:1 6730:1 8270:1 
20 4089:1 6730:1 8270:1 
20 8080:1 8152:1 
20 4089:1 6730:1 8270:1 
20 4089:1 6730:1 8270:1 
20 3824:1 4084:1 8152:1 9081:1 
13.23530973435023 4096:1 6118:1 6979:1 
20 3824:1 4084:1 8152:1 9081:1 
20 3824:1 4114:1 7165:1 
20 4089:1 6730:1 8270:1 
20 3824:1 5524:1 8152:1 9374:1 16874:1 
1.816844558688152 3824:1 4122:1 5737:1 6535:1 8152:1 19343:1 30170:1 
20 8171:1 
20 3824:1 5488:1 8152:1 
20 3824:1 6520:1 30170:1 
20 3824:1 9058:1 16779:1 
15.22953618247852 8898:1 
20 5215:1 5622:1 6810:1 
10.64631373344601 4143:1 7205:1 
20 3824:1 5524:1 8152:1 9374:1 16874:1 
20 3824:1 5488:1 8152:1 16616:1 48037:1 51287:1 
20 3824:1 4329:1 5488:1 5524:1 8152:1 9396:1 
20 4030:1 6081:1 8152:1 16491:1 
20 3824:1 4152:1 4158:1 5488:1 5737:1 6118:1 6207:1 8152:1 9055:1 16491:1 50660:1 51536:1 
20 16491:1 
20 8152:1 16491:1 
10.63971403144292 5869:1 7017:1 
14 5525:1 5622:1 
11.26211846125549 4089:1 6730:1 8270:1 
7.582398918506826 4853:1 6779:1 
6.988328710452961 5525:1 5622:1 
0.5665641189181683 5198:1 5882:1 
20 3746:1 3924:1 5525:1 5737:1 6414:1 
1.665140314570983 3824:1 4303:1 5488:1 5737:1 6703:1 8152:1 16491:1 
10.63686674233795 5245:1 6816:1 
20 5506:1 6118:1 9055:1 16491:1 20037:1 46914:1 
20 3824:1 5488:1 8152:1 16491:1 
20 6457:1 31072:1 51082:1 
20 3746:1 3924:1 5525:1 5737:1 6414:1 
20 6629:1 16290:1 
7.080851791327742 3993:1 4252:1 5509:1 6508:1 
10.93712637460957 4383:1 6182:1 7242:1 9190:1 16849:1 20037:1 
5.59418737729704 6470:1 8138:1 16311:1 16791:1 17017:1 
14.1064697716526 166:1 3777:1 5524:1 7018:1 16887:1 17111:1 30286:1 
6.909894887998361 4866:1 4869:1 5622:1 
8.165332369805993 3676:1 4386:1 5524:1 8026:1 
6.63409428867407 166:1 3676:1 5622:1 6810:1 
20 8152:1 16491:1 
20 6457:1 
2.81124997779283 5085:1 5525:1 51020:1 
15.029242839053 5093:1 15031:1 43087:1 
20 3723:1 
20 3824:1 4372:1 6544:1 6563:1 30170:1 
20 6118:1 9055:1 15035:1 45454:1 
0.2109384600081467 3779:1 
20 3723:1 5488:1 
20 4602:1 6979:1 
20 166:1 3676:1 
14.0097127449128 5524:1 9396:1 30272:1 
10.64626969094656 3810:1 18149:1 
19.9314892755912 5524:1 9396:1 30272:1 
20 3723:1 
20 5524:1 6457:1 51082:1 
7.134989121597928 5576:1 6952:1 
5.814749412775082 5488:1 6826:1 6879:1 8199:1 16491:1 46914:1 
20 4450:1 8152:1 16616:1 
20 3824:1 5542:1 8152:1 16740:1 44237:1 
17.75329822229302 3723:1 3743:1 5737:1 6413:1 
2.153015903516259 5506:1 15671:1 19825:1 20037:1 
10.77630740388745 3824:1 5737:1 6730:1 8152:1 8168:1 9058:1 9258:1 16155:1 16491:1 16742:1 48037:1 
13.15832649400074 3723:1 3743:1 5737:1 6413:1 
20 5506:1 15671:1 19825:1 20037:1 
20 6777:1 
20 5524:1 
20 6118:1 9055:1 15035:1 45454:1 
4.672970183810003 4842:1 5622:1 6464:1 6512:1 
20 4602:1 6979:1 
20 3824:1 4421:1 8152:1 8299:1 
20 5524:1 6457:1 51082:1 
10.41534237525205 4364:1 8152:1 
20 4364:1 8152:1 
20 4364:1 8152:1 
20 4364:1 8152:1 
20 8152:1 51539:1 
20 3824:1 3922:1 5524:1 6164:1 6177:1 6541:1 9058:1 
20 3824:1 
6.911206895540063 5089:1 5622:1 35023:1 
20 3824:1 16301:1 16772:1 
14.36160616080921 3824:1 5515:1 5622:1 6508:1 6915:1 8152:1 8234:1 30693:1 42981:1 
1.154066975415502 5198:1 
20 3824:1 4222:1 6508:1 8270:1 46872:1 
0.5462791515593687 3908:1 5515:1 6281:1 
20 3824:1 5488:1 8152:1 
13.42084468980691 4797:1 5524:1 
20 3824:1 16301:1 16772:1 
0.5588029628588502 4864:1 7165:1 
10.64618899225902 1533:1 30216:1 
20 8152:1 51539:1 
20 16491:1 
20 3824:1 16301:1 16772:1 
20 16763:1 
20 3824:1 4470:1 5488:1 6108:1 8152:1 16616:1 51287:1 
20 3824:1 4470:1 5488:1 6108:1 8152:1 16616:1 51287:1 
0.7355950041267231 19911:1 
8.350143364463374 3824:1 5737:1 6569:1 8152:1 9435:1 30170:1 30429:1 
20 4222:1 6508:1 8237:1 8270:1 
20 166:1 5488:1 5524:1 16887:1 17111:1 
20 46872:1 
2.32404223163386 4497:1 6118:1 6725:1 8270:1 
1.100763542849366 3824:1 4459:1 5488:1 5737:1 5975:1 6096:1 6100:1 8152:1 16491:1 16616:1 19642:1 44262:1 
10.64616438007331 5523:1 5856:1 
1.140935171599827 5529:1 
0.5301013175632354 5506:1 6118:1 6691:1 16165:1 16702:1 46872:1 
20 5529:1 16020:1 16524:1 
20 19911:1 
16.40065531879135 4437:1 5975:1 42578:1 
20 3824:1 5488:1 8152:1 16491:1 
20 3824:1 5488:1 5975:1 6096:1 6100:1 6108:1 8152:1 16491:1 16615:1 16616:1 30060:1 44262:1 
20 6629:1 8152:1 
20 3824:1 5488:1 5975:1 6096:1 6100:1 6108:1 8152:1 16491:1 16615:1 16616:1 30060:1 44262:1 
6.030477175298199 4156:1 5622:1 8705:1 8898:1 9086:1 9396:1 31419:1 44237:1 46872:1 50897:1 
6.088030639623771 3755:1 6457:1 
10.65129480026476 8478:1 8615:1 
4.651377202998716 3924:1 5525:1 
16.2723191199389 8168:1 
20 16020:1 
20 8080:1 8152:1 
20 6118:1 16491:1 50662:1 
20 3824:1 4070:1 4086:1 5524:1 6207:1 6520:1 6541:1 6807:1 8152:1 16597:1 16743:1 16787:1 16812:1 
18.36147025010103 5515:1 6118:1 7154:1 35091:1 
20 166:1 4176:1 4252:1 5488:1 5524:1 6508:1 17111:1 
20 16491:1 
20 5622:1 6810:1 
20 4611:1 5525:1 6094:1 17076:1 
20 3676:1 
20 3755:1 6457:1 
16.46562731054432 166:1 3676:1 3723:1 16071:1 
17.06407744479591 3824:1 3847:1 8247:1 16042:1 
20 6118:1 16491:1 50662:1 
5.066704818363381 5525:1 7049:1 
20 16209:1 16491:1 
20 5622:1 6810:1 
20 166:1 5524:1 17111:1 
20 3735:1 5622:1 5840:1 6412:1 
20 4437:1 
20 5622:1 6810:1 
20 3723:1 30529:1 
7.410257635740069 6629:1 16787:1 16788:1 
20 3676:1 3723:1 3735:1 5622:1 5840:1 6412:1 
11.84894329172828 287:1 4289:1 4427:1 4620:1 5737:1 6508:1 6796:1 8152:1 9395:1 
20 3735:1 5622:1 5840:1 6412:1 
20 16209:1 16491:1 
20 3735:1 5622:1 5840:1 6412:1 
20 4871:1 
20 16491:1 
20 3735:1 5622:1 5840:1 6412:1 
20 3824:1 4013:1 5488:1 6730:1 8152:1 
20 3676:1 3723:1 3735:1 5622:1 5840:1 6412:1 
20 3735:1 5622:1 5840:1 6412:1 15935:1 
20 8430:1 45454:1 
0.4830119419230689 4719:1 6464:1 
7.35040898119609 4748:1 5515:1 5971:1 6260:1 
20 3735:1 5622:1 5840:1 6412:1 15935:1 
20 3735:1 5622:1 5840:1 6412:1 15935:1 
20 3735:1 5622:1 5840:1 6412:1 
20 3735:1 5622:1 5840:1 6412:1 15935:1 
20 3735:1 5622:1 5840:1 6412:1 
20 3735:1 5622:1 5840:1 6412:1 
10.86110298592293 5509:1 
20 3735:1 5622:1 5840:1 6412:1 15935:1 
20 5509:1 
0.5619873224829275 5509:1 30234:1 
0.9420545735767505 8430:1 
13.85669323759163 4252:1 4287:1 6508:1 8236:1 
20 3824:1 6520:1 8152:1 30170:1 
0.7440854480453797 4867:1 
2.676377985632464 3824:1 4070:1 4086:1 5524:1 6207:1 6520:1 6541:1 6807:1 8152:1 9058:1 16597:1 16743:1 16787:1 16810:1 16812:1 
20 5509:1 
6.12801605094174 5175:1 5737:1 6118:1 9055:1 43065:1 
20 4867:1 
20 3824:1 5488:1 8152:1 8270:1 16491:1 
20 3779:1 
13.64896031621082 5525:1 7264:1 15031:1 
17.50805852639427 3824:1 4757:1 5488:1 6729:1 8152:1 16491:1 
20 16021:1 16192:1 
17.81041709383807 3824:1 4757:1 5488:1 6729:1 8152:1 16491:1 
14.80085843044287 7275:1 9966:1 16020:1 
20 3824:1 5524:1 7269:1 8021:1 
0.006817591517330831 166:1 5525:1 6614:1 8312:1 16020:1 17111:1 48500:1 
1.467871293257604 4748:1 9186:1 16491:1 46914:1 
20 5515:1 5524:1 6457:1 44267:1 51082:1 
9.60642422751285 166:1 4812:1 4817:1 5524:1 5737:1 6412:1 6418:1 6423:1 
20 3735:1 5622:1 5840:1 6412:1 
20 4672:1 5515:1 5524:1 6457:1 6468:1 44267:1 51082:1 
4.58031629341965 5737:1 7349:1 16020:1 
9.608475895664732 166:1 4812:1 4821:1 5524:1 5737:1 6412:1 6418:1 6427:1 
20 3735:1 5622:1 5840:1 6412:1 
20 5515:1 5524:1 6457:1 44267:1 51082:1 
4.073027116685409 166:1 4812:1 4819:1 5524:1 5737:1 6412:1 6418:1 6424:1 6425:1 
20 3735:1 5622:1 5840:1 6412:1 
20 5515:1 5524:1 6457:1 44267:1 51082:1 
20 3735:1 5622:1 5840:1 6412:1 8097:1 
20 4190:1 5515:1 5524:1 6457:1 6508:1 44267:1 51082:1 
0.5350206448353916 166:1 3676:1 4812:1 4815:1 4816:1 5524:1 5737:1 6412:1 6418:1 6421:1 6422:1 
20 5515:1 5524:1 6457:1 44267:1 51082:1 
20 3735:1 5622:1 5840:1 6412:1 8097:1 
20 5515:1 5524:1 6457:1 44267:1 51082:1 
20 45454:1 
20 3677:1 5524:1 16787:1 
0.7508703219168718 3677:1 8270:1 
20 5515:1 5524:1 6457:1 44267:1 51082:1 
5.595827486655772 4016:1 6171:1 6772:1 50333:1 
20 3735:1 5622:1 5840:1 6412:1 
20 5515:1 5524:1 6457:1 44267:1 51082:1 
20 3735:1 5622:1 5840:1 6412:1 15935:1 
10.64663713181659 4792:1 8272:1 
20 166:1 3676:1 
0.1486496995938772 166:1 3676:1 4812:1 4824:1 5524:1 5737:1 6412:1 6418:1 6430:1 
20 8152:1 16779:1 
20 45454:1 
20 5509:1 
7.278391600435468 19787:1 43687:1 51246:1 
12.22058761302728 4289:1 6508:1 
20 5515:1 5524:1 6457:1 44267:1 51082:1 
20 5515:1 5524:1 6457:1 44267:1 51082:1 
18.4172679001311 16810:1 
14.3597069331436 5515:1 
20 8152:1 16779:1 
20 5515:1 5524:1 6457:1 44267:1 51082:1 
20 5515:1 
20 3676:1 3677:1 4601:1 6118:1 6355:1 6979:1 20037:1 
20 166:1 3676:1 
1.171571484706258 16787:1 
3.838628586231895 5737:1 8119:1 8152:1 
0.3339229410127352 4785:1 6801:1 46872:1 
0.5625458410875127 5515:1 5923:1 
20 5215:1 5622:1 6810:1 
19.97776104868944 7275:1 9966:1 16020:1 
20 3824:1 6520:1 8483:1 9058:1 16769:1 30170:1 
5.763664805869881 151:1 4842:1 16567:1 
20 3824:1 5488:1 8152:1 8270:1 16491:1 
20 3824:1 3878:1 4775:1 5488:1 8152:1 44262:1 46912:1 
3.609229217297011 4221:1 5622:1 6511:1 
20 3824:1 5488:1 8152:1 8270:1 16491:1 
20 3824:1 5488:1 8152:1 8270:1 16491:1 
20 166:1 17111:1 
10.64663766902568 7034:1 30904:1 
10.35545933753822 7242:1 
3.632195241865485 775:1 5634:1 7067:1 
7.280738174978397 4057:1 16598:1 42176:1 
20 3824:1 4086:1 5524:1 6807:1 8152:1 
0.5415648448464802 3824:1 5488:1 8152:1 8270:1 8839:1 9089:1 16491:1 
14.47036123448805 16779:1 
17.84409996294221 30001:1 46872:1 
20 5515:1 
20 3824:1 5215:1 5524:1 6810:1 8152:1 9374:1 16020:1 16874:1 
13.88163718630989 287:1 3824:1 16740:1 16831:1 30976:1 
20 16491:1 
20 3824:1 5524:1 8152:1 9374:1 16874:1 
0.01023040735516141 166:1 4812:1 4814:1 5524:1 5737:1 6412:1 6418:1 6420:1 
20 3755:1 6457:1 
20 4053:1 6527:1 16813:1 46872:1 
19.89237365964459 4853:1 6779:1 
0.02206012453220925 166:1 4812:1 4829:1 5524:1 5737:1 6412:1 6418:1 6435:1 16876:1 43039:1 
20 3824:1 6520:1 30170:1 
20 8152:1 16491:1 
20 5515:1 5524:1 6457:1 44267:1 51082:1 
20 6457:1 
20 5515:1 5524:1 6457:1 44267:1 51082:1 
0.4390090603348622 8299:1 
20 3824:1 4084:1 8152:1 9081:1 
20 5515:1 5524:1 6457:1 44267:1 51082:1 
17.36296835122205 5524:1 16301:1 16310:1 
20 3824:1 4329:1 5488:1 5524:1 8152:1 9396:1 
20 5515:1 5524:1 6457:1 44267:1 51082:1 
0.5401131894786935 3779:1 16043:1 17048:1 30036:1 
20 3824:1 4086:1 6541:1 6807:1 
20 3924:1 5525:1 
20 6457:1 
20 3824:1 4086:1 5524:1 6807:1 8152:1 
20 6457:1 
20 6457:1 
20 3755:1 6457:1 
20 3824:1 4356:1 6807:1 8152:1 
20 4326:1 5524:1 9058:1 9396:1 16874:1 
3.380250367099111 4221:1 6511:1 6512:1 
20 3824:1 5488:1 8152:1 8270:1 16491:1 
20 6464:1 
14.39311622203509 3824:1 4365:1 5488:1 6096:1 8152:1 51287:1 
20 3824:1 4372:1 6544:1 6563:1 30170:1 
0.06893397054818515 4347:1 6094:1 6096:1 
15.66257003807471 3824:1 4367:1 5488:1 5737:1 5975:1 6072:1 8152:1 9331:1 16491:1 16614:1 16616:1 46168:1 50662:1 51287:1 
17.39891267932548 4067:1 6520:1 6528:1 
20 5524:1 
20 6118:1 9055:1 15035:1 45454:1 
19.69515411217797 4096:1 6118:1 6979:1 
20 16491:1 
20 4109:1 6779:1 
6.547213529365452 3824:1 4356:1 6542:1 6807:1 
20 4450:1 8152:1 16616:1 
20 5524:1 6457:1 51082:1 
20 5524:1 
20 3824:1 4356:1 6542:1 6807:1 
13.95407683785713 4017:1 5524:1 6139:1 16776:1 19201:1 19205:1 
20 5524:1 
20 3824:1 4356:1 6542:1 6807:1 
6.97342592868504 4371:1 5524:1 6071:1 
20 3743:1 5852:1 6413:1 
20 3824:1 4356:1 6542:1 6807:1 
0.2631056023025078 3862:1 5737:1 8152:1 9098:1 16616:1 
20 3746:1 3924:1 5525:1 5737:1 6414:1 
1.558507800692606 3824:1 4512:1 5488:1 6021:1 8152:1 8654:1 
20 5524:1 
20 8152:1 16740:1 
11.39965439961234 3700:1 5634:1 6355:1 43565:1 46983:1 
20 8017:1 
20 5509:1 
20 3824:1 4512:1 5488:1 6021:1 8152:1 8654:1 
20 3824:1 5488:1 5975:1 6096:1 6100:1 6108:1 8152:1 16491:1 16615:1 16616:1 30060:1 44262:1 
20 4550:1 5524:1 6183:1 6228:1 6241:1 
20 3824:1 6520:1 16765:1 30170:1 
0.02897094940693858 4379:1 6499:1 
8.468632106713327 4496:1 5524:1 5737:1 8152:1 8299:1 16301:1 16310:1 16773:1 
20 3824:1 4372:1 6544:1 6563:1 30170:1 
20 3824:1 8483:1 30170:1 
20 3824:1 8152:1 
20 5622:1 6810:1 
20 3824:1 8152:1 19752:1 46912:1 
20 4585:1 6520:1 9348:1 16597:1 16743:1 
20 4497:1 6118:1 6725:1 8152:1 16491:1 
20 3824:1 5488:1 8152:1 9396:1 
0.1513203889185455 3824:1 4615:1 5737:1 8152:1 19307:1 
20 3842:1 5759:1 6561:1 8152:1 16491:1 
20 4725:1 6470:1 
6.128086062851179 166:1 3676:1 3723:1 16071:1 
20 166:1 5524:1 17111:1 
20 3824:1 16831:1 
16.45583079092266 3824:1 4615:1 5737:1 8152:1 19307:1 
20 3735:1 5622:1 5840:1 6412:1 
20 3824:1 4642:1 6189:1 
20 4222:1 6508:1 8237:1 8270:1 
20 3735:1 5622:1 5840:1 6412:1 8097:1 
20 46907:1 
10.08497788002438 3862:1 5737:1 8152:1 9098:1 16616:1 
20 5515:1 
20 3824:1 4086:1 4736:1 5524:1 5737:1 6094:1 6807:1 8152:1 9374:1 16874:1 
20 3824:1 4086:1 4736:1 5524:1 5737:1 6094:1 6807:1 8152:1 9374:1 16874:1 
20 3676:1 3723:1 3735:1 5622:1 5840:1 6412:1 
20 5515:1 
20 5509:1 
20 3735:1 5622:1 5840:1 6412:1 
20 166:1 3676:1 
6.977569478606445 3774:1 5524:1 16459:1 
20 3735:1 5622:1 5840:1 6412:1 
10.61374895379261 4379:1 6499:1 
20 3735:1 5622:1 5840:1 6412:1 
20 3824:1 8483:1 30170:1 
20 3676:1 3723:1 3735:1 5622:1 5840:1 6412:1 
20 166:1 4812:1 4828:1 5524:1 5737:1 6412:1 6418:1 6434:1 
20 5509:1 
15.02425601152739 145:1 6904:1 15031:1 
20 5515:1 5524:1 6457:1 44267:1 51082:1 
20 3735:1 5622:1 5840:1 6412:1 
4.234621333653142 166:1 3676:1 4812:1 4815:1 5524:1 5737:1 6412:1 6418:1 6422:1 
6.908526198694927 166:1 4812:1 4826:1 5524:1 5737:1 6412:1 6418:1 6432:1 
20 3924:1 5525:1 
3.940573653510229 3676:1 4813:1 5524:1 5737:1 6412:1 6419:1 16876:1 43039:1 
7.623515586895838 166:1 4812:1 4818:1 5524:1 5737:1 6412:1 6418:1 6424:1 
4.894618638673661 166:1 4812:1 4815:1 5524:1 5737:1 6412:1 6418:1 6422:1 
20 287:1 8152:1 16829:1 
20 166:1 3676:1 
1.296067323638375 166:1 3723:1 4826:1 5524:1 5737:1 6412:1 6432:1 
1.49721418843659 166:1 3723:1 4826:1 5524:1 5737:1 6412:1 6432:1 
20 166:1 4812:1 4828:1 5524:1 5737:1 6412:1 6418:1 6434:1 
20 3824:1 5488:1 8152:1 8270:1 16491:1 
20 3824:1 6520:1 8152:1 30170:1 
9.44822877876514 166:1 3676:1 4812:1 4824:1 5524:1 5737:1 6412:1 6418:1 6430:1 
9.606487397124106 166:1 4812:1 4822:1 5524:1 5737:1 6412:1 6418:1 6428:1 
0.2639093563735905 17148:1 30598:1 
20 166:1 4812:1 4823:1 5524:1 5737:1 6412:1 6418:1 6429:1 
9.609430983490759 166:1 4812:1 4825:1 5524:1 5737:1 6412:1 6418:1 6431:1 
0.05906700368237689 166:1 4812:1 4831:1 5524:1 5737:1 6412:1 6418:1 6437:1 
0.4423576390368982 3824:1 4332:1 6096:1 8152:1 
20 166:1 4812:1 4830:1 5524:1 5737:1 6412:1 6418:1 6436:1 
3.203597687727647 166:1 4812:1 4829:1 5524:1 5737:1 6412:1 6418:1 6435:1 16876:1 43039:1 
20 16209:1 16491:1 
20 3924:1 5525:1 
19.250129109911 4785:1 6801:1 46872:1 
20 5515:1 5524:1 6457:1 44267:1 51082:1 
14.92831728165561 16209:1 16491:1 
10.09924712675194 5506:1 16491:1 
19.21904864582593 166:1 5525:1 6614:1 8312:1 16020:1 17111:1 48500:1 
20 5515:1 5524:1 6457:1 44267:1 51082:1 
20 5515:1 5524:1 6457:1 44267:1 51082:1 
20 5524:1 
12.24690174146257 8299:1 
20 5515:1 5524:1 6457:1 44267:1 51082:1 
20 3824:1 8152:1 
20 3723:1 4540:1 
20 3824:1 6520:1 8483:1 9058:1 16769:1 30170:1 
13.99423099408122 3824:1 4332:1 6096:1 8152:1 
3.927898589314144 4362:1 5737:1 6118:1 6749:1 15036:1 16491:1 45454:1 50660:1 50661:1 
20 166:1 4812:1 4823:1 5524:1 5737:1 6412:1 6418:1 6429:1 
20 3824:1 5488:1 8152:1 8270:1 16491:1 
19.61321280378526 4791:1 5737:1 6118:1 16491:1 19430:1 50660:1 
10.64851500974677 3868:1 9072:1 
9.599769726356669 166:1 4812:1 4814:1 5524:1 5737:1 6412:1 6418:1 6420:1 
20 3824:1 4332:1 6096:1 8152:1 
20 4601:1 6118:1 6979:1 20037:1 
19.14506231444753 287:1 4427:1 5737:1 6796:1 
9.562315740853712 166:1 4812:1 4831:1 5524:1 5737:1 6412:1 6418:1 6437:1 
15.27693740035398 4177:1 5622:1 6508:1 
20 3824:1 4084:1 8152:1 9081:1 
0.509054483059033 287:1 4427:1 5737:1 6796:1 
20 5515:1 5524:1 6457:1 44267:1 51082:1 
20 4601:1 6118:1 6979:1 20037:1 
20 6810:1 8202:1 16021:1 
0.2672873851563164 6952:1 9607:1 
9.881193125816793 6508:1 8234:1 
20 3755:1 6457:1 
20 16491:1 
20 3824:1 6099:1 8964:1 
20 3824:1 8152:1 8415:1 9058:1 16747:1 
20 62:1 
20 3824:1 6099:1 8964:1 
20 3824:1 5488:1 8152:1 8270:1 16491:1 
20 3746:1 3924:1 5525:1 5737:1 6414:1 
20 8152:1 51539:1 
20 3824:1 6099:1 8964:1 
20 8152:1 8168:1 
20 3755:1 6457:1 
0.73736640954565 8146:1 
20 3755:1 6457:1 
20 3824:1 4124:1 6535:1 8152:1 30170:1 
20 3924:1 5525:1 
10.3273279895208 3824:1 4619:1 5737:1 6007:1 8152:1 30145:1 46872:1 
20 3824:1 4332:1 6096:1 8152:1 
16.25753111734432 3824:1 4345:1 5488:1 6006:1 8152:1 
20 3735:1 5622:1 5840:1 6412:1 
20 8146:1 
9.954448936322452 4347:1 6094:1 6096:1 
10.64937967371413 6950:1 9415:1 
19.29311501754108 3824:1 4345:1 5488:1 6006:1 8152:1 
20 3735:1 5622:1 5840:1 6412:1 15935:1 
20 8299:1 
5.035311384713016 16787:1 
19.61677065077613 3824:1 4512:1 5488:1 6021:1 8152:1 8654:1 
10.37980735233734 17148:1 30598:1 
20 8152:1 16491:1 
0.1462096955216095 287:1 3824:1 4743:1 6096:1 30955:1 
20 3824:1 4356:1 6542:1 6807:1 
20 3735:1 5622:1 5840:1 6412:1 
20 3824:1 4356:1 6542:1 6807:1 
20 4362:1 5737:1 6118:1 6749:1 15036:1 16491:1 45454:1 50660:1 50661:1 
0.5275669526722351 287:1 3824:1 4743:1 6096:1 30955:1 
20 3676:1 3723:1 3735:1 5622:1 5840:1 6412:1 
20 4450:1 6097:1 6102:1 8152:1 16616:1 46872:1 
20 16787:1 
20 3735:1 5622:1 5840:1 6412:1 15935:1 
20 3824:1 5488:1 6808:1 8152:1 16564:1 
4.619572858638537 4719:1 6464:1 
20 4785:1 6801:1 46872:1 
20 4611:1 4612:1 5524:1 6094:1 17076:1 
20 3824:1 5488:1 5975:1 6096:1 6100:1 6108:1 8152:1 16491:1 16615:1 16616:1 30060:1 44262:1 
20 3824:1 4470:1 5488:1 6108:1 8152:1 16616:1 51287:1 
6.84466345372976 6952:1 9607:1 
20 4719:1 6464:1 
11.47508706347636 3824:1 4735:1 5488:1 6118:1 6561:1 8152:1 
20 3735:1 5622:1 5840:1 6412:1 
20 3824:1 8152:1 8415:1 9058:1 16747:1 
16.58978857973016 5506:1 6118:1 16165:1 16702:1 46872:1 
20 3735:1 5622:1 5840:1 6412:1 
20 3824:1 4735:1 5488:1 6118:1 6561:1 8152:1 
20 3735:1 5622:1 5840:1 6412:1 
20 3824:1 4807:1 8152:1 
20 3824:1 5488:1 8152:1 8270:1 16491:1 
20 3735:1 5622:1 5840:1 6412:1 
19.4336613621204 3824:1 4735:1 5488:1 6118:1 6561:1 8152:1 
-40.47660176253847 3824:1 3987:1 8152:1 16208:1 
-25.45780419176267 3824:1 6520:1 8483:1 9058:1 16769:1 30170:1 
-54 6118:1 
-25.14574617613992 36:1 5509:1 6633:1 31177:1 48037:1 
-0.5070168680668621 6118:1 9055:1 51536:1 51537:1 
-19.60076094011636 3824:1 5488:1 6118:1 8152:1 16491:1 
-54 3676:1 3723:1 
-34.97360216897751 3994:1 6099:1 8152:1 51539:1 
-0.2530768958500879 4497:1 5506:1 6118:1 20037:1 
-54 3676:1 3723:1 
-12.31698235640229 6118:1 9055:1 51536:1 51537:1 
-54 5515:1 5524:1 6457:1 44267:1 51082:1 
-50.38858706649683 4053:1 6527:1 16813:1 46872:1 
-6.728416027014571 3824:1 8152:1 
-54 3824:1 5488:1 8152:1 16491:1 
-0.1407676911915269 15078:1 15986:1 16469:1 16820:1 46933:1 46961:1 
-0.07057756245108031 4108:1 44262:1 46912:1 
-54 4089:1 6730:1 8270:1 
-54 5515:1 5524:1 6457:1 44267:1 51082:1 
-54 4089:1 6730:1 8270:1 
-54 166:1 5515:1 5524:1 15031:1 16887:1 17111:1 
-54 5515:1 5524:1 6457:1 44267:1 51082:1 
-54 4089:1 6730:1 8270:1 
-49.19656040435562 3824:1 4086:1 5524:1 6541:1 6807:1 8152:1 
-54 3723:1 6396:1 16779:1 
-54 5515:1 5524:1 6457:1 44267:1 51082:1 
-0.8894654026090658 5506:1 6118:1 9055:1 20037:1 
-0.1656200429547474 3824:1 4616:1 5488:1 6098:1 6573:1 8152:1 8442:1 16491:1 50662:1 51287:1 
-14.49563592425115 5184:1 7218:1 8152:1 16491:1 
-54 8415:1 
-54 3824:1 5488:1 6520:1 8152:1 16491:1 
-0.08394090945164714 4148:1 5737:1 6118:1 16491:1 45454:1 50660:1 
-54 3824:1 5488:1 8152:1 16491:1 
-0.450898192839998 4129:1 5746:1 6118:1 
-10.27436105753472 3824:1 3867:1 8483:1 9448:1 30170:1 
-54 3824:1 5488:1 6520:1 8152:1 16491:1 
-15.0946463277127 3746:1 5622:1 6414:1 
-54 8152:1 16491:1 
-0.1363534737731354 5960:1 6546:1 
-54 3746:1 3924:1 5525:1 5622:1 6414:1 
-40.9614828939573 4497:1 5506:1 6118:1 20037:1 
-54 5737:1 16813:1 
-10.89007203114596 3677:1 3887:1 3895:1 5760:1 6260:1 
-7.814009873626099 4047:1 5737:1 6546:1 
-23.91925004646228 4812:1 5524:1 6412:1 
-54 3824:1 4356:1 6542:1 6807:1 
-37.89297405198674 6099:1 6118:1 9055:1 16491:1 51536:1 
-54 5509:1 5524:1 6457:1 51082:1 
-54 3824:1 4356:1 6542:1 6807:1 
-0.3482255044302361 4368:1 5509:1 6072:1 9331:1 16491:1 
-0.145358036653772 4857:1 5739:1 45980:1 
-44.59787667456271 4174:1 6118:1 16491:1 
-0.008560676649849506 3824:1 3870:1 8152:1 9058:1 16740:1 16769:1 30170:1 33014:1 
-54 4109:1 6779:1 
-0.1167062248895034 4359:1 6541:1 
-34.42418631238873 5739:1 6879:1 
-0.2575606556678671 774:1 5515:1 6457:1 42803:1 51087:1 
-54 3743:1 3924:1 5525:1 5622:1 6413:1 
-20.05061965598848 4359:1 6541:1 
-40.44975532536508 3824:1 4421:1 8152:1 8299:1 
-17.58735807197679 3824:1 5488:1 6631:1 8152:1 16491:1 50662:1 
-0.01752889028147206 3824:1 4372:1 6544:1 6563:1 30170:1 
-45.03129316370412 3824:1 16301:1 16772:1 
-16.16681992452729 3824:1 3870:1 8152:1 9058:1 16740:1 16769:1 30170:1 33014:1 
-52.99589562718261 3824:1 16301:1 16772:1 
-42.31119861488507 4368:1 5509:1 6072:1 9331:1 16491:1 
-0.07737941156421256 4325:1 6783:1 
-17.10564554914929 4047:1 5737:1 6546:1 16491:1 
-34.17186739267736 774:1 5515:1 6457:1 42803:1 51087:1 
-54 5488:1 6810:1 16020:1 
-0.4816816786718333 3824:1 4419:1 8152:1 
-26.59369563706854 5759:1 
-0.171756380358452 4550:1 5524:1 6183:1 6228:1 6241:1 
-53.42122374766939 5524:1 6457:1 51082:1 
-12.28067488163472 4491:1 6573:1 8152:1 16491:1 
-54 5488:1 6810:1 16020:1 
-0.02559601685952826 3824:1 5488:1 8152:1 44237:1 50662:1 
-54 3824:1 6464:1 
-0.4666999329871109 3824:1 5488:1 6118:1 8152:1 8746:1 8750:1 15992:1 16491:1 
-0.3016335333504024 3824:1 4222:1 6508:1 8270:1 46872:1 
-0.08986364088676024 3824:1 5488:1 5975:1 6096:1 6100:1 6108:1 8152:1 16491:1 16615:1 16616:1 30060:1 44262:1 
-54 6629:1 16290:1 
-54 16209:1 16491:1 
-54 3824:1 5488:1 8152:1 9396:1 
-16.57503694614412 4611:1 5525:1 6094:1 17076:1 
-2.666094560075071 3824:1 4494:1 8152:1 16853:1 16866:1 31419:1 46872:1 
-44.78341688420884 5524:1 6139:1 16773:1 
-54 3824:1 5488:1 8152:1 9396:1 
-54 3824:1 4736:1 5524:1 5737:1 6094:1 8152:1 9374:1 16874:1 
-25.83859505301919 4591:1 6096:1 8152:1 16624:1 30976:1 
-0.7635431329936494 3824:1 4152:1 4158:1 6207:1 6222:1 8152:1 16020:1 
-40.94583132235552 3824:1 5488:1 8152:1 44237:1 50662:1 
-2.33874771833962 166:1 4742:1 4812:1 5515:1 5524:1 5737:1 6090:1 6412:1 6418:1 8152:1 8415:1 45254:1 
-54 3676:1 4519:1 
-0.5507501228355107 5515:1 8152:1 8415:1 
-54 3735:1 5622:1 5840:1 6412:1 
-10.04993015454967 5524:1 6139:1 16491:1 16773:1 
-53.80950958224219 4611:1 5525:1 6094:1 17076:1 
-54 3735:1 5622:1 5840:1 6412:1 
-35.15552514386921 6118:1 16651:1 
-54 3755:1 6457:1 
-54 3824:1 5524:1 8152:1 
-12.44612487372198 3824:1 8152:1 
-54 3824:1 8483:1 30170:1 
-54 3735:1 5622:1 5840:1 6412:1 
-0.1824036064047338 4784:1 6801:1 46872:1 
-54 3824:1 8152:1 
-54 3735:1 5622:1 5840:1 6412:1 
-0.2825650107037299 3824:1 3878:1 4775:1 5488:1 8152:1 
-54 3824:1 8152:1 
-44.03233397745741 4673:1 5524:1 18106:1 
-54 166:1 4812:1 4830:1 5524:1 5737:1 6412:1 6418:1 6436:1 
-48.14007864558277 6662:1 9055:1 15035:1 45454:1 
-54 3677:1 6355:1 
-0.2007419827499783 4657:1 6537:1 6562:1 
-25.59062866593991 3824:1 4722:1 6470:1 8287:1 
-15.33273456845712 4222:1 6508:1 8237:1 8270:1 
-0.02066700031831407 5215:1 5488:1 5743:1 6810:1 16020:1 
-23.51505523879938 3677:1 3899:1 6350:1 
-19.63630833028715 3842:1 5759:1 6561:1 8152:1 16491:1 
-51.92812748710269 3735:1 5622:1 5840:1 6412:1 15935:1 
-0.6650324873651379 5740:1 7585:1 
-54 3735:1 5622:1 5840:1 6412:1 
-54 3735:1 5622:1 5840:1 6412:1 15935:1 
-54 3735:1 5622:1 5840:1 6412:1 
-54 5759:1 
-30.58851405005346 8152:1 8410:1 
-30.30269573722833 5737:1 6118:1 16491:1 16654:1 45454:1 50660:1 50661:1 
-54 5515:1 5524:1 6457:1 44267:1 51082:1 
-11.7044056724711 3697:1 6260:1 
-14.68249046577495 6118:1 16491:1 20037:1 30151:1 46914:1 
-50.92807228618519 3824:1 6520:1 8483:1 9058:1 16769:1 30170:1 
-15.26388285918217 3824:1 4375:1 5961:1 6544:1 30170:1 
-54 166:1 4812:1 4828:1 5524:1 5737:1 6412:1 6418:1 6434:1 
-48.53569016576366 5215:1 5488:1 5743:1 6810:1 16020:1 
-54 3824:1 8152:1 
-0.1206481334407668 166:1 4176:1 4252:1 5524:1 6508:1 6510:1 17111:1 
-54 16874:1 
-54 3824:1 8152:1 
-25.70992619197717 3824:1 5524:1 8152:1 9374:1 16874:1 
-54 16491:1 
-40.35282394584769 6122:1 8121:1 
-4.587502041656986 3824:1 4616:1 5488:1 6098:1 6573:1 8152:1 8442:1 16491:1 50662:1 51287:1 
-26.7985260024615 3824:1 5524:1 8152:1 9374:1 16874:1 
-54 166:1 3676:1 3735:1 5622:1 5840:1 6412:1 15935:1 
-42.08044094266815 4550:1 5524:1 6183:1 6228:1 6241:1 
-54 4437:1 
-54 3746:1 3924:1 5525:1 5622:1 6414:1 
-36.22953923478123 3824:1 5488:1 5975:1 6096:1 6100:1 6108:1 8152:1 16491:1 16615:1 16616:1 30060:1 44262:1 
-46.47753283882021 3824:1 4084:1 8152:1 9081:1 
-0.8214850149164542 3824:1 5488:1 8152:1 16616:1 48037:1 51287:1 
-54 8270:1 8800:1 16787:1 17001:1 
-30.77058616307399 3824:1 5488:1 8152:1 16616:1 48037:1 51287:1 
-5.519813195178714 8152:1 16624:1 
-54 3824:1 5488:1 8152:1 8270:1 16491:1 
-54 166:1 3676:1 
-6.132906866949789 5960:1 6546:1 
-9.635959300077145 3824:1 4152:1 4158:1 5215:1 6207:1 6810:1 8152:1 16020:1 
-54 3824:1 5488:1 8152:1 8270:1 16491:1 
-54 3824:1 8152:1 
-44.80159597957631 4047:1 5737:1 6546:1 
-3.380644919067196 3824:1 3942:1 3991:1 5488:1 5737:1 5739:1 6520:1 6526:1 8152:1 8652:1 16620:1 46983:1 51287:1 
-26.07160330256131 3723:1 3735:1 5622:1 5840:1 6412:1 
-21.24128012932864 3824:1 4372:1 6544:1 6563:1 30170:1 
-54 3824:1 3878:1 4775:1 5488:1 8152:1 
-54 3824:1 5488:1 8152:1 16491:1 
-25.23517962821974 3676:1 3723:1 3735:1 5622:1 5840:1 6412:1 
-54 4602:1 6979:1 
-32.54751697585032 5740:1 7585:1 
-7.753245251564083 4784:1 6801:1 46872:1 
-52.48566962344313 5524:1 6457:1 51082:1 
-14.53017285403124 3824:1 4470:1 5488:1 6108:1 8152:1 16616:1 51287:1 
-54 4601:1 6118:1 6979:1 20037:1 
-38.86443934027987 4358:1 6526:1 
-54 3824:1 4470:1 5488:1 6108:1 8152:1 16616:1 51287:1 
-42.12657162270497 4659:1 9058:1 16021:1 
-25.83234293074069 6744:1 8152:1 8168:1 8425:1 
-19.96309729674003 15986:1 16469:1 46933:1 46961:1 
-26.86305155627141 4657:1 6537:1 6562:1 
-54 6412:1 
-10.69411050148648 3735:1 5622:1 5840:1 6412:1 15935:1 
-54 8152:1 16491:1 
-20.20682530728671 4108:1 44262:1 46912:1 
-54 3824:1 4372:1 6544:1 6563:1 30170:1 
-36.83033723938595 4148:1 5737:1 6118:1 16491:1 45454:1 50660:1 
-44.63312253607066 5506:1 6118:1 9055:1 20037:1 
-54 3824:1 5524:1 8152:1 
-54 8152:1 16491:1 
-54 5515:1 5524:1 6457:1 44267:1 51082:1 
-54 8152:1 16491:1 
-54 3824:1 5488:1 8152:1 8270:1 16491:1 
-54 8152:1 16491:1 
-2.956218319684353 3984:1 8152:1 9082:1 16597:1 
-54 5515:1 5524:1 6457:1 44267:1 51082:1 
-0.3244957541620732 15078:1 15986:1 16469:1 16820:1 46933:1 46961:1 
-54 5515:1 5524:1 6457:1 44267:1 51082:1 
-45.31160405239039 166:1 4176:1 4252:1 5524:1 6508:1 6510:1 17111:1 
-19.68655023574959 4450:1 8152:1 16616:1 
-54 166:1 5524:1 17111:1 
-54 3824:1 4084:1 8152:1 9081:1 
-54 3723:1 5622:1 19843:1 
-0.07746184053337463 3824:1 4455:1 5488:1 8152:1 9082:1 16491:1 50662:1 
-14.55902350237623 4857:1 5739:1 45980:1 
-54 3824:1 4329:1 5488:1 5524:1 8152:1 9396:1 
-54 4450:1 8152:1 16616:1 
-52.71820397434939 3824:1 5488:1 5975:1 6096:1 6100:1 6108:1 8152:1 16491:1 16615:1 16616:1 30060:1 44262:1 
-54 3824:1 4086:1 6541:1 6807:1 9058:1 
-7.177430877990735 287:1 3824:1 3984:1 9082:1 16740:1 30976:1 50660:1 
-15.9899547340476 6457:1 31072:1 51082:1 
-54 4222:1 6508:1 8237:1 8270:1 
-54 16491:1 50660:1 
-43.67368953570008 4129:1 6118:1 
-54 3697:1 
-54 44262:1 46912:1 
-54 3824:1 8152:1 30170:1 
-54 3735:1 5622:1 5840:1 6412:1 
-54 3735:1 5622:1 5840:1 6412:1 
-9.402968123867682 6118:1 6120:1 8137:1 10181:1 16651:1 51287:1 51539:1 
-54 3755:1 6457:1 
-54 3824:1 8152:1 
-54 45454:1 
-54 3735:1 5622:1 5840:1 6412:1 
-46.56486148805412 4585:1 6520:1 9348:1 16597:1 16743:1 
-33.43607923137167 5515:1 8152:1 8415:1 
-40.28388304840601 4325:1 6783:1 
-38.33390283908878 3824:1 4222:1 6508:1 8270:1 46872:1 
-53.46148020582857 4784:1 6801:1 46872:1 
-39.42230966896733 16021:1 51205:1 
-54 3735:1 5622:1 5840:1 6412:1 
-54 3824:1 4222:1 6508:1 8270:1 46872:1 
-27.3989094002847 166:1 4812:1 4823:1 5524:1 5737:1 6412:1 6418:1 6429:1 
-54 4609:1 8654:1 
-4.273115518708221 3824:1 4455:1 5488:1 8152:1 9082:1 16491:1 50662:1 
-3.789250699499511 3735:1 6412:1 15934:1 
-1.177162313774111 5488:1 5743:1 6810:1 16020:1 
-54 166:1 4812:1 4823:1 5524:1 5737:1 6412:1 6418:1 6429:1 
-14.57082484873263 3743:1 5740:1 6413:1 
-54 287:1 4427:1 5737:1 6796:1 
