svm_type c_svc
kernel_type rbf
gamma 5
nr_class 2
total_sv 399
rho 0.218794
label 0 1
probA -2.68113
probB 1.2954
nr_sv 264 135
SV
3.95221826369631 1:0.044389439 2:0.047689769 3:0.041914191 4:0.040594059 5:0.042574257 6:0.041254125 7:0.043234323 8:0.046369637 9:0.045709571 10:0.043894389 11:0 12:0.03679868 13:0.038778878 14:0.043234323 15:0.045709571 16:0 17:0.045049505 18:0.045709571 19:0.041254125 20:0.039438944 21:0.045709571 22:0.044389439 23:0.044389439 24:0 25:0.041254125 401:0.04009901 402:0.042574257 403:0.044389439 404:0.050825083 405:0.040594059 406:0.041254125 407:0 408:0.040594059 409:0 410:0.041914191 411:0.040594059 412:0.041254125 413:0 414:0.041254125 415:0.043234323 416:0.043234323 417:0.051485149 418:0.038118812 419:0.045709571 420:0.038778878 421:0.044389439 422:0.045049505 423:0.047029703 424:0.043894389 425:0.042574257 426:0 427:0.043234323 428:0.04009901 429:0.050165017 430:0.040594059 431:0.041254125 432:0.041254125 433:0.042574257 434:0 435:0.04950495 436:0.050825083 437:0.043894389 438:0.03679868 439:0.04950495 440:0 441:0.69636964 442:0.89438944 443:0.047029703 444:0.041254125 445:0.047029703 446:0.047689769 447:0.048844884 448:0.043894389 449:0.046369637 450:0.051485149 451:0 452:0.034983498 453:0.04950495 
5 1:0.041779789 2:0.048717949 3:0 4:0.037707391 5:0.036048265 6:0.038310709 7:0.042383107 8:0.039517345 9:0.040120664 10:0.038914027 11:0 12:0 13:0.041779789 14:0.044193062 15:0.044193062 16:0.041779789 17:0.044193062 18:0.040573152 19:0.038310709 20:0 21:0.040120664 22:0.038914027 23:0.037707391 24:0.037707391 25:0.038310709 401:0.037104072 402:0.038914027 403:0.041176471 404:0.042383107 405:0.044645551 406:0 407:0.036048265 408:0 409:0.036651584 410:0.038310709 411:0.036651584 412:0.045852187 413:0.041176471 414:0.046455505 415:0.039517345 416:0.041176471 417:0.037707391 418:0.033634992 419:0.042986425 420:0.035444947 421:0.036651584 422:0.044193062 423:0.040120664 424:0.036651584 425:0.036651584 426:0.040573152 427:0.039517345 428:0.036651584 429:0.042986425 430:0.040573152 431:0.038914027 432:0.038914027 433:0.035444947 434:0.040120664 435:0.040573152 436:0.046455505 437:0.042986425 438:0.033634992 439:0.045248869 440:0.047058824 441:0.69230769 442:0.95324284 443:0.044645551 444:0.040120664 445:0.046455505 446:0.041779789 447:0.049924585 448:0.039517345 449:0.044193062 450:0.04826546 451:0.042383107 452:0.035444947 453:0.042986425 
2.866462535679329 1:0.048565966 2:0.050860421 3:0.046462715 4:0.045697897 5:0.046462715 6:0.048565966 7:0.051434034 8:0.050095602 9:0.056596558 10:0.052963671 11:0.039770554 12:0.042638623 13:0 14:0.054493308 15:0.055258126 16:0.048565966 17:0.048565966 18:0.058126195 19:0 20:0.050095602 21:0.047036329 22:0.049330784 23:0.048565966 24:0.046462715 25:0 401:0.04416826 402:0.046462715 403:0.052198853 404:0.056596558 405:0.046462715 406:0.048565966 407:0.050860421 408:0.053728489 409:0.047801147 410:0.045697897 411:0.048565966 412:0.050860421 413:0.058891013 414:0.053728489 415:0.056022945 416:0.050095602 417:0.048565966 418:0.041300191 419:0.045697897 420:0.054493308 421:0.055258126 422:0.053728489 423:0.048565966 424:0.050095602 425:0.049330784 426:0.059655832 427:0.051434034 428:0.048565966 429:0.047801147 430:0.050095602 431:0.048565966 432:0.046462715 433:0.044933078 434:0 435:0 436:0.054493308 437:0.049330784 438:0.048565966 439:0.058891013 440:0 441:0.73996176 442:1 443:0.054493308 444:0.047036329 445:0.055258126 446:0.049330784 447:0.052198853 448:0 449:0.050095602 450:0.064053537 451:0.06998088 452:0.040535373 453:0.054493308 
0.03797302841918089 1:0.023778736 2:0.021264368 3:0.020474138 4:0.02183908 5:0.017672414 6:0.023204023 7:0.023204023 8:0.021048851 9:0.023778736 10:0.022701149 11:0.017672414 12:0.023778736 13:0.021551724 14:0.35704023 15:0.021551724 16:0.022413793 17:0.020761494 18:0.020761494 19:0.019612069 20:0.019109195 21:0.020186782 22:0.019324713 23:0.35560345 24:0.022126437 25:0.019899425 401:0.018821839 402:0.019109195 403:0.021551724 404:0.019899425 405:0.019899425 406:0.019899425 407:0.019109195 408:0.018821839 409:0.018821839 410:0.023491379 411:0.019899425 412:0.019612069 413:0.021264368 414:0.020186782 415:0.019324713 416:0.02183908 417:0.01795977 418:0.020186782 419:0.019612069 420:0.01795977 421:0.02183908 422:0.018534483 423:0.019612069 424:0.018534483 425:0.020186782 426:0.019109195 427:0.019899425 428:0.020186782 429:0.021048851 430:0.02183908 431:0.020186782 432:0.019324713 433:0.019109195 434:0.022701149 435:0.025143678 436:0.019612069 437:0.031537356 438:0.016594828 439:0.023778736 440:0.020186782 441:0.82974138 442:1 443:0.020474138 444:0.019324713 445:0.18678161 446:0.024066092 447:0.022988506 448:0.020761494 449:0.021551724 450:0.3829023 451:0.021264368 452:0.016594828 453:0.02183908 
0.7936906314598235 1:0.031744186 2:0 3:0.03127907 4:0.034069767 5:0.030930233 6:0.033139535 7:0.03627907 8:0.03 9:0.033604651 10:0.031744186 11:0.028604651 12:0.029534884 13:0.028255814 14:0.048837209 15:0.03127907 16:0.03755814 17:0.03 18:0.031744186 19:0 20:0.028255814 21:0.033604651 22:0.031744186 23:0.037209302 24:0.03127907 25:0.03627907 401:0 402:0.033604651 403:0.03127907 404:0.032674419 405:0.030465116 406:0 407:0.03755814 408:0.029534884 409:0.031744186 410:0.03127907 411:0.029534884 412:0.03127907 413:0.030930233 414:0.03 415:0.033604651 416:0.034069767 417:0.030465116 418:0.040348837 419:0.033139535 420:0.030465116 421:0.031744186 422:0.03627907 423:0.033604651 424:0.032209302 425:0.030930233 426:0.035813953 427:0.034069767 428:0.037209302 429:0.033139535 430:0.030930233 431:0.028255814 432:0.031744186 433:0.029534884 434:0.035813953 435:0.03627907 436:0.034883721 437:0.038023256 438:0.024651163 439:0.037209302 440:0.035813953 441:0.78604651 442:0.77093023 443:0.035813953 444:0.029069767 445:0.39302326 446:0.035348837 447:0.038023256 448:0.034069767 449:0.034883721 450:0.37093023 451:0.032209302 452:0.028255814 453:0.03755814 
0.6898808904826143 1:0.031513083 2:0.035949943 3:0.030261661 4:0.030261661 5:0.030602958 6:0.030602958 7:0.031513083 8:0.028896473 9:0.033333333 10:0.029806598 11:0.025824801 12:0.027986348 13:0.033333333 14:0.063936291 15:0.032878271 16:0.029806598 17:0.029351536 18:0.029806598 19:0.03105802 20:0.028896473 21:0.030261661 22:0.029351536 23:0.031513083 24:0.032423208 25:0.029351536 401:0.029806598 402:0.036405006 403:0.029806598 404:0.030261661 405:0 406:0.028896473 407:0.031513083 408:0.031968146 409:0.030261661 410:0.030261661 411:0.030602958 412:0.031513083 413:0.034129693 414:0.031968146 415:0.028896473 416:0.035039818 417:0.031513083 418:0.03367463 419:0.031513083 420:0.031968146 421:0.031968146 422:0.033333333 423:0.032423208 424:0.029806598 425:0.029806598 426:0.031968146 427:0.03105802 428:0.031968146 429:0.031513083 430:0.027986348 431:0.032423208 432:0.029351536 433:0.029806598 434:0.035494881 435:0.031968146 436:0.035949943 437:0.030602958 438:0.024914676 439:0.032423208 440:0.03367463 441:0.73606371 442:0.74971559 443:0.030602958 444:0.031513083 445:0.41296928 446:0.034584755 447:0.034584755 448:0.031513083 449:0.035494881 450:0.41296928 451:0.031513083 452:0.031513083 453:0.035039818 
5 1:0.033222591 2:0.028571429 3:0.026467331 4:0.028128461 5:0.029014396 6:0.028571429 7:0.031561462 8:0.029457364 9:0.032779623 10:0.029014396 11:0.026467331 12:0.030232558 13:0.028571429 14:0.052048726 15:0.032447398 16:0.031561462 17:0.030232558 18:0.029457364 19:0.02978959 20:0.028128461 21:0.029014396 22:0.029014396 23:0.029457364 24:0.031118494 25:0.03200443 401:0.029457364 402:0.034108527 403:0.029014396 404:0.028128461 405:0 406:0.029014396 407:0.029457364 408:0.032447398 409:0.029014396 410:0.028128461 411:0.028128461 412:0.030675526 413:0.029457364 414:0.029457364 415:0.028128461 416:0.03200443 417:0.035437431 418:0.028571429 419:0.030675526 420:0.031561462 421:0.029457364 422:0.030232558 423:0.030232558 424:0.02978959 425:0.028571429 426:0.031561462 427:0.029457364 428:0.031118494 429:0.027685493 430:0.027242525 431:0.031561462 432:0.031561462 433:0.028571429 434:0.032779623 435:0.033665559 436:0.032447398 437:0.031118494 438:0.025138427 439:0.03709856 440:0.034994463 441:0.93355482 442:1 443:0.031561462 444:0.02978959 445:0.45625692 446:0.035437431 447:0.033222591 448:0.031561462 449:0.032447398 450:0.42081949 451:0.036212625 452:0.027685493 453:0.033665559 
5 1:0.030799605 2:0.026554788 3:0.023988154 4:0.027739388 5:0.024679171 6:0.028529121 7:0.030799605 8:0.024679171 9:0.026554788 10:0.028134255 11:0.02201382 12:0.022803554 13:0.026258638 14:0.054787759 15:0.027344521 16:0.028134255 17:0.030009872 18:0.027344521 19:0.027344521 20:0.026949654 21:0.026258638 22:0.025468904 23:0.028134255 24:0.030404738 25:0.026949654 401:0.029615005 402:0.030009872 403:0.026554788 404:0.025074038 405:0.025074038 406:0.025468904 407:0.030009872 408:0.025074038 409:0.025863771 410:0.026554788 411:0.027344521 412:0.028923988 413:0.028529121 414:0.030404738 415:0.024284304 416:0.026554788 417:0.028529121 418:0.025863771 419:0.026554788 420:0.026258638 421:0.026554788 422:0.025863771 423:0.025863771 424:0.028529121 425:0.025074038 426:0.026554788 427:0.027739388 428:0.026949654 429:0.026554788 430:0.025074038 431:0.028134255 432:0.025863771 433:0.024679171 434:0.027739388 435:0.030404738 436:0.028529121 437:0.027344521 438:0.021618954 439:0.029615005 440:0.029220138 441:0.79565647 442:1 443:0.033070089 444:0.027344521 445:0.41559724 446:0.027739388 447:0.031589339 448:0.028923988 449:0.034254689 450:0.3958539 451:0.028923988 452:0.022408687 453:0.030009872 
5 1:0.033983573 2:0.026078029 3:0.02761807 4:0.025667351 5:0.026488706 6:0.031211499 7:0.028028747 8:0.025256674 9:0.030390144 10:0.026899384 11:0.022176591 12:0.024948665 13:0.026488706 14:0.052566735 15:0.028850103 16:0.029671458 17:0.026488706 18:0.027310062 19:0.026899384 20:0.030390144 21:0.02761807 22:0.02761807 23:0.028028747 24:0 25:0.026488706 401:0.028850103 402:0.026078029 403:0 404:0 405:0.026078029 406:0.02761807 407:0.026078029 408:0 409:0.026899384 410:0.025667351 411:0.026899384 412:0.027310062 413:0.026488706 414:0.027310062 415:0.027310062 416:0.028028747 417:0 418:0 419:0.026078029 420:0.025667351 421:0.02761807 422:0 423:0.025667351 424:0.025667351 425:0.026488706 426:0.025256674 427:0.027310062 428:0.025667351 429:0.025667351 430:0.026899384 431:0.028850103 432:0.024948665 433:0.025667351 434:0.031622177 435:0.027310062 436:0.033162218 437:0.030082136 438:0.02412731 439:0.031622177 440:0.02761807 441:0.94147844 442:1 443:0.031211499 444:0.033162218 445:0.39938398 446:0.029671458 447:0.032032854 448:0.028028747 449:0.028439425 450:0.45893224 451:0.02761807 452:0.023305955 453:0.033162218 
5 1:0.026388889 2:0.027480159 3:0.024107143 4:0.027876984 5:0.024404762 6:0.026686508 7:0.02906746 8:0.024404762 9:0.027083333 10:0.025992063 11:0.024404762 12:0.030555556 13:0.029365079 14:0.046626984 15:0.02827381 16:0.027083333 17:0.027083333 18:0.025992063 19:0.026686508 20:0.026388889 21:0.026388889 22:0 23:0.028670635 24:0.02827381 25:0.025595238 401:0.03015873 402:0.02827381 403:0.028670635 404:0.025992063 405:0.027480159 406:0.027083333 407:0.024801587 408:0.025198413 409:0.025198413 410:0.02827381 411:0.025198413 412:0.025595238 413:0.027083333 414:0.025595238 415:0.028670635 416:0.02827381 417:0.025595238 418:0.029365079 419:0.026388889 420:0.024107143 421:0.027480159 422:0.025992063 423:0.025992063 424:0.025198413 425:0.026686508 426:0.030555556 427:0.027876984 428:0.025198413 429:0.024404762 430:0.025595238 431:0.024107143 432:0.023710317 433:0.02906746 434:0.032440476 435:0.02906746 436:0.030952381 437:0.031349206 438:0.023313492 439:0.02906746 440:0.029761905 441:0.41369048 442:0.40575397 443:0.033630952 444:0.027083333 445:1 446:0.03015873 447:0.034027778 448:0.027480159 449:0.02827381 450:0.45734127 451:0.037103175 452:0.024801587 453:0.031349206 
5 1:0.035976331 2:0.030532544 3:0.031005917 4:0.029585799 5:0.03183432 6:0 7:0.039171598 8:0.031005917 9:0.034674556 10:0.03183432 11:0.029112426 12:0.030059172 13:0.03183432 14:0.05964497 15:0.034674556 16:0.031005917 17:0.03147929 18:0.034201183 19:0.034201183 20:0.033254438 21:0.034674556 22:0.031005917 23:0.032781065 24:0.034201183 25:0.032781065 401:0.028284024 402:0.03147929 403:0.033254438 404:0.03147929 405:0.03147929 406:0.032307692 407:0.033727811 408:0.034674556 409:0.034201183 410:0.03147929 411:0.03183432 412:0.034674556 413:0.036923077 414:0.03739645 415:0.035502959 416:0.03147929 417:0.03183432 418:0.03183432 419:0.033254438 420:0.033254438 421:0.030532544 422:0.032307692 423:0.034674556 424:0.031005917 425:0.033254438 426:0.034674556 427:0.03147929 428:0.032307692 429:0.031005917 430:0.029585799 431:0.03739645 432:0.03183432 433:0.033254438 434:0.034674556 435:0.033254438 436:0 437:0.033254438 438:0 439:0.034674556 440:0.035029586 441:0.91597633 442:1 443:0.033254438 444:0.031005917 445:0.43076923 446:0.033254438 447:0.036449704 448:0.036923077 449:0.035502959 450:0.39881657 451:0.035976331 452:0.034674556 453:0.036449704 
5 1:0.031573034 2:0.030224719 3:0 4:0.028988764 5:0.027303371 6:0.028089888 7:0.033258427 8:0.030224719 9:0.032022472 10:0.03505618 11:0.026404494 12:0.027303371 13:0.026853933 14:0.073595506 15:0.031123596 16:0 17:0.029438202 18:0.032921348 19:0 20:0.031123596 21:0.035955056 22:0 23:0 24:0.028988764 25:0.033707865 401:0.027303371 402:0.030224719 403:0.031123596 404:0.031123596 405:0.029438202 406:0.028089888 407:0.028089888 408:0 409:0.02988764 410:0.029438202 411:0.028988764 412:0.030674157 413:0.030224719 414:0.028988764 415:0.030224719 416:0.028539326 417:0.030674157 418:0.034606742 419:0.027640449 420:0.02988764 421:0.02988764 422:0.030224719 423:0.027640449 424:0.028089888 425:0.031123596 426:0.032022472 427:0.035955056 428:0.029438202 429:0.02988764 430:0.028089888 431:0.028539326 432:0.028089888 433:0.030224719 434:0.034157303 435:0.030674157 436:0.032022472 437:0.030224719 438:0.025505618 439:0.03505618 440:0.035505618 441:0.38988764 442:0.39101124 443:0 444:0.031573034 445:1 446:0.03247191 447:0.036292135 448:0.030674157 449:0.032921348 450:0.42696629 451:0.032921348 452:0.025505618 453:0.039775281 
4.008509923741951 1:0.03039548 2:0.029152542 3:0.028700565 4:0.02779661 5:0.028248588 6:0.031299435 7:0.038305085 8:0.03220339 9:0.031299435 10:0.028248588 11:0.03039548 12:0.027457627 13:0.027457627 14:0.062259887 15:0.031751412 16:0.030847458 17:0.033898305 18:0.03220339 19:0.02960452 20:0.028700565 21:0.028700565 22:0.03480226 23:0.03220339 24:0.033107345 25:0.028700565 401:0.027457627 402:0.03039548 403:0.031751412 404:0.03039548 405:0.028700565 406:0.030056497 407:0.03039548 408:0.032655367 409:0.030056497 410:0.027457627 411:0.02700565 412:0.033446328 413:0.033446328 414:0.031299435 415:0.032655367 416:0.029152542 417:0.027457627 418:0.036158192 419:0.030847458 420:0.03039548 421:0.033898305 422:0.035254237 423:0.02960452 424:0.029152542 425:0.030847458 426:0.029152542 427:0.030847458 428:0.033446328 429:0.031299435 430:0.030056497 431:0.029152542 432:0.03039548 433:0.033446328 434:0.03740113 435:0.03220339 436:0.03220339 437:0.036497175 438:0.026101695 439:0.03480226 440:0.033446328 441:0.37627119 442:0.37740113 443:0.036949153 444:0.030056497 445:1 446:0.033898305 447:0.038305085 448:0.03220339 449:0.03480226 450:0.48248588 451:0.033446328 452:0.027457627 453:0.035254237 
5 1:0.030240175 2:0.030676856 3:0.026855895 4:0 5:0.026855895 6:0.028165939 7:0.034497817 8:0.03569869 9:0.031113537 10:0 11:0.030676856 12:0.025655022 13:0.030240175 14:0.066048035 15:0.029366812 16:0.029039301 17:0.027729258 18:0.034934498 19:0.031550218 20:0.027729258 21:0.031113537 22:0.029803493 23:0.030240175 24:0.034497817 25:0.029366812 401:0.033187773 402:0.034497817 403:0.030240175 404:0.029366812 405:0.029039301 406:0.026855895 407:0.03231441 408:0.02860262 409:0.029039301 410:0.02860262 411:0.033187773 412:0.030676856 413:0.031113537 414:0.037008734 415:0.033624454 416:0.033187773 417:0.0319869 418:0.029803493 419:0.030676856 420:0.029366812 421:0.030676856 422:0.02860262 423:0.031113537 424:0.027292576 425:0.029039301 426:0.029803493 427:0.031113537 428:0.02860262 429:0.029039301 430:0.027729258 431:0.030676856 432:0.027292576 433:0.02860262 434:0.03569869 435:0.030676856 436:0.032751092 437:0.031550218 438:0.026091703 439:0.0319869 440:0.037008734 441:0.80021834 442:0.82860262 443:0.030240175 444:0.02860262 445:0.43886463 446:0.030676856 447:0.031550218 448:0.03569869 449:0.031550218 450:0.38427948 451:0.031113537 452:0.025655022 453:0.039082969 
5 1:0.0277 2:0.03 3:0.0273 4:0.0285 5:0.0266 6:0.025 7:0.0354 8:0.0266 9:0.0262 10:0.0281 11:0.0281 12:0.0227 13:0.0269 14:0.0639 15:0.0335 16:0.0293 17:0.0296 18:0.0277 19:0.0273 20:0.0254 21:0.0266 22:0.03 23:0.0277 24:0.0323 25:0.0258 401:0.025 402:0.0304 403:0.0258 404:0.0266 405:0.0281 406:0.025 407:0.0289 408:0.0258 409:0.0269 410:0.0266 411:0.0269 412:0.0285 413:0.0281 414:0.0358 415:0.0269 416:0.0285 417:0.0285 418:0.0285 419:0.0266 420:0.0277 421:0.0266 422:0.0281 423:0.025 424:0.0269 425:0.0269 426:0.0293 427:0.0277 428:0.0285 429:0.0285 430:0.025 431:0.0285 432:0.0262 433:0.0254 434:0.0308 435:0.0296 436:0.0312 437:0.0304 438:0.0239 439:0.0293 440:0.0331 441:0.854 442:1 443:0.0296 444:0.0269 445:0.416 446:0.0327 447:0.0331 448:0.0293 449:0.0289 450:0.389 451:0.0308 452:0.0254 453:0.0358 
5 1:0.032750583 2:0.032750583 3:0.030536131 4:0.032284382 5:0.028671329 6:0.031002331 7:0.031351981 8:0.03006993 9:0.031002331 10:0.033216783 11:0.026456876 12:0.032284382 13:0.031818182 14:0.056993007 15:0.033682984 16:0.033216783 17:0.033216783 18:0 19:0.036829837 20:0.032750583 21:0.033216783 22:0.031818182 23:0.031351981 24:0.035897436 25:0.033682984 401:0.027855478 402:0.033216783 403:0.034965035 404:0.028671329 405:0.02960373 406:0.031818182 407:0.04044289 408:0.03006993 409:0.035431235 410:0.031002331 411:0.031351981 412:0.034498834 413:0.030536131 414:0.03006993 415:0.028671329 416:0.030536131 417:0.031002331 418:0.03006993 419:0.031818182 420:0.034498834 421:0.031351981 422:0.031002331 423:0.038111888 424:0.036829837 425:0.04044289 426:0.034965035 427:0.032284382 428:0.030536131 429:0.037645688 430:0.028321678 431:0.031818182 432:0.031351981 433:0.030536131 434:0.034965035 435:0.035897436 436:0.037645688 437:0.031351981 438:0 439:0.035431235 440:0.038111888 441:0.86946387 442:1 443:0.033682984 444:0 445:0.42657343 446:0.034965035 447:0.036363636 448:0.035431235 449:0.034149184 450:0.41025641 451:0.035431235 452:0.027389277 453:0.037645688 
2.866404888133096 1:0.031404959 2:0 3:0.030932704 4:0.029515939 5:0.029515939 6:0.03364817 7:0.03364817 8:0.030460449 9:0.032231405 10:0.030932704 11:0.025501771 12:0.034120425 13:0.030460449 14:0.049586777 15:0.032231405 16:0.03270366 17:0.03175915 18:0.03364817 19:0 20:0.030460449 21:0.033175915 22:0.03270366 23:0.030460449 24:0.03270366 25:0.031404959 401:0.028689492 402:0.043683589 403:0.03270366 404:0.029043684 405:0.030932704 406:0 407:0.030932704 408:0.03270366 409:0.035891381 410:0.028217237 411:0.029515939 412:0.03270366 413:0.031404959 414:0.034946871 415:0.030932704 416:0.034946871 417:0.030932704 418:0.03175915 419:0.030932704 420:0.030932704 421:0.033175915 422:0.029988194 423:0.031404959 424:0.03270366 425:0.030460449 426:0.030932704 427:0.033175915 428:0.029988194 429:0.032231405 430:0.029988194 431:0.031404959 432:0.03459268 433:0.03364817 434:0.03459268 435:0.035419126 436:0.03175915 437:0.03270366 438:0.029043684 439:0.034946871 440:0.034120425 441:0.78394333 442:0.78158205 443:0.032231405 444:0.03175915 445:0.39669421 446:0.041322314 447:0.038134593 448:0 449:0.034120425 450:0.36363636 451:0.03270366 452:0.027744982 453:0.038134593 
5 1:0.032635983 2:0.026987448 3:0.027405858 4:0.027405858 5:0.025732218 6:0.028974895 7:0.033054393 8:0.029393305 9:0.027824268 10:0.026987448 11:0.022594142 12:0.025732218 13:0.026150628 14:0.058054393 15:0.030648536 16:0.033054393 17:0.027824268 18:0.029393305 19:0.029811715 20:0.027824268 21:0.027824268 22:0.028556485 23:0.026987448 24:0.030230126 25:0.031380753 401:0.030230126 402:0.027824268 403:0.029811715 404:0.030648536 405:0.026987448 406:0.026150628 407:0.026987448 408:0.027824268 409:0.030230126 410:0.025732218 411:0 412:0.026987448 413:0.029393305 414:0.026987448 415:0.026987448 416:0.029811715 417:0.028138075 418:0.026569038 419:0.030648536 420:0.026150628 421:0 422:0.026150628 423:0.026150628 424:0.026987448 425:0.026150628 426:0.028138075 427:0.030230126 428:0.027405858 429:0.027824268 430:0.026150628 431:0.026987448 432:0.025732218 433:0.029393305 434:0.030962343 435:0.030648536 436:0.029811715 437:0.030230126 438:0.021757322 439:0.033054393 440:0.028556485 441:0.92991632 442:1 443:0.030230126 444:0.026987448 445:0.40585774 446:0.033054393 447:0.032635983 448:0.029811715 449:0.031799163 450:0.42259414 451:0.031799163 452:0.02290795 453:0.031380753 
5 1:0.031522897 2:0.041853035 3:0.031948882 4:0.026624068 5:0.031948882 6:0.04227902 7:0.035250266 8:0.032800852 9:0.037273695 10:0.038551651 11:0 12:0.025026624 13:0 14:0.04515442 15:0.038977636 16:0.031203408 17:0.027902023 18:0.029925453 19:0.039403621 20:0.028647497 21:0.029073482 22:0.027476038 23:0.028328009 24:0.028328009 25:0 401:0.026198083 402:0.027902023 403:0.028328009 404:0.026198083 405:0.026624068 406:0.027476038 407:0.026198083 408:0.026198083 409:0.027050053 410:0.029499468 411:0.028328009 412:0.029499468 413:0.027476038 414:0.028328009 415:0.027902023 416:0.038125666 417:0.031522897 418:0.025452609 419:0.028328009 420:0.029073482 421:0.029925453 422:0.032374867 423:0.029499468 424:0.038977636 425:0 426:0.036102236 427:0 428:0.029073482 429:0.031203408 430:0.030351438 431:0.025878594 432:0.025878594 433:0.027476038 434:0.041001065 435:0.043876464 436:0.045473908 437:0.04227902 438:0.023003195 439:0.047177849 440:0.047177849 441:0.95740149 442:0.80191693 443:0.047177849 444:0.042598509 445:0.12779553 446:0.043024494 447:0.087752929 448:0.042598509 449:0.070926518 450:0.19275825 451:0.043024494 452:0.025026624 453:0.078381257 
5 1:0.03380117 2:0.035087719 3:0.031461988 4:0.029239766 5:0.031929825 6:0.03380117 7:0.033333333 8:0.029707602 9:0.032397661 10:0.030175439 11:0.027953216 12:0.029239766 13:0.033333333 14:0.058128655 15:0.031461988 16:0.031111111 17:0.031929825 18:0.031111111 19:0 20:0.032865497 21:0.030643275 22:0.029707602 23:0.030175439 24:0.039181287 25:0.031111111 401:0.029239766 402:0.032397661 403:0.034619883 404:0.031461988 405:0.030175439 406:0.034269006 407:0.032865497 408:0.032397661 409:0.032865497 410:0 411:0.032865497 412:0.030643275 413:0.033333333 414:0.029239766 415:0.029707602 416:0.034269006 417:0.028421053 418:0.027953216 419:0.031461988 420:0.029239766 421:0.030643275 422:0.031461988 423:0.032397661 424:0.031929825 425:0.036023392 426:0.035555556 427:0.02877193 428:0.031929825 429:0.034269006 430:0.031461988 431:0.031461988 432:0.034269006 433:0.029707602 434:0.035087719 435:0.032865497 436:0.03380117 437:0.03380117 438:0.024327485 439:0 440:0.032865497 441:0.72280702 442:0.75204678 443:0.032397661 444:0.030175439 445:0.41754386 446:0.033333333 447:0.034619883 448:0.031461988 449:0.032397661 450:0.39415205 451:0.03380117 452:0.027953216 453:0.034619883 
0.04265690702602713 1:0.03064133 2:0.032422803 3:0.028859857 4:0.03432304 5:0.031947743 6:0.031947743 7:0.031591449 8:0.029216152 9:0.03432304 10:0.033372922 11:0.026484561 12:0.033372922 13:0.031591449 14:0.0347981 15:0.032897862 16:0.032897862 17:0.03432304 18:0.032422803 19:0.033372922 20:0.038361045 21:0.032897862 22:0.03111639 23:0.0347981 24:0.038361045 25:0.03111639 401:0.028859857 402:0.031947743 403:0.032897862 404:0.032422803 405:0.033847981 406:0.030166271 407:0 408:0.03111639 409:0.029216152 410:0.03064133 411:0.028859857 412:0.030166271 413:0 414:0.029691211 415:0.0347981 416:0.029691211 417:0.033372922 418:0.026484561 419:0.032897862 420:0.031947743 421:0.0347981 422:0.030166271 423:0.03064133 424:0.033847981 425:0.03064133 426:0.032422803 427:0.029216152 428:0.030166271 429:0.031947743 430:0.036104513 431:0.036579572 432:0.031591449 433:0 434:0 435:0.036579572 436:0.03432304 437:0.032897862 438:0.026009501 439:0.035154394 440:0.038836105 441:1 442:0.63776722 443:0.033372922 444:0 445:0.041567696 446:0.039311164 447:0.036104513 448:0.037529691 449:0.032897862 450:0.037529691 451:0.031591449 452:0.026484561 453:0.035154394 
5 1:0.029609544 2:0.028416486 3:0.028850325 4:0.026681128 5:0.028416486 6:0.028416486 7:0.028416486 8:0.034273319 9:0.029609544 10:0.028416486 11:0.025921909 12:0.027114967 13:0.025488069 14:0.027548807 15:0.029175705 16:0 17:0.028416486 18:0.030043384 19:0 20:0.028850325 21:0 22:0.030911063 23:0 24:0.028850325 25:0.029609544 401:0.027982646 402:0.027548807 403:0 404:0 405:0.028416486 406:0.026355748 407:0.027548807 408:0.027982646 409:0.030043384 410:0.029609544 411:0.027114967 412:0.029609544 413:0.028416486 414:0.0329718 415:0.031344902 416:0.027982646 417:0.029609544 418:0.030043384 419:0.0329718 420:0.029609544 421:0.030477223 422:0.029175705 423:0.027982646 424:0.026681128 425:0.027114967 426:0.030477223 427:0.029175705 428:0.030911063 429:0.028850325 430:0.027114967 431:0.028416486 432:0.028416486 433:0.027548807 434:0.032104121 435:0.031344902 436:0.034707158 437:0.032104121 438:0.025488069 439:0.03340564 440:0.03340564 441:0.829718 442:1 443:0.029175705 444:0.028416486 445:0.40021692 446:0.030477223 447:0.0329718 448:0.0329718 449:0.031778742 450:0.37744035 451:0.031344902 452:0.02505423 453:0.031778742 
4.815110930666457 1:0.045198675 2:0.04718543 3:0.040231788 4:0.048509934 5:0.045198675 6:0.044039735 7:0.043377483 8:0.046523179 9:0.045860927 10:0.045198675 11:0.037582781 12:0.040728477 13:0.040231788 14:0.042715232 15:0.046523179 16:0.045860927 17:0.045198675 18:0.051655629 19:0.045860927 20:0.040231788 21:0.050993377 22:0.047847682 23:0.042715232 24:0.04205298 25:0.04718543 401:0.043377483 402:0.052317881 403:0.049006623 404:0.040231788 405:0.045198675 406:0.049006623 407:0.042715232 408:0.042715232 409:0.038245033 410:0.042715232 411:0.040231788 412:0.042715232 413:0.04718543 414:0.048509934 415:0.041390728 416:0.046523179 417:0.041390728 418:0.043377483 419:0.046523179 420:0.038245033 421:0.044039735 422:0 423:0.041390728 424:0.040231788 425:0.039569536 426:0.048509934 427:0.042715232 428:0.04205298 429:0.040728477 430:0.04718543 431:0.040231788 432:0.040728477 433:0.041390728 434:0.046523179 435:0.046523179 436:0.050993377 437:0.044536424 438:0.035099338 439:0.051655629 440:0.052317881 441:0.14403974 442:0.15811258 443:0.050993377 444:0.043377483 445:0.047847682 446:0.048509934 447:0.051655629 448:0.049006623 449:0.04718543 450:0.051655629 451:0.050993377 452:0.035761589 453:0.054139073 
5 1:0.030306346 2:0.031181619 3:0.030743982 4:0.029431072 5:0.032822757 6:0.029868709 7:0.03238512 8:0.031181619 9:0.034573304 10:0.029431072 11:0.026148796 12:0.027789934 13:0.026586433 14:0.030306346 15:0.033260394 16:0.031619256 17:0.030306346 18:0.029431072 19:0.029868709 20:0.029102845 21:0.029868709 22:0.031619256 23:0.027789934 24:0.035010941 25:0.030743982 401:0.031619256 402:0.031619256 403:0.030306346 404:0.028227571 405:0.028665208 406:0.030306346 407:0.029431072 408:0.030743982 409:0.028665208 410:0.029102845 411:0.034573304 412:0.029431072 413:0.033698031 414:0.030306346 415:0.031619256 416:0.030743982 417:0.028227571 418:0.029102845 419:0.029102845 420:0.028227571 421:0.029102845 422:0.029868709 423:0.031181619 424:0.027789934 425:0.030306346 426:0.029102845 427:0.030306346 428:0.031619256 429:0.028665208 430:0.029431072 431:0.027789934 432:0.028665208 433:0.030743982 434:0.098577681 435:0.10536105 436:0.10940919 437:0.039606127 438:0.027352298 439:0.031181619 440:0.11706783 441:0.90809628 442:1 443:0.12035011 444:0.030743982 445:0.10536105 446:0.11706783 447:0.10656455 448:0.10109409 449:0.029431072 450:0.1036105 451:0.089715536 452:0.023632385 453:0.1036105 
5 1:0.029351184 2:0.029351184 3:0.026982492 4:0.026570546 5:0.028939238 6:0.028939238 7:0.034912461 8:0.030175077 9:0.028939238 10:0.028527291 11:0.022554068 12:0.032543769 13:0.027703399 14:0.028939238 15:0.029763131 16:0.027703399 17:0.027703399 18:0.028527291 19:0.028527291 20:0.026982492 21:0.030895984 22:0.028115345 23:0.026570546 24:0.027703399 25:0.026982492 401:0.026158599 402:0.028939238 403:0.030175077 404:0.030484037 405:0.03130793 406:0.0246138 407:0.026158599 408:0.026570546 409:0.029351184 410:0.028939238 411:0.027703399 412:0.032543769 413:0.028939238 414:0.031719876 415:0.026158599 416:0.029351184 417:0.027394439 418:0.0246138 419:0.028527291 420:0.030484037 421:0.025334706 422:0.028527291 423:0.026158599 424:0.027394439 425:0.026982492 426:0.026570546 427:0.027703399 428:0.025334706 429:0.027703399 430:0.030175077 431:0.026158599 432:0 433:0.028527291 434:0.028527291 435:0.029763131 436:0.030175077 437:0.029351184 438:0.023377961 439:0.032543769 440:0.029763131 441:0.73532441 442:1 443:0.030175077 444:0.026570546 445:0.0492276 446:0.030895984 447:0.030895984 448:0.028527291 449:0.030484037 450:0.044799176 451:0.029763131 452:0.025334706 453:0.029763131 
5 1:0.034546994 2:0.022523285 3:0.021168501 4:0.022777307 5:0.020829805 6:0.022184589 7:0.045300593 8:0.022184589 9:0.033276884 10:0.022184589 11:0.019898391 12:0.021507197 13:0.022523285 14:0.022523285 15:0.044369179 16:0 17:0 18:0 19:0 20:0.024470787 21:0.022777307 22:0.022523285 23:0.031329382 24:0.025740898 25:0.034208298 401:0.021507197 402:0.021168501 403:0.024809483 404:0 405:0.024132091 406:0.020829805 407:0.022777307 408:0 409:0.024809483 410:0.023116003 411:0.021168501 412:0.0276884 413:0.031668078 414:0.022184589 415:0.023793395 416:0.021507197 417:0.021168501 418:0.028365792 419:0.022184589 420:0.022777307 421:0.021168501 422:0.020829805 423:0.022777307 424:0.023116003 425:0.024809483 426:0.022184589 427:0.023454699 428:0.024809483 429:0.025402202 430:0.021168501 431:0.022777307 432:0.023454699 433:0.024470787 434:0.038780694 435:0.03784928 436:0.040474174 437:0.031668078 438:0.019559695 439:0.029043184 440:0.042421677 441:0.99407282 442:0.75021169 443:0.03361558 444:0.034208298 445:0.069432684 446:0.037171888 447:0.057408975 448:0.044030483 449:0.047925487 450:0.075359865 451:0.043691787 452:0.019220999 453:0.055461473 
5 1:0.036532508 2:0.042930857 3:0.024664603 4:0.027038184 5:0.025077399 6:0.045717234 7:0.038183695 8:0.038183695 9:0.038183695 10:0.044891641 11:0 12:0.024664603 13:0.031785346 14:0.052837977 15:0.04127967 16:0.03498452 17:0.029411765 18:0.028998968 19:0.046852425 20:0.027038184 21:0.032198142 22:0.029824561 23:0.028173375 24:0.027760578 25:0.029411765 401:0.026625387 402:0.029411765 403:0.02621259 404:0.028173375 405:0.02745098 406:0.027760578 407:0.026625387 408:0.030959752 409:0.029411765 410:0.02621259 411:0.027038184 412:0.032610939 413:0.033333333 414:0.02745098 415:0.025077399 416:0.050464396 417:0.028173375 418:0 419:0.026625387 420:0.04127967 421:0.037770898 422:0.038906089 423:0.030959752 424:0.04127967 425:0.032610939 426:0.037770898 427:0 428:0.030959752 429:0.029824561 430:0.031785346 431:0.028173375 432:0.028173375 433:0.02621259 434:0.048090815 435:0.0500516 436:0.051702786 437:0.0500516 438:0.023426213 439:0.059236326 440:0.048916409 441:0.77708978 442:1 443:0.063570691 444:0.044891641 445:0.13209494 446:0.050877193 447:0.089060888 448:0.053663571 449:0.084623323 450:0.1878225 451:0.054798762 452:0.022600619 453:0.084210526 
3.995735385166391 1:0.018268015 2:0.018963338 3:0.017003793 4:0.017003793 5:0.017509482 6:0.017762326 7:0.018710493 8:0.018268015 9:0.017509482 10:0.018963338 11:0.015360303 12:0.016055626 13:0.017762326 14:0.017509482 15:0.018963338 16:0.020670038 17:0.017762326 18:0.017256637 19:0.017003793 20:0.016561315 21:0.018015171 22:0.017762326 23:0.019216182 24:0.017762326 25:0 401:0 402:0.016561315 403:0.017509482 404:0.018268015 405:0.019721871 406:0.017762326 407:0.018015171 408:0.017509482 409:0.016814159 410:0.017762326 411:0.017256637 412:0.018963338 413:0.017509482 414:0.018963338 415:0.019974716 416:0.021681416 417:0.016561315 418:0.015802781 419:0.016561315 420:0.017256637 421:0.018015171 422:0.016561315 423:0.015802781 424:0.01852086 425:0.019216182 426:0.017256637 427:0.01852086 428:0.01852086 429:0.018015171 430:0.016814159 431:0.018015171 432:0.019469027 433:0.018710493 434:0.023388116 435:0.020922882 436:0.018710493 437:0.019216182 438:0.015802781 439:0.023135272 440:0.019974716 441:0.028255373 442:0.02920354 443:0.019469027 444:0.017003793 445:0.028255373 446:0.020417193 447:0.018710493 448:0.02022756 449:0.02022756 450:0.020670038 451:0.02022756 452:0.015549937 453:0.018710493 
5 1:0.029978355 2:0.029545455 3:0.029112554 4:0.029112554 5:0.028354978 6:0.031709957 7:0 8:0.029978355 9:0.030411255 10:0.031277056 11:0.025 12:0.027922078 13:0.029112554 14:0.032900433 15:0.032467532 16:0.030844156 17:0.030411255 18:0 19:0 20:0.030844156 21:0.033333333 22:0.028354978 23:0.034632035 24:0.030411255 25:0.028354978 401:0.029545455 402:0.029112554 403:0.029112554 404:0.029112554 405:0.030411255 406:0.026623377 407:0.027489177 408:0.026623377 409:0.030844156 410:0.036688312 411:0.028787879 412:0.030844156 413:0.032034632 414:0.028354978 415:0.027056277 416:0.028787879 417:0.027922078 418:0.028354978 419:0.030411255 420:0 421:0.027489177 422:0.030844156 423:0.034632035 424:0.029545455 425:0.033766234 426:0.04004329 427:0.027922078 428:0.027922078 429:0.030844156 430:0.027922078 431:0.028354978 432:0.035822511 433:0.026298701 434:0.035822511 435:0.031277056 436:0.029112554 437:0.029978355 438:0.022943723 439:0.032467532 440:0.03538961 441:0.9534632 442:1 443:0.034632035 444:0.028787879 445:0.041233766 446:0.032900433 447:0.032467532 448:0.032467532 449:0.033333333 450:0.037121212 451:0.031709957 452:0.023701299 453:0.038744589 
1.253719115550925 1:0.026991758 2:0.053434066 3:0.017994505 4:0.02032967 5:0.017445055 6:0.019848901 7:0.028846154 8:0.018475275 9:0.019299451 10:0.019848901 11:0.017445055 12:0.017994505 13:0.020123626 14:0.019299451 15:0.020604396 16:0.02032967 17:0.020604396 18:0.019299451 19:0.027472527 20:0.018269231 21:0.021703297 22:0.020879121 23:0.021153846 24:0.021703297 25:0.022733516 401:0.019299451 402:0.019024725 403:0.022458791 404:0.020879121 405:0.01875 406:0.019024725 407:0.021428571 408:0.023282967 409:0.023008242 410:0.021428571 411:0.021978022 412:0.020604396 413:0.021153846 414:0.022458791 415:0.019024725 416:0.021153846 417:0.018475275 418:0.01771978 419:0.019848901 420:0.021428571 421:0.01875 422:0.01717033 423:0.020123626 424:0.020123626 425:0.019299451 426:0.021153846 427:0.020123626 428:0.019024725 429:0.020879121 430:0.02032967 431:0.019299451 432:0.020604396 433:0.019848901 434:0.023832418 435:0.024038462 436:0.022458791 437:0.023557692 438:0.015041209 439:0.021153846 440:0.019574176 441:1 442:0.76510989 443:0.019574176 444:0.020604396 445:0.10851648 446:0.021153846 447:0.023557692 448:0.020123626 449:0.023832418 450:0.12637363 451:0.020879121 452:0 453:0.021978022 
3.451017355006798 1:0.029369919 2:0.026626016 3:0.028150407 4:0.026219512 5:0.027337398 6:0.026219512 7:0.027337398 8:0.036788618 9:0.031707317 10:0.026626016 11:0.022256098 12:0.025813008 13:0.029369919 14:0.029776423 15:0.031707317 16:0.028963415 17:0.025813008 18:0.030081301 19:0.027743902 20:0.025813008 21:0.02703252 22:0.026219512 23:0.028150407 24:0.027743902 25:0.028963415 401:0.028963415 402:0.025813008 403:0.029369919 404:0.027743902 405:0.032825203 406:0.025 407:0.025 408:0.027743902 409:0.025813008 410:0.028556911 411:0.025813008 412:0.027743902 413:0.02703252 414:0.02703252 415:0.02703252 416:0.028556911 417:0.032825203 418:0.027337398 419:0.028963415 420:0.02703252 421:0.026219512 422:0.026219512 423:0.032825203 424:0.03800813 425:0.033638211 426:0.028150407 427:0.027337398 428:0.028556911 429:0.028963415 430:0.027743902 431:0.026219512 432:0.02703252 433:0.026626016 434:0.080995935 435:0.098272358 436:0.090853659 437:0.028150407 438:0 439:0.029776423 440:0.096646341 441:0.96747967 442:1 443:0.1097561 444:0.025813008 445:0.098272358 446:0.092784553 447:0.085365854 448:0.081808943 449:0.028963415 450:0.10670732 451:0.089634146 452:0.021544715 453:0.080589431 
5 1:0.024116047 2:0.0237534 3:0.022665458 4:0.022302811 5:0.022302811 6:0.025113327 7:0.030371714 8:0 9:0.026563917 10:0.026201269 11:0.020942883 12:0.02475068 13:0.02475068 14:0.025113327 15:0.026563917 16:0.025475975 17:0.025838622 18:0 19:0.027561197 20:0.02475068 21:0.026201269 22:0.027198549 23:0.024388033 24:0.027561197 25:0.02475068 401:0.023028105 402:0.022665458 403:0.02475068 404:0.023028105 405:0.025475975 406:0.024116047 407:0.025838622 408:0.025475975 409:0.026835902 410:0.025838622 411:0.032819583 412:0.026563917 413:0.029283772 414:0.026563917 415:0.025475975 416:0.028286491 417:0.025475975 418:0.025113327 419:0.023028105 420:0.024388033 421:0.022665458 422:0.025113327 423:0.025475975 424:0.0237534 425:0.024388033 426:0.026201269 427:0.025113327 428:0.029011786 429:0.02475068 430:0.026201269 431:0.024116047 432:0.024116047 433:0.024116047 434:0.031097008 435:0.027198549 436:0.029011786 437:0.026835902 438:0.021668178 439:0.029646419 440:0.026563917 441:0.93925657 442:0.99818676 443:0.027923844 444:0.024116047 445:0.059020852 446:0.03318223 447:0.032456936 448:0.027561197 449:0.028286491 450:0.069446963 451:0.029283772 452:0.019582956 453:0.027561197 
5 1:0.045783133 2:0.045783133 3:0.049741824 4:0.046987952 5:0 6:0.04302926 7:0.050430293 8:0.041135972 9:0.045783133 10:0 11:0.037693632 12:0.049741824 13:0 14:0.04302926 15:0.045783133 16:0.04302926 17:0 18:0 19:0.043717728 20:0.046299484 21:0.04302926 22:0.04767642 23:0.043717728 24:0.050430293 25:0.045783133 401:0.044406196 402:0.043717728 403:0.042340792 404:0.043717728 405:0.046299484 406:0.04302926 407:0.04302926 408:0.04302926 409:0.045783133 410:0.043717728 411:0.045783133 412:0.043717728 413:0.044406196 414:0.045094664 415:0.041824441 416:0.04302926 417:0 418:0.040447504 419:0 420:0.042340792 421:0.04302926 422:0.042340792 423:0.045783133 424:0.041135972 425:0.04767642 426:0.043717728 427:0.045094664 428:0.046987952 429:0.043717728 430:0 431:0.039759036 432:0.042340792 433:0.043717728 434:0.048364888 435:0.049741824 436:0.045094664 437:0.046987952 438:0.041824441 439:0.04767642 440:0.049053356 441:0.94664372 442:1 443:0.05232358 444:0.041824441 445:0.053012048 446:0.046987952 447:0.04767642 448:0.044406196 449:0.050430293 450:0.05232358 451:0.053012048 452:0.0383821 453:0.053700516 
0.03853701279487858 1:0.025659631 2:0.0426781 3:0.017744063 4:0.018007916 5:0.022097625 6:0.019525066 7:0.020580475 8:0.016754617 9:0.022361478 10:0.021569921 11:0 12:0.017744063 13:0.016029024 14:0.018271768 15:0.02005277 16:0.018271768 17:0.021569921 18:0.022097625 19:0.028430079 20:0.018271768 21:0.018799472 22:0.01853562 23:0.022889182 24:0.02005277 25:0.01853562 401:0.023878628 402:0.017546174 403:0.019525066 404:0.01853562 405:0.021108179 406:0.017282322 407:0.017744063 408:0.027704485 409:0.01853562 410:0.018799472 411:0.016754617 412:0.018799472 413:0.019063325 414:0.019063325 415:0.018271768 416:0.019063325 417:0.017546174 418:0.016754617 419:0.022361478 420:0.018007916 421:0.018271768 422:0.01701847 423:0.01853562 424:0.018799472 425:0.019525066 426:0.018007916 427:0.019063325 428:0.018271768 429:0.018271768 430:0.018271768 431:0.017546174 432:0.018007916 433:0.018799472 434:0.020844327 435:0.022097625 436:0.020316623 437:0.019788918 438:0.014709763 439:0.021833773 440:0.019327177 441:0.81068602 442:0.99802111 443:0.019788918 444:0.017546174 445:0.078496042 446:0.01853562 447:0.021569921 448:0.019525066 449:0.019327177 450:0.10224274 451:0.020580475 452:0.014973615 453:0.02262533 
5 1:0.027432024 2:0.026767372 3:0.019093656 4:0.017703927 5:0.016978852 6:0.019516616 7:0.021873112 8:0.018610272 9:0.017885196 10:0.017885196 11:0.013232628 12:0.017220544 13:0 14:0.017703927 15:0.01836858 16:0.019516616 17:0.01836858 18:0.019335347 19:0.018610272 20:0.015830816 21:0.01836858 22:0.018126888 23:0.017885196 24:0.016978852 25:0.017703927 401:0.018126888 402:0.01673716 403:0.018610272 404:0.017885196 405:0.017703927 406:0.017703927 407:0.017885196 408:0.023746224 409:0.016253776 410:0.016495468 411:0.01673716 412:0.018126888 413:0.019516616 414:0.018851964 415:0.016978852 416:0.019516616 417:0.01836858 418:0.014441088 419:0.019758308 420:0.017220544 421:0.01673716 422:0.016072508 423:0.018610272 424:0.016253776 425:0.015347432 426:0.01836858 427:0.015830816 428:0.015589124 429:0.016495468 430:0.017885196 431:0.015589124 432:0.015347432 433:0.016253776 434:0.017220544 435:0.017462236 436:0.020483384 437:0.017885196 438:0.015589124 439:0.021148036 440:0.01836858 441:1 442:0.78308157 443:0.019758308 444:0.01673716 445:0.068882175 446:0.017220544 447:0.02 448:0.020966767 449:0.019093656 450:0.080966767 451:0.017885196 452:0.01347432 453:0.020241692 
3.01165795460574 1:0.044178628 2:0.046092504 3:0.041786284 4:0.038755981 5:0 6:0.041148325 7:0.047208931 8:0.041148325 9:0.044816587 10:0.042424242 11:0.031897927 12:0.03923445 13:0.039872408 14:0.045454545 15:0.04354067 16:0.042902711 17:0.044178628 18:0.047208931 19:0.041148325 20:0.041148325 21:0.042902711 22:0.039872408 23:0.041148325 24:0.041148325 25:0.041786284 401:0.044178628 402:0.044178628 403:0.041786284 404:0.040510367 405:0.04354067 406:0.038755981 407:0.044816587 408:0.042424242 409:0.041148325 410:0.039872408 411:0.046730463 412:0.040510367 413:0.041148325 414:0.04354067 415:0.03923445 416:0.046730463 417:0.039872408 418:0.040510367 419:0.04354067 420:0.03923445 421:0.044816587 422:0.044178628 423:0.03923445 424:0.038118022 425:0.038755981 426:0.046730463 427:0.046092504 428:0.051515152 429:0.039872408 430:0.045454545 431:0.03923445 432:0.039872408 433:0.039872408 434:0.044178628 435:0.044816587 436:0.045454545 437:0.051515152 438:0.031897927 439:0.051036683 440:0.047208931 441:0.42105263 442:0.76236045 443:0.049122807 444:0 445:0.046092504 446:0.046092504 447:0.044816587 448:0 449:0.046092504 450:0 451:0.063795853 452:0.033173844 453:0.049122807 
3.770067273409792 1:0.04309816 2:0.041871166 3:0.037269939 4:0.047852761 5:0.040184049 6:0.040184049 7:0.041871166 8:0.093865031 9:0.14110429 10:0.042484663 11:0.034815951 12:0.038343558 13:0.041871166 14:0.049079755 15:0.14171779 16:0.039570552 17:0.041257669 18:0.040797546 19:0.12407975 20:0.037269939 21:0.041871166 22:0.04309816 23:0.040797546 24:0.04493865 25:0.041257669 401:0.041257669 402:0.04601227 403:0.047852761 404:0.040797546 405:0.041871166 406:0.035429448 407:0.041871166 408:0.041257669 409:0.04309816 410:0.04493865 411:0.041257669 412:0.044325153 413:0.042484663 414:0.041871166 415:0.041871166 416:0.040797546 417:0.040184049 418:0.037730061 419:0.049079755 420:0.037730061 421:0.037269939 422:0 423:0.04309816 424:0.041257669 425:0.04493865 426:0.037269939 427:0 428:0.04493865 429:0.04309816 430:0.040184049 431:0.042484663 432:0.036656442 433:0.036656442 434:0.04601227 435:0.044325153 436:0.047239264 437:0.049079755 438:0.03190184 439:0.089263804 440:0.050766871 441:0.8404908 442:1 443:0.048466258 444:0.036656442 445:0.21319018 446:0.041257669 447:0.11702454 448:0.048466258 449:0.049539877 450:0.20552147 451:0.045398773 452:0 453:0.14294479 
5 1:0.035352904 2:0.060836977 3:0.016114928 4:0.020674578 5:0.016114928 6:0.018738289 7:0.02792005 8:0.016801999 9:0.024984385 10:0.019987508 11:0.014178638 12:0.015178014 13:0.016801999 14:0.018051218 15:0.018051218 16:0.017051843 17:0.01755153 18:0.019987508 19:0.028357277 20:0.018738289 21:0.017801374 22:0.019737664 23:0.020174891 24:0.019237976 25:0.01948782 401:0.020174891 402:0.018488445 403:0.018738289 404:0.018738289 405:0.018988132 406:0.017801374 407:0.016801999 408:0.020424735 409:0.018738289 410:0.01948782 411:0.021673954 412:0.021174266 413:0.021174266 414:0.020424735 415:0.017801374 416:0.019987508 417:0.017301686 418:0.016114928 419:0.018738289 420:0.016801999 421:0.017801374 422:0.017301686 423:0.018301062 424:0.018301062 425:0.01755153 426:0.017801374 427:0.017301686 428:0.017801374 429:0.017801374 430:0.016114928 431:0.01755153 432:0.018301062 433:0.017301686 434:0.022111181 435:0.018488445 436:0.018738289 437:0.020674578 438:0.013678951 439:0.021861337 440:0.020424735 441:1 442:0.80324797 443:0.018488445 444:0.01948782 445:0.096814491 446:0.020174891 447:0.019987508 448:0.018988132 449:0.019237976 450:0.11992505 451:0.018301062 452:0.015365397 453:0.020674578 
5 1:0.02625 2:0.025576923 3:0.022980769 4:0.025576923 5:0.024038462 6:0.027403846 7:0.028461538 8:0.025192308 9:0.025192308 10:0.026634615 11:0.028173077 12:0.024423077 13:0.023653846 14:0.027403846 15:0.027788462 16:0.027019231 17:0.025865385 18:0.024807692 19:0.026634615 20:0.024423077 21:0.024423077 22:0.028173077 23:0.024807692 24:0.02625 25:0.025192308 401:0.024038462 402:0.027788462 403:0.024807692 404:0.025865385 405:0.028461538 406:0.025576923 407:0.024807692 408:0.026634615 409:0.030384615 410:0.027019231 411:0.027019231 412:0.026634615 413:0.026634615 414:0.027403846 415:0.027019231 416:0.027788462 417:0.028461538 418:0.023365385 419:0.025865385 420:0.024423077 421:0.025865385 422:0.027788462 423:0.025865385 424:0.025576923 425:0.027403846 426:0.027403846 427:0.02625 428:0.02625 429:0.025576923 430:0.023365385 431:0.025865385 432:0.025192308 433:0.027788462 434:0.027403846 435:0.032211538 436:0.027403846 437:0.028846154 438:0.023365385 439:0.030384615 440:0.030384615 441:0.99134615 442:0.725 443:0.02625 444:0 445:0.16346154 446:0.030769231 447:0.032211538 448:0.030384615 449:0.03 450:0.24423077 451:0.034038462 452:0.024038462 453:0.028846154 
0.527615748414536 1:0.040603567 2:0.035390947 3:0.03648834 4:0.042798354 5:0.040192044 6:0.03648834 7:0.037997257 8:0.10301783 9:0.14128944 10:0.043895748 11:0.041152263 12:0.035390947 13:0.03484225 14:0.039643347 15:0.14677641 16:0.04170096 17:0.036899863 18:0.038545953 19:0.12620027 20:0.03744856 21:0.035939643 22:0.036899863 23:0.043895748 24:0.035939643 25:0.03744856 401:0.036899863 402:0.037997257 403:0.035390947 404:0.039643347 405:0.041152263 406:0.03744856 407:0.037997257 408:0.035390947 409:0.037997257 410:0.039643347 411:0.037997257 412:0.03648834 413:0.03648834 414:0.03744856 415:0.033744856 416:0.03909465 417:0.03648834 418:0.035939643 419:0.036899863 420:0.035390947 421:0.03909465 422:0.035390947 423:0.036899863 424:0.03648834 425:0.03484225 426:0.03744856 427:0.03648834 428:0.039643347 429:0.036899863 430:0.037997257 431:0.03909465 432:0.035939643 433:0.03909465 434:0.052812071 435:0.040603567 436:0.040603567 437:0.043347051 438:0.031687243 439:0.07133059 440:0.036899863 441:0.739369 442:0.7558299 443:0.047050754 444:0.042798354 445:0.16735254 446:0.038545953 447:0.12043896 448:0.043895748 449:0.040603567 450:0.17832647 451:0.040603567 452:0.030041152 453:0.13635117 
5 1:0.029529336 2:0.05660864 3:0.018117344 4:0.021083172 5:0.017343649 6:0.018891038 7:0.037524178 8:0.01863314 9:0.019858156 10:0.017859446 11:0 12:0.015860735 13:0.016376531 14:0.018375242 15:0.02063185 16:0.019084462 17:0.019858156 18:0.018375242 19:0.033784655 20:0.018117344 21:0.01863314 22:0.019084462 23:0.019600258 24:0.020116054 25:0.024306899 401:0.019600258 402:0.022372663 403:0.01934236 404:0.018375242 405:0.019600258 406:0.020116054 407:0.017150226 408:0.024822695 409:0.01863314 410:0.018375242 411:0.016118633 412:0.01934236 413:0.018375242 414:0.021598968 415:0.018891038 416:0.017343649 417:0.020116054 418:0.016634429 419:0.020373952 420:0.018117344 421:0.017343649 422:0.016376531 423:0.01934236 424:0.017343649 425:0.01863314 426:0.017601547 427:0.019084462 428:0.017859446 429:0.017859446 430:0.017150226 431:0.016634429 432:0.017343649 433:0.020373952 434:0.019600258 435:0.01934236 436:0.02063185 437:0.019600258 438:0.014377821 439:0.019858156 440:0.020116054 441:0.96905222 442:0.99548678 443:0.019858156 444:0 445:0.11605416 446:0.018375242 447:0.020825274 448:0.020116054 449:0 450:0.13926499 451:0.019600258 452:0.014119923 453:0.021598968 
3.621912803128697 1:0.044674086 2:0.044674086 3:0 4:0.040381558 5:0 6:0.041017488 7:0.051987281 8:0.046581876 9:0.048966614 10:0.041653418 11:0 12:0.03672496 13:0.03863275 14:0.045310016 15:0.045945946 16:0.042766296 17:0.041017488 18:0.041017488 19:0 20:0.039745628 21:0.044674086 22:0 23:0.045945946 24:0.041653418 25:0.040381558 401:0.048330684 402:0.044674086 403:0.045945946 404:0.039109698 405:0.056279809 406:0.03863275 407:0.044038156 408:0.050238474 409:0.03799682 410:0.045945946 411:0.055643879 412:0.048330684 413:0.044038156 414:0.039745628 415:0.044674086 416:0.052623211 417:0.041017488 418:0 419:0.042766296 420:0.039109698 421:0.047058824 422:0.041653418 423:0.045310016 424:0.051351351 425:0.045945946 426:0.048966614 427:0.047694754 428:0.043402226 429:0.045310016 430:0.039109698 431:0.039109698 432:0.03863275 433:0.045945946 434:0.046581876 435:0.052623211 436:0.059459459 437:0.054531002 438:0.034340223 439:0.052623211 440:0.066136725 441:0.60413355 442:0.67567568 443:0.057551669 444:0.044038156 445:0.064864865 446:0.055166932 447:0.050874404 448:0.051351351 449:0.052623211 450:0.059459459 451:0.056279809 452:0.03672496 453:0.051351351 
2.874308354734742 1:0.011715314 2:0.02295082 3:0.010755698 4:0.010915634 5:0.010915634 6:0.010915634 7:0.024630148 8:0.024310276 9:0.011555378 10:0.018792483 11:0.0093962415 12:0.011235506 13:0.010635746 14:0.01247501 15:0.011995202 16:0.020631747 17:0.012794882 18:0.025269892 19:0.016153539 20:0.011715314 21:0.020311875 22:0.014154338 23:0.015873651 24:0.012155138 25:0.016953219 401:0.010755698 402:0.01387445 403:0.011555378 404:0.011395442 405:0.011715314 406:0.016153539 407:0.01107557 408:0.011995202 409:0.011555378 410:0.010315874 411:0.011555378 412:0.013554578 413:0.013394642 414:0.01387445 415:0.011995202 416:0.013234706 417:0.011715314 418:0.0098360656 419:0.014954018 420:0.012155138 421:0.010915634 422:0.011995202 423:0.012634946 424:0.013554578 425:0.011715314 426:0.010755698 427:0.010915634 428:0.012794882 429:0.016153539 430:0.015553778 431:0.012914834 432:0.015393842 433:0.014634146 434:0.013234706 435:0.018152739 436:0.019872051 437:0.014794082 438:0.010155938 439:0.012155138 440:0.019712115 441:0.92962815 442:0.99880048 443:0.012634946 444:0.011235506 445:0.13434626 446:0.018472611 447:0.10835666 448:0.019552179 449:0.013234706 450:0.26669332 451:0.017073171 452:0.0090763695 453:0.053178729 
1.936304755188575 1:0.047633588 2:0.04 3:0.03648855 4:0.04351145 5:0.03648855 6:0.044732824 7:0.041068702 8:0.044122137 9:0.041068702 10:0.04519084 11:0 12:0.04 13:0.03648855 14:0.038778626 15:0.040610687 16:0.040610687 17:0.041679389 18:0.040610687 19:0.040610687 20:0.038167939 21:0.040610687 22:0.040610687 23:0.038167939 24:0.038778626 25:0.04 401:0.041679389 402:0.040610687 403:0.038778626 404:0.03648855 405:0.038167939 406:0.03648855 407:0 408:0.044122137 409:0 410:0.041679389 411:0.037099237 412:0 413:0.040610687 414:0.038167939 415:0.035877863 416:0.047022901 417:0.04 418:0.03648855 419:0.040610687 420:0.048244275 421:0.04 422:0.038778626 423:0.040610687 424:0.035877863 425:0.037099237 426:0.03648855 427:0.037557252 428:0.039389313 429:0.04 430:0.040610687 431:0.037557252 432:0.04 433:0.040610687 434:0.040610687 435:0.041068702 436:0.047633588 437:0.042290076 438:0.035267176 439:0.049312977 440:0.042900763 441:0.99236641 442:0.63816794 443:0.04351145 444:0.037099237 445:0.042900763 446:0.04351145 447:0.052977099 448:0.039389313 449:0.042290076 450:0.045801527 451:0.04351145 452:0.034656489 453:0.055267176 
5 1:0.027358491 2:0.023018868 3:0.01672956 4:0.019874214 5:0.016918239 6:0.020566038 7:0.018616352 8:0.019119497 9:0.018427673 10:0.017924528 11:0 12:0.015974843 13:0 14:0.017421384 15:0.020566038 16:0.018427673 17:0.020125786 18:0.021823899 19:0.018427673 20:0.017672956 21:0.020314465 22:0.018427673 23:0.017924528 24:0.018427673 25:0.016477987 401:0.018176101 402:0.017672956 403:0.019371069 404:0.017672956 405:0.017421384 406:0.018427673 407:0.016477987 408:0.017924528 409:0 410:0.019119497 411:0.018427673 412:0.017672956 413:0.019371069 414:0.018867925 415:0.017421384 416:0.017169811 417:0.018427673 418:0.015283019 419:0.019874214 420:0.016477987 421:0.017672956 422:0.020125786 423:0.01672956 424:0.016918239 425:0.016477987 426:0.016226415 427:0.01672956 428:0.016226415 429:0.018427673 430:0.018176101 431:0.016477987 432:0.01572327 433:0.017672956 434:0.018427673 435:0.017924528 436:0.020314465 437:0.017672956 438:0.015471698 439:0.020125786 440:0.017924528 441:0.77924528 442:1 443:0.020314465 444:0.017421384 445:0.065408805 446:0.018616352 447:0.019622642 448:0.019371069 449:0.019371069 450:0.087421384 451:0.019119497 452:0.015283019 453:0.022012579 
2.077649028207082 1:0.045104895 2:0.049825175 3:0.041783217 4:0 5:0.043706294 6:0.046503497 7:0.047727273 8:0.045104895 9:0.044405594 10:0.043006993 11:0 12:0.041083916 13:0.041783217 14:0.049125874 15:0.045104895 16:0 17:0 18:0.047027972 19:0.049125874 20:0.047027972 21:0.051748252 22:0.047027972 23:0.046503497 24:0.045104895 25:0.047727273 401:0.048426573 402:0.046503497 403:0.046503497 404:0.043706294 405:0.047727273 406:0.044405594 407:0.042482517 408:0.043706294 409:0.045104895 410:0 411:0.042482517 412:0.046503497 413:0.047027972 414:0.043706294 415:0.045104895 416:0.045104895 417:0.042482517 418:0 419:0.049825175 420:0.043006993 421:0.044405594 422:0.043706294 423:0.047727273 424:0.047027972 425:0.047727273 426:0.043006993 427:0 428:0.042482517 429:0.051223776 430:0 431:0 432:0.041783217 433:0.041783217 434:0.049125874 435:0.048426573 436:0.049825175 437:0 438:0.038986014 439:0.049825175 440:0.047727273 441:0.64160839 442:1 443:0.049125874 444:0.042482517 445:0.049125874 446:0.046503497 447:0.050524476 448:0.048426573 449:0.049125874 450:0.049825175 451:0.045804196 452:0.038286713 453:0.049825175 
0.5561473011010301 1:0.080653951 2:0.070299728 3:0.066212534 4:0.066212534 5:0.064032698 6:0.064032698 7:0.070299728 8:0.072479564 9:0.078746594 10:0.067029973 11:0.057765668 12:0.062942779 13:0 14:0.078746594 15:0.073297003 16:0.069209809 17:0.068119891 18:0.070299728 19:0.080653951 20:0.068119891 21:0.067029973 22:0.068119891 23:0.069209809 24:0.065122616 25:0 401:0.071389646 402:0.076566757 403:0.066212534 404:0.075476839 405:0.064032698 406:0.064032698 407:0.075476839 408:0.075476839 409:0.072479564 410:0 411:0.071389646 412:0.070299728 413:0.069209809 414:0.067029973 415:0.075476839 416:0.066212534 417:0.066212534 418:0.062942779 419:0.068119891 420:0.061852861 421:0 422:0.065122616 423:0.062942779 424:0.065122616 425:0.064032698 426:0.062942779 427:0.064032698 428:0.070299728 429:0.067029973 430:0.070299728 431:0.065122616 432:0.068119891 433:0 434:0.072479564 435:0.071389646 436:0.081743869 437:0.077656676 438:0.052316076 439:0 440:0.075476839 441:0.4386921 442:0.59673025 443:0.069209809 444:0 445:0.083923706 446:0.071389646 447:0.075476839 448:0.082833787 449:0.076566757 450:0.088010899 451:0.072479564 452:0.062942779 453:0 
2.05617463477285 1:0.042878338 2:0.040504451 3:0.038278932 4:0.041097923 5:0.041691395 6:0.037091988 7:0.038278932 8:0.036498516 9:0.040504451 10:0.041097923 11:0.030860534 12:0 13:0 14:0.043916914 15:0.039465875 16:0.039910979 17:0.038872404 18:0.039465875 19:0.041097923 20:0.038278932 21:0.042878338 22:0.039465875 23:0.039465875 24:0.038278932 25:0 401:0.038278932 402:0.036053412 403:0.04347181 404:0.042878338 405:0 406:0.03768546 407:0 408:0.036498516 409:0.041691395 410:0.046884273 411:0.042284866 412:0.03768546 413:0.040504451 414:0 415:0.03768546 416:0.03768546 417:0.038278932 418:0.033679525 419:0.041097923 420:0.036498516 421:0.038278932 422:0.036498516 423:0.03768546 424:0.03768546 425:0.03768546 426:0.036498516 427:0.039910979 428:0.037091988 429:0.041691395 430:0.035459941 431:0.034866469 432:0.035459941 433:0.03768546 434:0.041097923 435:0.038278932 436:0.045697329 437:0.040504451 438:0.033679525 439:0.043916914 440:0.042284866 441:0.39465875 442:1 443:0.045103858 444:0.03768546 445:0.044510386 446:0.047477745 447:0.046884273 448:0.044510386 449:0.041691395 450:0.055934718 451:0.041691395 452:0.036498516 453:0.044510386 
4.117547021142799 1:0.021821165 2:0.026497129 3:0.021493027 4:0.021821165 5:0.020836751 6:0.02337982 7:0.022067268 8:0.023707957 9:0.022067268 10:0.02337982 11:0 12:0.020180476 13:0.021821165 14:0.026825267 15:0.022067268 16:0.022395406 17:0.023707957 18:0.021821165 19:0.022723544 20:0.021164889 21:0.021493027 22:0.022067268 23:0.021821165 24:0.022395406 25:0.026251025 401:0 402:0 403:0.023051682 404:0.021821165 405:0.023051682 406:0.020508614 407:0 408:0.024282199 409:0 410:0.021164889 411:0.022723544 412:0.02337982 413:0 414:0.022395406 415:0.020180476 416:0.02337982 417:0.021164889 418:0.018949959 419:0.022723544 420:0 421:0.021493027 422:0.022395406 423:0.020180476 424:0.020180476 425:0.022395406 426:0.020836751 427:0.021493027 428:0.023051682 429:0 430:0.02337982 431:0.022067268 432:0 433:0.021493027 434:0.043314192 435:0.027481542 436:0.02559475 437:0.023707957 438:0 439:0.028137818 440:0.023051682 441:0.99589828 442:0.67514356 443:0.026251025 444:0.021164889 445:0.034454471 446:0.025922888 447:0.02780968 448:0.024282199 449:0.02559475 450:0.076784249 451:0.025922888 452:0.019606235 453:0.026497129 
2.609215927637079 1:0 2:0 3:0.066951567 4:0 5:0.066951567 6:0 7:0.07008547 8:0.078917379 9:0.072364672 10:0.074643875 11:0.059259259 12:0.061538462 13:0 14:0 15:0 16:0.07008547 17:0.08005698 18:0 19:0.073504274 20:0.07008547 21:0.073504274 22:0.07008547 23:0 24:0 25:0.069230769 401:0.078917379 402:0 403:0.075783476 404:0.066951567 405:0 406:0.065811966 407:0.064672365 408:0.065811966 409:0 410:0 411:0.064672365 412:0.073504274 413:0.07008547 414:0.07008547 415:0.066951567 416:0.069230769 417:0.071225071 418:0.068091168 419:0.076638177 420:0 421:0 422:0.075783476 423:0.066951567 424:0 425:0 426:0.065811966 427:0.073504274 428:0.076638177 429:0 430:0.07008547 431:0.066951567 432:0.066951567 433:0 434:0.073504274 435:0.071225071 436:0.077777778 437:0.087749288 438:0 439:0.076638177 440:0.077777778 441:0.41880342 442:0.6011396 443:0.073504274 444:0 445:0.082336182 446:0.072364672 447:0.078917379 448:0.071225071 449:0.074643875 450:0.087749288 451:0.072364672 452:0.069230769 453:0.078917379 
5 1:0.054207436 2:0.049706458 3:0.051272016 4:0.052641879 5:0.051272016 6:0.061056751 7:0.051272016 8:0.050489237 9:0.052641879 10:0.049706458 11:0.042857143 12:0 13:0 14:0.052054795 15:0.055772994 16:0.049706458 17:0.053424658 18:0.048923679 19:0.057338552 20:0.050489237 21:0.052054795 22:0.050489237 23:0.0481409 24:0.048923679 25:0.049706458 401:0.0481409 402:0.049706458 403:0.050489237 404:0.048923679 405:0.053424658 406:0.047553816 407:0.046771037 408:0.050489237 409:0.050489237 410:0.052054795 411:0.052641879 412:0.055772994 413:0.049706458 414:0.062622309 415:0.048923679 416:0.048923679 417:0.046771037 418:0.044422701 419:0.053424658 420:0.045205479 421:0.051272016 422:0.049706458 423:0.046771037 424:0 425:0.047553816 426:0.0481409 427:0.049706458 428:0.0481409 429:0.052054795 430:0.051272016 431:0 432:0.047553816 433:0 434:0.054207436 435:0.056555773 436:0.057338552 437:0.051272016 438:0.040704501 439:0.061056751 440:0.053424658 441:0.9295499 442:1 443:0.054990215 444:0.048923679 445:0.11448141 446:0.052054795 447:0.074559687 448:0.052054795 449:0.057338552 450:0.088845401 451:0.057925636 452:0.046771037 453:0.062622309 
0.11041662353783 1:0.03281075 2:0.031019037 3:0.029339306 4:0.033594625 5:0.029339306 6:0.03012318 7:0.029339306 8:0.027995521 9:0.028891377 10:0.032362822 11:0 12:0 13:0.027995521 14:0.030571109 15:0.029787234 16:0.030571109 17:0.029339306 18:0.03281075 19:0.032362822 20:0 21:0.036170213 22:0.031466965 23:0.028891377 24:0.031466965 25:0.028443449 401:0.031466965 402:0 403:0.032362822 404:0.028891377 405:0.029339306 406:0.027547592 407:0 408:0.031019037 409:0.029787234 410:0 411:0.031466965 412:0.030571109 413:0.03012318 414:0 415:0.029787234 416:0.030571109 417:0.032362822 418:0.025867861 419:0.03012318 420:0.026763718 421:0.033146697 422:0.029787234 423:0.029787234 424:0 425:0 426:0 427:0 428:0 429:0.029339306 430:0.032362822 431:0 432:0 433:0.027547592 434:0 435:0.033594625 436:0.033146697 437:0.031914894 438:0.022844345 439:0.033594625 440:0.035834267 441:0.99888018 442:0.58790594 443:0.034042553 444:0.028891377 445:0.036618141 446:0.03012318 447:0.033146697 448:0.033594625 449:0.031466965 450:0.040985442 451:0.031019037 452:0 453:0.037961926 
5 1:0.06884058 2:0.060386473 3:0.056763285 4:0.05942029 5:0.057729469 6:0.058695652 7:0.070772947 8:0.057729469 9:0.071497585 10:0.072463768 11:0.056763285 12:0.058695652 13:0.065942029 14:0.064975845 15:0.064251208 16:0 17:0.058695652 18:0.05942029 19:0.05942029 20:0.062318841 21:0.069806763 22:0.061352657 23:0.069806763 24:0.063285024 25:0.064251208 401:0.055797101 402:0.05942029 403:0.063285024 404:0.062318841 405:0.063285024 406:0.055797101 407:0 408:0.064251208 409:0.056763285 410:0.055797101 411:0.056763285 412:0.060386473 413:0.063285024 414:0.065942029 415:0.065942029 416:0.060386473 417:0.061352657 418:0.05942029 419:0.067874396 420:0.062318841 421:0.057729469 422:0.057729469 423:0.057729469 424:0.060386473 425:0.054830918 426:0.061352657 427:0.055797101 428:0.061352657 429:0.069806763 430:0.060386473 431:0.062318841 432:0.060386473 433:0.055797101 434:0.064975845 435:0.061352657 436:0.061352657 437:0.062318841 438:0.056763285 439:0.069806763 440:0.074396135 441:0.97826087 442:1 443:0.065942029 444:0.058695652 445:0.076328502 446:0.062318841 447:0.072463768 448:0.060386473 449:0.069806763 450:0.084541063 451:0.075362319 452:0.057729469 453:0.069806763 
0.4993591341721272 1:0.081846154 2:0.075692308 3:0.072307692 4:0.094769231 5:0.072307692 6:0.088923077 7:0.093538462 8:0.075692308 9:0.084 10:0.075692308 11:0 12:0 13:0.084 14:0.081846154 15:0.082769231 16:0.081846154 17:0.078153846 18:0.082769231 19:0.084 20:0.082769231 21:0.073538462 22:0.086461538 23:0.081846154 24:0.078153846 25:0.075692308 401:0.073538462 402:0.073538462 403:0.082769231 404:0.072307692 405:0.080615385 406:0.076923077 407:0.075692308 408:0.076923077 409:0.071076923 410:0.074769231 411:0.075692308 412:0.079384615 413:0.084 414:0.078153846 415:0.071076923 416:0.076923077 417:0.078153846 418:0.066461538 419:0.076923077 420:0.068615385 421:0.074769231 422:0.082769231 423:0.076923077 424:0.080615385 425:0.073538462 426:0.069846154 427:0.079384615 428:0.074769231 429:0.074769231 430:0.073538462 431:0.074769231 432:0.072307692 433:0.079384615 434:0 435:0.075692308 436:0.081846154 437:0.082769231 438:0.060307692 439:0.086461538 440:0.098461538 441:0.44307692 442:0.68 443:0.084 444:0 445:0.10184615 446:0.094769231 447:0.10061538 448:0.078153846 449:0.081846154 450:0.10430769 451:0.082769231 452:0.059076923 453:0.092307692 
5 1:0.050194553 2:0.051750973 3:0.049416342 4:0.050972763 5:0.05311284 6:0.050194553 7:0.054669261 8:0.046498054 9:0 10:0.046498054 11:0 12:0.044941634 13:0.046498054 14:0.050194553 15:0.05233463 16:0.057587549 17:0.057003891 18:0.051750973 19:0.05311284 20:0.049416342 21:0.05233463 22:0.055447471 23:0.049416342 24:0.051750973 25:0.05233463 401:0.045719844 402:0.047276265 403:0.050972763 404:0 405:0.057587549 406:0.053891051 407:0.051750973 408:0.055447471 409:0.048638132 410:0.045719844 411:0 412:0.05233463 413:0.059143969 414:0.047859922 415:0.051750973 416:0.046498054 417:0.046498054 418:0.042023346 419:0.046498054 420:0.046498054 421:0.047859922 422:0.050972763 423:0.047859922 424:0.048638132 425:0.046498054 426:0.05233463 427:0.047276265 428:0.050972763 429:0.056225681 430:0.050972763 431:0.049416342 432:0.05233463 433:0.045719844 434:0.050972763 435:0.050194553 436:0.050972763 437:0.050972763 438:0.047276265 439:0.056225681 440:0.05233463 441:0.86575875 442:1 443:0.060700389 444:0.047859922 445:0.066731518 446:0.05233463 447:0.060700389 448:0.050194553 449:0.05311284 450:0.073346304 451:0.057003891 452:0.042023346 453:0.055447471 
5 1:0.02585693 2:0.033308495 3:0.020938897 4:0.021535022 5:0.021833085 6:0.034724292 7:0.03271237 8:0.03442623 9:0.036140089 10:0.030402385 11:0.01609538 12:0 13:0.02466468 14:0.03099851 15:0.036140089 16:0.037034277 17:0.020342772 18:0.024068554 19:0.031594635 20:0.019821162 21:0.022056632 22:0.02295082 23:0.036438152 24:0.020640835 25:0.020938897 401:0.019225037 402:0.019821162 403:0.023546945 404:0.02123696 405:0.022056632 406:0.0195231 407:0.018926975 408:0.020342772 409:0.020044709 410:0.022652757 411:0.018926975 412:0.02295082 413:0.022056632 414:0.020044709 415:0.020640835 416:0.035022355 417:0.021535022 418:0.020640835 419:0.022652757 420:0.037555887 421:0.036438152 422:0.03561848 423:0.020342772 424:0.032116244 425:0.018330849 426:0.020640835 427:0.022056632 428:0.02466468 429:0.020342772 430:0.020342772 431:0.022056632 432:0.020342772 433:0.023845007 434:0.05052161 435:0.048509687 436:0.048211624 437:0.053651267 438:0.020640835 439:0.051639344 440:0.046795827 441:0.18703428 442:0.18703428 443:0.057078987 444:0.044187779 445:1 446:0.049329359 447:0.071162444 448:0.049627422 449:0.077496274 450:0.16467958 451:0.048509687 452:0 453:0.071162444 
5 1:0.077027027 2:0.079189189 3:0.068648649 4:0.063513514 5:0 6:0.078108108 7:0.067567568 8:0.06972973 9:0.071891892 10:0.066486486 11:0.073783784 12:0.073783784 13:0.067567568 14:0.072702703 15:0.075945946 16:0.068648649 17:0.067567568 18:0.066486486 19:0.066486486 20:0.063513514 21:0.068648649 22:0.068648649 23:0.079189189 24:0.082162162 25:0.08 401:0.065675676 402:0.074864865 403:0.070810811 404:0.074864865 405:0.06972973 406:0.068648649 407:0.063513514 408:0.065675676 409:0.075945946 410:0.065675676 411:0.092702703 412:0.079189189 413:0.070810811 414:0.073783784 415:0.070810811 416:0.06972973 417:0.073783784 418:0.063513514 419:0.063513514 420:0.065675676 421:0.070810811 422:0.063513514 423:0.066486486 424:0.061351351 425:0.070810811 426:0.065675676 427:0.072702703 428:0.068648649 429:0.072702703 430:0.065675676 431:0.067567568 432:0.063513514 433:0.066486486 434:0.089459459 435:0.072702703 436:0.078108108 437:0.071891892 438:0.06027027 439:0.090540541 440:0.073783784 441:0.98378378 442:1 443:0.073783784 444:0.064594595 445:0.093783784 446:0.078108108 447:0.084324324 448:0.070810811 449:0.08 450:0.082162162 451:0.073783784 452:0.063513514 453:0.084324324 
0.6476765051644477 1:0 2:0 3:0.076256983 4:0 5:0.063407821 6:0 7:0.075139665 8:0.074301676 9:0.069832402 10:0.069832402 11:0.062290503 12:0.06452514 13:0.074301676 14:0.067877095 15:0.069832402 16:0 17:0 18:0 19:0.076256983 20:0.066759777 21:0.079608939 22:0.074301676 23:0.076256983 24:0.068715084 25:0.068715084 401:0.067877095 402:0.068715084 403:0.066759777 404:0.068715084 405:0.067877095 406:0 407:0.069832402 408:0.067877095 409:0.066759777 410:0.067877095 411:0.067877095 412:0.069832402 413:0.069832402 414:0.068715084 415:0.074301676 416:0.074301676 417:0.068715084 418:0.066759777 419:0.073184358 420:0.068715084 421:0.074301676 422:0 423:0.06452514 424:0.069832402 425:0.089385475 426:0.075139665 427:0.067877095 428:0.069832402 429:0.069832402 430:0.067877095 431:0 432:0.069832402 433:0.072067039 434:0.088268156 435:0.073184358 436:0.08603352 437:0.075139665 438:0.058100559 439:0.076256983 440:0.07849162 441:0.91061453 442:1 443:0 444:0.076256983 445:0.083798883 446:0.074301676 447:0.084916201 448:0.070949721 449:0.07849162 450:0.091340782 451:0.081843575 452:0.05698324 453:0.077374302 
5 1:0.054704595 2:0.061487965 3:0.054704595 4:0.060612691 5:0.053829322 6:0.062363239 7:0.058862144 8:0.058205689 9:0.060612691 10:0.053829322 11:0 12:0.052297593 13:0.054704595 14:0.057330416 15:0.057330416 16:0.056455142 17:0.055579869 18:0.058862144 19:0.056455142 20:0.053829322 21:0.056455142 22:0.054704595 23:0.055579869 24:0.051422319 25:0.056455142 401:0.053829322 402:0.054704595 403:0.062363239 404:0.060612691 405:0.055579869 406:0.051422319 407:0.054704595 408:0.055579869 409:0.053829322 410:0.052297593 411:0.058862144 412:0.058862144 413:0.053172867 414:0.061487965 415:0.058205689 416:0.060612691 417:0.053829322 418:0.049671772 419:0.056455142 420:0.055579869 421:0.064113786 422:0.053172867 423:0.055579869 424:0.056455142 425:0.060612691 426:0.063238512 427:0.057330416 428:0.060612691 429:0.051422319 430:0.052297593 431:0.053172867 432:0.052297593 433:0.058862144 434:0 435:0.055579869 436:0.084245077 437:0.059737418 438:0.046389497 439:0.064770241 440:0.054704595 441:0.7571116 442:1 443:0.062363239 444:0 445:0.064770241 446:0.054704595 447:0.073304158 448:0.060612691 449:0.058205689 450:0.064113786 451:0.058862144 452:0.052297593 453:0.061487965 
5 1:0 2:0.049168207 3:0.045471349 4:0.047689464 5:0.045471349 6:0.049168207 7:0.05194085 8:0.051201479 9:0.049168207 10:0.046210721 11:0.049168207 12:0.045471349 13:0.048428835 14:0.049168207 15:0.052680222 16:0.046950092 17:0 18:0.050462107 19:0.047689464 20:0.050462107 21:0.045471349 22:0.048428835 23:0.046210721 24:0.050462107 25:0.047689464 401:0.046210721 402:0.044916821 403:0.047689464 404:0.05194085 405:0.044916821 406:0.045471349 407:0 408:0.052680222 409:0.045471349 410:0.044916821 411:0.048428835 412:0.046210721 413:0.050462107 414:0.052680222 415:0.045471349 416:0.047689464 417:0.047689464 418:0.040480591 419:0.05194085 420:0.043438078 421:0.045471349 422:0.05194085 423:0.044916821 424:0.044916821 425:0.049168207 426:0.046950092 427:0.044916821 428:0.05194085 429:0.059704251 430:0.044177449 431:0.046210721 432:0.046210721 433:0.045471349 434:0.049168207 435:0.052680222 436:0.056192237 437:0.05194085 438:0.03844732 439:0.056931608 440:0.059704251 441:0.78003697 442:0.7948244 443:0.058410351 444:0 445:0.15452865 446:0.051201479 447:0.05767098 448:0.050462107 449:0.054158965 450:0.12310536 451:0.05194085 452:0.041959335 453:0.056192237 
5 1:0.030506608 2:0.029295154 3:0.028414097 4:0.032599119 5:0.028414097 6:0.030066079 7:0.028854626 8:0.032599119 9:0.032268722 10:0.029295154 11:0.024559471 12:0.026762115 13:0 14:0.031387665 15:0.030506608 16:0.030947137 17:0.028414097 18:0.028414097 19:0.032599119 20:0.026762115 21:0.028854626 22:0.030066079 23:0.033039648 24:0.028854626 25:0 401:0.028854626 402:0.028854626 403:0.029295154 404:0.032268722 405:0.028854626 406:0.029625551 407:0.027092511 408:0.02753304 409:0.027092511 410:0.030947137 411:0 412:0.031828194 413:0 414:0.030066079 415:0.027092511 416:0.027973568 417:0.026762115 418:0.024559471 419:0.02753304 420:0.028854626 421:0.027973568 422:0.029625551 423:0.028414097 424:0 425:0.02753304 426:0 427:0.030066079 428:0.028854626 429:0.030947137 430:0.030066079 431:0.030947137 432:0.026321586 433:0.030066079 434:0 435:0.030947137 436:0.033480176 437:0.032599119 438:0.023348018 439:0.038215859 440:0.033480176 441:0.79405286 442:1 443:0.03777533 444:0.029295154 445:0.039427313 446:0.030947137 447:0.036894273 448:0.033480176 449:0 450:0.033920705 451:0.030066079 452:0.023348018 453:0.032268722 
0.606343638207313 1:0 2:0.13297872 3:0 4:0 5:0.12074468 6:0 7:0 8:0.12287234 9:0 10:0.12074468 11:0 12:0 13:0 14:0.12287234 15:0 16:0.125 17:0.13085106 18:0.12925532 19:0 20:0 21:0 22:0.12287234 23:0.13085106 24:0 25:0 401:0.11648936 402:0 403:0 404:0 405:0.12074468 406:0.11861702 407:0 408:0.11861702 409:0 410:0.12074468 411:0 412:0.12712766 413:0.18829787 414:0.1393617 415:0.11648936 416:0.12074468 417:0.12287234 418:0.11648936 419:0 420:0 421:0.12287234 422:0.13085106 423:0 424:0.13510638 425:0 426:0.11861702 427:0.13085106 428:0.13297872 429:0 430:0.125 431:0 432:0 433:0.12925532 434:0.13085106 435:0.15159574 436:0.13085106 437:0 438:0 439:0.13723404 440:0.13510638 441:0.7606383 442:1 443:0.13510638 444:0.12287234 445:0.14308511 446:0.13723404 447:0.14521277 448:0 449:0.16595745 450:0.14521277 451:0 452:0.10425532 453:0.15957447 
2.457913464251704 1:0.018361884 2:0.036295503 3:0.014400428 4:0.017291221 5:0.013811563 6:0.014239829 7:0.018361884 8:0.016702355 9:0.017130621 10:0.018736617 11:0 12:0.01359743 13:0.015471092 14:0.017505353 15:0.016702355 16:0.014828694 17:0.015685225 18:0.015042827 19:0.016488223 20:0.014614561 21:0.015042827 22:0.014828694 23:0.015256959 24:0.014614561 25:0.015042827 401:0.016916488 402:0.015042827 403:0.015042827 404:0.01627409 405:0.014239829 406:0.015256959 407:0.016059957 408:0.015685225 409:0.014400428 410:0.015042827 411:0.014828694 412:0.016059957 413:0.015471092 414:0.015471092 415:0.015471092 416:0.016488223 417:0.015042827 418:0.01359743 419:0.015042827 420:0.014614561 421:0.014400428 422:0.014828694 423:0.015042827 424:0.015685225 425:0.015471092 426:0.016916488 427:0.014614561 428:0.015256959 429:0.016059957 430:0.014614561 431:0.016488223 432:0.015256959 433:0.014828694 434:0.024946467 435:0.018950749 436:0.018736617 437:0.018950749 438:0.013811563 439:0.018361884 440:0.018736617 441:0.79550321 442:1 443:0.017933619 444:0.014025696 445:0.060492505 446:0.016916488 447:0.019164882 448:0.016702355 449:0.01627409 450:0.066916488 451:0.017719486 452:0.01359743 453:0.019593148 
5 1:0.039349342 2:0.048644462 3:0.026878389 4:0.021146398 5:0.027420604 6:0.058791634 7:0.050426026 8:0.054298993 9:0.051045701 10:0.045933385 11:0.019054996 12:0.019054996 13:0.03609605 14:0.052827266 15:0.050426026 16:0.052517428 17:0.0232378 18:0.029821844 19:0.043841983 20:0.019364833 21:0.030983734 22:0.021146398 23:0.032223083 24:0.031293571 25:0.022927963 401:0.021456235 402:0.020604183 403:0.034624322 404:0.021766073 405:0.020836561 406:0.020604183 407:0.022695585 408:0.0232378 409:0.025948877 410:0.020604183 411:0.019364833 412:0.022385747 413:0.021766073 414:0.02207591 415:0.022385747 416:0.03609605 417:0.021456235 418:0.0232378 419:0.019984508 420:0.042370256 421:0.035166538 422:0.038807126 423:0.0232378 424:0.03493416 425:0.020604183 426:0.030751356 427:0.026568552 428:0.028040279 429:0.020836561 430:0.023857475 431:0.021146398 432:0.02563904 433:0.020294345 434:0.062664601 435:0.053989156 436:0.053137103 437:0.060573199 438:0.019674671 439:0.061425252 440:0.058791634 441:0.15801704 442:0.15801704 443:0.055151046 444:0.052517428 445:1 446:0.057862122 447:0.06862897 448:0.056390395 449:0.069481022 450:0.13787761 451:0.057862122 452:0.018512781 453:0.071030209 
5 1:0.038470588 2:0.032117647 3:0.029411765 4:0.033529412 5:0.027647059 6:0.029882353 7:0.033529412 8:0.030352941 9:0.034 10:0.031294118 11:0.024941176 12:0.026705882 13:0.030352941 14:0.034 15:0.034 16:0.032588235 17:0.038470588 18:0.031294118 19:0.032117647 20:0.031294118 21:0.030352941 22:0.033529412 23:0.033529412 24:0 25:0.032117647 401:0.029411765 402:0.030352941 403:0.041647059 404:0.030352941 405:0.032117647 406:0.028117647 407:0.032588235 408:0.031647059 409:0.029882353 410:0.029411765 411:0.031647059 412:0.036235294 413:0.035294118 414:0.037176471 415:0.031647059 416:0.030823529 417:0.042588235 418:0.028117647 419:0.032588235 420:0.031294118 421:0.034 422:0.030352941 423:0.033058824 424:0.030352941 425:0.030352941 426:0.029411765 427:0.034 428:0.036235294 429:0.034823529 430:0 431:0.029882353 432:0 433:0.028588235 434:0.043529412 435:0.037176471 436:0.040352941 437:0.042588235 438:0.029411765 439:0.041176471 440:0.038470588 441:0.90941176 442:1 443:0.038470588 444:0.034 445:0.044823529 446:0.042117647 447:0.044823529 448:0.037647059 449:0.038470588 450:0.045294118 451:0.045764706 452:0.025411765 453:0.039882353 
5 1:0.017590028 2:0.021052632 3:0.010526316 4:0.0092105263 5:0.010249307 6:0.019078947 7:0.019875346 8:0.016135734 9:0.022680055 10:0.020152355 11:0.0093144044 12:0.0098684211 13:0.01599723 14:0.024134349 15:0.022126039 16:0.025069252 17:0.010249307 18:0.01267313 19:0.024134349 20:0.0092105263 21:0.013331025 22:0.010387812 23:0.017070637 24:0.01066482 25:0.014542936 401:0.0093144044 402:0.010803324 403:0.011876731 404:0.010526316 405:0.010006925 406:0.0098684211 407:0.01066482 408:0.010387812 409:0.011738227 410:0.0097299169 411:0.0092105263 412:0.010006925 413:0.016135734 414:0.012811634 415:0.012396122 416:0.018940443 417:0.010803324 418:0.008933518 419:0.013850416 420:0.020152355 421:0.01599723 422:0.016412742 423:0.010941828 424:0.020671745 425:0.010006925 426:0.012015235 427:0.011599723 428:0.012396122 429:0.0095914127 430:0.010803324 431:0.010803324 432:0.010006925 433:0.010249307 434:0.027873961 435:0.031475069 436:0.033621884 437:0.033621884 438:0.0077216066 439:0.031752078 440:0.030817175 441:0.1617036 442:0.2098338 443:0.03067867 444:0.027077562 445:0.19355956 446:0.033621884 447:0.045706371 448:0.032790859 449:0.049861496 450:0.068213296 451:0.034279778 452:0.007998615 453:0.049515235 
3.105880775992207 1:0.050091743 2:0.049357798 3:0.042385321 4:0.053761468 5:0.042385321 6:0.053027523 7:0.048073394 8:0.046605505 9:0.048807339 10:0.048073394 11:0.043119266 12:0.04733945 13:0.046605505 14:0.058715596 15:0.052293578 16:0.053027523 17:0.04733945 18:0.053027523 19:0.050091743 20:0.050825688 21:0.048807339 22:0.049357798 23:0.051559633 24:0.045137615 25:0.050091743 401:0.050091743 402:0 403:0.048807339 404:0.044587156 405:0 406:0.043853211 407:0 408:0.043853211 409:0.043853211 410:0.048073394 411:0.043853211 412:0.053761468 413:0.052293578 414:0.048073394 415:0 416:0.04733945 417:0.045137615 418:0 419:0.053761468 420:0 421:0.050825688 422:0.04587156 423:0.048807339 424:0.048807339 425:0 426:0.044587156 427:0.04587156 428:0.04587156 429:0.050091743 430:0.045137615 431:0.042385321 432:0 433:0.044587156 434:0.053761468 435:0.058715596 436:0.053027523 437:0.050825688 438:0.038165138 439:0.056513761 440:0.062201835 441:0.96146789 442:1 443:0.057247706 444:0.045137615 445:0.16458716 446:0.048807339 447:0.054311927 448:0.058715596 449:0.049357798 450:0.11724771 451:0.052293578 452:0 453:0.06293578 
5 1:0.023269062 2:0.024320771 3:0.015030675 4:0.011656442 5:0.014329535 6:0.024452235 7:0.024452235 8:0.019894829 9:0.026161262 10:0.021603856 11:0.01196319 12:0.01196319 13:0.020946538 14:0.029184926 15:0.025810692 16:0.031551271 17:0.013321648 18:0.017528484 19:0.031551271 20:0.01196319 21:0.016520596 22:0.01485539 23:0.019062226 24:0.012971078 25:0.01704645 401:0.015337423 402:0.01485539 403:0.01485539 404:0.01196319 405:0.01231376 406:0.01196319 407:0.012971078 408:0.012839614 409:0.016520596 410:0.01196319 411:0.014154251 412:0.012138475 413:0.016695881 414:0.01196319 415:0.013146363 416:0.027826468 417:0.015030675 418:0.012489045 419:0.019412796 420:0.023970202 421:0.022787029 422:0.022436459 423:0.012138475 424:0.029535495 425:0.011130587 426:0.017221735 427:0.013321648 428:0.013672217 429:0.012138475 430:0.015512708 431:0 432:0.011305872 433:0.012138475 434:0.037467134 435:0.03694128 436:0.03948291 437:0.041498685 438:0.0097721297 439:0.039307625 440:0.039000876 441:1 442:0.91498685 443:0.041191937 444:0.034750219 445:0.12708151 446:0.037642419 447:0.061349693 448:0.038825592 449:0.060473269 450:0.086765995 451:0.040008764 452:0.010955302 453:0.059596845 
1.185848618057639 1:0.018046023 2:0.022244651 3:0.011949939 4:0.012111425 5:0.011949939 6:0.021598708 7:0.022406136 8:0.016027453 9:0.021316108 10:0.022850222 11:0.010859911 12:0.010415826 13:0.014452967 14:0.022850222 15:0.024424707 16:0.023173193 17:0.011182883 18:0.012757368 19:0.02394025 20:0.01166734 21:0.015704481 22:0.012595882 23:0.015704481 24:0.011182883 25:0.011344368 401:0.01166734 402:0.013362939 403:0.014008882 404:0 405:0.011949939 406:0.012272911 407:0.01368591 408:0.012434396 409:0.01538151 410:0.012434396 411:0.01166734 412:0.012434396 413:0.015704481 414:0.011505854 415:0.012757368 416:0.023778765 417:0.01509891 418:0.012111425 419:0.011949939 420:0.02050868 421:0.024868793 422:0.018328623 423:0.010859911 424:0.020670166 425:0.010577311 426:0.013524425 427:0.011344368 428:0.010738797 429:0.01166734 430:0.013201453 431:0.011344368 432:0.012272911 433:0.01368591 434:0.028300363 435:0.035002019 436:0.035769075 437:0.037787646 438:0.0098102543 439:0.033427533 440:0.035284618 441:0.96851029 442:0.91562374 443:0.038231732 444:0.029551877 445:0.10577311 446:0.033104562 447:0.0512717 448:0.035930561 449:0.04642713 450:0.077916835 451:0.032337505 452:0.011344368 453:0.047638272 
0.7336851087816484 1:0.19492754 2:0.17028986 3:0.15652174 4:0.15652174 5:0.1615942 6:0.18115942 7:0.17826087 8:0.17318841 9:0.17826087 10:0 11:0.13405797 12:0.1615942 13:0.15869565 14:0 15:0.17826087 16:0.17318841 17:0.17608696 18:0 19:0.1615942 20:0.15869565 21:0.17608696 22:0.15869565 23:0.16449275 24:0.15652174 25:0.1615942 401:0.17318841 402:0.15869565 403:0.17318841 404:0 405:0 406:0.1673913 407:0.1615942 408:0.1673913 409:0.17028986 410:0.1615942 411:0.16449275 412:0.19492754 413:0.1673913 414:0.18115942 415:0.1673913 416:0.17028986 417:0.17608696 418:0.13695652 419:0.15652174 420:0.14782609 421:0.15869565 422:0.15072464 423:0.17028986 424:0.1615942 425:0.1673913 426:0.18405797 427:0.18115942 428:0.1673913 429:0.1673913 430:0.15652174 431:0.15869565 432:0.15869565 433:0.19275362 434:0 435:0.17028986 436:0.22028986 437:0.18695652 438:0.15072464 439:0.19492754 440:0.20942029 441:0.91304348 442:1 443:0.18115942 444:0.1615942 445:0.19275362 446:0.17318841 447:0.18695652 448:0.17318841 449:0.17318841 450:0.18115942 451:0.18405797 452:0.15362319 453:0.18115942 
1.216840850111474 1:0 2:0.26932367 3:0.26449275 4:0.26449275 5:0 6:0 7:0.26932367 8:0 9:0 10:0.26449275 11:0.22342995 12:0.25120773 13:0 14:0 15:0 16:0 17:0 18:0 19:0 20:0.27415459 21:0.26449275 22:0 23:0 24:0 25:0 401:0.27898551 402:0.25120773 403:0 404:0 405:0.26932367 406:0 407:0 408:0 409:0.25120773 410:0 411:0 412:0 413:0.26449275 414:0 415:0.24637681 416:0 417:0 418:0.23188406 419:0.25603865 420:0.26086957 421:0 422:0 423:0.26086957 424:0.27898551 425:0.27898551 426:0.26086957 427:0.26086957 428:0.25603865 429:0.26086957 430:0 431:0.26086957 432:0 433:0 434:0.28381643 435:0 436:0 437:0 438:0.21859903 439:0 440:0 441:0.48309179 442:1 443:0.32487923 444:0 445:0 446:0 447:0 448:0.29710145 449:0.29347826 450:0 451:0 452:0.21859903 453:0 
0.2714539652569892 1:0.12857143 2:0.14444444 3:0.12433862 4:0.13650794 5:0.12222222 6:0.11587302 7:0.14867725 8:0.12222222 9:0.13227513 10:0.13650794 11:0.13227513 12:0.11428571 13:0.13227513 14:0.13650794 15:0.13439153 16:0.12645503 17:0.12010582 18:0.12433862 19:0.13227513 20:0.12857143 21:0.13015873 22:0.13015873 23:0.13015873 24:0.12222222 25:0.12222222 401:0.11798942 402:0.12645503 403:0.14444444 404:0.12222222 405:0.14656085 406:0.12433862 407:0.12433862 408:0.12645503 409:0.12010582 410:0.13227513 411:0.11587302 412:0.13015873 413:0.13862434 414:0.12433862 415:0.11428571 416:0.12433862 417:0.12645503 418:0.12645503 419:0.12222222 420:0.11428571 421:0.12857143 422:0.12857143 423:0.11216931 424:0.13439153 425:0.13015873 426:0.12222222 427:0.12645503 428:0.15291005 429:0.12433862 430:0.12222222 431:0.13439153 432:0.12433862 433:0.12857143 434:0.12857143 435:0.14444444 436:0.13015873 437:0.12645503 438:0.11005291 439:0.13227513 440:0.12857143 441:0.9047619 442:1 443:0.12433862 444:0.12857143 445:0.14656085 446:0.13650794 447:0.14444444 448:0.13439153 449:0.14074074 450:0.15291005 451:0.12645503 452:0.093650794 453:0.13862434 
1.048180759446369 1:0.030677587 2:0.044154877 3:0.022040208 4:0.020029784 5:0.022040208 6:0.046165302 7:0.042740134 8:0.039538347 9:0.045048399 10:0.043037975 11:0.017200298 12:0.017498138 13:0.029262844 14:0.044452718 15:0.044750558 16:0.048473567 17:0.020923306 18:0.028965004 19:0.043037975 20:0.019806404 21:0.034102755 22:0.021221147 23:0.037304542 24:0.020923306 25:0.037825763 401:0.018615041 402:0.020029784 403:0.024646314 404:0.019508563 405:0.018912882 406:0.019508563 407:0.019508563 408:0.019806404 409:0.021518987 410:0.020625465 411:0.020923306 412:0.022040208 413:0.021816828 414:0.021221147 415:0.024348474 416:0.046165302 417:0.019210722 418:0.019508563 419:0.020923306 420:0.056515264 421:0.034400596 422:0.035294118 423:0.020029784 424:0.043037975 425:0 426:0.038719285 427:0.023827252 428:0.027848101 429:0.018615041 430:0.020923306 431:0.021816828 432:0.020029784 433:0.019806404 434:0.072002978 435:0.072002978 436:0.096798213 437:0.070811616 438:0.016604617 439:0.070811616 440:0.073715562 441:0.33060313 442:0.32762472 443:0.073119881 444:0.065673864 445:0.28816083 446:0.081161579 447:0.11243485 448:0.080416977 449:0.093075205 450:0.9977662 451:0.07282204 452:0.016902457 453:0.11615786 
5 1:0.021960298 2:0.022622002 3:0.0117866 4:0.012406948 5:0.011124897 6:0.023738627 7:0.021836228 8:0.022456576 9:0.024358974 10:0.023076923 11:0.0098842018 12:0.013358147 13:0.018486352 14:0.029321754 15:0.0245244 16:0.029445823 17:0.013358147 18:0.014805624 19:0.0308933 20:0.012572374 21:0.01497105 22:0.014019851 23:0.016418528 24:0.014474773 25:0.017990074 401:0.013358147 402:0.012572374 403:0.016087676 404:0.0117866 405:0.015301902 406:0.011290323 407:0.012903226 408:0.011000827 409:0.016087676 410:0.011455749 411:0.012406948 412:0.011952026 413:0.017369727 414:0.013523573 415:0.012406948 416:0.026426799 417:0.014019851 418:0.010339123 419:0.016418528 420:0.0245244 421:0.021009098 422:0.020223325 423:0.010835401 424:0.025310174 425:0.010835401 426:0.014805624 427:0.010835401 428:0.012572374 429:0.012572374 430:0.016418528 431:0.011290323 432:0.011455749 433:0.012406948 434:0.033746898 435:0.033912324 436:0.034863524 437:0.036145575 438:0.009057072 439:0.035856079 440:0.032009926 441:0.88172043 442:1 443:0.03502895 444:0.030272953 445:0.099669148 446:0.032175352 447:0.053349876 448:0.0318445 449:0.056658395 450:0.082299421 451:0.035194376 452:0.0098842018 453:0.052109181 
0.09258760862762182 1:0.029431072 2:0.027789934 3:0.026148796 4:0.026914661 5:0 6:0.029431072 7:0.029102845 8:0.030743982 9:0.032822757 10:0.027352298 11:0.026586433 12:0.029102845 13:0.027789934 14:0.084682713 15:0.034135667 16:0 17:0.029431072 18:0.030743982 19:0.029431072 20:0.030306346 21:0.028665208 22:0.032056893 23:0.03238512 24:0.031181619 25:0.034573304 401:0.029431072 402:0.029431072 403:0.028665208 404:0.03238512 405:0.027789934 406:0.028227571 407:0.027789934 408:0.029102845 409:0.028665208 410:0.026586433 411:0.029431072 412:0.029431072 413:0.033260394 414:0.029431072 415:0.028227571 416:0.028665208 417:0.029431072 418:0.027352298 419:0.031619256 420:0.029102845 421:0.028665208 422:0.028665208 423:0.027789934 424:0.027352298 425:0.028227571 426:0.029102845 427:0.029102845 428:0.032822757 429:0.030743982 430:0.028227571 431:0.029102845 432:0.027789934 433:0.026914661 434:0.034135667 435:0.036652079 436:0.031181619 437:0.029431072 438:0.029102845 439:0.033698031 440:0.03238512 441:0.43435449 442:0.43435449 443:0.034135667 444:0.03238512 445:0.46389497 446:0.032822757 447:0.037089716 448:0.040043764 449:0.031181619 450:1 451:0.029431072 452:0.022757112 453:0.035339168 
1.096370926089623 1:0.025944171 2:0.023727422 3:0.02183908 4:0.022413793 5:0.020853859 6:0.025615764 7:0.025944171 8:0.022085386 9:0.024302135 10:0.021510673 11:0.018308703 12:0.020197044 13:0.021182266 14:0.024630542 15:0.023727422 16:0.024958949 17:0.021510673 18:0.022413793 19:0.027175698 20:0.022085386 21:0.026847291 22:0.024958949 23:0.0227422 24:0.024055829 25:0.021182266 401:0.0227422 402:0.0227422 403:0.0227422 404:0.024055829 405:0.0227422 406:0.021510673 407:0.022413793 408:0.023399015 409:0.023070608 410:0.026847291 411:0.020853859 412:0.026272578 413:0.02183908 414:0.0227422 415:0.022085386 416:0.022085386 417:0.025944171 418:0 419:0.024055829 420:0.020525452 421:0.022085386 422:0.020853859 423:0.023070608 424:0.022413793 425:0.026272578 426:0.023399015 427:0.024302135 428:0.024055829 429:0.026272578 430:0.023727422 431:0.023727422 432:0.023727422 433:0.024630542 434:0.023070608 435:0.022085386 436:0.026518883 437:0.022413793 438:0.01863711 439:0.024055829 440:0.023727422 441:0.50164204 442:0.50164204 443:0.024302135 444:0 445:0.33579639 446:0.022413793 447:0 448:0.024055829 449:0.023070608 450:1 451:0.024630542 452:0.019622332 453:0.027175698 
1.497624191186115 1:0.04456328 2:0.052228164 3:0.04741533 4:0.043850267 5:0.04741533 6:0.043315508 7:0.045276292 8:0.043850267 9:0.04741533 10:0.04741533 11:0 12:0 13:0 14:0.048663102 15:0.04741533 16:0.045276292 17:0.052228164 18:0.051515152 19:0.04456328 20:0.050089127 21:0.04456328 22:0.045989305 23:0.045989305 24:0.050089127 25:0.048663102 401:0 402:0.04456328 403:0.046702317 404:0.046702317 405:0.043315508 406:0.041889483 407:0 408:0.04741533 409:0.046702317 410:0.045276292 411:0.043850267 412:0.054188948 413:0.045989305 414:0.045276292 415:0.043315508 416:0.043315508 417:0.04456328 418:0.042602496 419:0.057575758 420:0.049376114 421:0 422:0 423:0.045989305 424:0.052228164 425:0.043850267 426:0 427:0.047950089 428:0 429:0.055614973 430:0 431:0.043850267 432:0.053475936 433:0.045276292 434:0.054901961 435:0.047950089 436:0.052228164 437:0.054901961 438:0.034937611 439:0 440:0.050802139 441:0.43850267 442:0.98573975 443:0.048663102 444:0 445:0.076827094 446:0.048663102 447:0.055614973 448:0.049376114 449:0.054901961 450:0.099465241 451:0.050802139 452:0 453:0.052228164 
2.050926683333776 1:0.028065395 2:0.038828338 3:0.01859673 4:0.020708447 5:0.019414169 6:0.040940054 7:0.040395095 8:0.029632153 9:0.045367847 10:0.045912807 11:0.016008174 12:0.019414169 13:0.032288828 14:0.044073569 15:0.046185286 16:0.045912807 17:0.018324251 18:0.027247956 19:0.047752044 20:0.01859673 21:0.033855586 22:0.021253406 23:0.034332425 24:0.026226158 25:0.029632153 401:0.020980926 402:0.01859673 403:0.026226158 404:0.01859673 405:0.019959128 406:0.018119891 407:0.020163488 408:0.021798365 409:0.019141689 410:0.017574932 411:0.019959128 412:0.019959128 413:0.020163488 414:0.020163488 415:0.018324251 416:0.039645777 417:0.017847411 418:0.01859673 419:0.020163488 420:0.04380109 421:0.03726158 422:0.034332425 423:0.019414169 424:0.040122616 425:0.01859673 426:0.033583106 427:0.020163488 428:0.028065395 429:0.017574932 430:0.01859673 431:0.019414169 432:0.017847411 433:0.017302452 434:0.060899183 435:0.068119891 436:0.065871935 437:0.075613079 438:0 439:0.067711172 440:0.062942779 441:0.78746594 442:0.79087193 443:0.06880109 444:0.058787466 445:0.20980926 446:0.072207084 447:0.094686649 448:0.069482289 449:0.10013624 450:0.29564033 451:0.064305177 452:0.017302452 453:0.10149864 
4.898552011079515 1:0.12544643 2:0.11160714 3:0.10133929 4:0.10669643 5:0.10491071 6:0.12723214 7:0.10982143 8:0.11339286 9:0.12008929 10:0.11160714 11:0 12:0.096428571 13:0.097767857 14:0.11875 15:0.11875 16:0.11339286 17:0.12008929 18:0.11875 19:0.11875 20:0.10133929 21:0.12366071 22:0.10848214 23:0.10491071 24:0.10133929 25:0.10982143 401:0.103125 402:0.121875 403:0.12901786 404:0.10848214 405:0.10848214 406:0.10491071 407:0.11339286 408:0.11696429 409:0.11875 410:0.11160714 411:0.10491071 412:0.12901786 413:0.10848214 414:0.10848214 415:0.10491071 416:0.11875 417:0.12723214 418:0.099553571 419:0.12008929 420:0.12901786 421:0.11160714 422:0.11517857 423:0.10848214 424:0.10133929 425:0.10133929 426:0.10982143 427:0.11339286 428:0.11696429 429:0.097767857 430:0.11160714 431:0.096428571 432:0.10491071 433:0.12723214 434:0.10982143 435:0.11875 436:0.11517857 437:0.12366071 438:0.091071429 439:0.12901786 440:0.10669643 441:0.90625 442:1 443:0.121875 444:0.10491071 445:0.14598214 446:0.10669643 447:0.121875 448:0.10848214 449:0.12366071 450:0.12544643 451:0.10848214 452:0.10133929 453:0.1375 
1.105775461929546 1:0.20614035 2:0 3:0 4:0 5:0 6:0 7:0 8:0 9:0 10:0.19210526 11:0 12:0.18245614 13:0 14:0 15:0 16:0 17:0.19561404 18:0.19912281 19:0 20:0 21:0 22:0.20964912 23:0 24:0 25:0.18947368 401:0.18596491 402:0.18596491 403:0.18947368 404:0 405:0 406:0 407:0.19912281 408:0 409:0 410:0.18947368 411:0 412:0.20964912 413:0 414:0.20964912 415:0 416:0 417:0 418:0.16578947 419:0.20614035 420:0 421:0.19210526 422:0.19210526 423:0 424:0.18596491 425:0.18596491 426:0.18245614 427:0 428:0.19912281 429:0 430:0 431:0 432:0.18596491 433:0.18596491 434:0 435:0.19912281 436:0.20614035 437:0.19912281 438:0.15526316 439:0 440:0 441:1 442:0.54035088 443:0 444:0.19210526 445:0.21929825 446:0 447:0 448:0.20964912 449:0 450:0.22982456 451:0.20263158 452:0.15526316 453:0 
0.3854054158318044 1:0 2:0.13670886 3:0.13860759 4:0.14367089 5:0.15822785 6:0.14113924 7:0.18291139 8:0.13670886 9:0.16075949 10:0.15126582 11:0.11455696 12:0.14620253 13:0.14113924 14:0.17025316 15:0.1556962 16:0.14620253 17:0.14113924 18:0.16075949 19:0.15379747 20:0.14113924 21:0.16075949 22:0.16835443 23:0.16835443 24:0.15379747 25:0.14113924 401:0.16835443 402:0.15126582 403:0.14367089 404:0.13860759 405:0.15379747 406:0.14367089 407:0.15379747 408:0.16075949 409:0.13417722 410:0.14367089 411:0.13164557 412:0.16582278 413:0.14367089 414:0.14367089 415:0.1556962 416:0.14367089 417:0.13860759 418:0.13164557 419:0.14620253 420:0.14113924 421:0.14367089 422:0.14113924 423:0.15126582 424:0.14367089 425:0.13417722 426:0.16582278 427:0.14620253 428:0.14873418 429:0.14620253 430:0.13860759 431:0.13860759 432:0.13860759 433:0.14367089 434:0.15822785 435:0.14620253 436:0.14873418 437:0 438:0.13670886 439:0.16329114 440:0.14873418 441:1 442:0.75949367 443:0.15822785 444:0.15379747 445:0.17278481 446:0.14367089 447:0.17278481 448:0.15126582 449:0.1556962 450:0 451:0.15822785 452:0.13164557 453:0.16329114 
0.3063425248854973 1:0.098069498 2:0.1011583 3:0.1011583 4:0.096525097 5:0.0996139 6:0.093822394 7:0.11891892 8:0.1027027 9:0.0996139 10:0.0996139 11:0.072972973 12:0.084555985 13:0.087644788 14:0.11003861 15:0.0996139 16:0.092277992 17:0.10849421 18:0.10540541 19:0.10849421 20:0.094980695 21:0.1027027 22:0.1011583 23:0.1027027 24:0.1011583 25:0.0996139 401:0.093822394 402:0 403:0.096525097 404:0.1011583 405:0.098069498 406:0.086100386 407:0.084555985 408:0.096525097 409:0.094980695 410:0.10849421 411:0.092277992 412:0.094980695 413:0 414:0.094980695 415:0.096525097 416:0.10694981 417:0.090733591 418:0.10849421 419:0.098069498 420:0.093822394 421:0.096525097 422:0.084555985 423:0.094980695 424:0.090733591 425:0.096525097 426:0.089189189 427:0 428:0 429:0.10849421 430:0.087644788 431:0.1027027 432:0.087644788 433:0.098069498 434:0.11158301 435:0.1027027 436:0.11891892 437:0.11583012 438:0.077220077 439:0.12200772 440:0.11737452 441:1 442:0.26486486 443:0.1027027 444:0.092277992 445:0.10849421 446:0.11312741 447:0.11891892 448:0.11737452 449:0.11583012 450:0.11428571 451:0.1027027 452:0.08030888 453:0.11583012 
4.007366315048531 1:0.036015326 2:0.022145594 3:0.021226054 4:0.02183908 5:0.021532567 6:0.020383142 7:0.064061303 8:0.021226054 9:0.069042146 10:0.02091954 11:0.022145594 12:0.01862069 13:0.024214559 14:0.02183908 15:0.066666667 16:0.022145594 17:0.020383142 18:0.025057471 19:0.020613027 20:0.021226054 21:0.021532567 22:0.021532567 23:0.028888889 24:0.024214559 25:0.019770115 401:0.020613027 402:0.019770115 403:0.022145594 404:0 405:0.022681992 406:0.024214559 407:0.021532567 408:0.020613027 409:0.020383142 410:0.022681992 411:0.021226054 412:0.050727969 413:0.046360153 414:0.02091954 415:0.019157088 416:0.020383142 417:0.020613027 418:0.018007663 419:0.021226054 420:0 421:0.02183908 422:0.020076628 423:0.020076628 424:0.021226054 425:0.020383142 426:0.020613027 427:0.020383142 428:0.02091954 429:0.021532567 430:0.020076628 431:0.019770115 432:0.022681992 433:0.02183908 434:0.036858238 435:0.043984674 436:0.043065134 437:0.042528736 438:0.01862069 439:0.033333333 440:0.051954023 441:0.89348659 442:0.99693487 443:0.041302682 444:0.037164751 445:0.088122605 446:0.037164751 447:0.060229885 448:0.050191571 449:0.048659004 450:0.10191571 451:0.044291188 452:0.019463602 453:0.064061303 
5 1:0.024293785 2:0.024293785 3:0.025706215 4:0.029378531 5:0.025047081 6:0.025329567 7:0 8:0.026836158 9:0 10:0.027212806 11:0 12:0.02354049 13:0.02354049 14:0.027212806 15:0.026082863 16:0.02645951 17:0.027212806 18:0.024670433 19:0.025706215 20:0.025706215 21:0.026836158 22:0.026082863 23:0.026836158 24:0.026836158 25:0.025329567 401:0.026836158 402:0.027212806 403:0.026836158 404:0.025047081 405:0.025047081 406:0.024293785 407:0.026082863 408:0.025329567 409:0 410:0.023917137 411:0.030131827 412:0.025329567 413:0.025329567 414:0.02787194 415:0.024293785 416:0 417:0.025329567 418:0.02212806 419:0.026082863 420:0 421:0.027212806 422:0.024293785 423:0.028248588 424:0.024670433 425:0.025706215 426:0.02787194 427:0.024670433 428:0.028248588 429:0.02787194 430:0.023917137 431:0.02645951 432:0.025329567 433:0.02645951 434:0 435:0.029755179 436:0.028248588 437:0.025329567 438:0.020338983 439:0.028248588 440:0.029755179 441:0.95386064 442:0.98870056 443:0.026836158 444:0.03700565 445:0.36817326 446:0.027589454 447:0.029001883 448:0.025706215 449:0 450:0.3700565 451:0.02645951 452:0.019962335 453:0.029001883 
5 1:0.047900467 2:0.038880249 3:0.036547434 4:0.0437014 5:0.039502333 6:0.040124417 7:0.046034215 8:0.041368585 9:0.044323484 10:0.046656299 11:0 12:0.041368585 13:0.035303266 14:0.0437014 15:0.044945568 16:0.046034215 17:0.040124417 18:0.041835148 19:0.043079316 20:0.040124417 21:0.0437014 22:0.049144635 23:0.046034215 24:0.040746501 25:0.044323484 401:0.041368585 402:0.046034215 403:0.044323484 404:0.040124417 405:0.038258165 406:0.040746501 407:0.037791602 408:0.038258165 409:0.037169518 410:0.041368585 411:0.045567652 412:0 413:0 414:0.039502333 415:0.036547434 416:0.044945568 417:0.041368585 418:0.035303266 419:0.044945568 420:0.037169518 421:0.037791602 422:0.037169518 423:0.046034215 424:0.040124417 425:0.041368585 426:0 427:0.043079316 428:0.040746501 429:0.053343701 430:0.044945568 431:0 432:0.037169518 433:0.037791602 434:0.046656299 435:0.041835148 436:0.050855365 437:0.041835148 438:0.031104199 439:0.046656299 440:0.043079316 441:0.69517885 442:0.99533437 443:0.044323484 444:0.041368585 445:0.044945568 446:0.047278383 447:0.046656299 448:0.0437014 449:0.0437014 450:0.058631415 451:0.0437014 452:0.031104199 453:0.0437014 
2.378425580527395 1:0.027850877 2:0.030372807 3:0.031688596 4:0.02872807 5:0.029166667 6:0.026973684 7:0.029934211 8:0.031688596 9:0.032894737 10:0.027850877 11:0.024013158 12:0.028289474 13:0.027412281 14:0.089912281 15:0.032127193 16:0.032127193 17:0.02872807 18:0.03377193 19:0.031688596 20:0.029934211 21:0.029495614 22:0.032127193 23:0.030811404 24:0.032894737 25:0.029495614 401:0.027850877 402:0.02872807 403:0.02872807 404:0.027412281 405:0.029166667 406:0.029495614 407:0.026644737 408:0.029166667 409:0.035087719 410:0.029166667 411:0.031688596 412:0.028289474 413:0.038815789 414:0.029166667 415:0.030811404 416:0.031688596 417:0.030811404 418:0.02872807 419:0.03245614 420:0.02872807 421:0.031688596 422:0.029166667 423:0.029495614 424:0.026644737 425:0.029934211 426:0.030811404 427:0.030811404 428:0.030372807 429:0.027412281 430:0.031688596 431:0.029166667 432:0.029495614 433:0.028289474 434:0.037171053 435:0.03245614 436:0.03377193 437:0.031688596 438:0.032127193 439:0.034649123 440:0.03245614 441:0.90679825 442:0.91337719 443:0.035416667 444:0.029934211 445:0.38048246 446:0.03377193 447:0.035855263 448:0.031688596 449:0.032127193 450:0.45175439 451:0.03629386 452:0.024451754 453:0.037609649 
2.837462932102279 1:0.033290978 2:0.034688691 3:0.031766201 4:0 5:0.030876747 6:0.033799238 7:0.036213469 8:0.031766201 9:0.034180432 10:0.032782719 11:0.031257942 12:0.031766201 13:0.031257942 14:0 15:0.033799238 16:0.03570521 17:0.03227446 18:0.031766201 19:0.032782719 20:0.031766201 21:0.03570521 22:0.0386277 23:0.033799238 24:0.033290978 25:0.03519695 401:0.031257942 402:0.031766201 403:0 404:0 405:0.031257942 406:0.039644219 407:0.040152478 408:0.03519695 409:0.04205845 410:0.032782719 411:0.034180432 412:0.037611182 413:0.033290978 414:0.033799238 415:0.034688691 416:0.036213469 417:0.030876747 418:0.03570521 419:0.034180432 420:0.036721728 421:0.032782719 422:0.03227446 423:0.04205845 424:0.038119441 425:0.039135959 426:0.0386277 427:0.043074968 428:0.033799238 429:0.034688691 430:0 431:0.031766201 432:0.03227446 433:0.0386277 434:0.041550191 435:0.043583227 436:0.034180432 437:0.036721728 438:0.027445997 439:0.040152478 440:0.034688691 441:0.772554 442:1 443:0.036213469 444:0.03227446 445:0.042566709 446:0.03519695 447:0.037611182 448:0.03570521 449:0.038119441 450:0.04498094 451:0.037229987 452:0.030876747 453:0.038119441 
