svm_type c_svc
kernel_type rbf
gamma 100
nr_class 2
total_sv 64
rho -1.37084
label 0 1
probA -1.01399
probB 0.854774
nr_sv 53 11
SV
1 1:0.11904762 2:0.098639456 3:0.068027211 4:0.088435374 5:0.034013605 6:0.0034013605 7:0.010204082 8:0.051020408 9:0.013605442 10:0.0068027211 11:0.037414966 12:0.10884354 13:0.051020408 14:0.078231293 15:0.051020408 16:0.047619048 17:0.013605442 18:0.023809524 19:0.051020408 20:0.044217687 
0.2312932050847454 1:0.05 2:0.06 3:0.075 4:0.075 5:0.015 6:0.025 7:0.04 8:0.05 9:0.035 10:0.02 11:0.06 12:0.135 13:0.045 14:0.045 15:0.025 16:0.045 17:0.065 18:0.015 19:0.02 20:0.1 
0.7146831268239993 1:0.066568047 2:0.036982249 3:0.039940828 4:0.071005917 5:0.022189349 6:0.023668639 7:0.020710059 8:0.025147929 9:0.032544379 10:0.013313609 11:0.035502959 12:0.073964497 13:0.054733728 14:0.056213018 15:0.057692308 16:0.069526627 17:0.11094675 18:0.051775148 19:0.076923077 20:0.060650888 
0.8732316215384561 1:0.047619048 2:0.038095238 3:0.066666667 4:0.15714286 5:0.052380952 6:0.023809524 7:0.023809524 8:0.042857143 9:0.028571429 10:0.0047619048 11:0.028571429 12:0.09047619 13:0.033333333 14:0.071428571 15:0.061904762 16:0.061904762 17:0.042857143 18:0.023809524 19:0.057142857 20:0.042857143 
0.03153217587629475 1:0.075555556 2:0.072592593 3:0.035555556 4:0.056296296 5:0.01037037 6:0.002962963 7:0.0088888889 8:0.023703704 9:0.031111111 10:0.014814815 11:0.053333333 12:0.081481481 13:0.028148148 14:0.035555556 15:0.051851852 16:0.060740741 17:0.16888889 18:0.035555556 19:0.072592593 20:0.08 
0.546990832447984 1:0.049180328 2:0.049180328 3:0.038251366 4:0.076502732 5:0.027322404 6:0.043715847 7:0.021857923 8:0.06557377 9:0.06557377 10:0.032786885 11:0.10382514 12:0.06010929 13:0.071038251 14:0.032786885 15:0.021857923 16:0.06010929 17:0.06010929 18:0.010928962 19:0.06557377 20:0.043715847 
0.8496264469653316 1:0.071428571 2:0.042857143 3:0.042857143 4:0.092857143 5:0.05 6:0.057142857 7:0.021428571 8:0.064285714 9:0.071428571 10:0.035714286 11:0.035714286 12:0.071428571 13:0.042857143 14:0.05 15:0.014285714 16:0.085714286 17:0.042857143 18:0.0071428571 19:0.085714286 20:0.014285714 
1 1:0.067264574 2:0.044843049 3:0.085201794 4:0.11210762 5:0.062780269 6:0.0089686099 7:0.0089686099 8:0.049327354 9:0.053811659 10:0.02690583 11:0.058295964 12:0.085201794 13:0.040358744 14:0.040358744 15:0.040358744 16:0.040358744 17:0.062780269 18:0.01793722 19:0.053811659 20:0.040358744 
0.4787915817214943 1:0.12030075 2:0.045112782 3:0.037593985 4:0.12030075 5:0.060150376 6:0.030075188 7:0.015037594 8:0.030075188 9:0.052631579 10:0.022556391 11:0.052631579 12:0.090225564 13:0.082706767 14:0.015037594 15:0.015037594 16:0.045112782 17:0.045112782 18:0.015037594 19:0.07518797 20:0.030075188 
1 1:0.1047619 2:0.060714286 3:0.064285714 4:0.10952381 5:0.045238095 6:0.013095238 7:0.021428571 8:0.051190476 9:0.042857143 10:0.016666667 11:0.042857143 12:0.094047619 13:0.048809524 14:0.038095238 15:0.030952381 16:0.057142857 17:0.044047619 18:0.033333333 19:0.039285714 20:0.041666667 
1 1:0.085714286 2:0.057142857 3:0.051428571 4:0.10285714 5:0.028571429 6:0.04 7:0.034285714 8:0.04 9:0.04 10:0.04 11:0.057142857 12:0.10285714 13:0.045714286 14:0.051428571 15:0.04 16:0.034285714 17:0.045714286 18:0.017142857 19:0.04 20:0.045714286 
0.01506753091525839 1:0.09352518 2:0.064748201 3:0.043165468 4:0.050359712 5:0.043165468 6:0.10071942 7:0.028776978 8:0.043165468 9:0.064748201 10:0.021582734 11:0.035971223 12:0.035971223 13:0.057553957 14:0.028776978 15:0.043165468 16:0.079136691 17:0.043165468 18:0.021582734 19:0.064748201 20:0.035971223 
0.1500334582497855 1:0.058139535 2:0.046511628 3:0.087209302 4:0.087209302 5:0.046511628 6:0.034883721 7:0.011627907 8:0.034883721 9:0.034883721 10:0.0058139535 11:0.01744186 12:0.040697674 13:0.052325581 14:0.069767442 15:0.052325581 16:0.075581395 17:0.087209302 18:0.046511628 19:0.063953488 20:0.046511628 
0.01138445680173101 1:0.041237113 2:0.06185567 3:0.030927835 4:0.10309278 5:0.041237113 6:0.010309278 7:0.051546392 8:0.020618557 9:0.051546392 10:0.041237113 11:0.072164948 12:0.10309278 13:0.06185567 14:0.041237113 15:0.020618557 16:0.06185567 17:0.06185567 18:0.010309278 19:0.030927835 20:0.082474227 
1 1:0.080246914 2:0.061728395 3:0.049382716 4:0.11111111 5:0.061728395 6:0.037037037 7:0.012345679 8:0.030864198 9:0.043209877 10:0.012345679 11:0.049382716 12:0.098765432 13:0.037037037 14:0.067901235 15:0.061728395 16:0.049382716 17:0.049382716 18:0.012345679 19:0.037037037 20:0.037037037 
0.005019288572024279 1:0.070229956 2:0.086389062 3:0.048477315 4:0.072715973 5:0.02921069 6:0.062150404 7:0.013673089 8:0.031075202 9:0.027967682 10:0.0068365444 11:0.044748291 12:0.0615289 13:0.060285892 14:0.062150404 15:0.045991299 16:0.065879428 17:0.083903045 18:0.016780609 19:0.050341827 20:0.059664388 
0.875270291962567 1:0.080708071 2:0.063606361 3:0.059705971 4:0.093609361 5:0.03780378 6:0.04650465 7:0.01650165 8:0.03570357 9:0.02790279 10:0.0066006601 11:0.059405941 12:0.086408641 13:0.04980498 14:0.04410441 15:0.051305131 16:0.054605461 17:0.055805581 18:0.03030303 19:0.04410441 20:0.055505551 
1 1:0.096774194 2:0.053763441 3:0.079569892 4:0.068817204 5:0.053763441 6:0.030107527 7:0.010752688 8:0.060215054 9:0.032258065 10:0.017204301 11:0.055913978 12:0.07311828 13:0.058064516 14:0.066666667 15:0.025806452 16:0.055913978 17:0.04516129 18:0.023655914 19:0.053763441 20:0.038709677 
0.7192057248067861 1:0.033653846 2:0.051282051 3:0.1025641 4:0.09775641 5:0.046474359 6:0.0064102564 7:0.020833333 8:0.048076923 9:0.052884615 10:0.017628205 11:0.056089744 12:0.051282051 13:0.049679487 14:0.056089744 15:0.046474359 16:0.048076923 17:0.072115385 18:0.043269231 19:0.051282051 20:0.048076923 
0.2173685711370261 1:0.13274336 2:0.066371681 3:0.03539823 4:0.079646018 5:0.013274336 6:0.061946903 7:0.022123894 8:0.017699115 9:0.013274336 10:0.0088495575 11:0.10619469 12:0.075221239 13:0.03539823 14:0.022123894 15:0.079646018 16:0.044247788 17:0.057522124 18:0.0088495575 19:0.022123894 20:0.097345133 
1 1:0.07635468 2:0.073891626 3:0.088669951 4:0.07635468 5:0.044334975 6:0.02955665 7:0.012315271 8:0.019704433 9:0.051724138 10:0.019704433 11:0.051724138 12:0.044334975 13:0.054187192 14:0.051724138 15:0.041871921 16:0.061576355 17:0.061576355 18:0.032019704 19:0.086206897 20:0.022167488 
0.3225803068836883 1:0.13488372 2:0.079069767 3:0.074418605 4:0.069767442 5:0.03255814 6:0.018604651 7:0.037209302 8:0.046511628 9:0.013953488 10:0.013953488 11:0.10697674 12:0.051162791 13:0.046511628 14:0.037209302 15:0.051162791 16:0.023255814 17:0.065116279 18:0.03255814 19:0.03255814 20:0.03255814 
1 1:0.079903148 2:0.065375303 3:0.099273608 4:0.05811138 5:0.043583535 6:0.021791768 7:0.014527845 8:0.026634383 9:0.050847458 10:0.00968523 11:0.065375303 12:0.053268765 13:0.060532688 14:0.053268765 15:0.02905569 16:0.062953995 17:0.05811138 18:0.016949153 19:0.094430993 20:0.036319613 
1 1:0.086956522 2:0.076086957 3:0.054347826 4:0.086956522 5:0.030434783 6:0.02826087 7:0.0086956522 8:0.045652174 9:0.034782609 10:0.039130435 11:0.07173913 12:0.089130435 13:0.041304348 14:0.043478261 15:0.026086957 16:0.05 17:0.05 18:0.034782609 19:0.052173913 20:0.05 
1 1:0.054870268 2:0.046788601 3:0.053168864 4:0.094427903 5:0.046788601 6:0.011059124 7:0.025946406 8:0.04636325 9:0.033602722 10:0.015737984 11:0.054444917 12:0.09315185 13:0.065929392 14:0.053168864 15:0.046788601 16:0.051467461 17:0.062951935 18:0.031901319 19:0.067205444 20:0.044236495 
0.9820098541402085 1:0.10646388 2:0.079847909 3:0.098859316 4:0.076045627 5:0.038022814 6:0.038022814 7:0.02661597 8:0.02661597 9:0.022813688 10:0.030418251 11:0.045627376 12:0.072243346 13:0.072243346 14:0.053231939 15:0.038022814 16:0.038022814 17:0.038022814 18:0.02661597 19:0.030418251 20:0.041825095 
1 1:0.075555556 2:0.044444444 3:0.066666667 4:0.093333333 5:0.057777778 6:0.013333333 7:0.026666667 8:0.062222222 9:0.044444444 10:0.031111111 11:0.044444444 12:0.10222222 13:0.044444444 14:0.035555556 15:0.04 16:0.057777778 17:0.053333333 18:0.013333333 19:0.066666667 20:0.026666667 
1 1:0.071111111 2:0.057777778 3:0.08 4:0.075555556 5:0.057777778 6:0.013333333 7:0.022222222 8:0.071111111 9:0.035555556 10:0.031111111 11:0.035555556 12:0.093333333 13:0.057777778 14:0.04 15:0.031111111 16:0.057777778 17:0.053333333 18:0.017777778 19:0.075555556 20:0.022222222 
1 1:0.080357143 2:0.044642857 3:0.084821429 4:0.089285714 5:0.053571429 6:0.013392857 7:0.013392857 8:0.071428571 9:0.035714286 10:0.026785714 11:0.049107143 12:0.10267857 13:0.0625 14:0.03125 15:0.03125 16:0.040178571 17:0.066964286 18:0.013392857 19:0.0625 20:0.026785714 
1 1:0.068833652 2:0.072657744 3:0.072657744 4:0.10325048 5:0.045889101 6:0.028680688 7:0.022944551 8:0.063097514 9:0.045889101 10:0.013384321 11:0.053537285 12:0.051625239 13:0.055449331 14:0.045889101 15:0.030592734 16:0.051625239 17:0.059273423 18:0.04206501 19:0.034416826 20:0.038240918 
0.7311308299836374 1:0.051668461 2:0.057050592 3:0.06350915 4:0.1065662 5:0.050592034 6:0.010764263 7:0.030139935 8:0.051668461 9:0.032292788 10:0.023681378 11:0.040904198 12:0.087190527 13:0.066738428 14:0.036598493 15:0.041980624 16:0.048439182 17:0.069967707 18:0.029063509 19:0.06350915 20:0.037674919 
1 1:0.045364892 2:0.060267368 3:0.055226824 4:0.11724742 5:0.062458909 6:0.0054788516 7:0.017313171 8:0.049090511 9:0.033092264 10:0.0081087004 11:0.037475345 12:0.085908394 13:0.06574622 14:0.054131054 15:0.050405435 16:0.051062897 17:0.065307911 18:0.025202718 19:0.078238001 20:0.03287311 
1 1:0.045258621 2:0.066810345 3:0.068965517 4:0.096982759 5:0.051724138 6:0.017241379 7:0.028017241 8:0.058189655 9:0.025862069 10:0.010775862 11:0.045258621 12:0.075431034 13:0.056034483 14:0.051724138 15:0.028017241 16:0.051724138 17:0.081896552 18:0.010775862 19:0.079741379 20:0.049568966 
1 1:0.073235686 2:0.06391478 3:0.07057257 4:0.091877497 5:0.029294274 6:0.0093209055 7:0.017310253 8:0.055925433 9:0.045272969 10:0.023968043 11:0.082556591 12:0.061251664 13:0.059920107 14:0.037283622 15:0.039946738 16:0.042609854 17:0.057256991 18:0.047936085 19:0.03195739 20:0.058588549 
1 1:0.055288462 2:0.091346154 3:0.057692308 4:0.13942308 5:0.045673077 6:0.014423077 7:0.016826923 8:0.055288462 9:0.019230769 10:0.0048076923 11:0.036057692 12:0.057692308 13:0.0625 14:0.060096154 15:0.033653846 16:0.050480769 17:0.067307692 18:0.043269231 19:0.072115385 20:0.016826923 
1 1:0.094252874 2:0.045977011 3:0.064367816 4:0.075862069 5:0.068965517 6:0.025287356 7:0.013793103 8:0.034482759 9:0.043678161 10:0.011494253 11:0.032183908 12:0.094252874 13:0.07816092 14:0.085057471 15:0.032183908 16:0.085057471 17:0.032183908 18:0.020689655 19:0.036781609 20:0.025287356 
0.7949915706546433 1:0.080675422 2:0.099437148 3:0.076923077 4:0.082551595 5:0.063789869 6:0.009380863 7:0.011257036 8:0.048780488 9:0.028142589 10:0.015009381 11:0.082551595 12:0.075046904 13:0.07879925 14:0.061913696 15:0.022514071 16:0.067542214 17:0.024390244 18:0.031894934 19:0.011257036 20:0.028142589 
1 1:0.069230769 2:0.061538462 3:0.084615385 4:0.067307692 5:0.059615385 6:0.011538462 7:0.011538462 8:0.069230769 9:0.025 10:0.013461538 11:0.084615385 12:0.055769231 13:0.057692308 14:0.075 15:0.038461538 16:0.067307692 17:0.051923077 18:0.034615385 19:0.021153846 20:0.040384615 
0.5957600950344998 1:0.089416058 2:0.091240876 3:0.071167883 4:0.10218978 5:0.054744526 6:0.012773723 7:0.0072992701 8:0.054744526 9:0.027372263 10:0.016423358 11:0.069343066 12:0.076642336 13:0.087591241 14:0.049270073 15:0.032846715 16:0.062043796 17:0.018248175 18:0.034671533 19:0.0091240876 20:0.032846715 
0.2943204569265749 1:0.10675381 2:0.065359477 3:0.045751634 4:0.061002179 5:0.030501089 6:0.047930283 7:0.021786492 8:0.019607843 9:0.050108932 10:0.015250545 11:0.05664488 12:0.13071895 13:0.10675381 14:0.076252723 15:0.041394336 16:0.047930283 17:0.021786492 18:0.013071895 19:0.021786492 20:0.019607843 
1 1:0.097959184 2:0.057142857 3:0.044897959 4:0.032653061 5:0.057142857 6:0.0081632653 7:0.036734694 8:0.057142857 9:0.073469388 10:0.036734694 11:0.053061224 12:0.06122449 13:0.073469388 14:0.085714286 15:0.016326531 16:0.069387755 17:0.032653061 18:0.028571429 19:0.044897959 20:0.032653061 
1 1:0.10588235 2:0.070588235 3:0.066176471 4:0.051470588 5:0.051470588 6:0.010294118 7:0.020588235 8:0.038235294 9:0.035294118 10:0.023529412 11:0.061764706 12:0.11029412 13:0.094117647 14:0.060294118 15:0.033823529 16:0.052941176 17:0.019117647 18:0.017647059 19:0.035294118 20:0.041176471 
0.9775095837588331 1:0.075320513 2:0.057692308 3:0.078525641 4:0.083333333 5:0.072115385 6:0.016025641 7:0.019230769 8:0.033653846 9:0.075320513 10:0.019230769 11:0.03525641 12:0.10416667 13:0.092948718 14:0.051282051 15:0.030448718 16:0.068910256 17:0.033653846 18:0.012820513 19:0.012820513 20:0.02724359 
1 1:0.12295082 2:0.077868852 3:0.045081967 4:0.073770492 5:0.028688525 6:0.06557377 7:0.0040983607 8:0.057377049 9:0.032786885 10:0.012295082 11:0.06557377 12:0.1147541 13:0.081967213 14:0.045081967 15:0.032786885 16:0.049180328 17:0.024590164 18:0.0081967213 19:0.045081967 20:0.012295082 
0.2944910976123367 1:0.10731707 2:0.068292683 3:0.075609756 4:0.065853659 5:0.070731707 6:0.041463415 7:0.026829268 8:0.024390244 9:0.02195122 10:0.0073170732 11:0.034146341 12:0.065853659 13:0.082926829 14:0.070731707 15:0.012195122 16:0.073170732 17:0.024390244 18:0.014634146 19:0.10243902 20:0.0097560976 
1 1:0.071428571 2:0.10248447 3:0.043478261 4:0.090062112 5:0.062111801 6:0.031055901 7:0.01863354 8:0.049689441 9:0.01242236 10:0.0031055901 11:0.040372671 12:0.10559006 13:0.062111801 14:0.055900621 15:0.043478261 16:0.062111801 17:0.034161491 18:0.01242236 19:0.037267081 20:0.062111801 
0.8523956753651994 1:0.095679012 2:0.080246914 3:0.061728395 4:0.086419753 5:0.058641975 6:0.024691358 7:0.015432099 8:0.070987654 9:0.0092592593 10:0.0030864198 11:0.033950617 12:0.070987654 13:0.089506173 14:0.070987654 15:0.052469136 16:0.080246914 17:0.018518519 18:0.0092592593 19:0.024691358 20:0.043209877 
1 1:0.099447514 2:0.099447514 3:0.071823204 4:0.10497238 5:0.044198895 6:0.038674033 7:0.022099448 8:0.049723757 9:0.033149171 10:0.0055248619 11:0.049723757 12:0.093922652 13:0.055248619 14:0.027624309 15:0.033149171 16:0.044198895 17:0.038674033 18:0.016574586 19:0.044198895 20:0.027624309 
1 1:0.068376068 2:0.085470085 3:0.048433048 4:0.094017094 5:0.085470085 6:0.0056980057 7:0.017094017 8:0.048433048 9:0.065527066 10:0.0085470085 11:0.045584046 12:0.065527066 13:0.03988604 14:0.1025641 15:0.03988604 16:0.031339031 17:0.056980057 18:0.014245014 19:0.051282051 20:0.025641026 
0.5529438043666003 1:0.056105611 2:0.11881188 3:0.099009901 4:0.095709571 5:0.02970297 6:0.01980198 7:0.01320132 8:0.056105611 9:0.02640264 10:0.01320132 11:0.056105611 12:0.079207921 13:0.04620462 14:0.01980198 15:0.0330033 16:0.056105611 17:0.04950495 18:0.02970297 19:0.052805281 20:0.04950495 
0.06176915023416089 1:0.065620542 2:0.084165478 3:0.065620542 4:0.081312411 5:0.038516405 6:0.05278174 7:0.011412268 8:0.035663338 9:0.034236805 10:0.014265335 11:0.034236805 12:0.078459344 13:0.059914408 14:0.031383738 15:0.041369472 16:0.067047076 17:0.061340942 18:0.015691869 19:0.098430813 20:0.02853067 
0.7707740856222148 1:0.10042735 2:0.057692308 3:0.057692308 4:0.064102564 5:0.047008547 6:0.053418803 7:0.027777778 8:0.02991453 9:0.019230769 10:0.014957265 11:0.042735043 12:0.081196581 13:0.040598291 14:0.066239316 15:0.038461538 16:0.032051282 17:0.053418803 18:0.038461538 19:0.044871795 20:0.08974359 
1 1:0.057627119 2:0.06440678 3:0.081355932 4:0.088135593 5:0.030508475 6:0.013559322 7:0.013559322 8:0.030508475 9:0.061016949 10:0.027118644 11:0.06779661 12:0.06440678 13:0.030508475 14:0.037288136 15:0.06779661 16:0.061016949 17:0.071186441 18:0.023728814 19:0.06779661 20:0.040677966 
-4.190726708125553 1:0.059360731 2:0.077625571 3:0.077625571 4:0.11872146 5:0.0456621 6:0.02283105 7:0.02283105 8:0.054794521 9:0.050228311 10:0.00456621 11:0.054794521 12:0.063926941 13:0.073059361 14:0.082191781 15:0.01826484 16:0.059360731 17:0.02739726 18:0.01369863 19:0.03652968 20:0.03652968 
-2.424639471400067 1:0.061926606 2:0.055045872 3:0.064220183 4:0.10091743 5:0.05733945 6:0 7:0.01146789 8:0.059633028 9:0.027522936 10:0.002293578 11:0.03440367 12:0.089449541 13:0.032110092 14:0.071100917 15:0.068807339 16:0.04587156 17:0.091743119 18:0.025229358 19:0.05733945 20:0.043577982 
-3.731077158164593 1:0.065420561 2:0.058411215 3:0.065420561 4:0.11682243 5:0.070093458 6:0 7:0.011682243 8:0.053738318 9:0.03271028 10:0.0046728972 11:0.042056075 12:0.086448598 13:0.030373832 14:0.072429907 15:0.060747664 16:0.046728972 17:0.070093458 18:0.021028037 19:0.051401869 20:0.039719626 
-8.964903605964633 1:0.080123267 2:0.063174114 3:0.07550077 4:0.086286595 5:0.033898305 6:0.0077041602 7:0.016949153 8:0.044684129 9:0.040061633 10:0.029275809 11:0.055469954 12:0.098613251 13:0.061633282 14:0.043143297 15:0.032357473 16:0.064714946 17:0.047765794 18:0.024653313 19:0.053929122 20:0.040061633 
-1.527488626782253 1:0.06684492 2:0.085561497 3:0.06684492 4:0.093582888 5:0.058823529 6:0.0026737968 7:0.018716578 8:0.056149733 9:0.042780749 10:0.016042781 11:0.058823529 12:0.10427807 13:0.050802139 14:0.064171123 15:0.026737968 16:0.048128342 17:0.034759358 18:0.010695187 19:0.040106952 20:0.053475936 
-3.107491552443139 1:0.098314607 2:0.092696629 3:0.078651685 4:0.078651685 5:0.047752809 6:0.025280899 7:0.016853933 8:0.053370787 9:0.039325843 10:0.016853933 11:0.030898876 12:0.064606742 13:0.053370787 14:0.053370787 15:0.033707865 16:0.039325843 17:0.056179775 18:0.011235955 19:0.073033708 20:0.036516854 
-1.630529285963559 1:0.125 2:0.079268293 3:0.042682927 4:0.06402439 5:0.036585366 6:0.048780488 7:0.024390244 8:0.039634146 9:0.048780488 10:0.027439024 11:0.06097561 12:0.085365854 13:0.067073171 14:0.039634146 15:0.051829268 16:0.051829268 17:0.015243902 18:0.0091463415 19:0.030487805 20:0.051829268 
-4.235516484444214 1:0.11676647 2:0.071856287 3:0.032934132 4:0.05988024 5:0.04491018 6:0.050898204 7:0.017964072 8:0.041916168 9:0.04491018 10:0.020958084 11:0.071856287 12:0.086826347 13:0.068862275 14:0.056886228 15:0.050898204 16:0.041916168 17:0.020958084 18:0.011976048 19:0.026946108 20:0.05988024 
-3.585640768492957 1:0.075630252 2:0.037815126 3:0.092436975 4:0.067226891 5:0.037815126 6:0.025210084 7:0.016806723 8:0.046218487 9:0.054621849 10:0.021008403 11:0.046218487 12:0.067226891 13:0.046218487 14:0.071428571 15:0.033613445 16:0.058823529 17:0.042016807 18:0.025210084 19:0.088235294 20:0.046218487 
-3.051886089494643 1:0.074850299 2:0.050898204 3:0.033932136 4:0.058882236 5:0.033932136 6:0.012974052 7:0.036926148 8:0.052894212 9:0.033932136 10:0.0079840319 11:0.11377246 12:0.043912176 13:0.027944112 14:0.038922156 15:0.026946108 16:0.070858283 17:0.10778443 18:0.080838323 19:0.065868263 20:0.025948104 
-3.500275072210474 1:0.09382716 2:0.079012346 3:0.044444444 4:0.10123457 5:0.059259259 6:0.0098765432 7:0.0098765432 8:0.059259259 9:0.051851852 10:0.0098765432 11:0.04691358 12:0.064197531 13:0.069135802 14:0.044444444 15:0.02962963 16:0.064197531 17:0.066666667 18:0.022222222 19:0.059259259 20:0.014814815 
