svm_type c_svc
kernel_type rbf
gamma 0.01
nr_class 2
total_sv 75
rho 2.00928
label 0 1
probA -3.22357
probB 0.506221
nr_sv 44 31
SV
9.622665015452252 5783:1 6508:1 8237:1 16787:1 46983:1 
50 4571:1 5509:1 16020:1 
1.407644982619828 4197:1 5783:1 6508:1 8234:1 
34.78971301647974 45735:1 
1.556177849998359 3980:1 6486:1 
49.51432201677465 3980:1 6486:1 
8.445663351181558 16020:1 19885:1 
37.16841720236786 6810:1 16021:1 
50 6810:1 16021:1 
1.531927705449353 150:1 6310:1 6810:1 16021:1 
18.15571056211354 16044:1 30176:1 
33.2843478943403 45454:1 
50 16020:1 19885:1 
50 16020:1 
1.508924962987948 4579:1 5789:1 8250:1 18279:1 
50 6810:1 16021:1 
9.854365397836334 4601:1 6118:1 6979:1 20037:1 
1.53060452700585 3755:1 6457:1 
14.57562043650382 5488:1 
33.82637066149008 5783:1 16021:1 
11.84316132956228 5509:1 5783:1 
1.524610524903122 16853:1 45454:1 
7.916000329550512 4579:1 5783:1 6486:1 16021:1 
50 6810:1 16021:1 
34.79599048548211 5515:1 
18.15621640625254 5319:1 6869:1 
1.528181615920827 4672:1 4674:1 5524:1 6468:1 
31.77283981316762 6457:1 
1.530946047109084 5488:1 16706:1 19538:1 
9.462829733056038 3824:1 4345:1 5488:1 5975:1 6006:1 6098:1 8152:1 17057:1 
50 6810:1 16021:1 
33.31388885808887 5524:1 
1.535477975060056 6457:1 31072:1 51082:1 
8.573148680622534 4579:1 5789:1 18279:1 
50 5509:1 
50 6810:1 16021:1 
50 16787:1 
10.20028147193542 3824:1 5488:1 8152:1 16491:1 
50 4571:1 5509:1 16020:1 
34.81062730391159 166:1 
50 16020:1 
50 16020:1 
50 16020:1 
10.79541445212533 3824:1 4573:1 9311:1 
-75 16787:1 
-23.65848202720193 6486:1 8373:1 30173:1 
-27.8503182600177 16051:1 16758:1 
-18.40562946314676 7212:1 16021:1 50780:1 
-13.90611895553336 3824:1 4559:1 5975:1 6013:1 15923:1 30246:1 
-1.610633115460039 5795:1 8455:1 9312:1 16021:1 
-12.45370079759914 3830:1 6487:1 16020:1 
-39.43289614289044 4571:1 5509:1 16020:1 
-75 4571:1 5509:1 16020:1 
-24.33369080447897 16020:1 16757:1 
-17.64829179800811 139:1 3827:1 6487:1 
-18.39862341183133 6024:1 16021:1 16857:1 
-66.21366134499537 8146:1 
-12.09599251559079 1733:1 5794:1 9058:1 16021:1 
-75 16020:1 
-42.54606950526954 8375:1 16020:1 
-75 6810:1 16021:1 
-2.185102153181859 16758:1 30173:1 30259:1 
-75 6810:1 16021:1 
-75 6810:1 16021:1 
-18.58699721411048 5975:1 16757:1 
-32.06850272534002 5795:1 8378:1 
-25.65971902870415 4377:1 6486:1 16020:1 
-42.54985195712119 15018:1 16020:1 
-42.2115636599659 8152:1 8484:1 
-38.14615439141298 4289:1 6508:1 
-75 5509:1 
-75 16021:1 
-25.65301653276155 6486:1 8417:1 16020:1 
-7.907230562882599 16021:1 16758:1 
-21.00984424184523 8107:1 16020:1 42546:1 
