svm_type c_svc
kernel_type rbf
gamma 0.1
nr_class 2
total_sv 106
rho -1.28719
label 0 1
probA -3.53279
probB 0.137132
nr_sv 61 45
SV
2 1:0.683487 2:0.112719 3:0.203794 4:-0.890156 5:0.175317 6:0.516177 7:0.0065895 8:0.193619 9:0.029227 10:0.111228 11:0.182071 12:0.103057 13:0.076846 14:0.122044 15:0 16:0 17:0 18:0 19:0 20:0 21:0 22:0.0107524 23:0.021102 24:0.0227388 25:0.0836549 26:0.52258 27:0.00240339 28:0.0241301 29:0.309935 30:0.00270386 31:0.00347683 32:0.630724 33:0.0666768 34:0.0308938 35:0.0229437 36:0.22263 37:0.00974993 38:0.00532545 39:0.00757899 40:0.0374423 41:0.0753559 42:0.0232103 43:0.499962 44:0.0284506 45:0.00245863 46:0.024992 47:0.0101978 48:0.297931 
2 1:0.637782 2:0.0720619 3:0.290156 4:-0.692231 5:0.0729389 6:0.668968 7:0.0305942 8:0.0706807 9:0.279392 10:0.0667378 11:0.014945 12:0.0084959 13:0.432619 14:0.0235971 15:0 16:0 17:0 18:0 19:0 20:0 21:0 22:0.0465022 23:0.482697 24:0.382738 25:0.00822338 26:0.0108385 27:0.0291921 28:0.0220737 29:0.00344277 30:0.0142914 31:0.0112943 32:0.0354159 33:0.0134618 34:0.0108572 35:0.859351 36:0.0186292 37:0.0327703 38:0.00364812 39:0.0145724 40:0.123305 41:0.246168 42:0.00625993 43:0.0927311 44:0.0148883 45:0.0233624 46:0.0727713 47:0.0177391 48:0.402775 
2 1:0.387957 2:0.0336491 3:0.578394 4:0.641327 5:0.116501 6:0.322341 7:0.0773481 8:0.212158 9:0.0450895 10:0.0412872 11:0.0294151 12:0.0114579 13:0.438224 14:0.0285194 15:0 16:0 17:0 18:0 19:0 20:0 21:0 22:0.106087 23:0.117485 24:0.206701 25:0.38335 26:0.0345257 27:0.064599 28:0.0502846 29:0.0186966 30:0.0182709 31:0.11 32:0.11 33:0.11 34:0.11 35:0.11 36:0.11 37:0.11 38:0.11 39:0.11 40:0.00014053 41:0.0157334 42:0.978598 43:0.000137507 44:0.000666405 45:0.000746702 46:0.000453937 47:0.00326894 48:0.000254602 
2 1:0.853837 2:0.0797576 3:0.066405 4:-0.962308 5:0.01288 6:0.602939 7:0.00991213 8:0.0345328 9:0.0245603 10:0.105578 11:0.107211 12:0.0821741 13:0.2532 14:0.369952 15:0 16:0 17:0 18:0 19:0 20:0 21:0 22:0.0189669 23:0.0474471 24:0.0403188 25:0.668644 26:0.0205153 27:0.0362679 28:0.0200408 29:0.00313573 30:0.144664 31:0.11 32:0.11 33:0.11 34:0.11 35:0.11 36:0.11 37:0.11 38:0.11 39:0.11 40:0.00387002 41:0.0136346 42:0.00114142 43:0.920333 44:0.00818963 45:0.000154432 46:0.0489566 47:0.00201308 48:0.00170752 
2 1:0.33691 2:0.52149 3:0.1416 4:-0.649949 5:0.0772148 6:0.476986 7:0.0554739 8:0.20966 9:0.0462661 10:0.0209029 11:0.0929492 12:0.0235477 13:0.366413 14:0.107572 15:1 16:0 17:0 18:0 19:0 20:0 21:0 22:0.0304192 23:0.093348 24:0.0583914 25:0.494263 26:0.252273 27:0.0058425 28:0.0166635 29:0.0323122 30:0.0164879 31:0.11 32:0.11 33:0.11 34:0.11 35:0.11 36:0.11 37:0.11 38:0.11 39:0.11 40:0.163158 41:0.266553 42:0.027205 43:0.131592 44:0.188349 45:0.0191062 46:0.0786811 47:0.114646 48:0.0107098 
2 1:0.899439 2:0.043013 3:0.0575485 4:0.943328 5:0.0439008 6:0.223039 7:0.00639783 8:0.182429 9:0.184444 10:0.245177 11:0.12277 12:0.170844 13:0.00223219 14:0.0418054 15:0 16:0 17:0 18:0 19:0 20:0 21:1 22:0.0363048 23:0.30295 24:0.163381 25:0.048261 26:0.0173189 27:0.24395 28:0.14905 29:0.0176512 30:0.0211332 31:0.00302558 32:0.12771 33:0.835463 34:0.00146329 35:0.00187113 36:0.0162855 37:0.0102389 38:0.000979762 39:0.00296286 40:0.00481918 41:0.510484 42:0.258711 43:0.027546 44:0.024439 45:0.0393247 46:0.0751239 47:0.0564098 48:0.00314246 
1.571711631169444 1:0.362009 2:0.100047 3:0.537943 4:-0.958805 5:0.0265254 6:0.0580453 7:0.0113836 8:0.379167 9:0.0132995 10:0.101359 11:0.304646 12:0.0448076 13:0.11468 14:0.0041321 15:0 16:0 17:0 18:0 19:0 20:0 21:0 22:0.012387 23:0.081854 24:0.0354918 25:0.777598 26:0.0815231 27:0.00336157 28:0.00488117 29:0.00109817 30:0.00180533 31:0.0258431 32:0.182396 33:0.0339981 34:0.0717088 35:0.0137558 36:0.0276925 37:0.0285846 38:0.0359354 39:0.580086 40:0.00223253 41:0.0544907 42:0.00301749 43:0.694572 44:0.00364459 45:0.000143777 46:0.00318653 47:0.0014629 48:0.23725 
0.8699874726688567 1:0.369853 2:0.535917 3:0.0942301 4:0.57061 5:0.0139963 6:0.0232416 7:0.0103163 8:0.150626 9:0.280803 10:0.25764 11:0.11667 12:0.0253269 13:0.0513622 14:0.0932598 15:0 16:0 17:0 18:0 19:0 20:0 21:0 22:0.0049766 23:0.100718 24:0.77209 25:0.0517788 26:0.0284633 27:0.00762322 28:0.0232043 29:0.00299787 30:0.00814831 31:0.00878916 32:0.582151 33:0.158034 34:0.0222279 35:0.0147324 36:0.1549 37:0.0502194 38:0.0037765 39:0.00517023 40:0.000737867 41:0.126743 42:0.757363 43:0.0210444 44:0.00262382 45:0.0414287 46:0.0199381 47:0.0278743 48:0.00224679 
2 1:0.88006 2:0.0683979 3:0.0515422 4:-0.926579 5:0.0539784 6:0.0971658 7:0.0133556 8:0.163859 9:0.0169491 10:0.0648078 11:0.0481827 12:0.17775 13:0.225605 14:0.235512 15:0 16:0 17:0 18:0 19:0 20:0 21:1 22:0.0583956 23:0.3595 24:0.0290986 25:0.0271726 26:0.00124154 27:0.0193727 28:0.490562 29:0.00935438 30:0.00530268 31:0.106654 32:0.628449 33:0.0714779 34:0.0276121 35:0.0395251 36:0.0382393 37:0.0416236 38:0.0145883 39:0.0318311 40:0.093155 41:0.683047 42:0.0188686 43:0.0720679 44:0.0129851 45:0.00420946 46:0.105996 47:0.00793656 48:0.00173466 
2 1:0.40172 2:0.0616664 3:0.536614 4:-0.948854 5:0.190152 6:0.74506 7:0.0256878 8:0.191673 9:0.0644555 10:0.155811 11:0.0238014 12:0.065014 13:0.265612 14:0.017793 15:0 16:0 17:0 18:0 19:0 20:0 21:0 22:0.00922868 23:0.138559 24:0.056251 25:0.64072 26:0.107733 27:0.00395015 28:0.0220941 29:0.0186072 30:0.00285645 31:0.0239445 32:0.154756 33:0.0301319 34:0.0877101 35:0.0127628 36:0.0306128 37:0.0297781 38:0.0431783 39:0.587125 40:0.0887044 41:0.132618 42:0.0115487 43:0.632671 44:0.0521257 45:0.00317683 46:0.0669066 47:0.00850547 48:0.00374273 
2 1:0.967294 2:0.00479882 3:0.0279069 4:0.861725 5:0.0179672 6:0.397338 7:0.0446508 8:0.0308847 9:0.0145941 10:0.0949202 11:0.0550294 12:0.0152741 13:0.710355 14:0.0163245 15:0 16:0 17:0 18:0 19:0 20:0 21:0 22:0.122066 23:0.112651 24:0.190523 25:0.27957 26:0.0380466 27:0.0677441 28:0.12299 29:0.030359 30:0.0360498 31:0.11 32:0.11 33:0.11 34:0.11 35:0.11 36:0.11 37:0.11 38:0.11 39:0.11 40:0.0133639 41:0.887951 42:0.0359745 43:0.0147558 44:0.00246799 45:0.00275836 46:0.0366343 47:0.00133871 48:0.00475511 
2 1:0.795946 2:0.0675497 3:0.136505 4:-0.952305 5:0.0845006 6:0.396881 7:0.00267453 8:0.0351938 9:0.0419852 10:0.047876 11:0.00342118 12:0.0589314 13:0.049588 14:0.675829 15:0 16:0 17:0 18:0 19:0 20:0 21:0 22:0.126446 23:0.327822 24:0.0864451 25:0.0308985 26:0.0339296 27:0.0500849 28:0.193146 29:0.137265 30:0.0139634 31:0.11 32:0.11 33:0.11 34:0.11 35:0.11 36:0.11 37:0.11 38:0.11 39:0.11 40:0.145384 41:0.451375 42:0.0638472 43:0.0511114 44:0.0517733 45:0.00451059 46:0.0202189 47:0.187046 48:0.0247336 
2 1:0.879274 2:0.0294492 3:0.0912763 4:0.9505 5:0.0337424 6:0.330436 7:0.139953 8:0.0459134 9:0.00959283 10:0.0204864 11:0.0429411 12:0.0241541 13:0.0581624 14:0.625054 15:0 16:0 17:0 18:0 19:0 20:0 21:0 22:0.0149458 23:0.330007 24:0.060104 25:0.329516 26:0.0474088 27:0.0403015 28:0.0933577 29:0.0154094 30:0.0689496 31:0.00523524 32:0.903932 33:0.0359059 34:0.0103553 35:0.0155542 36:0.0171337 37:0.00274757 38:0.00382304 39:0.00531307 40:0.0265544 41:0.62167 42:0.0692548 43:0.0492377 44:0.0141929 45:0.0955496 46:0.0586291 47:0.0451111 48:0.0198008 
2 1:0.835701 2:0.0477273 3:0.116572 4:0.757052 5:0.0312864 6:0.246392 7:0.0104008 8:0.157615 9:0.195386 10:0.133161 11:0.152479 12:0.126398 13:0.148275 14:0.0449983 15:0 16:0 17:0 18:0 19:0 20:0 21:0 22:0.110592 23:0.100827 24:0.142825 25:0.0400651 26:0.0151004 27:0.300842 28:0.238097 29:0.0341566 30:0.017495 31:0.0315718 32:0.656391 33:0.0686008 34:0.060336 35:0.0165388 36:0.0626421 37:0.0497661 38:0.0130592 39:0.041094 40:0.0475847 41:0.658825 42:0.0185286 43:0.133991 44:0.0287447 45:0.00780813 46:0.0600704 47:0.0426872 48:0.00176042 
2 1:0.275147 2:0.0818221 3:0.643031 4:-0.97102 5:0.0082461 6:0.112065 7:0.0729586 8:0.137622 9:0.190034 10:0.233419 11:0.0240554 12:0.00504534 13:0.32475 14:0.00386933 15:0 16:0 17:0 18:0 19:0 20:0 21:0 22:0.0177494 23:0.0522958 24:0.0282498 25:0.640977 26:0.0117403 27:0.0512898 28:0.0166554 29:0.00334342 30:0.177699 31:0.0232779 32:0.0617661 33:0.0327952 34:0.734152 35:0.0184439 36:0.0215844 37:0.0338826 38:0.0259147 39:0.0481834 40:0.000440105 41:0.0196292 42:0.0018852 43:0.929121 44:0.0133018 45:0.000483422 46:0.0303112 47:0.00132684 48:0.00350082 
2 1:0.335063 2:0.088564 3:0.576373 4:-0.952179 5:0.0633865 6:0.307371 7:0.199593 8:0.101682 9:0.0573496 10:0.0868078 11:0.0344489 12:0.00445628 13:0.443952 14:0.00832361 15:0 16:0 17:0 18:0 19:0 20:0 21:0 22:0.0139162 23:0.0417774 24:0.0383311 25:0.647257 26:0.00919613 27:0.0252957 28:0.0163126 29:0.00220301 30:0.20571 31:0.0398136 32:0.109151 33:0.052317 34:0.446683 35:0.0803731 36:0.076353 37:0.0444116 38:0.0396572 39:0.111241 40:0.000473067 41:0.0199701 42:0.00311255 43:0.956767 44:0.00582127 45:0.000185119 46:0.00629943 47:0.0041351 48:0.00323661 
2 1:0.356781 2:0.075986 3:0.567233 4:-0.960823 5:0.0195618 6:0.1515 7:0.00964406 8:0.0969932 9:0.0201169 10:0.0177109 11:0.0715171 12:0.052011 13:0.708818 14:0.00362675 15:0 16:0 17:0 18:0 19:0 20:0 21:0 22:0.0244234 23:0.0645529 24:0.0591428 25:0.555107 26:0.0208296 27:0.0531207 28:0.0321468 29:0.0179919 30:0.172685 31:0.0232779 32:0.0617661 33:0.0327952 34:0.734152 35:0.0184439 36:0.0215844 37:0.0338826 38:0.0259147 39:0.0481834 40:0.00890884 41:0.213383 42:0.0361434 43:0.515426 44:0.0360037 45:0.0123564 46:0.0668976 47:0.0854208 48:0.0254597 
1.606323301826164 1:0.224376 2:0.305789 3:0.469835 4:-0.953212 5:0.0126353 6:0.0311217 7:0.0447384 8:0.047601 9:0.0195681 10:0.0206388 11:0.0997793 12:0.62026 13:0.126443 14:0.00833533 15:0 16:0 17:0 18:0 19:0 20:0 21:0 22:0.0183931 23:0.0720525 24:0.0341563 25:0.544926 26:0.00667313 27:0.028717 28:0.0185882 29:0.00395382 30:0.27254 31:0.0232779 32:0.0617661 33:0.0327952 34:0.734152 35:0.0184439 36:0.0215844 37:0.0338826 38:0.0259147 39:0.0481834 40:0.0216699 41:0.496419 42:0.0414117 43:0.192954 44:0.0251725 45:0.00804806 46:0.0863425 47:0.0428085 48:0.0851736 
2 1:0.407179 2:0.0594717 3:0.53335 4:-0.969411 5:0.0153468 6:0.0981803 7:0.102473 8:0.0833503 9:0.0247433 10:0.0344883 11:0.0645894 12:0.00353019 13:0.667122 14:0.00435609 15:0 16:0 17:1 18:0 19:0 20:0 21:0 22:0.0224045 23:0.059599 24:0.0395175 25:0.592534 26:0.010633 27:0.059127 28:0.0162253 29:0.00403173 30:0.195928 31:0.0398136 32:0.109151 33:0.052317 34:0.446683 35:0.0803731 36:0.076353 37:0.0444116 38:0.0396572 39:0.111241 40:0.0541243 41:0.431506 42:0.0107607 43:0.330232 44:0.0762172 45:0.0051302 46:0.0709125 47:0.0100836 48:0.0110338 
2 1:0.217254 2:0.452336 3:0.33041 4:0.730843 5:0.0635255 6:0.380766 7:0.124775 8:0.110033 9:0.0264391 10:0.0249935 11:0.0298742 12:0.00639932 13:0.587791 14:0.0261686 15:0 16:0 17:0 18:0 19:0 20:0 21:0 22:0.16327 23:0.0858302 24:0.0344475 25:0.352963 26:0.0433517 27:0.059739 28:0.0537835 29:0.0406176 30:0.165997 31:0.00471401 32:0.00697779 33:0.00528094 34:0.252268 35:0.00550598 36:0.0127168 37:0.0230358 38:0.0109393 39:0.678562 40:0.00185599 41:0.0154265 42:0.00378464 43:0.904364 44:0.0110633 45:0.000216808 46:0.00591464 47:0.0375372 48:0.0198368 
2 1:0.205251 2:0.653483 3:0.141266 4:-0.948679 5:0.0351765 6:0.188772 7:0.0333903 8:0.101051 9:0.0610068 10:0.203682 11:0.0612489 12:0.0618826 13:0.104164 14:0.338397 15:0 16:0 17:0 18:0 19:0 20:0 21:0 22:0.0717543 23:0.400679 24:0.0937598 25:0.107364 26:0.0185432 27:0.146032 28:0.136282 29:0.0101184 30:0.0154681 31:0.0190333 32:0.162872 33:0.0221257 34:0.566097 35:0.0155365 36:0.0561235 37:0.0777673 38:0.0284556 39:0.0519883 40:0.0671826 41:0.431627 42:0.072287 43:0.072684 44:0.0484929 45:0.0712248 46:0.109911 47:0.11892 48:0.00767076 
1.677303061417318 1:0.12608 2:0.077024 3:0.796896 4:0.57843 5:0.0183187 6:0.0610453 7:0.013652 8:0.296045 9:0.0557103 10:0.219845 11:0.275497 12:0.0890805 13:0.0286107 14:0.00324079 15:0 16:0 17:0 18:1 19:0 20:0 21:0 22:0.0375259 23:0.4554 24:0.0193419 25:0.272673 26:0.0156806 27:0.017323 28:0.149261 29:0.0213343 30:0.0114604 31:0.0143463 32:0.0496581 33:0.0144077 34:0.793363 35:0.0234475 36:0.0236129 37:0.0278818 38:0.0195781 39:0.0337046 40:0.000219752 41:0.0373306 42:0.0017714 43:0.93311 44:0.00503146 45:0.00286355 46:0.0164426 47:0.000832627 48:0.00239798 
1.972455044901322 1:0.250018 2:0.0598634 3:0.690119 4:-0.96922 5:0.0343542 6:0.671677 7:0.164232 8:0.0205079 9:0.00495084 10:0.014258 11:0.00567528 12:0.0107255 13:0.636925 14:0.108371 15:0 16:0 17:0 18:0 19:0 20:0 21:1 22:0.026882 23:0.342531 24:0.0385948 25:0.480306 26:0.0211022 27:0.0366665 28:0.0272527 29:0.00183735 30:0.0248268 31:0.0287437 32:0.0906691 33:0.0542903 34:0.234172 35:0.207536 36:0.0492515 37:0.124549 38:0.156266 39:0.0545233 40:0.0253697 41:0.181857 42:0.00686721 43:0.682203 44:0.0402663 45:0.00174172 46:0.0586746 47:0.00182104 48:0.0011993 
2 1:0.71147 2:0.1314 3:0.15713 4:-0.967822 5:0.103405 6:0.598193 7:0.0774921 8:0.107256 9:0.0151476 10:0.0184432 11:0.074766 12:0.53572 13:0.0378921 14:0.0298778 15:0 16:0 17:0 18:0 19:0 20:0 21:1 22:0.834035 23:0.0486468 24:0.0121962 25:0.0139693 26:0.0260098 27:0.00556889 28:0.0220287 29:0.012541 30:0.0250046 31:0.11 32:0.11 33:0.11 34:0.11 35:0.11 36:0.11 37:0.11 38:0.11 39:0.11 40:0.0526342 41:0.156726 42:0.0105062 43:0.0533252 44:0.34387 45:0.00294366 46:0.241019 47:0.125973 48:0.013003 
0.2268331095027363 1:0.307509 2:0.0804287 3:0.612062 4:-0.95867 5:0.0117244 6:0.0833174 7:0.0123083 8:0.07474 9:0.0153502 10:0.038221 11:0.051355 12:0.0149012 13:0.745102 14:0.0362974 15:0 16:0 17:0 18:0 19:0 20:0 21:0 22:0.0190222 23:0.0325908 24:0.0254692 25:0.220457 26:0.45809 27:0.0328773 28:0.0467242 29:0.161009 30:0.00375975 31:0.0278773 32:0.482945 33:0.0541245 34:0.0814952 35:0.0343205 36:0.0825775 37:0.083593 38:0.0509364 39:0.102131 40:0.0108018 41:0.405819 42:0.0232512 43:0.181889 44:0.0466039 45:0.146797 46:0.0870883 47:0.0722454 48:0.0255046 
2 1:0.623998 2:0.121669 3:0.254333 4:-0.860244 5:0.391882 6:0.866746 7:0.177984 8:0.129901 9:0.0391495 10:0.0691664 11:0.0146028 12:0.0130167 13:0.0781662 14:0.0861322 15:0 16:0 17:0 18:0 19:0 20:0 21:0 22:0.179476 23:0.21685 24:0.0227166 25:0.0279077 26:0.173275 27:0.0189868 28:0.152534 29:0.19303 30:0.0152241 31:0.0334966 32:0.601616 33:0.0357515 34:0.059084 35:0.0986405 36:0.0367209 37:0.0902832 38:0.014277 39:0.0301301 40:0.134267 41:0.378669 42:0.241032 43:0.0212587 44:0.0229181 45:0.0204738 46:0.0353913 47:0.0219764 48:0.124014 
2 1:0.854639 2:0.0351443 3:0.110217 4:-0.955804 5:0.196884 6:0.217492 7:0.0619728 8:0.426858 9:0.0361804 10:0.0421041 11:0.0394296 12:0.0105207 13:0.136068 14:0.0499825 15:1 16:0 17:0 18:1 19:0 20:0 21:1 22:0.0122246 23:0.0828633 24:0.0212107 25:0.169877 26:0.667031 27:0.0170193 28:0.0215674 29:0.00390645 30:0.00429949 31:0.11 32:0.11 33:0.11 34:0.11 35:0.11 36:0.11 37:0.11 38:0.11 39:0.11 40:0.334375 41:0.443334 42:0.0334058 43:0.0461038 44:0.0236045 45:0.0231854 46:0.024844 47:0.0106351 48:0.0605124 
1.711465427240063 1:0.284079 2:0.435383 3:0.280538 4:-0.963902 5:0.00641202 6:0.187199 7:0.00973134 8:0.0314999 9:0.0555017 10:0.110816 11:0.112764 12:0.263517 13:0.232698 14:0.17706 15:0 16:0 17:0 18:0 19:0 20:0 21:1 22:0.035835 23:0.0354229 24:0.0123307 25:0.0701348 26:0.127343 27:0.0231564 28:0.088958 29:0.597633 30:0.00918626 31:0.11 32:0.11 33:0.11 34:0.11 35:0.11 36:0.11 37:0.11 38:0.11 39:0.11 40:0.00957501 41:0.550175 42:0.00900218 43:0.0196439 44:0.0284403 45:0.00675786 46:0.12612 47:0.239891 48:0.0103942 
0.007440617984288457 1:0.55623 2:0.0592684 3:0.384502 4:-0.956519 5:0.0722189 6:0.0936807 7:0.00504632 8:0.607431 9:0.0122066 10:0.0965839 11:0.0780379 12:0.0166797 13:0.108006 14:0.00378986 15:0 16:0 17:0 18:0 19:0 20:0 21:1 22:0.107585 23:0.133416 24:0.00941388 25:0.231951 26:0.407351 27:0.00531648 28:0.0576471 29:0.0422363 30:0.00508337 31:0.11 32:0.11 33:0.11 34:0.11 35:0.11 36:0.11 37:0.11 38:0.11 39:0.11 40:0.0590442 41:0.240418 42:0.55998 43:0.0251188 44:0.0487167 45:0.0210523 46:0.0173124 47:0.0261031 48:0.00225525 
2 1:0.258812 2:0.111803 3:0.629385 4:-0.717799 5:0.0937159 6:0.387093 7:0.0782409 8:0.191737 9:0.0441566 10:0.0385474 11:0.0300999 12:0.00603026 13:0.489877 14:0.0275951 15:0 16:0 17:0 18:0 19:0 20:0 21:0 22:0.304517 23:0.207947 24:0.0451523 25:0.193618 26:0.0221596 27:0.0897931 28:0.040448 29:0.0116284 30:0.0847364 31:0.0150733 32:0.0971075 33:0.0347887 34:0.699904 35:0.0100591 36:0.0242968 37:0.0456558 38:0.0171806 39:0.0559343 40:0.11 41:0.11 42:0.11 43:0.11 44:0.11 45:0.11 46:0.11 47:0.11 48:0.11 
2 1:0.274471 2:0.193278 3:0.532251 4:-0.528438 5:0.0355777 6:0.477892 7:0.0737202 8:0.0748643 9:0.0141601 10:0.0305098 11:0.0175618 12:0.00927346 13:0.698201 14:0.0461315 15:0 16:0 17:0 18:0 19:0 20:0 21:0 22:0.117409 23:0.103296 24:0.0490665 25:0.330299 26:0.0425896 27:0.0539591 28:0.107828 29:0.0758123 30:0.11974 31:0.0125596 32:0.641899 33:0.049841 34:0.0610909 35:0.012411 36:0.0632045 37:0.0274732 38:0.0178652 39:0.113655 40:0.00214527 41:0.0300003 42:0.000592902 43:0.921716 44:0.0167244 45:0.000259056 46:0.0195547 47:0.00266785 48:0.00634007 
2 1:0.743666 2:0.0345411 3:0.221793 4:-0.951243 5:0.0666144 6:0.442624 7:0.0089531 8:0.127971 9:0.157043 10:0.0768105 11:0.196129 12:0.0633326 13:0.182869 14:0.120278 15:0 16:0 17:0 18:0 19:0 20:0 21:0 22:0.216494 23:0.266696 24:0.0882324 25:0.0879348 26:0.0513445 27:0.216838 28:0.0425398 29:0.0178282 30:0.0120923 31:0.11 32:0.11 33:0.11 34:0.11 35:0.11 36:0.11 37:0.11 38:0.11 39:0.11 40:0.114661 41:0.422562 42:0.0116921 43:0.181196 44:0.137741 45:0.00588192 46:0.0784513 47:0.0456808 48:0.00213522 
0.6543608858590618 1:0.701383 2:0.173848 3:0.124769 4:-0.941254 5:0.106147 6:0.5 7:0.00958682 8:0.202725 9:0.466959 10:0.119528 11:0.0208073 12:0.0659551 13:0.0032816 14:0.00501062 15:0 16:0 17:0 18:0 19:0 20:0 21:1 22:0.112568 23:0.540403 24:0.0811182 25:0.0274 26:0.019439 27:0.0394926 28:0.107815 29:0.0459066 30:0.0258582 31:0.0147259 32:0.72769 33:0.0351597 34:0.0208576 35:0.0215892 36:0.0478334 37:0.107274 38:0.00324316 39:0.0216267 40:0.11 41:0.11 42:0.11 43:0.11 44:0.11 45:0.11 46:0.11 47:0.11 48:0.11 
2 1:0.757632 2:0.0397208 3:0.202648 4:-0.883211 5:0.0143755 6:0.140509 7:0.0103446 8:0.102661 9:0.0253475 10:0.203358 11:0.241753 12:0.0143247 13:0.125365 14:0.262471 15:0 16:0 17:0 18:0 19:0 20:0 21:0 22:0.0191896 23:0.0377002 24:0.0328107 25:0.0192572 26:0.00616217 27:0.86746 28:0.0080542 29:0.00140488 30:0.00796136 31:0.0102451 32:0.0730057 33:0.0911999 34:0.00545988 35:0.0058457 36:0.694733 37:0.0431237 38:0.00594583 39:0.0704409 40:3.10786e-09 41:7.36908e-09 42:9.36932e-09 43:3.14907e-09 44:4.15922e-09 45:0.999943 46:4.9292e-05 47:7.10506e-06 48:4.13536e-07 
2 1:0.604492 2:0.0370747 3:0.358433 4:-0.9412 5:0.0550858 6:0.581021 7:0.00752242 8:0.207785 9:0.0617312 10:0.16417 11:0.0398691 12:0.100826 13:0.334226 14:0.0287846 15:0 16:0 17:0 18:1 19:0 20:0 21:1 22:0.0440511 23:0.0645865 24:0.0137302 25:0.160791 26:0.483599 27:0.0113853 28:0.0738869 29:0.143288 30:0.00468308 31:0.00924472 32:0.0722766 33:0.00899811 34:0.0628406 35:0.0176926 36:0.0257818 37:0.0567776 38:0.0168259 39:0.729562 40:0.0122279 41:0.7643 42:0.0078355 43:0.081183 44:0.0329003 45:0.00387751 46:0.0177861 47:0.0502514 48:0.0296381 
2 1:0.827236 2:0.0567805 3:0.115984 4:0.693785 5:0.0094264 6:0.089094 7:0.00582611 8:0.0946734 9:0.0316678 10:0.249747 11:0.539274 12:0.0463109 13:0.00484159 14:0.0182328 15:0 16:0 17:0 18:0 19:0 20:0 21:0 22:0.0501378 23:0.107276 24:0.694113 25:0.0216018 26:0.00961232 27:0.032613 28:0.0585191 29:0.00782869 30:0.0182983 31:0.0161097 32:0.603297 33:0.169957 34:0.0283716 35:0.0129265 36:0.0791809 37:0.0423303 38:0.0184809 39:0.0293458 40:0.0210249 41:0.628509 42:0.0788109 43:0.0389197 44:0.0162033 45:0.0291195 46:0.13687 47:0.047352 48:0.00319129 
2 1:0.900074 2:0.0461245 3:0.0538011 4:0.967818 5:0.0570453 6:0.401327 7:0.178633 8:0.37568 9:0.0346882 10:0.0758127 11:0.209056 12:0.00902304 13:0.0422821 14:0.0177802 15:0 16:0 17:0 18:0 19:0 20:0 21:0 22:0.0629621 23:0.0597072 24:0.0922054 25:0.0173488 26:0.00976216 27:0.0310312 28:0.693747 29:0.0224526 30:0.0107839 31:0.0173946 32:0.137377 33:0.0661938 34:0.0103495 35:0.00784861 36:0.029154 37:0.681964 38:0.0143567 39:0.0353621 40:0.0850125 41:0.448551 42:0.20759 43:0.128698 44:0.0583162 45:0.00544053 46:0.0325395 47:0.0302563 48:0.00359616 
2 1:0.347613 2:0.117344 3:0.535043 4:0.944862 5:0.0263403 6:0.324622 7:0.0114771 8:0.0374893 9:0.00309463 10:0.184263 11:0.0268733 12:0.00307759 13:0.0999799 14:0.607405 15:0 16:0 17:0 18:0 19:0 20:0 21:0 22:0.0677157 23:0.220337 24:0.167088 25:0.169081 26:0.0322149 27:0.158783 28:0.0519698 29:0.122591 30:0.0102191 31:0.11 32:0.11 33:0.11 34:0.11 35:0.11 36:0.11 37:0.11 38:0.11 39:0.11 40:0.0213188 41:0.46724 42:0.0158845 43:0.00838402 44:0.0168332 45:0.00789432 46:0.372805 47:0.0871896 48:0.00245045 
0.884020807743361 1:0.499048 2:0.0633861 3:0.437566 4:-0.98245 5:0.0182985 6:0.0211031 7:0.0267537 8:0.7226 9:0.0151613 10:0.0438902 11:0.00955672 12:0.00662345 13:0.126167 14:0.0309491 15:0 16:0 17:0 18:0 19:0 20:0 21:0 22:0.115021 23:0.181244 24:0.0310575 25:0.0730115 26:0.038877 27:0.0376146 28:0.110858 29:0.403038 30:0.00927841 31:0.0334966 32:0.601616 33:0.0357515 34:0.059084 35:0.0986405 36:0.0367209 37:0.0902832 38:0.014277 39:0.0301301 40:0.00311561 41:0.012504 42:0.00715883 43:0.934361 44:0.00995636 45:0.0028028 46:0.0219531 47:0.00781519 48:0.000332927 
1.402416850128026 1:0.235696 2:0.0551897 3:0.709115 4:-0.509248 5:0.00942993 6:0.0552997 7:0.0947342 8:0.0927722 9:0.0198322 10:0.029649 11:0.542585 12:0.159519 13:0.0486478 14:0.00283151 15:0 16:0 17:0 18:0 19:0 20:0 21:0 22:0.0295646 23:0.063918 24:0.0182203 25:0.757159 26:0.034538 27:0.0270242 28:0.0458618 29:0.0190995 30:0.00461436 31:0.0172035 32:0.0636765 33:0.0161595 34:0.755299 35:0.0245245 36:0.0244609 37:0.0260471 38:0.0321995 39:0.0404291 40:0.0537196 41:0.241108 42:0.0118227 43:0.257969 44:0.116101 45:0.00617665 46:0.0428809 47:0.242149 48:0.0280736 
1.401939174149804 1:0.302195 2:0.107641 3:0.590164 4:-0.956509 5:0.00916517 6:0.172638 7:0.686073 8:0.0194531 9:0.0163623 10:0.0497697 11:0.0261046 12:0.00421721 13:0.162238 14:0.0266169 15:0 16:0 17:0 18:0 19:0 20:0 21:0 22:0.0280077 23:0.0504103 24:0.0437588 25:0.00414441 26:0.0028813 27:0.673879 28:0.155233 29:0.0339397 30:0.00774612 31:0.0218829 32:0.575667 33:0.0325924 34:0.0653045 35:0.0381533 36:0.0331043 37:0.0945335 38:0.104211 39:0.0345515 40:0.00948667 41:0.259924 42:0.0154691 43:0.408466 44:0.0449495 45:0.00407033 46:0.117061 47:0.130291 48:0.0102824 
2 1:0.310395 2:0.22729 3:0.462315 4:-0.878046 5:0.0222846 6:0.0532355 7:0.0100641 8:0.206149 9:0.0218509 10:0.116074 11:0.0870133 12:0.0552428 13:0.466376 14:0.0149452 15:0 16:0 17:0 18:0 19:0 20:0 21:0 22:0.0197629 23:0.561237 24:0.0240059 25:0.305471 26:0.0154241 27:0.0213479 28:0.0337116 29:0.0144873 30:0.0045524 31:0.018563 32:0.0674254 33:0.0215711 34:0.728848 35:0.0364977 36:0.0229936 37:0.029967 38:0.0293001 39:0.0448345 40:0.0295825 41:0.317835 42:0.0208494 43:0.106171 44:0.0877441 45:0.0129478 46:0.0683875 47:0.129294 48:0.227188 
2 1:0.648152 2:0.262745 3:0.0891033 4:0.593011 5:0.0088772 6:0.190007 7:0.0111936 8:0.0250329 9:0.0323458 10:0.0893705 11:0.0217183 12:0.00651038 13:0.776987 14:0.0279638 15:0 16:0 17:0 18:0 19:0 20:0 21:0 22:0.0119002 23:0.0909593 24:0.696788 25:0.111218 26:0.00750986 27:0.0474672 28:0.0256305 29:0.00433523 30:0.00419167 31:0.0054221 32:0.081707 33:0.129954 34:0.0305951 35:0.00843367 36:0.694796 37:0.0417131 38:0.00334579 39:0.00403265 40:0.0062761 41:0.452124 42:0.0876852 43:0.0119605 44:0.0127089 45:0.163208 46:0.136605 47:0.118097 48:0.0113354 
2 1:0.594789 2:0.238082 3:0.16713 4:-0.949131 5:0.0083581 6:0.222629 7:0.0102552 8:0.0212051 9:0.0223864 10:0.029258 11:0.0151791 12:0.0030773 13:0.823623 14:0.0666578 15:0 16:0 17:0 18:0 19:0 20:0 21:0 22:0.00573504 23:0.172254 24:0.522338 25:0.197524 26:0.00778367 27:0.0475108 28:0.0389303 29:0.00365175 30:0.00427259 31:0.0054221 32:0.081707 33:0.129954 34:0.0305951 35:0.00843367 36:0.694796 37:0.0417131 38:0.00334579 39:0.00403265 40:0.0128 41:0.170161 42:0.14917 43:0.288079 44:0.04046 45:0.0569955 46:0.140643 47:0.104441 48:0.0372514 
2 1:0.33045 2:0.0833806 3:0.586169 4:-0.744368 5:0.0947393 6:0.404588 7:0.110643 8:0.182492 9:0.0339879 10:0.029541 11:0.0379819 12:0.00664201 13:0.47838 14:0.0255934 15:0 16:0 17:0 18:0 19:0 20:0 21:0 22:0.10273 23:0.076422 24:0.0268556 25:0.247932 26:0.231541 27:0.0565277 28:0.07782 29:0.0467256 30:0.133446 31:0.11 32:0.11 33:0.11 34:0.11 35:0.11 36:0.11 37:0.11 38:0.11 39:0.11 40:0.0892038 41:0.114075 42:0.0187286 43:0.443696 44:0.0553582 45:0.00938471 46:0.0379538 47:0.0343086 48:0.197292 
1.52408518889224 1:0.369847 2:0.0641766 3:0.565977 4:-0.911934 5:0.0304559 6:0.155071 7:0.142071 8:0.150625 9:0.0139944 10:0.0221766 11:0.0205781 12:0.00513819 13:0.578817 14:0.0361438 15:0 16:0 17:0 18:0 19:0 20:0 21:0 22:0.461292 23:0.182335 24:0.0319453 25:0.0390387 26:0.0138114 27:0.0241438 28:0.0535433 29:0.169846 30:0.0240443 31:0.0151385 32:0.587872 33:0.0439453 34:0.0344463 35:0.0916072 36:0.0487804 37:0.0791575 38:0.050434 39:0.0486188 40:0.0193375 41:0.111394 42:0.00703175 43:0.666487 44:0.0472684 45:0.00654717 46:0.117542 47:0.0191888 48:0.00520314 
0.1553003890438111 1:0.179301 2:0.405014 3:0.415685 4:-0.965708 5:0.0962665 6:0.155964 7:0.0140004 8:0.402057 9:0.00809453 10:0.0436103 11:0.0349629 12:0.00925765 13:0.0450193 14:0.346732 15:0 16:0 17:0 18:0 19:0 20:0 21:0 22:0.0275821 23:0.0491836 24:0.00998884 25:0.120989 26:0.648156 27:0.00254278 28:0.0415515 29:0.0966153 30:0.00339075 31:0.11 32:0.11 33:0.11 34:0.11 35:0.11 36:0.11 37:0.11 38:0.11 39:0.11 40:0.00286004 41:0.0284697 42:0.00164296 43:0.00891471 44:0.809795 45:0.000597567 46:0.101354 47:0.0455922 48:0.000773576 
2 1:0.695505 2:0.0881492 3:0.216346 4:-0.96017 5:0.156072 6:0.231766 7:0.00389508 8:0.230338 9:0.0157215 10:0.0440354 11:0.00473242 12:0.0240638 13:0.432073 14:0.0890688 15:0 16:0 17:0 18:0 19:0 20:1 21:0 22:0.170958 23:0.144775 24:0.0176527 25:0.0401242 26:0.198537 27:0.0692504 28:0.163441 29:0.185403 30:0.00985896 31:0.106757 32:0.85089 33:0.00400106 34:0.00396839 35:0.0202338 36:0.00554327 37:0.00325157 38:0.00121716 39:0.0041376 40:0.0322761 41:0.369499 42:0.00200644 43:0.0470342 44:0.5186 45:0.00118855 46:0.0236355 47:0.00358438 48:0.00217587 
1.191364597511585 1:0.392323 2:0.09972 3:0.507957 4:-0.969773 5:0.17765 6:0.774156 7:0.56596 8:0.0443168 9:0.0233077 10:0.0507407 11:0.0260033 12:0.00949722 13:0.0929002 14:0.0096239 15:0 16:0 17:0 18:1 19:0 20:0 21:0 22:0.0871553 23:0.158794 24:0.181501 25:0.151813 26:0.0437925 27:0.0363646 28:0.0665423 29:0.261143 30:0.0128945 31:0.11 32:0.11 33:0.11 34:0.11 35:0.11 36:0.11 37:0.11 38:0.11 39:0.11 40:0.525572 41:0.146588 42:0.0246651 43:0.0454193 44:0.0553063 45:0.00232761 46:0.0103821 47:0.180163 48:0.00957655 
2 1:0.704532 2:0.20291 3:0.0925588 4:-0.91832 5:0.0185897 6:0.175638 7:0.293369 8:0.0694096 9:0.0434826 10:0.0356619 11:0.168224 12:0.324633 13:0.0384118 14:0.00821839 15:0 16:0 17:0 18:0 19:0 20:0 21:0 22:0.0152842 23:0.0357851 24:0.728762 25:0.0122752 26:0.00659391 27:0.151278 28:0.0427214 29:0.00319179 30:0.00410788 31:0.00123258 32:0.0132669 33:0.031135 34:0.00928898 35:0.919032 36:0.00270246 37:0.00847544 38:0.00339018 39:0.0114761 40:0.00294259 41:0.108568 42:0.0363112 43:0.0415227 44:0.00299615 45:0.03172 46:0.0158391 47:0.04215 48:0.71795 
1.690812050327498 1:0.497773 2:0.110424 3:0.391804 4:-0.966097 5:0.016854 6:0.0909368 7:0.0809361 8:0.140118 9:0.0325254 10:0.128108 11:0.0762712 12:0.0547287 13:0.406024 14:0.0644349 15:0 16:0 17:0 18:1 19:0 20:0 21:0 22:0.0339063 23:0.036485 24:0.0625216 25:0.00885708 26:0.00257149 27:0.355945 28:0.279659 29:0.0123162 30:0.207737 31:0.00330335 32:0.567909 33:0.377519 34:0.00445669 35:0.0234186 36:0.00679176 37:0.00617025 38:0.00600936 39:0.00442183 40:0.342818 41:0.168477 42:0.194605 43:0.0111642 44:0.0107901 45:0.134109 46:0.0228422 47:0.0921707 48:0.0230233 
0.2520998875824421 1:0.194754 2:0.251198 3:0.554048 4:-0.953879 5:0.000840798 6:0.28582 7:0.771771 8:0.00242325 9:0.00505129 10:0.00660035 11:0.00940221 12:0.117973 13:0.0727276 14:0.0132107 15:0 16:0 17:0 18:0 19:0 20:0 21:0 22:0.0350523 23:0.0818565 24:0.161038 25:0.0101954 26:0.00848939 27:0.360805 28:0.106659 29:0.0145779 30:0.221326 31:0.11 32:0.11 33:0.11 34:0.11 35:0.11 36:0.11 37:0.11 38:0.11 39:0.11 40:1.06624e-10 41:2.25688e-10 42:1.20765e-10 43:4.94944e-11 44:7.10461e-11 45:0.99999 46:2.11015e-07 47:2.44503e-06 48:7.26617e-06 
2 1:0.837758 2:0.0537657 3:0.108476 4:0.941104 5:0.0478924 6:0.28689 7:0.0228752 8:0.122606 9:0.0533059 10:0.234024 11:0.363314 12:0.0383624 13:0.111081 14:0.00653945 15:0 16:0 17:0 18:0 19:0 20:0 21:0 22:0.0416285 23:0.0213579 24:0.00683625 25:0.0106993 26:0.00921946 27:0.00876408 28:0.107868 29:0.776164 30:0.0174621 31:0.0135608 32:0.837375 33:0.0118762 34:0.0172881 35:0.062385 36:0.0103145 37:0.0259372 38:0.00534424 39:0.0159189 40:0.188685 41:0.362878 42:0.345415 43:0.011927 44:0.00334285 45:0.00951284 46:0.0688064 47:0.00556332 48:0.00386962 
2 1:0.879579 2:0.0315313 3:0.08889 4:-0.964623 5:0.00358651 6:0.019074 7:0.0314967 8:0.0695436 9:0.0284438 10:0.13178 11:0.450933 12:0.167938 13:0.0268566 14:0.0894217 15:0 16:0 17:0 18:0 19:0 20:0 21:0 22:0.178393 23:0.496299 24:0.197283 25:0.0146559 26:0.0119212 27:0.0531853 28:0.026359 29:0.00492179 30:0.0169815 31:0.0592816 32:0.815982 33:0.0639655 34:0.00652921 35:0.01288 36:0.0160844 37:0.00802939 38:0.00597187 39:0.0112757 40:0.00218838 41:0.0403718 42:0.00366654 43:0.00311593 44:0.00539188 45:0.000708269 46:0.849038 47:0.0190749 48:0.0764445 
0.469739618185593 1:0.657756 2:0.112304 3:0.22994 4:-0.960854 5:0.0125272 6:0.2777 7:0.693004 8:0.0758249 9:0.0249666 10:0.0501684 11:0.0271086 12:0.0532456 13:0.0505632 14:0.0125916 15:0 16:0 17:0 18:0 19:0 20:0 21:0 22:0.0293587 23:0.382359 24:0.359802 25:0.0181684 26:0.0111666 27:0.124524 28:0.0370642 29:0.00577248 30:0.0317851 31:0.00647807 32:0.824965 33:0.039294 34:0.0414359 35:0.0336529 36:0.0244322 37:0.00728671 38:0.00445337 39:0.0180018 40:0.00814498 41:0.965322 42:0.00130245 43:0.00390031 44:0.0073421 45:0.00835378 46:0.00393549 47:0.000580748 48:0.00111809 
2 1:0.339572 2:0.0770977 3:0.583331 4:-0.945766 5:0.00998888 6:0.13811 7:0.462474 8:0.108667 9:0.0170984 10:0.0805189 11:0.302894 12:0.0078259 13:0.0064037 14:0.0041291 15:0 16:0 17:0 18:0 19:0 20:0 21:0 22:0.212426 23:0.0594268 24:0.0283709 25:0.19375 26:0.00776732 27:0.0198616 28:0.0383754 29:0.00441226 30:0.43561 31:0.0177489 32:0.0377612 33:0.0227415 34:0.0735643 35:0.0141143 36:0.0528101 37:0.0603812 38:0.0373921 39:0.683486 40:0.00439494 41:0.0411511 42:0.0182225 43:0.777468 44:0.0119947 45:0.00510026 46:0.10561 47:0.00777292 48:0.0282862 
0.853936397286819 1:0.873449 2:0.0551358 3:0.0714155 4:-0.953194 5:0.00929808 6:0.0165147 7:0.00695028 8:0.382851 9:0.388031 10:0.142903 11:0.00454011 12:0.00155937 13:0.0518615 14:0.0120067 15:0 16:0 17:0 18:0 19:0 20:0 21:0 22:0.0728998 23:0.453815 24:0.0797151 25:0.0486977 26:0.0240079 27:0.0731851 28:0.200297 29:0.0250603 30:0.0223224 31:0.000950397 32:0.149076 33:0.790249 34:0.00703713 35:0.00479262 36:0.0456057 37:0.000209919 38:0.000859263 39:0.00122016 40:0.00157428 41:0.936091 42:0.0115075 43:0.00093667 44:0.000444928 45:0.0276317 46:0.00406786 47:0.0017541 48:0.0159924 
2 1:0.347498 2:0.162128 3:0.490374 4:-0.952902 5:0.0075072 6:0.0557008 7:0.364516 8:0.299544 9:0.0783992 10:0.132613 11:0.0815444 12:0.00721007 13:0.0250521 14:0.00361385 15:0 16:0 17:0 18:0 19:0 20:0 21:0 22:0.0752476 23:0.0483354 24:0.0284224 25:0.11957 26:0.00767504 27:0.0267475 28:0.0445854 29:0.00569407 30:0.643723 31:0.0177489 32:0.0377612 33:0.0227415 34:0.0735643 35:0.0141143 36:0.0528101 37:0.0603812 38:0.0373921 39:0.683486 40:0.0265186 41:0.144711 42:0.0206971 43:0.44627 44:0.158255 45:0.00387346 46:0.0364987 47:0.124457 48:0.0387186 
2 1:0.748394 2:0.0575451 3:0.194061 4:-0.893207 5:0.0418052 6:0.26344 7:0.00529813 8:0.21942 9:0.0466413 10:0.226266 11:0.0432698 12:0.0297437 13:0.330807 14:0.0567479 15:0 16:0 17:0 18:0 19:0 20:0 21:0 22:0.670509 23:0.0484324 24:0.0081462 25:0.0104458 26:0.0140674 27:0.00618228 28:0.0359762 29:0.161065 30:0.0451759 31:0.0394423 32:0.227227 33:0.106668 34:0.0376252 35:0.0547905 36:0.227576 37:0.0725576 38:0.0201509 39:0.213963 40:0.366572 41:0.370089 42:0.0208794 43:0.0256556 44:0.0167464 45:0.0192097 46:0.0729648 47:0.0219199 48:0.0859636 
2 1:0.350138 2:0.0430911 3:0.606771 4:0.849191 5:0.0872114 6:0.387698 7:0.0867498 8:0.197545 9:0.0369011 10:0.042177 11:0.0349214 12:0.00746138 13:0.484056 14:0.0229773 15:0 16:0 17:0 18:0 19:0 20:0 21:0 22:0.111261 23:0.467672 24:0.132667 25:0.0837618 26:0.025759 27:0.0895699 28:0.0329257 29:0.0204335 30:0.0359499 31:0.0316383 32:0.615682 33:0.0778604 34:0.0964907 35:0.0235735 36:0.0432544 37:0.0415977 38:0.0267982 39:0.0431045 40:0.11 41:0.11 42:0.11 43:0.11 44:0.11 45:0.11 46:0.11 47:0.11 48:0.11 
2 1:0.856445 2:0.0197899 3:0.123765 4:-0.954896 5:0.059286 6:0.272477 7:0.0727453 8:0.147869 9:0.104947 10:0.167502 11:0.0671046 12:0.00828396 13:0.356526 14:0.0157358 15:0 16:0 17:0 18:0 19:0 20:0 21:0 22:0.0633459 23:0.197673 24:0.236184 25:0.0369563 26:0.0164498 27:0.279111 28:0.122561 29:0.0185054 30:0.0292133 31:0.0298402 32:0.127765 33:0.0733984 34:0.0958785 35:0.0172838 36:0.0677229 37:0.438834 38:0.0517049 39:0.0975722 40:0.0105353 41:0.342166 42:0.164665 43:0.119454 44:0.0171829 45:0.0893788 46:0.0501547 47:0.0130947 48:0.193369 
-3.4 1:0.697737 2:0.0553868 3:0.246876 4:0.664423 5:0.0486232 6:0.24762 7:0.0516936 8:0.12532 9:0.0441108 10:0.0156962 11:0.0130321 12:0.0074022 13:0.674178 14:0.0199439 15:0 16:0 17:0 18:0 19:0 20:0 21:0 22:0.231752 23:0.212517 24:0.0920433 25:0.210676 26:0.0415155 27:0.0739493 28:0.0608365 29:0.0369224 30:0.0397878 31:0.11 32:0.11 33:0.11 34:0.11 35:0.11 36:0.11 37:0.11 38:0.11 39:0.11 40:0.0243055 41:0.301513 42:0.0151084 43:0.449609 44:0.0118653 45:0.00387468 46:0.170855 47:0.00855766 48:0.0143115 
-3.4 1:0.314921 2:0.114477 3:0.570602 4:-0.954776 5:0.0463301 6:0.126115 7:0.0653944 8:0.213809 9:0.0254022 10:0.0272153 11:0.0174773 12:0.00593075 13:0.5776 14:0.020841 15:0 16:0 17:0 18:1 19:0 20:0 21:0 22:0.0243054 23:0.0910071 24:0.11594 25:0.305939 26:0.0161524 27:0.223106 28:0.0326208 29:0.00539949 30:0.185529 31:0.11 32:0.11 33:0.11 34:0.11 35:0.11 36:0.11 37:0.11 38:0.11 39:0.11 40:0.0509288 41:0.428622 42:0.00800071 43:0.36856 44:0.0434799 45:0.0164416 46:0.0245275 47:0.00345445 48:0.055985 
-1.553517004164615 1:0.878735 2:0.0476811 3:0.0735839 4:0.5 5:0.0143525 6:0.322119 7:0.00793472 8:0.0205974 9:0.00192565 10:0.00724996 11:0.000983013 12:0.00708969 13:0.372796 14:0.567071 15:1 16:0 17:0 18:1 19:0 20:0 21:0 22:0.0746486 23:0.0671679 24:0.01279 25:0.0777397 26:0.127063 27:0.0286412 28:0.097638 29:0.502653 30:0.0116588 31:0.00842489 32:0.840521 33:0.015339 34:0.0218687 35:0.0547069 36:0.00994503 37:0.0250224 38:0.0194721 39:0.00469992 40:0.0106999 41:0.00549084 42:0.00189749 43:0.02031 44:0.920652 45:0.000230322 46:0.0204424 47:0.0184126 48:0.00186409 
-1.473984052179704 1:0.835444 2:0.0344799 3:0.130076 4:-0.57545 5:0.0945486 6:0.407219 7:0.110721 8:0.180945 9:0.0342442 10:0.031539 11:0.0379944 12:0.00655523 13:0.477966 14:0.025487 15:0 16:0 17:0 18:0 19:0 20:0 21:0 22:0.0418577 23:0.385812 24:0.308885 25:0.106259 26:0.0200919 27:0.06059 28:0.0455101 29:0.0142433 30:0.016752 31:0.0109843 32:0.00815408 33:0.00741503 34:0.00644555 35:0.846733 36:0.0408247 37:0.037413 38:0.0237238 39:0.0183068 40:0.00107401 41:0.00721838 42:0.002499 43:0.971431 44:0.00185586 45:0.000246601 46:0.0127478 47:0.00103846 48:0.00188863 
-0.2702702338172505 1:0.845655 2:0.0879999 3:0.066345 4:0.872248 5:0.00438369 6:0.0930897 7:0.0188224 8:0.0161448 9:0.237906 10:0.381079 11:0.0399765 12:0.272179 13:0.0216186 14:0.00788984 15:0 16:0 17:0 18:0 19:0 20:0 21:0 22:0.0249214 23:0.0888507 24:0.16413 25:0.0351379 26:0.0151329 27:0.0326461 28:0.585773 29:0.0461203 30:0.00728728 31:0.0317344 32:0.598689 33:0.0272606 34:0.0384206 35:0.0104419 36:0.0356096 37:0.106246 38:0.101888 39:0.0497098 40:0.0205202 41:0.0878729 42:0.0478958 43:0.737481 44:0.0174625 45:0.0107421 46:0.0299619 47:0.0116582 48:0.036405 
-3.4 1:0.580095 2:0.107398 3:0.312507 4:-0.925446 5:0.0097989 6:0.667882 7:0.0950898 8:0.00875914 9:0.00769201 10:0.0290914 11:0.0340829 12:0.0193767 13:0.311141 14:0.484968 15:0 16:0 17:0 18:0 19:0 20:0 21:0 22:0.00703042 23:0.0101399 24:0.0110984 25:0.0888674 26:0.78732 27:0.000515614 28:0.0120051 29:0.0819997 30:0.00102366 31:0.11 32:0.11 33:0.11 34:0.11 35:0.11 36:0.11 37:0.11 38:0.11 39:0.11 40:0.0201942 41:0.233124 42:0.0154314 43:0.129983 44:0.377856 45:0.00978279 46:0.0270011 47:0.148181 48:0.0384465 
-2.258643435862016 1:0.892135 2:0.0374417 3:0.0704229 4:0.661325 5:0.224456 6:0.870504 7:0.0569539 8:0.176651 9:0.0428593 10:0.0618833 11:0.109656 12:0.015818 13:0.276517 14:0.0352056 15:0 16:0 17:0 18:0 19:0 20:0 21:0 22:0.119294 23:0.125768 24:0.20455 25:0.224848 26:0.0298633 27:0.147421 28:0.0666683 29:0.0196785 30:0.0619084 31:0.0281155 32:0.0640055 33:0.0327663 34:0.609064 35:0.0146615 36:0.0488947 37:0.114448 38:0.0258461 39:0.0621985 40:0.0823001 41:0.726506 42:0.0211461 43:0.0596652 44:0.0130794 45:0.00319551 46:0.0698236 47:0.0104786 48:0.0138057 
-3.4 1:0.777386 2:0.0635384 3:0.159076 4:-0.895329 5:0.0093357 6:0.224694 7:0.4205 8:0.0421219 9:0.00184832 10:0.0116245 11:0.0115439 12:0.0110381 13:0.115363 14:0.376624 15:0 16:0 17:0 18:0 19:0 20:0 21:0 22:0.00850293 23:0.177751 24:0.0408518 25:0.60119 26:0.0972898 27:0.0102778 28:0.0425163 29:0.0168783 30:0.00474168 31:0.11 32:0.11 33:0.11 34:0.11 35:0.11 36:0.11 37:0.11 38:0.11 39:0.11 40:0.111111 41:0.153519 42:0.0131757 43:0.126073 44:0.482198 45:0.00228227 46:0.0748631 47:0.0292778 48:0.00750009 
-3.4 1:0.44229 2:0.402933 3:0.154777 4:-0.954032 5:0.0713636 6:0.352319 7:0.0497655 8:0.0498104 9:0.0037788 10:0.010487 11:0.00415797 12:0.00305006 13:0.74664 14:0.060947 15:0 16:0 17:0 18:0 19:0 20:0 21:1 22:0.0204895 23:0.075575 24:0.0093902 25:0.0749299 26:0.180341 27:0.0374818 28:0.257469 29:0.33287 30:0.0114533 31:0.0353963 32:0.103919 33:0.0415263 34:0.371171 35:0.238574 36:0.0671893 37:0.05026 38:0.0284167 39:0.0635473 40:0.000560298 41:0.0106382 42:0.0205711 43:0.649789 44:0.201321 45:0.00797712 46:0.0642874 47:0.0435644 48:0.00129051 
-3.329658824066612 1:0.779951 2:0.0377086 3:0.18234 4:0.722856 5:0.0680523 6:0.160335 7:0.0816216 8:0.171111 9:0.0502231 10:0.0966236 11:0.0286179 12:0.0333577 13:0.394872 14:0.0755209 15:0 16:0 17:0 18:0 19:0 20:0 21:0 22:0.232705 23:0.255554 24:0.0769039 25:0.301973 26:0.0304831 27:0.0337733 28:0.0229527 29:0.0364363 30:0.00921839 31:0.0291629 32:0.652482 33:0.0320303 34:0.0634517 35:0.0392764 36:0.0277341 37:0.116455 38:0.0196404 39:0.0197668 40:0.00332483 41:0.316931 42:0.0185895 43:0.621923 44:0.0210857 45:0.00057558 46:0.00495856 47:0.00846526 48:0.00414609 
-3.4 1:0.878449 2:0.0435844 3:0.077967 4:-0.647464 5:0.00399342 6:0.0451221 7:0.222658 8:0.0824517 9:0.00212049 10:0.0339369 11:0.377648 12:0.0184685 13:0.226489 14:0.0322333 15:0 16:0 17:0 18:0 19:0 20:0 21:0 22:0.016101 23:0.196337 24:0.266049 25:0.016796 26:0.00732241 27:0.142435 28:0.339444 29:0.00365758 30:0.0118591 31:0.0233862 32:0.46976 33:0.249909 34:0.0343341 35:0.0157254 36:0.0968909 37:0.0521611 38:0.0163697 39:0.0414632 40:0.0222383 41:0.781368 42:0.0363601 43:0.0784764 44:0.0119617 45:0.00424991 46:0.0328531 47:0.00416443 48:0.0283278 
-3.4 1:0.514398 2:0.0959584 3:0.389644 4:-0.718009 5:0.011339 6:0.0123187 7:0.0251721 8:0.0976781 9:0.0404362 10:0.0520293 11:0.619248 12:0.0654716 13:0.0852624 14:0.00336355 15:0 16:0 17:0 18:0 19:0 20:0 21:0 22:0.0272021 23:0.200526 24:0.15729 25:0.139973 26:0.0322774 27:0.196226 28:0.0940258 29:0.0151823 30:0.137297 31:0.0370839 32:0.614089 33:0.0805551 34:0.0851996 35:0.0280448 36:0.033804 37:0.0535189 38:0.0245203 39:0.0431838 40:0.0003015 41:0.00253772 42:0.000989138 43:0.958337 44:0.00550393 45:0.000293095 46:0.0223056 47:0.00491531 48:0.00481627 
-3.4 1:0.801333 2:0.102223 3:0.0964438 4:-0.658234 5:0.00815525 6:0.00523219 7:0.0431127 8:0.156681 9:0.0509241 10:0.13514 11:0.38801 12:0.0406679 13:0.173578 14:0.00373143 15:0 16:0 17:0 18:0 19:0 20:0 21:0 22:0.0314149 23:0.175077 24:0.122797 25:0.243068 26:0.0370786 27:0.112664 28:0.10814 29:0.0216426 30:0.148118 31:0.0370839 32:0.614089 33:0.0805551 34:0.0851996 35:0.0280448 36:0.033804 37:0.0535189 38:0.0245203 39:0.0431838 40:0.0133628 41:0.684762 42:0.108597 43:0.0105165 44:0.014498 45:0.0207911 46:0.140891 47:0.00373197 48:0.00284975 
-0.1420887135838878 1:0.8691 2:0.0306086 3:0.100291 4:0.908077 5:0.0959543 6:0.408128 7:0.110395 8:0.180883 9:0.0339442 10:0.0296244 11:0.0378585 12:0.00660255 13:0.479252 14:0.0254863 15:1 16:0 17:0 18:0 19:0 20:0 21:0 22:0.190261 23:0.197258 24:0.086623 25:0.157094 26:0.0367208 27:0.148476 28:0.0467566 29:0.04611 30:0.0907011 31:0.11 32:0.11 33:0.11 34:0.11 35:0.11 36:0.11 37:0.11 38:0.11 39:0.11 40:0.0715791 41:0.0730356 42:0.0792954 43:0.458701 44:0.0272491 45:0.0270083 46:0.0763989 47:0.0212457 48:0.165487 
-2.806202675977829 1:0.711535 2:0.0702918 3:0.218173 4:-0.681469 5:0.0642436 6:0.43262 7:0.0119373 8:0.0228291 9:0.000904177 10:0.0108478 11:0.00510276 12:0.00185952 13:0.646806 14:0.23547 15:0 16:0 17:0 18:0 19:0 20:0 21:0 22:0.0568488 23:0.0424046 24:0.0157706 25:0.0249774 26:0.0773908 27:0.0111148 28:0.0565028 29:0.708458 30:0.00653213 31:0.0200362 32:0.567275 33:0.0287791 34:0.056702 35:0.0374436 36:0.0379522 37:0.135455 38:0.0890898 39:0.0272677 40:0.00811577 41:0.056715 42:0.00448169 43:0.798783 44:0.0338933 45:0.00618654 46:0.0676034 47:0.0233089 48:0.000912356 
-0.195615193423356 1:0.89015 2:0.0396306 3:0.0702189 4:0.949113 5:0.0713844 6:0.0777329 7:0.0204671 8:0.500424 9:0.0124971 10:0.151268 11:0.0577565 12:0.0272215 13:0.0685762 14:0.0904047 15:0 16:0 17:0 18:0 19:0 20:1 21:0 22:0.00409447 23:0.00943656 24:0.03296 25:0.890037 26:0.0574754 27:0.000523887 28:0.00115894 29:0.00334714 30:0.000966749 31:0.409196 32:0.123927 33:0.111674 34:0.192169 35:0.0185753 36:0.0421316 37:0.0359138 38:0.0228109 39:0.0436019 40:0.0203972 41:0.050137 42:0.0122011 43:0.591012 44:0.060286 45:0.00879621 46:0.161054 47:0.0138022 48:0.0823139 
-0.9556988731869804 1:0.876618 2:0.0331472 3:0.0902352 4:0.93927 5:0.0213479 6:0.0832933 7:0.0147427 8:0.246743 9:0.0116557 10:0.040386 11:0.613941 12:0.0135502 13:0.0357194 14:0.0019144 15:0 16:0 17:1 18:0 19:0 20:0 21:1 22:0.220222 23:0.129143 24:0.0165633 25:0.398789 26:0.0318589 27:0.0214701 28:0.0279562 29:0.0164011 30:0.137597 31:0.018013 32:0.369621 33:0.249761 34:0.151453 35:0.0712588 36:0.109524 37:0.00828412 38:0.00866262 39:0.0134232 40:0.0609138 41:0.24063 42:0.14396 43:0.279025 44:0.117859 45:0.00689782 46:0.124342 47:0.0051758 48:0.0211961 
-3.4 1:0.203425 2:0.10406 3:0.692515 4:-0.956402 5:0.0021462 6:0.039258 7:0.353192 8:0.0153088 9:0.020427 10:0.0322992 11:0.0368799 12:0.0036252 13:0.368622 14:0.1675 15:0 16:0 17:0 18:0 19:0 20:0 21:0 22:0.0175378 23:0.0324099 24:0.017391 25:0.24928 26:0.277916 27:0.00651234 28:0.0317295 29:0.36025 30:0.00697356 31:0.0221293 32:0.0296046 33:0.0372318 34:0.725816 35:0.0198401 36:0.0168172 37:0.0140054 38:0.0188075 39:0.115748 40:0.00750646 41:0.0593513 42:0.0753171 43:0.475567 44:0.00608729 45:0.0139161 46:0.252056 47:0.0664258 48:0.043773 
-3.4 1:0.820775 2:0.0636441 3:0.115581 4:-0.68223 5:0.0113056 6:0.276451 7:0.178097 8:0.0364176 9:0.22188 10:0.166303 11:0.0544146 12:0.125621 13:0.0318878 14:0.174073 15:0 16:0 17:0 18:0 19:0 20:0 21:0 22:0.00087349 23:0.00974779 24:0.0577567 25:0.0140641 26:0.0040834 27:0.889063 28:0.00172185 29:0.0101176 30:0.0125725 31:0.0105167 32:0.0344552 33:0.0844107 34:0.0208482 35:0.00741912 36:0.79902 37:0.0137154 38:0.0105604 39:0.0190539 40:0.00384171 41:0.143834 42:0.0322206 43:0.0101273 44:0.00328754 45:0.762353 46:0.0381356 47:0.00225576 48:0.00394455 
-1.098977919930366 1:0.872988 2:0.0427056 3:0.0843061 4:-0.75846 5:0.456243 6:0.590138 7:0.023069 8:0.312453 9:0.0151392 10:0.0389881 11:0.0103349 12:0.0332737 13:0.102372 14:0.00812748 15:0 16:0 17:0 18:1 19:0 20:0 21:1 22:0.0353654 23:0.0309088 24:0.00853847 25:0.39794 26:0.229395 27:0.0112054 28:0.0428318 29:0.239604 30:0.00421006 31:0.032944 32:0.0740745 33:0.0449804 34:0.573679 35:0.0218603 36:0.0455781 37:0.0840971 38:0.0380407 39:0.0847463 40:0.0340662 41:0.181712 42:0.0359825 43:0.107683 44:0.246967 45:0.0170344 46:0.170985 47:0.190328 48:0.0152421 
-0.1746407384010964 1:0.806555 2:0.08578 3:0.107664 4:0.85156 5:0.0262573 6:0.363794 7:0.0283924 8:0.0640288 9:0.18428 10:0.234566 11:0.0301265 12:0.390287 13:0.0104627 14:0.0316 15:0 16:0 17:0 18:0 19:0 20:0 21:0 22:0.0929057 23:0.0795529 24:0.180682 25:0.0201625 26:0.0140752 27:0.533046 28:0.0539482 29:0.0159257 30:0.00970217 31:0.0242144 32:0.0180417 33:0.0109815 34:0.0581076 35:0.809378 36:0.0119328 37:0.0147378 38:0.0116429 39:0.0409632 40:0.0264151 41:0.0566425 42:0.0181998 43:0.363698 44:0.247613 45:0.00746567 46:0.0452661 47:0.123922 48:0.110778 
-0.5054756095559612 1:0.670348 2:0.182965 3:0.146687 4:-0.801951 5:0.0138979 6:0.598124 7:0.0339893 8:0.0336303 9:0.0047563 10:0.134546 11:0.475433 12:0.0308632 13:0.0545169 14:0.218367 15:0 16:0 17:0 18:0 19:0 20:0 21:0 22:0.047398 23:0.0555166 24:0.0120305 25:0.360023 26:0.482235 27:0.00181116 28:0.00825823 29:0.02588 30:0.00684721 31:0.0313504 32:0.153355 33:0.0428547 34:0.553424 35:0.0186475 36:0.0382312 37:0.0627241 38:0.0337979 39:0.0656154 40:0.0207749 41:0.0886737 42:0.0308434 43:0.671166 44:0.0251576 45:0.00917632 46:0.13265 47:0.0164162 48:0.00514176 
-1.59481956015189 1:0.83199 2:0.0402434 3:0.127767 4:0.945359 5:0.0139219 6:0.25097 7:0.0898799 8:0.037418 9:0.0407477 10:0.140384 11:0.116538 12:0.474469 13:0.0390223 14:0.0476187 15:0 16:0 17:0 18:0 19:0 20:0 21:0 22:0.0428381 23:0.0240372 24:0.0141444 25:0.00698333 26:0.0175957 27:0.0297731 28:0.749062 29:0.10192 30:0.0136458 31:0.027869 32:0.0206917 33:0.0119695 34:0.0515483 35:0.817316 36:0.00738281 37:0.0147259 38:0.0106363 39:0.0378606 40:0.0323547 41:0.123908 42:0.0606586 43:0.223513 44:0.156045 45:0.0260174 46:0.0711129 47:0.0214646 48:0.284926 
-3.4 1:0.795409 2:0.0896866 3:0.114904 4:0.934893 5:0.00220136 6:0.0261719 7:0.0566897 8:0.0497746 9:0.00399399 10:0.106558 11:0.193068 12:0.267459 13:0.0805357 14:0.239719 15:0 16:0 17:0 18:0 19:0 20:0 21:0 22:0.156835 23:0.307963 24:0.011732 25:0.08232 26:0.160243 27:0.0179243 28:0.124807 29:0.126935 30:0.0112409 31:0.0378573 32:0.642603 33:0.0773306 34:0.0402337 35:0.0331292 36:0.0433443 37:0.04441 38:0.0265445 39:0.0545473 40:0.00647438 41:0.0757481 42:0.677038 43:0.073022 44:0.0114948 45:0.0162558 46:0.0882241 47:0.0465602 48:0.00518229 
-0.6814595753069571 1:0.896631 2:0.0564918 3:0.0468776 4:-0.612947 5:0.0221342 6:0.175736 7:0.00589461 8:0.124384 9:0.483325 10:0.211385 11:0.0293788 12:0.00847605 13:0.0716124 14:0.04341 15:0 16:0 17:0 18:0 19:0 20:0 21:1 22:0.0450268 23:0.0783983 24:0.0388491 25:0.159698 26:0.214423 27:0.0176421 28:0.130559 29:0.302134 30:0.0132692 31:0.11 32:0.11 33:0.11 34:0.11 35:0.11 36:0.11 37:0.11 38:0.11 39:0.11 40:0.0714733 41:0.288619 42:0.0141038 43:0.558888 44:0.0382729 45:0.000719823 46:0.00671909 47:0.0129842 48:0.00821953 
-2.818829883813415 1:0.844212 2:0.0479368 3:0.107851 4:0.616851 5:0.044153 6:0.406833 7:0.390823 8:0.0406492 9:0.00587282 10:0.103026 11:0.0560131 12:0.260168 13:0.0373903 14:0.0619041 15:0 16:0 17:0 18:0 19:0 20:0 21:1 22:0.0174719 23:0.181496 24:0.203861 25:0.19972 26:0.165813 27:0.018589 28:0.0828227 29:0.11941 30:0.0108165 31:0.0196611 32:0.727002 33:0.163644 34:0.0237423 35:0.0230503 36:0.0095349 37:0.00699704 38:0.00915095 39:0.0172175 40:0.0339778 41:0.462977 42:0.117914 43:0.0257428 44:0.0111879 45:0.106527 46:0.159251 47:0.0326057 48:0.0498166 
-3.4 1:0.499302 2:0.324464 3:0.176233 4:-0.956557 5:0.0235071 6:0.036057 7:0.0189058 8:0.0654345 9:0.0362986 10:0.0266715 11:0.0234472 12:0.00295384 13:0.783313 14:0.0194681 15:0 16:0 17:0 18:0 19:0 20:0 21:0 22:0.0219199 23:0.100367 24:0.0661171 25:0.592018 26:0.0154259 27:0.0573237 28:0.0230201 29:0.00445886 30:0.119349 31:0.00255267 32:0.0107485 33:0.00339238 34:0.912721 35:0.00741494 36:0.0134114 37:0.0270748 38:0.00326167 39:0.0194223 40:0.0476386 41:0.49156 42:0.00946713 43:0.4036 44:0.012322 45:0.00889484 46:0.021873 47:0.00185355 48:0.00279161 
-3.4 1:0.829105 2:0.0262131 3:0.144682 4:0.658915 5:0.0240088 6:0.130255 7:0.0898436 8:0.0482511 9:0.0381764 10:0.0835597 11:0.147498 12:0.424519 13:0.100477 14:0.0436668 15:0 16:0 17:0 18:0 19:0 20:0 21:1 22:0.0421523 23:0.259129 24:0.11538 25:0.144633 26:0.153129 27:0.00768882 28:0.0853242 29:0.181455 30:0.0111093 31:0.0198218 32:0.61691 33:0.283075 34:0.0219248 35:0.0197218 36:0.0108123 37:0.0117825 38:0.00873854 39:0.00721296 40:0.00325531 41:0.458776 42:0.0856737 43:0.17156 44:0.0735109 45:0.0207521 46:0.08779 47:0.0921841 48:0.0064982 
-3.4 1:0.596336 2:0.0929352 3:0.310729 4:-0.967781 5:0.203985 6:0.518216 7:0.0399083 8:0.201784 9:0.0421464 10:0.0426647 11:0.0186901 12:0.00636244 13:0.279364 14:0.165095 15:0 16:0 17:0 18:1 19:0 20:0 21:0 22:0.0105772 23:0.0985793 24:0.0170262 25:0.788875 26:0.0119323 27:0.011489 28:0.0087636 29:0.000921936 30:0.0518358 31:0.11 32:0.11 33:0.11 34:0.11 35:0.11 36:0.11 37:0.11 38:0.11 39:0.11 40:0.00419486 41:0.0831664 42:0.00773997 43:0.808993 44:0.00157905 45:0.0107566 46:0.0676036 47:0.00994236 48:0.00602412 
-2.8722295364825 1:0.894256 2:0.0220578 3:0.0836862 4:-0.664898 5:0.0241252 6:0.0322333 7:0.00252657 8:0.744088 9:0.0125851 10:0.0461473 11:0.105705 12:0.0287055 13:0.0345709 14:0.00154594 15:0 16:0 17:0 18:0 19:0 20:0 21:1 22:0.00529739 23:0.0504314 24:0.0135648 25:0.497759 26:0.40894 27:0.00370393 28:0.00699101 29:0.0111157 30:0.00219662 31:0.0161278 32:0.0438949 33:0.00968325 34:0.0810534 35:0.725742 36:0.0569716 37:0.0417217 38:0.00620885 39:0.0185967 40:0.0120289 41:0.159733 42:0.0260894 43:0.59212 44:0.0961267 45:0.0578572 46:0.029601 47:0.0123402 48:0.0141033 
-0.2552462469936285 1:0.949286 2:0.0275749 3:0.0231396 4:-0.850239 5:0.00217903 6:0.0456167 7:0.015668 8:0.0158303 9:0.0271329 10:0.137355 11:0.245444 12:0.507734 13:0.017484 14:0.0311734 15:0 16:0 17:0 18:0 19:0 20:0 21:0 22:0.0906554 23:0.149299 24:0.0548526 25:0.087218 26:0.160442 27:0.0773268 28:0.307556 29:0.0506347 30:0.0220152 31:0.0179941 32:0.0273411 33:0.0197416 34:0.738592 35:0.0675475 36:0.043766 37:0.0207056 38:0.02451 39:0.0398025 40:0.0451746 41:0.233373 42:0.15717 43:0.135612 44:0.0634021 45:0.239405 46:0.0955845 47:0.0240928 48:0.00618591 
-3.4 1:0.386345 2:0.400176 3:0.213479 4:-0.963716 5:0.0176956 6:0.404843 7:0.160855 8:0.02376 9:0.00548465 10:0.0231881 11:0.0123316 12:0.0022583 13:0.742114 14:0.0123131 15:0 16:0 17:0 18:0 19:0 20:0 21:0 22:0.0291158 23:0.048968 24:0.0261122 25:0.455524 26:0.00582536 27:0.0339453 28:0.022546 29:0.00561352 30:0.372349 31:0.00109057 32:0.0131833 33:0.00273191 34:0.0392661 35:0.00167888 36:0.00119524 37:0.0105341 38:0.00271892 39:0.927601 40:0.0156256 41:0.240083 42:0.058263 43:0.0852583 44:0.0167991 45:0.0377889 46:0.173607 47:0.17246 48:0.200116 
-3.4 1:0.71194 2:0.129997 3:0.158062 4:-0.957276 5:0.219954 6:0.772731 7:0.0765303 8:0.116561 9:0.0264285 10:0.0258807 11:0.0278856 12:0.00502661 13:0.476945 14:0.0247885 15:0 16:0 17:0 18:0 19:0 20:0 21:0 22:0.0371857 23:0.049806 24:0.269864 25:0.0175118 26:0.0146683 27:0.364272 28:0.0339272 29:0.184599 30:0.0281659 31:0.11 32:0.11 33:0.11 34:0.11 35:0.11 36:0.11 37:0.11 38:0.11 39:0.11 40:0.0700086 41:0.239532 42:0.0350024 43:0.00670364 44:0.0027996 45:0.0244103 46:0.558574 47:0.0179497 48:0.0450195 
-3.167419348622933 1:0.841713 2:0.0649682 3:0.0933184 4:-0.926316 5:0.00785203 6:0.196092 7:0.271817 8:0.195996 9:0.16388 10:0.254986 11:0.0191514 12:0.0217491 13:0.0563699 14:0.00819842 15:0 16:0 17:0 18:0 19:0 20:0 21:0 22:0.0479458 23:0.237422 24:0.0833738 25:0.229994 26:0.0153807 27:0.0372233 28:0.0809248 29:0.0362075 30:0.231528 31:0.000595614 32:0.0063859 33:0.00179715 34:0.0321111 35:0.000866757 36:0.00135757 37:0.0040938 38:0.000953844 39:0.951838 40:0.0206134 41:0.0322537 42:0.0206269 43:0.694926 44:0.0143361 45:0.0210961 46:0.0987043 47:0.0637394 48:0.0337038 
-3.4 1:0.304499 2:0.532356 3:0.163145 4:-0.962742 5:0.00623794 6:0.840421 7:0.279511 8:0.00208868 9:0.00023164 10:0.00395396 11:0.00190557 12:0.00065117 13:0.696261 14:0.0091592 15:0 16:0 17:0 18:0 19:0 20:0 21:0 22:0.151424 23:0.0535005 24:0.0319758 25:0.211021 26:0.125461 27:0.0569937 28:0.112027 29:0.0762033 30:0.181394 31:0.00176577 32:0.00506659 33:0.00294714 34:0.77036 35:0.0142483 36:0.0022821 37:0.00506339 38:0.0227456 39:0.175521 40:0.11 41:0.11 42:0.11 43:0.11 44:0.11 45:0.11 46:0.11 47:0.11 48:0.11 
-3.4 1:0.662585 2:0.0762193 3:0.261195 4:-0.958257 5:0.138474 6:0.783936 7:0.0792901 8:0.133512 9:0.0212944 10:0.03238 11:0.0284528 12:0.0100484 13:0.432296 14:0.124253 15:0 16:0 17:0 18:0 19:0 20:0 21:0 22:0.714659 23:0.140973 24:0.0137726 25:0.0531036 26:0.009951 27:0.00984778 28:0.00962637 29:0.00922454 30:0.0388421 31:0.11 32:0.11 33:0.11 34:0.11 35:0.11 36:0.11 37:0.11 38:0.11 39:0.11 40:0.0337737 41:0.320887 42:0.423581 43:0.0422149 44:0.0148466 45:0.041882 46:0.0661956 47:0.014714 48:0.0419048 
-3.4 1:0.548395 2:0.273353 3:0.178252 4:-0.594423 5:0.0639635 6:0.51881 7:0.105856 8:0.0856065 9:0.0195343 10:0.0386863 11:0.0309546 12:0.0046493 13:0.589555 14:0.0611948 15:0 16:0 17:0 18:0 19:0 20:0 21:0 22:0.0205272 23:0.231651 24:0.0735933 25:0.487796 26:0.00967426 27:0.0608469 28:0.0102935 29:0.00270895 30:0.102909 31:0.00773658 32:0.0321135 33:0.0144705 34:0.794773 35:0.0192246 36:0.017075 37:0.0211277 38:0.0103503 39:0.0831291 40:0.044664 41:0.242503 42:0.00317737 43:0.0210089 44:0.0340094 45:0.00417185 46:0.0159365 47:0.0278113 48:0.606718 
-0.7057999827460981 1:0.835164 2:0.0744395 3:0.0903967 4:-0.666585 5:0.0435049 6:0.923119 7:0.0703843 8:0.0508411 9:0.540027 10:0.0877506 11:0.00930792 12:0.00486915 13:0.163294 14:0.0300209 15:0 16:0 17:0 18:0 19:0 20:0 21:0 22:0.0154395 23:0.0440185 24:0.0313844 25:0.404192 26:0.00689631 27:0.0462018 28:0.0279479 29:0.00617891 30:0.417741 31:0.0177646 32:0.281199 33:0.0684986 34:0.159854 35:0.0316308 36:0.122438 37:0.0518314 38:0.191921 39:0.074863 40:0.0043777 41:0.202036 42:0.0220204 43:0.676478 44:0.00415763 45:0.0226189 46:0.0478929 47:0.00288512 48:0.0175333 
-0.1450800663133393 1:0.891254 2:0.0277677 3:0.0809779 4:0.9684 5:0.0417269 6:0.769599 7:0.125964 8:0.0283048 9:0.0068635 10:0.0444104 11:0.0878898 12:0.0314984 13:0.0859116 14:0.547431 15:0 16:0 17:0 18:0 19:0 20:0 21:0 22:0.0316797 23:0.0485203 24:0.0407743 25:0.008753 26:0.00314002 27:0.47382 28:0.253928 29:0.0622984 30:0.0770865 31:0.00134139 32:0.00955729 33:0.00254993 34:0.00895629 35:0.00484168 36:0.00285876 37:0.00758118 38:0.00279233 39:0.959521 40:0.0691323 41:0.28974 42:0.0160364 43:0.155053 44:0.0831453 45:0.0257684 46:0.2181 47:0.111863 48:0.0311616 
-3.4 1:0.449355 2:0.361945 3:0.1887 4:-0.967365 5:0.000812566 6:0.131924 7:0.73374 8:0.00729061 9:0.00237849 10:0.0138361 11:0.00827427 12:0.0195221 13:0.207706 14:0.00643966 15:0 16:0 17:0 18:0 19:0 20:0 21:0 22:0.0851874 23:0.103936 24:0.0714478 25:0.191281 26:0.0387701 27:0.187231 28:0.0504582 29:0.0390049 30:0.232683 31:0.0196207 32:0.65646 33:0.046956 34:0.124495 35:0.015146 36:0.0376183 37:0.0503442 38:0.0106523 39:0.0387071 40:0.0154058 41:0.0875561 42:0.0259218 43:0.27285 44:0.0108073 45:0.140796 46:0.0919674 47:0.100628 48:0.254067 
-3.4 1:0.864753 2:0.0500179 3:0.0852287 4:-0.624562 5:0.0143447 6:0.0527892 7:0.0430141 8:0.149648 9:0.0821512 10:0.496081 11:0.0550732 12:0.00995347 13:0.13366 14:0.0160736 15:0 16:0 17:0 18:0 19:0 20:0 21:0 22:0.353021 23:0.0873533 24:0.0457847 25:0.0813762 26:0.0129909 27:0.0245939 28:0.181516 29:0.0119615 30:0.201402 31:0.0210407 32:0.0636007 33:0.0439118 34:0.0580098 35:0.0291482 36:0.0384157 37:0.0779873 38:0.0466272 39:0.621259 40:0.0499281 41:0.229192 42:0.0407597 43:0.3818 44:0.076556 45:0.0127155 46:0.0514321 47:0.124253 48:0.0333632 
-1.062022943611305 1:0.814891 2:0.111616 3:0.0734923 4:0.879044 5:0.0918325 6:0.161935 7:0.0436756 8:0.189896 9:0.255709 10:0.0503047 11:0.0235252 12:0.022125 13:0.269777 14:0.0531549 15:0 16:0 17:0 18:0 19:0 20:0 21:0 22:0.163732 23:0.0268244 24:0.00838079 25:0.0210798 26:0.00639021 27:0.0108658 28:0.082399 29:0.041343 30:0.638985 31:0.0090525 32:0.0740567 33:0.0259552 34:0.306514 35:0.0277314 36:0.0253157 37:0.484755 38:0.0133788 39:0.0332403 40:0.621974 41:0.0431667 42:0.0163779 43:0.0820174 44:0.0333912 45:0.00695384 46:0.0651849 47:0.0641582 48:0.0667763 
-1.159992752207932 1:0.91759 2:0.0350818 3:0.0473287 4:0.531244 5:0.0149865 6:0.302675 7:0.0163025 8:0.0485479 9:0.269835 10:0.356814 11:0.189772 12:0.0315523 13:0.0595836 14:0.0126057 15:0 16:0 17:0 18:0 19:0 20:0 21:0 22:0.19391 23:0.0638245 24:0.0485939 25:0.0738641 26:0.0153526 27:0.0887211 28:0.0854939 29:0.0148619 30:0.415378 31:0.0520121 32:0.479981 33:0.0319631 34:0.0345402 35:0.0135369 36:0.0445172 37:0.0412361 38:0.248698 39:0.0535146 40:0.0927651 41:0.31328 42:0.0378188 43:0.0916176 44:0.0952465 45:0.0291985 46:0.147062 47:0.0329807 48:0.160031 
-0.09592234302076565 1:0.907472 2:0.0379494 3:0.0545784 4:0.939466 5:0.0528792 6:0.182331 7:0.00418098 8:0.0745513 9:0.013581 10:0.00567705 11:0.0118238 12:0.00301181 13:0.795891 14:0.0384035 15:0 16:0 17:0 18:0 19:0 20:0 21:0 22:0.0199092 23:0.0385536 24:0.262767 25:0.0206346 26:0.0133158 27:0.587224 28:0.0323318 29:0.00615651 30:0.0191073 31:0.11 32:0.11 33:0.11 34:0.11 35:0.11 36:0.11 37:0.11 38:0.11 39:0.11 40:0.00318493 41:0.0284344 42:0.847422 43:0.00469199 44:0.0164187 45:0.0106873 46:0.0570585 47:0.0268594 48:0.00524327 
-3.4 1:0.463587 2:0.05123 3:0.485183 4:-0.519782 5:0.000343981 6:0.024922 7:0.28895 8:0.00917453 9:0.000198435 10:0.0028346 11:0.00336788 12:0.00228401 13:0.379123 14:0.313723 15:0 16:0 17:0 18:0 19:0 20:0 21:0 22:0.0940495 23:0.0945341 24:0.107128 25:0.408394 26:0.168516 27:0.0212991 28:0.0431867 29:0.0511039 30:0.011789 31:0.0138457 32:0.0244831 33:0.0191691 34:0.739854 35:0.0160986 36:0.0297757 37:0.0104392 38:0.0223381 39:0.123996 40:0.034778 41:0.338806 42:0.0645604 43:0.168529 44:0.0290664 45:0.0193877 46:0.0352116 47:0.252873 48:0.0567876 
