svm_type c_svc
kernel_type rbf
gamma 0.1
nr_class 2
total_sv 27
rho -0.143234
label 0 1
probA -5.19341
probB 0.18261
nr_sv 13 14
SV
2.728206956387619 1:0.753648 2:0.0966544 3:0.0235129 4:0.126185 5:0.919405 6:0.0114096 7:0.30208 8:-0.931139 9:0.0265304 10:0.0229045 11:0.0618161 12:0.0108361 13:0.562065 14:0.0295931 15:0.0191893 16:0.221905 17:0.0337508 18:0 19:0 20:0 21:0 22:0 23:0 24:1 25:0.403662 26:0.129257 27:0.0896568 28:0.173938 29:0.0161307 30:0.127539 31:0.0398417 32:0.00776202 33:0.00738347 34:0.00483014 35:0.00659514 36:0.00800451 37:0.00835066 38:0.0106552 39:0.349288 40:0.0480097 41:0.0526228 42:0.491769 43:0.0200733 44:0.00463127 45:5.1174e-08 46:3.23397e-07 47:1.18127e-07 48:1.0439e-07 49:2.4189e-07 50:0.999741 51:0.000146068 52:9.80104e-06 53:0.000102128 54:5.75878e-08 
1.583107992397166 1:0.0101923 2:0.0144963 3:0.00600155 4:0.96931 5:-0.968428 6:0.00319672 7:0.152719 8:-0.910254 9:0.00650046 10:0.0118485 11:0.0263809 12:0.000969715 13:0.238804 14:0.0695124 15:0.57405 16:0.0290474 17:0.0396899 18:0 19:0 20:0 21:0 22:0 23:0 24:0 25:0.209703 26:0.192233 27:0.07676 28:0.0922918 29:0.0803171 30:0.0390776 31:0.02296 32:0.248776 33:0.0244104 34:0.013471 35:0.0195677 36:0.036074 37:0.0228569 38:0.00384929 39:0.00712111 40:0.886083 41:0.00802964 42:0.00268381 43:0.00427718 44:0.0094577 45:0.1 46:0.1 47:0.1 48:0.1 49:0.1 50:0.1 51:0.1 52:0.1 53:0.1 54:0.1 
7.330048237445377 1:0.963113 2:0.0161132 3:0.000412296 4:0.0203616 5:0.574612 6:0.0032313 7:0.0311299 8:0.875152 9:0.0130233 10:0.0690724 11:0.0754682 12:0.00604533 13:0.167388 14:0.379394 15:0.131295 16:0.0201674 17:0.134914 18:0 19:0 20:1 21:0 22:0 23:0 24:0 25:0.0387378 26:0.0536756 27:0.132093 28:0.0415364 29:0.060282 30:0.456408 31:0.111925 32:0.0944189 33:0.00609616 34:0.00482739 35:0.013572 36:0.311635 37:0.302866 38:0.0286031 39:0.0508821 40:0.154133 41:0.0167499 42:0.00871576 43:0.0273685 44:0.0854739 45:0.0117139 46:0.108516 47:0.0585786 48:0.0753044 49:0.0250956 50:0.407983 51:0.0486086 52:0.255774 53:0.00462331 54:0.0038029 
4.403126071611235 1:0.325713 2:0.604143 3:0.0199407 4:0.0502033 5:-0.976096 6:0.00980642 7:0.125005 8:0.915595 9:0.0378673 10:0.0244308 11:0.216069 12:0.0102432 13:0.308192 14:0.0510116 15:0.159316 16:0.110233 17:0.0728303 18:0 19:0 20:0 21:0 22:0 23:0 24:0 25:0.00583513 26:0.0209315 27:0.290054 28:0.00416062 29:0.000430912 30:0.648188 31:0.0240939 32:0.00416057 33:0.00176432 34:0.000381895 35:0.00659514 36:0.00800451 37:0.00835066 38:0.0106552 39:0.349288 40:0.0480097 41:0.0526228 42:0.491769 43:0.0200733 44:0.00463127 45:0.0272423 46:0.56181 47:0.0580027 48:0.168591 49:0.0503108 50:0.0100619 51:0.0508451 52:0.0685346 53:0.00262018 54:0.00198078 
1.518860845624415 1:0.000511194 2:0.00799084 3:0.00145664 4:0.990041 5:-0.958179 6:0.190671 7:0.710027 8:-0.875095 9:0.0183275 10:0.201569 11:0.0501766 12:0.0096661 13:0.164841 14:0.0384021 15:0.0185885 16:0.296933 17:0.0108259 18:0 19:0 20:0 21:0 22:0 23:0 24:0 25:0.069065 26:0.404647 27:0.06083 28:0.0099569 29:0.00956602 30:0.348741 31:0.0113932 32:0.0487951 33:0.021297 34:0.0157092 35:0.00731118 36:0.0553104 37:0.0272542 38:0.00591925 39:0.00475428 40:0.791768 41:0.0187219 42:0.0505506 43:0.0112527 44:0.027157 45:0.0101019 46:0.67264 47:0.0997896 48:0.00655683 49:0.0053661 50:0.0367444 51:0.107208 52:0.0587393 53:0.00121219 54:0.00164097 
0.9055376776156986 1:0.0140019 2:0.704267 3:0.229417 4:0.0523142 5:-0.961059 6:0.953175 7:0.968935 8:0.85176 9:0.000888373 10:0.0300747 11:0.00145514 12:0.00324121 13:0.00267411 14:0.000801999 15:0.000791799 16:0.00208788 17:0.00480955 18:1 19:0 20:1 21:0 22:0 23:0 24:1 25:0.155771 26:0.025922 27:0.00934782 28:0.241016 29:0.400898 30:0.00555985 31:0.0230138 32:0.131075 33:0.00518634 34:0.00221065 35:0.1 36:0.1 37:0.1 38:0.1 39:0.1 40:0.1 41:0.1 42:0.1 43:0.1 44:0.1 45:9.60085e-08 46:2.29564e-07 47:7.20736e-08 48:9.29887e-08 49:5.89033e-08 50:0.999758 51:0.000210473 52:1.66809e-05 53:1.45678e-05 54:3.08414e-08 
3.961988917928284 1:0.00038727 2:0.0064403 3:0.0011926 4:0.99198 5:-0.951293 6:0.112274 7:0.630747 8:-0.986251 9:0.395855 10:0.0847683 11:0.0874642 12:0.00521919 13:0.145819 14:0.0261723 15:0.0302899 16:0.0954656 17:0.0166724 18:0 19:0 20:0 21:0 22:0 23:0 24:0 25:0.0548033 26:0.0324117 27:0.0212579 28:0.00710141 29:0.00461198 30:0.247776 31:0.587265 32:0.0108436 33:0.0321767 34:0.00175254 35:0.016348 36:0.0785328 37:0.0130021 38:0.520918 39:0.244779 40:0.0249072 41:0.0520542 42:0.012522 43:0.0251376 44:0.0117993 45:0.110521 46:0.239769 47:0.0481643 48:0.0576067 49:0.0243694 50:0.473083 51:0.0253588 52:0.0108316 53:0.00552635 54:0.00476981 
2.324274821750365 1:0.00641679 2:0.00707614 3:0.00625092 4:0.980256 5:0.880681 6:0.0443821 7:0.201728 8:-0.914687 9:0.282314 10:0.111561 11:0.0537615 12:0.0166584 13:0.0965483 14:0.159475 15:0.0439239 16:0.106057 17:0.0853197 18:0 19:0 20:0 21:0 22:0 23:0 24:0 25:0.309904 26:0.0340701 27:0.120201 28:0.0181384 29:0.00777122 30:0.183144 31:0.289375 32:0.0115163 33:0.0185059 34:0.0073749 35:0.1 36:0.1 37:0.1 38:0.1 39:0.1 40:0.1 41:0.1 42:0.1 43:0.1 44:0.1 45:5.88522e-06 46:1.20732e-05 47:0.000867346 48:5.44661e-06 49:4.41489e-05 50:0.998842 51:5.88964e-05 52:7.94756e-05 53:8.09199e-05 54:3.49924e-06 
2.438157211358997 1:0.0240972 2:0.0222362 3:0.0164993 4:0.937167 5:-0.840628 6:0.0253444 7:0.151637 8:-0.995947 9:0.117231 10:0.036008 11:0.0215708 12:0.0092737 13:0.359917 14:0.085929 15:0.033858 16:0.079292 17:0.231576 18:0 19:0 20:1 21:0 22:0 23:0 24:0 25:0.164544 26:0.106327 27:0.158134 28:0.0245711 29:0.012126 30:0.157525 31:0.11968 32:0.211562 33:0.0347739 34:0.0107572 35:0.1 36:0.1 37:0.1 38:0.1 39:0.1 40:0.1 41:0.1 42:0.1 43:0.1 44:0.1 45:0.1 46:0.1 47:0.1 48:0.1 49:0.1 50:0.1 51:0.1 52:0.1 53:0.1 54:0.1 
0.2137473066439468 1:0.151721 2:0.745284 3:0.0483201 4:0.0546753 5:0.944886 6:0.0489276 7:0.440095 8:0.967783 9:0.0224301 10:0.0874013 11:0.0122239 12:0.00468984 13:0.578848 14:0.0659514 15:0.018394 16:0.131509 17:0.0296246 18:0 19:0 20:0 21:0 22:0 23:0 24:1 25:0.091366 26:0.0616401 27:0.0832608 28:0.0253078 29:0.00798091 30:0.170003 31:0.0601461 32:0.441378 33:0.0538717 34:0.00504622 35:0.00877969 36:0.0452084 37:0.0217257 38:0.013165 39:0.00420993 40:0.849197 41:0.0148077 42:0.00756691 43:0.00954334 44:0.0257967 45:1.01881e-08 46:4.4682e-08 47:2.62444e-08 48:6.52461e-09 49:8.81339e-09 50:0.999933 51:8.71491e-06 52:5.10996e-06 53:5.32751e-05 54:1.08861e-08 
1.780059038595461 1:0.963958 2:0.00931836 3:0.00171334 4:0.0250107 5:-0.957137 6:0.00907189 7:0.0993114 8:0.772621 9:0.0323772 10:0.0799543 11:0.448654 12:0.161172 13:0.174389 14:0.0732984 15:0.00820571 16:0.00596926 17:0.00690781 18:0 19:0 20:1 21:0 22:0 23:0 24:0 25:0.0306359 26:0.367703 27:0.302182 28:0.0105636 29:0.00764268 30:0.127546 31:0.10219 32:0.00610896 33:0.032747 34:0.0126804 35:0.00741977 36:0.604436 37:0.166122 38:0.0157097 39:0.021303 40:0.0445178 41:0.0127094 42:0.00962863 43:0.0100856 44:0.108068 45:0.00200656 46:0.140493 47:0.178705 48:0.0112216 49:0.00238067 50:0.596432 51:0.0343598 52:0.00631817 53:0.0156818 54:0.0124016 
2.203896834307852 1:0.372712 2:0.261351 3:0.0540533 4:0.311884 5:-0.934811 6:0.0206974 7:0.34598 8:0.821646 9:0.0276596 10:0.0300659 11:0.0552274 12:0.0367324 13:0.61833 14:0.0596676 15:0.0961443 16:0.0285718 17:0.026904 18:0 19:0 20:0 21:0 22:0 23:0 24:1 25:0.299923 26:0.0346639 27:0.0377601 28:0.0283658 29:0.0298749 30:0.182188 31:0.0805509 32:0.0299073 33:0.218906 34:0.0578599 35:0.0241123 36:0.0425316 37:0.032704 38:0.00627294 39:0.00582758 40:0.85466 41:0.0150068 42:0.0026497 43:0.00523544 44:0.0109995 45:0.1 46:0.1 47:0.1 48:0.1 49:0.1 50:0.1 51:0.1 52:0.1 53:0.1 54:0.1 
1.381472181832577 1:0.00343857 2:0.0246744 3:0.0017848 4:0.970102 5:-0.974999 6:0.00113136 7:0.0186529 8:0.605431 9:0.00964767 10:0.0313863 11:0.129265 12:0.763965 13:0.0484945 14:0.00702926 15:0.0037482 16:0.00201066 17:0.00332179 18:0 19:0 20:0 21:0 22:0 23:0 24:0 25:0.0172178 26:0.0836816 27:0.212682 28:0.00707314 29:0.00308946 30:0.00873971 31:0.037369 32:0.00232199 33:0.0419051 34:0.58592 35:0.00645443 36:0.123333 37:0.704044 38:0.00453567 39:0.00499111 40:0.0746118 41:0.00775347 42:0.00183975 43:0.00716704 44:0.0652697 45:0.0278754 46:0.37786 47:0.0612822 48:0.0967023 49:0.0103319 50:0.0967137 51:0.0314283 52:0.0096451 53:0.081942 54:0.206219 
-0.6115257891581147 1:0.992502 2:0.00461843 3:0.000368543 4:0.00251124 5:0.973442 6:0.00411498 7:0.0258258 8:0.999269 9:0.161633 10:0.0352014 11:0.00497275 12:0.0019369 13:0.0519802 14:0.599977 15:0.094983 16:0.0254482 17:0.019753 18:0 19:0 20:0 21:0 22:0 23:0 24:1 25:0.0914376 26:0.0409281 27:0.0460113 28:0.0204277 29:0.00591114 30:0.340546 31:0.235897 32:0.186429 33:0.0281766 34:0.00423526 35:0.1 36:0.1 37:0.1 38:0.1 39:0.1 40:0.1 41:0.1 42:0.1 43:0.1 44:0.1 45:0.00244588 46:0.00248069 47:0.00295069 48:0.00248835 49:0.000419569 50:0.00100946 51:0.00420983 52:0.967007 53:0.0168847 54:0.000103473 
-5.312522315407289 1:0.000972428 2:0.00695539 3:0.00233902 4:0.989733 5:-0.95559 6:0.0115417 7:0.414347 8:-0.980372 9:0.847259 10:0.0125206 11:0.00155823 12:0.00488621 13:0.0138909 14:0.00497124 15:0.031605 16:0.0612955 17:0.0104712 18:0 19:0 20:0 21:0 22:0 23:0 24:0 25:0.0159069 26:0.0331675 27:0.0180499 28:0.0134424 29:0.0397783 30:0.0095309 31:0.011826 32:0.570673 33:0.284535 34:0.0030901 35:0.1 36:0.1 37:0.1 38:0.1 39:0.1 40:0.1 41:0.1 42:0.1 43:0.1 44:0.1 45:0.0107433 46:0.195252 47:0.0850486 48:0.00919445 49:0.0441898 50:0.0277576 51:0.0560892 52:0.400552 53:0.151829 54:0.0193437 
-1.892287219941535 1:0.00204987 2:0.0152385 3:0.0346552 4:0.948056 5:-0.949326 6:0.0570738 7:0.668827 8:-0.974138 9:0.76253 10:0.0389087 11:0.00238194 12:0.00654991 13:0.00907657 14:0.0123436 15:0.0335432 16:0.0677783 17:0.00981375 18:0 19:0 20:0 21:0 22:0 23:0 24:1 25:0.00464089 26:0.031064 27:0.00712984 28:0.0154347 29:0.00820721 30:0.00614162 31:0.0047124 32:0.613591 33:0.30483 34:0.00424835 35:0.1 36:0.1 37:0.1 38:0.1 39:0.1 40:0.1 41:0.1 42:0.1 43:0.1 44:0.1 45:0.0811229 46:0.406607 47:0.0181017 48:0.00393027 49:0.0219768 50:0.0208434 51:0.0175432 52:0.256783 53:0.16953 54:0.00356235 
-0.9778273068302623 1:0.43611 2:0.486882 3:0.0390563 4:0.0379522 5:0.969189 6:0.0171806 7:0.0781062 8:0.979528 9:0.0267375 10:0.0881875 11:0.102816 12:0.0130455 13:0.329978 14:0.0936931 15:0.311997 16:0.00910631 17:0.00725905 18:0 19:0 20:0 21:0 22:0 23:0 24:0 25:0.0316912 26:0.0396209 27:0.0792862 28:0.0205197 29:0.00761035 30:0.0325519 31:0.0524676 32:0.109043 33:0.623935 34:0.00327358 35:0.1 36:0.1 37:0.1 38:0.1 39:0.1 40:0.1 41:0.1 42:0.1 43:0.1 44:0.1 45:0.000478614 46:0.012103 47:0.00150498 48:0.00100926 49:0.000372189 50:0.00150622 51:0.0102817 52:0.933685 53:0.0389595 54:9.99212e-05 
-0.8072326517386477 1:0.992037 2:0.00460382 3:0.000214309 4:0.00314453 5:0.978343 6:0.00914024 7:0.0399129 8:0.994052 9:0.00383191 10:0.0427706 11:0.115406 12:0.108888 13:0.0614712 14:0.0510894 15:0.552791 16:0.0101669 17:0.0444447 18:0 19:0 20:0 21:0 22:0 23:0 24:0 25:0.116501 26:0.224453 27:0.145141 28:0.0480443 29:0.149574 30:0.0702105 31:0.143639 32:0.0785848 33:0.0129254 34:0.0109272 35:0.1 36:0.1 37:0.1 38:0.1 39:0.1 40:0.1 41:0.1 42:0.1 43:0.1 44:0.1 45:0.1 46:0.1 47:0.1 48:0.1 49:0.1 50:0.1 51:0.1 52:0.1 53:0.1 54:0.1 
-5.198768517007371 1:0.357172 2:0.0937276 3:0.0383646 4:0.510736 5:0.970462 6:0.0379326 7:0.132783 8:-0.873028 9:0.0567079 10:0.135125 11:0.0123915 12:0.00910069 13:0.216662 14:0.161927 15:0.0803248 16:0.085444 17:0.204384 18:0 19:0 20:0 21:0 22:0 23:0 24:0 25:0.0203725 26:0.127565 27:0.0134301 28:0.0166417 29:0.15859 30:0.0983958 31:0.217405 32:0.329223 33:0.0142361 34:0.00414181 35:0.1 36:0.1 37:0.1 38:0.1 39:0.1 40:0.1 41:0.1 42:0.1 43:0.1 44:0.1 45:0.1 46:0.1 47:0.1 48:0.1 49:0.1 50:0.1 51:0.1 52:0.1 53:0.1 54:0.1 
-1.400958704834217 1:0.996785 2:0.00118754 3:0.000373236 4:0.00165456 5:0.971913 6:0.0513123 7:0.205859 8:0.99187 9:0.00843017 10:0.180727 11:0.0956904 12:0.133574 13:0.146943 14:0.096512 15:0.251161 16:0.00835859 17:0.0272915 18:0 19:0 20:1 21:0 22:0 23:0 24:0 25:0.0706886 26:0.0444701 27:0.0167541 28:0.0139705 29:0.077498 30:0.071907 31:0.176772 32:0.513855 33:0.00716 34:0.00692555 35:0.011409 36:0.0343306 37:0.0106059 38:0.0222657 39:0.0104725 40:0.0558484 41:0.0233069 42:0.787262 43:0.0295644 44:0.014935 45:0.00217007 46:0.0173055 47:0.00201044 48:0.000602127 49:0.00436059 50:0.00338661 51:0.0295293 52:0.937585 53:0.00274911 54:0.00030121 
-2.859954542319092 1:0.000591593 2:0.00244887 3:0.00201209 4:0.994947 5:0.909357 6:0.0234415 7:0.0960942 8:0.760441 9:0.0188733 10:0.198585 11:0.0462313 12:0.102508 13:0.289691 14:0.0814659 15:0.0201338 16:0.158184 17:0.0608857 18:0 19:0 20:0 21:0 22:0 23:0 24:1 25:0.0420611 26:0.236733 27:0.0486551 28:0.382755 29:0.0471839 30:0.049601 31:0.180901 32:0.00429268 33:0.00500306 34:0.00281466 35:0.00802462 36:0.0286339 37:0.0340737 38:0.0102307 39:0.107031 40:0.176761 41:0.0545966 42:0.516491 43:0.0260047 44:0.0381537 45:0.517311 46:0.193966 47:0.0236372 48:0.0470758 49:0.0426831 50:0.00725164 51:0.128798 52:0.0320123 53:0.00512857 54:0.00213593 
-0.1465524973070643 1:0.976738 2:0.0197352 3:0.000474129 4:0.0030531 5:0.973788 6:0.0194864 7:0.0684345 8:0.9989 9:0.0102661 10:0.120574 11:0.279303 12:0.00808868 13:0.217292 14:0.120042 15:0.213096 16:0.00431278 17:0.00753964 18:1 19:0 20:0 21:1 22:0 23:0 24:1 25:0.0122132 26:0.04013 27:0.00707757 28:0.0148859 29:0.0224251 30:0.100614 31:0.185058 32:0.615801 33:0.00102039 34:0.000774873 35:0.1 36:0.1 37:0.1 38:0.1 39:0.1 40:0.1 41:0.1 42:0.1 43:0.1 44:0.1 45:0.00843151 46:0.0592055 47:0.0113933 48:0.12885 49:0.0370541 50:0.00355459 51:0.0726544 52:0.669319 53:0.00697865 54:0.00255914 
-3.522648680210262 1:0.956972 2:0.0237091 3:0.00388786 4:0.0154308 5:-0.858439 6:0.0032214 7:0.0833192 8:0.994568 9:0.0828996 10:0.0348791 11:0.0467965 12:0.0738662 13:0.0492113 14:0.236705 15:0.345348 16:0.0914767 17:0.0355963 18:0 19:0 20:0 21:0 22:0 23:0 24:0 25:0.0239791 26:0.0807058 27:0.0179564 28:0.00691817 29:0.0110522 30:0.0329489 31:0.741268 32:0.0776826 33:0.0052635 34:0.0022255 35:0.00541339 36:0.0190706 37:0.0102586 38:0.0632866 39:0.396032 40:0.0378102 41:0.109626 42:0.321666 43:0.0235011 44:0.0133365 45:0.1 46:0.1 47:0.1 48:0.1 49:0.1 50:0.1 51:0.1 52:0.1 53:0.1 54:0.1 
-2.474688997135861 1:0.992618 2:0.00295988 3:0.000275432 4:0.00414701 5:-0.841009 6:0.0266937 7:0.37127 8:-0.585765 9:0.0498302 10:0.0883504 11:0.0153942 12:0.0336393 13:0.208516 14:0.289364 15:0.0696532 16:0.0942647 17:0.124294 18:0 19:0 20:0 21:0 22:0 23:0 24:0 25:0.01169 26:0.0954849 27:0.102142 28:0.0106051 29:0.00393996 30:0.251028 31:0.473571 32:0.0451237 33:0.00340606 34:0.00301013 35:0.00397418 36:0.00396082 37:0.00693181 38:0.00591337 39:0.00785298 40:0.0389924 41:0.857711 42:0.0557554 43:0.00558159 44:0.0133268 45:0.1 46:0.1 47:0.1 48:0.1 49:0.1 50:0.1 51:0.1 52:0.1 53:0.1 54:0.1 
-0.2411085600376555 1:0.989742 2:0.00795831 3:0.000548278 4:0.0017515 5:0.92089 6:0.00160383 7:0.0237993 8:0.517288 9:0.00621788 10:0.0140642 11:0.0270252 12:0.00229133 13:0.065422 14:0.380185 15:0.190421 16:0.0725066 17:0.240264 18:0 19:0 20:0 21:0 22:0 23:0 24:1 25:0.00151251 26:0.00352186 27:0.00884356 28:0.0446842 29:0.929917 30:0.00442005 31:0.0007201 32:0.0059499 33:0.00034387 34:8.69751e-05 35:0.00677605 36:0.101682 37:0.269784 38:0.0162757 39:0.00762857 40:0.10895 41:0.0320122 42:0.00899377 43:0.0249948 44:0.422904 45:0.103617 46:0.240549 47:0.0886227 48:0.0183183 49:0.164955 50:0.0557131 51:0.227958 52:0.0665358 53:0.0287653 54:0.00496577 
-7.293836285459971 1:0.895962 2:0.0888711 3:0.00180121 4:0.0133661 5:-0.929188 6:0.298962 7:0.725328 8:0.85864 9:0.0735924 10:0.127692 11:0.0106414 12:0.0210585 13:0.0565462 14:0.0294101 15:0.0101244 16:0.255555 17:0.116417 18:0 19:0 20:1 21:0 22:0 23:0 24:0 25:0.0455006 26:0.217188 27:0.224438 28:0.210762 29:0.219406 30:0.0239525 31:0.0309194 32:0.011189 33:0.0100465 34:0.0065982 35:0.1 36:0.1 37:0.1 38:0.1 39:0.1 40:0.1 41:0.1 42:0.1 43:0.1 44:0.1 45:0.0133896 46:0.458437 47:0.167167 48:0.142071 49:0.125108 50:0.0240991 51:0.034956 52:0.0226797 53:0.00610767 54:0.00598457 
-0.03257202611165204 1:0.108183 2:0.450781 3:0.26837 4:0.172666 5:0.971547 6:0.00576761 7:0.115258 8:-0.538608 9:0.0209055 10:0.01899 11:0.110255 12:0.0229472 13:0.048574 14:0.0630773 15:0.681019 16:0.0264134 17:0.00205071 18:0 19:0 20:0 21:0 22:0 23:0 24:0 25:0.168535 26:0.0510233 27:0.0146451 28:0.0127275 29:0.036209 30:0.0333142 31:0.0364892 32:0.496725 33:0.110841 34:0.0394918 35:0.0103585 36:0.0231198 37:0.0157167 38:0.0174841 39:0.00313264 40:0.0122448 41:0.0140425 42:0.870764 43:0.0240129 44:0.00912381 45:0.1 46:0.1 47:0.1 48:0.1 49:0.1 50:0.1 51:0.1 52:0.1 53:0.1 54:0.1 
