svm_type c_svc
kernel_type rbf
gamma 0.01
nr_class 2
total_sv 121
rho 0.0611602
label 0 1
probA -12.8518
probB -1.10778
nr_sv 107 14
SV
0.5 1:0.240223 2:0.198768 3:0.561009 4:-0.961978 5:0.0154605 6:0.113566 7:0.0120138 8:0.0997244 9:0.0657741 10:0.339393 11:0.0933936 12:0.309481 13:0.0291623 14:0.0355972 15:0 16:0 17:0 18:0 19:0 20:0 21:1 22:0.341931 23:0.527975 24:0.0317358 25:0.0105519 26:0.0103909 27:0.0351386 28:0.0103074 29:0.0112596 30:0.0207089 31:0.0916052 32:0.411505 33:0.252438 34:0.0371848 35:0.0293665 36:0.0610103 37:0.044692 38:0.0248471 39:0.0473503 40:0.480073 41:0.318511 42:0.0667216 43:0.0174995 44:0.00213952 45:0.0278206 46:0.0700523 47:0.0121544 48:0.00502778 
0.5 1:0.863161 2:0.0242763 3:0.112563 4:0.9605 5:0.245184 6:0.269056 7:0.0024507 8:0.594346 9:0.0082035 10:0.0444524 11:0.0563878 12:0.0158101 13:0.0232511 14:0.00991411 15:1 16:0 17:0 18:1 19:0 20:1 21:0 22:0.2391 23:0.102875 24:0.00951735 25:0.0329294 26:0.231192 27:0.00902734 28:0.0986799 29:0.137419 30:0.13926 31:0.989163 32:0.0073899 33:0.00120796 34:0.000113631 35:0.000163 36:0.000116874 37:0.000143198 38:8.80243e-05 39:0.00161469 40:0.146153 41:0.0850048 42:0.0155832 43:0.0847644 44:0.367208 45:0.00609252 46:0.122438 47:0.023043 48:0.149713 
0.5 1:0.262252 2:0.111489 3:0.626259 4:-0.885189 5:0.769122 6:0.820786 7:0.000879625 8:0.116297 9:0.0729197 10:0.0162299 11:0.002422 12:0.00536315 13:0.00598628 14:0.0107811 15:1 16:0 17:0 18:1 19:0 20:0 21:0 22:0.0545091 23:0.36628 24:0.209617 25:0.183462 26:0.0364571 27:0.0795115 28:0.0553991 29:0.00588667 30:0.00887734 31:0.11 32:0.11 33:0.11 34:0.11 35:0.11 36:0.11 37:0.11 38:0.11 39:0.11 40:0.0182984 41:0.0117058 42:0.00814766 43:0.897572 44:0.0361325 45:0.0013001 46:0.0175457 47:0.00509974 48:0.00419775 
0.5 1:0.11281 2:0.0667446 3:0.820445 4:-0.951112 5:0.0332164 6:0.133271 7:0.0698861 8:0.415618 9:0.17335 10:0.14965 11:0.0280807 12:0.0308263 13:0.082884 14:0.0164882 15:0 16:0 17:0 18:0 19:0 20:0 21:1 22:0.00796076 23:0.0317821 24:0.00782125 25:0.00477175 26:0.0156911 27:0.0840956 28:0.579192 29:0.193202 30:0.0754835 31:0.0148452 32:0.0882626 33:0.0100681 34:0.732788 35:0.0686169 36:0.0114941 37:0.0443511 38:0.00728983 39:0.0222846 40:0.0100437 41:0.0644054 42:0.00107805 43:0.00110872 44:0.00139449 45:0.000463769 46:0.0262972 47:0.889285 48:0.00592343 
0.5 1:0.275976 2:0.119503 3:0.604521 4:-0.950891 5:0.180206 6:0.5 7:0.00679053 8:0.323057 9:0.136098 10:0.13978 11:0.0341929 12:0.00809844 13:0.0806843 14:0.091094 15:0 16:0 17:0 18:0 19:0 20:0 21:1 22:0.057502 23:0.248721 24:0.0180899 25:0.0334282 26:0.0504578 27:0.00943983 28:0.140621 29:0.142913 30:0.298827 31:0.11 32:0.11 33:0.11 34:0.11 35:0.11 36:0.11 37:0.11 38:0.11 39:0.11 40:0.467418 41:0.0409579 42:0.433772 43:0.00927192 44:0.00736261 45:0.00129142 46:0.031604 47:0.0015349 48:0.00678758 
0.5 1:0.282094 2:0.100395 3:0.617511 4:-0.960256 5:0.346304 6:0.848395 7:0.00722253 8:0.113587 9:0.313263 10:0.0593466 11:0.0403758 12:0.00474827 13:0.099026 14:0.0161275 15:0 16:0 17:0 18:0 19:0 20:0 21:0 22:0.133336 23:0.239343 24:0.0438168 25:0.0095447 26:0.00598907 27:0.088165 28:0.439139 29:0.0127927 30:0.0278741 31:0.0728888 32:0.28838 33:0.297796 34:0.153217 35:0.016901 36:0.0640016 37:0.057926 38:0.0248616 39:0.0240279 40:0.612956 41:0.197225 42:0.0422516 43:0.0341991 44:0.0188428 45:0.0426622 46:0.0179708 47:0.0241645 48:0.00972754 
0.5 1:0.314483 2:0.0807092 3:0.604808 4:-0.946371 5:0.799667 6:0.869591 7:0.000249532 8:0.121917 9:0.0150838 10:0.00717012 11:0.00216035 12:0.0274521 13:0.013349 14:0.0129514 15:0 16:0 17:0 18:0 19:0 20:0 21:0 22:0.0327714 23:0.0510812 24:0.0267474 25:0.018316 26:0.121192 27:0.0423182 28:0.0912703 29:0.408501 30:0.207803 31:0.957909 32:0.0228881 33:0.00676856 34:0.00365188 35:0.00113998 36:0.00247013 37:0.00180714 38:0.00127966 39:0.00208595 40:0.11 41:0.11 42:0.11 43:0.11 44:0.11 45:0.11 46:0.11 47:0.11 48:0.11 
0.5 1:0.420016 2:0.0734485 3:0.506536 4:-0.949083 5:0.187275 6:0.328139 7:0.0128874 8:0.287849 9:0.0773876 10:0.0622631 11:0.107681 12:0.0418792 13:0.163084 14:0.0596946 15:0 16:0 17:0 18:0 19:0 20:0 21:1 22:0.203139 23:0.162353 24:0.015801 25:0.0860081 26:0.164597 27:0.0153997 28:0.0948558 29:0.100605 30:0.157241 31:0.0216398 32:0.0989795 33:0.0131515 34:0.36738 35:0.332931 36:0.0646869 37:0.0775094 38:0.00819238 39:0.0155299 40:0.350054 41:0.427114 42:0.0156882 43:0.023531 44:0.0365137 45:0.00993758 46:0.10714 47:0.0192826 48:0.010739 
0.5 1:0.321668 2:0.109375 3:0.568957 4:-0.966982 5:0.355187 6:0.406744 7:0.00139077 8:0.459844 9:0.0498235 10:0.0235133 11:0.0336436 12:0.00288728 13:0.0679051 14:0.00580534 15:1 16:0 17:0 18:1 19:0 20:0 21:1 22:0.115337 23:0.161555 24:0.0135787 25:0.0747539 26:0.088655 27:0.0107405 28:0.105433 29:0.22511 30:0.204838 31:0.11 32:0.11 33:0.11 34:0.11 35:0.11 36:0.11 37:0.11 38:0.11 39:0.11 40:0.126314 41:0.676667 42:0.0501944 43:0.0741575 44:0.0256046 45:0.0106995 46:0.0189127 47:0.013198 48:0.00425282 
0.05281053100154851 1:0.345212 2:0.083839 3:0.570949 4:-0.956808 5:0.015319 6:0.280001 7:0.000661953 8:0.037179 9:0.00626592 10:0.00418032 11:0.862247 12:0.00310851 13:0.0676419 14:0.00339685 15:0 16:0 17:0 18:1 19:0 20:0 21:1 22:0.238692 23:0.112311 24:0.0896993 25:0.0173305 26:0.0137227 27:0.162845 28:0.286603 29:0.0254843 30:0.053312 31:0.868454 32:0.0610152 33:0.01669 34:0.013727 35:0.00494428 36:0.00906629 37:0.0118648 38:0.00706673 39:0.0071722 40:0.11 41:0.11 42:0.11 43:0.11 44:0.11 45:0.11 46:0.11 47:0.11 48:0.11 
0.5 1:0.498635 2:0.105435 3:0.39593 4:-0.538799 5:0.169098 6:0.849662 7:0.0125174 8:0.0149106 9:0.0287715 10:0.0163964 11:0.00255204 12:0.0129129 13:0.0676884 14:0.675153 15:0 16:0 17:0 18:0 19:0 20:1 21:1 22:0.104905 23:0.281449 24:0.0250694 25:0.0452178 26:0.0298537 27:0.0261116 28:0.166652 29:0.225373 30:0.095369 31:0.409103 32:0.536603 33:0.00699911 34:0.00459583 35:0.0125353 36:0.00956029 37:0.0132147 38:0.00276487 39:0.0046238 40:0.868966 41:0.0263324 42:0.0140633 43:0.00463782 44:0.00716879 45:0.00375641 46:0.0144626 47:0.0589087 48:0.00170388 
0.5 1:0.199592 2:0.11899 3:0.681418 4:-0.961393 5:0.0938283 6:0.121044 7:0.00227883 8:0.410131 9:0.0293314 10:0.107975 11:0.290367 12:0.0333409 13:0.0221934 14:0.0105543 15:0 16:0 17:0 18:0 19:0 20:0 21:1 22:0.0146626 23:0.292429 24:0.0306114 25:0.0466955 26:0.264064 27:0.0347917 28:0.208557 29:0.0309519 30:0.0772368 31:0.11 32:0.11 33:0.11 34:0.11 35:0.11 36:0.11 37:0.11 38:0.11 39:0.11 40:0.0447516 41:0.378192 42:0.0252066 43:0.0139629 44:0.127992 45:0.0109294 46:0.174243 47:0.203177 48:0.0215455 
0.5 1:0.815301 2:0.0417723 3:0.142927 4:-0.951551 5:0.424826 6:0.757378 7:0.00395362 8:0.0892623 9:0.0138581 10:0.028536 11:0.0294036 12:0.00543582 13:0.0160777 14:0.388647 15:0 16:0 17:0 18:0 19:0 20:1 21:1 22:0.0873863 23:0.171478 24:0.00886356 25:0.0236391 26:0.116733 27:0.0128203 28:0.0697089 29:0.279415 30:0.229956 31:0.984823 32:0.00345948 33:0.00199259 34:0.000701603 35:0.000959641 36:0.000630206 37:0.000581013 38:0.000350664 39:0.00650198 40:0.788838 41:0.0935378 42:0.0435851 43:0.0240829 44:0.0124017 45:0.0013419 46:0.0115172 47:0.00302295 48:0.0216729 
0.5 1:0.702375 2:0.0397521 3:0.257873 4:-0.901382 5:0.644992 6:0.783525 7:0.0031346 8:0.125865 9:0.00835315 10:0.0722481 11:0.0253779 12:0.0121076 13:0.0188432 14:0.0890789 15:0 16:0 17:0 18:0 19:0 20:1 21:0 22:0.0824545 23:0.048513 24:0.0180727 25:0.102471 26:0.215899 27:0.0168293 28:0.0538775 29:0.41948 30:0.0424022 31:0.993417 32:0.00426147 33:0.000573813 34:0.000157949 35:0.000192085 36:5.95013e-05 37:0.000108315 38:7.85959e-05 39:0.00115084 40:0.826617 41:0.026366 42:0.00909767 43:0.111655 44:0.010973 45:0.000581413 46:0.00982272 47:0.00399598 48:0.00089037 
0.5 1:0.2228 2:0.458939 3:0.318261 4:-0.957566 5:0.595498 6:0.759683 7:0.00166042 8:0.156895 9:0.141841 10:0.0335007 11:0.00188727 12:0.0275788 13:0.0107227 14:0.0304167 15:0 16:0 17:0 18:0 19:0 20:0 21:1 22:0.035441 23:0.0859459 24:0.0414381 25:0.0531399 26:0.146713 27:0.0729509 28:0.0628328 29:0.353857 30:0.147682 31:0.0254265 32:0.0547101 33:0.0309332 34:0.751956 35:0.00991972 36:0.0396967 37:0.0419488 38:0.0134338 39:0.0319753 40:0.11 41:0.11 42:0.11 43:0.11 44:0.11 45:0.11 46:0.11 47:0.11 48:0.11 
0.5 1:0.172144 2:0.169643 3:0.658213 4:-0.950902 5:0.0855544 6:0.630305 7:0.0218369 8:0.0656976 9:0.11659 10:0.470379 11:0.0217604 12:0.0494821 13:0.0510568 14:0.117643 15:0 16:0 17:0 18:0 19:0 20:0 21:0 22:0.173047 23:0.443747 24:0.0185741 25:0.0192263 26:0.0218701 27:0.0192539 28:0.22451 29:0.020372 30:0.0593993 31:0.0187574 32:0.636301 33:0.0575062 34:0.0247094 35:0.167554 36:0.0215872 37:0.0262001 38:0.0117524 39:0.0356326 40:0.0606278 41:0.207631 42:0.0135089 43:0.165433 44:0.0526111 45:0.00667988 46:0.363027 47:0.0342605 48:0.0962202 
0.5 1:0.613812 2:0.0564432 3:0.329744 4:-0.966059 5:0.0414454 6:0.183876 7:0.00505436 8:0.217855 9:0.259427 10:0.21155 11:0.0547845 12:0.131164 13:0.00661964 14:0.0721013 15:1 16:0 17:0 18:1 19:0 20:0 21:1 22:0.292052 23:0.543447 24:0.0178727 25:0.0137681 26:0.0130123 27:0.0427576 28:0.0084351 29:0.0348992 30:0.0337561 31:0.996219 32:0.00125035 33:0.000428216 34:4.08456e-05 35:7.40499e-05 36:3.21805e-05 37:2.25132e-05 38:2.10304e-05 39:0.00191176 40:0.224845 41:0.108157 42:0.166702 43:0.0276162 44:0.0242644 45:0.00987608 46:0.0235348 47:0.0413937 48:0.373612 
0.5 1:0.228874 2:0.0999655 3:0.67116 4:-0.951137 5:0.21883 6:0.789785 7:0.0254375 8:0.0225044 9:0.0216898 10:0.0136708 11:0.0124629 12:0.00182901 13:0.668449 14:0.015127 15:0 16:0 17:0 18:0 19:0 20:0 21:0 22:0.12006 23:0.148897 24:0.00775902 25:0.00649049 26:0.00261748 27:0.0591311 28:0.612147 29:0.0349385 30:0.00795986 31:0.0794582 32:0.718348 33:0.054763 34:0.0335467 35:0.0236316 36:0.0451253 37:0.0230016 38:0.0127462 39:0.00937953 40:0.102438 41:0.320184 42:0.0280123 43:0.0572184 44:0.177015 45:0.00805339 46:0.246844 47:0.0447813 48:0.0154535 
0.5 1:0.271667 2:0.460251 3:0.268082 4:-0.945256 5:0.210885 6:0.302508 7:0.00676031 8:0.308405 9:0.0518228 10:0.0462029 11:0.0273105 12:0.0109174 13:0.26734 14:0.0703554 15:0 16:0 17:0 18:1 19:0 20:0 21:1 22:0.00864236 23:0.0261513 24:0.348617 25:0.028644 26:0.0179981 27:0.534605 28:0.0130708 29:0.0096079 30:0.0126632 31:0.363154 32:0.092676 33:0.0852487 34:0.0734512 35:0.0312057 36:0.0473863 37:0.213932 38:0.0321105 39:0.060836 40:0.438018 41:0.260029 42:0.040821 43:0.0256092 44:0.0653164 45:0.00328138 46:0.124436 47:0.0120315 48:0.0304576 
0.5 1:0.25894 2:0.101461 3:0.639599 4:-0.946861 5:0.390324 6:0.647845 7:0.0463957 8:0.250092 9:0.0342084 10:0.0269715 11:0.0356006 12:0.00854731 13:0.183513 14:0.0243464 15:0 16:0 17:0 18:0 19:0 20:0 21:0 22:0.0996386 23:0.398034 24:0.0184261 25:0.0162346 26:0.00436473 27:0.190503 28:0.242541 29:0.0152005 30:0.0150574 31:0.093294 32:0.697085 33:0.0664188 34:0.0284098 35:0.023747 36:0.0395797 37:0.0300564 38:0.0126452 39:0.0087644 40:0.211112 41:0.199898 42:0.0422196 43:0.0796593 44:0.141741 45:0.0109584 46:0.0311428 47:0.147626 48:0.135642 
0.5 1:0.332489 2:0.0919934 3:0.575518 4:-0.954068 5:0.891134 6:0.898938 7:0.000394666 8:0.07277 9:0.00144824 10:0.00480556 11:0.000628458 12:0.000686991 13:0.0263103 14:0.00182144 15:0 16:0 17:0 18:0 19:0 20:0 21:0 22:0.0922492 23:0.190313 24:0.0705513 25:0.15496 26:0.0456611 27:0.0234128 28:0.140021 29:0.025156 30:0.257676 31:0.873282 32:0.0626863 33:0.0220373 34:0.00923647 35:0.00469598 36:0.00637207 37:0.00735273 38:0.00605716 39:0.00827986 40:0.128524 41:0.398161 42:0.0227636 43:0.0598462 44:0.0317701 45:0.00338124 46:0.0190476 47:0.0593714 48:0.277134 
0.5 1:0.66148 2:0.173968 3:0.164552 4:-0.959281 5:0.0371409 6:0.371635 7:0.0811571 8:0.086026 9:0.0191162 10:0.0664861 11:0.0409329 12:0.108365 13:0.0942984 14:0.466477 15:0 16:0 17:0 18:1 19:0 20:1 21:0 22:0.0854518 23:0.233278 24:0.0334443 25:0.0850157 26:0.122628 27:0.0281278 28:0.0540591 29:0.098745 30:0.259251 31:0.902589 32:0.0866879 33:0.000254678 34:0.000872498 35:0.00559768 36:0.000402675 37:0.000579879 38:0.000294663 39:0.00272095 40:0.264469 41:0.5204 42:0.00272219 43:0.0154341 44:0.0186526 45:0.0078978 46:0.153854 47:0.0153908 48:0.00117954 
0.5 1:0.321219 2:0.0688177 3:0.609964 4:-0.968972 5:0.299484 6:0.424428 7:0.00720843 8:0.411638 9:0.0108495 10:0.0905334 11:0.0186616 12:0.0589929 13:0.0701845 14:0.0324472 15:0 16:0 17:0 18:0 19:0 20:0 21:1 22:0.178246 23:0.155396 24:0.0193821 25:0.0338891 26:0.397375 27:0.0994546 28:0.0485442 29:0.0290408 30:0.0386729 31:0.0569352 32:0.672834 33:0.0322697 34:0.0149726 35:0.0683656 36:0.0152066 37:0.104432 38:0.0109334 39:0.0240506 40:0.0577428 41:0.600061 42:0.0139575 43:0.025319 44:0.0263585 45:0.0147735 46:0.0311419 47:0.220319 48:0.0103264 
0.1452212215911984 1:0.253345 2:0.103233 3:0.643422 4:-0.953985 5:0.0942527 6:0.109209 7:0.00170261 8:0.596515 9:0.103075 10:0.0525712 11:0.0439964 12:0.0389227 13:0.0636091 14:0.00535503 15:0 16:0 17:0 18:1 19:0 20:0 21:1 22:0.475802 23:0.141377 24:0.0733109 25:0.0460954 26:0.0252069 27:0.0450294 28:0.0490469 29:0.0863258 30:0.0578062 31:0.0991987 32:0.668391 33:0.0761308 34:0.0279485 35:0.0211864 36:0.0305135 37:0.0273549 38:0.0178431 39:0.0314327 40:0.123046 41:0.483713 42:0.155398 43:0.0596728 44:0.0509261 45:0.0039503 46:0.0998165 47:0.00787071 48:0.0156061 
0.5 1:0.323418 2:0.0688409 3:0.607741 4:-0.968967 5:0.285068 6:0.414226 7:0.00452733 8:0.451445 9:0.0344877 10:0.1059 11:0.0262106 12:0.0524579 13:0.026644 14:0.0132599 15:0 16:0 17:0 18:0 19:0 20:0 21:1 22:0.153703 23:0.190944 24:0.0288826 25:0.0647888 26:0.38733 27:0.0412008 28:0.0388373 29:0.0305876 30:0.0637254 31:0.0569352 32:0.672834 33:0.0322697 34:0.0149726 35:0.0683656 36:0.0152066 37:0.104432 38:0.0109334 39:0.0240506 40:0.122465 41:0.3181 42:0.0238271 43:0.0939047 44:0.049783 45:0.00634627 46:0.0587312 47:0.306632 48:0.0202099 
0.5 1:0.241304 2:0.0960885 3:0.662608 4:-0.966314 5:0.227131 6:0.397388 7:0.00223081 8:0.384696 9:0.0322139 10:0.0245469 11:0.107148 12:0.00608312 13:0.198758 14:0.0171922 15:0 16:0 17:0 18:0 19:0 20:0 21:1 22:0.0418733 23:0.0325901 24:0.0124462 25:0.59647 26:0.219294 27:0.00348934 28:0.0109027 29:0.025102 30:0.0578325 31:0.11 32:0.11 33:0.11 34:0.11 35:0.11 36:0.11 37:0.11 38:0.11 39:0.11 40:0.0664959 41:0.39954 42:0.0393014 43:0.0630852 44:0.0937038 45:0.0196914 46:0.189227 47:0.109661 48:0.0192946 
0.5 1:0.210888 2:0.198401 3:0.590711 4:-0.960048 5:0.0591584 6:0.0961591 7:0.00392058 8:0.542758 9:0.0600115 10:0.0720377 11:0.126396 12:0.0758952 13:0.0568034 14:0.00301975 15:0 16:0 17:0 18:1 19:0 20:0 21:1 22:0.393104 23:0.139654 24:0.0893551 25:0.0517687 26:0.0207044 27:0.0503789 28:0.0537942 29:0.0993487 30:0.101892 31:0.0964016 32:0.739158 33:0.0228465 34:0.0364767 35:0.0423942 36:0.0182051 37:0.0205622 38:0.00503653 39:0.0189188 40:0.200421 41:0.37445 42:0.0816098 43:0.0149376 44:0.0879946 45:0.00241193 46:0.228442 47:0.00494262 48:0.0047901 
0.5 1:0.424732 2:0.186802 3:0.388466 4:-0.946496 5:0.234949 6:0.422096 7:0.00338157 8:0.252972 9:0.223597 10:0.116469 11:0.0868462 12:0.0076537 13:0.0218136 14:0.0523176 15:0 16:0 17:0 18:1 19:0 20:0 21:0 22:0.215534 23:0.240867 24:0.0104347 25:0.0447413 26:0.10531 27:0.0109196 28:0.127514 29:0.0544714 30:0.190209 31:0.11 32:0.11 33:0.11 34:0.11 35:0.11 36:0.11 37:0.11 38:0.11 39:0.11 40:0.546639 41:0.325262 42:0.0137638 43:0.0374632 44:0.0128462 45:0.00463613 46:0.0441491 47:0.012526 48:0.00271485 
0.5 1:0.177708 2:0.157058 3:0.665234 4:-0.952864 5:0.0901954 6:0.172461 7:0.00205337 8:0.404483 9:0.0390028 10:0.0281435 11:0.0144361 12:0.00335128 13:0.394699 14:0.0236351 15:0 16:0 17:0 18:0 19:0 20:0 21:1 22:0.0152683 23:0.1205 24:0.0474157 25:0.504451 26:0.0179547 27:0.269684 28:0.0102422 29:0.00317719 30:0.0113061 31:0.11 32:0.11 33:0.11 34:0.11 35:0.11 36:0.11 37:0.11 38:0.11 39:0.11 40:0.489757 41:0.0712827 42:0.0115779 43:0.269438 44:0.00465847 45:0.00163532 46:0.0166506 47:0.00158737 48:0.133412 
0.5 1:0.306005 2:0.52338 3:0.170615 4:-0.967541 5:0.230443 6:0.523203 7:0.0109702 8:0.17416 9:0.153434 10:0.0464816 11:0.0895901 12:0.0506665 13:0.0385283 14:0.205727 15:0 16:0 17:0 18:1 19:0 20:0 21:0 22:0.106562 23:0.0163788 24:0.01416 25:0.13089 26:0.528338 27:0.00371597 28:0.0316774 29:0.0882671 30:0.0800109 31:0.11 32:0.11 33:0.11 34:0.11 35:0.11 36:0.11 37:0.11 38:0.11 39:0.11 40:0.0876191 41:0.806745 42:0.013335 43:0.00808062 44:0.00405159 45:0.00131841 46:0.0289983 47:0.0213638 48:0.0284881 
0.5 1:0.346526 2:0.0908919 3:0.562582 4:-0.953554 5:0.432221 6:0.756443 7:0.00236569 8:0.114145 9:0.0165884 10:0.115989 11:0.0433409 12:0.037846 13:0.0914322 14:0.146072 15:0 16:0 17:0 18:0 19:0 20:0 21:1 22:0.0339381 23:0.09082 24:0.010208 25:0.0538379 26:0.359456 27:0.0170943 28:0.031305 29:0.169438 30:0.233903 31:0.11 32:0.11 33:0.11 34:0.11 35:0.11 36:0.11 37:0.11 38:0.11 39:0.11 40:0.228217 41:0.578494 42:0.0245812 43:0.0579396 44:0.0413603 45:0.0130513 46:0.0180558 47:0.0325318 48:0.00576905 
0.5 1:0.243248 2:0.0876592 3:0.669093 4:-0.961334 5:0.634793 6:0.888762 7:0.00158833 8:0.0972762 9:0.0209962 10:0.137399 11:0.0338712 12:0.012195 13:0.0219477 14:0.0399339 15:0 16:0 17:0 18:0 19:0 20:0 21:1 22:0.0811754 23:0.0522557 24:0.00487932 25:0.0572997 26:0.231887 27:0.00909252 28:0.0462992 29:0.362036 30:0.155075 31:0.11 32:0.11 33:0.11 34:0.11 35:0.11 36:0.11 37:0.11 38:0.11 39:0.11 40:0.11 41:0.11 42:0.11 43:0.11 44:0.11 45:0.11 46:0.11 47:0.11 48:0.11 
0.5 1:0.248932 2:0.0925988 3:0.658469 4:-0.95053 5:0.431295 6:0.468199 7:0.00562611 8:0.283686 9:0.0196546 10:0.0647115 11:0.124505 12:0.00783967 13:0.0139973 14:0.0486848 15:0 16:0 17:0 18:1 19:0 20:0 21:0 22:0.0553166 23:0.0636275 24:0.0182536 25:0.178194 26:0.051711 27:0.00938647 28:0.0370367 29:0.303915 30:0.282559 31:0.851294 32:0.0400641 33:0.0596234 34:0.017036 35:0.0032909 36:0.00945981 37:0.00676003 38:0.00573286 39:0.00673913 40:0.11 41:0.11 42:0.11 43:0.11 44:0.11 45:0.11 46:0.11 47:0.11 48:0.11 
0.5 1:0.161721 2:0.692222 3:0.146058 4:-0.959081 5:0.337861 6:0.490642 7:0.00369238 8:0.266471 9:0.114607 10:0.0208527 11:0.0533605 12:0.123959 13:0.0551741 14:0.0240222 15:0 16:0 17:0 18:0 19:0 20:0 21:0 22:0.0438138 23:0.045507 24:0.0214819 25:0.102018 26:0.434822 27:0.0156016 28:0.0327017 29:0.261762 30:0.0422912 31:0.11 32:0.11 33:0.11 34:0.11 35:0.11 36:0.11 37:0.11 38:0.11 39:0.11 40:0.11 41:0.11 42:0.11 43:0.11 44:0.11 45:0.11 46:0.11 47:0.11 48:0.11 
0.5 1:0.604031 2:0.0926698 3:0.303299 4:-0.732428 5:0.235599 6:0.406403 7:0.00397991 8:0.315028 9:0.0116909 10:0.0858373 11:0.0161185 12:0.0275043 13:0.158205 14:0.146037 15:0 16:0 17:0 18:0 19:0 20:0 21:1 22:0.565512 23:0.180924 24:0.0212255 25:0.0887304 26:0.0349212 27:0.0180991 28:0.0181703 29:0.0596258 30:0.012791 31:0.11 32:0.11 33:0.11 34:0.11 35:0.11 36:0.11 37:0.11 38:0.11 39:0.11 40:0.755946 41:0.132541 42:0.00905222 43:0.0059126 44:0.0398749 45:0.0392714 46:0.0113219 47:0.00444785 48:0.00163127 
0.5 1:0.850882 2:0.0357307 3:0.113387 4:0.729055 5:0.249278 6:0.373841 7:0.00691719 8:0.397406 9:0.01871 10:0.0636642 11:0.0219547 12:0.0908762 13:0.0719988 14:0.0791943 15:0 16:0 17:0 18:0 19:0 20:0 21:1 22:0.390302 23:0.211296 24:0.0153592 25:0.0898436 26:0.200827 27:0.0177372 28:0.0200302 29:0.0349054 30:0.0196994 31:0.11 32:0.11 33:0.11 34:0.11 35:0.11 36:0.11 37:0.11 38:0.11 39:0.11 40:0.870205 41:0.0670878 42:0.0150121 43:0.00481123 44:0.010261 45:0.0183713 46:0.00819012 47:0.00413405 48:0.00192708 
0.5 1:0.118943 2:0.731314 3:0.149743 4:-0.962271 5:0.148351 6:0.338796 7:0.0199491 8:0.397434 9:0.0733597 10:0.0516969 11:0.0477283 12:0.0465791 13:0.0897376 14:0.125164 15:0 16:0 17:0 18:0 19:0 20:0 21:0 22:0.032983 23:0.0220587 24:0.0126335 25:0.195522 26:0.485889 27:0.00399808 28:0.0154113 29:0.199764 30:0.0317398 31:0.11 32:0.11 33:0.11 34:0.11 35:0.11 36:0.11 37:0.11 38:0.11 39:0.11 40:0.94475 41:0.0415648 42:0.00342442 43:0.00170781 44:0.00144827 45:0.000730181 46:0.00481028 47:0.000669629 48:0.000894322 
0.5 1:0.18541 2:0.232119 3:0.582472 4:-0.953665 5:0.340964 6:0.641253 7:0.0108982 8:0.157839 9:0.00703578 10:0.0234987 11:0.024547 12:0.081483 13:0.0479799 14:0.305755 15:0 16:0 17:0 18:0 19:0 20:0 21:0 22:0.0334192 23:0.0389204 24:0.00997448 25:0.0305768 26:0.806344 27:0.00474429 28:0.00786297 29:0.0526841 30:0.0154734 31:0.11 32:0.11 33:0.11 34:0.11 35:0.11 36:0.11 37:0.11 38:0.11 39:0.11 40:0.970753 41:0.0195384 42:0.000303427 43:0.00136704 44:0.00326821 45:0.000145427 46:0.00199457 47:0.00250761 48:0.000122676 
0.5 1:0.294784 2:0.131972 3:0.573245 4:-0.954205 5:0.107845 6:0.343646 7:0.00386471 8:0.192983 9:0.0454789 10:0.0389218 11:0.0176476 12:0.00601959 13:0.558516 14:0.0287221 15:0 16:0 17:0 18:0 19:0 20:0 21:1 22:0.0974744 23:0.0909511 24:0.031562 25:0.294475 26:0.160127 27:0.0376008 28:0.0796533 29:0.147414 30:0.0607425 31:0.11 32:0.11 33:0.11 34:0.11 35:0.11 36:0.11 37:0.11 38:0.11 39:0.11 40:0.457334 41:0.374483 42:0.0262576 43:0.072991 44:0.0207392 45:0.0073505 46:0.0315206 47:0.00705887 48:0.00226464 
0.5 1:0.151451 2:0.577923 3:0.270626 4:-0.969037 5:0.0267128 6:0.0726758 7:0.125717 8:0.136575 9:0.0434103 10:0.118471 11:0.0302015 12:0.0535771 13:0.429477 14:0.0358579 15:0 16:0 17:0 18:0 19:0 20:0 21:0 22:0.0902653 23:0.470919 24:0.183296 25:0.0155477 26:0.0139965 27:0.0410494 28:0.10052 29:0.0262176 30:0.0581889 31:0.11 32:0.11 33:0.11 34:0.11 35:0.11 36:0.11 37:0.11 38:0.11 39:0.11 40:0.11 41:0.11 42:0.11 43:0.11 44:0.11 45:0.11 46:0.11 47:0.11 48:0.11 
0.5 1:0.220391 2:0.0876056 3:0.692004 4:-0.957096 5:0.0175851 6:0.0569003 7:0.00718287 8:0.202781 9:0.0141854 10:0.139051 11:0.414025 12:0.0947727 13:0.0583303 14:0.0520861 15:0 16:0 17:0 18:0 19:0 20:0 21:1 22:0.206377 23:0.183843 24:0.0775799 25:0.0487285 26:0.0278913 27:0.116029 28:0.140484 29:0.156896 30:0.0421716 31:0.113534 32:0.751075 33:0.00794496 34:0.0250024 35:0.0431786 36:0.00354985 37:0.0339677 38:0.00453532 39:0.0172112 40:0.200005 41:0.662898 42:0.0230171 43:0.0268045 44:0.00383773 45:0.021944 46:0.0327383 47:0.0170036 48:0.0117516 
0.5 1:0.322366 2:0.0701876 3:0.607446 4:-0.954656 5:0.157996 6:0.655191 7:0.00128929 8:0.106828 9:0.155678 10:0.469456 11:0.0398694 12:0.0180227 13:0.022574 14:0.0282866 15:0 16:0 17:0 18:0 19:0 20:0 21:1 22:0.0773235 23:0.253821 24:0.0477712 25:0.0434554 26:0.0147442 27:0.0960817 28:0.43441 29:0.0140974 30:0.0182962 31:0.0200462 32:0.0742727 33:0.0208928 34:0.216166 35:0.0470461 36:0.025166 37:0.0386514 38:0.0831381 39:0.474621 40:0.972966 41:0.0103502 42:0.00775572 43:0.002011 44:0.000127886 45:0.00041699 46:0.00109995 47:0.000846255 48:0.00442562 
0.5 1:0.203608 2:0.0851127 3:0.711279 4:-0.938053 5:0.0841603 6:0.656668 7:0.00631775 8:0.115236 9:0.193001 10:0.139272 11:0.101172 12:0.051728 13:0.298349 14:0.0107646 15:0 16:0 17:1 18:0 19:0 20:0 21:0 22:0.0387059 23:0.127662 24:0.529695 25:0.120646 26:0.0200499 27:0.0903232 28:0.0442885 29:0.00859723 30:0.0200331 31:0.286138 32:0.114379 33:0.123831 34:0.0581595 35:0.017564 36:0.244222 37:0.0273697 38:0.0111175 39:0.117219 40:0.776801 41:0.105157 42:0.0625931 43:0.0120453 44:0.00145889 45:0.0225647 46:0.0048727 47:0.00808607 48:0.00642151 
0.5 1:0.463849 2:0.177011 3:0.35914 4:-0.958536 5:0.184593 6:0.521578 7:0.00515013 8:0.19821 9:0.0506456 10:0.0640013 11:0.0969118 12:0.339004 13:0.00654764 14:0.054937 15:1 16:0 17:0 18:1 19:0 20:0 21:1 22:0.15418 23:0.427401 24:0.0109487 25:0.0247599 26:0.01446 27:0.0167332 28:0.287962 29:0.046804 30:0.0167502 31:0.278031 32:0.337024 33:0.179096 34:0.0337448 35:0.0350467 36:0.0473307 37:0.0225103 38:0.0184064 39:0.0488096 40:0.228622 41:0.445219 42:0.0893444 43:0.00661612 44:0.00366446 45:0.116736 46:0.0132622 47:0.0937456 48:0.00278974 
0.5 1:0.394241 2:0.0626742 3:0.543084 4:-0.960388 5:0.141366 6:0.367388 7:0.00327427 8:0.230509 9:0.045889 10:0.0355692 11:0.437011 12:0.00449499 13:0.0758853 14:0.0260012 15:1 16:0 17:0 18:0 19:0 20:0 21:1 22:0.0739168 23:0.220499 24:0.25137 25:0.0521384 26:0.0292228 27:0.146293 28:0.177437 29:0.0225204 30:0.0266019 31:0.00792452 32:0.0486658 33:0.0153042 34:0.0112632 35:0.00616164 36:0.0336237 37:0.860324 38:0.0115578 39:0.00517504 40:0.131091 41:0.731599 42:0.0428707 43:0.00916302 44:0.00321929 45:0.0495386 46:0.022111 47:0.00905286 48:0.001354 
0.5 1:0.309025 2:0.0790668 3:0.611908 4:-0.968513 5:0.0297186 6:0.277625 7:0.00767738 8:0.0813638 9:0.192944 10:0.352088 11:0.0153058 12:0.158538 13:0.030558 14:0.131807 15:0 16:0 17:0 18:0 19:0 20:0 21:1 22:0.0188136 23:0.0543829 24:0.0138244 25:0.00785561 26:0.00824524 27:0.0175607 28:0.0910876 29:0.772319 30:0.0159114 31:0.0767283 32:0.034461 33:0.0363843 34:0.0771981 35:0.355627 36:0.0380696 37:0.0504514 38:0.0685276 39:0.262553 40:0.942996 41:0.018527 42:0.00504299 43:0.00232064 44:0.00203103 45:0.00299223 46:0.00426853 47:0.0212286 48:0.000592646 
0.5 1:0.333234 2:0.061773 3:0.604993 4:-0.955267 5:0.0454135 6:0.28399 7:0.00540858 8:0.081203 9:0.0580262 10:0.327396 11:0.0865178 12:0.230933 13:0.0731061 14:0.0919963 15:0 16:0 17:0 18:0 19:0 20:0 21:1 22:0.169309 23:0.292079 24:0.0404658 25:0.0201571 26:0.0159774 27:0.21125 28:0.136305 29:0.0849455 30:0.0295118 31:0.11 32:0.11 33:0.11 34:0.11 35:0.11 36:0.11 37:0.11 38:0.11 39:0.11 40:0.740493 41:0.203617 42:0.00635652 43:0.00604189 44:0.0055862 45:0.00110667 46:0.00883925 47:0.0274647 48:0.000495006 
0.5 1:0.214474 2:0.122751 3:0.662775 4:-0.95987 5:0.0536897 6:0.406098 7:0.0269659 8:0.0660529 9:0.0260244 10:0.109974 11:0.102235 12:0.438555 13:0.0936126 14:0.0828916 15:0 16:0 17:0 18:0 19:0 20:0 21:0 22:0.284181 23:0.0445806 24:0.08016 25:0.0218734 26:0.0138525 27:0.336036 28:0.150778 29:0.0508615 30:0.0176768 31:0.995178 32:0.00360261 33:0.000785506 34:1.4185e-05 35:0.000100091 36:3.25313e-05 37:4.70503e-05 38:3.81449e-05 39:0.0002016 40:0.11 41:0.11 42:0.11 43:0.11 44:0.11 45:0.11 46:0.11 47:0.11 48:0.11 
0.5 1:0.242656 2:0.0748256 3:0.682519 4:-0.952264 5:0.00599903 6:0.274181 7:0.00313727 8:0.0106394 9:0.862691 10:0.0367567 11:0.00941682 12:0.0501133 13:0.00729064 14:0.0139562 15:0 16:0 17:0 18:0 19:0 20:0 21:0 22:0.861062 23:0.030918 24:0.0250339 25:0.0107251 26:0.00410292 27:0.0345906 28:0.0182356 29:0.0107379 30:0.00459408 31:0.340857 32:0.0872529 33:0.369449 34:0.0352188 35:0.0115471 36:0.055264 37:0.0216514 38:0.00558059 39:0.0731802 40:0.189376 41:0.307803 42:0.331279 43:0.00612751 44:0.0114924 45:0.0572468 46:0.0166965 47:0.0721477 48:0.00783095 
0.5 1:0.251966 2:0.0796058 3:0.668428 4:-0.943793 5:0.144598 6:0.257424 7:0.00519879 8:0.32553 9:0.0498288 10:0.21506 11:0.0852659 12:0.122896 13:0.0229994 14:0.0286228 15:0 16:0 17:0 18:0 19:0 20:0 21:1 22:0.300171 23:0.0931186 24:0.0284511 25:0.00702911 26:0.00474415 27:0.0520267 28:0.498357 29:0.00976653 30:0.0063364 31:0.00437013 32:0.236073 33:0.601038 34:0.00817069 35:0.0186736 36:0.0459035 37:0.016574 38:0.00219703 39:0.0670001 40:0.0181636 41:0.274694 42:0.137637 43:0.0565006 44:0.0128558 45:0.18508 46:0.0648637 47:0.125404 48:0.124801 
0.5 1:0.170172 2:0.227779 3:0.602048 4:-0.96188 5:0.328921 6:0.637535 7:0.00142649 8:0.142437 9:0.282818 10:0.0530049 11:0.0569921 12:0.117597 13:0.0141804 14:0.00262386 15:0 16:0 17:0 18:0 19:0 20:0 21:1 22:0.393301 23:0.0853285 24:0.0239242 25:0.04458 26:0.0128615 27:0.0628156 28:0.347837 29:0.00900522 30:0.0203476 31:0.11 32:0.11 33:0.11 34:0.11 35:0.11 36:0.11 37:0.11 38:0.11 39:0.11 40:0.11 41:0.11 42:0.11 43:0.11 44:0.11 45:0.11 46:0.11 47:0.11 48:0.11 
0.5 1:0.345806 2:0.0849257 3:0.569268 4:-0.950496 5:0.111137 6:0.392366 7:0.00337226 8:0.200409 9:0.0526845 10:0.0275119 11:0.0249323 12:0.00426605 13:0.553947 14:0.0217406 15:0 16:0 17:0 18:0 19:0 20:0 21:1 22:0.116809 23:0.403794 24:0.208627 25:0.0953468 26:0.0140965 27:0.103013 28:0.0331048 29:0.00810532 30:0.0171034 31:0.05691 32:0.341713 33:0.0661343 34:0.125964 35:0.137385 36:0.110467 37:0.080999 38:0.0390697 39:0.041357 40:0.256662 41:0.388592 42:0.0149236 43:0.183046 44:0.0970408 45:0.0183741 46:0.0163428 47:0.0156923 48:0.00932655 
0.5 1:0.307984 2:0.111333 3:0.580683 4:-0.953791 5:0.0413396 6:0.0567367 7:0.000817033 8:0.504274 9:0.210811 10:0.146477 11:0.0877677 12:0.00243824 13:0.00189384 14:0.0041824 15:0 16:0 17:0 18:0 19:0 20:0 21:0 22:0.658894 23:0.14759 24:0.0236796 25:0.0252787 26:0.0179306 27:0.0704895 28:0.0290419 29:0.0103847 30:0.0167113 31:0.947977 32:0.0348284 33:0.00579897 34:0.000946686 35:0.00287221 36:0.00232718 37:0.000705512 38:0.0001774 39:0.00436679 40:0.0252824 41:0.0756531 42:0.0122517 43:0.796366 44:0.0162311 45:0.0114418 46:0.0194154 47:0.0328969 48:0.0104617 
0.5 1:0.580086 2:0.328652 3:0.0912624 4:0.915434 5:0.543746 6:0.758758 7:0.00084673 8:0.12823 9:0.179693 10:0.0605636 11:0.0178583 12:0.0466423 13:0.00290533 14:0.0195145 15:0 16:0 17:0 18:0 19:0 20:0 21:1 22:0.35555 23:0.132646 24:0.0263289 25:0.0240594 26:0.025173 27:0.0481454 28:0.36751 29:0.00799229 30:0.012596 31:0.972739 32:0.0105027 33:0.0110928 34:0.000318023 35:0.00182887 36:0.000376874 37:0.000358393 38:0.000287136 39:0.00249578 40:0.954735 41:0.0140143 42:0.0109326 43:0.00245623 44:0.00223203 45:0.000395496 46:0.00776259 47:0.000590226 48:0.00688204 
0.5 1:0.240555 2:0.0641894 3:0.695255 4:-0.513341 5:0.045409 6:0.22965 7:0.00656292 8:0.142117 9:0.0184175 10:0.106682 11:0.0454333 12:0.020938 13:0.584036 14:0.0304042 15:0 16:0 17:0 18:0 19:0 20:0 21:0 22:0.073313 23:0.0930336 24:0.0783985 25:0.586972 26:0.0256391 27:0.071493 28:0.0226113 29:0.00663456 30:0.041905 31:0.11 32:0.11 33:0.11 34:0.11 35:0.11 36:0.11 37:0.11 38:0.11 39:0.11 40:0.0672221 41:0.0409933 42:0.00728339 43:0.724944 44:0.0368753 45:0.00208448 46:0.0394224 47:0.0375828 48:0.0435926 
0.5 1:0.295083 2:0.0646411 3:0.640276 4:-0.959702 5:0.0193758 6:0.0348465 7:0.000767161 8:0.384976 9:0.402242 10:0.15727 11:0.0276799 12:0.000908054 13:0.0033555 14:0.00342578 15:0 16:0 17:0 18:0 19:0 20:0 21:0 22:0.621761 23:0.131554 24:0.0371083 25:0.0331619 26:0.0178394 27:0.10306 28:0.028669 29:0.00826775 30:0.0185791 31:0.881847 32:0.0810804 33:0.00791873 34:0.0012712 35:0.00467123 36:0.00668194 37:0.00174778 38:0.000478319 39:0.0143036 40:0.11 41:0.11 42:0.11 43:0.11 44:0.11 45:0.11 46:0.11 47:0.11 48:0.11 
0.5 1:0.302265 2:0.059446 3:0.638289 4:-0.974213 5:0.0169586 6:0.110599 7:0.032776 8:0.158689 9:0.041911 10:0.0748918 11:0.372507 12:0.165056 13:0.0145603 14:0.122651 15:0 16:0 17:0 18:0 19:0 20:0 21:0 22:0.523845 23:0.0344376 24:0.0145144 25:0.00936491 26:0.00540559 27:0.266318 28:0.13058 29:0.00669609 30:0.00883819 31:0.02651 32:0.575713 33:0.0238022 34:0.0505438 35:0.00845083 36:0.0597471 37:0.116651 38:0.113238 39:0.0253454 40:0.992341 41:0.0049875 42:0.00101253 43:1.58157e-05 44:6.742e-05 45:9.74095e-05 46:0.0014029 47:7.12899e-05 48:4.0532e-06 
0.5 1:0.428513 2:0.0936078 3:0.477879 4:-0.952634 5:0.0209101 6:0.277466 7:0.0315136 8:0.0460345 9:0.054419 10:0.075642 11:0.338753 12:0.0559653 13:0.0296518 14:0.347111 15:0 16:0 17:0 18:0 19:0 20:0 21:1 22:0.316135 23:0.160746 24:0.0300219 25:0.0311569 26:0.0708379 27:0.053388 28:0.213998 29:0.058142 30:0.0655749 31:0.993018 32:0.00381498 33:0.000671288 34:0.000110626 35:0.00028997 36:0.000105105 37:0.000315306 38:0.000592593 39:0.00108243 40:0.11 41:0.11 42:0.11 43:0.11 44:0.11 45:0.11 46:0.11 47:0.11 48:0.11 
0.5 1:0.233066 2:0.341638 3:0.425296 4:-0.957847 5:0.0640256 6:0.324814 7:0.012126 8:0.0905878 9:0.0380547 10:0.0612802 11:0.152966 12:0.445638 13:0.120352 14:0.0149701 15:0 16:0 17:0 18:0 19:0 20:0 21:0 22:0.134494 23:0.0850794 24:0.0248894 25:0.0110539 26:0.026903 27:0.238266 28:0.0450294 29:0.405375 30:0.028909 31:0.0116154 32:0.0336068 33:0.0392094 34:0.0313066 35:0.00537187 36:0.835902 37:0.0234382 38:0.00444775 39:0.0151018 40:0.9725 41:0.0105404 42:0.00219312 43:0.000392351 44:0.000717674 45:0.000862354 46:0.011029 47:0.00173305 48:3.2452e-05 
0.5 1:0.211587 2:0.117628 3:0.670785 4:-0.95942 5:0.0752291 6:0.46349 7:0.0152322 8:0.169524 9:0.160524 10:0.070696 11:0.0833168 12:0.367041 13:0.0136964 14:0.0447399 15:0 16:0 17:0 18:0 19:0 20:0 21:1 22:0.40445 23:0.280143 24:0.0825914 25:0.0327898 26:0.0208669 27:0.0889016 28:0.0487854 29:0.0145277 30:0.0269448 31:0.336362 32:0.189547 33:0.30058 34:0.0116267 35:0.0160336 36:0.0853567 37:0.0205894 38:0.00865344 39:0.0312517 40:0.11 41:0.11 42:0.11 43:0.11 44:0.11 45:0.11 46:0.11 47:0.11 48:0.11 
0.5 1:0.0104376 2:0.0358264 3:0.953736 4:0.783785 5:0.116967 6:0.368237 7:0.00488599 8:0.179112 9:0.0550648 10:0.0271928 11:0.0166911 12:0.00493689 13:0.578898 14:0.0162512 15:0 16:0 17:0 18:0 19:0 20:0 21:0 22:0.182105 23:0.370177 24:0.0578225 25:0.0810741 26:0.025252 27:0.143988 28:0.0261207 29:0.0167818 30:0.0966787 31:0.11 32:0.11 33:0.11 34:0.11 35:0.11 36:0.11 37:0.11 38:0.11 39:0.11 40:0.11 41:0.11 42:0.11 43:0.11 44:0.11 45:0.11 46:0.11 47:0.11 48:0.11 
0.5 1:0.3333 2:0.0836699 3:0.58303 4:-0.960202 5:0.297624 6:0.331521 7:0.00546582 8:0.348701 9:0.0436569 10:0.068658 11:0.144311 12:0.00589296 13:0.0675504 14:0.0181401 15:0 16:0 17:0 18:0 19:0 20:0 21:0 22:0.0297018 23:0.341116 24:0.30638 25:0.265454 26:0.0109345 27:0.0160718 28:0.0239208 29:0.00172286 30:0.00469816 31:0.11 32:0.11 33:0.11 34:0.11 35:0.11 36:0.11 37:0.11 38:0.11 39:0.11 40:0.11 41:0.11 42:0.11 43:0.11 44:0.11 45:0.11 46:0.11 47:0.11 48:0.11 
0.5 1:0.197263 2:0.0608014 3:0.741936 4:-0.925573 5:0.00325501 6:0.103358 7:0.512865 8:0.0212464 9:0.00357988 10:0.0549624 11:0.0255449 12:0.031089 13:0.0286396 14:0.318818 15:0 16:0 17:0 18:0 19:0 20:0 21:0 22:0.596605 23:0.0615614 24:0.0292635 25:0.0145156 26:0.00842249 27:0.189826 28:0.0611512 29:0.0149225 30:0.0237319 31:0.11 32:0.11 33:0.11 34:0.11 35:0.11 36:0.11 37:0.11 38:0.11 39:0.11 40:0.814613 41:0.084403 42:0.00431367 43:0.0112225 44:0.0127655 45:0.00148391 46:0.0185172 47:0.0414709 48:0.0112104 
0.5 1:0.189327 2:0.0629784 3:0.747695 4:0.5 5:0.24152 6:0.609739 7:0.00306951 8:0.187882 9:0.0767391 10:0.0450644 11:0.0929826 12:0.00472166 13:0.340628 14:0.00739192 15:0 16:0 17:0 18:0 19:0 20:0 21:0 22:0.837114 23:0.0262603 24:0.0331879 25:0.0311642 26:0.00561058 27:0.028612 28:0.0276208 29:0.00202404 30:0.0084061 31:0.974926 32:0.0169752 33:0.00201807 34:0.000779323 35:0.000748173 36:0.000901285 37:0.00117696 38:0.000811827 39:0.00166343 40:0.915537 41:0.0481867 42:0.017325 43:0.00136866 44:0.00246384 45:0.00234465 46:0.00583601 47:0.00631366 48:0.000624898 
0.5 1:0.280175 2:0.15327 3:0.566556 4:-0.965718 5:0.0840007 6:0.396513 7:0.0117495 8:0.11479 9:0.402781 10:0.120781 11:0.156479 12:0.0178944 13:0.0353997 14:0.0561237 15:0 16:0 17:0 18:0 19:0 20:0 21:1 22:0.0584444 23:0.0538435 24:0.00948444 25:0.0170855 26:0.0244829 27:0.027281 28:0.0243517 29:0.749333 30:0.0356933 31:0.0148452 32:0.0882626 33:0.0100681 34:0.732788 35:0.0686169 36:0.0114941 37:0.0443511 38:0.00728983 39:0.0222846 40:0.64748 41:0.112474 42:0.077264 43:0.00570757 44:0.0145892 45:0.0165932 46:0.0475601 47:0.0775295 48:0.00080191 
0.5 1:0.0135184 2:0.00759828 3:0.978883 4:0.830184 5:0.126767 6:0.351798 7:0.00178188 8:0.22339 9:0.0438568 10:0.0354933 11:0.0266918 12:0.00378228 13:0.513244 14:0.0249934 15:0 16:0 17:0 18:0 19:0 20:0 21:0 22:0.184261 23:0.373281 24:0.0812913 25:0.100552 26:0.0328605 27:0.131266 28:0.0379179 29:0.0149272 30:0.0436425 31:0.975485 32:0.0128848 33:0.0059071 34:0.00149828 35:0.000890967 36:0.000756106 37:0.000518778 38:0.00069508 39:0.0013641 40:0.11 41:0.11 42:0.11 43:0.11 44:0.11 45:0.11 46:0.11 47:0.11 48:0.11 
0.5 1:0.268111 2:0.113519 3:0.61837 4:-0.962653 5:0.153029 6:0.441984 7:0.0130164 8:0.191343 9:0.177118 10:0.151391 11:0.124282 12:0.0438904 13:0.0475887 14:0.0983425 15:1 16:0 17:0 18:1 19:0 20:0 21:0 22:0.11837 23:0.319364 24:0.0207103 25:0.117117 26:0.0834737 27:0.0445774 28:0.0718678 29:0.186828 30:0.0376929 31:0.11 32:0.11 33:0.11 34:0.11 35:0.11 36:0.11 37:0.11 38:0.11 39:0.11 40:0.11 41:0.11 42:0.11 43:0.11 44:0.11 45:0.11 46:0.11 47:0.11 48:0.11 
0.5 1:0.366542 2:0.446894 3:0.186564 4:0.583122 5:0.689969 6:0.818123 7:0.000857501 8:0.144281 9:0.0171574 10:0.0303935 11:0.0718911 12:0.00511862 13:0.0327809 14:0.0075514 15:1 16:0 17:0 18:0 19:0 20:0 21:1 22:0.818742 23:0.0639295 24:0.0189013 25:0.0366561 26:0.00469677 27:0.0246607 28:0.0255259 29:0.00427034 30:0.00261764 31:0.322122 32:0.168502 33:0.190337 34:0.0505678 35:0.0425119 36:0.0831341 37:0.0590389 38:0.0395395 39:0.0442468 40:0.986438 41:0.0107384 42:0.00103382 43:6.72396e-05 44:2.57206e-05 45:0.000336032 46:0.00117106 47:0.00010981 48:7.95387e-05 
0.5 1:0.256385 2:0.0978951 3:0.64572 4:-0.96552 5:0.23922 6:0.371304 7:0.0135796 8:0.343565 9:0.0168607 10:0.0911705 11:0.105352 12:0.0476778 13:0.120695 14:0.02188 15:0 16:0 17:0 18:0 19:0 20:0 21:0 22:0.409438 23:0.0514438 24:0.0269317 25:0.0146561 26:0.026502 27:0.100748 28:0.34095 29:0.00984595 30:0.0194835 31:0.11 32:0.11 33:0.11 34:0.11 35:0.11 36:0.11 37:0.11 38:0.11 39:0.11 40:0.0566216 41:0.0444781 42:0.00287139 43:0.00442473 44:0.876171 45:0.00172441 46:0.00173693 47:0.0111712 48:0.000800754 
0.5 1:0.571977 2:0.0773831 3:0.35064 4:-0.962234 5:0.788369 6:0.885491 7:0.00149406 8:0.0760554 9:0.0469017 10:0.0142857 11:0.017349 12:0.00467644 13:0.0445142 14:0.00635425 15:0 16:0 17:0 18:0 19:0 20:0 21:0 22:0.755485 23:0.101439 24:0.023675 25:0.0181471 26:0.00922061 27:0.0570664 28:0.0199565 29:0.00475283 30:0.0102576 31:0.831126 32:0.067246 33:0.0308094 34:0.0140743 35:0.0068589 36:0.0135469 37:0.0115396 38:0.0075924 39:0.0172061 40:0.11 41:0.11 42:0.11 43:0.11 44:0.11 45:0.11 46:0.11 47:0.11 48:0.11 
0.5 1:0.186109 2:0.440358 3:0.373533 4:-0.962159 5:0.129554 6:0.466068 7:0.0892594 8:0.216131 9:0.0516771 10:0.164425 11:0.0309959 12:0.0203573 13:0.269645 14:0.0279562 15:0 16:0 17:0 18:0 19:0 20:0 21:0 22:0.531205 23:0.0563782 24:0.15422 25:0.0408244 26:0.0410127 27:0.0339008 28:0.0668762 29:0.0592861 30:0.0162975 31:0.11 32:0.11 33:0.11 34:0.11 35:0.11 36:0.11 37:0.11 38:0.11 39:0.11 40:0.955172 41:0.0139484 42:0.00295959 43:0.001221 44:0.00362675 45:0.00107575 46:0.00606855 47:0.0157238 48:0.000204056 
0.5 1:0.319834 2:0.0698833 3:0.610282 4:-0.958573 5:0.00615902 6:0.150018 7:0.00201184 8:0.042286 9:0.843995 10:0.023379 11:0.0121535 12:0.0676516 13:0.00149747 14:0.000866258 15:0 16:0 17:0 18:0 19:0 20:0 21:1 22:0.582066 23:0.254807 24:0.026212 25:0.0140176 26:0.00612689 27:0.0426343 28:0.0533401 29:0.0043848 30:0.0164119 31:0.0569352 32:0.672834 33:0.0322697 34:0.0149726 35:0.0683656 36:0.0152066 37:0.104432 38:0.0109334 39:0.0240506 40:0.208111 41:0.463471 42:0.0165209 43:0.0589794 44:0.0900967 45:0.0117472 46:0.0254164 47:0.0940119 48:0.031646 
0.5 1:0.337693 2:0.103436 3:0.558871 4:-0.918906 5:0.136384 6:0.417515 7:0.0267992 8:0.180265 9:0.0390814 10:0.0874474 11:0.0721734 12:0.0965458 13:0.113852 14:0.247452 15:0 16:0 17:0 18:0 19:0 20:0 21:0 22:0.104913 23:0.144579 24:0.192621 25:0.0271573 26:0.020677 27:0.070677 28:0.384667 29:0.016573 30:0.0381361 31:0.305118 32:0.133305 33:0.077412 34:0.102316 35:0.031099 36:0.135559 37:0.122277 38:0.0529914 39:0.039923 40:0.11 41:0.11 42:0.11 43:0.11 44:0.11 45:0.11 46:0.11 47:0.11 48:0.11 
0.5 1:0.545692 2:0.0719332 3:0.382375 4:-0.975314 5:0.222014 6:0.572085 7:0.00233269 8:0.187278 9:0.0731256 10:0.0352688 11:0.0429309 12:0.00253093 13:0.377826 14:0.0566933 15:1 16:0 17:0 18:0 19:0 20:0 21:0 22:0.604262 23:0.176988 24:0.0437719 25:0.0286304 26:0.0195924 27:0.0776445 28:0.0191086 29:0.0132925 30:0.0167091 31:0.805691 32:0.0690939 33:0.0341056 34:0.0237983 35:0.00952257 36:0.0149975 37:0.0115427 38:0.00905913 39:0.0221893 40:0.11 41:0.11 42:0.11 43:0.11 44:0.11 45:0.11 46:0.11 47:0.11 48:0.11 
0.5 1:0.329239 2:0.348905 3:0.321856 4:-0.918618 5:0.122172 6:0.478768 7:0.00813728 8:0.175591 9:0.0333457 10:0.128283 11:0.388021 12:0.0232774 13:0.037326 14:0.0838454 15:0 16:0 17:0 18:0 19:0 20:0 21:0 22:0.117306 23:0.213056 24:0.296828 25:0.0209195 26:0.0171979 27:0.0723377 28:0.204062 29:0.0157448 30:0.0425484 31:0.27398 32:0.155124 33:0.0703242 34:0.0953458 35:0.0352434 36:0.114993 37:0.134331 38:0.072779 39:0.0478805 40:0.18308 41:0.707073 42:0.00617043 43:0.00845279 44:0.00508853 45:0.00847392 46:0.0607131 47:0.0169585 48:0.00398988 
0.5 1:0.896867 2:0.0374054 3:0.0657273 4:0.947831 5:0.00907563 6:0.033176 7:0.182555 8:0.0742226 9:0.083782 10:0.179163 11:0.0539912 12:0.145502 13:0.189838 14:0.0818711 15:0 16:0 17:0 18:0 19:0 20:0 21:0 22:0.259186 23:0.0607731 24:0.0633142 25:0.241764 26:0.0571436 27:0.158502 28:0.100806 29:0.0310862 30:0.027425 31:0.0259488 32:0.635564 33:0.0293559 34:0.0489921 35:0.00997904 36:0.053694 37:0.0900963 38:0.0782753 39:0.0280946 40:0.509645 41:0.10725 42:0.0750918 43:0.00467329 44:0.00941528 45:0.00453733 46:0.19808 47:0.0837435 48:0.00756432 
0.5 1:0.405766 2:0.418707 3:0.175526 4:-0.666114 5:0.610865 6:0.902458 7:0.00317849 8:0.112685 9:0.0488551 10:0.0260264 11:0.130878 12:0.00909065 13:0.0464797 14:0.0119424 15:1 16:0 17:0 18:0 19:0 20:0 21:1 22:0.794324 23:0.0369693 24:0.0401669 25:0.00764657 26:0.0117047 27:0.0162009 28:0.0774459 29:0.00948582 30:0.00605639 31:0.11 32:0.11 33:0.11 34:0.11 35:0.11 36:0.11 37:0.11 38:0.11 39:0.11 40:0.11 41:0.11 42:0.11 43:0.11 44:0.11 45:0.11 46:0.11 47:0.11 48:0.11 
0.5 1:0.332808 2:0.0668442 3:0.600348 4:-0.967425 5:0.0100427 6:0.0914946 7:0.0017685 8:0.0943167 9:0.00278559 10:0.0092041 11:0.859137 12:0.0117059 13:0.00999713 14:0.00104217 15:0 16:0 17:0 18:0 19:0 20:0 21:0 22:0.586319 23:0.125087 24:0.0255469 25:0.0328116 26:0.0108193 27:0.0810523 28:0.110864 29:0.00921014 30:0.0182895 31:0.860096 32:0.0731407 33:0.00950211 34:0.0121106 35:0.00486659 36:0.0106055 37:0.0137594 38:0.00992448 39:0.00599447 40:0.11 41:0.11 42:0.11 43:0.11 44:0.11 45:0.11 46:0.11 47:0.11 48:0.11 
0.5 1:0.260463 2:0.10663 3:0.632907 4:-0.971575 5:0.30919 6:0.727133 7:0.00666769 8:0.149838 9:0.0288067 10:0.147286 11:0.0417486 12:0.0189927 13:0.0159324 14:0.281538 15:0 16:0 17:0 18:0 19:0 20:0 21:1 22:0.0799866 23:0.0293711 24:0.0439254 25:0.0203748 26:0.0143433 27:0.749445 28:0.036434 29:0.00958606 30:0.0165343 31:0.11 32:0.11 33:0.11 34:0.11 35:0.11 36:0.11 37:0.11 38:0.11 39:0.11 40:0.329477 41:0.588478 42:0.00403304 43:0.0557042 44:0.0103394 45:0.000792682 46:0.0101185 47:0.000629304 48:0.000428111 
0.5 1:0.174878 2:0.261407 3:0.563715 4:-0.958079 5:0.0159077 6:0.0820874 7:0.0149381 8:0.104846 9:0.0492053 10:0.109628 11:0.500665 12:0.150842 13:0.0141589 14:0.03981 15:0 16:0 17:0 18:0 19:0 20:0 21:0 22:0.546273 23:0.10394 24:0.18649 25:0.0161883 26:0.0113538 27:0.0790261 28:0.0326448 29:0.00310245 30:0.0209812 31:0.11 32:0.11 33:0.11 34:0.11 35:0.11 36:0.11 37:0.11 38:0.11 39:0.11 40:0.11 41:0.11 42:0.11 43:0.11 44:0.11 45:0.11 46:0.11 47:0.11 48:0.11 
0.5 1:0.227512 2:0.125505 3:0.646982 4:-0.898817 5:0.0142951 6:0.0735405 7:0.0107155 8:0.0935408 9:0.00910857 10:0.0928827 11:0.733899 12:0.0203038 13:0.00612474 14:0.0191302 15:0 16:0 17:0 18:0 19:0 20:0 21:0 22:0.391604 23:0.119133 24:0.29237 25:0.0189441 26:0.0149286 27:0.0876629 28:0.0368935 29:0.00578859 30:0.0326748 31:0.11 32:0.11 33:0.11 34:0.11 35:0.11 36:0.11 37:0.11 38:0.11 39:0.11 40:0.948641 41:0.0321222 42:0.00939001 43:0.00116759 44:0.00172641 45:0.000151382 46:0.00625226 47:0.00043516 48:0.000113574 
0.5 1:0.603867 2:0.0608818 3:0.335251 4:-0.952846 5:0.571748 6:0.801636 7:0.00261377 8:0.125859 9:0.180974 10:0.0487046 11:0.0102079 12:0.00608084 13:0.0421646 14:0.011647 15:0 16:0 17:0 18:0 19:0 20:0 21:0 22:0.77848 23:0.115351 24:0.0156212 25:0.0102474 26:0.00343193 27:0.0406121 28:0.0291435 29:0.00256737 30:0.00454591 31:0.830556 32:0.0639446 33:0.0281953 34:0.0183665 35:0.00687764 36:0.0123238 37:0.0148631 38:0.00886061 39:0.0160127 40:0.11 41:0.11 42:0.11 43:0.11 44:0.11 45:0.11 46:0.11 47:0.11 48:0.11 
0.1965118094459536 1:0.477622 2:0.0349519 3:0.487426 4:-0.935324 5:0.569053 6:0.797322 7:0.00420732 8:0.182966 9:0.0468494 10:0.0445221 11:0.0367902 12:0.0463732 13:0.027755 14:0.0414836 15:0 16:0 17:0 18:0 19:0 20:0 21:0 22:0.690728 23:0.156826 24:0.0182054 25:0.0141138 26:0.00482329 27:0.0841105 28:0.0127446 29:0.00403974 30:0.0144092 31:0.835804 32:0.0705439 33:0.0416647 34:0.00848227 35:0.00717095 36:0.0067775 37:0.007618 38:0.00641976 39:0.0155193 40:0.11 41:0.11 42:0.11 43:0.11 44:0.11 45:0.11 46:0.11 47:0.11 48:0.11 
0.5 1:0.2607 2:0.294823 3:0.444477 4:-0.961133 5:0.103048 6:0.27189 7:0.00403083 8:0.132384 9:0.153946 10:0.246407 11:0.0699287 12:0.120158 13:0.125428 14:0.0446686 15:0 16:0 17:0 18:0 19:0 20:0 21:0 22:0.665887 23:0.204821 24:0.0176391 25:0.0130988 26:0.00512286 27:0.0419213 28:0.0331935 29:0.00295425 30:0.0153617 31:0.841374 32:0.082963 33:0.0200138 34:0.0058767 35:0.00628911 36:0.0108309 37:0.0059264 38:0.0054153 39:0.0213112 40:0.11 41:0.11 42:0.11 43:0.11 44:0.11 45:0.11 46:0.11 47:0.11 48:0.11 
0.5 1:0.285947 2:0.133237 3:0.580816 4:-0.958835 5:0.00706217 6:0.0132787 7:0.0132785 8:0.399748 9:0.0159913 10:0.330317 11:0.119117 12:0.0295968 13:0.0762444 14:0.00864512 15:0 16:0 17:0 18:0 19:0 20:0 21:0 22:0.343071 23:0.434524 24:0.0353751 25:0.0247207 26:0.0200112 27:0.0892568 28:0.0212968 29:0.00910041 30:0.0226439 31:0.0187764 32:0.895132 33:0.0127067 34:0.00786554 35:0.025754 36:0.00451259 37:0.00934987 38:0.00388749 39:0.0220158 40:0.708481 41:0.190955 42:0.00780024 43:0.00926819 44:0.00850322 45:0.00780373 46:0.033127 47:0.0325101 48:0.00155068 
0.5 1:0.325953 2:0.0828334 3:0.591213 4:-0.95333 5:0.0220898 6:0.119113 7:0.00787822 8:0.112915 9:0.0338984 10:0.0137719 11:0.632794 12:0.168504 13:0.00392725 14:0.00422149 15:0 16:0 17:0 18:0 19:0 20:0 21:0 22:0.667115 23:0.113013 24:0.0232681 25:0.0254996 26:0.0077972 27:0.0580221 28:0.0862264 29:0.00809041 30:0.0109681 31:0.878053 32:0.0576519 33:0.0103103 34:0.0140723 35:0.0040514 36:0.0106194 37:0.013436 38:0.00761484 39:0.00419087 40:0.11 41:0.11 42:0.11 43:0.11 44:0.11 45:0.11 46:0.11 47:0.11 48:0.11 
0.5 1:0.266435 2:0.126875 3:0.60669 4:-0.955367 5:0.0297914 6:0.125568 7:0.0182624 8:0.180783 9:0.00660991 10:0.0117535 11:0.120484 12:0.00793363 13:0.585713 14:0.0386696 15:0 16:0 17:0 18:0 19:0 20:0 21:0 22:0.415544 23:0.3727 24:0.0466029 25:0.0196989 26:0.0156874 27:0.0809151 28:0.0224125 29:0.00659114 30:0.0198488 31:0.822741 32:0.0638995 33:0.030273 34:0.0148953 35:0.0098819 36:0.015696 37:0.0149201 38:0.00972624 39:0.0179668 40:0.11 41:0.11 42:0.11 43:0.11 44:0.11 45:0.11 46:0.11 47:0.11 48:0.11 
0.5 1:0.28952 2:0.112343 3:0.598137 4:-0.978557 5:0.0154759 6:0.00811842 7:0.0146487 8:0.15419 9:0.03955 10:0.339709 11:0.368492 12:0.0155248 13:0.0386117 14:0.0137973 15:0 16:0 17:0 18:0 19:0 20:0 21:0 22:0.817697 23:0.0908207 24:0.00756513 25:0.0163947 26:0.00305051 27:0.0437084 28:0.0102447 29:0.00228536 30:0.00823398 31:0.0746406 32:0.093909 33:0.706758 34:0.0246388 35:0.00957739 36:0.0421734 37:0.0211516 38:0.00965471 39:0.0174961 40:0.264793 41:0.351196 42:0.116716 43:0.0148497 44:0.0713926 45:0.0118026 46:0.142485 47:0.0173734 48:0.00939171 
0.5 1:0.557396 2:0.0637645 3:0.37884 4:0.929522 5:0.172288 6:0.850404 7:0.00657328 8:0.0506518 9:0.374066 10:0.226643 11:0.0130454 12:0.0323107 13:0.100057 14:0.0243652 15:0 16:0 17:0 18:1 19:0 20:0 21:1 22:0.0870383 23:0.237925 24:0.23916 25:0.141165 26:0.0455847 27:0.0982667 28:0.0842426 29:0.0308162 30:0.0358019 31:0.997834 32:0.000830326 33:0.000647137 34:8.29876e-05 35:0.000125936 36:8.32022e-05 37:0.000150118 38:0.000141561 39:0.000105006 40:0.674331 41:0.182965 42:0.00833013 43:0.0157079 44:0.0217812 45:0.0197559 46:0.0585947 47:0.0140003 48:0.0045336 
0.5 1:0.315494 2:0.0764059 3:0.6081 4:-0.73225 5:0.0912139 6:0.528686 7:0.0797984 8:0.119956 9:0.0456468 10:0.018417 11:0.00721599 12:0.0234508 13:0.567558 14:0.0467436 15:0 16:0 17:0 18:0 19:0 20:0 21:0 22:0.616368 23:0.14762 24:0.0474347 25:0.0340361 26:0.0205482 27:0.0665221 28:0.0389717 29:0.0115503 30:0.0169489 31:0.941777 32:0.00910939 33:0.0379186 34:0.00180501 35:0.00127012 36:0.00204048 37:0.00133073 38:0.00117583 39:0.00357318 40:0.11 41:0.11 42:0.11 43:0.11 44:0.11 45:0.11 46:0.11 47:0.11 48:0.11 
0.2949369096438564 1:0.301377 2:0.0798471 3:0.618776 4:-0.954951 5:0.112026 6:0.352945 7:0.0288728 8:0.175631 9:0.0103747 10:0.0301111 11:0.324549 12:0.223777 13:0.0224865 14:0.0721722 15:0 16:0 17:0 18:0 19:0 20:0 21:0 22:0.771034 23:0.128615 24:0.0130267 25:0.0349641 26:0.00394493 27:0.0265108 28:0.011203 29:0.00277426 30:0.00792773 31:0.11 32:0.11 33:0.11 34:0.11 35:0.11 36:0.11 37:0.11 38:0.11 39:0.11 40:0.936567 41:0.0489259 42:0.000707193 43:0.00154659 44:0.00105198 45:0.000798709 46:0.010191 47:0.00016063 48:5.14063e-05 
0.5 1:0.785297 2:0.0500746 3:0.164628 4:0.945653 5:0.450275 6:0.846429 7:0.00618036 8:0.0916225 9:0.113284 10:0.113164 11:0.0224309 12:0.0241958 13:0.141677 14:0.0371707 15:0 16:0 17:0 18:1 19:0 20:0 21:1 22:0.146073 23:0.582886 24:0.0176281 25:0.0624517 26:0.0377127 27:0.0183078 28:0.0193654 29:0.0953283 30:0.0202473 31:0.997834 32:0.000830326 33:0.000647137 34:8.29876e-05 35:0.000125936 36:8.32022e-05 37:0.000150118 38:0.000141561 39:0.000105006 40:0.912657 41:0.0419273 42:0.0229871 43:0.00427996 44:0.00359306 45:0.00184286 46:0.0053249 47:0.00286569 48:0.00452254 
0.1525197556374486 1:0.343919 2:0.0840454 3:0.572036 4:-0.965321 5:0.096517 6:0.207415 7:0.00320576 8:0.274611 9:0.0234494 10:0.107176 11:0.177867 12:0.166249 13:0.118212 14:0.0327135 15:0 16:0 17:0 18:0 19:0 20:0 21:0 22:0.0867285 23:0.0194086 24:0.109482 25:0.0141751 26:0.0203521 27:0.663653 28:0.0573749 29:0.00991201 30:0.0189137 31:0.776572 32:0.0997772 33:0.0513907 34:0.0203237 35:0.00761404 36:0.0112878 37:0.0131215 38:0.00799037 39:0.0119224 40:0.733666 41:0.157569 42:0.0181133 43:0.0107647 44:0.00718324 45:0.00231262 46:0.0158486 47:0.0518608 48:0.00268153 
0.5 1:0.670079 2:0.0307181 3:0.299202 4:0.926317 5:0.395863 6:0.699634 7:0.00985931 8:0.209572 9:0.0812387 10:0.0623428 11:0.0662417 12:0.0176683 13:0.140736 14:0.0164783 15:0 16:0 17:0 18:1 19:0 20:0 21:1 22:0.12195 23:0.380045 24:0.0457321 25:0.0325612 26:0.0401182 27:0.0444561 28:0.0344829 29:0.232097 30:0.0685578 31:0.99626 32:0.00227411 33:0.000681782 34:9.77089e-05 35:9.00378e-05 36:0.00011879 37:0.000115261 38:0.000153192 39:0.000209104 40:0.11 41:0.11 42:0.11 43:0.11 44:0.11 45:0.11 46:0.11 47:0.11 48:0.11 
0.5 1:0.289426 2:0.101642 3:0.608932 4:-0.966656 5:0.0858797 6:0.224644 7:0.00335565 8:0.339105 9:0.112044 10:0.15417 11:0.0881615 12:0.00571192 13:0.206728 14:0.00484475 15:0 16:0 17:0 18:0 19:0 20:0 21:0 22:0.0800922 23:0.0531925 24:0.223743 25:0.0155114 26:0.00769407 27:0.113953 28:0.462846 29:0.00586271 30:0.0371046 31:0.0573314 32:0.661415 33:0.0263232 34:0.0507571 35:0.069356 36:0.0300839 37:0.0701453 38:0.0133747 39:0.021213 40:0.11 41:0.11 42:0.11 43:0.11 44:0.11 45:0.11 46:0.11 47:0.11 48:0.11 
0.5 1:0.812055 2:0.0532506 3:0.134695 4:0.91174 5:0.407567 6:0.720705 7:0.00316306 8:0.143732 9:0.045489 10:0.0941309 11:0.0420221 12:0.0103796 13:0.208491 14:0.0450263 15:0 16:0 17:0 18:1 19:0 20:0 21:1 22:0.171612 23:0.352088 24:0.0941049 25:0.0972783 26:0.0304551 27:0.14552 28:0.0558199 29:0.0206082 30:0.0325129 31:0.99742 32:0.00121797 33:0.000747283 34:0.000128449 35:6.43827e-05 36:9.24882e-05 37:5.91094e-05 38:0.000154614 39:0.000115699 40:0.148541 41:0.126526 42:0.0209474 43:0.181895 44:0.226899 45:0.0522491 46:0.197923 47:0.0350585 48:0.00996172 
0.5 1:0.355968 2:0.0858845 3:0.558147 4:-0.970532 5:0.280331 6:0.437605 7:0.0340709 8:0.190073 9:0.0320123 10:0.124247 11:0.216567 12:0.0210661 13:0.0522436 14:0.0493885 15:0 16:0 17:0 18:0 19:0 20:0 21:0 22:0.434484 23:0.12314 24:0.234916 25:0.0259542 26:0.0180864 27:0.0743793 28:0.0457268 29:0.0084856 30:0.0348278 31:0.11 32:0.11 33:0.11 34:0.11 35:0.11 36:0.11 37:0.11 38:0.11 39:0.11 40:0.11 41:0.11 42:0.11 43:0.11 44:0.11 45:0.11 46:0.11 47:0.11 48:0.11 
0.5 1:0.828559 2:0.0987666 3:0.0726748 4:0.525781 5:0.513935 6:0.569588 7:0.000267926 8:0.381256 9:0.0239434 10:0.0437416 11:0.0191437 12:0.00859998 13:0.00245067 14:0.00666191 15:0 16:0 17:0 18:0 19:0 20:0 21:1 22:0.625294 23:0.0702097 24:0.0155079 25:0.014628 26:0.0313598 27:0.0242888 28:0.0773628 29:0.128916 30:0.0124329 31:0.371232 32:0.132357 33:0.0600503 34:0.0849309 35:0.0295439 36:0.0999611 37:0.123356 38:0.0574369 39:0.0411316 40:0.928461 41:0.0200705 42:0.0152196 43:0.00418328 44:0.00945419 45:0.000657617 46:0.00178516 47:0.0174964 48:0.00267192 
0.5 1:0.194844 2:0.580811 3:0.224345 4:0.511053 5:0.845732 6:0.9203 7:0.000108689 8:0.0723226 9:0.0100326 10:0.0243771 11:0.0272593 12:0.00374942 13:0.00389076 14:0.0125271 15:0 16:0 17:0 18:1 19:0 20:0 21:1 22:0.741043 23:0.0830239 24:0.0141961 25:0.0126011 26:0.00509898 27:0.00668073 28:0.123285 29:0.00656961 30:0.00750129 31:0.315307 32:0.13644 33:0.0718737 34:0.101557 35:0.0309067 36:0.144819 37:0.104289 38:0.04622 39:0.0485878 40:0.842303 41:0.0758599 42:0.00703226 43:0.00623049 44:0.00990129 45:0.00577798 46:0.0165183 47:0.0344336 48:0.00194354 
0.5 1:0.212639 2:0.520721 3:0.26664 4:-0.954982 5:0.0470113 6:0.212701 7:0.0138174 8:0.207277 9:0.15061 10:0.0922542 11:0.396516 12:0.0121147 13:0.0210627 14:0.0593361 15:0 16:0 17:0 18:0 19:0 20:0 21:0 22:0.344847 23:0.20909 24:0.151316 25:0.0443476 26:0.0251604 27:0.111581 28:0.0657571 29:0.0118378 30:0.0360626 31:0.11 32:0.11 33:0.11 34:0.11 35:0.11 36:0.11 37:0.11 38:0.11 39:0.11 40:0.943102 41:0.0324035 42:0.000808009 43:0.0130008 44:0.00229464 45:0.00067478 46:0.00102599 47:0.00610649 48:0.000583978 
0.5 1:0.32164 2:0.444409 3:0.233951 4:-0.972289 5:0.0206317 6:0.12389 7:0.00258672 8:0.149805 9:0.420198 10:0.120597 11:0.187904 12:0.0221487 13:0.0103741 14:0.065756 15:0 16:0 17:0 18:0 19:0 20:0 21:1 22:0.913021 23:0.0490464 24:0.0033908 25:0.00808969 26:0.00141406 27:0.0121457 28:0.00977277 29:0.000603753 30:0.00251533 31:0.0153879 32:0.0768541 33:0.100736 34:0.0762946 35:0.00849572 36:0.627921 37:0.0295215 38:0.00616972 39:0.0586195 40:0.11 41:0.11 42:0.11 43:0.11 44:0.11 45:0.11 46:0.11 47:0.11 48:0.11 
0.5 1:0.27767 2:0.221104 3:0.501226 4:-0.974452 5:0.00737565 6:0.323325 7:0.452001 8:0.00964443 9:0.0102593 10:0.0132741 11:0.0395161 12:0.0821217 13:0.138395 14:0.247413 15:1 16:0 17:0 18:0 19:0 20:0 21:0 22:0.751295 23:0.0622792 24:0.0189367 25:0.0104422 26:0.0109105 27:0.00710742 28:0.0700472 29:0.0468501 30:0.022132 31:0.11 32:0.11 33:0.11 34:0.11 35:0.11 36:0.11 37:0.11 38:0.11 39:0.11 40:0.912113 41:0.0385179 42:0.0183665 43:0.00214899 44:0.00442124 45:0.00207153 46:0.0183192 47:0.0031973 48:0.000843971 
0.5 1:0.284698 2:0.0888988 3:0.626403 4:-0.965154 5:0.122038 6:0.780331 7:0.00356572 8:0.0764452 9:0.00682063 10:0.0578101 11:0.0612024 12:0.00690148 13:0.635635 14:0.0295819 15:0 16:0 17:0 18:0 19:0 20:0 21:0 22:0.639605 23:0.173521 24:0.0591848 25:0.0138687 26:0.00479998 27:0.0811405 28:0.0128986 29:0.00294226 30:0.0120391 31:0.567093 32:0.107178 33:0.0748809 34:0.0517088 35:0.0222982 36:0.061951 37:0.0495438 38:0.0228956 39:0.0424511 40:0.11 41:0.11 42:0.11 43:0.11 44:0.11 45:0.11 46:0.11 47:0.11 48:0.11 
0.5 1:0.390812 2:0.0734877 3:0.5357 4:-0.96693 5:0.0846559 6:0.590654 7:0.00509437 8:0.210394 9:0.0145309 10:0.0734582 11:0.0496017 12:0.0119667 13:0.486766 14:0.0635329 15:0 16:0 17:0 18:0 19:0 20:0 21:0 22:0.674992 23:0.132625 24:0.0252584 25:0.0153746 26:0.00481424 27:0.110468 28:0.0255604 29:0.00329588 30:0.00761132 31:0.514044 32:0.112809 33:0.0822543 34:0.0595815 35:0.0255231 36:0.0687476 37:0.0686469 38:0.02571 39:0.0426836 40:0.11 41:0.11 42:0.11 43:0.11 44:0.11 45:0.11 46:0.11 47:0.11 48:0.11 
0.5 1:0.84273 2:0.0364293 3:0.120841 4:-0.961694 5:0.00155109 6:0.0481828 7:0.000235826 8:0.0134959 9:0.74813 10:0.233985 11:0.0011464 12:0.000274989 13:0.000974155 14:0.000206528 15:0 16:0 17:0 18:0 19:0 20:0 21:0 22:0.697608 23:0.117166 24:0.0210125 25:0.0268183 26:0.0182665 27:0.0650855 28:0.0278565 29:0.0104584 30:0.0157277 31:0.992215 32:0.00487564 33:0.000937469 34:0.000284021 35:0.000977961 36:0.000132569 37:0.000114926 38:3.46706e-05 39:0.000427701 40:0.907054 41:0.0244118 42:0.0218748 43:0.0210666 44:0.00117207 45:0.0109544 46:0.0060266 47:0.00694552 48:0.000494116 
0.3203231136538292 1:0.286279 2:0.402069 3:0.311651 4:-0.915762 5:0.322407 6:0.869759 7:0.00894328 8:0.0882947 9:0.00753337 10:0.0272667 11:0.0221587 12:0.425696 13:0.0661993 14:0.0315011 15:0 16:0 17:0 18:0 19:0 20:0 21:0 22:0.731876 23:0.0590968 24:0.0725749 25:0.0111593 26:0.00478974 27:0.00633681 28:0.0885696 29:0.0130926 30:0.0125048 31:0.984535 32:0.00870334 33:0.00130492 34:0.00112468 35:0.000885361 36:0.000891229 37:0.000668175 38:0.000613937 39:0.00127331 40:0.11 41:0.11 42:0.11 43:0.11 44:0.11 45:0.11 46:0.11 47:0.11 48:0.11 
0.5 1:0.434811 2:0.0477659 3:0.517423 4:-0.948039 5:0.219253 6:0.546913 7:0.0190685 8:0.215885 9:0.0127274 10:0.076034 11:0.0167646 12:0.147325 13:0.0543197 14:0.238622 15:0 16:0 17:0 18:0 19:0 20:0 21:0 22:0.774191 23:0.0501494 24:0.0631006 25:0.014715 26:0.00526333 27:0.0046988 28:0.0650835 29:0.0130451 30:0.00975334 31:0.986858 32:0.00610155 33:0.00143132 34:0.00106982 35:0.000789494 36:0.000522382 37:0.00127928 38:0.000880506 39:0.00106792 40:0.11 41:0.11 42:0.11 43:0.11 44:0.11 45:0.11 46:0.11 47:0.11 48:0.11 
-4.15 1:0.723477 2:0.03808 3:0.238443 4:-0.941769 5:0.00778284 6:0.0797552 7:0.46052 8:0.046886 9:0.151725 10:0.181057 11:0.0553539 12:0.0223899 13:0.0472172 14:0.0270689 15:0 16:0 17:0 18:0 19:0 20:0 21:0 22:0.0151282 23:0.0433102 24:0.0365397 25:0.0196297 26:0.0164802 27:0.555026 28:0.125545 29:0.129239 30:0.0591029 31:0.0219591 32:0.0492118 33:0.0341229 34:0.0509358 35:0.0157294 36:0.029321 37:0.0268162 38:0.0439343 39:0.727969 40:0.11 41:0.11 42:0.11 43:0.11 44:0.11 45:0.11 46:0.11 47:0.11 48:0.11 
-4.15 1:0.860999 2:0.0568483 3:0.0821531 4:-0.875732 5:0.00332537 6:0.0855334 7:0.296923 8:0.0447639 9:0.0468527 10:0.0499763 11:0.0362685 12:0.114513 13:0.0901129 14:0.317264 15:0 16:0 17:0 18:0 19:0 20:0 21:0 22:0.00649945 23:0.0314257 24:0.00880175 25:0.011617 26:0.00401486 27:0.0391024 28:0.115016 29:0.17959 30:0.603933 31:0.11 32:0.11 33:0.11 34:0.11 35:0.11 36:0.11 37:0.11 38:0.11 39:0.11 40:0.00336235 41:0.039804 42:0.0316479 43:0.0715948 44:0.18785 45:0.00482296 46:0.0158662 47:0.094006 48:0.551046 
-1.583127257682465 1:0.368249 2:0.172894 3:0.458858 4:0.959219 5:0.00038399 6:0.197925 7:0.746029 8:0.0015005 9:0.00230062 10:0.0040281 11:0.0207643 12:0.153088 13:0.00200584 14:0.0698997 15:0 16:0 17:0 18:0 19:0 20:0 21:0 22:0.0726994 23:0.28212 24:0.033258 25:0.0509329 26:0.0705197 27:0.25971 28:0.0934808 29:0.0290347 30:0.108245 31:0.03379 32:0.566795 33:0.0249214 34:0.0341469 35:0.0114583 36:0.0434607 37:0.11145 38:0.134074 39:0.0399025 40:0.000469413 41:0.0153623 42:0.00650576 43:0.00283976 44:0.00518057 45:0.00193028 46:0.00463426 47:0.00697261 48:0.956105 
-4.15 1:0.919708 2:0.0491829 3:0.0311092 4:-0.60878 5:0.00669628 6:0.0614253 7:0.468748 8:0.0177471 9:0.0662127 10:0.114901 11:0.0831931 12:0.112281 13:0.0143644 14:0.115857 15:0 16:0 17:0 18:0 19:0 20:0 21:0 22:0.00476585 23:0.0199199 24:0.0247584 25:0.0195816 26:0.016833 27:0.0578729 28:0.033402 29:0.129683 30:0.693183 31:0.11 32:0.11 33:0.11 34:0.11 35:0.11 36:0.11 37:0.11 38:0.11 39:0.11 40:0.066353 41:0.392386 42:0.0398794 43:0.0748954 44:0.0649335 45:0.0055752 46:0.0899802 47:0.105859 48:0.160138 
-4.15 1:0.361874 2:0.0776437 3:0.560483 4:-0.953049 5:0.0286018 6:0.647042 7:0.759213 8:0.0241057 9:0.0109072 10:0.00486459 11:0.0247253 12:0.0410581 13:0.0621102 14:0.0444139 15:0 16:0 17:0 18:0 19:0 20:0 21:1 22:0.00179995 23:0.00158784 24:0.000105249 25:0.00803486 26:0.0017131 27:0.00050356 28:0.00449403 29:0.0028425 30:0.978919 31:0.00246267 32:0.00132773 33:0.000490028 34:0.033994 35:0.000776208 36:0.000655013 37:0.00178016 38:0.00449892 39:0.954015 40:2.7782e-05 41:0.000539232 42:0.000325298 43:0.000730956 44:0.000381228 45:1.45496e-05 46:0.00434146 47:6.60005e-05 48:0.993573 
-2.02251443740613 1:0.534573 2:0.324023 3:0.141405 4:-0.916916 5:0.0078252 6:0.321127 7:0.725211 8:0.0211334 9:0.00491511 10:0.0307083 11:0.00398875 12:0.0111784 13:0.0816522 14:0.113387 15:0 16:0 17:1 18:0 19:0 20:0 21:0 22:0.00988558 23:0.0141309 24:0.0241696 25:0.0209006 26:0.00336777 27:0.00473848 28:0.117922 29:0.00432382 30:0.800562 31:0.00371969 32:0.0064978 33:0.00170831 34:0.0320099 35:0.00102221 36:0.00126833 37:0.00271922 38:0.00277464 39:0.94828 40:0.00422448 41:0.0747068 42:0.0216084 43:0.00474816 44:0.0018691 45:0.00367994 46:0.019049 47:0.0748137 48:0.795301 
-4.15 1:0.814954 2:0.112649 3:0.0723969 4:-0.962186 5:0.0239278 6:0.231055 7:0.0604829 8:0.0662647 9:0.239306 10:0.14762 11:0.0554591 12:0.36356 13:0.0346732 14:0.00870652 15:0 16:0 17:0 18:0 19:0 20:0 21:0 22:0.00687636 23:0.0430453 24:0.0182953 25:0.748188 26:0.0740205 27:0.00906828 28:0.0192637 29:0.0209665 30:0.060276 31:0.0194874 32:0.0489365 33:0.0189515 34:0.0856082 35:0.0260414 36:0.0210266 37:0.0392499 38:0.117827 39:0.622871 40:0.000229036 41:0.00525408 42:0.00393825 43:0.00607962 44:0.00491835 45:0.00151282 46:0.0189239 47:0.0118238 48:0.94732 
-4.15 1:0.837956 2:0.0864654 3:0.075579 4:-0.521935 5:0.0171626 6:0.218664 7:0.179882 8:0.0506749 9:0.0745921 10:0.223259 11:0.0694464 12:0.0888465 13:0.170415 14:0.125722 15:0 16:0 17:0 18:1 19:0 20:0 21:0 22:0.0755694 23:0.118507 24:0.0101817 25:0.0064386 26:0.00386723 27:0.0141259 28:0.224782 29:0.198534 30:0.347994 31:0.00209035 32:0.00815069 33:0.000951958 34:0.0221677 35:0.0038819 36:0.00105781 37:0.00147087 38:0.00966162 39:0.950567 40:0.0310774 41:0.170284 42:0.00713257 43:0.18122 44:0.0311317 45:0.0036319 46:0.509664 47:0.023972 48:0.0418872 
-4.15 1:0.875475 2:0.050154 3:0.0743709 4:-0.828428 5:0.000276161 6:0.142271 7:0.863781 8:0.000583522 9:0.00156665 10:0.00137324 11:0.0531132 12:0.0717659 13:0.00328312 14:0.00425733 15:0 16:0 17:0 18:0 19:0 20:0 21:0 22:0.227475 23:0.104755 24:0.0212506 25:0.0956654 26:0.187459 27:0.0132962 28:0.169213 29:0.115901 30:0.0649858 31:0.000212645 32:0.000344732 33:0.00054282 34:0.0347907 35:0.00108062 36:0.000795892 37:0.000909665 38:0.00245461 39:0.958868 40:0.0709872 41:0.117742 42:0.0284609 43:0.047137 44:0.0539563 45:0.00878372 46:0.0175999 47:0.374982 48:0.280351 
-4.15 1:0.891447 2:0.0338757 3:0.0746774 4:0.964933 5:0.0359008 6:0.158164 7:0.0511512 8:0.188143 9:0.0378145 10:0.0707821 11:0.128429 12:0.100213 13:0.17965 14:0.207917 15:0 16:0 17:0 18:0 19:0 20:0 21:1 22:0.127712 23:0.192519 24:0.0282067 25:0.061004 26:0.0418046 27:0.0598917 28:0.0724329 29:0.0843972 30:0.332032 31:0.0288967 32:0.143992 33:0.0846038 34:0.0449219 35:0.37891 36:0.0598197 37:0.0600146 38:0.103302 39:0.0955391 40:0.000325694 41:0.00246959 42:0.000715918 43:0.0178068 44:0.961992 45:0.000294851 46:0.00517757 47:0.00322412 48:0.00799326 
-4.15 1:0.914361 2:0.0363022 3:0.0493371 4:-0.962966 5:0.00197178 6:0.227967 7:0.402774 8:0.00288854 9:0.0143609 10:0.0201292 11:0.08294 12:0.436323 13:0.0223204 14:0.0162927 15:0 16:0 17:0 18:0 19:0 20:0 21:0 22:0.104819 23:0.084533 24:0.0146551 25:0.113475 26:0.178076 27:0.0116948 28:0.137336 29:0.100598 30:0.254813 31:0.000256637 32:0.000444769 33:0.000371285 34:0.0341415 35:0.00108713 36:0.000369451 37:0.000219369 38:0.00250747 39:0.960602 40:0.00260208 41:0.0147898 42:0.0251078 43:0.00377122 44:0.00951702 45:0.000863644 46:0.0230861 47:0.0110711 48:0.909191 
-4.15 1:0.613785 2:0.26586 3:0.120355 4:0.73909 5:0.00738701 6:0.6194 7:0.0300419 8:0.00713274 9:0.000475239 10:0.00447689 11:0.00108912 12:0.0145715 13:0.205427 14:0.729398 15:0 16:0 17:0 18:1 19:0 20:0 21:1 22:0.199427 23:0.134402 24:0.00489149 25:0.173927 26:0.367643 27:0.00567502 28:0.0377796 29:0.0124526 30:0.0638031 31:0.0162436 32:0.198991 33:0.0886097 34:0.0679438 35:0.0770114 36:0.0667377 37:0.215703 38:0.21417 39:0.0545902 40:2.08429e-07 41:2.82231e-07 42:1.64229e-07 43:5.47021e-07 44:0.999736 45:4.34625e-05 46:7.60913e-05 47:0.000135317 48:7.74793e-06 
-4.126776031130818 1:0.893996 2:0.0410085 3:0.0649953 4:0.936843 5:0.0252352 6:0.404337 7:0.130753 8:0.0481392 9:0.0934758 10:0.0390959 11:0.0611992 12:0.255807 13:0.0559413 14:0.290354 15:0 16:0 17:0 18:0 19:0 20:0 21:0 22:0.00744989 23:0.0244403 24:0.00617523 25:0.0289402 26:0.479236 27:0.00644744 28:0.109416 29:0.0614799 30:0.276415 31:0.0112723 32:0.0342059 33:0.0471567 34:0.782938 35:0.0317132 36:0.0272692 37:0.0176911 38:0.0101527 39:0.0376004 40:0.0140346 41:0.0990463 42:0.335766 43:0.203623 44:0.0726265 45:0.0115937 46:0.094183 47:0.0321683 48:0.136958 
-2.429905614754418 1:0.886808 2:0.0379676 3:0.0752242 4:0.945599 5:0.00104104 6:0.0636553 7:0.356816 8:0.00480555 9:0.0362877 10:0.219783 11:0.0456104 12:0.314772 13:0.013317 14:0.00756828 15:0 16:0 17:0 18:0 19:0 20:0 21:0 22:0.0299647 23:0.186662 24:0.276221 25:0.0404522 26:0.0159521 27:0.0481563 28:0.23648 29:0.0331389 30:0.132973 31:0.0596279 32:0.623722 33:0.0311473 34:0.0894733 35:0.0154185 36:0.0890685 37:0.0430009 38:0.0159924 39:0.032549 40:0.00222793 41:0.437833 42:0.0361696 43:0.0269938 44:0.00637225 45:0.00450414 46:0.105327 47:0.052472 48:0.3281 
