svm_type c_svc
kernel_type rbf
gamma 100
nr_class 2
total_sv 95
rho -1.30965
label 0 1
probA -3.22986
probB 0.373299
nr_sv 68 27
SV
1 1:0.074889868 2:0.022026432 3:0.052863436 4:0.10572687 5:0.026431718 6:0.0088105727 7:0.017621145 8:0.026431718 9:0.017621145 10:0.013215859 11:0.066079295 12:0.057268722 13:0.035242291 14:0.035242291 15:0.057268722 16:0.079295154 17:0.10572687 18:0.039647577 19:0.066079295 20:0.092511013 
1 1:0.043373494 2:0.072289157 3:0.06746988 4:0.11807229 5:0.055421687 6:0.014457831 7:0.036144578 8:0.057831325 9:0.024096386 10:0.0072289157 11:0.043373494 12:0.079518072 13:0.06746988 14:0.05060241 15:0.043373494 16:0.040963855 17:0.062650602 18:0.03373494 19:0.06746988 20:0.014457831 
1 1:0.077283372 2:0.077283372 3:0.051522248 4:0.15925059 5:0.037470726 6:0.018735363 7:0.028103044 8:0.032786885 9:0.032786885 10:0.0093676815 11:0.051522248 12:0.06557377 13:0.049180328 14:0.018735363 15:0.053864169 16:0.044496487 17:0.058548009 18:0.042154567 19:0.042154567 20:0.049180328 
1 1:0.040816327 2:0.071428571 3:0.071428571 4:0.14285714 5:0.051020408 6:0.040816327 7:0.020408163 8:0.020408163 9:0.020408163 10:0.020408163 11:0.081632653 12:0.071428571 13:0.071428571 14:0.020408163 15:0.051020408 16:0.040816327 17:0.020408163 18:0.010204082 19:0.040816327 20:0.091836735 
1 1:0.041666667 2:0.069444444 3:0.041666667 4:0.13888889 5:0.032407407 6:0.018518519 7:0.027777778 8:0.055555556 9:0.037037037 10:0.0092592593 11:0.055555556 12:0.064814815 13:0.064814815 14:0.041666667 15:0.046296296 16:0.050925926 17:0.064814815 18:0.018518519 19:0.060185185 20:0.060185185 
0.7077606371331995 1:0.050691244 2:0.046082949 3:0.032258065 4:0.15207373 5:0.036866359 6:0.023041475 7:0.01843318 8:0.064516129 9:0.036866359 10:0.0092165899 11:0.041474654 12:0.096774194 13:0.055299539 14:0.041474654 15:0.064516129 16:0.050691244 17:0.069124424 18:0.013824885 19:0.041474654 20:0.055299539 
0.6465293858109742 1:0.071428571 2:0.042857143 3:0.042857143 4:0.092857143 5:0.05 6:0.057142857 7:0.021428571 8:0.064285714 9:0.071428571 10:0.035714286 11:0.035714286 12:0.071428571 13:0.042857143 14:0.05 15:0.014285714 16:0.085714286 17:0.042857143 18:0.0071428571 19:0.085714286 20:0.014285714 
1 1:0.067264574 2:0.044843049 3:0.085201794 4:0.11210762 5:0.062780269 6:0.0089686099 7:0.0089686099 8:0.049327354 9:0.053811659 10:0.02690583 11:0.058295964 12:0.085201794 13:0.040358744 14:0.040358744 15:0.040358744 16:0.040358744 17:0.062780269 18:0.01793722 19:0.053811659 20:0.040358744 
0.9113279787929481 1:0.12030075 2:0.045112782 3:0.037593985 4:0.12030075 5:0.060150376 6:0.030075188 7:0.015037594 8:0.030075188 9:0.052631579 10:0.022556391 11:0.052631579 12:0.090225564 13:0.082706767 14:0.015037594 15:0.015037594 16:0.045112782 17:0.045112782 18:0.015037594 19:0.07518797 20:0.030075188 
1 1:0.033613445 2:0.058823529 3:0.042016807 4:0.13865546 5:0.050420168 6:0.029411765 7:0.025210084 8:0.06302521 9:0.025210084 10:0.016806723 11:0.033613445 12:0.092436975 13:0.046218487 14:0.054621849 15:0.046218487 16:0.058823529 17:0.071428571 18:0.016806723 19:0.058823529 20:0.037815126 
1 1:0.061135371 2:0.043668122 3:0.061135371 4:0.13537118 5:0.048034934 6:0.030567686 7:0.034934498 8:0.026200873 9:0.030567686 10:0.0087336245 11:0.048034934 12:0.087336245 13:0.03930131 14:0.056768559 15:0.03930131 16:0.048034934 17:0.065502183 18:0.034934498 19:0.048034934 20:0.052401747 
1 1:0.01793722 2:0.049327354 3:0.067264574 4:0.12556054 5:0.062780269 6:0.022421525 7:0.02690583 8:0.040358744 9:0.022421525 10:0.01793722 11:0.02690583 12:0.085201794 13:0.053811659 14:0.053811659 15:0.02690583 16:0.062780269 17:0.071748879 18:0.035874439 19:0.080717489 20:0.049327354 
0.842441829126974 1:0.036199095 2:0.058823529 3:0.063348416 4:0.13122172 5:0.036199095 6:0.027149321 7:0.036199095 8:0.031674208 9:0.022624434 10:0.018099548 11:0.036199095 12:0.090497738 13:0.07239819 14:0.054298643 15:0.031674208 16:0.045248869 17:0.058823529 18:0.040723982 19:0.049773756 20:0.058823529 
1 1:0.1047619 2:0.060714286 3:0.064285714 4:0.10952381 5:0.045238095 6:0.013095238 7:0.021428571 8:0.051190476 9:0.042857143 10:0.016666667 11:0.042857143 12:0.094047619 13:0.048809524 14:0.038095238 15:0.030952381 16:0.057142857 17:0.044047619 18:0.033333333 19:0.039285714 20:0.041666667 
0.3382268918615319 1:0.071428571 2:0.1122449 3:0.030612245 4:0.16326531 5:0.010204082 6:0.030612245 7:0.030612245 8:0.010204082 9:0.071428571 10:0.020408163 11:0.091836735 12:0.040816327 13:0.071428571 14:0.010204082 15:0.06122449 16:0.030612245 17:0.040816327 18:0.010204082 19:0.010204082 20:0.081632653 
0.6993219954661614 1:0.08 2:0.13 3:0.05 4:0.13 5:0.01 6:0.03 7:0.02 8:0.03 9:0.04 10:0.01 11:0.09 12:0.03 13:0.02 14:0.01 15:0.02 16:0.07 17:0.08 18:0.02 19:0.05 20:0.08 
0.3884316152267671 1:0.079365079 2:0.063492063 3:0.031746032 4:0.15079365 5:0.023809524 6:0.01984127 7:0.031746032 8:0.027777778 9:0.015873016 10:0.003968254 11:0.063492063 12:0.067460317 13:0.051587302 14:0.027777778 15:0.05952381 16:0.03968254 17:0.047619048 18:0.027777778 19:0.043650794 20:0.12301587 
1 1:0.058139535 2:0.046511628 3:0.087209302 4:0.087209302 5:0.046511628 6:0.034883721 7:0.011627907 8:0.034883721 9:0.034883721 10:0.0058139535 11:0.01744186 12:0.040697674 13:0.052325581 14:0.069767442 15:0.052325581 16:0.075581395 17:0.087209302 18:0.046511628 19:0.063953488 20:0.046511628 
0.3851498560978645 1:0.10526316 2:0.13815789 3:0.032894737 4:0.13815789 5:0.0065789474 6:0 7:0.019736842 8:0.013157895 9:0.019736842 10:0.032894737 11:0.14473684 12:0.078947368 13:0.039473684 14:0.0065789474 15:0.026315789 16:0.019736842 17:0.019736842 18:0.013157895 19:0.0065789474 20:0.13815789 
1 1:0.041237113 2:0.06185567 3:0.030927835 4:0.10309278 5:0.041237113 6:0.010309278 7:0.051546392 8:0.020618557 9:0.051546392 10:0.041237113 11:0.072164948 12:0.10309278 13:0.06185567 14:0.041237113 15:0.020618557 16:0.06185567 17:0.06185567 18:0.010309278 19:0.030927835 20:0.082474227 
1 1:0.090551181 2:0.059055118 3:0.027559055 4:0.12992126 5:0.015748031 6:0.027559055 7:0.019685039 8:0.047244094 9:0.031496063 10:0.011811024 11:0.047244094 12:0.098425197 13:0.039370079 14:0.023622047 15:0.039370079 16:0.05511811 17:0.090551181 18:0.0039370079 19:0.078740157 20:0.062992126 
0.406973142894639 1:0.033333333 2:0.05 3:0.055555556 4:0.11666667 5:0.072222222 6:0.027777778 7:0.022222222 8:0.061111111 9:0.027777778 10:0.0055555556 11:0.0055555556 12:0.05 13:0.05 14:0.061111111 15:0.016666667 16:0.061111111 17:0.13333333 18:0.033333333 19:0.077777778 20:0.038888889 
1 1:0.055555556 2:0.05 3:0.044444444 4:0.12777778 5:0.061111111 6:0.027777778 7:0.027777778 8:0.05 9:0.022222222 10:0.0055555556 11:0.011111111 12:0.055555556 13:0.055555556 14:0.066666667 15:0.022222222 16:0.061111111 17:0.11666667 18:0.033333333 19:0.055555556 20:0.05 
0.603355197444974 1:0.042016807 2:0.10084034 3:0.092436975 4:0.1092437 5:0.033613445 6:0 7:0.033613445 8:0.016806723 9:0.016806723 10:0 11:0.050420168 12:0.067226891 13:0.042016807 14:0.025210084 15:0.084033613 16:0.025210084 17:0.10084034 18:0.016806723 19:0.075630252 20:0.067226891 
0.05921503394619255 1:0.054726368 2:0.10447761 3:0.054726368 4:0.16915423 5:0.019900498 6:0.029850746 7:0.0099502488 8:0.059701493 9:0.0099502488 10:0.0049751244 11:0.059701493 12:0.029850746 13:0.059701493 14:0.024875622 15:0.094527363 16:0.049751244 17:0.049751244 18:0.044776119 19:0.014925373 20:0.054726368 
1 1:0.096774194 2:0.053763441 3:0.079569892 4:0.068817204 5:0.053763441 6:0.030107527 7:0.010752688 8:0.060215054 9:0.032258065 10:0.017204301 11:0.055913978 12:0.07311828 13:0.058064516 14:0.066666667 15:0.025806452 16:0.055913978 17:0.04516129 18:0.023655914 19:0.053763441 20:0.038709677 
1 1:0.08097166 2:0.044534413 3:0.056680162 4:0.099190283 5:0.070850202 6:0.024291498 7:0.026315789 8:0.048582996 9:0.022267206 10:0.020242915 11:0.042510121 12:0.070850202 13:0.058704453 14:0.044534413 15:0.05465587 16:0.038461538 17:0.05465587 18:0.04048583 19:0.062753036 20:0.038461538 
1 1:0.033653846 2:0.051282051 3:0.1025641 4:0.09775641 5:0.046474359 6:0.0064102564 7:0.020833333 8:0.048076923 9:0.052884615 10:0.017628205 11:0.056089744 12:0.051282051 13:0.049679487 14:0.056089744 15:0.046474359 16:0.048076923 17:0.072115385 18:0.043269231 19:0.051282051 20:0.048076923 
0.8067183743854891 1:0.015873016 2:0.058201058 3:0.052910053 4:0.14285714 5:0.052910053 6:0.021164021 7:0.031746032 8:0.063492063 9:0.037037037 10:0.0052910053 11:0.021164021 12:0.10582011 13:0.037037037 14:0.021164021 15:0.068783069 16:0.058201058 17:0.079365079 18:0.015873016 19:0.058201058 20:0.052910053 
1 1:0.068181818 2:0.083333333 3:0.068181818 4:0.14393939 5:0.053030303 6:0.037878788 7:0.03030303 8:0.045454545 9:0.0075757576 10:0.0075757576 11:0.045454545 12:0.083333333 13:0.060606061 14:0.045454545 15:0.037878788 16:0.015151515 17:0.053030303 18:0.022727273 19:0.053030303 20:0.037878788 
0.8821826403969345 1:0.07635468 2:0.073891626 3:0.088669951 4:0.07635468 5:0.044334975 6:0.02955665 7:0.012315271 8:0.019704433 9:0.051724138 10:0.019704433 11:0.051724138 12:0.044334975 13:0.054187192 14:0.051724138 15:0.041871921 16:0.061576355 17:0.061576355 18:0.032019704 19:0.086206897 20:0.022167488 
1 1:0.13488372 2:0.079069767 3:0.074418605 4:0.069767442 5:0.03255814 6:0.018604651 7:0.037209302 8:0.046511628 9:0.013953488 10:0.013953488 11:0.10697674 12:0.051162791 13:0.046511628 14:0.037209302 15:0.051162791 16:0.023255814 17:0.065116279 18:0.03255814 19:0.03255814 20:0.03255814 
1 1:0.079903148 2:0.065375303 3:0.099273608 4:0.05811138 5:0.043583535 6:0.021791768 7:0.014527845 8:0.026634383 9:0.050847458 10:0.00968523 11:0.065375303 12:0.053268765 13:0.060532688 14:0.053268765 15:0.02905569 16:0.062953995 17:0.05811138 18:0.016949153 19:0.094430993 20:0.036319613 
1 1:0.086956522 2:0.076086957 3:0.054347826 4:0.086956522 5:0.030434783 6:0.02826087 7:0.0086956522 8:0.045652174 9:0.034782609 10:0.039130435 11:0.07173913 12:0.089130435 13:0.041304348 14:0.043478261 15:0.026086957 16:0.05 17:0.05 18:0.034782609 19:0.052173913 20:0.05 
0.2537850065985454 1:0.0875 2:0.075 3:0.125 4:0.0875 5:0.0375 6:0.025 7:0.0375 8:0.0125 9:0.025 10:0.0375 11:0.0625 12:0.075 13:0.0125 14:0.025 15:0.0375 16:0.025 17:0.075 18:0.025 19:0.05 20:0.0625 
0.6221318673964825 1:0.079207921 2:0.10891089 3:0.02970297 4:0.10891089 5:0.0099009901 6:0.0099009901 7:0.01980198 8:0.02970297 9:0.01980198 10:0.03960396 11:0.099009901 12:0.059405941 13:0.0099009901 14:0.01980198 15:0.079207921 16:0.04950495 17:0.099009901 18:0.02970297 19:0.02970297 20:0.069306931 
1 1:0.054870268 2:0.046788601 3:0.053168864 4:0.094427903 5:0.046788601 6:0.011059124 7:0.025946406 8:0.04636325 9:0.033602722 10:0.015737984 11:0.054444917 12:0.09315185 13:0.065929392 14:0.053168864 15:0.046788601 16:0.051467461 17:0.062951935 18:0.031901319 19:0.067205444 20:0.044236495 
1 1:0.033707865 2:0.10674157 3:0.078651685 4:0.1011236 5:0.02247191 6:0.016853933 7:0.04494382 8:0.033707865 9:0.04494382 10:0.011235955 11:0.028089888 12:0.078651685 13:0.073033708 14:0.011235955 15:0.0056179775 16:0.056179775 17:0.1011236 18:0.011235955 19:0.06741573 20:0.073033708 
0.295874771644478 1:0.035460993 2:0.078014184 3:0.063829787 4:0.11347518 5:0.056737589 6:0.035460993 7:0.014184397 8:0.035460993 9:0.042553191 10:0.021276596 11:0.035460993 12:0.042553191 13:0.042553191 14:0.035460993 15:0.070921986 16:0.056737589 17:0.09929078 18:0.014184397 19:0.028368794 20:0.078014184 
0.1070447726185295 1:0.072463768 2:0.11594203 3:0.043478261 4:0.1884058 5:0.019323671 6:0.024154589 7:0.028985507 8:0.028985507 9:0.014492754 10:0.019323671 11:0.072463768 12:0.082125604 13:0.043478261 14:0 15:0.096618357 16:0.019323671 17:0.053140097 18:0.028985507 19:0.024154589 20:0.024154589 
1 1:0.075555556 2:0.044444444 3:0.066666667 4:0.093333333 5:0.057777778 6:0.013333333 7:0.026666667 8:0.062222222 9:0.044444444 10:0.031111111 11:0.044444444 12:0.10222222 13:0.044444444 14:0.035555556 15:0.04 16:0.057777778 17:0.053333333 18:0.013333333 19:0.066666667 20:0.026666667 
1 1:0.071111111 2:0.057777778 3:0.08 4:0.075555556 5:0.057777778 6:0.013333333 7:0.022222222 8:0.071111111 9:0.035555556 10:0.031111111 11:0.035555556 12:0.093333333 13:0.057777778 14:0.04 15:0.031111111 16:0.057777778 17:0.053333333 18:0.017777778 19:0.075555556 20:0.022222222 
1 1:0.080357143 2:0.044642857 3:0.084821429 4:0.089285714 5:0.053571429 6:0.013392857 7:0.013392857 8:0.071428571 9:0.035714286 10:0.026785714 11:0.049107143 12:0.10267857 13:0.0625 14:0.03125 15:0.03125 16:0.040178571 17:0.066964286 18:0.013392857 19:0.0625 20:0.026785714 
1 1:0.056795132 2:0.056795132 3:0.081135903 4:0.11561866 5:0.073022312 6:0.014198783 7:0.026369168 8:0.060851927 9:0.020283976 10:0.010141988 11:0.032454361 12:0.095334686 13:0.064908722 14:0.032454361 15:0.054766734 16:0.050709939 17:0.048681542 18:0.028397566 19:0.052738337 20:0.024340771 
1 1:0.068833652 2:0.072657744 3:0.072657744 4:0.10325048 5:0.045889101 6:0.028680688 7:0.022944551 8:0.063097514 9:0.045889101 10:0.013384321 11:0.053537285 12:0.051625239 13:0.055449331 14:0.045889101 15:0.030592734 16:0.051625239 17:0.059273423 18:0.04206501 19:0.034416826 20:0.038240918 
1 1:0.051668461 2:0.057050592 3:0.06350915 4:0.1065662 5:0.050592034 6:0.010764263 7:0.030139935 8:0.051668461 9:0.032292788 10:0.023681378 11:0.040904198 12:0.087190527 13:0.066738428 14:0.036598493 15:0.041980624 16:0.048439182 17:0.069967707 18:0.029063509 19:0.06350915 20:0.037674919 
0.1961791753801316 1:0.03030303 2:0.15151515 3:0.090909091 4:0.11111111 5:0 6:0 7:0.03030303 8:0.04040404 9:0.02020202 10:0.03030303 11:0.03030303 12:0.12121212 13:0.050505051 14:0 15:0.060606061 16:0.070707071 17:0.050505051 18:0.01010101 19:0.060606061 20:0.04040404 
0.3766171095099256 1:0.05 2:0.14 3:0.04 4:0.12 5:0 6:0.01 7:0.04 8:0.05 9:0.02 10:0.02 11:0.04 12:0.11 13:0.08 14:0 15:0.07 16:0.06 17:0.05 18:0.01 19:0.05 20:0.04 
1 1:0.045364892 2:0.060267368 3:0.055226824 4:0.11724742 5:0.062458909 6:0.0054788516 7:0.017313171 8:0.049090511 9:0.033092264 10:0.0081087004 11:0.037475345 12:0.085908394 13:0.06574622 14:0.054131054 15:0.050405435 16:0.051062897 17:0.065307911 18:0.025202718 19:0.078238001 20:0.03287311 
0.08705066636539009 1:0.04 2:0.08 3:0.08 4:0.15 5:0.02 6:0.02 7:0.02 8:0.04 9:0.04 10:0 11:0.04 12:0.07 13:0.08 14:0.01 15:0.07 16:0.02 17:0.1 18:0 19:0.1 20:0.02 
1 1:0.045258621 2:0.066810345 3:0.068965517 4:0.096982759 5:0.051724138 6:0.017241379 7:0.028017241 8:0.058189655 9:0.025862069 10:0.010775862 11:0.045258621 12:0.075431034 13:0.056034483 14:0.051724138 15:0.028017241 16:0.051724138 17:0.081896552 18:0.010775862 19:0.079741379 20:0.049568966 
0.7617991942182544 1:0.063953488 2:0.046511628 3:0.063953488 4:0.098837209 5:0.069767442 6:0.029069767 7:0.01744186 8:0.029069767 9:0.058139535 10:0.0058139535 11:0.046511628 12:0.034883721 13:0.081395349 14:0.063953488 15:0.029069767 16:0.040697674 17:0.11627907 18:0.0058139535 19:0.058139535 20:0.040697674 
0.5386532258355524 1:0.03902439 2:0.071544715 3:0.060162602 4:0.069918699 5:0.056910569 6:0.056910569 7:0.032520325 8:0.05203252 9:0.032520325 10:0.0016260163 11:0.042276423 12:0.068292683 13:0.03902439 14:0.027642276 15:0.056910569 16:0.066666667 17:0.081300813 18:0.021138211 19:0.07804878 20:0.045528455 
0.5818974396296148 1:0.021834061 2:0.048034934 3:0.10043668 4:0.069868996 5:0.069868996 6:0.030567686 7:0.0087336245 8:0.030567686 9:0.030567686 10:0.026200873 11:0.048034934 12:0.12227074 13:0.061135371 14:0.043668122 15:0.043668122 16:0.069868996 17:0.061135371 18:0.013100437 19:0.030567686 20:0.069868996 
1 1:0.073235686 2:0.06391478 3:0.07057257 4:0.091877497 5:0.029294274 6:0.0093209055 7:0.017310253 8:0.055925433 9:0.045272969 10:0.023968043 11:0.082556591 12:0.061251664 13:0.059920107 14:0.037283622 15:0.039946738 16:0.042609854 17:0.057256991 18:0.047936085 19:0.03195739 20:0.058588549 
1 1:0.055288462 2:0.091346154 3:0.057692308 4:0.13942308 5:0.045673077 6:0.014423077 7:0.016826923 8:0.055288462 9:0.019230769 10:0.0048076923 11:0.036057692 12:0.057692308 13:0.0625 14:0.060096154 15:0.033653846 16:0.050480769 17:0.067307692 18:0.043269231 19:0.072115385 20:0.016826923 
0.1444406099716778 1:0.080675422 2:0.099437148 3:0.076923077 4:0.082551595 5:0.063789869 6:0.009380863 7:0.011257036 8:0.048780488 9:0.028142589 10:0.015009381 11:0.082551595 12:0.075046904 13:0.07879925 14:0.061913696 15:0.022514071 16:0.067542214 17:0.024390244 18:0.031894934 19:0.011257036 20:0.028142589 
1 1:0.069230769 2:0.061538462 3:0.084615385 4:0.067307692 5:0.059615385 6:0.011538462 7:0.011538462 8:0.069230769 9:0.025 10:0.013461538 11:0.084615385 12:0.055769231 13:0.057692308 14:0.075 15:0.038461538 16:0.067307692 17:0.051923077 18:0.034615385 19:0.021153846 20:0.040384615 
1 1:0.089416058 2:0.091240876 3:0.071167883 4:0.10218978 5:0.054744526 6:0.012773723 7:0.0072992701 8:0.054744526 9:0.027372263 10:0.016423358 11:0.069343066 12:0.076642336 13:0.087591241 14:0.049270073 15:0.032846715 16:0.062043796 17:0.018248175 18:0.034671533 19:0.0091240876 20:0.032846715 
0.252319711675559 1:0.075320513 2:0.057692308 3:0.078525641 4:0.083333333 5:0.072115385 6:0.016025641 7:0.019230769 8:0.033653846 9:0.075320513 10:0.019230769 11:0.03525641 12:0.10416667 13:0.092948718 14:0.051282051 15:0.030448718 16:0.068910256 17:0.033653846 18:0.012820513 19:0.012820513 20:0.02724359 
0.9308720301577997 1:0.071428571 2:0.10248447 3:0.043478261 4:0.090062112 5:0.062111801 6:0.031055901 7:0.01863354 8:0.049689441 9:0.01242236 10:0.0031055901 11:0.040372671 12:0.10559006 13:0.062111801 14:0.055900621 15:0.043478261 16:0.062111801 17:0.034161491 18:0.01242236 19:0.037267081 20:0.062111801 
0.06186127447985063 1:0.095679012 2:0.080246914 3:0.061728395 4:0.086419753 5:0.058641975 6:0.024691358 7:0.015432099 8:0.070987654 9:0.0092592593 10:0.0030864198 11:0.033950617 12:0.070987654 13:0.089506173 14:0.070987654 15:0.052469136 16:0.080246914 17:0.018518519 18:0.0092592593 19:0.024691358 20:0.043209877 
1 1:0.099447514 2:0.099447514 3:0.071823204 4:0.10497238 5:0.044198895 6:0.038674033 7:0.022099448 8:0.049723757 9:0.033149171 10:0.0055248619 11:0.049723757 12:0.093922652 13:0.055248619 14:0.027624309 15:0.033149171 16:0.044198895 17:0.038674033 18:0.016574586 19:0.044198895 20:0.027624309 
0.805033303503379 1:0.068376068 2:0.085470085 3:0.048433048 4:0.094017094 5:0.085470085 6:0.0056980057 7:0.017094017 8:0.048433048 9:0.065527066 10:0.0085470085 11:0.045584046 12:0.065527066 13:0.03988604 14:0.1025641 15:0.03988604 16:0.031339031 17:0.056980057 18:0.014245014 19:0.051282051 20:0.025641026 
1 1:0.056105611 2:0.11881188 3:0.099009901 4:0.095709571 5:0.02970297 6:0.01980198 7:0.01320132 8:0.056105611 9:0.02640264 10:0.01320132 11:0.056105611 12:0.079207921 13:0.04620462 14:0.01980198 15:0.0330033 16:0.056105611 17:0.04950495 18:0.02970297 19:0.052805281 20:0.04950495 
0.7671330969896281 1:0.084158416 2:0.074257426 3:0.064356436 4:0.17326733 5:0.024752475 6:0.004950495 7:0.0099009901 8:0.064356436 9:0.034653465 10:0.0099009901 11:0.079207921 12:0.11881188 13:0.044554455 14:0.014851485 15:0.04950495 16:0.014851485 17:0.0099009901 18:0.054455446 19:0.024752475 20:0.044554455 
1 1:0.073863636 2:0.065340909 3:0.034090909 4:0.19318182 5:0.019886364 6:0.014204545 7:0.011363636 8:0.022727273 9:0.0085227273 10:0.0085227273 11:0.125 12:0.085227273 13:0.085227273 14:0.034090909 15:0.0625 16:0.034090909 17:0.019886364 18:0.025568182 19:0.028409091 20:0.048295455 
1 1:0.057627119 2:0.06440678 3:0.081355932 4:0.088135593 5:0.030508475 6:0.013559322 7:0.013559322 8:0.030508475 9:0.061016949 10:0.027118644 11:0.06779661 12:0.06440678 13:0.030508475 14:0.037288136 15:0.06779661 16:0.061016949 17:0.071186441 18:0.023728814 19:0.06779661 20:0.040677966 
-0.4005046886621536 1:0.053892216 2:0.071856287 3:0.089820359 4:0.067864271 5:0.051896208 6:0.0099800399 7:0.0079840319 8:0.067864271 9:0.025948104 10:0.005988024 11:0.047904192 12:0.085828343 13:0.053892216 14:0.03992016 15:0.02994012 16:0.071856287 17:0.091816367 18:0.013972056 19:0.091816367 20:0.01996008 
-0.9160679990340762 1:0.067708333 2:0.046875 3:0.083333333 4:0.125 5:0.03125 6:0.0052083333 7:0.026041667 8:0.041666667 9:0.0052083333 10:0.020833333 11:0.0625 12:0.046875 13:0.020833333 14:0.041666667 15:0.036458333 16:0.072916667 17:0.088541667 18:0.026041667 19:0.083333333 20:0.067708333 
-1.255031086009662 1:0.069047619 2:0.078571429 3:0.05952381 4:0.045238095 5:0.052380952 6:0.0047619048 7:0.019047619 8:0.035714286 9:0.035714286 10:0.033333333 11:0.064285714 12:0.047619048 13:0.05 14:0.019047619 15:0.016666667 16:0.12142857 17:0.1 18:0.014285714 19:0.12619048 20:0.0071428571 
-4.123315573349205 1:0.067395264 2:0.047358834 3:0.047358834 4:0.10928962 5:0.052823315 6:0.0091074681 7:0.029143898 8:0.049180328 9:0.056466302 10:0.023679417 11:0.034608379 12:0.089253188 13:0.061930783 14:0.04007286 15:0.025500911 16:0.06010929 17:0.069216758 18:0.032786885 19:0.051001821 20:0.043715847 
-2.403280134594636 1:0.038095238 2:0.066666667 3:0.066666667 4:0.085714286 5:0.052380952 6:0.0095238095 7:0.033333333 8:0.076190476 9:0.038095238 10:0.0047619048 11:0.0095238095 12:0.09047619 13:0.09047619 14:0.023809524 15:0.042857143 16:0.047619048 17:0.076190476 18:0.019047619 19:0.076190476 20:0.052380952 
-0.8232701747888319 1:0.045977011 2:0.10344828 3:0.076628352 4:0.088122605 5:0.04789272 6:0.011494253 7:0.017241379 8:0.057471264 9:0.042145594 10:0.0076628352 11:0.042145594 12:0.067049808 13:0.028735632 14:0.04789272 15:0.036398467 16:0.086206897 17:0.091954023 18:0.021072797 19:0.067049808 20:0.013409962 
-2.636558172293956 1:0.022857143 2:0.074285714 3:0.057142857 4:0.10571429 5:0.1 6:0.014285714 7:0.025714286 8:0.094285714 9:0.025714286 10:0.011428571 11:0.06 12:0.097142857 13:0.065714286 14:0.04 15:0.037142857 16:0.034285714 17:0.034285714 18:0.02 19:0.06 20:0.02 
-4.3 1:0.048430493 2:0.035874439 3:0.052017937 4:0.11121076 5:0.071748879 6:0.012556054 7:0.023318386 8:0.046636771 9:0.034977578 10:0.0071748879 11:0.048430493 12:0.10224215 13:0.043946188 14:0.061883408 15:0.029596413 16:0.064573991 17:0.064573991 18:0.022421525 19:0.064573991 20:0.053811659 
-1.732417374588888 1:0.065454545 2:0.076363636 3:0.050909091 4:0.13454545 5:0.043636364 6:0.021818182 7:0.021818182 8:0.036363636 9:0.025454545 10:0.029090909 11:0.10545455 12:0.08 13:0.069090909 14:0.025454545 15:0.043636364 16:0.043636364 17:0.036363636 18:0.018181818 19:0.029090909 20:0.043636364 
-2.50148583749547 1:0.121875 2:0.103125 3:0.04375 4:0.134375 5:0.0125 6:0.01875 7:0.021875 8:0.01875 9:0.015625 10:0.028125 11:0.134375 12:0.053125 13:0.05 14:0.0125 15:0.05625 16:0.040625 17:0.028125 18:0.05 19:0.00625 20:0.05 
-4.2222618126544 1:0.046511628 2:0.07751938 3:0.068475452 4:0.124677 5:0.041343669 6:0.0064599483 7:0.01744186 8:0.03875969 9:0.034237726 10:0.013565891 11:0.043281654 12:0.079457364 13:0.054263566 14:0.043281654 15:0.054909561 16:0.066537468 17:0.05878553 18:0.023901809 19:0.05620155 20:0.050387597 
-0.8317377662994752 1:0.06547619 2:0.092261905 3:0.05952381 4:0.11309524 5:0.06547619 6:0.017857143 7:0.014880952 8:0.0625 9:0.029761905 10:0.014880952 11:0.035714286 12:0.050595238 13:0.035714286 14:0.041666667 15:0.026785714 16:0.056547619 17:0.056547619 18:0.032738095 19:0.071428571 20:0.056547619 
-0.3104972429322747 1:0.093023256 2:0.058139535 3:0.046511628 4:0.10465116 5:0.052325581 6:0.01744186 7:0.023255814 8:0.052325581 9:0.023255814 10:0.011627907 11:0.052325581 12:0.069767442 13:0.029069767 14:0.034883721 15:0.01744186 16:0.058139535 17:0.10465116 18:0.040697674 19:0.075581395 20:0.034883721 
-0.2185791969545407 1:0.072916667 2:0.0625 3:0.097222222 4:0.065972222 5:0.055555556 6:0.0034722222 7:0.020833333 8:0.079861111 9:0.024305556 10:0.0034722222 11:0.052083333 12:0.072916667 13:0.069444444 14:0.03125 15:0.052083333 16:0.065972222 17:0.097222222 18:0.0069444444 19:0.034722222 20:0.03125 
-2.924462987448524 1:0.039619651 2:0.10301109 3:0.088748019 4:0.11727417 5:0.047543582 6:0.0031695721 7:0.012678288 8:0.05229794 9:0.028526149 10:0.0063391442 11:0.039619651 12:0.085578447 13:0.082408875 14:0.041204437 15:0.047543582 16:0.041204437 17:0.061806656 18:0.025356577 19:0.045958796 20:0.030110935 
-1.385166382098066 1:0.05362776 2:0.066246057 3:0.041009464 4:0.11356467 5:0.03785489 6:0.0031545741 7:0.018927445 8:0.044164038 9:0.041009464 10:0.015772871 11:0.031545741 12:0.041009464 13:0.028391167 14:0.03785489 15:0.047318612 16:0.11987382 17:0.13249211 18:0.028391167 19:0.056782334 20:0.041009464 
-2.57717064246608 1:0.11267606 2:0.046948357 3:0.10328638 4:0.070422535 5:0.061032864 6:0.0093896714 7:0.023474178 8:0.075117371 9:0.0093896714 10:0.0093896714 11:0.042253521 12:0.056338028 13:0.070422535 14:0.051643192 15:0.03286385 16:0.051643192 17:0.046948357 18:0.023474178 19:0.0657277 20:0.037558685 
-3.842506613094532 1:0.069199457 2:0.048846676 3:0.078697422 4:0.081411126 5:0.059701493 6:0.017639077 7:0.020352782 8:0.056987788 9:0.046132972 10:0.018995929 11:0.048846676 12:0.042062415 13:0.043419267 14:0.063772049 15:0.029850746 16:0.067842605 17:0.061058345 18:0.029850746 19:0.070556309 20:0.044776119 
-0.001968097477144391 1:0.040322581 2:0.096774194 3:0.076612903 4:0.086693548 5:0.054435484 6:0.010080645 7:0.0080645161 8:0.068548387 9:0.028225806 10:0.0080645161 11:0.038306452 12:0.066532258 13:0.032258065 14:0.034274194 15:0.024193548 16:0.076612903 17:0.11290323 18:0.014112903 19:0.10483871 20:0.018145161 
-4.219646589140203 1:0.068071313 2:0.074554295 3:0.072933549 4:0.14100486 5:0.032414911 6:0.030794165 7:0.01458671 8:0.024311183 9:0.017828201 10:0.017828201 11:0.066450567 12:0.09076175 13:0.059967585 14:0.02917342 15:0.035656402 16:0.038897893 17:0.061588331 18:0.021069692 19:0.025931929 20:0.076175041 
-0.9847005146879201 1:0.061776062 2:0.038610039 3:0.057915058 4:0.096525097 5:0.054054054 6:0.023166023 7:0.023166023 8:0.057915058 9:0.046332046 10:0.0077220077 11:0.042471042 12:0.046332046 13:0.046332046 14:0.042471042 15:0.038610039 16:0.065637066 17:0.084942085 18:0.030888031 19:0.096525097 20:0.038610039 
-2.982985673510671 1:0.077617329 2:0.068592058 3:0.072202166 4:0.10649819 5:0.059566787 6:0.0090252708 7:0.025270758 8:0.045126354 9:0.025270758 10:0.02166065 11:0.066787004 12:0.081227437 13:0.0433213 14:0.045126354 15:0.039711191 16:0.039711191 17:0.075812274 18:0.02166065 19:0.046931408 20:0.028880866 
-1.195750300493034 1:0.11512027 2:0.042955326 3:0.077319588 4:0.104811 5:0.046391753 6:0.015463918 7:0.027491409 8:0.036082474 9:0.041237113 10:0.0051546392 11:0.068728522 12:0.046391753 13:0.051546392 14:0.032646048 15:0.034364261 16:0.070446735 17:0.058419244 18:0.032646048 19:0.032646048 20:0.060137457 
-1.784361563765285 1:0.084291188 2:0.084291188 3:0.057471264 4:0.1302682 5:0.034482759 6:0.0038314176 7:0.022988506 8:0.045977011 9:0.042145594 10:0.0076628352 11:0.049808429 12:0.061302682 13:0.030651341 14:0.022988506 15:0.045977011 16:0.057471264 17:0.076628352 18:0.0076628352 19:0.10344828 20:0.030651341 
-2.532331574879524 1:0.095794393 2:0.063084112 3:0.074766355 4:0.10514019 5:0.037383178 6:0.01635514 7:0.021028037 8:0.065420561 9:0.035046729 10:0.01635514 11:0.037383178 12:0.070093458 13:0.074766355 14:0.021028037 15:0.042056075 16:0.039719626 17:0.067757009 18:0.025700935 19:0.053738318 20:0.037383178 
-0.4304910942209251 1:0.051724138 2:0.054187192 3:0.051724138 4:0.049261084 5:0.049261084 6:0.014778325 7:0.017241379 8:0.041871921 9:0.032019704 10:0.027093596 11:0.061576355 12:0.036945813 13:0.04679803 14:0.039408867 15:0.032019704 16:0.14285714 17:0.10344828 18:0.022167488 19:0.10837438 20:0.017241379 
-1.923778741619971 1:0.065769806 2:0.082212257 3:0.061285501 4:0.11958146 5:0.034379671 6:0.020926756 7:0.014947683 8:0.047832586 9:0.019431988 10:0.029895366 11:0.094170404 12:0.092675635 13:0.052316891 14:0.019431988 15:0.047832586 16:0.040358744 17:0.040358744 18:0.02690583 19:0.028400598 20:0.061285501 
