svm_type c_svc
kernel_type rbf
gamma 0.01
nr_class 2
total_sv 18
rho 0.417176
label 0 1
probA -9.10329
probB 5.10184
nr_sv 11 7
SV
44.93124581915864 1:0.778256 2:0.0697829 3:0.151961 4:-0.946955 5:0.117165 6:0.274203 7:0.00528053 8:0.197207 9:0.190684 10:0.0852924 11:0.0134299 12:0.0307585 13:0.336775 14:0.0234078 15:0 16:0 17:0 18:0 19:0 20:0 21:0 22:0.0364384 23:0.0984844 24:0.208339 25:0.387967 26:0.070785 27:0.0554065 28:0.0383687 29:0.0961115 30:0.00809877 31:0.11 32:0.11 33:0.11 34:0.11 35:0.11 36:0.11 37:0.11 38:0.11 39:0.11 40:0.11 41:0.11 42:0.11 43:0.11 44:0.11 45:0.11 46:0.11 47:0.11 48:0.11 
9.695011282389428 1:0.593442 2:0.305616 3:0.100942 4:0.965259 5:0.0475275 6:0.669158 7:0.00164697 8:0.0362272 9:0.59993 10:0.276878 11:0.0152947 12:0.00583846 13:0.00320908 14:0.013448 15:0 16:0 17:1 18:0 19:0 20:0 21:1 22:0.02679 23:0.077373 24:0.366816 25:0.0357546 26:0.0106476 27:0.218163 28:0.217855 29:0.00642146 30:0.0401798 31:0.000842927 32:0.102946 33:0.382993 34:0.00130529 35:0.00181025 36:0.509566 37:8.7144e-05 38:0.000335825 39:0.000113936 40:0.11 41:0.11 42:0.11 43:0.11 44:0.11 45:0.11 46:0.11 47:0.11 48:0.11 
11.62406147065922 1:0.856538 2:0.0728249 3:0.0706373 4:0.94724 5:0.250413 6:0.688804 7:0.00306669 8:0.105759 9:0.0148174 10:0.077054 11:0.0329548 12:0.00419183 13:0.00991174 14:0.501832 15:0 16:0 17:0 18:0 19:0 20:0 21:1 22:0.0260046 23:0.0501524 24:0.00518311 25:0.0956202 26:0.74821 27:0.00681641 28:0.0327065 29:0.0325156 30:0.00279155 31:0.532072 32:0.333613 33:0.0591864 34:0.0309317 35:0.00619048 36:0.00939612 37:0.00510913 38:0.00938243 39:0.0141185 40:0.0373906 41:0.630285 42:0.209398 43:0.00861185 44:0.0105104 45:0.0036112 46:0.0390872 47:0.00966599 48:0.0514403 
8.416401316224674 1:0.772619 2:0.161042 3:0.0663387 4:-0.913598 5:0.00461542 6:0.13553 7:0.0154852 8:0.0403336 9:0.0995294 10:0.0717491 11:0.177318 12:0.355874 13:0.0588298 14:0.176265 15:0 16:0 17:0 18:0 19:0 20:0 21:0 22:0.0387946 23:0.557219 24:0.196762 25:0.0316575 26:0.0163337 27:0.0651352 28:0.0310233 29:0.0535058 30:0.00956936 31:0.00154363 32:0.0351598 33:0.112205 34:0.00157057 35:0.00219073 36:0.838208 37:0.0037189 38:0.00396372 39:0.00143941 40:1.8814e-06 41:1.0446e-05 42:0.998584 43:8.79718e-06 44:1.72828e-05 45:0.00102649 46:5.62884e-05 47:0.000290585 48:3.82585e-06 
2.811181230532062 1:0.363366 2:0.453095 3:0.183539 4:0.644971 5:0.0154417 6:0.717303 7:0.00557071 8:0.0359076 9:0.467409 10:0.392316 11:0.0299613 12:0.00644173 13:0.00367224 14:0.0432796 15:0 16:0 17:0 18:0 19:0 20:0 21:0 22:0.022585 23:0.148802 24:0.475704 25:0.0252254 26:0.0142372 27:0.236478 28:0.033543 29:0.00585632 30:0.0375682 31:0.00467216 32:0.0893625 33:0.734598 34:0.0126697 35:0.0399906 36:0.0395359 37:0.0177862 38:0.0528268 39:0.00855778 40:0.11 41:0.11 42:0.11 43:0.11 44:0.11 45:0.11 46:0.11 47:0.11 48:0.11 
57.48833092913976 1:0.251762 2:0.518894 3:0.229344 4:0.947464 5:0.0841567 6:0.234581 7:0.00980322 8:0.175753 9:0.284183 10:0.0541648 11:0.0628539 12:0.195022 13:0.0512215 14:0.0828417 15:0 16:0 17:0 18:0 19:0 20:0 21:0 22:0.00940525 23:0.0954056 24:0.099213 25:0.66951 26:0.0452051 27:0.0166783 28:0.0525178 29:0.0108792 30:0.00118609 31:0.11 32:0.11 33:0.11 34:0.11 35:0.11 36:0.11 37:0.11 38:0.11 39:0.11 40:0.0310666 41:0.149264 42:0.155828 43:0.163766 44:0.036861 45:0.0205077 46:0.153762 47:0.273708 48:0.0152363 
14.80122395020877 1:0.250326 2:0.446442 3:0.303232 4:-0.973147 5:0.003071 6:0.114578 7:0.462652 8:0.0232794 9:0.345282 10:0.0825492 11:0.0155051 12:0.00929592 13:0.0540904 14:0.00427492 15:0 16:0 17:0 18:1 19:0 20:0 21:0 22:0.0608215 23:0.202308 24:0.185132 25:0.0649165 26:0.0125273 27:0.200632 28:0.0757087 29:0.00982424 30:0.18813 31:0.0190333 32:0.162872 33:0.0221257 34:0.566097 35:0.0155365 36:0.0561235 37:0.0777673 38:0.0284556 39:0.0519883 40:0.0148892 41:0.240395 42:0.0348731 43:0.0398859 44:0.0102804 45:0.0277216 46:0.0485122 47:0.071778 48:0.511665 
8.315418742653192 1:0.165758 2:0.639977 3:0.194265 4:-0.967826 5:0.0254934 6:0.338685 7:0.525859 8:0.106302 9:0.105047 10:0.117771 11:0.0800656 12:0.00733129 13:0.0286957 14:0.00343594 15:0 16:0 17:0 18:0 19:0 20:0 21:0 22:0.0814649 23:0.0967036 24:0.167697 25:0.0188877 26:0.0112667 27:0.515977 28:0.0309269 29:0.00712918 30:0.0699473 31:0.00310843 32:0.054669 33:0.0482513 34:0.0137281 35:0.00202781 36:0.8272 37:0.0276206 38:0.00772887 39:0.0156659 40:0.11 41:0.11 42:0.11 43:0.11 44:0.11 45:0.11 46:0.11 47:0.11 48:0.11 
37.65498188341615 1:0.261763 2:0.117653 3:0.620585 4:-0.965854 5:0.0189145 6:0.114051 7:0.0557049 8:0.31825 9:0.0661539 10:0.268858 11:0.228642 12:0.0209804 13:0.00476264 14:0.0177339 15:0 16:0 17:0 18:0 19:0 20:0 21:0 22:0.0303828 23:0.268337 24:0.383392 25:0.0174841 26:0.0136488 27:0.22261 28:0.0247762 29:0.00737894 30:0.0319903 31:0.00201256 32:0.0747435 33:0.30437 34:0.00532184 35:0.0029419 36:0.57872 37:0.0178289 38:0.00787446 39:0.00618683 40:0.11 41:0.11 42:0.11 43:0.11 44:0.11 45:0.11 46:0.11 47:0.11 48:0.11 
5.943773145614968 1:0.215415 2:0.575785 3:0.2088 4:0.862479 5:0.00956519 6:0.37119 7:0.122241 8:0.0251635 9:0.0610413 10:0.0650707 11:0.121953 12:0.54707 13:0.0192522 14:0.0286423 15:0 16:0 17:0 18:0 19:0 20:0 21:1 22:0.0330417 23:0.102719 24:0.181624 25:0.0183134 26:0.021698 27:0.202885 28:0.178216 29:0.0554413 30:0.206062 31:0.0583501 32:0.323494 33:0.0847597 34:0.165578 35:0.0396676 36:0.0975021 37:0.0918024 38:0.0487552 39:0.0900911 40:0.00509032 41:0.711898 42:0.126375 43:0.0105334 44:0.00071563 45:0.10419 46:0.0194355 47:0.00898168 48:0.0127805 
5.022507706201964 1:0.524008 2:0.298737 3:0.177256 4:0.653623 5:0.126994 6:0.669613 7:0.02999 8:0.0895934 9:0.176445 10:0.123446 11:0.0930706 12:0.33719 13:0.00734229 14:0.0159297 15:0 16:0 17:0 18:0 19:0 20:0 21:1 22:0.0369663 23:0.153067 24:0.126578 25:0.0111058 26:0.0078072 27:0.0483217 28:0.328061 29:0.0466081 30:0.241485 31:0.805506 32:0.0672094 33:0.0640372 34:0.00658267 35:0.00549392 36:0.00915494 37:0.0279998 38:0.00465934 39:0.0093567 40:0.11 41:0.11 42:0.11 43:0.11 44:0.11 45:0.11 46:0.11 47:0.11 48:0.11 
-22.35298435946759 1:0.870046 2:0.0555288 3:0.0744253 4:-0.580357 5:0.00323711 6:0.074474 7:0.83898 8:0.00803438 9:0.00275798 10:0.0138896 11:0.00952581 12:0.050532 13:0.0392365 14:0.0338063 15:0 16:0 17:0 18:0 19:0 20:0 21:0 22:0.0525264 23:0.030871 24:0.0137189 25:0.360855 26:0.004903 27:0.0280415 28:0.020597 29:0.0107561 30:0.477731 31:0.00558604 32:0.0274456 33:0.00789421 34:0.0453068 35:0.0050745 36:0.0164685 37:0.0413879 38:0.00861387 39:0.842223 40:0.11 41:0.11 42:0.11 43:0.11 44:0.11 45:0.11 46:0.11 47:0.11 48:0.11 
-26.44822864906626 1:0.906592 2:0.0422909 3:0.0511166 4:0.90391 5:0.00616656 6:0.00991273 7:0.0330222 8:0.0465742 9:0.00865228 10:0.00583032 11:0.00354434 12:0.00604472 13:0.879185 14:0.0109805 15:0 16:0 17:0 18:0 19:0 20:0 21:0 22:0.1519 23:0.217223 24:0.168792 25:0.0758422 26:0.020561 27:0.0667435 28:0.193441 29:0.01578 30:0.0897167 31:0.0276807 32:0.16729 33:0.0256485 34:0.2112 35:0.0132703 36:0.0659862 37:0.108 38:0.0185338 39:0.362391 40:0.11 41:0.11 42:0.11 43:0.11 44:0.11 45:0.11 46:0.11 47:0.11 48:0.11 
-6.228152289036295 1:0.437045 2:0.350747 3:0.212208 4:0.963051 5:0.00542483 6:0.0568817 7:0.0550009 8:0.0486061 9:0.00586642 10:0.0578339 11:0.729122 12:0.0790536 13:0.00669626 14:0.0123963 15:0 16:0 17:0 18:1 19:0 20:0 21:0 22:0.0244667 23:0.0582189 24:0.0673291 25:0.011097 26:0.00761701 27:0.0242049 28:0.0625737 29:0.709131 30:0.0353614 31:0.0280909 32:0.228411 33:0.0334796 34:0.113953 35:0.101655 36:0.0261574 37:0.035604 38:0.265616 39:0.167033 40:1.25891e-12 41:4.16306e-12 42:3.07027e-12 43:5.36884e-12 44:1.60671e-12 45:1.45018e-12 46:3.74961e-12 47:3.72766e-12 48:1 
-74.90706436001047 1:0.239023 2:0.172274 3:0.588703 4:-0.954455 5:0.00861812 6:0.157264 7:0.405796 8:0.037367 9:0.0060241 10:0.0859337 11:0.178608 12:0.224625 13:0.0170769 14:0.0359501 15:0 16:0 17:0 18:0 19:0 20:0 21:0 22:0.0569148 23:0.123313 24:0.065258 25:0.03584 26:0.0150518 27:0.0833082 28:0.365621 29:0.186221 30:0.068472 31:0.0145081 32:0.0431274 33:0.0320405 34:0.0500629 35:0.206711 36:0.0253902 37:0.037801 38:0.404656 39:0.185703 40:7.4849e-05 41:0.00264461 42:0.000433777 43:0.000272828 44:0.00324282 45:0.00026923 46:0.022118 47:0.969891 48:0.00105329 
-8.339529062330964 1:0.712204 2:0.0561713 3:0.231624 4:0.916194 5:0.0254147 6:0.555431 7:0.0883311 8:0.0360839 9:0.0201822 10:0.163563 11:0.0208589 12:0.176608 13:0.0369409 14:0.432017 15:0 16:0 17:0 18:0 19:0 20:0 21:0 22:0.186672 23:0.0370831 24:0.00403635 25:0.0211259 26:0.00378586 27:0.00614574 28:0.0343683 29:0.0590384 30:0.647745 31:0.0188515 32:0.183604 33:0.132183 34:0.0200458 35:0.0135981 36:0.575793 37:0.0288547 38:0.00660605 39:0.020464 40:0.096969 41:0.121084 42:0.0148824 43:0.054161 44:0.00769558 45:0.0332998 46:0.0255377 47:0.0881801 48:0.55819 
-58.96753928217165 1:0.869638 2:0.0374645 3:0.0928974 4:0.921169 5:0.00335195 6:0.371043 7:0.0196397 8:0.0129894 9:0.0221107 10:0.532082 11:0.22883 12:0.0697577 13:0.00759059 14:0.103647 15:0 16:0 17:0 18:0 19:0 20:0 21:0 22:0.0126671 23:0.156244 24:0.511564 25:0.0516243 26:0.0133723 27:0.167251 28:0.0819262 29:0.00289994 30:0.00245116 31:0.000655727 32:0.0472446 33:0.0492633 34:0.00263566 35:0.00303557 36:0.876493 37:0.0116381 38:0.00800114 39:0.00103316 40:0.0340168 41:0.388425 42:0.0309469 43:0.0117577 44:0.0641614 45:0.00661575 46:0.0588185 47:0.0491013 48:0.356157 
-9.46063947411562 1:0.894421 2:0.036965 3:0.0686138 4:-0.622628 5:0.0235923 6:0.248028 7:0.252433 8:0.256139 9:0.191198 10:0.161247 11:0.0470174 12:0.010548 13:0.0504379 14:0.00738759 15:0 16:0 17:1 18:0 19:0 20:0 21:0 22:0.026083 23:0.123913 24:0.0765349 25:0.0790519 26:0.01859 27:0.350335 28:0.0275561 29:0.0404634 30:0.257473 31:0.000685797 32:0.00736196 33:0.00173119 34:0.0321636 35:0.000901029 36:0.000710888 37:0.00413919 38:0.00165522 39:0.950651 40:2.43741e-06 41:0.00259223 42:2.43624e-05 43:0.000358808 44:2.3074e-05 45:0.000143509 46:5.24956e-05 47:1.83593e-05 48:0.996785 
