svm_type c_svc
kernel_type rbf
gamma 0.1
nr_class 2
total_sv 497
rho 0.255312
label 0 1
probA -18.4713
probB -2.04239
nr_sv 369 128
SV
0.01 1:0.00129135 2:0.671051 3:0.120041 4:0.207617 5:-0.953031 6:0.00430382 7:0.174291 8:0.632598 9:0.0189944 10:0.0153148 11:0.603096 12:0.114575 13:0.186589 14:0.0248934 15:0.0140874 16:0.00586931 17:0.0122766 18:0 19:0 20:0 21:0 22:0 23:0 24:0 25:0.0215963 26:0.0815129 27:0.359872 28:0.0139117 29:0.00445081 30:0.0321174 31:0.0213315 32:0.00388211 33:0.0374272 34:0.423898 35:0.00369662 36:0.117859 37:0.393047 38:0.00368658 39:0.00207058 40:0.00635962 41:0.00365103 42:0.00398774 43:0.0297719 44:0.43587 45:0.0149782 46:0.0470502 47:0.272431 48:0.00329584 49:0.00306885 50:0.00398466 51:0.0179241 52:0.0155931 53:0.0952569 54:0.526417 
0.01 1:0.00261668 2:0.006996 3:0.980766 4:0.00962113 5:-0.965259 6:0.00439698 7:0.0912078 8:-0.903882 9:0.0301278 10:0.0189587 11:0.389164 12:0.381506 13:0.12821 14:0.0258023 15:0.0148801 16:0.00350189 17:0.00345243 18:0 19:0 20:0 21:0 22:0 23:0 24:0 25:0.0231121 26:0.0372498 27:0.0795123 28:0.00887176 29:0.00374451 30:0.0178829 31:0.0219034 32:0.00409745 33:0.0275735 34:0.776052 35:0.00925783 36:0.559758 37:0.177252 38:0.0103567 39:0.0130074 40:0.00947064 41:0.00903196 42:0.00928148 43:0.03904 44:0.163544 45:0.00174355 46:0.0194197 47:0.00974688 48:0.00504627 49:0.00225469 50:0.00425414 51:0.0157612 52:0.0120591 53:0.0452393 54:0.884475 
0.01 1:0.00318092 2:0.146537 3:0.00534918 4:0.844933 5:-0.976483 6:0.00562201 7:0.116252 8:0.537603 9:0.0501619 10:0.0208829 11:0.270474 12:0.389955 13:0.22455 14:0.0172378 15:0.00807206 16:0.00491543 17:0.00812893 18:0 19:0 20:0 21:0 22:0 23:0 24:1 25:0.0146866 26:0.0202655 27:0.00684015 28:0.00896387 29:0.00489466 30:0.00399367 31:0.0150375 32:0.01955 33:0.155494 34:0.750274 35:0.000405664 36:0.0251902 37:0.138654 38:0.00150411 39:0.00146392 40:0.0173319 41:0.00161378 42:0.00291164 43:0.0029027 44:0.808022 45:0.000577848 46:0.0562639 47:0.010638 48:0.0111623 49:0.00189916 50:0.0168109 51:0.00718906 52:0.00231548 53:0.00957257 54:0.883571 
0.01 1:0.0284379 2:0.0831345 3:0.787093 4:0.101335 5:-0.847878 6:0.0061174 7:0.11797 8:-0.946108 9:0.0337115 10:0.0301937 11:0.159141 12:0.567013 13:0.167646 14:0.0157312 15:0.00844206 16:0.00238577 17:0.00961936 18:0 19:0 20:0 21:0 22:0 23:0 24:1 25:0.00590259 26:0.014782 27:0.00701876 28:0.00859059 29:0.00517066 30:0.00439383 31:0.016342 32:0.0121703 33:0.0334425 34:0.892187 35:0.000331658 36:0.0218061 37:0.216857 38:0.000789939 39:0.000463683 40:0.082812 41:0.00153147 42:0.000768692 43:0.000805578 44:0.673834 45:0.1 46:0.1 47:0.1 48:0.1 49:0.1 50:0.1 51:0.1 52:0.1 53:0.1 54:0.1 
0.01 1:0.000235672 2:0.00892747 3:0.989248 4:0.00158841 5:-0.96164 6:0.00382805 7:0.658735 8:-0.885893 9:0.000621329 10:0.00344252 11:0.0307919 12:0.948046 13:0.00785523 14:0.00338648 15:0.000525755 16:0.0010761 17:0.000426538 18:0 19:0 20:0 21:0 22:0 23:0 24:0 25:0.00685905 26:0.0233369 27:0.117282 28:0.00655809 29:0.00215392 30:0.0268393 31:0.0148706 32:0.00164737 33:0.033888 34:0.766565 35:0.00995353 36:0.0652187 37:0.124505 38:0.0121087 39:0.00560235 40:0.0289464 41:0.0165433 42:0.00594297 43:0.0157951 44:0.715383 45:0.1 46:0.1 47:0.1 48:0.1 49:0.1 50:0.1 51:0.1 52:0.1 53:0.1 54:0.1 
0.01 1:0.000461466 2:0.0115937 3:0.985191 4:0.00275398 5:-0.965596 6:0.0601645 7:0.916818 8:-0.977507 9:0.00879233 10:0.0152044 11:0.21075 12:0.628591 13:0.0282886 14:0.0102079 15:0.00371583 16:0.0256506 17:0.00863498 18:0 19:0 20:0 21:0 22:0 23:0 24:0 25:0.00642973 26:0.0186155 27:0.0420708 28:0.00441075 29:0.0014111 30:0.0150455 31:0.010273 32:0.00131892 33:0.0264447 34:0.87398 35:0.0116084 36:0.0706827 37:0.127279 38:0.0155325 39:0.00803798 40:0.0381174 41:0.0144743 42:0.0101944 43:0.0204103 44:0.683663 45:0.02636 46:0.178271 47:0.0219088 48:0.0441411 49:0.0204065 50:0.0745755 51:0.0357076 52:0.0262193 53:0.0246373 54:0.547773 
0.01 1:0.000188396 2:0.0276457 3:0.971264 4:0.000901894 5:-0.971067 6:0.0305149 7:0.739723 8:-0.808871 9:0.0161867 10:0.0137284 11:0.0347596 12:0.833922 13:0.0209922 14:0.013387 15:0.00518758 16:0.0266032 17:0.00471801 18:0 19:0 20:0 21:0 22:0 23:0 24:0 25:0.00911451 26:0.020221 27:0.0966276 28:0.00352154 29:0.00157403 30:0.0100471 31:0.0107404 32:0.00167801 33:0.02187 34:0.824606 35:0.0114477 36:0.0655485 37:0.131756 38:0.0131392 39:0.00551401 40:0.0210121 41:0.0164135 42:0.00829698 43:0.0210075 44:0.705865 45:0.1 46:0.1 47:0.1 48:0.1 49:0.1 50:0.1 51:0.1 52:0.1 53:0.1 54:0.1 
0.01 1:0.000826362 2:0.397866 3:0.59703 4:0.00427733 5:-0.953296 6:0.00464333 7:0.181317 8:-0.521481 9:0.00826007 10:0.0227756 11:0.26154 12:0.523951 13:0.139979 14:0.0207449 15:0.00519463 16:0.00226886 17:0.0106427 18:0 19:0 20:0 21:0 22:0 23:0 24:0 25:0.0289853 26:0.0509706 27:0.0299026 28:0.0312254 29:0.00476425 30:0.0253666 31:0.0325952 32:0.00268776 33:0.08076 34:0.712742 35:0.00572243 36:0.378102 37:0.484107 38:0.0185742 39:0.0264677 40:0.0143136 41:0.00659238 42:0.00348845 43:0.0160778 44:0.0465537 45:0.00863604 46:0.211076 47:0.135642 48:0.0021569 49:0.00108797 50:0.0468323 51:0.0246642 52:0.0393056 53:0.0558821 54:0.474717 
0.01 1:0.0189562 2:0.0712137 3:0.887988 4:0.0218424 5:-0.956351 6:0.114454 7:0.580412 8:-0.966224 9:0.00399521 10:0.127527 11:0.292302 12:0.0324136 13:0.0556018 14:0.241154 15:0.117937 16:0.00903575 17:0.00557861 18:1 19:0 20:0 21:0 22:0 23:0 24:1 25:0.416655 26:0.0467637 27:0.0667671 28:0.0137762 29:0.116361 30:0.0380787 31:0.0728707 32:0.0147613 33:0.0551341 34:0.158832 35:0.1 36:0.1 37:0.1 38:0.1 39:0.1 40:0.1 41:0.1 42:0.1 43:0.1 44:0.1 45:0.420035 46:0.0360691 47:0.00911713 48:0.00343692 49:0.00538475 50:0.0142717 51:0.026336 52:0.00747382 53:0.0046809 54:0.473194 
0.01 1:0.179219 2:0.345973 3:0.35496 4:0.119848 5:-0.975723 6:0.0178524 7:0.388617 8:-0.644724 9:0.0070995 10:0.0183048 11:0.626632 12:0.262947 13:0.0471474 14:0.0038901 15:0.00119969 16:0.0118192 17:0.0031084 18:0 19:0 20:0 21:0 22:0 23:0 24:0 25:0.0483352 26:0.0610456 27:0.0291631 28:0.015857 29:0.0067619 30:0.019019 31:0.0301033 32:0.00402687 33:0.0258121 34:0.759876 35:0.0116145 36:0.568158 37:0.0782085 38:0.0120744 39:0.0100527 40:0.0871192 41:0.0135091 42:0.0109989 43:0.0166726 44:0.191592 45:9.60685e-09 46:5.58468e-08 47:2.63361e-08 48:2.91909e-06 49:1.30079e-06 50:3.62133e-06 51:0.000107808 52:6.86808e-06 53:7.50355e-06 54:0.99987 
0.01 1:0.000589561 2:0.00761674 3:0.985924 4:0.00587011 5:-0.959401 6:0.00854159 7:0.335817 8:-0.977138 9:0.0186256 10:0.0304832 11:0.260616 12:0.476884 13:0.0896735 14:0.0467338 15:0.00360257 16:0.00684383 17:0.0579961 18:0 19:0 20:0 21:0 22:0 23:0 24:0 25:0.0381628 26:0.0566341 27:0.0268294 28:0.0133341 29:0.00556406 30:0.0230099 31:0.0233651 32:0.00394683 33:0.0299349 34:0.779219 35:0.00972944 36:0.505287 37:0.0798622 38:0.0132734 39:0.00778355 40:0.0888104 41:0.00743882 42:0.00651301 43:0.00891447 44:0.272388 45:1.15811e-08 46:5.93491e-08 47:2.8232e-08 48:2.15227e-06 49:1.60635e-07 50:1.51884e-05 51:7.12839e-05 52:4.2122e-06 53:3.46899e-05 54:0.999872 
0.01 1:0.000143305 2:0.0185849 3:0.979567 4:0.00170452 5:-0.971013 6:0.00396191 7:0.250866 8:-0.798349 9:0.0146436 10:0.010089 11:0.144801 12:0.792398 13:0.0233222 14:0.00613494 15:0.000484994 16:0.00261029 17:0.00155478 18:0 19:0 20:0 21:0 22:0 23:0 24:1 25:0.00551688 26:0.0232442 27:0.0199258 28:0.00636619 29:0.00338782 30:0.0068945 31:0.0142763 32:0.00232175 33:0.0259666 34:0.8921 35:0.0313318 36:0.158441 37:0.0322798 38:0.0323135 39:0.0159066 40:0.0179303 41:0.0167461 42:0.0126237 43:0.167593 44:0.514835 45:0.0125144 46:0.0747828 47:0.0587595 48:0.0909322 49:0.00843332 50:0.034958 51:0.0180718 52:0.0304878 53:0.224107 54:0.446953 
0.01 1:0.000364137 2:0.0109176 3:0.981025 4:0.00769272 5:-0.951803 6:0.00555646 7:0.20638 8:-0.978687 9:0.0239601 10:0.0528271 11:0.17905 12:0.660795 13:0.0406942 14:0.0191556 15:0.00125476 16:0.0123141 17:0.00439361 18:0 19:0 20:0 21:0 22:0 23:0 24:1 25:0.006972 26:0.0881846 27:0.01963 28:0.00565005 29:0.0028249 30:0.00868534 31:0.00825371 32:0.00228668 33:0.0225578 34:0.834955 35:0.0256495 36:0.169459 37:0.0400998 38:0.0322162 39:0.0183841 40:0.0198709 41:0.0163451 42:0.0165128 43:0.160613 44:0.500849 45:0.0899517 46:0.104536 47:0.0199472 48:0.0875953 49:0.0187232 50:0.215737 51:0.0264665 52:0.123095 53:0.290191 54:0.0237569 
0.01 1:0.000251127 2:0.00386975 3:0.986463 4:0.00941654 5:-0.964686 6:0.00415691 7:0.217767 8:-0.617405 9:0.00760036 10:0.0166502 11:0.347459 12:0.546555 13:0.0480607 14:0.0153902 15:0.00134324 16:0.00125815 17:0.0115259 18:0 19:0 20:0 21:0 22:0 23:0 24:0 25:0.0107337 26:0.0525658 27:0.0401995 28:0.0108207 29:0.00448677 30:0.0549812 31:0.0314155 32:0.002896 33:0.0457137 34:0.746187 35:0.0200845 36:0.104509 37:0.0575178 38:0.0209989 39:0.00730638 40:0.0842072 41:0.0239101 42:0.00582665 43:0.0179426 44:0.657697 45:0.104486 46:0.135804 47:0.0268001 48:0.0459333 49:0.0864088 50:0.00815964 51:0.0246271 52:0.352179 53:0.159511 54:0.0560908 
0.01 1:0.000477678 2:0.0342461 3:0.956051 4:0.00922496 5:-0.961025 6:0.00360066 7:0.405489 8:-0.897679 9:0.00258378 10:0.00558351 11:0.0776397 12:0.879231 13:0.0127918 14:0.00331263 15:0.000364287 16:0.000990719 17:0.0139016 18:0 19:0 20:0 21:0 22:0 23:0 24:1 25:0.00755373 26:0.0296772 27:0.0309297 28:0.0056769 29:0.00364223 30:0.0406255 31:0.0105497 32:0.00280776 33:0.031772 34:0.836765 35:0.0165455 36:0.0774782 37:0.0802284 38:0.0153347 39:0.00471653 40:0.116479 41:0.017726 42:0.00729443 43:0.0357515 44:0.628446 45:0.00294122 46:0.00341083 47:0.000869071 48:0.000224211 49:0.000143626 50:0.00227404 51:0.00177686 52:0.00162822 53:0.0235155 54:0.963216 
0.01 1:0.000557424 2:0.0884009 3:0.908242 4:0.00279924 5:-0.957148 6:0.101591 7:0.484808 8:-0.788819 9:0.0172936 10:0.0768645 11:0.198144 12:0.200482 13:0.274965 14:0.0124414 15:0.00632452 16:0.00656191 17:0.105333 18:0 19:0 20:0 21:0 22:0 23:0 24:0 25:0.0386118 26:0.0675797 27:0.0618489 28:0.0236836 29:0.00998917 30:0.0397752 31:0.0205577 32:0.00744821 33:0.0171178 34:0.713388 35:0.0224247 36:0.118938 37:0.0705866 38:0.0366851 39:0.0130326 40:0.0533886 41:0.0332085 42:0.022133 43:0.0381559 44:0.591447 45:0.1 46:0.1 47:0.1 48:0.1 49:0.1 50:0.1 51:0.1 52:0.1 53:0.1 54:0.1 
0.01 1:0.00111693 2:0.248601 3:0.735221 4:0.0150611 5:-0.97499 6:0.0168486 7:0.56385 8:-0.615216 9:0.0142452 10:0.0133907 11:0.0638769 12:0.792254 13:0.0859473 14:0.00364307 15:0.00164203 16:0.0010923 17:0.00705986 18:0 19:0 20:0 21:0 22:0 23:0 24:0 25:0.0224247 26:0.0351254 27:0.0437561 28:0.0156414 29:0.00650266 30:0.0216724 31:0.0209943 32:0.00542478 33:0.0141542 34:0.814304 35:0.0246749 36:0.109171 37:0.066062 38:0.036157 39:0.010137 40:0.0511768 41:0.037988 42:0.0206434 43:0.0455114 44:0.598478 45:2.37742e-05 46:0.000828236 47:0.00446258 48:0.000362582 49:2.20592e-05 50:0.000115616 51:0.000397877 52:0.000109079 53:0.00111296 54:0.992565 
0.01 1:0.00120712 2:0.0978029 3:0.872433 4:0.0285568 5:-0.956896 6:0.0341905 7:0.505749 8:-0.678226 9:0.00898422 10:0.0340343 11:0.338474 12:0.330235 13:0.127973 14:0.0359867 15:0.0527821 16:0.00551335 17:0.0318276 18:0 19:0 20:0 21:0 22:0 23:0 24:0 25:0.01331 26:0.0235476 27:0.0777738 28:0.018535 29:0.0041495 30:0.0288923 31:0.0204782 32:0.00516613 33:0.0285866 34:0.779561 35:0.0220649 36:0.128178 37:0.0581608 38:0.0367382 39:0.0102824 40:0.0652413 41:0.035894 42:0.0136803 43:0.0373782 44:0.592382 45:0.000557182 46:0.00406399 47:0.00611974 48:4.70691e-05 49:4.62113e-05 50:0.000830047 51:0.00253852 52:0.000957583 53:0.0111655 54:0.973674 
0.01 1:0.000359658 2:0.0131364 3:0.98159 4:0.00491411 5:-0.956666 6:0.0391377 7:0.470957 8:-0.992186 9:0.00461518 10:0.0490821 11:0.373874 12:0.336256 13:0.0814356 14:0.0120865 15:0.0859369 16:0.00388022 17:0.0136957 18:0 19:0 20:0 21:0 22:0 23:0 24:0 25:0.0265253 26:0.0333204 27:0.113053 28:0.0265417 29:0.00550381 30:0.0563478 31:0.0239088 32:0.00446959 33:0.0421965 34:0.668133 35:0.0203022 36:0.110438 37:0.0565503 38:0.034563 39:0.00915623 40:0.0525146 41:0.034325 42:0.014467 43:0.0366792 44:0.631004 45:0.000402332 46:0.041765 47:0.0158644 48:0.00101242 49:0.000145771 50:0.0104808 51:0.00217578 52:0.00351255 53:0.0179555 54:0.906685 
0.01 1:0.0136484 2:0.0467712 3:0.174398 4:0.765183 5:-0.95029 6:0.0595426 7:0.683149 8:-0.700883 9:0.0070224 10:0.0177081 11:0.377834 12:0.366184 13:0.101899 14:0.00943767 15:0.0463827 16:0.00141355 17:0.0125762 18:0 19:0 20:0 21:0 22:0 23:0 24:0 25:0.000833228 26:0.00141884 27:0.0389417 28:0.000403519 29:0.000131983 30:0.000763161 31:0.0017978 32:7.26924e-05 33:0.0098465 34:0.945791 35:0.0143008 36:0.133339 37:0.0556029 38:0.0095812 39:0.00476715 40:0.0262249 41:0.0512733 42:0.00460536 43:0.0326262 44:0.667679 45:0.1 46:0.1 47:0.1 48:0.1 49:0.1 50:0.1 51:0.1 52:0.1 53:0.1 54:0.1 
0.01 1:0.0372927 2:0.0951675 3:0.0464667 4:0.821073 5:-0.956091 6:0.0861081 7:0.540179 8:0.653687 9:0.0121378 10:0.143486 11:0.247994 12:0.143536 13:0.155501 14:0.043598 15:0.0553295 16:0.0435104 17:0.0687997 18:0 19:0 20:0 21:0 22:0 23:0 24:1 25:0.000108703 26:0.000700652 27:0.00407046 28:0.000726141 29:3.46705e-05 30:8.78059e-05 31:0.000558648 32:1.56912e-05 33:0.00282265 34:0.990875 35:0.0144176 36:0.136366 37:0.0533621 38:0.011678 39:0.00674459 40:0.0241219 41:0.0423709 42:0.00587529 43:0.0237792 44:0.681284 45:8.61356e-06 46:0.000390278 47:0.000346959 48:0.000134371 49:7.04321e-06 50:0.000531386 51:0.000843572 52:0.000146283 53:0.00175396 54:0.995838 
0.01 1:0.000170993 2:0.0279015 3:0.969976 4:0.00195114 5:-0.974427 6:0.0278383 7:0.709996 8:-0.637527 9:0.00371032 10:0.0153772 11:0.177437 12:0.683894 13:0.0511056 14:0.0234638 15:0.00671799 16:0.00452961 17:0.00592543 18:0 19:0 20:0 21:0 22:0 23:0 24:0 25:0.0067409 26:0.0092895 27:0.015749 28:0.00423383 29:0.00233202 30:0.00535992 31:0.01067 32:0.00226539 33:0.0183074 34:0.925052 35:0.00256579 36:0.0202678 37:0.775148 38:0.00406566 39:0.00731939 40:0.0139647 41:0.0206025 42:0.0103099 43:0.00833304 44:0.137423 45:0.000407769 46:0.000649992 47:0.00874542 48:4.94474e-05 49:8.40324e-05 50:4.176e-05 51:0.000445653 52:2.7433e-05 53:0.000427573 54:0.989121 
0.01 1:0.000189088 2:0.0077588 3:0.986897 4:0.00515552 5:-0.962278 6:0.0112396 7:0.68586 8:-0.902403 9:0.000849556 10:0.0103681 11:0.102459 12:0.83452 13:0.0283872 14:0.00784246 15:0.00226698 16:0.000580377 17:0.00148691 18:0 19:0 20:0 21:0 22:0 23:0 24:0 25:0.00324647 26:0.0136898 27:0.0149891 28:0.00366412 29:0.00191373 30:0.00540325 31:0.0069735 32:0.00162355 33:0.0163387 34:0.932158 35:0.00287739 36:0.0207598 37:0.768744 38:0.00371022 39:0.00808159 40:0.011882 41:0.0170656 42:0.00872796 43:0.00439367 44:0.153758 45:0.000214883 46:0.00150545 47:0.0141559 48:5.62578e-05 49:4.48428e-05 50:2.02348e-05 51:0.00107323 52:1.22201e-05 53:0.000426648 54:0.98249 
0.01 1:0.000308987 2:0.967486 3:0.0247766 4:0.00742828 5:-0.958741 6:0.0361232 7:0.221039 8:0.730141 9:0.00678604 10:0.0662821 11:0.199078 12:0.479299 13:0.07618 14:0.0352887 15:0.00353496 16:0.0908822 17:0.00654612 18:0 19:0 20:0 21:0 22:0 23:0 24:0 25:0.0059463 26:0.043965 27:0.200086 28:0.0510631 29:0.0041455 30:0.0161898 31:0.0113098 32:0.00157422 33:0.0444125 34:0.621307 35:0.00960457 36:0.0569647 37:0.730346 38:0.00975987 39:0.0107126 40:0.0241841 41:0.0140833 42:0.00516645 43:0.0115678 44:0.127611 45:0.000576072 46:0.00598208 47:0.011813 48:0.00306674 49:0.00188465 50:8.57439e-05 51:0.00699114 52:0.000133182 53:0.00230227 54:0.967165 
0.01 1:0.000293078 2:0.011981 3:0.983109 4:0.00461689 5:-0.953334 6:0.023652 7:0.312609 8:-0.9434 9:0.0288555 10:0.0457382 11:0.295786 12:0.0494724 13:0.212296 14:0.216561 15:0.0139478 16:0.108858 17:0.00483278 18:0 19:0 20:0 21:0 22:0 23:0 24:1 25:0.039787 26:0.0663583 27:0.0750489 28:0.0458803 29:0.00629295 30:0.00620677 31:0.0238355 32:0.00317282 33:0.0516129 34:0.681805 35:0.00884602 36:0.0578951 37:0.720843 38:0.00938791 39:0.00869147 40:0.0170806 41:0.0113424 42:0.00530993 43:0.018713 44:0.141891 45:5.47851e-05 46:0.000359539 47:0.002878 48:0.000497848 49:2.41095e-05 50:2.21215e-05 51:0.00208862 52:1.58453e-05 53:0.000285871 54:0.993773 
0.01 1:0.00468412 2:0.746484 3:0.241874 4:0.00695843 5:-0.962744 6:0.0460807 7:0.399176 8:0.873078 9:0.0105207 10:0.112075 11:0.534782 12:0.11961 13:0.0635979 14:0.0569825 15:0.0118303 16:0.0256441 17:0.018877 18:0 19:0 20:0 21:0 22:0 23:0 24:0 25:0.00550102 26:0.0369378 27:0.0534615 28:0.00571302 29:0.000691069 30:0.00400584 31:0.0131727 32:0.000321711 33:0.0132108 34:0.866985 35:0.00903682 36:0.0574508 37:0.735476 38:0.00908816 39:0.0087946 40:0.013757 41:0.00711098 42:0.00522889 43:0.0121767 44:0.14188 45:0.00457976 46:0.00907712 47:0.179358 48:0.00287171 49:0.00119121 50:0.000419187 51:0.00571885 52:0.000333093 53:0.00216113 54:0.79429 
0.01 1:0.0005626 2:0.0697478 3:0.924675 4:0.00501429 5:-0.973362 6:0.0286367 7:0.450983 8:-0.772162 9:0.0399939 10:0.072759 11:0.367659 12:0.229837 13:0.0994284 14:0.101696 15:0.00874809 16:0.0161409 17:0.0351013 18:0 19:0 20:0 21:0 22:0 23:0 24:0 25:0.00250236 26:0.00434139 27:0.0658722 28:0.00405127 29:0.000301064 30:0.00148517 31:0.00866999 32:0.000139732 33:0.00849462 34:0.904142 35:0.0101025 36:0.0602682 37:0.72487 38:0.0103883 39:0.00988984 40:0.0213292 41:0.010788 42:0.00585622 43:0.0141217 44:0.132386 45:0.000446106 46:0.00305432 47:0.0151342 48:0.000656402 49:0.000268091 50:0.00136228 51:0.00383674 52:0.000127741 53:0.00200097 54:0.973113 
0.01 1:0.000100036 2:0.0115443 3:0.98714 4:0.00121575 5:-0.959699 6:0.0210348 7:0.318349 8:-0.858155 9:0.00629519 10:0.0339668 11:0.559412 12:0.175682 13:0.127176 14:0.0641348 15:0.00358707 16:0.00424879 17:0.00446308 18:0 19:0 20:0 21:0 22:0 23:0 24:0 25:0.00143443 26:0.00594973 27:0.0282882 28:0.0103459 29:0.000326651 30:0.000709087 31:0.00590916 32:0.000131872 33:0.00568448 34:0.94122 35:0.0103915 36:0.0725509 37:0.708453 38:0.0100005 39:0.00474407 40:0.0237805 41:0.00877608 42:0.00392816 43:0.00917348 44:0.148202 45:0.000182396 46:0.0010322 47:0.0100218 48:0.00446496 49:0.000155989 50:0.000136527 51:0.00104855 52:0.000328834 53:0.203799 54:0.77883 
0.01 1:0.000321085 2:0.106355 3:0.891193 4:0.00213062 5:-0.95802 6:0.0193166 7:0.239185 8:0.528141 9:0.00566102 10:0.0225493 11:0.508458 12:0.33319 13:0.0934512 14:0.00846821 15:0.0015863 16:0.00466979 17:0.00264969 18:0 19:0 20:0 21:0 22:0 23:0 24:0 25:0.00739519 26:0.0224661 27:0.0224366 28:0.00887113 29:0.0044563 30:0.0156226 31:0.0191381 32:0.00324707 33:0.0330041 34:0.863363 35:0.00280603 36:0.0196079 37:0.776222 38:0.0042996 39:0.00827126 40:0.0105344 41:0.0299188 42:0.0094285 43:0.00692049 44:0.131991 45:0.0015038 46:0.0130923 47:0.0486606 48:0.0013376 49:0.0012822 50:0.000206069 51:0.00864288 52:0.000183184 53:0.00229232 54:0.922799 
0.01 1:0.00130844 2:0.0129607 3:0.937619 4:0.0481117 5:-0.958251 6:0.0417531 7:0.36869 8:-0.922985 9:0.00513211 10:0.0380286 11:0.0319675 12:0.766763 13:0.0507842 14:0.0325073 15:0.0022469 16:0.0106135 17:0.0202036 18:0 19:0 20:0 21:0 22:0 23:0 24:0 25:0.00312914 26:0.0135379 27:0.00918533 28:0.00384918 29:0.00189318 30:0.00946137 31:0.00637776 32:0.00194997 33:0.0199885 34:0.930628 35:0.00232411 36:0.0171396 37:0.769792 38:0.00430102 39:0.0077752 40:0.0107062 41:0.0203435 42:0.0110366 43:0.0106912 44:0.145891 45:7.04907e-05 46:0.000366481 47:0.00605608 48:0.00024129 49:4.36791e-05 50:2.46639e-05 51:0.000642017 52:5.55662e-05 53:0.00787904 54:0.984621 
0.01 1:0.000930331 2:0.00631268 3:0.987792 4:0.00496481 5:-0.96673 6:0.11201 7:0.48146 8:-0.96748 9:0.0101664 10:0.203944 11:0.218169 12:0.100159 13:0.215707 14:0.0232213 15:0.00997261 16:0.0630737 17:0.0435781 18:0 19:0 20:0 21:0 22:0 23:0 24:0 25:0.00598836 26:0.0201001 27:0.0114876 28:0.0045195 29:0.00249959 30:0.00802061 31:0.00689011 32:0.0036849 33:0.017094 34:0.919715 35:0.00235228 36:0.0138351 37:0.786198 38:0.00433932 39:0.00678572 40:0.00878234 41:0.0150533 42:0.00939197 43:0.00782009 44:0.145442 45:0.000114808 46:0.00369602 47:0.00665863 48:0.000967072 49:0.000220515 50:0.000148667 51:0.00435539 52:0.000126094 53:0.00374825 54:0.979965 
0.01 1:0.127175 2:0.128784 3:0.489583 4:0.254458 5:0.806215 6:0.0205971 7:0.269124 8:-0.934896 9:0.00805615 10:0.0278 11:0.0314682 12:0.0310281 13:0.0694728 14:0.0232929 15:0.00361423 16:0.779664 17:0.00500705 18:0 19:0 20:0 21:0 22:0 23:0 24:0 25:0.00202564 26:0.00247809 27:0.0162538 28:0.000794029 29:0.00014284 30:0.000273908 31:0.00359618 32:0.000103107 33:0.00574513 34:0.968587 35:0.0373566 36:0.157718 37:0.343959 38:0.0499829 39:0.048746 40:0.0571804 41:0.0395386 42:0.0273491 43:0.0530379 44:0.185131 45:3.40177e-08 46:7.20812e-08 47:1.74922e-07 48:2.64065e-06 49:8.63692e-07 50:3.71973e-06 51:0.000221194 52:2.46301e-06 53:3.94463e-05 54:0.999729 
0.01 1:0.00245513 2:0.0653978 3:0.928469 4:0.00367827 5:-0.966624 6:0.00713872 7:0.11058 8:-0.54339 9:0.00565552 10:0.0220317 11:0.160838 12:0.529799 13:0.0841714 14:0.0595913 15:0.0492599 16:0.00710571 17:0.074408 18:0 19:0 20:0 21:0 22:0 23:0 24:0 25:0.0738269 26:0.0179696 27:0.0688413 28:0.0154087 29:0.00836324 30:0.015745 31:0.13451 32:0.0100982 33:0.051218 34:0.604019 35:0.00177628 36:0.0290002 37:0.275064 38:0.00118373 39:0.00170684 40:0.641689 41:0.00307381 42:0.00299276 43:0.00172221 44:0.041791 45:0.1 46:0.1 47:0.1 48:0.1 49:0.1 50:0.1 51:0.1 52:0.1 53:0.1 54:0.1 
0.01 1:0.000875654 2:0.0153136 3:0.980684 4:0.00312684 5:-0.96181 6:0.0297887 7:0.628149 8:-0.989386 9:0.0246095 10:0.0215536 11:0.0180624 12:0.828422 13:0.0202098 14:0.0312038 15:0.0161487 16:0.0063938 17:0.003608 18:0 19:0 20:0 21:0 22:0 23:0 24:0 25:0.0868896 26:0.401844 27:0.178153 28:0.0474329 29:0.0166079 30:0.0804037 31:0.0465895 32:0.0111893 33:0.013023 34:0.117867 35:0.0187749 36:0.528611 37:0.155835 38:0.0240198 39:0.00888725 40:0.128948 41:0.0247126 42:0.0146678 43:0.0291839 44:0.0663598 45:0.000392972 46:0.0020999 47:0.000294594 48:9.51264e-05 49:1.9672e-05 50:0.00112722 51:0.000421533 52:0.000220275 53:0.00289394 54:0.992435 
0.01 1:0.0563431 2:0.922616 3:0.0111964 4:0.00984435 5:-0.949966 6:0.00649074 7:0.0566048 8:0.961238 9:0.0451038 10:0.0392205 11:0.404162 12:0.14237 13:0.303985 14:0.0224754 15:0.00633978 16:0.0103986 17:0.0194545 18:0 19:0 20:0 21:0 22:0 23:0 24:0 25:0.0224157 26:0.0261261 27:0.131469 28:0.0047649 29:0.00169925 30:0.0196981 31:0.00679027 32:0.00088881 33:0.0322177 34:0.75393 35:0.00643907 36:0.114669 37:0.697346 38:0.00462194 39:0.00486499 40:0.0503279 41:0.005881 42:0.00603511 43:0.0151071 44:0.0947083 45:0.1 46:0.1 47:0.1 48:0.1 49:0.1 50:0.1 51:0.1 52:0.1 53:0.1 54:0.1 
0.01 1:0.000427442 2:0.0773976 3:0.918129 4:0.00404593 5:-0.95665 6:0.00754028 7:0.301002 8:-0.865994 9:0.316164 10:0.0124086 11:0.0356483 12:0.371767 13:0.0839645 14:0.0100968 15:0.00795283 16:0.0111773 17:0.14328 18:0 19:0 20:0 21:0 22:0 23:0 24:1 25:0.0216771 26:0.0808904 27:0.0946873 28:0.00763284 29:0.00258498 30:0.0272817 31:0.00791123 32:0.00121916 33:0.0280768 34:0.728039 35:0.0168423 36:0.53675 37:0.161945 38:0.013931 39:0.0149134 40:0.0668097 41:0.0144202 42:0.0161749 43:0.0210126 44:0.137201 45:0.1 46:0.1 47:0.1 48:0.1 49:0.1 50:0.1 51:0.1 52:0.1 53:0.1 54:0.1 
0.01 1:0.000462798 2:0.0254666 3:0.969227 4:0.00484349 5:-0.976808 6:0.302556 7:0.459795 8:-0.966568 9:0.0187698 10:0.104109 11:0.105505 12:0.0849947 13:0.038722 14:0.0232902 15:0.0119182 16:0.241754 17:0.0683816 18:0 19:0 20:0 21:0 22:0 23:0 24:0 25:0.00313623 26:0.0299863 27:0.0176806 28:0.043358 29:0.00379198 30:0.00513178 31:0.0321711 32:0.00234796 33:0.0397449 34:0.822651 35:0.043634 36:0.362544 37:0.145101 38:0.0611663 39:0.0241958 40:0.0559234 41:0.0398546 42:0.0286134 43:0.0514325 44:0.187535 45:0.1 46:0.1 47:0.1 48:0.1 49:0.1 50:0.1 51:0.1 52:0.1 53:0.1 54:0.1 
0.01 1:0.000603053 2:0.013217 3:0.983627 4:0.00255289 5:-0.958166 6:0.00431334 7:0.0874982 8:-0.959264 9:0.598128 10:0.0264184 11:0.0150351 12:0.0464821 13:0.0692589 14:0.0204103 15:0.191519 16:0.0159999 17:0.0124354 18:0 19:0 20:0 21:0 22:0 23:0 24:0 25:0.0106964 26:0.0746681 27:0.00485182 28:0.043083 29:0.00593436 30:0.0191336 31:0.110575 32:0.0115807 33:0.700636 34:0.0188407 35:0.000353544 36:0.000829003 37:0.000400053 38:0.0346232 39:0.00126086 40:0.000738896 41:0.00377404 42:0.000541708 43:0.956554 44:0.000924879 45:0.166674 46:0.21194 47:0.0156892 48:0.260282 49:0.0684611 50:0.00611208 51:0.0560296 52:0.0348182 53:0.0701596 54:0.109833 
0.01 1:0.000121472 2:0.014311 3:0.979193 4:0.00637436 5:-0.959241 6:0.120364 7:0.465427 8:-0.815572 9:0.0115988 10:0.06884 11:0.355067 12:0.33013 13:0.0928183 14:0.00570583 15:0.00357961 16:0.00568001 17:0.00621714 18:0 19:0 20:0 21:0 22:0 23:0 24:0 25:0.109947 26:0.0257851 27:0.0150472 28:0.0356419 29:0.0131834 30:0.177791 31:0.0705409 32:0.00250241 33:0.50966 34:0.0399018 35:0.0161348 36:0.0320921 37:0.390942 38:0.0332525 39:0.103589 40:0.138752 41:0.113052 42:0.12725 43:0.0188901 44:0.0260452 45:0.0199159 46:0.134475 47:0.0781414 48:0.0176442 49:0.0139662 50:0.0156765 51:0.0700842 52:0.0474894 53:0.014146 54:0.588461 
0.01 1:0.0002277 2:0.0189107 3:0.968685 4:0.0121769 5:-0.973567 6:0.00844704 7:0.160839 8:-0.60791 9:0.0420114 10:0.0464916 11:0.102283 12:0.583228 13:0.149647 14:0.0265052 15:0.0110128 16:0.0151438 17:0.0152302 18:0 19:0 20:0 21:0 22:0 23:0 24:1 25:0.00558756 26:0.00470462 27:0.0214649 28:0.0114571 29:0.000678908 30:0.00179212 31:0.00537658 32:0.000250205 33:0.0741078 34:0.87458 35:0.0211553 36:0.132062 37:0.0832778 38:0.0176915 39:0.00942255 40:0.0240536 41:0.0179156 42:0.00850271 43:0.0182001 44:0.667719 45:0.00113148 46:0.064175 47:0.0105384 48:0.0557116 49:0.00212579 50:0.0269706 51:0.0456765 52:0.00368279 53:0.00630864 54:0.783679 
0.01 1:0.000283956 2:0.00968036 3:0.981595 4:0.00844044 5:-0.960152 6:0.0115111 7:0.381367 8:-0.984768 9:0.0137106 10:0.019469 11:0.0938945 12:0.782683 13:0.0457617 14:0.022867 15:0.00326773 16:0.00386392 17:0.00297134 18:0 19:0 20:0 21:0 22:0 23:0 24:0 25:0.000721606 26:0.00369997 27:0.0171043 28:0.0151952 29:0.000553769 30:0.00331475 31:0.0120988 32:0.000141349 33:0.036336 34:0.910834 35:0.0226181 36:0.152646 37:0.0938018 38:0.0179675 39:0.0099883 40:0.0290811 41:0.0132868 42:0.00535624 43:0.010978 44:0.644277 45:0.1 46:0.1 47:0.1 48:0.1 49:0.1 50:0.1 51:0.1 52:0.1 53:0.1 54:0.1 
0.01 1:0.00116826 2:0.0127411 3:0.971947 4:0.0141439 5:-0.959461 6:0.010233 7:0.120816 8:-0.98439 9:0.00846211 10:0.0517297 11:0.0083367 12:0.00607975 13:0.0390953 14:0.525684 15:0.333638 16:0.0125674 17:0.00417371 18:0 19:0 20:0 21:0 22:0 23:0 24:1 25:0.0673259 26:0.0214849 27:0.00202154 28:0.0134539 29:0.00287733 30:0.00594774 31:0.0149375 32:0.0254223 33:0.834615 34:0.0119141 35:0.00794687 36:0.559834 37:0.105567 38:0.0153443 39:0.00580592 40:0.063422 41:0.0238393 42:0.00789537 43:0.0169931 44:0.193352 45:0.00250545 46:0.130727 47:0.0768262 48:0.0086292 49:0.00187943 50:0.0300881 51:0.00874263 52:0.0566538 53:0.0678042 54:0.616144 
0.01 1:0.000824533 2:0.0376167 3:0.959363 4:0.00219608 5:-0.957255 6:0.00131228 7:0.138087 8:-0.985365 9:0.0344142 10:0.00546033 11:0.0313071 12:0.815467 13:0.0418569 14:0.00848001 15:0.00737369 16:0.0440504 17:0.0102783 18:0 19:0 20:0 21:0 22:0 23:0 24:0 25:0.0102622 26:0.00434689 27:0.00531371 28:0.0046554 29:0.00184815 30:0.00216235 31:0.00265446 32:0.00207388 33:0.0161847 34:0.950498 35:0.00772643 36:0.0288019 37:0.0300565 38:0.0241298 39:0.0412146 40:0.0377281 41:0.0419898 42:0.0483182 43:0.0263827 44:0.713652 45:0.1 46:0.1 47:0.1 48:0.1 49:0.1 50:0.1 51:0.1 52:0.1 53:0.1 54:0.1 
0.01 1:0.000107171 2:0.012247 3:0.986315 4:0.00133049 5:-0.973194 6:0.00567534 7:0.247861 8:-0.942566 9:0.080972 10:0.0166326 11:0.216481 12:0.306403 13:0.233401 14:0.0516595 15:0.022416 16:0.0380775 17:0.0282832 18:0 19:0 20:0 21:0 22:0 23:0 24:0 25:0.0210125 26:0.00653307 27:0.0184674 28:0.00821614 29:0.00295202 30:0.00451249 31:0.0204623 32:0.00460002 33:0.0329696 34:0.880274 35:0.00769791 36:0.0348119 37:0.029149 38:0.015452 39:0.0375087 40:0.0341144 41:0.0451126 42:0.0463475 43:0.0288433 44:0.720963 45:0.1 46:0.1 47:0.1 48:0.1 49:0.1 50:0.1 51:0.1 52:0.1 53:0.1 54:0.1 
0.01 1:0.00585314 2:0.0918641 3:0.742571 4:0.159711 5:-0.957078 6:0.00304142 7:0.0493901 8:-0.97947 9:0.594968 10:0.0257077 11:0.0213132 12:0.0865634 13:0.193546 14:0.0185435 15:0.00361663 16:0.0434488 17:0.00925208 18:0 19:0 20:0 21:0 22:0 23:0 24:0 25:0.017037 26:0.00455896 27:0.0157877 28:0.00611728 29:0.00499244 30:0.0188969 31:0.016097 32:0.00504606 33:0.0811838 34:0.830283 35:0.00664754 36:0.0317259 37:0.0261133 38:0.0166887 39:0.0342954 40:0.0256878 41:0.042851 42:0.0398604 43:0.0208843 44:0.755246 45:0.0114111 46:0.0637284 47:0.0125742 48:0.0253655 49:0.00404542 50:0.00190693 51:0.0589004 52:0.000561663 53:0.0210147 54:0.800492 
0.01 1:0.00850856 2:0.149929 3:0.828184 4:0.0133788 5:-0.956735 6:0.00614358 7:0.107567 8:-0.936262 9:0.021024 10:0.0252282 11:0.0449569 12:0.593747 13:0.194679 14:0.0610419 15:0.0184785 16:0.0283184 17:0.00638314 18:0 19:0 20:0 21:0 22:0 23:0 24:0 25:0.0507675 26:0.0123303 27:0.0129473 28:0.0126226 29:0.00686714 30:0.0394162 31:0.0101397 32:0.0143364 33:0.184049 34:0.656524 35:0.00772643 36:0.0288019 37:0.0300565 38:0.0241298 39:0.0412146 40:0.0377281 41:0.0419898 42:0.0483182 43:0.0263827 44:0.713652 45:0.1 46:0.1 47:0.1 48:0.1 49:0.1 50:0.1 51:0.1 52:0.1 53:0.1 54:0.1 
0.01 1:0.000172298 2:0.0064591 3:0.992476 4:0.000892836 5:-0.972061 6:0.0292859 7:0.122645 8:-0.948498 9:0.102829 10:0.162394 11:0.134803 12:0.14079 13:0.114026 14:0.0432688 15:0.0198903 16:0.230586 17:0.0221275 18:0 19:0 20:0 21:0 22:0 23:0 24:0 25:0.0387621 26:0.042634 27:0.113743 28:0.00972351 29:0.00579591 30:0.0164447 31:0.112462 32:0.00802441 33:0.0508431 34:0.601567 35:0.00769791 36:0.0348119 37:0.029149 38:0.015452 39:0.0375087 40:0.0341144 41:0.0451126 42:0.0463475 43:0.0288433 44:0.720963 45:0.478274 46:0.204393 47:0.0168624 48:0.0653981 49:0.0297461 50:0.0148239 51:0.0224565 52:0.00662676 53:0.0824556 54:0.0789631 
0.01 1:0.0038116 2:0.875431 3:0.0159322 4:0.104825 5:-0.757282 6:0.008479 7:0.1302 8:0.759359 9:0.0595591 10:0.070846 11:0.0428219 12:0.659512 13:0.0878455 14:0.0373698 15:0.00523107 16:0.0230374 17:0.00529876 18:0 19:0 20:0 21:0 22:0 23:0 24:1 25:0.0281642 26:0.00673517 27:0.00821808 28:0.0141784 29:0.00205413 30:0.00521561 31:0.0262215 32:0.00264281 33:0.0542156 34:0.852355 35:0.00827817 36:0.0374501 37:0.0283191 38:0.0173043 39:0.0423009 40:0.0374398 41:0.0418196 42:0.0508186 43:0.0200071 44:0.716263 45:0.00375545 46:0.00781498 47:0.00186546 48:0.0238987 49:0.000505673 50:0.000459165 51:0.00583511 52:0.00117207 53:0.0146411 54:0.940052 
0.01 1:0.000479418 2:0.941123 3:0.0411535 4:0.0172436 5:-0.866271 6:0.0110914 7:0.0607434 8:0.866225 9:0.0708286 10:0.128281 11:0.0787004 12:0.152488 13:0.293997 14:0.0696324 15:0.0146395 16:0.0960843 17:0.0842576 18:0 19:0 20:0 21:0 22:0 23:0 24:0 25:0.00551788 26:0.00342853 27:0.00395339 28:0.00453735 29:0.000692783 30:0.00167514 31:0.00996916 32:0.00101974 33:0.0254674 34:0.943739 35:0.00664754 36:0.0317259 37:0.0261133 38:0.0166887 39:0.0342954 40:0.0256878 41:0.042851 42:0.0398604 43:0.0208843 44:0.755246 45:0.000138567 46:0.000184455 47:0.000794815 48:0.000384454 49:4.82045e-05 50:0.000117201 51:0.00117139 52:9.13077e-05 53:0.00703895 54:0.990031 
0.01 1:0.0364891 2:0.0684685 3:0.875649 4:0.0193933 5:-0.604986 6:0.00259317 7:0.0305021 8:-0.573768 9:0.106817 10:0.00821511 11:0.047809 12:0.516589 13:0.115128 14:0.069557 15:0.0654295 16:0.0285653 17:0.0392968 18:0 19:0 20:0 21:0 22:0 23:0 24:0 25:0.0493598 26:0.00979242 27:0.00331925 28:0.0179318 29:0.00129576 30:0.00282131 31:0.0132704 32:0.00247711 33:0.0767638 34:0.822968 35:0.00677921 36:0.0360353 37:0.0303027 38:0.0245796 39:0.04786 40:0.0372921 41:0.0500423 42:0.0483228 43:0.0294589 44:0.689327 45:0.00264484 46:0.00387745 47:0.00550904 48:0.000531523 49:0.000116444 50:0.000495646 51:0.0102989 52:4.98571e-05 53:0.00176011 54:0.974716 
0.01 1:0.000164641 2:0.0131682 3:0.98482 4:0.00184709 5:-0.97567 6:0.0284978 7:0.377426 8:-0.98989 9:0.0232038 10:0.0576011 11:0.420667 12:0.180762 13:0.201431 14:0.0645089 15:0.00761084 16:0.00645505 17:0.00926225 18:0 19:0 20:0 21:0 22:0 23:0 24:0 25:0.00290872 26:0.00325183 27:0.0976308 28:0.00077609 29:0.000311056 30:0.000888646 31:0.00414263 32:0.000306759 33:0.0156349 34:0.874149 35:0.00272424 36:0.0497739 37:0.0355912 38:0.00169401 39:0.00127907 40:0.00433454 41:0.358013 42:0.00156649 43:0.00855982 44:0.536464 45:1.18083e-07 46:2.12858e-07 47:2.84994e-07 48:7.85042e-07 49:8.62768e-07 50:1.03764e-05 51:0.000168078 52:4.01173e-06 53:4.03155e-05 54:0.999775 
0.01 1:0.000232239 2:0.00666038 3:0.990173 4:0.00293391 5:-0.912648 6:0.119427 7:0.368039 8:-0.963144 9:0.0040897 10:0.136867 11:0.346372 12:0.275997 13:0.101077 14:0.00933354 15:0.00218755 16:0.00137984 17:0.00326875 18:0 19:0 20:0 21:0 22:0 23:0 24:1 25:0.0166321 26:0.0438462 27:0.0376502 28:0.0164983 29:0.00866507 30:0.0246947 31:0.0283189 32:0.00785284 33:0.0426604 34:0.773181 35:0.0144398 36:0.217706 37:0.0590711 38:0.00976946 39:0.0163124 40:0.0116404 41:0.0161518 42:0.00249307 43:0.0274039 44:0.625012 45:0.00294419 46:0.0234809 47:0.0670046 48:0.011143 49:0.00384416 50:0.0028381 51:0.0341831 52:0.00513938 53:0.173594 54:0.675829 
0.01 1:0.00536416 2:0.0170285 3:0.291208 4:0.6864 5:-0.953145 6:0.00709428 7:0.169019 8:-0.963965 9:0.614037 10:0.0218577 11:0.00448729 12:0.0219408 13:0.119328 14:0.0170542 15:0.0596091 16:0.0260536 17:0.108538 18:0 19:0 20:0 21:0 22:0 23:0 24:0 25:0.0102539 26:0.00497136 27:0.0148964 28:0.0141116 29:0.00125651 30:0.00395409 31:0.00926359 32:0.001619 33:0.0583003 34:0.881373 35:0.00516969 36:0.142375 37:0.0723321 38:0.00875902 39:0.00432706 40:0.0560277 41:0.00672787 42:0.00444538 43:0.0155646 44:0.684271 45:0.0759121 46:0.0811338 47:0.0228824 48:0.114393 49:0.029084 50:0.0574145 51:0.0899199 52:0.052981 53:0.0877676 54:0.388512 
0.01 1:0.000344382 2:0.00355399 3:0.989769 4:0.00633306 5:-0.959109 6:0.0207943 7:0.519301 8:-0.965832 9:0.146098 10:0.0194497 11:0.0153279 12:0.0354623 13:0.03038 14:0.148784 15:0.454132 16:0.0695673 17:0.0600048 18:0 19:0 20:0 21:0 22:0 23:0 24:0 25:0.4156 26:0.0691145 27:0.0857643 28:0.0231036 29:0.0321738 30:0.0145742 31:0.213984 32:0.0290201 33:0.0596001 34:0.0570653 35:0.0033582 36:0.134589 37:0.0692559 38:0.00871991 39:0.00368063 40:0.0774518 41:0.00466055 42:0.00394107 43:0.0112653 44:0.683078 45:0.1 46:0.1 47:0.1 48:0.1 49:0.1 50:0.1 51:0.1 52:0.1 53:0.1 54:0.1 
0.01 1:0.00387073 2:0.0108718 3:0.944017 4:0.0412401 5:-0.975547 6:0.00224262 7:0.0912297 8:-0.960448 9:0.341377 10:0.0128394 11:0.0061693 12:0.145213 13:0.186684 14:0.00953802 15:0.0346663 16:0.144408 17:0.116863 18:0 19:0 20:0 21:0 22:0 23:0 24:0 25:0.0140134 26:0.00592504 27:0.0225452 28:0.0259236 29:0.00416196 30:0.00536069 31:0.0188938 32:0.00484606 33:0.0808177 34:0.817513 35:0.00418619 36:0.116794 37:0.112199 38:0.00835977 39:0.0021669 40:0.0379527 41:0.00575121 42:0.00337018 43:0.00954194 44:0.699678 45:0.0436929 46:0.0844098 47:0.0347489 48:0.0322268 49:0.00845185 50:0.119107 51:0.0252722 52:0.0110194 53:0.0250891 54:0.615982 
0.01 1:0.0132018 2:0.0342535 3:0.928664 4:0.0238806 5:-0.963528 6:0.0120436 7:0.179679 8:-0.812526 9:0.325969 10:0.0369985 11:0.0138984 12:0.0902413 13:0.144911 14:0.021114 15:0.188709 16:0.107197 17:0.0589189 18:0 19:0 20:0 21:0 22:0 23:0 24:0 25:0.0085249 26:0.0101439 27:0.0116922 28:0.015012 29:0.00300232 30:0.00243406 31:0.0264904 32:0.00235728 33:0.193777 34:0.726566 35:0.00402814 36:0.148514 37:0.0916688 38:0.00890416 39:0.00301283 40:0.0617304 41:0.00563946 42:0.00276331 43:0.00438383 44:0.669355 45:8.65591e-05 46:0.00054258 47:0.000290726 48:0.000213598 49:6.37201e-05 50:0.000639361 51:0.00185941 52:0.000605453 53:0.00207386 54:0.993625 
0.01 1:0.000174078 2:0.0132184 3:0.985029 4:0.00157813 5:-0.9601 6:0.469967 7:0.853326 8:-0.933319 9:0.00743363 10:0.104997 11:0.0498582 12:0.185986 13:0.0241301 14:0.0385113 15:0.0963578 16:0.00521564 17:0.017543 18:0 19:0 20:0 21:0 22:0 23:0 24:0 25:0.0562642 26:0.0466288 27:0.111845 28:0.0719582 29:0.15771 30:0.0949489 31:0.0302048 32:0.0186863 33:0.186296 34:0.225458 35:0.0363044 36:0.212964 37:0.0789018 38:0.0637862 39:0.0159567 40:0.0767446 41:0.0537979 42:0.0298505 43:0.0547663 44:0.376927 45:0.0012464 46:0.00887468 47:0.00409446 48:0.000711245 49:0.000252708 50:0.000684395 51:0.00783763 52:0.0137265 53:0.0056774 54:0.956895 
0.01 1:0.00855291 2:0.111906 3:0.840678 4:0.0388631 5:-0.866804 6:0.00225519 7:0.142231 8:-0.991001 9:0.096105 10:0.013288 11:0.01549 12:0.754199 13:0.0293255 14:0.0163764 15:0.00777392 16:0.0371369 17:0.0280496 18:0 19:0 20:0 21:0 22:0 23:0 24:0 25:0.0499135 26:0.0340032 27:0.00805749 28:0.0231678 29:0.00322428 30:0.0108498 31:0.0357934 32:0.00610801 33:0.800629 34:0.0282538 35:0.0277654 36:0.0925761 37:0.135086 38:0.0209646 39:0.00775424 40:0.378396 41:0.0157182 42:0.0117814 43:0.0474021 44:0.262556 45:0.0147008 46:0.0788205 47:0.0385109 48:0.0253534 49:0.0056095 50:0.0466767 51:0.0592838 52:0.0643095 53:0.104974 54:0.561761 
0.01 1:0.0235126 2:0.155306 3:0.455282 4:0.365899 5:-0.894325 6:0.0879518 7:0.680712 8:-0.9678 9:0.0496822 10:0.0605408 11:0.0500663 12:0.315941 13:0.0349152 14:0.127689 15:0.158198 16:0.0413731 17:0.0736421 18:0 19:0 20:0 21:0 22:0 23:0 24:0 25:0.442303 26:0.024486 27:0.0440622 28:0.0187585 29:0.0287739 30:0.0179016 31:0.0935837 32:0.114577 33:0.0654432 34:0.150111 35:0.032459 36:0.142015 37:0.0724121 38:0.056498 39:0.0239816 40:0.0541604 41:0.0611731 42:0.0555003 43:0.0535736 44:0.448227 45:0.0457499 46:0.0677794 47:0.0221221 48:0.0176757 49:0.00259174 50:0.0087638 51:0.103858 52:0.0143385 53:0.0136578 54:0.703463 
0.01 1:0.000318427 2:0.0172814 3:0.979471 4:0.00292913 5:-0.973228 6:0.00937784 7:0.154148 8:-0.919102 9:0.0130496 10:0.0345418 11:0.0824749 12:0.261522 13:0.113137 14:0.16913 15:0.310233 16:0.003029 17:0.00350488 18:0 19:0 20:0 21:0 22:0 23:0 24:0 25:0.25115 26:0.024377 27:0.0186109 28:0.0218573 29:0.0400558 30:0.0244364 31:0.0364709 32:0.368097 33:0.142781 34:0.072164 35:0.00690452 36:0.0620362 37:0.719086 38:0.0124071 39:0.0056858 40:0.0146772 41:0.0308885 42:0.00454628 43:0.010377 44:0.133391 45:0.00253299 46:0.0321049 47:0.0312665 48:0.00152099 49:0.000784758 50:0.0063631 51:0.0116705 52:0.0168387 53:0.0211664 54:0.875751 
0.01 1:0.00067319 2:0.00640262 3:0.987643 4:0.00528116 5:-0.957964 6:0.00382779 7:0.196743 8:-0.972036 9:0.00796789 10:0.0151335 11:0.0303311 12:0.799167 13:0.0415418 14:0.0410952 15:0.0527576 16:0.00248127 17:0.00569661 18:0 19:0 20:0 21:0 22:0 23:0 24:0 25:0.100939 26:0.0289143 27:0.00572076 28:0.0175353 29:0.00983149 30:0.00783113 31:0.0246881 32:0.0586318 33:0.58877 34:0.157138 35:0.00477632 36:0.0743529 37:0.717415 38:0.010475 39:0.00479312 40:0.0198738 41:0.00855411 42:0.00306023 43:0.00575736 44:0.150942 45:0.000110002 46:0.00627949 47:0.23612 48:0.00118554 49:0.000138168 50:0.0185221 51:0.00452096 52:0.00200482 53:0.00842925 54:0.722689 
0.01 1:0.00341716 2:0.0465733 3:0.914297 4:0.0357125 5:-0.964826 6:0.00221355 7:0.0341377 8:-0.810695 9:0.123747 10:0.00892557 11:0.0687464 12:0.467714 13:0.183287 14:0.0621963 15:0.0154266 16:0.0118155 17:0.0559278 18:0 19:0 20:0 21:0 22:0 23:0 24:0 25:0.0603145 26:0.00706079 27:0.0363599 28:0.00371013 29:0.00467913 30:0.0349821 31:0.00908575 32:0.00221887 33:0.0676895 34:0.773899 35:0.00504585 36:0.0324119 37:0.0260367 38:0.0129453 39:0.00822122 40:0.0617725 41:0.0858961 42:0.0210321 43:0.0142434 44:0.732395 45:2.74082e-07 46:5.0471e-07 47:2.62791e-07 48:1.97242e-06 49:9.09015e-06 50:4.18202e-06 51:0.000249338 52:4.42224e-05 53:1.21922e-05 54:0.999678 
0.01 1:0.000729721 2:0.0283507 3:0.967469 4:0.0034504 5:-0.951191 6:0.00475567 7:0.280427 8:-0.98042 9:0.0296501 10:0.00446565 11:0.297973 12:0.473748 13:0.0181418 14:0.0663284 15:0.00797179 16:0.0484027 17:0.0485629 18:0 19:0 20:0 21:0 22:0 23:0 24:1 25:0.0513366 26:0.0207839 27:0.0279232 28:0.00828415 29:0.00589733 30:0.0616647 31:0.0123741 32:0.0055217 33:0.112102 34:0.694112 35:0.00558196 36:0.0181577 37:0.0612945 38:0.0141059 39:0.0463561 40:0.0717409 41:0.181103 42:0.070614 43:0.015593 44:0.515453 45:2.74082e-07 46:5.0471e-07 47:2.62791e-07 48:1.97242e-06 49:9.09015e-06 50:4.18202e-06 51:0.000249338 52:4.42224e-05 53:1.21922e-05 54:0.999678 
0.01 1:0.104243 2:0.250954 3:0.552114 4:0.0926886 5:-0.975002 6:0.00653426 7:0.343961 8:-0.839393 9:0.0390608 10:0.00851703 11:0.221146 12:0.473531 13:0.140138 14:0.0289357 15:0.0157086 16:0.0246108 17:0.0418182 18:0 19:0 20:0 21:0 22:0 23:0 24:1 25:0.0394843 26:0.0135367 27:0.0386013 28:0.0136253 29:0.00542534 30:0.0190735 31:0.0462554 32:0.00367654 33:0.117569 34:0.702753 35:0.0057984 36:0.0268645 37:0.0302282 38:0.0148423 39:0.00768902 40:0.0548101 41:0.111593 42:0.0248993 43:0.0202368 44:0.703038 45:0.00616686 46:0.0174311 47:0.00421997 48:0.0136185 49:0.0105406 50:0.00262136 51:0.00851505 52:0.00638514 53:0.0514539 54:0.879048 
0.01 1:0.00476724 2:0.94925 3:0.0357827 4:0.0102002 5:-0.94964 6:0.00459089 7:0.109488 8:0.527036 9:0.113554 10:0.0122344 11:0.0585726 12:0.491121 13:0.0882115 14:0.0956127 15:0.0158897 16:0.0408899 17:0.0793226 18:0 19:0 20:0 21:0 22:0 23:0 24:0 25:0.0322424 26:0.0097537 27:0.0133763 28:0.00786311 29:0.00316373 30:0.0122878 31:0.00460358 32:0.00193327 33:0.034059 34:0.880717 35:0.00625997 36:0.0408246 37:0.0325788 38:0.0138188 39:0.00941211 40:0.06031 41:0.0970581 42:0.0273239 43:0.0107463 44:0.701667 45:1.31003e-05 46:0.000338651 47:0.00273968 48:0.000110213 49:0.000839146 50:1.85903e-05 51:0.00057622 52:0.000118814 53:8.00086e-05 54:0.995166 
0.01 1:0.0231698 2:0.870752 3:0.072526 4:0.0335518 5:-0.959861 6:0.00100547 7:0.0802446 8:0.514876 9:0.0695913 10:0.00495521 11:0.149666 12:0.506755 13:0.172213 14:0.0274198 15:0.0124818 16:0.0309756 17:0.0249372 18:0 19:0 20:0 21:0 22:0 23:0 24:1 25:0.0598392 26:0.0129286 27:0.0203554 28:0.00748492 29:0.0069753 30:0.0362909 31:0.0111541 32:0.0023886 33:0.0803245 34:0.762258 35:0.00504585 36:0.0324119 37:0.0260367 38:0.0129453 39:0.00822122 40:0.0617725 41:0.0858961 42:0.0210321 43:0.0142434 44:0.732395 45:0.000397841 46:0.00152451 47:0.00353056 48:0.000901733 49:0.000964538 50:0.00144539 51:0.00357071 52:0.000947191 53:0.000244799 54:0.986473 
0.01 1:0.0166002 2:0.355678 3:0.553308 4:0.0744135 5:-0.960259 6:0.00144581 7:0.0988107 8:-0.569398 9:0.0481304 10:0.00241389 11:0.071174 12:0.659245 13:0.0936316 14:0.0424202 15:0.0177902 16:0.017 17:0.0467487 18:0 19:0 20:0 21:0 22:0 23:0 24:0 25:0.0491064 26:0.0174089 27:0.0134413 28:0.0119207 29:0.00224013 30:0.0334057 31:0.0076908 32:0.00242922 33:0.134576 34:0.727781 35:0.00519173 36:0.036821 37:0.0296008 38:0.0157039 39:0.00963975 40:0.0609032 41:0.0995915 42:0.0257104 43:0.0202534 44:0.696584 45:1.71788e-06 46:4.86994e-06 47:2.92746e-06 48:1.04661e-05 49:1.86279e-05 50:3.70502e-05 51:0.000319335 52:2.32885e-05 53:0.00132017 54:0.998262 
0.01 1:0.0217259 2:0.0950482 3:0.794819 4:0.088407 5:-0.962145 6:0.010571 7:0.0975036 8:-0.612021 9:0.0080123 10:0.0544667 11:0.067665 12:0.463548 13:0.0819422 14:0.185088 15:0.106119 16:0.00998743 17:0.0126006 18:0 19:0 20:0 21:0 22:0 23:0 24:0 25:0.0110597 26:0.0279501 27:0.0184881 28:0.00844725 29:0.00397281 30:0.0217637 31:0.0115968 32:0.00606389 33:0.0180558 34:0.872602 35:0.00349927 36:0.0534679 37:0.127861 38:0.00495298 39:0.00402895 40:0.691907 41:0.0101875 42:0.00445365 43:0.00733245 44:0.0923097 45:0.325111 46:0.204041 47:0.05045 48:0.0520107 49:0.0444515 50:0.0177397 51:0.0548773 52:0.0377769 53:0.108998 54:0.104544 
0.01 1:0.000243187 2:0.0155913 3:0.969571 4:0.0145944 5:-0.972646 6:0.0267532 7:0.195674 8:-0.945913 9:0.0105874 10:0.0772108 11:0.101822 12:0.339362 13:0.131199 14:0.0526275 15:0.237463 16:0.00455192 17:0.0184236 18:0 19:0 20:0 21:0 22:0 23:0 24:0 25:0.00715051 26:0.0259162 27:0.0188627 28:0.0120045 29:0.00369309 30:0.00966367 31:0.0182175 32:0.00460529 33:0.0198654 34:0.880021 35:0.0082763 36:0.0966396 37:0.160319 38:0.0101769 39:0.00521703 40:0.363369 41:0.0206864 42:0.00717774 43:0.0131228 44:0.315015 45:0.0577316 46:0.140205 47:0.0420917 48:0.00968559 49:0.00346189 50:0.0103296 51:0.0214585 52:0.0191006 53:0.171425 54:0.52451 
0.01 1:0.0580384 2:0.792804 3:0.0914639 4:0.057694 5:-0.961596 6:0.0579568 7:0.476429 8:0.967009 9:0.0502598 10:0.0679184 11:0.143068 12:0.397776 13:0.0953678 14:0.0204232 15:0.00929589 16:0.136559 17:0.0213764 18:0 19:0 20:0 21:0 22:0 23:0 24:0 25:0.0168257 26:0.049074 27:0.0309411 28:0.0985783 29:0.0119935 30:0.0274252 31:0.0511375 32:0.00785864 33:0.0250543 34:0.681112 35:0.00412596 36:0.100789 37:0.710395 38:0.010157 39:0.00674283 40:0.0141989 41:0.00610368 42:0.00267826 43:0.00382221 44:0.140987 45:0.000636919 46:0.00424371 47:0.731362 48:0.00113947 49:0.000904066 50:0.00159385 51:0.0040692 52:0.00169022 53:0.0040076 54:0.250353 
0.01 1:0.000149119 2:0.0058867 3:0.992692 4:0.00127219 5:-0.959717 6:0.0384249 7:0.170705 8:-0.934304 9:0.265767 10:0.171787 11:0.157219 12:0.0704837 13:0.202839 14:0.0381093 15:0.00749891 16:0.019781 17:0.0280902 18:0 19:0 20:0 21:0 22:0 23:0 24:0 25:0.212004 26:0.222672 27:0.0749466 28:0.0151505 29:0.00997832 30:0.0414994 31:0.33367 32:0.00718713 33:0.03573 34:0.0471618 35:0.0120611 36:0.0411617 37:0.0224042 38:0.00644677 39:0.0077474 40:0.021183 41:0.837953 42:0.013775 43:0.00789822 44:0.0293696 45:1.31116e-06 46:5.42079e-06 47:2.85906e-06 48:2.53981e-06 49:2.42187e-06 50:9.50265e-06 51:0.000649019 52:1.8706e-05 53:0.00093434 54:0.998374 
0.009875066200725358 1:0.00011281 2:0.00868016 3:0.989313 4:0.00189436 5:-0.965072 6:0.0103733 7:0.249818 8:-0.985818 9:0.00621691 10:0.0327571 11:0.257786 12:0.520434 13:0.157647 14:0.00799719 15:0.00126716 16:0.00253031 17:0.00299098 18:0 19:0 20:0 21:0 22:0 23:0 24:0 25:0.0306364 26:0.0816437 27:0.0293067 28:0.016378 29:0.00693915 30:0.0400107 31:0.01913 32:0.00459212 33:0.0174036 34:0.75396 35:0.00390073 36:0.139155 37:0.0790499 38:0.00600632 39:0.00451653 40:0.0502984 41:0.00608558 42:0.00560843 43:0.0341562 44:0.671222 45:0.007625 46:0.148529 47:0.0270157 48:0.00350308 49:0.00280449 50:0.0112226 51:0.0160794 52:0.00915477 53:0.0872487 54:0.686817 
0.01 1:0.00528746 2:0.0273145 3:0.859064 4:0.108334 5:-0.966199 6:0.0241507 7:0.0636741 8:-0.944552 9:0.0278978 10:0.526959 11:0.0888809 12:0.185165 13:0.102688 14:0.00982261 15:0.00232785 16:0.00855467 17:0.0235541 18:0 19:0 20:0 21:0 22:0 23:0 24:0 25:0.0164525 26:0.0318172 27:0.0212406 28:0.0091563 29:0.00487923 30:0.0216673 31:0.0118999 32:0.00477191 33:0.0181305 34:0.859985 35:0.00278128 36:0.0795805 37:0.0886216 38:0.00548709 39:0.00491408 40:0.111851 41:0.0054266 42:0.00464207 43:0.0271375 44:0.669559 45:0.00429894 46:0.0301383 47:0.0279418 48:0.0149211 49:0.00432421 50:0.00645057 51:0.0231715 52:0.0389646 53:0.0968844 54:0.752905 
0.01 1:0.00199398 2:0.0110903 3:0.848853 4:0.138063 5:-0.97409 6:0.0139935 7:0.282248 8:-0.712814 9:0.0159627 10:0.0253231 11:0.256546 12:0.619616 13:0.0527384 14:0.00767348 15:0.00145784 16:0.00208355 17:0.00460513 18:0 19:0 20:0 21:0 22:0 23:0 24:0 25:0.0238698 26:0.0663597 27:0.0262811 28:0.0141592 29:0.00667959 30:0.0279383 31:0.0229078 32:0.00542119 33:0.0146144 34:0.791769 35:0.00331846 36:0.127918 37:0.0667558 38:0.00521449 39:0.00377084 40:0.0665209 41:0.00718975 42:0.00503976 43:0.026164 44:0.688108 45:9.99848e-06 46:0.00277001 47:0.000391697 48:0.000148405 49:7.49026e-06 50:0.000835184 51:0.000608829 52:9.48822e-05 53:0.00173494 54:0.993399 
0.01 1:0.0561624 2:0.0798436 3:0.79102 4:0.0729734 5:-0.965395 6:0.546496 7:0.868715 8:-0.864514 9:0.0425109 10:0.0416646 11:0.0376212 12:0.0355757 13:0.0598574 14:0.00731812 15:0.0181228 16:0.111715 17:0.0991185 18:0 19:0 20:0 21:0 22:0 23:0 24:0 25:0.0758226 26:0.0363999 27:0.0106921 28:0.0383446 29:0.00498125 30:0.0093076 31:0.0292821 32:0.00528324 33:0.229508 34:0.560379 35:0.1 36:0.1 37:0.1 38:0.1 39:0.1 40:0.1 41:0.1 42:0.1 43:0.1 44:0.1 45:4.48631e-08 46:7.87936e-08 47:4.39515e-08 48:1.36152e-06 49:4.3207e-06 50:1.47737e-05 51:5.54715e-05 52:7.69436e-06 53:6.99302e-06 54:0.999909 
0.01 1:0.000476464 2:0.010403 3:0.981203 4:0.00791753 5:-0.962049 6:0.0152928 7:0.0250993 8:-0.91899 9:0.0522256 10:0.150473 11:0.0845153 12:0.0935333 13:0.291707 14:0.0883537 15:0.0595377 16:0.0429211 17:0.12144 18:0 19:0 20:1 21:0 22:0 23:0 24:0 25:0.00791101 26:0.0173042 27:0.0242557 28:0.00487753 29:0.00239889 30:0.0145852 31:0.0100548 32:0.00197157 33:0.0404511 34:0.87619 35:0.00528959 36:0.0949558 37:0.089255 38:0.0066124 39:0.00347682 40:0.0932767 41:0.00861045 42:0.00167977 43:0.00759552 44:0.689248 45:0.0512875 46:0.117119 47:0.043485 48:0.00364544 49:0.00352218 50:0.0222447 51:0.0366433 52:0.0156259 53:0.00762006 54:0.698807 
0.01 1:0.0162796 2:0.0776053 3:0.820197 4:0.0859179 5:-0.953137 6:0.0127597 7:0.200136 8:-0.987061 9:0.0179313 10:0.0417031 11:0.0757777 12:0.492425 13:0.133637 14:0.0425527 15:0.0220764 16:0.0163032 17:0.144834 18:0 19:0 20:1 21:0 22:0 23:0 24:0 25:0.00552179 26:0.0429918 27:0.0122757 28:0.00429308 29:0.00149588 30:0.0115857 31:0.00867109 32:0.000950999 33:0.0407305 34:0.871483 35:0.00547099 36:0.0917145 37:0.122064 38:0.00693013 39:0.00510298 40:0.0925685 41:0.00582708 42:0.00540006 43:0.019985 44:0.644936 45:0.000788438 46:0.0511567 47:0.00496957 48:0.0104742 49:0.00065134 50:0.0151943 51:0.0252597 52:0.000528267 53:0.00234993 54:0.888627 
0.01 1:0.00292817 2:0.0254424 3:0.933754 4:0.0378752 5:-0.964681 6:0.00836198 7:0.0357442 8:-0.908131 9:0.026384 10:0.07301 11:0.145855 12:0.364308 13:0.2686 14:0.0265843 15:0.016431 16:0.00648831 17:0.0639776 18:0 19:0 20:1 21:0 22:0 23:0 24:0 25:0.00469887 26:0.0130295 27:0.0105369 28:0.00454657 29:0.0012014 30:0.00988855 31:0.00536635 32:0.000907958 33:0.0410829 34:0.908741 35:0.00548906 36:0.0794485 37:0.127092 38:0.00794193 39:0.00466724 40:0.0765012 41:0.00615196 42:0.00520357 43:0.0142271 44:0.673277 45:0.00148734 46:0.0118772 47:0.0144793 48:0.000844018 49:0.000202572 50:0.00896029 51:0.00352311 52:0.00138087 53:0.0414168 54:0.915828 
0.01 1:0.0132273 2:0.598477 3:0.354834 4:0.033462 5:-0.976923 6:0.281663 7:0.658862 8:0.808082 9:0.0239748 10:0.130892 11:0.0778607 12:0.106026 13:0.0300743 14:0.0513961 15:0.220675 16:0.0448792 17:0.0325584 18:1 19:0 20:0 21:0 22:0 23:0 24:1 25:0.295678 26:0.0116871 27:0.011012 28:0.0284347 29:0.00665029 30:0.00617831 31:0.0251214 32:0.00638112 33:0.319155 34:0.289702 35:0.1 36:0.1 37:0.1 38:0.1 39:0.1 40:0.1 41:0.1 42:0.1 43:0.1 44:0.1 45:6.0118e-08 46:1.07546e-07 47:5.01631e-08 48:1.54709e-06 49:2.20925e-07 50:1.3557e-05 51:6.79968e-05 52:8.13647e-06 53:6.80247e-05 54:0.99984 
0.01 1:0.000739683 2:0.000823704 3:0.0299698 4:0.968467 5:-0.958364 6:0.0164936 7:0.122579 8:-0.592135 9:0.0133571 10:0.174269 11:0.10089 12:0.448726 13:0.187927 14:0.0327037 15:0.0029964 16:0.0124475 17:0.0101904 18:0 19:0 20:0 21:0 22:0 23:0 24:1 25:0.0201015 26:0.0517543 27:0.10462 28:0.00761328 29:0.00459631 30:0.0318967 31:0.0273833 32:0.00459359 33:0.0140418 34:0.733399 35:0.00295631 36:0.0805465 37:0.186494 38:0.00500967 39:0.00215379 40:0.115594 41:0.00479343 42:0.00400213 43:0.0055587 44:0.592891 45:0.00408112 46:0.243394 47:0.223094 48:0.00903229 49:0.00269863 50:0.0862717 51:0.0203714 52:0.0137368 53:0.0610579 54:0.336263 
0.01 1:0.0095205 2:0.00433112 3:0.0621977 4:0.923951 5:-0.957309 6:0.00295575 7:0.0231574 8:-0.893589 9:0.0298177 10:0.0655479 11:0.0299723 12:0.512916 13:0.274608 14:0.0583011 15:0.00551754 16:0.0083851 17:0.011979 18:0 19:0 20:0 21:0 22:0 23:0 24:0 25:0.0212522 26:0.0459855 27:0.105023 28:0.0104077 29:0.00529568 30:0.61104 31:0.0231566 32:0.00701565 33:0.0162178 34:0.154606 35:0.00288197 36:0.0441301 37:0.104914 38:0.00699936 39:0.0029621 40:0.156901 41:0.00859664 42:0.0032443 43:0.0104396 44:0.658931 45:0.1 46:0.1 47:0.1 48:0.1 49:0.1 50:0.1 51:0.1 52:0.1 53:0.1 54:0.1 
0.01 1:0.000366924 2:0.0138284 3:0.980562 4:0.00524263 5:-0.956849 6:0.00826371 7:0.0275002 8:-0.910211 9:0.0391445 10:0.112326 11:0.0369617 12:0.162543 13:0.0677051 14:0.374106 15:0.169442 16:0.008965 17:0.0205429 18:0 19:0 20:1 21:0 22:0 23:0 24:1 25:0.00565927 26:0.0342696 27:0.0253431 28:0.0101276 29:0.00476561 30:0.00693274 31:0.013668 32:0.00407749 33:0.0850691 34:0.810088 35:0.0239222 36:0.103115 37:0.0555705 38:0.223167 39:0.176059 40:0.0758351 41:0.0350714 42:0.0784706 43:0.115115 44:0.113675 45:0.00563248 46:0.0527998 47:0.011016 48:0.00466562 49:0.00132455 50:0.0955891 51:0.00877201 52:0.00807798 53:0.00289478 54:0.809228 
0.01 1:0.00155979 2:0.119148 3:0.87403 4:0.00526187 5:-0.956466 6:0.009438 7:0.191738 8:-0.991555 9:0.0878997 10:0.0293943 11:0.244309 12:0.161974 13:0.309251 14:0.0294745 15:0.0277886 16:0.0338344 17:0.0666373 18:0 19:0 20:0 21:0 22:0 23:0 24:0 25:0.0149859 26:0.0224608 27:0.0304685 28:0.0301744 29:0.00489305 30:0.0105116 31:0.05523 32:0.00466897 33:0.619252 34:0.207355 35:0.1 36:0.1 37:0.1 38:0.1 39:0.1 40:0.1 41:0.1 42:0.1 43:0.1 44:0.1 45:0.269031 46:0.0123435 47:0.0082421 48:0.00323517 49:0.00173556 50:0.00362624 51:0.00210971 52:0.00120965 53:0.0360118 54:0.662456 
0.01 1:0.00207775 2:0.0810479 3:0.910311 4:0.00656359 5:-0.972191 6:0.0265388 7:0.150372 8:-0.944708 9:0.0126511 10:0.140783 11:0.177631 12:0.458495 13:0.13667 14:0.0274957 15:0.0119019 16:0.000881127 17:0.00695291 18:0 19:0 20:0 21:0 22:0 23:0 24:1 25:0.0509251 26:0.138003 27:0.326018 28:0.0545853 29:0.024951 30:0.0884572 31:0.062594 32:0.0273757 33:0.0273431 34:0.199748 35:0.00779392 36:0.0680976 37:0.759852 38:0.00428272 39:0.00188283 40:0.00526354 41:0.00589412 42:0.00388481 43:0.00652149 44:0.136527 45:6.68157e-06 46:8.21923e-06 47:2.68495e-06 48:2.95526e-06 49:3.66557e-06 50:0.000198099 51:0.0005396 52:4.81355e-06 53:0.000831088 54:0.998402 
0.01 1:0.000508774 2:0.0415705 3:0.956875 4:0.00104617 5:-0.962123 6:0.00826644 7:0.14237 8:-0.771435 9:0.00328205 10:0.0671275 11:0.586197 12:0.093492 13:0.180148 14:0.0407042 15:0.0035991 16:0.00228424 17:0.0148998 18:0 19:0 20:0 21:0 22:0 23:0 24:0 25:0.0492596 26:0.141849 27:0.488749 28:0.0566587 29:0.0164961 30:0.0572868 31:0.0477484 32:0.0160073 33:0.00795686 34:0.117988 35:0.00742933 36:0.0774655 37:0.735508 38:0.00442278 39:0.00250507 40:0.00972766 41:0.00373451 42:0.00280242 43:0.00350295 44:0.152902 45:0.1 46:0.1 47:0.1 48:0.1 49:0.1 50:0.1 51:0.1 52:0.1 53:0.1 54:0.1 
0.01 1:0.0094302 2:0.700029 3:0.271643 4:0.0188975 5:-0.967358 6:0.00752228 7:0.467044 8:0.518028 9:0.0133282 10:0.00990183 11:0.0943726 12:0.795011 13:0.00743739 14:0.0508999 15:0.00219404 16:0.0133057 17:0.00602696 18:0 19:0 20:0 21:0 22:0 23:0 24:0 25:0.00071501 26:0.00267044 27:0.00522709 28:0.00197676 29:0.00017534 30:0.00098356 31:0.00656297 32:0.000130343 33:0.0158648 34:0.965694 35:0.00664754 36:0.0317259 37:0.0261133 38:0.0166887 39:0.0342954 40:0.0256878 41:0.042851 42:0.0398604 43:0.0208843 44:0.755246 45:0.00127524 46:0.0082551 47:0.00741296 48:0.00889025 49:0.0139996 50:0.000680921 51:0.0145532 52:0.00615511 53:0.0532622 54:0.885515 
0.01 1:9.16986e-05 2:0.0039832 3:0.992557 4:0.00336805 5:-0.956086 6:0.00870377 7:0.825284 8:-0.956161 9:0.00234034 10:0.00287914 11:0.0850661 12:0.87998 13:0.0118304 14:0.00196865 15:0.000800673 16:0.00350163 17:0.00292944 18:0 19:0 20:0 21:0 22:0 23:0 24:0 25:0.0087125 26:0.00646258 27:0.0174766 28:0.00462045 29:0.000933582 30:0.000925638 31:0.00419448 32:0.0024433 33:0.0335648 34:0.920666 35:0.1 36:0.1 37:0.1 38:0.1 39:0.1 40:0.1 41:0.1 42:0.1 43:0.1 44:0.1 45:0.1 46:0.1 47:0.1 48:0.1 49:0.1 50:0.1 51:0.1 52:0.1 53:0.1 54:0.1 
0.01 1:0.0081976 2:0.0942089 3:0.8853 4:0.0122936 5:-0.964003 6:0.0183975 7:0.337077 8:-0.91653 9:0.130781 10:0.0404892 11:0.0325861 12:0.582209 13:0.0897501 14:0.0315141 15:0.003417 16:0.0112086 17:0.0596472 18:0 19:0 20:0 21:0 22:0 23:0 24:0 25:0.0397669 26:0.111664 27:0.0583087 28:0.00983326 29:0.00563766 30:0.0342519 31:0.0504848 32:0.00502305 33:0.0179304 34:0.667099 35:0.0102849 36:0.161038 37:0.0221834 38:0.0241423 39:0.00948152 40:0.0261741 41:0.0202042 42:0.0211033 43:0.0357743 44:0.669614 45:0.1 46:0.1 47:0.1 48:0.1 49:0.1 50:0.1 51:0.1 52:0.1 53:0.1 54:0.1 
0.01 1:0.000154734 2:0.0042179 3:0.99343 4:0.00219748 5:-0.953056 6:0.004729 7:0.14685 8:-0.940698 9:0.616223 10:0.0176856 11:0.0100767 12:0.0109171 13:0.050791 14:0.0209741 15:0.00298617 16:0.0146414 17:0.250976 18:0 19:0 20:0 21:0 22:0 23:0 24:1 25:0.00962208 26:0.0405411 27:0.0754189 28:0.00639178 29:0.00388095 30:0.0199636 31:0.0407946 32:0.00264878 33:0.0382015 34:0.762537 35:0.0073665 36:0.128835 37:0.021183 38:0.0233943 39:0.00842828 40:0.0235893 41:0.0238202 42:0.0177128 43:0.0349459 44:0.710724 45:2.5222e-05 46:0.000689609 47:0.00441065 48:0.000116541 49:1.84641e-05 50:0.000296787 51:0.000838747 52:0.000180762 53:0.000301114 54:0.993122 
0.01 1:0.000219974 2:0.0367884 3:0.960496 4:0.00249609 5:-0.954721 6:0.0131352 7:0.216179 8:-0.944886 9:0.0412937 10:0.0410373 11:0.412422 12:0.34468 13:0.112646 14:0.010703 15:0.0032823 16:0.014858 17:0.00594283 18:0 19:0 20:0 21:0 22:0 23:0 24:0 25:0.0118435 26:0.047618 27:0.108753 28:0.00803474 29:0.00395137 30:0.0351073 31:0.0140027 32:0.00411764 33:0.0270683 34:0.739504 35:0.0028632 36:0.0310331 37:0.346902 38:0.00156522 39:0.00240425 40:0.554455 41:0.00661969 42:0.00469364 43:0.00537586 44:0.0440878 45:0.1 46:0.1 47:0.1 48:0.1 49:0.1 50:0.1 51:0.1 52:0.1 53:0.1 54:0.1 
0.01 1:0.0082605 2:0.9136 3:0.0727696 4:0.00537029 5:-0.960933 6:0.0104293 7:0.089964 8:0.703084 9:0.0667538 10:0.0485994 11:0.238123 12:0.508611 13:0.108226 14:0.00363533 15:0.00193724 16:0.00786551 17:0.00582065 18:0 19:0 20:0 21:0 22:0 23:0 24:0 25:0.0205391 26:0.0520102 27:0.0498496 28:0.00955083 29:0.00489432 30:0.019688 31:0.0174751 32:0.00642649 33:0.0214138 34:0.798153 35:0.00437486 36:0.0316516 37:0.450486 38:0.00219117 39:0.00313776 40:0.44087 41:0.00644021 42:0.00462935 43:0.00574322 44:0.0504756 45:4.79399e-05 46:0.00140316 47:0.0112473 48:0.000500426 49:0.000172436 50:0.00106405 51:0.00254177 52:0.000235786 53:0.000652456 54:0.982135 
0.01 1:0.00563876 2:0.799275 3:0.187604 4:0.00748157 5:-0.978177 6:0.00869408 7:0.116676 8:0.635192 9:0.0160323 10:0.0267911 11:0.865704 12:0.0396347 13:0.0363382 14:0.00232626 15:0.000351174 16:0.00297169 17:0.00115605 18:0 19:0 20:0 21:0 22:0 23:0 24:1 25:0.0213491 26:0.0391792 27:0.09507 28:0.0110696 29:0.00613817 30:0.0281506 31:0.0249156 32:0.00719106 33:0.029266 34:0.737671 35:0.00222817 36:0.0683709 37:0.123067 38:0.00431169 39:0.00220299 40:0.0828612 41:0.00246774 42:0.00178475 43:0.00407176 44:0.708634 45:0.00147003 46:0.00872258 47:0.00202703 48:0.00413433 49:0.000326169 50:0.0156416 51:0.0172897 52:0.00587173 53:0.103571 54:0.840946 
0.01 1:0.00225496 2:0.113054 3:0.880502 4:0.00418924 5:-0.9665 6:0.00489851 7:0.100487 8:-0.918597 9:0.063448 10:0.0276594 11:0.649671 12:0.190684 13:0.0531077 14:0.00422996 15:0.000761183 16:0.00406221 17:0.00147823 18:0 19:0 20:0 21:0 22:0 23:0 24:1 25:0.0268555 26:0.0663135 27:0.0397019 28:0.0161928 29:0.0087403 30:0.0374433 31:0.0362435 32:0.00901499 33:0.0199257 34:0.739569 35:0.00328257 36:0.0840593 37:0.0953671 38:0.0055312 39:0.00341097 40:0.124631 41:0.00187144 42:0.00187994 43:0.00209072 44:0.677876 45:0.000841426 46:0.0298771 47:0.028813 48:0.0119532 49:0.00284677 50:0.01318 51:0.00477851 52:0.00932104 53:0.117404 54:0.780985 
0.01 1:0.00148188 2:0.076836 3:0.909213 4:0.0124688 5:-0.962617 6:0.0184829 7:0.361683 8:-0.966815 9:0.101133 10:0.0265285 11:0.044109 12:0.692681 13:0.0197822 14:0.00513958 15:0.00994405 16:0.0595349 17:0.0226646 18:0 19:0 20:0 21:0 22:0 23:0 24:0 25:0.0273286 26:0.063858 27:0.0493584 28:0.0197969 29:0.00993899 30:0.0262646 31:0.0295378 32:0.00818529 33:0.0571147 34:0.708617 35:0.00492445 36:0.0367646 37:0.310386 38:0.00586873 39:0.00581331 40:0.313409 41:0.00987871 42:0.00265519 43:0.00894148 44:0.301359 45:0.0127434 46:0.0850089 47:0.0361977 48:0.00531628 49:0.00264619 50:0.0135948 51:0.059435 52:0.0142488 53:0.0670251 54:0.703784 
0.01 1:0.000310839 2:0.0449291 3:0.952661 4:0.00209959 5:-0.951952 6:0.00768555 7:0.244917 8:-0.991756 9:0.017155 10:0.0116318 11:0.152259 12:0.760661 13:0.0176342 14:0.00474075 15:0.00179401 16:0.0243806 17:0.00205792 18:0 19:0 20:0 21:0 22:0 23:0 24:0 25:0.00278754 26:0.0153943 27:0.0463339 28:0.00244233 29:0.00107346 30:0.00309765 31:0.00658911 32:0.000946197 33:0.0424431 34:0.878892 35:0.000701031 36:0.0303482 37:0.134556 38:0.000838156 39:0.00189709 40:0.808615 41:0.00300742 42:0.000373412 43:0.00113055 44:0.0185331 45:0.00138764 46:0.0358565 47:0.0247042 48:0.0047817 49:0.000441197 50:0.0308488 51:0.00935032 52:0.00210012 53:0.131441 54:0.759088 
0.01 1:0.000821061 2:0.0397937 3:0.956537 4:0.00284843 5:-0.97296 6:0.041283 7:0.476362 8:-0.978269 9:0.0131309 10:0.0488049 11:0.264189 12:0.262916 13:0.104292 14:0.0452759 15:0.0804142 16:0.0074297 17:0.132264 18:0 19:0 20:0 21:0 22:0 23:0 24:0 25:0.0490581 26:0.0227104 27:0.0026282 28:0.00641695 29:0.00201016 30:0.00264468 31:0.021567 32:0.017538 33:0.851582 34:0.0238449 35:0.01794 36:0.0868613 37:0.0948371 38:0.027662 39:0.0100914 40:0.0476868 41:0.0317163 42:0.017485 43:0.0336598 44:0.63206 45:0.00308748 46:0.0408225 47:0.0119323 48:0.000504076 49:0.000220593 50:0.00579102 51:0.00308427 52:0.00049452 53:0.0273382 54:0.906725 
0.01 1:4.41234e-05 2:0.00311418 3:0.996032 4:0.000809388 5:-0.959501 6:0.00373125 7:0.0387972 8:-0.93421 9:0.00558657 10:0.0310266 11:0.1325 12:0.229854 13:0.17092 14:0.0496209 15:0.347191 16:0.0127564 17:0.0168122 18:1 19:0 20:0 21:0 22:0 23:0 24:1 25:0.00519986 26:0.0323618 27:0.166079 28:0.00465051 29:0.00546078 30:0.00371722 31:0.00840532 32:0.00321808 33:0.0250688 34:0.745838 35:0.0046264 36:0.044824 37:0.0509796 38:0.0149545 39:0.0363455 40:0.123504 41:0.0186226 42:0.0379431 43:0.0108254 44:0.657375 45:0.00409592 46:0.0160834 47:0.020051 48:0.00058321 49:0.00156116 50:0.00120438 51:0.00943764 52:0.00600243 53:0.00944889 54:0.931532 
0.01 1:0.0124335 2:0.0543724 3:0.911295 4:0.0218991 5:-0.953509 6:8.59344e-05 7:0.00414066 8:-0.839674 9:0.000879521 10:0.00100651 11:0.0084584 12:0.0158098 13:0.0194424 14:0.00424223 15:0.936288 16:0.00249933 17:0.0112875 18:1 19:0 20:0 21:0 22:0 23:0 24:1 25:0.00482045 26:0.0338572 27:0.0633088 28:0.0097212 29:0.00613712 30:0.00797839 31:0.0107253 32:0.00216105 33:0.0405885 34:0.820702 35:0.00402224 36:0.0386801 37:0.0643141 38:0.0133475 39:0.0160006 40:0.105591 41:0.0225091 42:0.0237553 43:0.0125272 44:0.699253 45:4.70308e-07 46:1.13372e-06 47:4.74021e-07 48:2.73028e-05 49:1.05578e-06 50:2.01869e-05 51:0.000144319 52:6.43818e-05 53:0.000552893 54:0.999188 
0.01 1:0.000193938 2:0.0106121 3:0.984342 4:0.00485166 5:-0.952889 6:0.0031713 7:0.0469412 8:-0.97873 9:0.0175041 10:0.0152125 11:0.110648 12:0.14538 13:0.0891671 14:0.0322115 15:0.557877 16:0.0102296 17:0.0185994 18:0 19:0 20:0 21:0 22:0 23:0 24:0 25:0.00304466 26:0.0477746 27:0.045695 28:0.010567 29:0.00692555 30:0.00690015 31:0.00696863 32:0.00171087 33:0.0284015 34:0.842012 35:0.00377233 36:0.0494698 37:0.0568071 38:0.0207914 39:0.0325953 40:0.119545 41:0.0251951 42:0.0251688 43:0.020734 44:0.645921 45:0.00327386 46:0.129359 47:0.0267616 48:0.0172422 49:0.0352313 50:0.0211202 51:0.0441743 52:0.0407066 53:0.00946213 54:0.672668 
0.01 1:0.00177702 2:0.110438 3:0.872288 4:0.0154968 5:-0.954247 6:0.0307742 7:0.393259 8:-0.772996 9:0.0244705 10:0.0597594 11:0.394587 12:0.345238 13:0.126169 14:0.00419482 15:0.00515197 16:0.004111 17:0.00554472 18:0 19:0 20:0 21:1 22:0 23:0 24:0 25:0.00184324 26:0.00839752 27:0.00686609 28:0.00336334 29:0.00150231 30:0.00196497 31:0.00331558 32:0.00113625 33:0.0186168 34:0.952994 35:0.00293559 36:0.0626481 37:0.119581 38:0.0122496 39:0.00332935 40:0.0947742 41:0.004945 42:0.00357907 43:0.0107034 44:0.685255 45:0.000468466 46:0.0122962 47:0.00919473 48:0.00213136 49:0.00188875 50:0.00807611 51:0.0159581 52:0.00352888 53:0.0203097 54:0.926148 
0.01 1:0.000144306 2:0.00659113 3:0.991865 4:0.00139981 5:-0.972174 6:0.0287918 7:0.145916 8:-0.930491 9:0.0401382 10:0.164676 11:0.24021 12:0.156259 13:0.223666 14:0.067494 15:0.0115357 16:0.0618193 17:0.00540987 18:0 19:0 20:0 21:0 22:0 23:0 24:1 25:0.00722111 26:0.020559 27:0.0150633 28:0.00702125 29:0.00366028 30:0.00674954 31:0.0187843 32:0.00321378 33:0.0207265 34:0.897001 35:0.00300903 36:0.0474145 37:0.130083 38:0.00981173 39:0.00175298 40:0.0633508 41:0.00577147 42:0.0026403 43:0.0093989 44:0.726767 45:0.00445968 46:0.00940546 47:0.0324949 48:0.0205806 49:0.00741829 50:0.00139681 51:0.0151067 52:0.00327388 53:0.0135443 54:0.892319 
0.01 1:0.000103843 2:0.0062534 3:0.991077 4:0.00256619 5:-0.960477 6:0.0547103 7:0.202285 8:-0.971815 9:0.0236206 10:0.215357 11:0.105135 12:0.232754 13:0.172393 14:0.0966363 15:0.0714653 16:0.0178571 17:0.0100711 18:0 19:0 20:0 21:0 22:0 23:0 24:0 25:0.00286185 26:0.0117588 27:0.00784343 28:0.00380395 29:0.00209942 30:0.00459732 31:0.0107114 32:0.00170782 33:0.0157729 34:0.938843 35:0.00281287 36:0.053608 37:0.134028 38:0.00871788 39:0.00227094 40:0.0901238 41:0.00329536 42:0.00200191 43:0.00414286 44:0.698999 45:0.0256888 46:0.230171 47:0.0425184 48:0.0363292 49:0.0199719 50:0.0280359 51:0.0566999 52:0.00548097 53:0.224296 54:0.330808 
0.01 1:4.41606e-05 2:0.0051082 3:0.99429 4:0.00055732 5:-0.959111 6:0.0938638 7:0.38643 8:-0.907963 9:0.0838936 10:0.0922364 11:0.0450116 12:0.43488 13:0.083247 14:0.0299595 15:0.0495009 16:0.0298215 17:0.0575855 18:0 19:0 20:0 21:0 22:0 23:0 24:1 25:0.00240645 26:0.0168323 27:0.00809746 28:0.00315317 29:0.00156883 30:0.00335972 31:0.00396509 32:0.00116202 33:0.0209162 34:0.938539 35:0.00295275 36:0.038643 37:0.107855 38:0.00968534 39:0.00264301 40:0.107004 41:0.00463689 42:0.00256876 43:0.0159005 44:0.708111 45:0.1 46:0.1 47:0.1 48:0.1 49:0.1 50:0.1 51:0.1 52:0.1 53:0.1 54:0.1 
0.01 1:0.000172879 2:0.0200996 3:0.978579 4:0.00114872 5:-0.958795 6:0.0735891 7:0.562626 8:-0.93803 9:0.0928498 10:0.0795349 11:0.00739929 12:0.535137 13:0.0398993 14:0.0153061 15:0.00556133 16:0.0326286 17:0.118095 18:0 19:0 20:0 21:0 22:0 23:0 24:0 25:0.00295124 26:0.00759022 27:0.00751566 28:0.00439717 29:0.00147964 30:0.00270866 31:0.00500566 32:0.00186696 33:0.0165949 34:0.94989 35:0.00740651 36:0.0606717 37:0.128043 38:0.0118329 39:0.00716796 40:0.0223652 41:0.017605 42:0.00626625 43:0.0100454 44:0.728596 45:0.00120429 46:0.00109646 47:0.00033262 48:0.000343422 49:0.000142085 50:0.0066711 51:0.000228147 52:0.0019424 53:0.929328 54:0.0587113 
0.01 1:0.00331691 2:0.727806 3:0.261153 4:0.00772379 5:-0.97318 6:0.0331688 7:0.743332 8:0.543056 9:0.0188291 10:0.0200782 11:0.0212791 12:0.776742 13:0.0580736 14:0.0086996 15:0.00194557 16:0.0143176 17:0.0468663 18:0 19:0 20:0 21:0 22:0 23:0 24:0 25:0.0306104 26:0.0581045 27:0.0370625 28:0.0229953 29:0.00820691 30:0.0207478 31:0.0336836 32:0.00938718 33:0.0254923 34:0.75371 35:0.00969114 36:0.0652033 37:0.132827 38:0.0139209 39:0.00772171 40:0.0277116 41:0.021993 42:0.00622859 43:0.0121243 44:0.702578 45:0.000213109 46:0.00237395 47:0.00941792 48:0.00208403 49:0.000833005 50:0.000721316 51:0.00476601 52:0.000168996 53:0.000622937 54:0.978799 
0.01 1:0.00103476 2:0.033357 3:0.961204 4:0.00440396 5:-0.958961 6:0.0349901 7:0.711057 8:-0.988619 9:0.0283694 10:0.0153308 11:0.0131578 12:0.829212 13:0.0258541 14:0.00833587 15:0.00125034 16:0.0299985 17:0.0135011 18:0 19:0 20:0 21:0 22:0 23:0 24:0 25:0.0056136 26:0.00860434 27:0.0080804 28:0.00412744 29:0.0016164 30:0.0033401 31:0.0102456 32:0.00147137 33:0.0149304 34:0.94197 35:0.00782788 36:0.0813238 37:0.140218 38:0.00931225 39:0.00787737 40:0.0308805 41:0.0167317 42:0.00504627 43:0.00785259 44:0.692929 45:0.1 46:0.1 47:0.1 48:0.1 49:0.1 50:0.1 51:0.1 52:0.1 53:0.1 54:0.1 
0.01 1:0.00136429 2:0.162467 3:0.832157 4:0.00401185 5:-0.958433 6:0.298703 7:0.823449 8:-0.775451 9:0.0367713 10:0.118705 11:0.0923 12:0.0549593 13:0.0754287 14:0.0533861 15:0.0125956 16:0.0794863 17:0.177665 18:0 19:0 20:0 21:0 22:0 23:0 24:0 25:0.024732 26:0.0817328 27:0.0351435 28:0.0103556 29:0.00517081 30:0.0118481 31:0.0160336 32:0.00345189 33:0.0400623 34:0.771469 35:0.00741398 36:0.0653459 37:0.126618 38:0.0117652 39:0.00674626 40:0.0299056 41:0.0151627 42:0.00394012 43:0.0090898 44:0.724012 45:0.00421409 46:0.00571163 47:0.00712365 48:0.00532663 49:0.00130413 50:0.000211823 51:0.00219288 52:0.00106491 53:0.00126655 54:0.971584 
0.01 1:0.00131214 2:0.0512008 3:0.942889 4:0.00459827 5:-0.974793 6:0.0245938 7:0.938331 8:-0.976905 9:0.00833009 10:0.0140151 11:0.00733418 12:0.84666 13:0.0483675 14:0.0177184 15:0.00278388 16:0.0118806 17:0.0183162 18:0 19:0 20:0 21:0 22:0 23:0 24:0 25:0.0216815 26:0.0385881 27:0.0336858 28:0.0118366 29:0.00632916 30:0.011024 31:0.0260801 32:0.00597017 33:0.0364886 34:0.808316 35:0.00969114 36:0.0652033 37:0.132827 38:0.0139209 39:0.00772171 40:0.0277116 41:0.021993 42:0.00622859 43:0.0121243 44:0.702578 45:0.1 46:0.1 47:0.1 48:0.1 49:0.1 50:0.1 51:0.1 52:0.1 53:0.1 54:0.1 
0.01 1:0.000315935 2:0.0259684 3:0.971773 4:0.00194297 5:-0.960508 6:0.370716 7:0.847564 8:-0.75231 9:0.0475137 10:0.0650793 11:0.0677793 12:0.265591 13:0.0519092 14:0.0133872 15:0.00661619 16:0.0920014 17:0.0194067 18:0 19:0 20:0 21:0 22:0 23:0 24:0 25:0.00598937 26:0.0129081 27:0.0110764 28:0.00560347 29:0.00258511 30:0.00450722 31:0.00919581 32:0.00162155 33:0.0278769 34:0.918636 35:0.00741398 36:0.0653459 37:0.126618 38:0.0117652 39:0.00674626 40:0.0299056 41:0.0151627 42:0.00394012 43:0.0090898 44:0.724012 45:0.1 46:0.1 47:0.1 48:0.1 49:0.1 50:0.1 51:0.1 52:0.1 53:0.1 54:0.1 
0.01 1:0.000289023 2:0.0328241 3:0.962439 4:0.00444751 5:-0.953792 6:0.0222472 7:0.397753 8:-0.979255 9:0.11562 10:0.102401 11:0.00951381 12:0.447803 13:0.0321457 14:0.0193916 15:0.00262875 16:0.189737 17:0.0585117 18:0 19:0 20:0 21:0 22:0 23:0 24:0 25:0.00632621 26:0.0119813 27:0.00828249 28:0.00421142 29:0.00146514 30:0.00235038 31:0.0044436 32:0.00115721 33:0.0186517 34:0.941131 35:0.00737074 36:0.0479368 37:0.131415 38:0.012305 39:0.00620602 40:0.028848 41:0.0191603 42:0.0054784 43:0.0228126 44:0.718467 45:0.0472425 46:0.0756558 47:0.0179511 48:0.0521025 49:0.0865649 50:0.00702912 51:0.0427578 52:0.0852305 53:0.47303 54:0.112436 
0.01 1:0.00139542 2:0.65989 3:0.335882 4:0.00283251 5:-0.95751 6:0.0244388 7:0.598385 8:-0.515318 9:0.055882 10:0.0205077 11:0.00644337 12:0.813626 13:0.0202896 14:0.00405075 15:0.00270166 16:0.0462282 17:0.00583223 18:0 19:0 20:0 21:0 22:0 23:0 24:0 25:0.0262677 26:0.0407082 27:0.0274758 28:0.0190388 29:0.00690348 30:0.0222849 31:0.0212248 32:0.00804321 33:0.0246311 34:0.803422 35:0.00740651 36:0.0606717 37:0.128043 38:0.0118329 39:0.00716796 40:0.0223652 41:0.017605 42:0.00626625 43:0.0100454 44:0.728596 45:5.57633e-08 46:2.50757e-07 47:2.84553e-07 48:4.70184e-07 49:1.13087e-06 50:7.11503e-05 51:0.000273941 52:5.37293e-06 53:2.03129e-05 54:0.999627 
0.01 1:0.00519219 2:0.055904 3:0.931175 4:0.00772865 5:-0.973977 6:0.047194 7:0.717839 8:-0.950756 9:0.0525108 10:0.0180064 11:0.0105024 12:0.802745 13:0.0235818 14:0.00564086 15:0.00278364 16:0.0278518 17:0.0091836 18:0 19:0 20:0 21:0 22:0 23:0 24:0 25:0.00799663 26:0.0178855 27:0.0190095 28:0.00993104 29:0.0043514 30:0.00683416 31:0.0173803 32:0.00340036 33:0.0297503 34:0.883461 35:0.00969114 36:0.0652033 37:0.132827 38:0.0139209 39:0.00772171 40:0.0277116 41:0.021993 42:0.00622859 43:0.0121243 44:0.702578 45:0.1 46:0.1 47:0.1 48:0.1 49:0.1 50:0.1 51:0.1 52:0.1 53:0.1 54:0.1 
0.01 1:0.0107768 2:0.950038 3:0.0320198 4:0.00716545 5:-0.962865 6:0.181655 7:0.353259 8:0.9405 9:0.0195919 10:0.194934 11:0.0609036 12:0.114785 13:0.103744 14:0.0555345 15:0.00575674 16:0.212336 17:0.0507593 18:0 19:0 20:0 21:0 22:0 23:0 24:0 25:0.0188443 26:0.0439585 27:0.0323002 28:0.0112099 29:0.00595859 30:0.020082 31:0.0219016 32:0.00476159 33:0.0350905 34:0.805893 35:0.00741398 36:0.0653459 37:0.126618 38:0.0117652 39:0.00674626 40:0.0299056 41:0.0151627 42:0.00394012 43:0.0090898 44:0.724012 45:0.0033315 46:0.0595944 47:0.0151909 48:0.24342 49:0.0189196 50:0.0050911 51:0.0435104 52:0.00254971 53:0.00481825 54:0.603574 
0.01 1:0.00117445 2:0.00900702 3:0.984655 4:0.00516401 5:-0.957071 6:0.0419878 7:0.687983 8:-0.968623 9:0.00277718 10:0.0238416 11:0.0341179 12:0.819633 13:0.0442062 14:0.00416329 15:0.00304424 16:0.0171884 17:0.00904031 18:0 19:0 20:0 21:0 22:0 23:0 24:0 25:0.00665608 26:0.0429246 27:0.0404558 28:0.00319804 29:0.00246116 30:0.0101765 31:0.0118747 32:0.00144821 33:0.025726 34:0.855079 35:0.00954624 36:0.0405541 37:0.0227622 38:0.0118159 39:0.00417162 40:0.0318804 41:0.807685 42:0.0115813 43:0.0278281 44:0.0321746 45:0.00171781 46:0.00277526 47:0.0138827 48:0.000113926 49:0.000559832 50:0.000121853 51:0.0126497 52:0.00152658 53:0.000959506 54:0.965693 
0.01 1:0.0200332 2:0.0272828 3:0.930891 4:0.0217927 5:-0.952215 6:0.0311234 7:0.127202 8:-0.68212 9:0.0229458 10:0.110445 11:0.034618 12:0.3258 13:0.0510736 14:0.0833108 15:0.0580941 16:0.27674 17:0.00584868 18:0 19:0 20:0 21:0 22:0 23:0 24:0 25:0.0102944 26:0.00729864 27:0.00557427 28:0.00360105 29:0.00147031 30:0.00791825 31:0.0143696 32:0.000676836 33:0.0201407 34:0.928656 35:0.0079506 36:0.0707837 37:0.0492603 38:0.0371262 39:0.0103513 40:0.0277355 41:0.00903675 42:0.00387119 43:0.0131341 44:0.77075 45:0.1 46:0.1 47:0.1 48:0.1 49:0.1 50:0.1 51:0.1 52:0.1 53:0.1 54:0.1 
0.01 1:0.00051611 2:0.00703273 3:0.990102 4:0.00234937 5:-0.951766 6:0.0356678 7:0.556583 8:-0.895825 9:0.015816 10:0.015232 11:0.0477078 12:0.700775 13:0.0410396 14:0.0575537 15:0.0102478 16:0.0720226 17:0.00393815 18:0 19:0 20:0 21:0 22:0 23:0 24:0 25:0.180554 26:0.0248393 27:0.0168548 28:0.00477912 29:0.0019614 30:0.0226958 31:0.0366623 32:0.00170431 33:0.0856408 34:0.624308 35:0.00893095 36:0.0778327 37:0.0535509 38:0.0430635 39:0.0140011 40:0.0410545 41:0.0179655 42:0.00559276 43:0.0213147 44:0.716693 45:0.0159925 46:0.0874274 47:0.0142581 48:0.00208047 49:0.00131449 50:0.00826343 51:0.00445627 52:0.0022643 53:0.295023 54:0.56892 
0.01 1:0.00458318 2:0.0129351 3:0.970669 4:0.0118125 5:-0.919194 6:0.0254228 7:0.154627 8:-0.744284 9:0.0457427 10:0.0532632 11:0.0498889 12:0.265085 13:0.0587087 14:0.434758 15:0.0431812 16:0.0202278 17:0.0037219 18:0 19:0 20:0 21:0 22:0 23:0 24:0 25:0.0647536 26:0.0291108 27:0.00415874 28:0.0222162 29:0.00334985 30:0.00584327 31:0.0133392 32:0.00226721 33:0.114562 34:0.740399 35:0.00827242 36:0.0745916 37:0.0521427 38:0.0448758 39:0.0167699 40:0.0446576 41:0.0178241 42:0.00558526 43:0.0160491 44:0.719232 45:0.366699 46:0.190036 47:0.0304844 48:0.0633609 49:0.049444 50:0.00755519 51:0.0809928 52:0.00923808 53:0.0943528 54:0.107837 
0.01 1:0.00880933 2:0.029589 3:0.949541 4:0.0120605 5:-0.937638 6:0.0196318 7:0.197195 8:-0.897647 9:0.0153785 10:0.0526273 11:0.143055 12:0.268488 13:0.0435955 14:0.110953 15:0.0584001 16:0.275478 17:0.0123928 18:0 19:0 20:0 21:0 22:0 23:0 24:0 25:0.00958571 26:0.00695644 27:0.00489703 28:0.00823862 29:0.00230295 30:0.00141114 31:0.00898686 32:0.000601513 33:0.022216 34:0.934804 35:0.0100286 36:0.0723544 37:0.054154 38:0.0410596 39:0.00883354 40:0.0396251 41:0.0172129 42:0.00537234 43:0.0189187 44:0.732441 45:0.1 46:0.1 47:0.1 48:0.1 49:0.1 50:0.1 51:0.1 52:0.1 53:0.1 54:0.1 
0.01 1:0.00150932 2:0.54417 3:0.449319 4:0.00500167 5:-0.966509 6:0.025654 7:0.330221 8:0.519208 9:0.00908626 10:0.0352264 11:0.13792 12:0.649135 13:0.0253619 14:0.0642516 15:0.0265194 16:0.0237053 17:0.00313979 18:0 19:0 20:0 21:0 22:0 23:0 24:0 25:0.0217716 26:0.0202401 27:0.00895706 28:0.0228713 29:0.00269811 30:0.0123745 31:0.0469082 32:0.00137566 33:0.0754372 34:0.787366 35:0.010624 36:0.0854533 37:0.0556544 38:0.0404465 39:0.0137268 40:0.0436877 41:0.0126363 42:0.00472265 43:0.010238 44:0.72281 45:0.307777 46:0.0739601 47:0.00866442 48:0.0148966 49:0.0253345 50:0.00319167 51:0.036428 52:0.00538653 53:0.0381377 54:0.486224 
0.01 1:0.000413558 2:0.00598218 3:0.991586 4:0.00201801 5:-0.960381 6:0.0352852 7:0.316121 8:-0.837858 9:0.206338 10:0.0719549 11:0.0601788 12:0.302325 13:0.0593803 14:0.121869 15:0.100496 16:0.0344646 17:0.00770881 18:0 19:0 20:0 21:0 22:0 23:0 24:0 25:0.0343711 26:0.0113419 27:0.0165881 28:0.00352266 29:0.00212554 30:0.0130027 31:0.0147168 32:0.00117432 33:0.0502084 34:0.852948 35:0.0079506 36:0.0707837 37:0.0492603 38:0.0371262 39:0.0103513 40:0.0277355 41:0.00903675 42:0.00387119 43:0.0131341 44:0.77075 45:0.1 46:0.1 47:0.1 48:0.1 49:0.1 50:0.1 51:0.1 52:0.1 53:0.1 54:0.1 
0.01 1:0.0132969 2:0.846358 3:0.123514 4:0.0168311 5:-0.960302 6:0.0619014 7:0.0973297 8:0.611523 9:0.0210516 10:0.15998 11:0.0303861 12:0.249863 13:0.0666257 14:0.308516 15:0.0453269 16:0.0499746 17:0.00637559 18:0 19:0 20:0 21:0 22:0 23:0 24:0 25:0.271631 26:0.043189 27:0.00480577 28:0.0211366 29:0.00330041 30:0.0157789 31:0.0296709 32:0.00786263 33:0.133621 34:0.469003 35:0.00893095 36:0.0778327 37:0.0535509 38:0.0430635 39:0.0140011 40:0.0410545 41:0.0179655 42:0.00559276 43:0.0213147 44:0.716693 45:0.1 46:0.1 47:0.1 48:0.1 49:0.1 50:0.1 51:0.1 52:0.1 53:0.1 54:0.1 
0.01 1:0.0026828 2:0.0122452 3:0.966502 4:0.0185705 5:-0.957113 6:0.0328299 7:0.278106 8:-0.735168 9:0.0144622 10:0.0353667 11:0.0535649 12:0.667565 13:0.0784558 14:0.0494917 15:0.0112235 16:0.0520726 17:0.00496725 18:0 19:0 20:0 21:0 22:0 23:0 24:0 25:0.01587 26:0.0228751 27:0.00514313 28:0.00594846 29:0.0020178 30:0.0140221 31:0.0111305 32:0.00120987 33:0.0271807 34:0.894602 35:0.00827242 36:0.0745916 37:0.0521427 38:0.0448758 39:0.0167699 40:0.0446576 41:0.0178241 42:0.00558526 43:0.0160491 44:0.719232 45:0.1 46:0.1 47:0.1 48:0.1 49:0.1 50:0.1 51:0.1 52:0.1 53:0.1 54:0.1 
0.01 1:0.000481776 2:0.00731101 3:0.957688 4:0.034519 5:-0.97378 6:0.0132602 7:0.432364 8:-0.896561 9:0.0399307 10:0.0170662 11:0.0695427 12:0.752963 13:0.0262131 14:0.0377515 15:0.0287367 16:0.0120131 17:0.00252235 18:0 19:0 20:0 21:0 22:0 23:0 24:0 25:0.0602803 26:0.0219799 27:0.00852571 28:0.0258426 29:0.00349803 30:0.00363908 31:0.0294695 32:0.00202126 33:0.103721 34:0.741023 35:0.0100286 36:0.0723544 37:0.054154 38:0.0410596 39:0.00883354 40:0.0396251 41:0.0172129 42:0.00537234 43:0.0189187 44:0.732441 45:0.00549945 46:0.0253911 47:0.0117162 48:0.0320823 49:0.00164919 50:0.00530648 51:0.00513288 52:0.0145256 53:0.768015 54:0.130681 
0.01 1:0.000796322 2:0.0790406 3:0.911663 4:0.00850016 5:-0.960779 6:0.0568728 7:0.536803 8:-0.511412 9:0.0166729 10:0.0367208 11:0.0509666 12:0.590355 13:0.102163 14:0.00258418 15:0.00866922 16:0.122376 17:0.0126188 18:0 19:0 20:1 21:0 22:0 23:0 24:0 25:0.00641825 26:0.0227985 27:0.0160863 28:0.00834188 29:0.00369132 30:0.0118348 31:0.017024 32:0.00413747 33:0.0194994 34:0.890168 35:0.0077612 36:0.0912114 37:0.12258 38:0.0128394 39:0.00498758 40:0.0834719 41:0.0281428 42:0.00641196 43:0.0169279 44:0.625666 45:0.000684192 46:0.00125853 47:0.00531299 48:0.000331611 49:8.34896e-05 50:0.000163626 51:0.00249774 52:3.48795e-05 53:0.000322193 54:0.989311 
0.01 1:0.000399594 2:0.0319326 3:0.96086 4:0.00680815 5:-0.964216 6:0.044841 7:0.457097 8:-0.980689 9:0.0139803 10:0.0820129 11:0.0364269 12:0.494299 13:0.193141 14:0.00539765 15:0.0270188 16:0.0697765 17:0.0331061 18:0 19:0 20:0 21:0 22:0 23:0 24:0 25:0.00763012 26:0.021995 27:0.0201957 28:0.00760401 29:0.00360242 30:0.0147765 31:0.0156924 32:0.00304114 33:0.021811 34:0.883652 35:0.00862018 36:0.0747173 37:0.115683 38:0.0132849 39:0.00440052 40:0.0608581 41:0.0266368 42:0.00530758 43:0.0186775 44:0.671814 45:0.1 46:0.1 47:0.1 48:0.1 49:0.1 50:0.1 51:0.1 52:0.1 53:0.1 54:0.1 
0.01 1:0.000125942 2:0.0313076 3:0.963317 4:0.005249 5:-0.959308 6:0.333594 7:0.90929 8:-0.79187 9:0.00621676 10:0.0483128 11:0.0325786 12:0.41296 13:0.0162713 14:0.00279846 15:0.0120944 16:0.124041 17:0.0111329 18:0 19:0 20:0 21:0 22:0 23:0 24:0 25:0.0293835 26:0.0818943 27:0.041825 28:0.0175819 29:0.00763194 30:0.0458783 31:0.0249623 32:0.00663302 33:0.0200686 34:0.724141 35:0.00865554 36:0.0681895 37:0.126094 38:0.0166666 39:0.00574663 40:0.0629833 41:0.0385342 42:0.00744256 43:0.0279405 44:0.637748 45:0.00296528 46:0.0159732 47:0.00757158 48:0.0111567 49:0.00369905 50:0.00102731 51:0.0777329 52:0.000470271 53:0.00328633 54:0.876117 
0.01 1:0.000199596 2:0.0504068 3:0.938934 4:0.0104592 5:-0.961835 6:0.314072 7:0.893788 8:-0.612529 9:0.0291967 10:0.0712362 11:0.0103129 12:0.346269 13:0.0408507 14:0.00412626 15:0.0387005 16:0.104829 17:0.0404061 18:0 19:0 20:0 21:0 22:0 23:0 24:0 25:0.0100973 26:0.0260088 27:0.0143211 28:0.00672319 29:0.00335134 30:0.0131147 31:0.00888237 32:0.00416067 33:0.0159833 34:0.897357 35:0.00942825 36:0.0869476 37:0.121253 38:0.0175385 39:0.00842929 40:0.0668599 41:0.0333085 42:0.0103853 43:0.0228924 44:0.622957 45:0.00378846 46:0.00997814 47:0.0410642 48:0.0262114 49:0.00793447 50:0.00116418 51:0.00912725 52:0.000826981 53:0.00194891 54:0.897956 
0.01 1:0.00101327 2:0.0103406 3:0.878542 4:0.110104 5:-0.962217 6:0.00634728 7:0.0841529 8:-0.921188 9:0.0827894 10:0.128397 11:0.0909112 12:0.520317 13:0.121339 14:0.021713 15:0.00485168 16:0.00624373 17:0.0170907 18:0 19:0 20:0 21:0 22:0 23:0 24:0 25:0.0172836 26:0.0211581 27:0.02299 28:0.0105497 29:0.00568076 30:0.0162742 31:0.023101 32:0.00535944 33:0.0151889 34:0.862414 35:0.0135563 36:0.621526 37:0.0671989 38:0.0139337 39:0.0123355 40:0.0276205 41:0.00471993 42:0.0033981 43:0.00451363 44:0.231198 45:0.00413517 46:0.0865736 47:0.00519915 48:0.00047992 49:0.000234684 50:0.00327432 51:0.00595315 52:0.00174748 53:0.0158078 54:0.876595 
0.01 1:0.001342 2:0.0477948 3:0.932515 4:0.0183482 5:-0.962241 6:0.00400426 7:0.0272131 8:-0.958449 9:0.0138097 10:0.196284 11:0.284572 12:0.272985 13:0.204335 14:0.00827525 15:0.0044129 16:0.0065692 17:0.00475219 18:0 19:0 20:0 21:0 22:0 23:0 24:1 25:0.0669384 26:0.167928 27:0.0795922 28:0.0369391 29:0.0147607 30:0.0664235 31:0.04279 32:0.0102897 33:0.0243046 34:0.490034 35:0.00907343 36:0.621633 37:0.0827732 38:0.0118411 39:0.0155317 40:0.027041 41:0.0155871 42:0.00311164 43:0.00736701 44:0.206041 45:0.0777211 46:0.446333 47:0.0768671 48:0.0232426 49:0.0166979 50:0.0386644 51:0.0619644 52:0.0113551 53:0.0694087 54:0.177745 
0.01 1:0.000202797 2:0.0175333 3:0.978071 4:0.00419268 5:-0.961504 6:0.00309683 7:0.0392868 8:-0.81121 9:0.00892139 10:0.141236 11:0.103016 12:0.604719 13:0.115295 14:0.0106148 15:0.000975249 16:0.00464649 17:0.00748056 18:0 19:0 20:0 21:0 22:0 23:0 24:0 25:0.0192333 26:0.0309291 27:0.0346109 28:0.0110357 29:0.00510342 30:0.0267413 31:0.0181945 32:0.0048839 33:0.0213452 34:0.827923 35:0.00761793 36:0.613518 37:0.0655191 38:0.01111 39:0.0161245 40:0.0307909 41:0.0146776 42:0.00716736 43:0.0145248 44:0.218949 45:0.00189462 46:0.0512372 47:0.00663486 48:0.000197946 49:0.000452042 50:0.00131797 51:0.00540951 52:0.0011423 53:0.00191358 54:0.9298 
0.01 1:0.000484465 2:0.162763 3:0.829492 4:0.00726019 5:-0.960865 6:0.0131966 7:0.214027 8:-0.773442 9:0.0150225 10:0.0316483 11:0.0529541 12:0.0421354 13:0.0587734 14:0.226941 15:0.542954 16:0.00656703 17:0.0098068 18:0 19:0 20:0 21:0 22:0 23:0 24:0 25:0.0164274 26:0.088329 27:0.102202 28:0.00528306 29:0.00299437 30:0.0186244 31:0.0216219 32:0.0035434 33:0.0348941 34:0.70608 35:0.00747182 36:0.136432 37:0.0604756 38:0.00738856 39:0.0108351 40:0.0676664 41:0.0435559 42:0.00338454 43:0.00776047 44:0.65503 45:0.000177767 46:0.0084136 47:0.00356054 48:0.000320054 49:9.29242e-05 50:0.0145157 51:0.00132941 52:0.000506985 53:0.00291553 54:0.968167 
0.01 1:0.00636714 2:0.861955 3:0.0970115 4:0.0346659 5:-0.960508 6:0.080609 7:0.265901 8:0.514651 9:0.0167035 10:0.247257 11:0.0945051 12:0.353866 13:0.110244 14:0.0756244 15:0.00917733 16:0.00724984 17:0.00476317 18:0 19:0 20:0 21:0 22:0 23:0 24:1 25:0.0119476 26:0.0311564 27:0.0336438 28:0.0149834 29:0.00705487 30:0.0191164 31:0.0276501 32:0.00689567 33:0.0284176 34:0.819134 35:0.0359589 36:0.517065 37:0.0583114 38:0.0486748 39:0.0142969 40:0.132593 41:0.0519934 42:0.0390892 43:0.0726361 44:0.0293814 45:0.1 46:0.1 47:0.1 48:0.1 49:0.1 50:0.1 51:0.1 52:0.1 53:0.1 54:0.1 
0.01 1:0.00509051 2:0.00834042 3:0.0150192 4:0.97155 5:-0.966769 6:0.0377119 7:0.151673 8:-0.977241 9:0.106887 10:0.172241 11:0.0497942 12:0.0551943 13:0.202313 14:0.0266156 15:0.0501185 16:0.0340232 17:0.265101 18:0 19:0 20:0 21:0 22:0 23:0 24:0 25:0.00603079 26:0.0179444 27:0.0129047 28:0.00609101 29:0.00367981 30:0.00527263 31:0.0127365 32:0.00226107 33:0.0296517 34:0.903427 35:0.00442146 36:0.167116 37:0.0522689 38:0.00967784 39:0.00658313 40:0.00710195 41:0.00854212 42:0.0048451 43:0.018122 44:0.721322 45:0.273192 46:0.309806 47:0.0866048 48:0.033426 49:0.0120369 50:0.0163243 51:0.056699 52:0.0240754 53:0.0371079 54:0.150728 
0.01 1:0.00923931 2:0.888017 3:0.0780713 4:0.0246724 5:-0.963188 6:0.00979579 7:0.0935006 8:0.892827 9:0.0868864 10:0.0858671 11:0.0553733 12:0.0690759 13:0.410088 14:0.101443 15:0.123644 16:0.03655 17:0.0212763 18:0 19:0 20:0 21:0 22:0 23:0 24:1 25:0.0250136 26:0.102934 27:0.0188527 28:0.013488 29:0.00808868 30:0.0275151 31:0.0437664 32:0.00725504 33:0.107107 34:0.64598 35:0.00879527 36:0.0383555 37:0.0884724 38:0.101279 39:0.0245459 40:0.0665096 41:0.0177434 42:0.0170798 43:0.522233 44:0.114986 45:0.00204693 46:0.00152028 47:0.00370527 48:0.000412121 49:6.41789e-05 50:0.00761645 51:0.00732598 52:0.000601757 53:0.000335909 54:0.976371 
0.01 1:0.000548456 2:0.00583871 3:0.981492 4:0.0121205 5:-0.972412 6:0.0101005 7:0.130607 8:-0.898461 9:0.0591948 10:0.110076 11:0.125064 12:0.55057 13:0.0969509 14:0.0135288 15:0.00689008 16:0.00289306 17:0.0247315 18:0 19:0 20:0 21:0 22:0 23:0 24:1 25:0.0207982 26:0.0572854 27:0.027639 28:0.0104955 29:0.00584968 30:0.0232447 31:0.0201839 32:0.00830575 33:0.0221131 34:0.804085 35:0.0127096 36:0.097136 37:0.0743098 38:0.0169697 39:0.014421 40:0.0211267 41:0.0179052 42:0.0143767 43:0.0528191 44:0.678226 45:0.0113927 46:0.0297759 47:0.023898 48:0.000861941 49:0.00547168 50:0.00074903 51:0.00237298 52:0.000527228 53:0.00551494 54:0.919436 
0.01 1:4.15978e-05 2:0.00838487 3:0.991152 4:0.000421047 5:-0.975431 6:0.0122807 7:0.171855 8:-0.682263 9:0.0875581 10:0.0840352 11:0.0907845 12:0.410227 13:0.171448 14:0.0343465 15:0.0139915 16:0.00814659 17:0.087182 18:0 19:0 20:0 21:0 22:0 23:0 24:1 25:0.0669698 26:0.0577563 27:0.055139 28:0.00849095 29:0.00378027 30:0.00977239 31:0.0194762 32:0.00402411 33:0.0426617 34:0.731929 35:0.0238667 36:0.545145 37:0.175921 38:0.0172866 39:0.0105923 40:0.0566223 41:0.0211571 42:0.0138659 43:0.0315896 44:0.103953 45:0.0106372 46:0.00577862 47:0.000509809 48:0.000284465 49:0.000541952 50:0.000595017 51:0.00214818 52:0.00201847 53:0.0688824 54:0.908604 
0.01 1:0.00656006 2:0.00711211 3:0.0412715 4:0.945056 5:-0.963123 6:0.0195659 7:0.167032 8:-0.880264 9:0.25741 10:0.207617 11:0.0959944 12:0.0928818 13:0.207873 14:0.0288255 15:0.00395234 16:0.0221636 17:0.0637163 18:0 19:0 20:0 21:0 22:0 23:0 24:0 25:0.109079 26:0.0855521 27:0.056369 28:0.0102637 29:0.00378437 30:0.0187643 31:0.0400692 32:0.00549385 33:0.0458239 34:0.6248 35:0.0202511 36:0.540298 37:0.172161 38:0.0207159 39:0.012175 40:0.0586038 41:0.0189822 42:0.0097452 43:0.0239481 44:0.12312 45:0.000276384 46:0.00290273 47:0.00085751 48:0.00149474 49:0.000124553 50:0.00113812 51:0.00315905 52:0.000461278 53:0.0268646 54:0.962721 
0.01 1:0.00442721 2:0.0117192 3:0.964583 4:0.0192704 5:-0.95774 6:0.00692902 7:0.123738 8:-0.865533 9:0.0584716 10:0.0379037 11:0.11415 12:0.526258 13:0.165505 14:0.0316175 15:0.00768181 16:0.0026922 17:0.0487915 18:0 19:0 20:0 21:0 22:0 23:0 24:1 25:0.0254123 26:0.0423124 27:0.0494465 28:0.0153485 29:0.00669436 30:0.030074 31:0.0253892 32:0.0058476 33:0.0221738 34:0.777301 35:0.00234037 36:0.0481997 37:0.109725 38:0.0049351 39:0.00202951 40:0.101058 41:0.00301446 42:0.00147025 43:0.00507075 44:0.722157 45:0.000200057 46:0.00182385 47:0.0100759 48:0.000143664 49:7.78868e-05 50:0.000199354 51:0.00187907 52:0.00130155 53:0.000584466 54:0.983714 
0.01 1:0.358162 2:0.148023 3:0.381324 4:0.112491 5:-0.946371 6:0.00780811 7:0.133101 8:-0.929337 9:0.00992737 10:0.0477257 11:0.262978 12:0.381433 13:0.24792 14:0.0200419 15:0.00337237 16:0.00250091 17:0.016292 18:0 19:0 20:0 21:0 22:0 23:0 24:0 25:0.0343841 26:0.057678 27:0.0470968 28:0.0177724 29:0.0063384 30:0.0411781 31:0.018885 32:0.00480204 33:0.0166208 34:0.755244 35:0.0023061 36:0.0678784 37:0.120002 38:0.00501699 39:0.00247536 40:0.108775 41:0.00218327 42:0.00344205 43:0.0100941 44:0.677827 45:0.00121083 46:0.0218745 47:0.0480999 48:0.000717939 49:0.000135275 50:0.00679777 51:0.00511577 52:0.00242071 53:0.00386508 54:0.909762 
0.01 1:6.87661e-05 2:0.00333049 3:0.996135 4:0.000466155 5:-0.957561 6:0.0344959 7:0.299357 8:-0.99025 9:0.0134701 10:0.0526908 11:0.0986961 12:0.06503 13:0.105144 14:0.138126 15:0.479475 16:0.00601457 17:0.00685637 18:0 19:0 20:0 21:0 22:0 23:0 24:1 25:0.0253969 26:0.0862213 27:0.0606794 28:0.0053642 29:0.00298837 30:0.0116977 31:0.0157283 32:0.00370838 33:0.0210285 34:0.767187 35:0.00747182 36:0.136432 37:0.0604756 38:0.00738856 39:0.0108351 40:0.0676664 41:0.0435559 42:0.00338454 43:0.00776047 44:0.65503 45:0.00117463 46:0.0406018 47:0.00389912 48:0.00246604 49:0.000228756 50:0.000492361 51:0.0115808 52:0.000228021 53:0.00552416 54:0.933804 
0.01 1:0.000240069 2:0.0307456 3:0.96791 4:0.00110404 5:-0.972092 6:0.0293521 7:0.418881 8:-0.95012 9:0.0477637 10:0.0271345 11:0.128481 12:0.247853 13:0.134005 14:0.117424 15:0.253673 16:0.00469097 17:0.00962203 18:0 19:0 20:0 21:0 22:0 23:0 24:1 25:0.0293834 26:0.0325466 27:0.0657344 28:0.00513998 29:0.00262673 30:0.0146466 31:0.0260695 32:0.00263689 33:0.0253776 34:0.795838 35:0.00968484 36:0.125857 37:0.0646965 38:0.00532452 39:0.00758355 40:0.0642909 41:0.0418118 42:0.003156 43:0.00959134 44:0.668004 45:0.1 46:0.1 47:0.1 48:0.1 49:0.1 50:0.1 51:0.1 52:0.1 53:0.1 54:0.1 
0.01 1:0.000633809 2:0.00858363 3:0.988475 4:0.00230738 5:-0.97345 6:0.0434619 7:0.190144 8:-0.930734 9:0.0771723 10:0.104707 11:0.0640015 12:0.107349 13:0.070232 14:0.239556 15:0.223693 16:0.0177036 17:0.0521234 18:0 19:0 20:0 21:0 22:0 23:0 24:0 25:0.0111283 26:0.018829 27:0.213735 28:0.00589904 29:0.00368462 30:0.0228096 31:0.0376358 32:0.00174405 33:0.030071 34:0.654463 35:0.00722765 36:0.154028 37:0.0716237 38:0.00595091 39:0.0112435 40:0.0762854 41:0.00905136 42:0.00252834 43:0.00397915 44:0.658082 45:0.1 46:0.1 47:0.1 48:0.1 49:0.1 50:0.1 51:0.1 52:0.1 53:0.1 54:0.1 
0.01 1:0.000191378 2:0.0120436 3:0.986258 4:0.00150726 5:-0.959513 6:0.0174753 7:0.377852 8:-0.981379 9:0.210391 10:0.0360002 11:0.0308814 12:0.395141 13:0.127963 14:0.0408796 15:0.0350987 16:0.0913272 17:0.0148427 18:0 19:0 20:0 21:0 22:0 23:0 24:1 25:0.0159328 26:0.0281266 27:0.0878096 28:0.00944577 29:0.00592931 30:0.0176601 31:0.0462369 32:0.00408885 33:0.0421685 34:0.742601 35:0.0114637 36:0.147544 37:0.260713 38:0.0178358 39:0.00665655 40:0.0363349 41:0.0287314 42:0.012259 43:0.0209314 44:0.457531 45:4.87495e-10 46:1.11331e-09 47:1.55274e-09 48:1.73242e-06 49:1.36459e-06 50:1.23725e-06 51:3.22899e-06 52:2.22052e-06 53:1.7907e-05 54:0.999972 
0.01 1:0.000344619 2:0.0369966 3:0.960873 4:0.00178626 5:-0.964315 6:0.0768503 7:0.487461 8:-0.806806 9:0.0802009 10:0.0682366 11:0.0318193 12:0.21168 13:0.0832021 14:0.0530426 15:0.0328683 16:0.34158 17:0.0205204 18:0 19:0 20:0 21:0 22:0 23:0 24:0 25:0.0191146 26:0.0827034 27:0.0394538 28:0.0103698 29:0.00405426 30:0.0218287 31:0.0290665 32:0.00234337 33:0.0660371 34:0.725029 35:0.0104296 36:0.138074 37:0.0312458 38:0.0295031 39:0.0075369 40:0.0501125 41:0.0366835 42:0.0106066 43:0.0387981 44:0.64701 45:4.87495e-10 46:1.11331e-09 47:1.55274e-09 48:1.73242e-06 49:1.36459e-06 50:1.23725e-06 51:3.22899e-06 52:2.22052e-06 53:1.7907e-05 54:0.999972 
0.01 1:0.00139008 2:0.0100975 3:0.981103 4:0.00740942 5:-0.95614 6:0.00452315 7:0.132822 8:-0.953384 9:0.183574 10:0.0204986 11:0.0859505 12:0.554037 13:0.120309 14:0.0163419 15:0.00304067 16:0.00640434 17:0.00532001 18:0 19:0 20:1 21:0 22:0 23:0 24:1 25:0.0320325 26:0.0428712 27:0.0488794 28:0.023475 29:0.00855015 30:0.0294895 31:0.0154401 32:0.00595301 33:0.0153785 34:0.777931 35:0.00849151 36:0.0894813 37:0.123636 38:0.0102111 39:0.00519573 40:0.0536933 41:0.0108507 42:0.0046925 43:0.0280686 44:0.665679 45:0.00415852 46:0.0198441 47:0.0242251 48:0.00172637 49:0.00058122 50:0.046675 51:0.0055833 52:0.00109869 53:0.0181387 54:0.877969 
0.01 1:0.0022744 2:0.95914 3:0.0291211 4:0.00946458 5:-0.972463 6:0.00974963 7:0.0715169 8:0.787551 9:0.0756611 10:0.0488254 11:0.392028 12:0.316203 13:0.133684 14:0.0145203 15:0.00149609 16:0.00571591 17:0.00211652 18:0 19:0 20:1 21:0 22:0 23:0 24:0 25:0.0316375 26:0.040828 27:0.0389672 28:0.029991 29:0.0115522 30:0.0238627 31:0.0247596 32:0.00685773 33:0.0159325 34:0.775612 35:0.00963809 36:0.0710442 37:0.130014 38:0.0100221 39:0.0035952 40:0.0493531 41:0.0136485 42:0.00505953 43:0.029706 44:0.677919 45:0.00335756 46:0.0545537 47:0.0170726 48:0.0090687 49:0.000688688 50:0.0218661 51:0.0105681 52:0.00447716 53:0.356018 54:0.52233 
0.01 1:0.000607184 2:0.0156252 3:0.982372 4:0.00139537 5:-0.957047 6:0.00624539 7:0.0419149 8:-0.794898 9:0.0999115 10:0.138873 11:0.276358 12:0.258553 13:0.186398 14:0.0236963 15:0.00188912 16:0.00606659 17:0.00200956 18:0 19:0 20:0 21:0 22:0 23:0 24:0 25:0.0351255 26:0.059603 27:0.0480618 28:0.0331454 29:0.0133819 30:0.0286876 31:0.0260257 32:0.00732847 33:0.0139595 34:0.734681 35:0.00858675 36:0.0846359 37:0.140975 38:0.0107211 39:0.00454616 40:0.0507406 41:0.00928082 42:0.00371614 43:0.0195996 44:0.667198 45:0.000613035 46:0.0821355 47:0.0217469 48:0.0115496 49:0.000304748 50:0.0168109 51:0.00982581 52:0.00399331 53:0.0154036 54:0.837617 
0.01 1:0.00503565 2:0.919595 3:0.0701228 4:0.00524619 5:-0.96579 6:0.00547271 7:0.0502324 8:0.719798 9:0.0887881 10:0.12242 11:0.202673 12:0.33868 13:0.204112 14:0.0241372 15:0.0031224 16:0.00597738 17:0.00461767 18:0 19:0 20:0 21:0 22:0 23:0 24:0 25:0.0317101 26:0.032816 27:0.0313645 28:0.0172853 29:0.008078 30:0.0331313 31:0.0205484 32:0.00450631 33:0.0161826 34:0.804377 35:0.0104037 36:0.111122 37:0.0986546 38:0.0111192 39:0.00559124 40:0.0524586 41:0.0171263 42:0.00357169 43:0.0103407 44:0.679612 45:0.00408242 46:0.0111674 47:0.00367037 48:0.00174758 49:0.000241229 50:0.0093975 51:0.00385522 52:0.000566898 53:0.00481286 54:0.960459 
0.01 1:0.000117074 2:0.00470616 3:0.993647 4:0.00152954 5:-0.960875 6:0.0110022 7:0.0799149 8:-0.902301 9:0.0078476 10:0.181424 11:0.265964 12:0.121015 13:0.109078 14:0.160904 15:0.105532 16:0.0160189 17:0.0212152 18:0 19:0 20:0 21:0 22:0 23:0 24:1 25:0.0735057 26:0.0346336 27:0.0864277 28:0.0277023 29:0.00832441 30:0.0365736 31:0.0250603 32:0.0129271 33:0.0559655 34:0.63888 35:0.049292 36:0.238837 37:0.120082 38:0.0927877 39:0.0277757 40:0.0748828 41:0.0592242 42:0.0361347 43:0.0814109 44:0.219573 45:0.0066882 46:0.0999084 47:0.177376 48:0.0195911 49:0.0146599 50:0.00884756 51:0.0184038 52:0.00480332 53:0.414904 54:0.234818 
0.01 1:3.61617e-05 2:0.00235137 3:0.996279 4:0.00133383 5:-0.867857 6:0.109621 7:0.5 8:-0.980044 9:0.0656659 10:0.0876312 11:0.0485325 12:0.311238 13:0.0999419 14:0.186045 15:0.0418544 16:0.02168 17:0.0277901 18:0 19:0 20:0 21:0 22:0 23:0 24:0 25:0.114796 26:0.0447557 27:0.0308574 28:0.0219568 29:0.0202887 30:0.107183 31:0.146741 32:0.00676176 33:0.158346 34:0.348314 35:0.0148377 36:0.0869163 37:0.100146 38:0.00635181 39:0.00329382 40:0.0748111 41:0.0169083 42:0.00207084 43:0.0132122 44:0.681452 45:0.0191349 46:0.131785 47:0.0338988 48:0.00142864 49:0.00203906 50:0.00881344 51:0.0168941 52:0.0237862 53:0.021969 54:0.740251 
0.01 1:5.29818e-05 2:0.00117681 3:0.997803 4:0.000967403 5:-0.975675 6:0.13811 7:0.219967 8:-0.914167 9:0.0156389 10:0.341837 11:0.0556727 12:0.0786728 13:0.159108 14:0.134993 15:0.049469 16:0.00978651 17:0.0167117 18:0 19:0 20:0 21:0 22:0 23:0 24:0 25:0.0422426 26:0.0273582 27:0.0460158 28:0.038666 29:0.0116382 30:0.0745228 31:0.115361 32:0.00546432 33:0.258511 34:0.38022 35:0.0213648 36:0.0713603 37:0.0969977 38:0.00553191 39:0.00242878 40:0.0692624 41:0.0299013 42:0.00215117 43:0.0154279 44:0.685574 45:0.1 46:0.1 47:0.1 48:0.1 49:0.1 50:0.1 51:0.1 52:0.1 53:0.1 54:0.1 
0.01 1:0.00360292 2:0.0545116 3:0.930377 4:0.0115085 5:-0.960847 6:0.00382552 7:0.218409 8:-0.978054 9:0.0305555 10:0.0214406 11:0.0747547 12:0.768246 13:0.0746909 14:0.0155635 15:0.00439957 16:0.00177327 17:0.00475051 18:0 19:0 20:0 21:0 22:0 23:0 24:0 25:0.0164352 26:0.0418882 27:0.0787749 28:0.00592566 29:0.00358378 30:0.0267369 31:0.026856 32:0.00385413 33:0.0154517 34:0.780494 35:0.00229444 36:0.15292 37:0.168559 38:0.00986928 39:0.00339343 40:0.0284356 41:0.00572142 42:0.00293606 43:0.00311635 44:0.622754 45:0.1 46:0.1 47:0.1 48:0.1 49:0.1 50:0.1 51:0.1 52:0.1 53:0.1 54:0.1 
0.01 1:0.0526954 2:0.141959 3:0.758855 4:0.0464902 5:-0.954908 6:0.00235393 7:0.0732048 8:-0.985314 9:0.0339681 10:0.0219368 11:0.19991 12:0.550344 13:0.158495 14:0.0221154 15:0.00458518 16:0.00152609 17:0.0047647 18:0 19:0 20:0 21:0 22:0 23:0 24:0 25:0.0201624 26:0.342026 27:0.0581185 28:0.00717554 29:0.00540108 30:0.0721265 31:0.0280285 32:0.0023897 33:0.031984 34:0.432588 35:0.00436893 36:0.601354 37:0.0912259 38:0.0165472 39:0.00644417 40:0.0396122 41:0.0209345 42:0.00392418 43:0.00706939 44:0.20852 45:0.0381263 46:0.0259682 47:0.0375926 48:0.0421752 49:0.0232491 50:0.00475868 51:0.0158266 52:0.00948269 53:0.0347697 54:0.768051 
0.01 1:0.000150491 2:0.0122693 3:0.986042 4:0.00153809 5:-0.951094 6:0.0142665 7:0.5 8:-0.975612 9:0.0141244 10:0.0278658 11:0.0981097 12:0.726416 13:0.0547813 14:0.0371401 15:0.00724044 16:0.00594123 17:0.0141143 18:0 19:0 20:0 21:0 22:0 23:0 24:1 25:0.00340538 26:0.0142888 27:0.0197389 28:0.00366569 29:0.00213047 30:0.00520966 31:0.00456343 32:0.00151463 33:0.0221726 34:0.92331 35:0.00357311 36:0.150352 37:0.103703 38:0.00652006 39:0.0082076 40:0.0431174 41:0.0187074 42:0.00947617 43:0.022909 44:0.633435 45:0.0743871 46:0.102798 47:0.0414301 48:0.124375 49:0.0165731 50:0.0239636 51:0.0747454 52:0.0718403 53:0.151035 54:0.318853 
0.01 1:0.000175883 2:0.00829712 3:0.98623 4:0.00529716 5:-0.957817 6:0.0422206 7:0.625785 8:-0.993506 9:0.037585 10:0.0529923 11:0.0570338 12:0.0383486 13:0.295895 14:0.150073 15:0.126913 16:0.158007 17:0.0409328 18:0 19:0 20:0 21:0 22:0 23:0 24:0 25:0.00161929 26:0.00269653 27:0.0154451 28:0.00148053 29:0.000876767 30:0.00148712 31:0.00178877 32:0.00105778 33:0.0123988 34:0.961149 35:0.1 36:0.1 37:0.1 38:0.1 39:0.1 40:0.1 41:0.1 42:0.1 43:0.1 44:0.1 45:0.199002 46:0.187706 47:0.056533 48:0.0438149 49:0.0215858 50:0.0313574 51:0.125261 52:0.112181 53:0.032552 54:0.190007 
0.01 1:0.0247059 2:0.217187 3:0.741752 4:0.0163545 5:-0.971048 6:0.0130726 7:0.463335 8:0.5 9:0.191786 10:0.00716268 11:0.036228 12:0.605431 13:0.0365186 14:0.0345229 15:0.0298874 16:0.0107371 17:0.0346544 18:0 19:0 20:0 21:0 22:0 23:0 24:0 25:0.00170759 26:0.00761431 27:0.0131948 28:0.00274274 29:0.00150765 30:0.00185158 31:0.00322436 32:0.00132772 33:0.0168579 34:0.949971 35:0.1 36:0.1 37:0.1 38:0.1 39:0.1 40:0.1 41:0.1 42:0.1 43:0.1 44:0.1 45:0.00176468 46:0.0062692 47:0.00303951 48:3.77812e-05 49:7.47046e-05 50:0.000183598 51:0.000833632 52:4.06605e-05 53:0.00219537 54:0.985561 
0.01 1:0.00507996 2:0.665527 3:0.308182 4:0.0212112 5:-0.959034 6:0.0170202 7:0.311799 8:0.620986 9:0.00690765 10:0.0277025 11:0.349351 12:0.482369 13:0.0887983 14:0.0031118 15:0.00519842 16:0.00254007 17:0.0170003 18:0 19:0 20:0 21:0 22:0 23:0 24:0 25:0.0371869 26:0.0711133 27:0.096129 28:0.041351 29:0.0107095 30:0.0423644 31:0.0324299 32:0.00864105 33:0.0147311 34:0.645344 35:0.00203366 36:0.033634 37:0.130679 38:0.0139961 39:0.00225082 40:0.0854548 41:0.00188216 42:0.00198631 43:0.00355557 44:0.724528 45:0.000770662 46:0.0234515 47:0.0159331 48:0.00158661 49:0.000187294 50:0.0123052 51:0.0036885 52:0.00379501 53:0.0303819 54:0.9079 
0.01 1:0.00187778 2:0.986647 3:0.00861111 4:0.00286386 5:-0.966655 6:0.0422018 7:0.401919 8:0.919089 9:0.004766 10:0.0790767 11:0.251635 12:0.518707 13:0.0621645 14:0.00555811 15:0.00498059 16:0.00733095 17:0.0235788 18:0 19:0 20:0 21:0 22:0 23:0 24:0 25:0.0345817 26:0.0441814 27:0.0407937 28:0.0166347 29:0.00896652 30:0.053029 31:0.02671 32:0.0058631 33:0.0201841 34:0.749056 35:0.00131455 36:0.0365741 37:0.0968928 38:0.0108629 39:0.00240686 40:0.0877627 41:0.00470739 42:0.000977064 43:0.00509601 44:0.753406 45:0.1 46:0.1 47:0.1 48:0.1 49:0.1 50:0.1 51:0.1 52:0.1 53:0.1 54:0.1 
