svm_type c_svc
kernel_type rbf
gamma 0.5
nr_class 2
total_sv 89
rho -0.118689
label 0 1
probA -3.76697
probB 0.199454
nr_sv 50 39
SV
0.7627650398638189 5783:1 6508:1 8237:1 16787:1 46983:1 
0.622585193905647 4197:1 5783:1 6508:1 8234:1 
1.168110930492761 45735:1 
0.8069479847620855 3824:1 4553:1 5783:1 5975:1 15926:1 43169:1 
2 4571:1 5509:1 16020:1 
0.2341297874012614 4872:1 5783:1 5788:1 
0.4985945207662208 16020:1 19885:1 
2 16020:1 
0.5674209665788289 166:1 5524:1 5783:1 17111:1 51085:1 
0.6443332092594171 4672:1 4674:1 5524:1 6118:1 6397:1 6468:1 16891:1 
1.337669579308234 3980:1 6486:1 
1.795289479895243 6810:1 16021:1 
1.969560507176925 16020:1 19885:1 
2 6810:1 16021:1 
0.8359765109927283 45454:1 
0.5291683875616 16853:1 45454:1 
0.7521378063182753 5488:1 
0.644321961623407 150:1 6310:1 6810:1 16021:1 
0.05136313331537481 5509:1 5783:1 16853:1 45454:1 
1.804399488083138 5783:1 16020:1 
0.8556072971905176 4601:1 6118:1 6979:1 20037:1 
0.8364439452896033 16044:1 30176:1 
0.5484330235921229 4579:1 5789:1 8250:1 18279:1 
0.6388976099933058 4579:1 5783:1 6486:1 16021:1 
1.0103751737354 5783:1 16021:1 
0.8858671025153285 3824:1 4345:1 5488:1 5975:1 6006:1 6098:1 8152:1 17057:1 
2 6810:1 16021:1 
0.5488672978655393 3755:1 6457:1 
0.234179789507614 5783:1 5788:1 9306:1 
0.9186506400945132 5319:1 6869:1 
0.5042754995448667 4579:1 5789:1 18279:1 
0.4036169760726346 4672:1 4674:1 5524:1 6468:1 
0.5559648744623225 4867:1 5215:1 5576:1 5783:1 6810:1 
0.5485038495364215 5783:1 16020:1 16524:1 
0.417461226111046 5783:1 8475:1 16706:1 19538:1 
1.601215364254609 5509:1 
2 6810:1 16021:1 
0.6239061202652296 6457:1 31072:1 51082:1 
1.168164698280864 5515:1 
2 6810:1 16021:1 
0.5765076596690697 6457:1 
2 16787:1 
0.550665841103211 5488:1 16706:1 19538:1 
2 4571:1 5509:1 16020:1 
0.05056064359901749 5524:1 5783:1 6457:1 51082:1 
0.9188566041520232 5524:1 
0.8720502735031077 3824:1 4573:1 9311:1 
0.2857543935689003 4672:1 4674:1 5524:1 6118:1 6468:1 
0.5076358837128017 5488:1 5506:1 30176:1 
0.0763905934953078 5509:1 5783:1 6457:1 51082:1 
-2.6 16787:1 
-0.6678022877750885 4377:1 6486:1 16020:1 
-0.9147103476573615 3676:1 5622:1 8270:1 16020:1 16757:1 
-0.7204815294076671 3824:1 4559:1 5975:1 6013:1 15923:1 30246:1 43169:1 
-0.8485861979168418 5795:1 8455:1 9312:1 16021:1 
-0.6808755478444026 3824:1 4559:1 5975:1 6013:1 15923:1 30246:1 
-1.229857677111054 6486:1 8373:1 30173:1 
-0.05592289002716248 4571:1 5509:1 16020:1 
-0.9018791700467633 7212:1 16021:1 50780:1 
-1.169542893395808 139:1 3827:1 6487:1 
-2.6 4571:1 5509:1 16020:1 
-2.6 4571:1 5509:1 16020:1 
-0.6954051623016413 8375:1 16020:1 
-0.0369542283504519 16020:1 16757:1 
-0.9413659771284645 1733:1 5794:1 9058:1 16021:1 
-1.156517620484429 16051:1 16758:1 
-0.8999568380276373 16758:1 30173:1 30259:1 
-0.701851209487784 3830:1 6487:1 16020:1 
-0.8246302243101963 5179:1 5576:1 6486:1 8378:1 16020:1 
-0.9020641042643432 6024:1 16021:1 16857:1 
-0.6955453674547869 15018:1 16020:1 
-0.08711333027010362 6486:1 8378:1 16020:1 
-2.6 6810:1 16021:1 
-0.2058225724272341 5975:1 16020:1 16758:1 
-2 16020:1 
-1.246638916314089 5795:1 8378:1 
-0.2139644181842796 16021:1 16758:1 
-2.6 6810:1 16021:1 
-2.6 6810:1 16021:1 
-0.6967849835151346 4289:1 5529:1 6508:1 
-1.877053029074087 16020:1 
-1.406121439629681 8152:1 8484:1 
-2.6 16021:1 
-0.5970836623289276 5794:1 5975:1 8107:1 16020:1 
-0.6673930944947084 6486:1 8417:1 16020:1 
-1.995881938484754 8146:1 
-1.078874012781994 4289:1 6508:1 
-1.609602826257067 5783:1 8107:1 16020:1 42546:1 
-1.2373433716664 5975:1 16757:1 
