svm_type c_svc
kernel_type rbf
gamma 0.01
nr_class 2
total_sv 20
rho 0.21579
label 0 1
probA -6.07669
probB 3.04926
nr_sv 9 11
SV
1.816120839540506 1:0.0151752 2:0.0117739 3:0.00660367 4:0.966447 5:-0.95838 6:0.057268 7:0.127769 8:0.766546 9:0.0143881 10:0.377334 11:0.11972 12:0.0159084 13:0.194849 14:0.0328373 15:0.0546728 16:0.108223 17:0.0247988 18:0 19:0 20:0 21:0 22:0 23:0 24:1 25:0.0119834 26:0.0339357 27:0.0125374 28:0.0136817 29:0.0187381 30:0.0198972 31:0.172253 32:0.710249 33:0.0034425 34:0.00328147 35:0.0142746 36:0.0446097 37:0.0114371 38:0.734989 39:0.0829522 40:0.0349673 41:0.0265151 42:0.0169308 43:0.0223987 44:0.0109254 45:0.00987582 46:0.0144159 47:0.00132094 48:0.00071874 49:0.00238176 50:0.000400127 51:0.0290467 52:0.940873 53:0.000526023 54:0.000440865 
6.602963257630828 1:0.995309 2:0.00136946 3:0.000185129 4:0.00313603 5:0.942155 6:0.315197 7:0.350794 8:0.941536 9:0.0179567 10:0.470153 11:0.0106192 12:0.0190433 13:0.0407371 14:0.0634459 15:0.0117442 16:0.0315584 17:0.019545 18:1 19:0 20:0 21:1 22:0 23:1 24:0 25:0.303644 26:0.13276 27:0.00656882 28:0.0455807 29:0.260048 30:0.0120309 31:0.0545577 32:0.179515 33:0.00339726 34:0.00189835 35:0.987913 36:0.00281123 37:0.0012696 38:0.000477565 39:0.000282193 40:0.000357504 41:0.000283267 42:0.00021216 43:0.00486449 44:0.00152926 45:0.234209 46:0.114462 47:0.0207023 48:0.0950673 49:0.35814 50:0.0100677 51:0.124853 52:0.0212337 53:0.0118468 54:0.0094186 
12.45285533563563 1:0.00374112 2:0.197894 3:0.756757 4:0.0416078 5:-0.95682 6:0.129694 7:0.236879 8:-0.860908 9:0.0314253 10:0.264583 11:0.0369748 12:0.0804133 13:0.0306548 14:0.0270232 15:0.0103506 16:0.33917 17:0.0497106 18:0 19:0 20:0 21:1 22:0 23:0 24:1 25:0.0139955 26:0.0337131 27:0.341835 28:0.0404139 29:0.0113732 30:0.501749 31:0.0214663 32:0.0246585 33:0.00478187 34:0.00601284 35:0.0947367 36:0.0447239 37:0.0573931 38:0.0300388 39:0.0258356 40:0.0451038 41:0.0991804 42:0.0146839 43:0.554223 44:0.0340806 45:0.497735 46:0.20336 47:0.0278865 48:0.0250404 49:0.0476615 50:0.00731152 51:0.124049 52:0.0311632 53:0.0322626 54:0.00352948 
2.984728553166709 1:0.0247971 2:0.680024 3:0.263727 4:0.031452 5:-0.966185 6:0.304331 7:0.493475 8:-0.599182 9:0.00754151 10:0.242911 11:0.153224 12:0.016762 13:0.0350823 14:0.051192 15:0.0598493 16:0.08085 17:0.0482573 18:0 19:0 20:0 21:0 22:0 23:0 24:0 25:0.0584725 26:0.0496716 27:0.0291727 28:0.0812246 29:0.394027 30:0.0383232 31:0.0582583 32:0.284032 33:0.00464378 34:0.00217423 35:0.1 36:0.1 37:0.1 38:0.1 39:0.1 40:0.1 41:0.1 42:0.1 43:0.1 44:0.1 45:0.1 46:0.1 47:0.1 48:0.1 49:0.1 50:0.1 51:0.1 52:0.1 53:0.1 54:0.1 
29.14088563440394 1:0.00574816 2:0.945032 3:0.00988084 4:0.0393387 5:-0.975239 6:0.0183977 7:0.0983699 8:0.847548 9:0.311728 10:0.0560265 11:0.0282573 12:0.00855415 13:0.110706 14:0.0349766 15:0.0348854 16:0.378229 17:0.0182394 18:0 19:0 20:0 21:0 22:0 23:0 24:0 25:0.0819372 26:0.542981 27:0.132839 28:0.0159049 29:0.0140437 30:0.0253883 31:0.064799 32:0.096406 33:0.0139694 34:0.0117312 35:0.1 36:0.1 37:0.1 38:0.1 39:0.1 40:0.1 41:0.1 42:0.1 43:0.1 44:0.1 45:0.1 46:0.1 47:0.1 48:0.1 49:0.1 50:0.1 51:0.1 52:0.1 53:0.1 54:0.1 
83.39486116628987 1:0.00376503 2:0.0100923 3:0.0276779 4:0.958465 5:0.890493 6:0.101481 7:0.302145 8:-0.937078 9:0.0507819 10:0.235791 11:0.0703323 12:0.0651015 13:0.0329458 14:0.0232498 15:0.00826541 16:0.389694 17:0.0223579 18:0 19:0 20:0 21:0 22:0 23:0 24:0 25:0.10468 26:0.284647 27:0.102699 28:0.121091 29:0.0205001 30:0.159421 31:0.0463363 32:0.0135657 33:0.0524681 34:0.0945921 35:0.1 36:0.1 37:0.1 38:0.1 39:0.1 40:0.1 41:0.1 42:0.1 43:0.1 44:0.1 45:0.1 46:0.1 47:0.1 48:0.1 49:0.1 50:0.1 51:0.1 52:0.1 53:0.1 54:0.1 
15.83748052084056 1:0.00264443 2:0.0365388 3:0.955188 4:0.00562856 5:-0.684235 6:0.574775 7:0.938522 8:-0.551978 9:0.0192934 10:0.0644298 11:0.0545763 12:0.0901297 13:0.0328365 14:0.122705 15:0.00431417 16:0.0304128 17:0.00652699 18:1 19:0 20:0 21:0 22:0 23:0 24:1 25:0.766007 26:0.0186994 27:0.0238795 28:0.00572767 29:0.00657782 30:0.0109605 31:0.0262307 32:0.00602562 33:0.122286 34:0.0136057 35:0.1 36:0.1 37:0.1 38:0.1 39:0.1 40:0.1 41:0.1 42:0.1 43:0.1 44:0.1 45:0.1 46:0.1 47:0.1 48:0.1 49:0.1 50:0.1 51:0.1 52:0.1 53:0.1 54:0.1 
100 1:0.999694 2:2.07513e-07 3:1.27498e-07 4:0.000305293 5:0.909038 6:0.00172229 7:0.0459906 8:0.821664 9:0.660618 10:0.019921 11:0.0429882 12:0.0334978 13:0.150703 14:0.019495 15:0.0139536 16:0.0391463 17:0.0179549 18:0 19:0 20:0 21:0 22:0 23:0 24:0 25:0.118921 26:0.0405698 27:0.0233857 28:0.0548604 29:0.0181809 30:0.0753786 31:0.0656087 32:0.00749907 33:0.543019 34:0.0525764 35:0.0292455 36:0.527521 37:0.0320147 38:0.0971856 39:0.0132382 40:0.0627102 41:0.112593 42:0.0268409 43:0.0762521 44:0.0223993 45:0.650746 46:0.0525477 47:0.0323526 48:0.00557012 49:0.00598795 50:0.0110951 51:0.153902 52:0.0320764 53:0.0442803 54:0.0114424 
2.050031443265972 1:0.0384526 2:0.0458426 3:0.0251466 4:0.890558 5:0.95644 6:0.313988 7:0.825893 8:-0.959131 9:0.0254035 10:0.0679577 11:0.110058 12:0.226556 13:0.0636569 14:0.0412498 15:0.0263055 16:0.0895628 17:0.0352618 18:0 19:0 20:0 21:0 22:0 23:0 24:1 25:0.248495 26:0.0441238 27:0.016909 28:0.0217413 29:0.0192941 30:0.0259368 31:0.0800626 32:0.0965826 33:0.411514 34:0.035341 35:0.374503 36:0.117597 37:0.275045 38:0.0588375 39:0.0116934 40:0.0234218 41:0.036927 42:0.013501 43:0.0307963 44:0.0576791 45:0.1 46:0.1 47:0.1 48:0.1 49:0.1 50:0.1 51:0.1 52:0.1 53:0.1 54:0.1 
-37.30093260599293 1:0.995196 2:0.00307167 3:0.000251336 4:0.00148143 5:0.941196 6:0.0116399 7:0.0974495 8:0.763275 9:0.0620453 10:0.0487298 11:0.0140708 12:0.0105684 13:0.0109525 14:0.00639284 15:0.00881695 16:0.810721 17:0.0160628 18:0 19:0 20:0 21:0 22:0 23:0 24:0 25:0.153471 26:0.168214 27:0.0837089 28:0.0574037 29:0.0277301 30:0.0459233 31:0.0845934 32:0.0214619 33:0.136134 34:0.221359 35:0.0214869 36:0.037902 37:0.019868 38:0.0822994 39:0.0124312 40:0.0272666 41:0.0625279 42:0.0403635 43:0.6806 44:0.0152544 45:0.1 46:0.1 47:0.1 48:0.1 49:0.1 50:0.1 51:0.1 52:0.1 53:0.1 54:0.1 
-10.00946067018261 1:0.907758 2:0.0680999 3:0.0104209 4:0.0137216 5:0.964651 6:0.00728732 7:0.267735 8:0.901742 9:0.360255 10:0.0259417 11:0.102231 12:0.344831 13:0.0622291 14:0.0238321 15:0.00795808 16:0.0439893 17:0.021446 18:0 19:0 20:0 21:0 22:0 23:0 24:0 25:0.623841 26:0.0367523 27:0.0260892 28:0.0150194 29:0.0344356 30:0.0163745 31:0.13008 32:0.0255539 33:0.0753783 34:0.0164761 35:0.00609323 36:0.0140902 37:0.0106956 38:0.0135001 39:0.0133049 40:0.00807848 41:0.0242069 42:0.0265917 43:0.864965 44:0.018474 45:0.1 46:0.1 47:0.1 48:0.1 49:0.1 50:0.1 51:0.1 52:0.1 53:0.1 54:0.1 
-11.25965815726256 1:0.992318 2:0.0067559 3:5.56866e-05 4:0.000870681 5:0.971391 6:0.00269813 7:0.0911459 8:0.87996 9:0.0616083 10:0.0349833 11:0.000575948 12:0.00310715 13:0.011451 14:0.0127885 15:0.00192787 16:0.864116 17:0.00674422 18:0 19:0 20:0 21:0 22:0 23:0 24:0 25:0.0311891 26:0.0648306 27:0.166219 28:0.063605 29:0.015771 30:0.174264 31:0.0574686 32:0.0106769 33:0.12433 34:0.291646 35:0.00699427 36:0.0148676 37:0.00791868 38:0.877987 39:0.0178005 40:0.0119563 41:0.0276431 42:0.0189251 43:0.00992574 44:0.00598184 45:2.55645e-11 46:4.8851e-11 47:1.26345e-11 48:2.57949e-11 49:1.20506e-11 50:8.21897e-12 51:2.59442e-11 52:1.01841e-11 53:1 54:4.62742e-11 
-18.25392891151722 1:0.751889 2:0.0284847 3:0.0096 4:0.210026 5:0.934797 6:0.0329232 7:0.312648 8:-0.891686 9:0.0689656 10:0.0434602 11:0.020749 12:0.0430125 13:0.0712017 14:0.0352997 15:0.306567 16:0.0375067 17:0.340314 18:0 19:0 20:0 21:0 22:0 23:0 24:0 25:0.0539541 26:0.0169502 27:0.00117461 28:0.00692309 29:0.00162662 30:0.00301564 31:0.012203 32:0.0107395 33:0.880378 34:0.0130355 35:0.0441697 36:0.262182 37:0.104623 38:0.0252194 39:0.0299962 40:0.391802 41:0.03998 42:0.0155158 43:0.0252595 44:0.0612526 45:0.178476 46:0.130197 47:0.00732501 48:0.0965393 49:0.010258 50:0.0278343 51:0.0635128 52:0.148485 53:0.308348 54:0.0290252 
-31.47082715695332 1:0.963844 2:0.0154252 3:0.0050814 4:0.0156498 5:0.94635 6:0.00359658 7:0.0906208 8:0.801923 9:0.0266572 10:0.0147693 11:0.0345248 12:0.0134705 13:0.572523 14:0.192008 15:0.0357695 16:0.00988158 17:0.0968 18:0 19:0 20:0 21:0 22:0 23:0 24:0 25:0.00647028 26:0.166233 27:0.590466 28:0.0381716 29:0.00617389 30:0.110114 31:0.0541104 32:0.00321086 33:0.00434755 34:0.0207025 35:0.0015806 36:0.0329158 37:0.0430512 38:0.00154738 39:0.00444253 40:0.857896 41:0.0146032 42:0.00600583 43:0.000956717 44:0.0370012 45:0.0345182 46:0.347763 47:0.0476183 48:0.015002 49:0.0512638 50:0.00715158 51:0.124352 52:0.040364 53:0.212616 54:0.119352 
-6.961325792502568 1:0.476505 2:0.3832 3:0.0190277 4:0.121268 5:0.96381 6:0.00660512 7:0.0290734 8:0.577946 9:0.0448987 10:0.0628836 11:0.0115744 12:0.0156094 13:0.0604083 14:0.705278 15:0.0768033 16:0.00638529 17:0.00955429 18:0 19:0 20:0 21:1 22:0 23:0 24:0 25:0.0296325 26:0.116951 27:0.0577085 28:0.0144341 29:0.00710505 30:0.0721195 31:0.0880444 32:0.306783 33:0.304496 34:0.00272579 35:0.0423605 36:0.202932 37:0.0591553 38:0.121344 39:0.187037 40:0.0415492 41:0.0888745 42:0.0621333 43:0.155332 44:0.0392812 45:1.4322e-14 46:5.80356e-14 47:3.84523e-14 48:4.55298e-14 49:2.78936e-14 50:1.6254e-14 51:4.98657e-14 52:3.56524e-14 53:1 54:1.70957e-14 
-27.09300676101334 1:0.287908 2:0.684605 3:0.00981267 4:0.0176742 5:-0.96025 6:0.00273366 7:0.0681117 8:0.823335 9:0.557448 10:0.0433736 11:0.0273901 12:0.0413519 13:0.170531 14:0.0703039 15:0.00856252 16:0.0542876 17:0.024018 18:0 19:0 20:0 21:0 22:0 23:0 24:0 25:0.00610875 26:0.0553657 27:0.027776 28:0.0139394 29:0.00215514 30:0.1024 31:0.0616388 32:0.0139926 33:0.711172 34:0.00545144 35:0.00172842 36:0.00602521 37:0.00119387 38:0.0398071 39:0.002827 40:0.00110064 41:0.0052011 42:0.00630876 43:0.9322 44:0.00360826 45:0.1 46:0.1 47:0.1 48:0.1 49:0.1 50:0.1 51:0.1 52:0.1 53:0.1 54:0.1 
-11.05868871201435 1:0.855494 2:0.0864915 3:0.00293584 4:0.0550788 5:-0.95413 6:0.00976823 7:0.0348758 8:0.5 9:0.363418 10:0.132286 11:0.0135907 12:0.0308205 13:0.169043 14:0.114024 15:0.0570915 16:0.101324 17:0.00863331 18:0 19:0 20:0 21:0 22:0 23:0 24:0 25:0.0666757 26:0.0475645 27:0.111782 28:0.142791 29:0.021266 30:0.277663 31:0.0379232 32:0.171378 33:0.10708 34:0.0158762 35:0.0192867 36:0.0382589 37:0.015216 38:0.0779858 39:0.65078 40:0.0230221 41:0.0194678 42:0.0434055 43:0.097251 44:0.0153257 45:0.000522621 46:0.00892724 47:0.00155563 48:0.000966186 49:0.000449215 50:0.00214785 51:0.0161762 52:0.0297465 53:0.938751 54:0.000757606 
-46.30604884398036 1:0.373834 2:0.121153 3:0.072584 4:0.432429 5:0.956252 6:0.000966412 7:0.0699255 8:-0.832239 9:0.812305 10:0.00232402 11:0.000639993 12:0.00140103 13:0.00802162 14:0.0333188 15:0.106414 16:0.0322521 17:0.00235697 18:0 19:0 20:0 21:0 22:0 23:0 24:0 25:0.00277616 26:0.0291537 27:0.00947871 28:0.0075006 29:0.0041874 30:0.00105041 31:0.0199208 32:0.0631916 33:0.861777 34:0.00096379 35:0.0159187 36:0.106052 37:0.121689 38:0.0839024 39:0.0870752 40:0.0743367 41:0.0919584 42:0.0580567 43:0.234108 44:0.126903 45:0.1 46:0.1 47:0.1 48:0.1 49:0.1 50:0.1 51:0.1 52:0.1 53:0.1 54:0.1 
-35.96170345276599 1:0.00469861 2:0.0128229 3:0.32831 4:0.654168 5:0.941736 6:0.0125428 7:0.0928136 8:-0.938564 9:0.374139 10:0.0170723 11:0.00550161 12:0.0091441 13:0.0747654 14:0.0830437 15:0.361061 16:0.0280892 17:0.034641 18:1 19:0 20:0 21:0 22:0 23:0 24:1 25:0.0734317 26:0.250817 27:0.0548792 28:0.0450494 29:0.0265638 30:0.0217401 31:0.145371 32:0.229241 33:0.142639 34:0.0102678 35:0.00512393 36:0.00533394 37:0.003409 38:0.01514 39:0.865095 40:0.00337127 41:0.0105808 42:0.014047 43:0.0731864 44:0.00471295 45:0.1 46:0.1 47:0.1 48:0.1 49:0.1 50:0.1 51:0.1 52:0.1 53:0.1 54:0.1 
-18.60434568658877 1:0.0033911 2:0.0482804 3:0.784342 4:0.163987 5:-0.955882 6:0.0109923 7:0.146469 8:-0.719183 9:0.527548 10:0.0281844 11:0.0075101 12:0.00788154 13:0.0811523 14:0.0929348 15:0.201971 16:0.0166838 17:0.0251417 18:0 19:0 20:0 21:0 22:0 23:0 24:0 25:0.032177 26:0.116164 27:0.0332192 28:0.0315772 29:0.00661316 30:0.111421 31:0.285583 32:0.0825617 33:0.296206 34:0.00447905 35:0.00572831 36:0.0191347 37:0.0147752 38:0.0527629 39:0.0490576 40:0.00941434 41:0.0214087 42:0.0696139 43:0.745543 44:0.0125614 45:0.000294987 46:0.00671005 47:0.000870838 48:0.00043816 49:0.00541045 50:0.000481134 51:0.0618432 52:0.902326 53:0.0214757 54:0.000149746 
