svm_type c_svc
kernel_type rbf
gamma 1
nr_class 2
total_sv 92
rho -0.0855051
label 0 1
probA -6.02023
probB 1.17925
nr_sv 53 39
SV
0.6684181718787604 3824:1 8152:1 30170:1 
0.668711223382524 3824:1 4854:1 4855:1 6118:1 9055:1 16491:1 30151:1 46872:1 50660:1 51536:1 
0.3688165747889471 5777:1 
0.139382318002846 62:1 3824:1 5488:1 8152:1 
0.8054004888657825 8115:1 16491:1 46653:1 
0.9122388332147768 166:1 3824:1 3884:1 4812:1 5488:1 5524:1 5737:1 6412:1 6418:1 8152:1 16491:1 
0.0783244838765591 6629:1 16290:1 
0.8100549570372257 5215:1 5488:1 5743:1 6810:1 16020:1 
0.9942035457145874 6629:1 16290:1 
0.8798083265250567 4631:1 5737:1 6695:1 
1 62:1 3824:1 5488:1 8152:1 
0.8707785799705058 166:1 5524:1 17111:1 
0.7063768498099664 16021:1 
0.47782692711028 8415:1 
0.8050345780944663 3824:1 5488:1 6631:1 8152:1 16491:1 50662:1 
0.8176032747336627 287:1 3824:1 30976:1 
0.6558057535021823 3824:1 5488:1 5498:1 8152:1 16491:1 
0.8230017894940629 6637:1 16291:1 
0.8959576891324298 4452:1 8299:1 16787:1 
0.6629547524397003 8152:1 8415:1 
1 3824:1 
0.6658054001923066 3824:1 4854:1 4855:1 6118:1 9055:1 16491:1 46872:1 50660:1 51536:1 
0.9121707562836423 166:1 3995:1 3997:1 4812:1 5524:1 5737:1 5777:1 6118:1 6412:1 6418:1 6631:1 6635:1 8152:1 16491:1 16627:1 50660:1 
0.7095345879696756 5498:1 
0.6564582586328103 3824:1 16491:1 50660:1 
0.7134871742498272 5488:1 
0.230383027521561 3824:1 5488:1 8152:1 16491:1 
0.8602459899400773 4450:1 8152:1 16616:1 
0.8773917303996144 19787:1 43687:1 51246:1 
0.8083876105050249 5778:1 16559:1 
0.8777973111246734 4108:1 44262:1 46912:1 
0.907500942176476 166:1 5524:1 6810:1 16020:1 16021:1 16887:1 17111:1 42626:1 
0.6894824832149636 5488:1 6810:1 16020:1 
0.8086213057270843 5779:1 7031:1 
0.6899037415648435 5777:1 16020:1 
0.5479842474796125 16614:1 50660:1 
0.7309344360672791 5777:1 16021:1 16560:1 
0.8229058382547187 3824:1 4197:1 5488:1 6508:1 8152:1 16491:1 
0.6662227962396192 3824:1 3884:1 5488:1 8152:1 16491:1 
0.8710138261012627 3824:1 4312:1 5488:1 5835:1 6633:1 8152:1 16491:1 
0.2800959602651332 16491:1 
0.9139035490801369 3824:1 5488:1 5975:1 6096:1 6100:1 6108:1 8152:1 16491:1 16615:1 16616:1 30060:1 44262:1 
0.7892599760301066 3824:1 6118:1 8152:1 10181:1 16491:1 
0.9085262635457757 5507:1 5515:1 8131:1 9308:1 48038:1 
0.8230529389222933 3743:1 6413:1 
0.6189720730563079 3824:1 8152:1 
0.6684862490756499 6066:1 16614:1 50660:1 
0.8056231261983388 3824:1 4451:1 8152:1 19752:1 
0.9318471337532328 4096:1 6118:1 6979:1 
0.4902687340906855 8152:1 16491:1 
0.9116758029159446 3995:1 3997:1 5777:1 6118:1 6631:1 6635:1 8152:1 16491:1 16627:1 50660:1 
0.822712203096834 4846:1 6144:1 
0.8755424327902986 5515:1 5778:1 7031:1 8270:1 
-1.141893437642767 4767:1 6685:1 16787:1 
-1.111031744437674 6955:1 16020:1 19882:1 42613:1 
-1.214377185806286 4067:1 6516:1 
-1.046230026948821 4197:1 4601:1 6118:1 6508:1 6979:1 8234:1 20037:1 50790:1 
-0.9624445070438856 3824:1 4565:1 5975:1 9341:1 43169:1 
-0.774551811204407 4197:1 6508:1 8234:1 50790:1 
-0.9555732670836584 4531:1 5179:1 5576:1 6259:1 
-1.014592416782197 4190:1 4194:1 6508:1 
-0.911513493548061 1509:1 4197:1 6508:1 
-0.9548236369867792 3824:1 4553:1 4568:1 5975:1 6032:1 43169:1 
-0.2038384981366562 3824:1 6629:1 
-1.085166624655269 4531:1 6259:1 
-1.052601413564225 8152:1 8484:1 
-0.8853299010522284 4553:1 5975:1 
-0.6047577961593046 3824:1 4553:1 5975:1 
-0.6197241012853381 4197:1 6508:1 8234:1 
-0.9559545588739589 8152:1 8449:1 8484:1 30203:1 
-0.9622039457366296 3824:1 4336:1 5975:1 6683:1 43169:1 
-0.8131176430375984 3824:1 4560:1 5975:1 43169:1 
-1.063968198933998 3824:1 4348:1 5764:1 5975:1 6665:1 7040:1 43169:1 
-0.81269349223483 3824:1 4563:1 5975:1 43169:1 
-1.091531143583411 323:1 5515:1 5537:1 15578:1 15761:1 16021:1 
-1.21447771811451 6464:1 8474:1 
-1.144996884979512 8158:1 16020:1 16021:1 30301:1 
-1.493496293702143 3824:1 6629:1 
-1.108253238076424 5215:1 5515:1 5737:1 6810:1 16021:1 
-1.5 3993:1 
-1.037072239197773 3824:1 4553:1 5215:1 5488:1 5975:1 6810:1 43169:1 
-1.079894919548672 3824:1 4559:1 5975:1 6013:1 15923:1 30246:1 
-1.5 3824:1 5488:1 8152:1 
-1.12760185696046 4601:1 6118:1 6979:1 20037:1 
-0.9757405177966437 4185:1 6508:1 
-0.7934306276180352 4289:1 6508:1 8236:1 
-0.7940880499309908 5783:1 8152:1 8484:1 
-1.091524190620131 5764:1 6629:1 6665:1 
-0.8252640481616969 3824:1 4553:1 5975:1 8152:1 43169:1 
-1.214555080507504 3676:1 4522:1 
-1.104601330368243 4872:1 5764:1 7155:1 16020:1 
-0.6839811837194093 6508:1 8236:1 
