svm_type c_svc
kernel_type rbf
gamma 0.1
nr_class 2
total_sv 228
rho -0.922785
label 0 1
probA -4.67231
probB -0.503105
nr_sv 109 119
SV
0.04041187264170496 3824:1 3987:1 8152:1 16208:1 
5.180040579786974 6118:1 
2.540708949094529 36:1 5509:1 6633:1 31177:1 48037:1 
1.567984706614123 3676:1 3723:1 
0.7324677556797278 6118:1 9055:1 51536:1 51537:1 
2.438168979221158 104:1 6099:1 6118:1 16020:1 
8.796225758161881 4089:1 6730:1 8270:1 
1.921223751792504 166:1 5515:1 5524:1 15031:1 16887:1 17111:1 
10.99875966061133 4089:1 6730:1 8270:1 
0.9179856745225387 3723:1 6396:1 16779:1 
0.7342437427199296 4129:1 5746:1 6118:1 9055:1 
0.04337131120881365 3824:1 3867:1 8483:1 9448:1 30170:1 
1.583152566275589 3746:1 5622:1 6414:1 
0.2570394563395742 5506:1 5740:1 6099:1 6118:1 16021:1 20037:1 
3.163246021848897 5737:1 16813:1 
0.4099403739364227 3677:1 3887:1 3895:1 5760:1 6260:1 
0.8888820783473895 4812:1 5524:1 6412:1 
6.14878868988228 5509:1 5524:1 6457:1 51082:1 
0.7517515943613438 3824:1 4356:1 6542:1 6807:1 
2.317173089668404 4109:1 6779:1 
1.917394319465521 5739:1 6879:1 
0.3106894455984451 3743:1 3924:1 5525:1 5622:1 6413:1 
2.316683888722384 4359:1 6541:1 
0.04163398967059147 3824:1 4421:1 8152:1 8299:1 
1.112498466386069 3824:1 16301:1 16772:1 
1.716618899262647 4368:1 5509:1 6072:1 9331:1 16491:1 
1.974349873173641 774:1 5515:1 6457:1 42803:1 51087:1 
5.511867113261633 5488:1 6810:1 16020:1 
0.03760794293373673 3824:1 4419:1 8152:1 
11 5488:1 6810:1 16020:1 
2.190359603777827 3824:1 6464:1 
3.972693336980103 6629:1 16290:1 
0.03908497110107158 16209:1 16491:1 
1.272684059006811 5524:1 6139:1 16773:1 
3.974970693673675 3824:1 5488:1 8152:1 9396:1 
1.163569049767961 3824:1 4152:1 4158:1 6207:1 6222:1 8152:1 16020:1 
2.000162404012863 3824:1 5488:1 8152:1 44237:1 50662:1 
6.788296619878786 3676:1 4519:1 
1.10973128343844 4611:1 5525:1 6094:1 17076:1 
0.883259775509864 3824:1 8483:1 30170:1 
1.273716981315248 4673:1 5524:1 18106:1 
1.267843212919894 166:1 4812:1 4830:1 5524:1 5737:1 6412:1 6418:1 6436:1 
0.5454548122258576 6662:1 9055:1 15035:1 45454:1 
3.094956581438482 3677:1 6355:1 
1.367676856091955 3824:1 4722:1 6470:1 8287:1 
11 4222:1 6508:1 8237:1 8270:1 
0.7826974832960492 3677:1 3899:1 6350:1 
4.611950405469057 5759:1 
1.460960553071084 8152:1 8410:1 
1.030628265013074 5507:1 5743:1 6118:1 6825:1 6878:1 8535:1 
1.405266233749504 6754:1 8553:1 15078:1 15986:1 16021:1 16469:1 46933:1 46961:1 
0.2629544650054018 3824:1 4375:1 5961:1 6544:1 30170:1 
1.269049021397127 166:1 4812:1 4828:1 5524:1 5737:1 6412:1 6418:1 6434:1 
4.610348057241473 16874:1 
8.238901919153298 16491:1 
2.315389246915507 6122:1 8121:1 
0.6496022456301334 4550:1 5524:1 6183:1 6228:1 6241:1 
4.610491299654815 4437:1 
2.086025237165805 8270:1 8800:1 16787:1 17001:1 
0.3496307133784686 3824:1 5488:1 8152:1 16616:1 48037:1 51287:1 
1.462034669746319 8152:1 16624:1 
2.387173860688521 166:1 3676:1 
1.998159186572722 5960:1 6546:1 
0.7816978563848056 4047:1 5737:1 6546:1 
1.999547106603435 3824:1 3878:1 4775:1 5488:1 8152:1 
1.248015644662655 3824:1 5488:1 8152:1 16491:1 
3.049912401944888 4602:1 6979:1 
1.924704696557447 5740:1 7585:1 
11 4601:1 6118:1 6979:1 20037:1 
2.316761532005351 4358:1 6526:1 
0.6880472240984649 3824:1 4470:1 5488:1 6108:1 8152:1 16616:1 51287:1 
6.729503915395287 4659:1 9058:1 16021:1 
1.729529865032006 6744:1 8152:1 8168:1 8425:1 
1.547351175243289 4657:1 6537:1 6562:1 
5.620448173650839 6412:1 
2.627663939512517 15986:1 16020:1 16469:1 46933:1 46961:1 
0.04003537180353574 4108:1 44262:1 46912:1 
0.2627643794200885 3824:1 4372:1 6544:1 6563:1 30170:1 
1.295398855290508 5506:1 6118:1 9055:1 20037:1 
0.8840234270550222 3824:1 5488:1 8152:1 8270:1 16491:1 
0.2467597584354277 3984:1 8152:1 9082:1 16597:1 
0.6294499244034448 5515:1 5524:1 6457:1 44267:1 51082:1 
1.724271229714404 166:1 4176:1 4252:1 5524:1 6508:1 6510:1 17111:1 
0.0416943398431909 3824:1 4084:1 8152:1 9081:1 
0.6055352799049533 3723:1 5622:1 19843:1 
0.976830025537371 4857:1 5739:1 45980:1 
0.4075965343734857 4450:1 8152:1 16616:1 
0.09606341338488 3824:1 5488:1 5975:1 6096:1 6100:1 6108:1 8152:1 16491:1 16615:1 16616:1 30060:1 44262:1 
0.2399223942763972 287:1 3824:1 3984:1 9082:1 16740:1 30976:1 50660:1 
11 4222:1 6508:1 8237:1 8270:1 
0.7803325764048871 4659:1 6783:1 8495:1 16021:1 
4.610604941954668 3697:1 
2.263687092783444 44262:1 46912:1 
0.04513198845256944 4742:1 5515:1 6090:1 8152:1 8415:1 45254:1 
1.023708764691194 3755:1 6457:1 
0.8499405757559232 3824:1 8152:1 
4.207570890101309 45454:1 
0.4924573563945851 6118:1 9055:1 16651:1 51287:1 
0.8918192602666771 4585:1 6520:1 9348:1 16597:1 16743:1 
5.959783072414188 5515:1 8152:1 8415:1 
2.027640347189492 4325:1 6783:1 
0.2747336373205092 4784:1 6801:1 46872:1 
10.02437384126524 16021:1 51205:1 
10.41262226364942 3824:1 4222:1 6508:1 8270:1 46872:1 
2.315907109565492 4609:1 8654:1 
0.04070446735549436 3735:1 6412:1 15934:1 
1.267758112830693 166:1 4812:1 4823:1 5524:1 5737:1 6412:1 6418:1 6429:1 
0.7712509256706546 3743:1 5740:1 6413:1 
1.033062261443295 287:1 4427:1 5737:1 6796:1 
-0.14522285266114 6955:1 16020:1 19882:1 42613:1 
-0.6279578109736879 4889:1 5216:1 5230:1 6810:1 6811:1 16020:1 16021:1 30594:1 45211:1 
-0.1198486764363768 5185:1 5576:1 7154:1 16020:1 
-1.007426276641023 8528:1 16020:1 
-2 4222:1 6508:1 8237:1 8270:1 
-5 4222:1 6508:1 8237:1 8270:1 
-5 4222:1 6508:1 8237:1 8270:1 
-4.953110684380731 4222:1 6508:1 8270:1 
-5 4222:1 6508:1 8270:1 
-5 4222:1 6508:1 8237:1 8270:1 
-0.0821255454727413 4222:1 6508:1 8237:1 8270:1 
-0.9786520042787057 4190:1 4194:1 6508:1 9049:1 
-1.394537564259499 166:1 4812:1 5509:1 5524:1 5737:1 6412:1 6418:1 7156:1 16020:1 
-5 4089:1 6730:1 8270:1 
-0.3708396879501419 4930:1 7218:1 9986:1 16020:1 16527:1 
-5 4089:1 6730:1 8270:1 
-5 4089:1 6730:1 8270:1 
-0.9426297201711525 4180:1 4182:1 6508:1 8270:1 
-1.064420291223808 5102:1 7155:1 7165:1 
-1.009980844431718 5509:1 16846:1 
-5 15078:1 16469:1 
-0.09084281725250704 1584:1 7186:1 16021:1 16493:1 
-0.4037144648013921 4672:1 4713:1 5524:1 6468:1 7242:1 9190:1 16849:1 
-3.013908442063476 4672:1 5524:1 6468:1 
-5 5529:1 
-0.2361497814096312 5102:1 5179:1 5576:1 7155:1 7165:1 
-1.923499888503555 5509:1 
-0.8239996836183106 7219:1 7275:1 16021:1 
-0.5933200353808777 4714:1 5524:1 6468:1 7169:1 16020:1 
-5 3676:1 8168:1 32259:1 
-1.006880551285781 5125:1 16020:1 
-1.105089584933282 4623:1 5515:1 6644:1 16042:1 
-0.08989864919780353 1584:1 4962:1 7186:1 16021:1 
-0.5194705118290707 4890:1 5216:1 5230:1 6810:1 6811:1 6821:1 7214:1 16020:1 16021:1 30594:1 45211:1 
-1.065422724164792 4890:1 5230:1 6810:1 6811:1 16020:1 16021:1 30594:1 31177:1 45211:1 
-0.3689432485918314 4965:1 7186:1 8067:1 16021:1 
-0.09035666651243414 1584:1 4983:1 7186:1 16021:1 
-0.7384264025793688 4672:1 5524:1 6468:1 7242:1 9190:1 16849:1 
-1.719303285024955 5515:1 
-0.6436994842221494 5230:1 6810:1 6811:1 6821:1 16020:1 16021:1 16934:1 30594:1 45211:1 
-0.1465987635786356 6955:1 16020:1 19882:1 42612:1 
-5 5515:1 
-1.009652883783728 3998:1 4896:1 16020:1 
-0.9363093561165018 4908:1 4910:1 
-3.437363170193378 4908:1 4910:1 5524:1 16887:1 
-1.008071938920269 16020:1 16337:1 
-1.007051975729448 16020:1 19955:1 
-0.02290322305370724 4888:1 7165:1 31224:1 45087:1 
-0.4328590170654747 1584:1 4964:1 7186:1 16021:1 16500:1 
-0.4296282209417737 4672:1 4674:1 4675:1 4702:1 4713:1 5024:1 5524:1 6468:1 7178:1 16020:1 
-0.9261368069028726 4872:1 5488:1 7155:1 7160:1 7229:1 7275:1 8152:1 8305:1 16491:1 
-0.500353656338241 1584:1 3676:1 5515:1 5622:1 7186:1 8270:1 16021:1 16500:1 
-0.9112586237666278 7154:1 16020:1 
-3.395715024558795 4930:1 6950:1 
-5 166:1 4812:1 5524:1 5737:1 6412:1 6418:1 
-1.058777614372941 3824:1 4553:1 5975:1 15926:1 43169:1 
-5 5515:1 
-0.1718516473270409 5509:1 8152:1 16020:1 16740:1 
-2.778021609919217 7155:1 8305:1 
-2.993952409889022 16020:1 
-0.9336295954036226 3700:1 4930:1 5622:1 6355:1 7186:1 8067:1 16021:1 43565:1 
-4.067104533291567 6629:1 16298:1 16788:1 
-1.261513427509518 3824:1 4222:1 5578:1 6508:1 8152:1 8237:1 8270:1 46872:1 
-0.321171240001089 4888:1 7166:1 16020:1 
-5 3824:1 4222:1 5578:1 6508:1 8152:1 8237:1 8270:1 46872:1 
-4.911312808139541 16021:1 
-5 16020:1 
-3.192021498759706 16020:1 
-0.09144221631026363 1584:1 4989:1 7186:1 16021:1 
-5 16021:1 
-3.832456566139976 4601:1 5509:1 6118:1 6979:1 20037:1 
-5 4601:1 6118:1 6979:1 20037:1 
-5 4601:1 5509:1 6118:1 6979:1 20037:1 
-1.103808880255895 6816:1 7601:1 8273:1 16021:1 
-0.6991589259620684 16021:1 
-0.2727680681250038 1584:1 7186:1 7596:1 15057:1 16021:1 
-1.017916532644657 3677:1 3711:1 5509:1 6355:1 7156:1 16020:1 
-0.0555377497536531 5216:1 6811:1 16020:1 
-3.769486932178207 4089:1 4725:1 6470:1 6730:1 8270:1 16311:1 16791:1 
-1.468682414041583 4867:1 
-1.03438280846316 6886:1 8277:1 8565:1 16021:1 
-0.1841896996672313 3700:1 4872:1 5622:1 6355:1 7275:1 16020:1 43565:1 
-1.009988877971753 8092:1 16020:1 
-2.592178718342388 4888:1 5515:1 7165:1 8152:1 16491:1 31224:1 45087:1 
-5 5344:1 6810:1 16021:1 
-2.613293888465864 5576:1 6955:1 8009:1 
-5 4872:1 6118:1 9055:1 
-0.3271480029175965 786:1 3677:1 4872:1 4888:1 5634:1 6915:1 6955:1 7165:1 7283:1 16020:1 
-4.954406480345443 4867:1 
-0.09489301464433883 4896:1 16020:1 
-0.8052520127695665 7596:1 16021:1 
-0.05371653432890309 3824:1 4888:1 5515:1 7165:1 8152:1 31224:1 45087:1 
-1.520255413438933 5507:1 8131:1 9308:1 48038:1 
-5 9058:1 16844:1 
-0.2421173117722584 3840:1 
-4.103669687786393 3824:1 5975:1 43169:1 
-1.055599106739881 7010:1 16012:1 16021:1 
-0.6472598217357244 4672:1 4674:1 4713:1 5524:1 6468:1 
-4.397150044074959 3824:1 4252:1 6508:1 
-0.6262533301044034 6508:1 8233:1 
-2.338673858610203 6508:1 8152:1 8237:1 8270:1 16787:1 
-1.103642884962437 5391:1 6813:1 6814:1 16020:1 
-2.058341562404769 3824:1 3953:1 5488:1 8152:1 
-4.998674712833878 3824:1 3953:1 5488:1 8152:1 
-1.247117657925199 5044:1 5737:1 6817:1 16020:1 
-1.018437280363171 3700:1 4871:1 5044:1 5634:1 5737:1 6355:1 6817:1 6898:1 7165:1 16020:1 
-1.680040447037523 4872:1 
-2.06015046156081 5488:1 
-5 5488:1 
-5 5507:1 16491:1 
-1.439674345396764 3840:1 4629:1 8270:1 
-5 5488:1 
-5 3676:1 3824:1 4519:1 8152:1 
-5 3840:1 
-5 5488:1 
-5 5509:1 5783:1 6457:1 51082:1 
-1.008341483288357 16021:1 16485:1 
-5 5488:1 
-0.3442066463425223 6886:1 6955:1 16020:1 19882:1 42289:1 
