svm_type c_svc
kernel_type rbf
gamma 0.1
nr_class 2
total_sv 162
rho -0.0145904
label 0 1
probA -2.45875
probB 0.689657
nr_sv 126 36
SV
8 4197:1 6508:1 8234:1 
0.5423346873065871 5524:1 15889:1 16887:1 31419:1 
0.5007599511861166 15889:1 31419:1 
1.17279725710341 45735:1 
8 3676:1 4522:1 
1.329040603866677 8430:1 
0.643627011535681 5529:1 16020:1 16524:1 
8 3676:1 4522:1 
8 3676:1 4522:1 
8 5764:1 6629:1 6665:1 
8 3676:1 4522:1 
8 3676:1 4522:1 
8 3676:1 4522:1 
8 3676:1 4522:1 
3.155697067638341 1584:1 7186:1 16021:1 
0.3981655840085151 5488:1 5615:1 48240:1 
2.187133675629283 3824:1 3847:1 8247:1 16042:1 
8 3824:1 4553:1 4568:1 5975:1 6032:1 43169:1 
2.449775310476682 1503:1 7155:1 
1.326825630277353 42742:1 
0.2695580219183269 5509:1 7160:1 8218:1 16020:1 18298:1 
8 4289:1 6508:1 
0.9364886753641395 5578:1 7155:1 31012:1 
0.4650157457176478 4872:1 5102:1 5578:1 5604:1 5606:1 7155:1 30155:1 30334:1 31012:1 45995:1 
8 3824:1 6629:1 
8 3824:1 4559:1 5975:1 6013:1 15923:1 30246:1 
0.1294009631311328 5102:1 5578:1 5604:1 5606:1 7155:1 30155:1 30334:1 31012:1 45995:1 
8 3824:1 6629:1 
2.499918306492711 3824:1 4806:1 6629:1 
0.05064794288828334 4857:1 4867:1 
0.2703258542938479 5198:1 5578:1 
1.146874325542056 5576:1 8152:1 16491:1 
1.449058035827957 4896:1 16020:1 
1.071905649850612 5488:1 6955:1 
0.4188787562521202 5201:1 5578:1 8415:1 
1.125440805484239 6118:1 8047:1 9055:1 
2.855798093292862 5737:1 6817:1 
5.743156150629712 5215:1 5488:1 6629:1 6810:1 
0.5396564897021373 5488:1 30682:1 43176:1 
2.444398942028091 4602:1 6979:1 
0.2822640349296366 6066:1 16614:1 50660:1 
0.4641636364327809 5507:1 7155:1 16491:1 
0.8568052845351173 7218:1 
0.4348600250446607 5179:1 5183:1 5576:1 7275:1 
0.5169561025306124 3677:1 4869:1 
1.523360613674958 5506:1 15671:1 19825:1 20037:1 
0.2994656546138717 5179:1 5576:1 16608:1 
0.8226297357084679 5102:1 7165:1 
0.08025873836860707 8083:1 
1.328548502975131 8289:1 
0.1627767429130247 5488:1 6826:1 6879:1 8199:1 16491:1 46914:1 
0.301983330250101 5128:1 5179:1 5576:1 
1.97670347695838 6508:1 8237:1 8270:1 
1.329380463990927 8219:1 
1.267075518451682 4180:1 4182:1 6508:1 8270:1 
0.3006066789197137 5179:1 5576:1 18445:1 
1.447899291917222 5044:1 16020:1 
0.8325203475565982 6807:1 16810:1 16811:1 
0.3906704232547678 5344:1 6810:1 
8 3676:1 4522:1 
6.673311118841792 3824:1 4553:1 4568:1 5215:1 5975:1 6032:1 6810:1 16020:1 43169:1 
8 3676:1 4522:1 
1.329017520610041 7338:1 
8 3676:1 4522:1 
0.5170742767657219 4857:1 4867:1 50819:1 
1.850930402071548 6629:1 6869:1 8047:1 42627:1 
8 3824:1 5975:1 43169:1 
0.519624544528668 7218:1 30141:1 
0.2641597387864805 5319:1 6869:1 
7.362891803389349 3993:1 16787:1 46872:1 
8 3993:1 
8 4601:1 6118:1 6979:1 20037:1 
0.6955235879227535 5507:1 8131:1 9308:1 48038:1 
0.3005727408204724 5179:1 5576:1 46008:1 
6.268196805257571 5515:1 
8 3824:1 4806:1 6629:1 
8 4553:1 5975:1 
0.07151488083128889 5230:1 6810:1 16020:1 
8 3824:1 4553:1 5975:1 43169:1 
8 4601:1 6118:1 6979:1 20037:1 
1.675625772192696 4289:1 6508:1 42802:1 43086:1 
0.389213370014093 4867:1 
0.860743720462385 4869:1 
8 3824:1 4553:1 5975:1 43169:1 
2.349738060883273 5488:1 
0.8024684744250474 5529:1 
8 3824:1 4553:1 5975:1 43169:1 
0.2052205194008187 5509:1 7155:1 
1.011317427633016 4568:1 6032:1 16998:1 
0.8685427275988493 5199:1 5618:1 
0.8303555183797755 5576:1 8152:1 16787:1 50525:1 
0.6277139987329758 3723:1 4540:1 17148:1 
0.5144534191086714 4568:1 6032:1 8061:1 16998:1 
1.328906255700636 4866:1 
3.202851665473101 4620:1 8152:1 9395:1 
5.474240338887474 4553:1 5576:1 5975:1 30248:1 
8 3824:1 4553:1 5975:1 43169:1 
8 4553:1 5975:1 
8 4190:1 4194:1 6508:1 
8 3824:1 4553:1 5975:1 43169:1 
0.4332065557406575 5125:1 5179:1 5576:1 8283:1 
2.502523026954923 272:1 3824:1 4339:1 5975:1 5976:1 30246:1 
1.373523600098002 3824:1 6118:1 16052:1 16491:1 16614:1 30246:1 50660:1 
8 4601:1 6118:1 6979:1 20037:1 
8 4553:1 5975:1 
8 4601:1 6118:1 6979:1 20037:1 
4.424636699275226 4650:1 5975:1 
0.6899492212412057 3723:1 4521:1 
6.879402598228243 3824:1 4252:1 6508:1 
0.9453179029906233 7166:1 30377:1 
0.5190258679638077 4867:1 9611:1 
0.3925921505981582 5496:1 6810:1 
0.8640767649305505 6952:1 
8 3824:1 4553:1 5975:1 43169:1 
0.1895827541624815 5199:1 9664:1 45735:1 
8 4185:1 6508:1 
8 3824:1 4553:1 5975:1 43169:1 
3.428515171991205 3824:1 4556:1 5509:1 5975:1 43169:1 
1.651044404424183 5164:1 6955:1 16020:1 
1.379314989251923 8083:1 16020:1 
0.5156192294511368 6952:1 45926:1 
5.742786427898628 4872:1 
0.4264331011146333 5499:1 5615:1 6810:1 51183:1 
1.327905181114542 30414:1 
4.188898325174871 6955:1 16020:1 19882:1 42612:1 
0.279620798450854 3735:1 5576:1 5622:1 5840:1 6412:1 6826:1 6879:1 8199:1 
-5.783795498191667 4767:1 6685:1 16787:1 
-6.845729893793757 6955:1 16020:1 19882:1 42613:1 
-5.12038794625588 4067:1 6516:1 
-2.503665337079803 3824:1 4565:1 5975:1 9341:1 43169:1 
-0.5296469751498134 4197:1 6508:1 8234:1 50790:1 
-4.373894893226103 4531:1 5179:1 5576:1 6259:1 
-11.57383032023744 4190:1 4194:1 6508:1 
-2.464591114752098 1509:1 4197:1 6508:1 
-14.39525227448096 3824:1 4553:1 4568:1 5975:1 6032:1 43169:1 
-1.538426192200151 4531:1 6259:1 
-4.228087261921245 8152:1 8484:1 
-37.47591485064795 4553:1 5975:1 
-9.986143196549948 4197:1 6508:1 8234:1 
-0.5583794448955225 8152:1 8449:1 8484:1 30203:1 
-2.503351648594517 3824:1 4336:1 5975:1 6683:1 43169:1 
-4.444906954228312 3824:1 4560:1 5975:1 43169:1 
-0.4940973611928053 3824:1 4348:1 5764:1 5975:1 6665:1 7040:1 43169:1 
-4.443087941360504 3824:1 4563:1 5975:1 43169:1 
-1.815564112331795 323:1 5515:1 5537:1 15578:1 15761:1 16021:1 
-5.120339707351824 6464:1 8474:1 
-2.858416419405116 8158:1 16020:1 16021:1 30301:1 
-35.64871262645585 3824:1 6629:1 
-5.7284705783518 5215:1 5515:1 5737:1 6810:1 16021:1 
-23.73152688230033 3993:1 
-5.515530142047498 3824:1 4553:1 5215:1 5488:1 5975:1 6810:1 43169:1 
-9.930515898212322 3824:1 4559:1 5975:1 6013:1 15923:1 30246:1 
-4.985990713336984 3824:1 5488:1 8152:1 
-24.320395053327 3676:1 4522:1 
-36.06714363899268 4601:1 6118:1 6979:1 20037:1 
-47.80870334223955 3824:1 4553:1 5975:1 43169:1 
-14.59584676126734 4185:1 6508:1 
-8.236292730727516 4289:1 6508:1 8236:1 
-0.5330317599879745 5783:1 8152:1 8484:1 
-8.718911155885607 5764:1 6629:1 6665:1 
-60.8 3676:1 4522:1 
-6.211210973265434 4872:1 5764:1 7155:1 16020:1 
