svm_type c_svc
kernel_type rbf
gamma 0.1
nr_class 2
total_sv 81
rho 0.0979227
label 0 1
probA -4.72264
probB 0.0351934
nr_sv 35 46
SV
1.5 1:0.863161 2:0.0242763 3:0.112563 4:0.9605 5:0.245184 6:0.269056 7:0.0024507 8:0.594346 9:0.0082035 10:0.0444524 11:0.0563878 12:0.0158101 13:0.0232511 14:0.00991411 15:1 16:0 17:0 18:1 19:0 20:1 21:0 22:0.2391 23:0.102875 24:0.00951735 25:0.0329294 26:0.231192 27:0.00902734 28:0.0986799 29:0.137419 30:0.13926 31:0.989163 32:0.0073899 33:0.00120796 34:0.000113631 35:0.000163 36:0.000116874 37:0.000143198 38:8.80243e-05 39:0.00161469 40:0.146153 41:0.0850048 42:0.0155832 43:0.0847644 44:0.367208 45:0.00609252 46:0.122438 47:0.023043 48:0.149713 
1.5 1:0.420016 2:0.0734485 3:0.506536 4:-0.949083 5:0.187275 6:0.328139 7:0.0128874 8:0.287849 9:0.0773876 10:0.0622631 11:0.107681 12:0.0418792 13:0.163084 14:0.0596946 15:0 16:0 17:0 18:0 19:0 20:0 21:1 22:0.203139 23:0.162353 24:0.015801 25:0.0860081 26:0.164597 27:0.0153997 28:0.0948558 29:0.100605 30:0.157241 31:0.0216398 32:0.0989795 33:0.0131515 34:0.36738 35:0.332931 36:0.0646869 37:0.0775094 38:0.00819238 39:0.0155299 40:0.350054 41:0.427114 42:0.0156882 43:0.023531 44:0.0365137 45:0.00993758 46:0.10714 47:0.0192826 48:0.010739 
0.01008276171027854 1:0.498635 2:0.105435 3:0.39593 4:-0.538799 5:0.169098 6:0.849662 7:0.0125174 8:0.0149106 9:0.0287715 10:0.0163964 11:0.00255204 12:0.0129129 13:0.0676884 14:0.675153 15:0 16:0 17:0 18:0 19:0 20:1 21:1 22:0.104905 23:0.281449 24:0.0250694 25:0.0452178 26:0.0298537 27:0.0261116 28:0.166652 29:0.225373 30:0.095369 31:0.409103 32:0.536603 33:0.00699911 34:0.00459583 35:0.0125353 36:0.00956029 37:0.0132147 38:0.00276487 39:0.0046238 40:0.868966 41:0.0263324 42:0.0140633 43:0.00463782 44:0.00716879 45:0.00375641 46:0.0144626 47:0.0589087 48:0.00170388 
0.7761765324850841 1:0.256378 2:0.110333 3:0.633289 4:-0.953896 5:0.8434 6:0.872698 7:8.00771e-05 8:0.116349 9:0.0200312 10:0.00787983 11:0.00303798 12:0.00357793 13:0.00425479 14:0.00138949 15:1 16:0 17:0 18:1 19:0 20:0 21:1 22:0.573562 23:0.213229 24:0.0171751 25:0.0190524 26:0.00643689 27:0.0314977 28:0.0948585 29:0.0283351 30:0.0158528 31:0.0470912 32:0.770636 33:0.0228671 34:0.0124243 35:0.069761 36:0.0100654 37:0.0425693 38:0.00851137 39:0.0160738 40:0.0101296 41:0.0293522 42:0.00244633 43:0.0406296 44:0.842741 45:0.00166555 46:0.0570784 47:0.0112655 48:0.00469201 
0.8962922961287155 1:0.199592 2:0.11899 3:0.681418 4:-0.961393 5:0.0938283 6:0.121044 7:0.00227883 8:0.410131 9:0.0293314 10:0.107975 11:0.290367 12:0.0333409 13:0.0221934 14:0.0105543 15:0 16:0 17:0 18:0 19:0 20:0 21:1 22:0.0146626 23:0.292429 24:0.0306114 25:0.0466955 26:0.264064 27:0.0347917 28:0.208557 29:0.0309519 30:0.0772368 31:0.11 32:0.11 33:0.11 34:0.11 35:0.11 36:0.11 37:0.11 38:0.11 39:0.11 40:0.0447516 41:0.378192 42:0.0252066 43:0.0139629 44:0.127992 45:0.0109294 46:0.174243 47:0.203177 48:0.0215455 
1.5 1:0.2228 2:0.458939 3:0.318261 4:-0.957566 5:0.595498 6:0.759683 7:0.00166042 8:0.156895 9:0.141841 10:0.0335007 11:0.00188727 12:0.0275788 13:0.0107227 14:0.0304167 15:0 16:0 17:0 18:0 19:0 20:0 21:1 22:0.035441 23:0.0859459 24:0.0414381 25:0.0531399 26:0.146713 27:0.0729509 28:0.0628328 29:0.353857 30:0.147682 31:0.0254265 32:0.0547101 33:0.0309332 34:0.751956 35:0.00991972 36:0.0396967 37:0.0419488 38:0.0134338 39:0.0319753 40:0.11 41:0.11 42:0.11 43:0.11 44:0.11 45:0.11 46:0.11 47:0.11 48:0.11 
1.207609240969765 1:0.172144 2:0.169643 3:0.658213 4:-0.950902 5:0.0855544 6:0.630305 7:0.0218369 8:0.0656976 9:0.11659 10:0.470379 11:0.0217604 12:0.0494821 13:0.0510568 14:0.117643 15:0 16:0 17:0 18:0 19:0 20:0 21:0 22:0.173047 23:0.443747 24:0.0185741 25:0.0192263 26:0.0218701 27:0.0192539 28:0.22451 29:0.020372 30:0.0593993 31:0.0187574 32:0.636301 33:0.0575062 34:0.0247094 35:0.167554 36:0.0215872 37:0.0262001 38:0.0117524 39:0.0356326 40:0.0606278 41:0.207631 42:0.0135089 43:0.165433 44:0.0526111 45:0.00667988 46:0.363027 47:0.0342605 48:0.0962202 
0.3274654601566047 1:0.66148 2:0.173968 3:0.164552 4:-0.959281 5:0.0371409 6:0.371635 7:0.0811571 8:0.086026 9:0.0191162 10:0.0664861 11:0.0409329 12:0.108365 13:0.0942984 14:0.466477 15:0 16:0 17:0 18:1 19:0 20:1 21:0 22:0.0854518 23:0.233278 24:0.0334443 25:0.0850157 26:0.122628 27:0.0281278 28:0.0540591 29:0.098745 30:0.259251 31:0.902589 32:0.0866879 33:0.000254678 34:0.000872498 35:0.00559768 36:0.000402675 37:0.000579879 38:0.000294663 39:0.00272095 40:0.264469 41:0.5204 42:0.00272219 43:0.0154341 44:0.0186526 45:0.0078978 46:0.153854 47:0.0153908 48:0.00117954 
1.5 1:0.241304 2:0.0960885 3:0.662608 4:-0.966314 5:0.227131 6:0.397388 7:0.00223081 8:0.384696 9:0.0322139 10:0.0245469 11:0.107148 12:0.00608312 13:0.198758 14:0.0171922 15:0 16:0 17:0 18:0 19:0 20:0 21:1 22:0.0418733 23:0.0325901 24:0.0124462 25:0.59647 26:0.219294 27:0.00348934 28:0.0109027 29:0.025102 30:0.0578325 31:0.11 32:0.11 33:0.11 34:0.11 35:0.11 36:0.11 37:0.11 38:0.11 39:0.11 40:0.0664959 41:0.39954 42:0.0393014 43:0.0630852 44:0.0937038 45:0.0196914 46:0.189227 47:0.109661 48:0.0192946 
0.2403561795765677 1:0.166981 2:0.058694 3:0.774325 4:-0.952791 5:0.742418 6:0.839794 7:0.0169552 8:0.104487 9:0.00791641 10:0.0184715 11:0.0453722 12:0.0111197 13:0.0303869 14:0.0228726 15:1 16:0 17:0 18:0 19:0 20:1 21:0 22:0.107442 23:0.14023 24:0.00981831 25:0.150827 26:0.393036 27:0.00837092 28:0.0705983 29:0.0394743 30:0.0802038 31:0.954283 32:0.0368687 33:0.00263186 34:0.000843884 35:0.000962708 36:0.000395976 37:0.000592331 38:0.0003651 39:0.00305617 40:0.103022 41:0.0137585 42:0.00317703 43:0.0777521 44:0.787935 45:0.00180441 46:0.00714066 47:0.00352644 48:0.00188402 
1.5 1:0.306005 2:0.52338 3:0.170615 4:-0.967541 5:0.230443 6:0.523203 7:0.0109702 8:0.17416 9:0.153434 10:0.0464816 11:0.0895901 12:0.0506665 13:0.0385283 14:0.205727 15:0 16:0 17:0 18:1 19:0 20:0 21:0 22:0.106562 23:0.0163788 24:0.01416 25:0.13089 26:0.528338 27:0.00371597 28:0.0316774 29:0.0882671 30:0.0800109 31:0.11 32:0.11 33:0.11 34:0.11 35:0.11 36:0.11 37:0.11 38:0.11 39:0.11 40:0.0876191 41:0.806745 42:0.013335 43:0.00808062 44:0.00405159 45:0.00131841 46:0.0289983 47:0.0213638 48:0.0284881 
1.5 1:0.346526 2:0.0908919 3:0.562582 4:-0.953554 5:0.432221 6:0.756443 7:0.00236569 8:0.114145 9:0.0165884 10:0.115989 11:0.0433409 12:0.037846 13:0.0914322 14:0.146072 15:0 16:0 17:0 18:0 19:0 20:0 21:1 22:0.0339381 23:0.09082 24:0.010208 25:0.0538379 26:0.359456 27:0.0170943 28:0.031305 29:0.169438 30:0.233903 31:0.11 32:0.11 33:0.11 34:0.11 35:0.11 36:0.11 37:0.11 38:0.11 39:0.11 40:0.228217 41:0.578494 42:0.0245812 43:0.0579396 44:0.0413603 45:0.0130513 46:0.0180558 47:0.0325318 48:0.00576905 
0.8501284205485706 1:0.243248 2:0.0876592 3:0.669093 4:-0.961334 5:0.634793 6:0.888762 7:0.00158833 8:0.0972762 9:0.0209962 10:0.137399 11:0.0338712 12:0.012195 13:0.0219477 14:0.0399339 15:0 16:0 17:0 18:0 19:0 20:0 21:1 22:0.0811754 23:0.0522557 24:0.00487932 25:0.0572997 26:0.231887 27:0.00909252 28:0.0462992 29:0.362036 30:0.155075 31:0.11 32:0.11 33:0.11 34:0.11 35:0.11 36:0.11 37:0.11 38:0.11 39:0.11 40:0.11 41:0.11 42:0.11 43:0.11 44:0.11 45:0.11 46:0.11 47:0.11 48:0.11 
1.5 1:0.161721 2:0.692222 3:0.146058 4:-0.959081 5:0.337861 6:0.490642 7:0.00369238 8:0.266471 9:0.114607 10:0.0208527 11:0.0533605 12:0.123959 13:0.0551741 14:0.0240222 15:0 16:0 17:0 18:0 19:0 20:0 21:0 22:0.0438138 23:0.045507 24:0.0214819 25:0.102018 26:0.434822 27:0.0156016 28:0.0327017 29:0.261762 30:0.0422912 31:0.11 32:0.11 33:0.11 34:0.11 35:0.11 36:0.11 37:0.11 38:0.11 39:0.11 40:0.11 41:0.11 42:0.11 43:0.11 44:0.11 45:0.11 46:0.11 47:0.11 48:0.11 
1.5 1:0.850882 2:0.0357307 3:0.113387 4:0.729055 5:0.249278 6:0.373841 7:0.00691719 8:0.397406 9:0.01871 10:0.0636642 11:0.0219547 12:0.0908762 13:0.0719988 14:0.0791943 15:0 16:0 17:0 18:0 19:0 20:0 21:1 22:0.390302 23:0.211296 24:0.0153592 25:0.0898436 26:0.200827 27:0.0177372 28:0.0200302 29:0.0349054 30:0.0196994 31:0.11 32:0.11 33:0.11 34:0.11 35:0.11 36:0.11 37:0.11 38:0.11 39:0.11 40:0.870205 41:0.0670878 42:0.0150121 43:0.00481123 44:0.010261 45:0.0183713 46:0.00819012 47:0.00413405 48:0.00192708 
0.7153841480355886 1:0.118943 2:0.731314 3:0.149743 4:-0.962271 5:0.148351 6:0.338796 7:0.0199491 8:0.397434 9:0.0733597 10:0.0516969 11:0.0477283 12:0.0465791 13:0.0897376 14:0.125164 15:0 16:0 17:0 18:0 19:0 20:0 21:0 22:0.032983 23:0.0220587 24:0.0126335 25:0.195522 26:0.485889 27:0.00399808 28:0.0154113 29:0.199764 30:0.0317398 31:0.11 32:0.11 33:0.11 34:0.11 35:0.11 36:0.11 37:0.11 38:0.11 39:0.11 40:0.94475 41:0.0415648 42:0.00342442 43:0.00170781 44:0.00144827 45:0.000730181 46:0.00481028 47:0.000669629 48:0.000894322 
1.5 1:0.18541 2:0.232119 3:0.582472 4:-0.953665 5:0.340964 6:0.641253 7:0.0108982 8:0.157839 9:0.00703578 10:0.0234987 11:0.024547 12:0.081483 13:0.0479799 14:0.305755 15:0 16:0 17:0 18:0 19:0 20:0 21:0 22:0.0334192 23:0.0389204 24:0.00997448 25:0.0305768 26:0.806344 27:0.00474429 28:0.00786297 29:0.0526841 30:0.0154734 31:0.11 32:0.11 33:0.11 34:0.11 35:0.11 36:0.11 37:0.11 38:0.11 39:0.11 40:0.970753 41:0.0195384 42:0.000303427 43:0.00136704 44:0.00326821 45:0.000145427 46:0.00199457 47:0.00250761 48:0.000122676 
1.5 1:0.151451 2:0.577923 3:0.270626 4:-0.969037 5:0.0267128 6:0.0726758 7:0.125717 8:0.136575 9:0.0434103 10:0.118471 11:0.0302015 12:0.0535771 13:0.429477 14:0.0358579 15:0 16:0 17:0 18:0 19:0 20:0 21:0 22:0.0902653 23:0.470919 24:0.183296 25:0.0155477 26:0.0139965 27:0.0410494 28:0.10052 29:0.0262176 30:0.0581889 31:0.11 32:0.11 33:0.11 34:0.11 35:0.11 36:0.11 37:0.11 38:0.11 39:0.11 40:0.11 41:0.11 42:0.11 43:0.11 44:0.11 45:0.11 46:0.11 47:0.11 48:0.11 
0.1499536216371231 1:0.394241 2:0.0626742 3:0.543084 4:-0.960388 5:0.141366 6:0.367388 7:0.00327427 8:0.230509 9:0.045889 10:0.0355692 11:0.437011 12:0.00449499 13:0.0758853 14:0.0260012 15:1 16:0 17:0 18:0 19:0 20:0 21:1 22:0.0739168 23:0.220499 24:0.25137 25:0.0521384 26:0.0292228 27:0.146293 28:0.177437 29:0.0225204 30:0.0266019 31:0.00792452 32:0.0486658 33:0.0153042 34:0.0112632 35:0.00616164 36:0.0336237 37:0.860324 38:0.0115578 39:0.00517504 40:0.131091 41:0.731599 42:0.0428707 43:0.00916302 44:0.00321929 45:0.0495386 46:0.022111 47:0.00905286 48:0.001354 
1.023397599064563 1:0.309025 2:0.0790668 3:0.611908 4:-0.968513 5:0.0297186 6:0.277625 7:0.00767738 8:0.0813638 9:0.192944 10:0.352088 11:0.0153058 12:0.158538 13:0.030558 14:0.131807 15:0 16:0 17:0 18:0 19:0 20:0 21:1 22:0.0188136 23:0.0543829 24:0.0138244 25:0.00785561 26:0.00824524 27:0.0175607 28:0.0910876 29:0.772319 30:0.0159114 31:0.0767283 32:0.034461 33:0.0363843 34:0.0771981 35:0.355627 36:0.0380696 37:0.0504514 38:0.0685276 39:0.262553 40:0.942996 41:0.018527 42:0.00504299 43:0.00232064 44:0.00203103 45:0.00299223 46:0.00426853 47:0.0212286 48:0.000592646 
1.5 1:0.240555 2:0.0641894 3:0.695255 4:-0.513341 5:0.045409 6:0.22965 7:0.00656292 8:0.142117 9:0.0184175 10:0.106682 11:0.0454333 12:0.020938 13:0.584036 14:0.0304042 15:0 16:0 17:0 18:0 19:0 20:0 21:0 22:0.073313 23:0.0930336 24:0.0783985 25:0.586972 26:0.0256391 27:0.071493 28:0.0226113 29:0.00663456 30:0.041905 31:0.11 32:0.11 33:0.11 34:0.11 35:0.11 36:0.11 37:0.11 38:0.11 39:0.11 40:0.0672221 41:0.0409933 42:0.00728339 43:0.724944 44:0.0368753 45:0.00208448 46:0.0394224 47:0.0375828 48:0.0435926 
1.5 1:0.0104376 2:0.0358264 3:0.953736 4:0.783785 5:0.116967 6:0.368237 7:0.00488599 8:0.179112 9:0.0550648 10:0.0271928 11:0.0166911 12:0.00493689 13:0.578898 14:0.0162512 15:0 16:0 17:0 18:0 19:0 20:0 21:0 22:0.182105 23:0.370177 24:0.0578225 25:0.0810741 26:0.025252 27:0.143988 28:0.0261207 29:0.0167818 30:0.0966787 31:0.11 32:0.11 33:0.11 34:0.11 35:0.11 36:0.11 37:0.11 38:0.11 39:0.11 40:0.11 41:0.11 42:0.11 43:0.11 44:0.11 45:0.11 46:0.11 47:0.11 48:0.11 
1.5 1:0.3333 2:0.0836699 3:0.58303 4:-0.960202 5:0.297624 6:0.331521 7:0.00546582 8:0.348701 9:0.0436569 10:0.068658 11:0.144311 12:0.00589296 13:0.0675504 14:0.0181401 15:0 16:0 17:0 18:0 19:0 20:0 21:0 22:0.0297018 23:0.341116 24:0.30638 25:0.265454 26:0.0109345 27:0.0160718 28:0.0239208 29:0.00172286 30:0.00469816 31:0.11 32:0.11 33:0.11 34:0.11 35:0.11 36:0.11 37:0.11 38:0.11 39:0.11 40:0.11 41:0.11 42:0.11 43:0.11 44:0.11 45:0.11 46:0.11 47:0.11 48:0.11 
0.3970095027426755 1:0.0135184 2:0.00759828 3:0.978883 4:0.830184 5:0.126767 6:0.351798 7:0.00178188 8:0.22339 9:0.0438568 10:0.0354933 11:0.0266918 12:0.00378228 13:0.513244 14:0.0249934 15:0 16:0 17:0 18:0 19:0 20:0 21:0 22:0.184261 23:0.373281 24:0.0812913 25:0.100552 26:0.0328605 27:0.131266 28:0.0379179 29:0.0149272 30:0.0436425 31:0.975485 32:0.0128848 33:0.0059071 34:0.00149828 35:0.000890967 36:0.000756106 37:0.000518778 38:0.00069508 39:0.0013641 40:0.11 41:0.11 42:0.11 43:0.11 44:0.11 45:0.11 46:0.11 47:0.11 48:0.11 
1.5 1:0.256385 2:0.0978951 3:0.64572 4:-0.96552 5:0.23922 6:0.371304 7:0.0135796 8:0.343565 9:0.0168607 10:0.0911705 11:0.105352 12:0.0476778 13:0.120695 14:0.02188 15:0 16:0 17:0 18:0 19:0 20:0 21:0 22:0.409438 23:0.0514438 24:0.0269317 25:0.0146561 26:0.026502 27:0.100748 28:0.34095 29:0.00984595 30:0.0194835 31:0.11 32:0.11 33:0.11 34:0.11 35:0.11 36:0.11 37:0.11 38:0.11 39:0.11 40:0.0566216 41:0.0444781 42:0.00287139 43:0.00442473 44:0.876171 45:0.00172441 46:0.00173693 47:0.0111712 48:0.000800754 
1.5 1:0.337693 2:0.103436 3:0.558871 4:-0.918906 5:0.136384 6:0.417515 7:0.0267992 8:0.180265 9:0.0390814 10:0.0874474 11:0.0721734 12:0.0965458 13:0.113852 14:0.247452 15:0 16:0 17:0 18:0 19:0 20:0 21:0 22:0.104913 23:0.144579 24:0.192621 25:0.0271573 26:0.020677 27:0.070677 28:0.384667 29:0.016573 30:0.0381361 31:0.305118 32:0.133305 33:0.077412 34:0.102316 35:0.031099 36:0.135559 37:0.122277 38:0.0529914 39:0.039923 40:0.11 41:0.11 42:0.11 43:0.11 44:0.11 45:0.11 46:0.11 47:0.11 48:0.11 
1.5 1:0.896867 2:0.0374054 3:0.0657273 4:0.947831 5:0.00907563 6:0.033176 7:0.182555 8:0.0742226 9:0.083782 10:0.179163 11:0.0539912 12:0.145502 13:0.189838 14:0.0818711 15:0 16:0 17:0 18:0 19:0 20:0 21:0 22:0.259186 23:0.0607731 24:0.0633142 25:0.241764 26:0.0571436 27:0.158502 28:0.100806 29:0.0310862 30:0.027425 31:0.0259488 32:0.635564 33:0.0293559 34:0.0489921 35:0.00997904 36:0.053694 37:0.0900963 38:0.0782753 39:0.0280946 40:0.509645 41:0.10725 42:0.0750918 43:0.00467329 44:0.00941528 45:0.00453733 46:0.19808 47:0.0837435 48:0.00756432 
0.684466810444199 1:0.405766 2:0.418707 3:0.175526 4:-0.666114 5:0.610865 6:0.902458 7:0.00317849 8:0.112685 9:0.0488551 10:0.0260264 11:0.130878 12:0.00909065 13:0.0464797 14:0.0119424 15:1 16:0 17:0 18:0 19:0 20:0 21:1 22:0.794324 23:0.0369693 24:0.0401669 25:0.00764657 26:0.0117047 27:0.0162009 28:0.0774459 29:0.00948582 30:0.00605639 31:0.11 32:0.11 33:0.11 34:0.11 35:0.11 36:0.11 37:0.11 38:0.11 39:0.11 40:0.11 41:0.11 42:0.11 43:0.11 44:0.11 45:0.11 46:0.11 47:0.11 48:0.11 
1.5 1:0.174878 2:0.261407 3:0.563715 4:-0.958079 5:0.0159077 6:0.0820874 7:0.0149381 8:0.104846 9:0.0492053 10:0.109628 11:0.500665 12:0.150842 13:0.0141589 14:0.03981 15:0 16:0 17:0 18:0 19:0 20:0 21:0 22:0.546273 23:0.10394 24:0.18649 25:0.0161883 26:0.0113538 27:0.0790261 28:0.0326448 29:0.00310245 30:0.0209812 31:0.11 32:0.11 33:0.11 34:0.11 35:0.11 36:0.11 37:0.11 38:0.11 39:0.11 40:0.11 41:0.11 42:0.11 43:0.11 44:0.11 45:0.11 46:0.11 47:0.11 48:0.11 
1.5 1:0.670079 2:0.0307181 3:0.299202 4:0.926317 5:0.395863 6:0.699634 7:0.00985931 8:0.209572 9:0.0812387 10:0.0623428 11:0.0662417 12:0.0176683 13:0.140736 14:0.0164783 15:0 16:0 17:0 18:1 19:0 20:0 21:1 22:0.12195 23:0.380045 24:0.0457321 25:0.0325612 26:0.0401182 27:0.0444561 28:0.0344829 29:0.232097 30:0.0685578 31:0.99626 32:0.00227411 33:0.000681782 34:9.77089e-05 35:9.00378e-05 36:0.00011879 37:0.000115261 38:0.000153192 39:0.000209104 40:0.11 41:0.11 42:0.11 43:0.11 44:0.11 45:0.11 46:0.11 47:0.11 48:0.11 
1.112439348819457 1:0.289426 2:0.101642 3:0.608932 4:-0.966656 5:0.0858797 6:0.224644 7:0.00335565 8:0.339105 9:0.112044 10:0.15417 11:0.0881615 12:0.00571192 13:0.206728 14:0.00484475 15:0 16:0 17:0 18:0 19:0 20:0 21:0 22:0.0800922 23:0.0531925 24:0.223743 25:0.0155114 26:0.00769407 27:0.113953 28:0.462846 29:0.00586271 30:0.0371046 31:0.0573314 32:0.661415 33:0.0263232 34:0.0507571 35:0.069356 36:0.0300839 37:0.0701453 38:0.0133747 39:0.021213 40:0.11 41:0.11 42:0.11 43:0.11 44:0.11 45:0.11 46:0.11 47:0.11 48:0.11 
1.5 1:0.812055 2:0.0532506 3:0.134695 4:0.91174 5:0.407567 6:0.720705 7:0.00316306 8:0.143732 9:0.045489 10:0.0941309 11:0.0420221 12:0.0103796 13:0.208491 14:0.0450263 15:0 16:0 17:0 18:1 19:0 20:0 21:1 22:0.171612 23:0.352088 24:0.0941049 25:0.0972783 26:0.0304551 27:0.14552 28:0.0558199 29:0.0206082 30:0.0325129 31:0.99742 32:0.00121797 33:0.000747283 34:0.000128449 35:6.43827e-05 36:9.24882e-05 37:5.91094e-05 38:0.000154614 39:0.000115699 40:0.148541 41:0.126526 42:0.0209474 43:0.181895 44:0.226899 45:0.0522491 46:0.197923 47:0.0350585 48:0.00996172 
0.2456144201818478 1:0.355968 2:0.0858845 3:0.558147 4:-0.970532 5:0.280331 6:0.437605 7:0.0340709 8:0.190073 9:0.0320123 10:0.124247 11:0.216567 12:0.0210661 13:0.0522436 14:0.0493885 15:0 16:0 17:0 18:0 19:0 20:0 21:0 22:0.434484 23:0.12314 24:0.234916 25:0.0259542 26:0.0180864 27:0.0743793 28:0.0457268 29:0.0084856 30:0.0348278 31:0.11 32:0.11 33:0.11 34:0.11 35:0.11 36:0.11 37:0.11 38:0.11 39:0.11 40:0.11 41:0.11 42:0.11 43:0.11 44:0.11 45:0.11 46:0.11 47:0.11 48:0.11 
1.5 1:0.828559 2:0.0987666 3:0.0726748 4:0.525781 5:0.513935 6:0.569588 7:0.000267926 8:0.381256 9:0.0239434 10:0.0437416 11:0.0191437 12:0.00859998 13:0.00245067 14:0.00666191 15:0 16:0 17:0 18:0 19:0 20:0 21:1 22:0.625294 23:0.0702097 24:0.0155079 25:0.014628 26:0.0313598 27:0.0242888 28:0.0773628 29:0.128916 30:0.0124329 31:0.371232 32:0.132357 33:0.0600503 34:0.0849309 35:0.0295439 36:0.0999611 37:0.123356 38:0.0574369 39:0.0411316 40:0.928461 41:0.0200705 42:0.0152196 43:0.00418328 44:0.00945419 45:0.000657617 46:0.00178516 47:0.0174964 48:0.00267192 
0.1570002043428863 1:0.32164 2:0.444409 3:0.233951 4:-0.972289 5:0.0206317 6:0.12389 7:0.00258672 8:0.149805 9:0.420198 10:0.120597 11:0.187904 12:0.0221487 13:0.0103741 14:0.065756 15:0 16:0 17:0 18:0 19:0 20:0 21:1 22:0.913021 23:0.0490464 24:0.0033908 25:0.00808969 26:0.00141406 27:0.0121457 28:0.00977277 29:0.000603753 30:0.00251533 31:0.0153879 32:0.0768541 33:0.100736 34:0.0762946 35:0.00849572 36:0.627921 37:0.0295215 38:0.00616972 39:0.0586195 40:0.11 41:0.11 42:0.11 43:0.11 44:0.11 45:0.11 46:0.11 47:0.11 48:0.11 
-0.6133778351172359 1:0.871907 2:0.0605681 3:0.0675249 4:-0.85165 5:0.00084441 6:0.0204377 7:0.385846 8:0.0267568 9:0.00962235 10:0.12244 11:0.289347 12:0.0300762 13:0.00492755 14:0.13014 15:0 16:0 17:0 18:0 19:0 20:0 21:0 22:0.0180589 23:0.0635028 24:0.037561 25:0.137655 26:0.175008 27:0.0191615 28:0.0435672 29:0.216657 30:0.288829 31:0.00194027 32:0.00411796 33:0.00349653 34:0.0180383 35:0.0116225 36:0.00428477 37:0.00741949 38:0.0415688 39:0.907511 40:0.265606 41:0.109589 42:0.0529478 43:0.269875 44:0.119936 45:0.0141848 46:0.0752786 47:0.0623444 48:0.0302391 
-1 1:0.905865 2:0.0220605 3:0.0720746 4:0.867616 5:0.912811 6:0.977803 7:0.000390074 8:0.0214655 9:0.00392043 10:0.013337 11:0.0140641 12:0.0183512 13:0.0122019 14:0.00345867 15:0 16:0 17:1 18:1 19:0 20:0 21:1 22:0.0604552 23:0.146938 24:0.0176091 25:0.0154099 26:0.348349 27:0.0517837 28:0.206622 29:0.0626814 30:0.0901512 31:0.00104791 32:0.0073972 33:0.00305539 34:0.00371778 35:0.771225 36:0.172232 37:0.0159444 38:0.0147271 39:0.0106538 40:0.0420211 41:0.32393 42:0.233044 43:0.07102 44:0.0200619 45:0.0291111 46:0.0800411 47:0.122521 48:0.0782498 
-0.6914861600427326 1:0.225575 2:0.162628 3:0.611797 4:-0.956478 5:0.00216036 6:0.113266 7:0.357405 8:0.00865154 9:0.00781701 10:0.0326627 11:0.0471102 12:0.0699686 13:0.00930478 14:0.464919 15:0 16:0 17:0 18:0 19:1 20:0 21:0 22:0.0363783 23:0.0487122 24:0.0137663 25:0.0332333 26:0.519409 27:0.0121833 28:0.0542413 29:0.212518 30:0.069558 31:0.00374914 32:0.0169521 33:0.0227071 34:0.0246142 35:0.839178 36:0.0211305 37:0.0356587 38:0.0169711 39:0.0190386 40:0.13954 41:0.130564 42:0.0433774 43:0.391729 44:0.23207 45:0.00921326 46:0.0347506 47:0.00964125 48:0.00911361 
-1 1:0.18302 2:0.0799863 3:0.736994 4:-0.960453 5:0.211489 6:0.610514 7:0.0247144 8:0.100693 9:0.0346623 10:0.045164 11:0.129987 12:0.0554359 13:0.179488 14:0.218366 15:0 16:0 17:0 18:0 19:0 20:0 21:0 22:0.122614 23:0.103657 24:0.0627672 25:0.284299 26:0.0372404 27:0.071472 28:0.0694535 29:0.223777 30:0.0247201 31:0.11 32:0.11 33:0.11 34:0.11 35:0.11 36:0.11 37:0.11 38:0.11 39:0.11 40:0.96246 41:0.00743312 42:0.00159192 43:0.00769598 44:0.00911751 45:0.00012902 46:0.00644663 47:0.00132209 48:0.00380403 
-0.7937350274758669 1:0.67196 2:0.145153 3:0.182886 4:-0.884395 5:0.682755 6:0.849673 7:0.00584125 8:0.112493 9:0.00176191 10:0.0096891 11:0.0069542 12:0.0456256 13:0.0485353 14:0.0863442 15:0 16:0 17:0 18:0 19:0 20:0 21:0 22:0.179547 23:0.243826 24:0.00602221 25:0.0282926 26:0.383075 27:0.00436861 28:0.0681354 29:0.0268691 30:0.0598636 31:0.00123652 32:0.00608593 33:0.02649 34:0.00389817 35:0.935819 36:0.00487206 37:0.00565422 38:0.00216039 39:0.0137839 40:0.0140825 41:0.169232 42:0.0163661 43:0.0773926 44:0.418492 45:0.0101392 46:0.226071 47:0.017804 48:0.0504202 
-0.5641171646619721 1:0.897644 2:0.0407652 3:0.0615912 4:0.963008 5:0.0219439 6:0.154447 7:0.0541605 8:0.160213 9:0.266726 10:0.123765 11:0.0246265 12:0.143471 13:0.0250178 14:0.180077 15:0 16:0 17:0 18:1 19:0 20:0 21:0 22:0.0471574 23:0.219112 24:0.0119413 25:0.0216451 26:0.467934 27:0.0095143 28:0.0921439 29:0.043616 30:0.0869353 31:0.0823708 32:0.714613 33:0.0335423 34:0.0149335 35:0.0721542 36:0.0133714 37:0.0354401 38:0.0109351 39:0.0226398 40:0.11 41:0.11 42:0.11 43:0.11 44:0.11 45:0.11 46:0.11 47:0.11 48:0.11 
-1 1:0.23831 2:0.103412 3:0.658278 4:-0.945257 5:0.747004 6:0.833839 7:0.000542503 8:0.117573 9:0.056234 10:0.0136582 11:0.00674891 12:0.0161472 13:0.00512796 14:0.0369638 15:1 16:0 17:0 18:1 19:0 20:0 21:1 22:0.0513129 23:0.0200612 24:0.00826439 25:0.135173 26:0.344098 27:0.0165802 28:0.0108425 29:0.356017 30:0.0576502 31:0.11 32:0.11 33:0.11 34:0.11 35:0.11 36:0.11 37:0.11 38:0.11 39:0.11 40:0.0372387 41:0.0205897 42:0.00808502 43:0.00965754 44:0.909094 45:0.00128372 46:0.00266257 47:0.00515187 48:0.0062363 
-1 1:0.888384 2:0.0487587 3:0.0628573 4:-0.639526 5:0.0214923 6:0.188771 7:0.0183598 8:0.15486 9:0.00460086 10:0.0405369 11:0.0110333 12:0.0167727 13:0.655455 14:0.0768896 15:0 16:0 17:0 18:0 19:0 20:0 21:0 22:0.0869265 23:0.0937811 24:0.0139639 25:0.0317289 26:0.0942856 27:0.0377938 28:0.132577 29:0.367736 30:0.141207 31:0.0193194 32:0.0649555 33:0.0198681 34:0.720586 35:0.0412288 36:0.0285361 37:0.0474828 38:0.0291135 39:0.0289099 40:0.11 41:0.11 42:0.11 43:0.11 44:0.11 45:0.11 46:0.11 47:0.11 48:0.11 
-0.7068891021625496 1:0.658741 2:0.173184 3:0.168075 4:-0.949914 5:0.0156475 6:0.214631 7:0.288701 8:0.036759 9:0.0658146 10:0.113199 11:0.107718 12:0.193274 13:0.0437915 14:0.135096 15:0 16:0 17:1 18:0 19:0 20:0 21:0 22:0.0157942 23:0.186764 24:0.299431 25:0.0477099 26:0.0895982 27:0.0209119 28:0.0880155 29:0.175292 30:0.0764831 31:0.0207066 32:0.730728 33:0.150444 34:0.0322949 35:0.0202255 36:0.0150651 37:0.0109569 38:0.00983829 39:0.00974128 40:0.00503231 41:0.0162076 42:0.00314874 43:0.0211754 44:0.606295 45:0.00199128 46:0.253287 47:0.0885 48:0.00436279 
-1 1:0.821501 2:0.0488085 3:0.129691 4:-0.510186 5:0.0214132 6:0.216968 7:0.187006 8:0.0809335 9:0.0215771 10:0.161854 11:0.170354 12:0.0746638 13:0.0735143 14:0.208684 15:0 16:0 17:0 18:0 19:0 20:0 21:0 22:0.02821 23:0.258177 24:0.170329 25:0.0399707 26:0.149503 27:0.029589 28:0.10754 29:0.124316 30:0.0923655 31:0.0216959 32:0.713537 33:0.173317 34:0.022436 35:0.0244162 36:0.0144666 37:0.0121539 38:0.00869686 39:0.00927993 40:0.00570997 41:0.117021 42:0.0462187 43:0.0242771 44:0.126952 45:0.0145801 46:0.451768 47:0.122228 48:0.0912443 
-1 1:0.793694 2:0.062909 3:0.143397 4:-0.743291 5:0.0106416 6:0.242971 7:0.0950837 8:0.0081841 9:0.016058 10:0.0355504 11:0.00981244 12:0.151095 13:0.562402 14:0.111173 15:0 16:0 17:0 18:0 19:0 20:0 21:1 22:0.0201596 23:0.030204 24:0.0368341 25:0.444449 26:0.088202 27:0.00617756 28:0.0114385 29:0.0711778 30:0.291358 31:0.00294879 32:0.00651117 33:0.00365718 34:0.0703003 35:0.848208 36:0.0098945 37:0.0154252 38:0.026243 39:0.0168123 40:0.230112 41:0.583291 42:0.00966741 43:0.0720882 44:0.0668072 45:0.00440436 46:0.018847 47:0.00912332 48:0.00565878 
-1 1:0.880868 2:0.0274719 3:0.0916598 4:-0.96141 5:0.222099 6:0.751097 7:0.0467734 8:0.063439 9:0.00994094 10:0.00894239 11:0.0411857 12:0.026559 13:0.0876986 14:0.493362 15:1 16:0 17:0 18:0 19:0 20:0 21:1 22:0.0386055 23:0.0637209 24:0.0154697 25:0.16844 26:0.341986 27:0.00525244 28:0.0323711 29:0.243474 30:0.0906803 31:0.11 32:0.11 33:0.11 34:0.11 35:0.11 36:0.11 37:0.11 38:0.11 39:0.11 40:0.116713 41:0.060162 42:0.0132633 43:0.153497 44:0.457456 45:0.00541817 46:0.132219 47:0.023587 48:0.0376842 
-1 1:0.750224 2:0.199416 3:0.0503597 4:0.620489 5:0.115036 6:0.555304 7:0.0174628 8:0.0291812 9:0.0627646 10:0.0396872 11:0.0431148 12:0.0873122 13:0.15758 14:0.447862 15:0 16:0 17:0 18:1 19:0 20:0 21:0 22:0.0686286 23:0.0827285 24:0.0434843 25:0.1275 26:0.079116 27:0.0265685 28:0.0934864 29:0.0607526 30:0.417736 31:0.11 32:0.11 33:0.11 34:0.11 35:0.11 36:0.11 37:0.11 38:0.11 39:0.11 40:0.100631 41:0.133172 42:0.0382564 43:0.170516 44:0.102845 45:0.0436761 46:0.170398 47:0.205895 48:0.0346098 
-1 1:0.713122 2:0.052573 3:0.234305 4:-0.951017 5:0.06879 6:0.296851 7:0.00410713 8:0.220873 9:0.0692877 10:0.386336 11:0.179575 12:0.0300684 13:0.0228824 14:0.0180799 15:0 16:0 17:0 18:0 19:0 20:0 21:0 22:0.0358549 23:0.0531442 24:0.0212414 25:0.115574 26:0.0504678 27:0.0189891 28:0.0997198 29:0.360208 30:0.244801 31:0.00506188 32:0.0123088 33:0.0093205 34:0.0265167 35:0.438354 36:0.0406739 37:0.056729 38:0.402574 39:0.00846155 40:0.11 41:0.11 42:0.11 43:0.11 44:0.11 45:0.11 46:0.11 47:0.11 48:0.11 
-0.5588316466967421 1:0.186754 2:0.172058 3:0.641188 4:-0.515169 5:0.000333947 6:0.377238 7:0.0269737 8:0.000461994 9:0.000176007 10:0.000669307 11:0.0001364 12:0.000358634 13:0.405814 14:0.565076 15:0 16:0 17:0 18:0 19:0 20:0 21:1 22:0.0881281 23:0.0775535 24:0.0142753 25:0.0444711 26:0.645643 27:0.00895968 28:0.0257888 29:0.0631291 30:0.0320511 31:0.0268748 32:0.652187 33:0.0425155 34:0.090915 35:0.0383913 36:0.0356547 37:0.0679405 38:0.0215829 39:0.023938 40:0.0149921 41:0.0904192 42:0.00407021 43:0.00143455 44:0.841158 45:0.00153952 46:0.0284004 47:0.0174184 48:0.000567882 
-0.7905438037094935 1:0.865438 2:0.0393484 3:0.0952138 4:0.936346 5:0.00763032 6:0.21553 7:0.0352023 8:0.0421813 9:0.0148221 10:0.0225665 11:0.00403671 12:0.00381622 13:0.80936 14:0.0603845 15:0 16:0 17:0 18:0 19:0 20:0 21:0 22:0.208847 23:0.119454 24:0.0147682 25:0.282517 26:0.18284 27:0.0285678 28:0.0541783 29:0.0265433 30:0.0822841 31:0.11 32:0.11 33:0.11 34:0.11 35:0.11 36:0.11 37:0.11 38:0.11 39:0.11 40:0.415479 41:0.34584 42:0.00835766 43:0.0152363 44:0.0810675 45:0.0030773 46:0.0139295 47:0.0992482 48:0.0177642 
-1 1:0.353182 2:0.410093 3:0.236725 4:-0.940603 5:0.294984 6:0.668261 7:0.00238689 8:0.0789282 9:0.354794 10:0.0645815 11:0.0209613 12:0.0118902 13:0.116579 14:0.0548953 15:0 16:0 17:0 18:0 19:0 20:0 21:1 22:0.0518889 23:0.0959516 24:0.0257635 25:0.156403 26:0.511019 27:0.0165621 28:0.0304357 29:0.0186662 30:0.09331 31:0.0025843 32:0.00604682 33:0.00726348 34:0.00530234 35:0.105858 36:0.155143 37:0.025274 38:0.674313 39:0.0182146 40:0.0113338 41:0.0449423 42:0.0319833 43:0.0395149 44:0.152432 45:0.0138088 46:0.0307851 47:0.0303056 48:0.644895 
-1 1:0.42803 2:0.44384 3:0.12813 4:-0.854068 5:0.0780373 6:0.591731 7:0.0232967 8:0.062816 9:0.0714746 10:0.107734 11:0.0987219 12:0.248215 13:0.0648309 14:0.244874 15:0 16:0 17:0 18:0 19:0 20:0 21:0 22:0.0140167 23:0.0214273 24:0.0116434 25:0.175718 26:0.47588 27:0.00342885 28:0.0419705 29:0.155261 30:0.100655 31:0.11 32:0.11 33:0.11 34:0.11 35:0.11 36:0.11 37:0.11 38:0.11 39:0.11 40:0.0723648 41:0.361087 42:0.0231335 43:0.1588 44:0.152915 45:0.0681407 46:0.0940884 47:0.0561473 48:0.0133233 
-0.478344460014254 1:0.854625 2:0.0425567 3:0.102818 4:-0.563613 5:0.00754188 6:0.362136 7:0.29004 8:0.0125639 9:0.0532048 10:0.0162725 11:0.0233284 12:0.192378 13:0.0752764 14:0.329394 15:0 16:0 17:0 18:0 19:0 20:0 21:0 22:0.0207859 23:0.027605 24:0.0235972 25:0.192206 26:0.481099 27:0.00175219 28:0.0209689 29:0.149627 30:0.0823586 31:0.499853 32:0.226015 33:0.0587776 34:0.0190961 35:0.0455043 36:0.0167124 37:0.0170162 38:0.0159991 39:0.101027 40:0.0320219 41:0.499519 42:0.0152782 43:0.0795752 44:0.101096 45:0.016738 46:0.216474 47:0.0188401 48:0.0204581 
-1 1:0.530005 2:0.0542381 3:0.415757 4:-0.873754 5:0.428049 6:0.509891 7:0.00289746 8:0.349426 9:0.00883789 10:0.0322257 11:0.00915862 12:0.0323845 13:0.0973816 14:0.0396395 15:0 16:0 17:0 18:0 19:0 20:0 21:0 22:0.0231545 23:0.0785095 24:0.0146521 25:0.102612 26:0.469652 27:0.00782336 28:0.0443788 29:0.133363 30:0.125855 31:0.11 32:0.11 33:0.11 34:0.11 35:0.11 36:0.11 37:0.11 38:0.11 39:0.11 40:0.0149656 41:0.0305472 42:0.00778242 43:0.155834 44:0.563741 45:0.0161665 46:0.0270048 47:0.0300808 48:0.153878 
-1 1:0.325123 2:0.529684 3:0.145193 4:-0.950857 5:0.00795937 6:0.0726202 7:0.0605062 8:0.0656676 9:0.10528 10:0.158526 11:0.13219 12:0.387221 13:0.00996177 14:0.0726891 15:0 16:0 17:0 18:0 19:0 20:0 21:0 22:0.0165979 23:0.0174034 24:0.0377761 25:0.3159 26:0.109634 27:0.0144705 28:0.0221467 29:0.24636 30:0.219711 31:0.00610222 32:0.0112429 33:0.0150644 34:0.0381198 35:0.805698 36:0.0180077 37:0.0376788 38:0.0195096 39:0.0485764 40:0.11 41:0.11 42:0.11 43:0.11 44:0.11 45:0.11 46:0.11 47:0.11 48:0.11 
-1 1:0.65844 2:0.262018 3:0.0795412 4:-0.531696 5:0.0675694 6:0.625163 7:0.0350387 8:0.043813 9:0.196102 10:0.0649507 11:0.073147 12:0.285731 13:0.172158 14:0.0614897 15:0 16:0 17:0 18:0 19:0 20:0 21:0 22:0.0113701 23:0.0323625 24:0.00545415 25:0.148301 26:0.608807 27:0.00148848 28:0.0237834 29:0.0922749 30:0.0761587 31:0.11 32:0.11 33:0.11 34:0.11 35:0.11 36:0.11 37:0.11 38:0.11 39:0.11 40:0.11 41:0.11 42:0.11 43:0.11 44:0.11 45:0.11 46:0.11 47:0.11 48:0.11 
-1 1:0.846565 2:0.073441 3:0.0799943 4:-0.950633 5:0.00251457 6:0.343902 7:0.805914 8:0.00532033 9:0.00326906 10:0.00813452 11:0.00436535 12:0.0313545 13:0.101881 14:0.0372466 15:0 16:0 17:0 18:0 19:0 20:0 21:1 22:0.282166 23:0.165398 24:0.0141128 25:0.0361832 26:0.12542 27:0.0198167 28:0.111332 29:0.0913593 30:0.154213 31:0.11 32:0.11 33:0.11 34:0.11 35:0.11 36:0.11 37:0.11 38:0.11 39:0.11 40:0.11 41:0.11 42:0.11 43:0.11 44:0.11 45:0.11 46:0.11 47:0.11 48:0.11 
-1 1:0.872171 2:0.0569943 3:0.070835 4:-0.926311 5:0.0546082 6:0.415803 7:0.00361998 8:0.127036 9:0.0225748 10:0.112228 11:0.021678 12:0.0157668 13:0.0226385 14:0.619849 15:0 16:0 17:0 18:0 19:0 20:0 21:1 22:0.0506087 23:0.0246522 24:0.0090571 25:0.413325 26:0.340708 27:0.0105165 28:0.0118997 29:0.0726763 30:0.0665565 31:0.11 32:0.11 33:0.11 34:0.11 35:0.11 36:0.11 37:0.11 38:0.11 39:0.11 40:0.11 41:0.11 42:0.11 43:0.11 44:0.11 45:0.11 46:0.11 47:0.11 48:0.11 
-1 1:0.82468 2:0.0594938 3:0.115826 4:0.931233 5:0.689088 6:0.819377 7:0.0007807 8:0.154037 9:0.0103365 10:0.0385254 11:0.0515001 12:0.0179988 13:0.0276051 14:0.0101292 15:0 16:0 17:0 18:0 19:0 20:0 21:1 22:0.373764 23:0.123545 24:0.0418655 25:0.0701501 26:0.0957426 27:0.0285241 28:0.0117651 29:0.238261 30:0.0163836 31:0.11 32:0.11 33:0.11 34:0.11 35:0.11 36:0.11 37:0.11 38:0.11 39:0.11 40:0.0427793 41:0.0868852 42:0.00772197 43:0.0111997 44:0.513426 45:0.00459789 46:0.284165 47:0.0431943 48:0.00603072 
-0.2157658104328585 1:0.903917 2:0.0319183 3:0.0641645 4:0.942662 5:0.704915 6:0.773458 7:8.391e-05 8:0.200235 9:0.0476775 10:0.0118862 11:0.018426 12:0.0081379 13:0.00787926 14:0.000758384 15:1 16:0 17:0 18:0 19:0 20:0 21:1 22:0.156391 23:0.265765 24:0.0165197 25:0.04726 26:0.140369 27:0.0123761 28:0.0781984 29:0.226492 30:0.0566301 31:0.11 32:0.11 33:0.11 34:0.11 35:0.11 36:0.11 37:0.11 38:0.11 39:0.11 40:0.0275887 41:0.0987285 42:0.00219749 43:0.0146239 44:0.662468 45:0.000967302 46:0.0674674 47:0.121219 48:0.00473946 
-1 1:0.505578 2:0.27898 3:0.215443 4:-0.800463 5:0.841531 6:0.862671 7:2.88996e-05 8:0.132541 9:0.0110978 10:0.0042008 11:0.00330352 12:0.00324112 13:0.00130366 14:0.00275177 15:0 16:0 17:0 18:0 19:0 20:0 21:1 22:0.112535 23:0.155862 24:0.0108378 25:0.0480864 26:0.350956 27:0.00703502 28:0.0674349 29:0.150974 30:0.0962774 31:0.11 32:0.11 33:0.11 34:0.11 35:0.11 36:0.11 37:0.11 38:0.11 39:0.11 40:0.0170796 41:0.181551 42:0.0172952 43:0.0192062 44:0.546696 45:0.00668175 46:0.0950403 47:0.0871946 48:0.0292547 
-0.5811679488310335 1:0.194727 2:0.0526343 3:0.752638 4:-0.954927 5:0.00256833 6:0.506183 7:0.009686 8:0.00257985 9:0.000711805 10:0.0133848 11:0.00148657 12:0.00367039 13:0.0327297 14:0.933183 15:0 16:0 17:0 18:0 19:0 20:0 21:1 22:0.0376687 23:0.069648 24:0.014376 25:0.100105 26:0.585928 27:0.00566387 28:0.0165311 29:0.100293 30:0.0697853 31:0.11 32:0.11 33:0.11 34:0.11 35:0.11 36:0.11 37:0.11 38:0.11 39:0.11 40:0.00409175 41:0.00326938 42:0.00133563 43:0.0463392 44:0.917903 45:0.000224768 46:0.011894 47:0.00392545 48:0.0110166 
-1 1:0.809168 2:0.0441854 3:0.146647 4:-0.949144 5:0.0179724 6:0.186258 7:0.028049 8:0.086321 9:0.00673219 10:0.0137862 11:0.128034 12:0.00672293 13:0.158254 14:0.554129 15:0 16:0 17:0 18:0 19:0 20:0 21:0 22:0.116523 23:0.326182 24:0.0502078 25:0.128743 26:0.183339 27:0.0198462 28:0.0595742 29:0.0545148 30:0.0610701 31:0.0048884 32:0.0544617 33:0.00791928 34:0.787437 35:0.0649729 36:0.00559371 37:0.037802 38:0.00811174 39:0.0288136 40:0.0790198 41:0.323571 42:0.0610008 43:0.0833031 44:0.223384 45:0.0107486 46:0.11341 47:0.0813131 48:0.0242504 
-0.3937931381060054 1:0.161605 2:0.0987718 3:0.739623 4:0.958095 5:0.0611123 6:0.391989 7:0.0137397 8:0.12546 9:0.154713 10:0.0499158 11:0.315092 12:0.165244 13:0.0392135 14:0.0755096 15:0 16:0 17:0 18:0 19:0 20:0 21:0 22:0.0111198 23:0.0560393 24:0.0252251 25:0.00517169 26:0.0145399 27:0.0123562 28:0.179215 29:0.542799 30:0.153535 31:0.0707326 32:0.350581 33:0.15776 34:0.151505 35:0.0256771 36:0.0571642 37:0.0578376 38:0.0674665 39:0.0612758 40:0.123133 41:0.028148 42:0.00690101 43:0.0152257 44:0.762162 45:0.0109116 46:0.0240739 47:0.0251045 48:0.00434072 
-1 1:0.875329 2:0.0302674 3:0.0944035 4:-0.507628 5:0.157144 6:0.800277 7:0.00200332 8:0.0271206 9:0.00747711 10:0.0145904 11:0.00815668 12:0.0024597 13:0.772022 14:0.00902619 15:0 16:0 17:0 18:0 19:0 20:0 21:0 22:0.0542363 23:0.19825 24:0.0396143 25:0.350248 26:0.0442648 27:0.0199996 28:0.221506 29:0.0245177 30:0.0473627 31:0.11 32:0.11 33:0.11 34:0.11 35:0.11 36:0.11 37:0.11 38:0.11 39:0.11 40:0.0266405 41:0.0502388 42:0.0129695 43:0.299414 44:0.10673 45:0.0475025 46:0.0510215 47:0.234104 48:0.171379 
-1 1:0.18577 2:0.474093 3:0.340137 4:-0.912043 5:0.0173666 6:0.0937888 7:0.0212728 8:0.169834 9:0.0325094 10:0.279983 11:0.129958 12:0.1824 13:0.00613236 14:0.160544 15:0 16:0 17:0 18:0 19:0 20:0 21:0 22:0.015522 23:0.0521012 24:0.0208339 25:0.0286795 26:0.733001 27:0.0396276 28:0.0375139 29:0.0049671 30:0.0677542 31:0.00477133 32:0.0129468 33:0.0107982 34:0.0294837 35:0.3355 36:0.0244016 37:0.0451987 38:0.0848754 39:0.452024 40:0.354307 41:0.155674 42:0.0618984 43:0.175149 44:0.0150466 45:0.0461807 46:0.156159 47:0.0256964 48:0.00989019 
-1 1:0.288009 2:0.17876 3:0.533232 4:-0.965983 5:0.0664296 6:0.193456 7:0.0146839 8:0.354737 9:0.0114915 10:0.054914 11:0.161126 12:0.0521524 13:0.185667 14:0.0987987 15:0 16:0 17:0 18:0 19:0 20:0 21:0 22:0.0297724 23:0.0410339 24:0.0126083 25:0.0753018 26:0.112651 27:0.0112024 28:0.0699357 29:0.412682 30:0.234813 31:0.00700429 32:0.0225542 33:0.0165589 34:0.0293061 35:0.846917 36:0.0162511 37:0.0217475 38:0.0183418 39:0.021319 40:0.00574236 41:0.257058 42:0.0315654 43:0.0484118 44:0.610011 45:0.00128713 46:0.0145696 47:0.022005 48:0.00935017 
-1 1:0.241641 2:0.107423 3:0.650936 4:-0.703983 5:0.134258 6:0.2225 7:0.00388138 8:0.221572 9:0.00654842 10:0.109211 11:0.00665461 12:0.00634046 13:0.373805 14:0.137729 15:0 16:0 17:0 18:0 19:0 20:0 21:1 22:0.0218234 23:0.0365119 24:0.0145042 25:0.16657 26:0.681753 27:0.00651407 28:0.00519868 29:0.0333101 30:0.0338144 31:0.0148452 32:0.0882626 33:0.0100681 34:0.732788 35:0.0686169 36:0.0114941 37:0.0443511 38:0.00728983 39:0.0222846 40:0.00204054 41:0.00306291 42:0.000204016 43:0.00351889 44:0.970853 45:0.00040651 46:0.0152385 47:0.00366359 48:0.00101181 
-1 1:0.267769 2:0.100705 3:0.631525 4:-0.965611 5:0.0264785 6:0.130638 7:0.0528703 8:0.16309 9:0.0468934 10:0.0398755 11:0.149936 12:0.0150269 13:0.0339765 14:0.471852 15:0 16:0 17:0 18:0 19:0 20:0 21:0 22:0.0584316 23:0.170696 24:0.234218 25:0.0330204 26:0.149625 27:0.127457 28:0.125262 29:0.0325098 30:0.0687816 31:0.0354676 32:0.0707124 33:0.0407167 34:0.0740988 35:0.578045 36:0.0662775 37:0.0724646 38:0.0407085 39:0.0215091 40:0.021408 41:0.234825 42:0.0249451 43:0.0269179 44:0.200175 45:0.0113262 46:0.0241485 47:0.441273 48:0.0149815 
-1 1:0.212423 2:0.0805477 3:0.707029 4:0.794005 5:0.116546 6:0.291305 7:0.00839463 8:0.240559 9:0.230866 10:0.168914 11:0.0742023 12:0.107624 13:0.0173544 14:0.0355396 15:0 16:0 17:0 18:0 19:0 20:0 21:0 22:0.120508 23:0.0349694 24:0.0172519 25:0.147639 26:0.271503 27:0.0377776 28:0.057759 29:0.285981 30:0.0266113 31:0.11 32:0.11 33:0.11 34:0.11 35:0.11 36:0.11 37:0.11 38:0.11 39:0.11 40:0.180512 41:0.394931 42:0.0109623 43:0.156866 44:0.179308 45:0.0115211 46:0.0352007 47:0.0286991 48:0.00200007 
-1 1:0.146251 2:0.476844 3:0.376905 4:0.90325 5:0.151165 6:0.189007 7:0.00810111 8:0.55542 9:0.0342901 10:0.0302265 11:0.0711014 12:0.014329 13:0.0690584 14:0.0663087 15:0 16:0 17:0 18:0 19:0 20:0 21:1 22:0.0162701 23:0.0939338 24:0.181023 25:0.400436 26:0.104893 27:0.0194817 28:0.0468814 29:0.0111652 30:0.125915 31:0.11 32:0.11 33:0.11 34:0.11 35:0.11 36:0.11 37:0.11 38:0.11 39:0.11 40:0.0301688 41:0.0152373 42:0.00107924 43:0.852929 44:0.0235691 45:0.00107445 46:0.0471178 47:0.0260694 48:0.00275488 
-1 1:0.147884 2:0.477283 3:0.374833 4:0.860219 5:0.104665 6:0.120247 7:0.00904939 8:0.285276 9:0.144746 10:0.0339947 11:0.189909 12:0.0266374 13:0.124992 14:0.0807297 15:0 16:0 17:0 18:0 19:0 20:0 21:1 22:0.0157465 23:0.134536 24:0.0795699 25:0.425539 26:0.205464 27:0.0153003 28:0.0299065 29:0.0133377 30:0.0806003 31:0.11 32:0.11 33:0.11 34:0.11 35:0.11 36:0.11 37:0.11 38:0.11 39:0.11 40:0.000396058 41:0.00156946 42:0.000178435 43:0.98701 44:0.00767602 45:0.000807947 46:0.00198152 47:0.000302456 48:7.82835e-05 
-1 1:0.313145 2:0.111189 3:0.575665 4:-0.95425 5:0.0181629 6:0.139478 7:0.0115725 8:0.0937612 9:0.0154843 10:0.16791 11:0.361001 12:0.174746 13:0.0824191 14:0.0749427 15:0 16:0 17:0 18:0 19:0 20:0 21:0 22:0.0557815 23:0.117439 24:0.0525534 25:0.111438 26:0.476202 27:0.0696255 28:0.0492538 29:0.0219759 30:0.0457317 31:0.0298017 32:0.335334 33:0.0650266 34:0.0710387 35:0.191604 36:0.0407337 37:0.0524453 38:0.0833012 39:0.130715 40:0.00195064 41:0.0292066 42:0.00152761 43:0.0257728 44:0.755686 45:0.00320663 46:0.119061 47:0.0627816 48:0.000807305 
-0.8459200032729446 1:0.250216 2:0.0633516 3:0.686433 4:0.954267 5:0.0184724 6:0.303334 7:0.00522081 8:0.0627826 9:0.487572 10:0.359238 11:0.0201766 12:0.0131437 13:0.0142991 14:0.0190948 15:0 16:0 17:0 18:0 19:0 20:0 21:0 22:0.00816998 23:0.0606188 24:0.0293898 25:0.023306 26:0.0162299 27:0.0780981 28:0.12366 29:0.346327 30:0.314201 31:0.00610464 32:0.0180262 33:0.0254676 34:0.0162731 35:0.386886 36:0.101455 37:0.0489834 38:0.333735 39:0.0630689 40:0.0692451 41:0.203059 42:0.0666018 43:0.0209199 44:0.205707 45:0.0187156 46:0.0874635 47:0.234317 48:0.0939711 
-0.1286727728396891 1:0.256514 2:0.0656843 3:0.677802 4:0.967865 5:0.00463578 6:0.22697 7:0.379886 8:0.022593 9:0.00159346 10:0.0116172 11:0.00840707 12:0.236507 13:0.0607977 14:0.273963 15:0 16:0 17:0 18:0 19:0 20:0 21:1 22:0.0423629 23:0.0726045 24:0.0278312 25:0.0241126 26:0.358598 27:0.249692 28:0.0728708 29:0.0370281 30:0.1149 31:0.0085811 32:0.0201629 33:0.874522 34:0.00108499 35:0.00197125 36:0.0435592 37:0.00274385 38:0.00147587 39:0.0458989 40:0.0042143 41:0.0201207 42:0.0106243 43:0.00837744 44:0.244654 45:0.0039958 46:0.0504972 47:0.631516 48:0.0259996 
-0.2757009427948194 1:0.310976 2:0.40322 3:0.285804 4:-0.966216 5:0.0205759 6:0.197161 7:0.0037081 8:0.135656 9:0.00181983 10:0.0137275 11:0.00326208 12:0.0049895 13:0.586336 14:0.229925 15:0 16:0 17:0 18:0 19:0 20:0 21:1 22:0.00573003 23:0.012651 24:0.0140898 25:0.0532508 26:0.790144 27:0.00682955 28:0.00388658 29:0.0822396 30:0.0311785 31:0.11 32:0.11 33:0.11 34:0.11 35:0.11 36:0.11 37:0.11 38:0.11 39:0.11 40:0.0376639 41:0.0163921 42:0.000412355 43:0.105399 44:0.810245 45:0.000401091 46:0.0190962 47:0.00292559 48:0.00746414 
-1 1:0.324108 2:0.11378 3:0.562112 4:-0.965522 5:0.118889 6:0.345411 7:0.00391492 8:0.209407 9:0.12926 10:0.0512657 11:0.439615 12:0.0195144 13:0.00670827 14:0.0214251 15:0 16:0 17:0 18:0 19:0 20:0 21:0 22:0.325769 23:0.200586 24:0.0239351 25:0.114889 26:0.222075 27:0.0179779 28:0.0192497 29:0.0572411 30:0.0182764 31:0.00135981 32:0.0145371 33:0.00494168 34:0.000769494 35:0.000983208 36:0.00119482 37:0.966726 38:0.00817343 39:0.00131482 40:0.00297707 41:0.0122652 42:0.00166442 43:0.0112836 44:0.839174 45:0.00086051 46:0.0761858 47:0.0522068 48:0.00338308 
-1 1:0.183604 2:0.133803 3:0.682593 4:0.954747 5:0.449721 6:0.769516 7:0.00309065 8:0.156863 9:0.0240601 10:0.0282364 11:0.00549387 12:0.0267113 13:0.0475792 14:0.258244 15:0 16:0 17:0 18:0 19:0 20:0 21:1 22:0.111671 23:0.0726435 24:0.0175259 25:0.120204 26:0.392116 27:0.0161712 28:0.1136 29:0.121165 30:0.0349034 31:0.11 32:0.11 33:0.11 34:0.11 35:0.11 36:0.11 37:0.11 38:0.11 39:0.11 40:0.047803 41:0.142759 42:0.00658784 43:0.177962 44:0.469304 45:0.00569324 46:0.0991642 47:0.0325446 48:0.0181808 
-0.15503073068573 1:0.320802 2:0.081773 3:0.597425 4:0.952693 5:0.0152659 6:0.129275 7:0.0962078 8:0.0378139 9:0.00692066 10:0.132448 11:0.0127868 12:0.00894626 13:0.194321 14:0.49529 15:0 16:0 17:0 18:0 19:0 20:0 21:1 22:0.0172422 23:0.0427868 24:0.0380877 25:0.603676 26:0.092937 27:0.00754758 28:0.0176229 29:0.0254422 30:0.154657 31:0.0058188 32:0.017012 33:0.0108608 34:0.788462 35:0.065076 36:0.0118355 37:0.0200437 38:0.0288492 39:0.0520421 40:0.11 41:0.11 42:0.11 43:0.11 44:0.11 45:0.11 46:0.11 47:0.11 48:0.11 
-1 1:0.843464 2:0.0569556 3:0.0995801 4:0.970669 5:0.0151947 6:0.310607 7:0.024966 8:0.0389289 9:0.0227426 10:0.216602 11:0.295613 12:0.0825979 13:0.0112634 14:0.292092 15:0 16:0 17:0 18:0 19:0 20:0 21:1 22:0.229557 23:0.0713952 24:0.042732 25:0.0208102 26:0.326846 27:0.0281016 28:0.162676 29:0.094574 30:0.023308 31:0.0333131 32:0.823962 33:0.0111303 34:0.00400757 35:0.0328839 36:0.00443663 37:0.073163 38:0.00498368 39:0.0121202 40:0.764504 41:0.114956 42:0.0139988 43:0.0238944 44:0.0135438 45:0.00662696 46:0.025241 47:0.0333081 48:0.00392694 
