svm_type c_svc
kernel_type rbf
gamma 0.1
nr_class 2
total_sv 107
rho 0.0863957
label 0 1
probA -3.54217
probB 0.627895
nr_sv 60 47
SV
0.5 1:0.962985 2:0.0192117 3:0.00379533 4:0.0140081 5:0.595656 6:0.0678102 7:0.395699 8:-0.613867 9:0.135371 10:0.105456 11:0.0120542 12:0.0223913 13:0.0441394 14:0.392374 15:0.0167708 16:0.177912 17:0.0257215 18:0 19:0 20:0 21:0 22:0 23:0 24:0 25:0.128363 26:0.0722086 27:0.0449288 28:0.0764313 29:0.030177 30:0.0547623 31:0.216437 32:0.0156378 33:0.192748 34:0.168306 35:0.00133822 36:0.00724728 37:0.0012831 38:0.0203105 39:0.000789908 40:0.00210641 41:0.0309115 42:0.00286546 43:0.929977 44:0.00317058 45:0.1 46:0.1 47:0.1 48:0.1 49:0.1 50:0.1 51:0.1 52:0.1 53:0.1 54:0.1 
0.5 1:0.986442 2:0.00721694 3:0.00148704 4:0.00485383 5:0.899965 6:0.0763044 7:0.460505 8:-0.5945 9:0.129179 10:0.0988161 11:0.0313183 12:0.0235727 13:0.0568427 14:0.281491 15:0.0250607 16:0.238643 17:0.0387725 18:0 19:0 20:0 21:0 22:0 23:0 24:0 25:0.0775577 26:0.126434 27:0.0394051 28:0.0989647 29:0.0364799 30:0.0331887 31:0.114715 32:0.038253 33:0.327883 34:0.107119 35:0.1 36:0.1 37:0.1 38:0.1 39:0.1 40:0.1 41:0.1 42:0.1 43:0.1 44:0.1 45:0.1 46:0.1 47:0.1 48:0.1 49:0.1 50:0.1 51:0.1 52:0.1 53:0.1 54:0.1 
0.5 1:0.561341 2:0.153169 3:0.112668 4:0.172823 5:0.892048 6:0.0882468 7:0.333511 8:-0.652606 9:0.0551783 10:0.175868 11:0.0331336 12:0.0210672 13:0.0382792 14:0.0196904 15:0.00675641 16:0.538806 17:0.0229739 18:0 19:0 20:0 21:0 22:0 23:0 24:0 25:0.0819865 26:0.0679008 27:0.0242589 28:0.0987416 29:0.0251869 30:0.0369418 31:0.25319 32:0.0305949 33:0.182044 34:0.199154 35:0.1 36:0.1 37:0.1 38:0.1 39:0.1 40:0.1 41:0.1 42:0.1 43:0.1 44:0.1 45:0.107935 46:0.237753 47:0.0511432 48:0.143281 49:0.0634648 50:0.0412815 51:0.188672 52:0.0240417 53:0.0654282 54:0.0769996 
0.2476670035279946 1:0.952667 2:0.0338359 3:0.00390534 4:0.00959168 5:0.827139 6:0.0463224 7:0.384475 8:0.814602 9:0.0954061 10:0.0692094 11:0.012767 12:0.0177751 13:0.0606925 14:0.541089 15:0.0232752 16:0.101969 17:0.0314942 18:0 19:0 20:0 21:0 22:0 23:0 24:0 25:0.0776734 26:0.15259 27:0.0302513 28:0.0515015 29:0.0350843 30:0.0260261 31:0.138894 32:0.0157582 33:0.200765 34:0.271456 35:0.00147759 36:0.00543161 37:0.00132447 38:0.0212671 39:0.000877645 40:0.00187921 41:0.0266939 42:0.00551476 43:0.93294 44:0.0025938 45:0.0144519 46:0.0364789 47:0.0158599 48:0.311515 49:0.0208436 50:0.0148931 51:0.396167 52:0.0278214 53:0.132956 54:0.0290136 
0.5 1:0.999318 2:9.02369e-07 3:7.00319e-07 4:0.00068006 5:0.919375 6:0.00583617 7:0.0647213 8:0.632791 9:0.0195737 10:0.138686 11:0.367502 12:0.0740015 13:0.289517 14:0.0917847 15:0.00620836 16:0.00303217 17:0.00385798 18:0 19:1 20:0 21:0 22:0 23:0 24:1 25:0.0322775 26:0.0746575 27:0.0968626 28:0.0265345 29:0.0150874 30:0.0669272 31:0.0896636 32:0.0105005 33:0.106932 34:0.480557 35:0.00462679 36:0.0410181 37:0.0115879 38:0.0152921 39:0.0156614 40:0.00714819 41:0.449422 42:0.0223722 43:0.424251 44:0.00862031 45:0.170221 46:0.0598652 47:0.038173 48:0.00632991 49:0.00594556 50:0.00550184 51:0.0107656 52:0.0341882 53:0.313384 54:0.355625 
0.5 1:0.998264 2:0.00131832 3:7.18669e-05 4:0.000345464 5:0.908601 6:0.0321661 7:0.396911 8:0.629958 9:0.365775 10:0.0715848 11:0.0299637 12:0.0118229 13:0.135735 14:0.169293 15:0.0242312 16:0.0519658 17:0.107463 18:0 19:0 20:0 21:0 22:0 23:0 24:0 25:0.218245 26:0.0269378 27:0.00594005 28:0.0164172 29:0.0103882 30:0.0061629 31:0.0448602 32:0.264757 33:0.382269 34:0.0240227 35:0.0013714 36:0.00571204 37:0.00118141 38:0.0211297 39:0.00082465 40:0.00178324 41:0.0350375 42:0.00298718 43:0.927371 44:0.00260158 45:0.00287465 46:0.018887 47:0.0155125 48:0.339088 49:0.0340728 50:0.00411682 51:0.0288839 52:0.0320548 53:0.495092 54:0.0294176 
0.5 1:0.999098 2:9.00219e-07 3:9.39634e-07 4:0.0008997 5:0.902011 6:0.0424603 7:0.354721 8:-0.793587 9:0.155272 10:0.132199 11:0.0225998 12:0.00924434 13:0.08407 14:0.217855 15:0.0177733 16:0.198011 17:0.120516 18:0 19:0 20:0 21:0 22:0 23:0 24:0 25:0.19328 26:0.0326942 27:0.009315 28:0.0263295 29:0.0102169 30:0.00826285 31:0.0527744 32:0.235104 33:0.356762 34:0.0752607 35:0.00147759 36:0.00543161 37:0.00132447 38:0.0212671 39:0.000877645 40:0.00187921 41:0.0266939 42:0.00551476 43:0.93294 44:0.0025938 45:0.00141784 46:0.0154912 47:0.0102969 48:0.338631 49:0.0336776 50:0.00233081 51:0.0129754 52:0.0120264 53:0.533299 54:0.0398541 
0.5 1:0.997646 2:0.0019213 3:2.48332e-05 4:0.000408055 5:0.970474 6:0.0019728 7:0.0189212 8:0.974365 9:0.453669 10:0.0513177 11:0.0174888 12:0.00657531 13:0.119912 14:0.103723 15:0.186575 16:0.0538314 17:0.00493552 18:1 19:1 20:0 21:0 22:0 23:0 24:0 25:0.0749915 26:0.0167829 27:0.0127537 28:0.00760219 29:0.0038789 30:0.0342328 31:0.0817683 32:0.0142695 33:0.737724 34:0.0159959 35:0.0275099 36:0.0621962 37:0.0676363 38:0.0817792 39:0.107048 40:0.0617958 41:0.251951 42:0.0343644 43:0.225044 44:0.0806743 45:0.1 46:0.1 47:0.1 48:0.1 49:0.1 50:0.1 51:0.1 52:0.1 53:0.1 54:0.1 
0.5 1:0.0210845 2:0.0248991 3:0.0172952 4:0.936721 5:0.96919 6:0.288856 7:0.601722 8:-0.849487 9:0.0847581 10:0.214795 11:0.0363532 12:0.0238024 13:0.0577539 14:0.0483 15:0.0372614 16:0.195467 17:0.0126526 18:0 19:0 20:0 21:0 22:0 23:0 24:0 25:0.075113 26:0.0571263 27:0.527283 28:0.00639449 29:0.00360354 30:0.244974 31:0.047929 32:0.0203702 33:0.0146188 34:0.00258815 35:0.1 36:0.1 37:0.1 38:0.1 39:0.1 40:0.1 41:0.1 42:0.1 43:0.1 44:0.1 45:0.00586641 46:0.012959 47:0.0281236 48:0.00300181 49:0.0016695 50:0.00643586 51:0.882573 52:0.0083933 53:0.0500184 54:0.00095947 
0.5 1:0.769866 2:0.00334817 3:0.00160364 4:0.225182 5:0.940639 6:0.00171188 7:0.0368482 8:0.632154 9:0.0567668 10:0.0206386 11:0.00592169 12:0.00239177 13:0.0204757 14:0.106777 15:0.731598 16:0.0271624 17:0.0265558 18:0 19:0 20:0 21:0 22:0 23:0 24:0 25:0.0150723 26:0.118672 27:0.042712 28:0.0105578 29:0.00875789 30:0.0324879 31:0.439913 32:0.0352536 33:0.290144 34:0.00642878 35:0.00451253 36:0.0129984 37:0.00985306 38:0.0443041 39:0.129105 40:0.00953473 41:0.0293174 42:0.745245 43:0.00609255 44:0.00903713 45:0.0025747 46:0.0145595 47:0.0128212 48:0.0369215 49:0.00275457 50:0.00975187 51:0.776262 52:0.108313 53:0.0350819 54:0.000959451 
0.5 1:0.987267 2:0.00575741 3:0.00092087 4:0.00605456 5:0.939051 6:0.00195395 7:0.0167414 8:0.980899 9:0.0802653 10:0.0289446 11:0.00299895 12:0.00467704 13:0.011661 14:0.610043 15:0.225565 16:0.0119178 17:0.0219726 18:0 19:0 20:0 21:0 22:0 23:0 24:0 25:0.0232715 26:0.0708357 27:0.0174426 28:0.0181419 29:0.0113518 30:0.0160906 31:0.215526 32:0.10558 33:0.516483 34:0.00527725 35:0.0303018 36:0.0674063 37:0.045582 38:0.0277573 39:0.0148614 40:0.0871465 41:0.641231 42:0.0161631 43:0.0381342 44:0.0314161 45:0.1 46:0.1 47:0.1 48:0.1 49:0.1 50:0.1 51:0.1 52:0.1 53:0.1 54:0.1 
0.5 1:0.996604 2:0.00247109 3:4.7678e-05 4:0.000876888 5:0.973049 6:0.00533144 7:0.0406362 8:0.997477 9:0.198391 10:0.0351023 11:0.00366003 12:0.00234714 13:0.0217535 14:0.299105 15:0.407858 16:0.00984642 17:0.0166056 18:0 19:0 20:1 21:0 22:0 23:0 24:0 25:0.0801768 26:0.111798 27:0.069433 28:0.0176752 29:0.013393 30:0.018134 31:0.324144 32:0.0672521 33:0.292065 34:0.00592966 35:0.0355167 36:0.0653542 37:0.0715964 38:0.0296037 39:0.0117506 40:0.130758 41:0.523183 42:0.0175522 43:0.0765445 44:0.0381401 45:0.000843961 46:0.00864107 47:0.00344149 48:0.00578523 49:0.00362589 50:0.00180407 51:0.660364 52:0.284513 53:0.0277377 54:0.0032434 
0.5 1:0.999203 2:1.74574e-06 3:1.49945e-06 4:0.000794197 5:0.967254 6:0.0392655 7:0.634709 8:0.873643 9:0.0464985 10:0.0394968 11:0.0439576 12:0.0476271 13:0.0939195 14:0.398815 15:0.205398 16:0.0744491 17:0.0105721 18:0 19:0 20:0 21:0 22:0 23:0 24:1 25:0.0259895 26:0.133744 27:0.20264 28:0.0243422 29:0.0169477 30:0.0412323 31:0.311786 32:0.064522 33:0.17232 34:0.00647571 35:0.003132 36:0.0041355 37:0.0054534 38:0.00346062 39:0.00739727 40:0.0426139 41:0.85174 42:0.0701525 43:0.00331652 44:0.00859861 45:0.1 46:0.1 47:0.1 48:0.1 49:0.1 50:0.1 51:0.1 52:0.1 53:0.1 54:0.1 
0.5 1:0.995372 2:0.00368797 3:0.000423551 4:0.000516829 5:0.95747 6:0.00946829 7:0.157058 8:0.555511 9:0.115767 10:0.0498126 11:0.0294804 12:0.0490291 13:0.193252 14:0.407282 15:0.0302416 16:0.0393485 17:0.0763193 18:0 19:0 20:0 21:0 22:0 23:0 24:0 25:0.0830582 26:0.0122067 27:0.286222 28:0.0159888 29:0.00281905 30:0.541003 31:0.0199587 32:0.015589 33:0.0188968 34:0.00425767 35:0.1 36:0.1 37:0.1 38:0.1 39:0.1 40:0.1 41:0.1 42:0.1 43:0.1 44:0.1 45:0.000693478 46:0.00573826 47:0.00305377 48:0.00475638 49:0.00150411 50:0.000624236 51:0.736328 52:0.24391 53:0.00307564 54:0.000315499 
0.4224210187427393 1:0.997118 2:0.00101344 3:8.40862e-05 4:0.00178459 5:0.812763 6:0.00547358 7:0.0685659 8:0.905299 9:0.148584 10:0.0286456 11:0.0213408 12:0.00965748 13:0.0641354 14:0.140959 15:0.0300085 16:0.0380834 17:0.513112 18:0 19:0 20:0 21:0 22:0 23:0 24:0 25:0.082558 26:0.143717 27:0.0466165 28:0.0345878 29:0.0249863 30:0.0185196 31:0.260833 32:0.154748 33:0.227126 34:0.00630648 35:8.12751e-05 36:0.000791444 37:0.000580952 38:0.000231091 39:0.00133286 40:0.00784943 41:0.951988 42:0.0347124 43:0.000552204 44:0.00188018 45:0.1 46:0.1 47:0.1 48:0.1 49:0.1 50:0.1 51:0.1 52:0.1 53:0.1 54:0.1 
0.3174195923100082 1:0.844315 2:0.131514 3:0.0100102 4:0.0141608 5:0.970782 6:0.138665 7:0.259168 8:0.998783 9:0.0839162 10:0.239544 11:0.059309 12:0.0442722 13:0.0887572 14:0.173472 15:0.134139 16:0.0150717 17:0.0228538 18:0 19:0 20:0 21:1 22:0 23:0 24:1 25:0.102346 26:0.273169 27:0.0173485 28:0.0186537 29:0.0116697 30:0.076641 31:0.356049 32:0.082706 33:0.0541933 34:0.00722324 35:0.0726479 36:0.238373 37:0.145751 38:0.0243777 39:0.0652465 40:0.0252373 41:0.140728 42:0.012829 43:0.0286483 44:0.24616 45:0.00111178 46:0.00583847 47:0.0010647 48:0.000149725 49:0.00109896 50:0.000153107 51:0.983599 52:0.0045096 53:0.00239491 54:7.97564e-05 
0.5 1:0.998159 2:0.00128904 3:4.50627e-05 4:0.000506997 5:-0.731411 6:0.0117499 7:0.296584 8:0.556485 9:0.0527843 10:0.0384106 11:0.0118498 12:0.0383136 13:0.261528 14:0.13106 15:0.23143 16:0.194133 17:0.0287401 18:0 19:0 20:0 21:0 22:0 23:0 24:0 25:0.0269865 26:0.0623562 27:0.0251056 28:0.0172748 29:0.00256839 30:0.0596053 31:0.774699 32:0.0256274 33:0.00392469 34:0.00185219 35:0.0116866 36:0.0391509 37:0.0605255 38:0.017374 39:0.0301305 40:0.132665 41:0.520602 42:0.0939098 43:0.0251631 44:0.0687923 45:0.1 46:0.1 47:0.1 48:0.1 49:0.1 50:0.1 51:0.1 52:0.1 53:0.1 54:0.1 
0.5 1:0.66485 2:0.12069 3:0.0430898 4:0.17137 5:0.963751 6:0.0162866 7:0.395557 8:-0.844298 9:0.0324751 10:0.0187347 11:0.119415 12:0.0987248 13:0.0960145 14:0.0438777 15:0.0151869 16:0.492553 17:0.0667317 18:0 19:0 20:0 21:0 22:0 23:0 24:0 25:0.0184101 26:0.122925 27:0.0511223 28:0.471799 29:0.0589196 30:0.0301231 31:0.0696739 32:0.166202 33:0.00606192 34:0.00476315 35:0.0570048 36:0.290255 37:0.124488 38:0.112984 39:0.031406 40:0.0942948 41:0.0585392 42:0.0595267 43:0.0665984 44:0.104903 45:0.0949137 46:0.145181 47:0.0281428 48:0.0517389 49:0.359759 50:0.00230432 51:0.0137522 52:0.287697 53:0.0105444 54:0.0059662 
0.5 1:0.748908 2:0.204297 3:0.0120088 4:0.0347861 5:-0.976533 6:0.00523383 7:0.105382 8:0.947502 9:0.011578 10:0.0157335 11:0.143881 12:0.00832463 13:0.0610962 14:0.245186 15:0.451107 16:0.0155179 17:0.0423417 18:0 19:0 20:0 21:0 22:0 23:0 24:0 25:0.0379763 26:0.109726 27:0.0918333 28:0.0147507 29:0.0156602 30:0.23493 31:0.253225 32:0.231148 33:0.00567619 34:0.0050748 35:0.00182188 36:0.00793789 37:0.00288106 38:0.00821599 39:0.288263 40:0.0164015 41:0.0443666 42:0.610706 43:0.016099 44:0.00330684 45:8.35617e-05 46:0.0111783 47:0.000289045 48:0.000121984 49:0.00461632 50:9.87319e-05 51:0.979449 52:0.00398777 53:0.000151493 54:2.38872e-05 
0.3598462113635916 1:0.994259 2:0.00332386 3:0.00063919 4:0.00177756 5:0.971211 6:0.011804 7:0.358222 8:0.995034 9:0.0108655 10:0.0239799 11:0.026754 12:0.0121707 13:0.0311388 14:0.514181 15:0.104569 16:0.0539543 17:0.210583 18:0 19:0 20:0 21:0 22:0 23:0 24:0 25:0.0653057 26:0.0400929 27:0.0322639 28:0.253554 29:0.06227 30:0.0262196 31:0.156758 32:0.357589 33:0.00351958 34:0.00242797 35:0.1 36:0.1 37:0.1 38:0.1 39:0.1 40:0.1 41:0.1 42:0.1 43:0.1 44:0.1 45:0.00102814 46:0.00581828 47:0.00909592 48:0.00344744 49:0.0187857 50:0.00539011 51:0.925194 52:0.0302174 53:0.000854357 54:0.000169113 
0.08521371137688614 1:0.987718 2:0.00753149 3:0.00106456 4:0.00368621 5:-0.951827 6:0.0405086 7:0.624323 8:0.977725 9:0.0259563 10:0.0629058 11:0.0253937 12:0.0102971 13:0.0293454 14:0.382078 15:0.0439085 16:0.276784 17:0.102822 18:0 19:0 20:0 21:0 22:0 23:0 24:0 25:0.0143078 26:0.0282182 27:0.0330821 28:0.0686094 29:0.65485 30:0.00231228 31:0.00943549 32:0.18699 33:0.00146639 34:0.000728303 35:0.1 36:0.1 37:0.1 38:0.1 39:0.1 40:0.1 41:0.1 42:0.1 43:0.1 44:0.1 45:0.000883942 46:0.00613481 47:0.00906034 48:0.0027485 49:0.00979798 50:0.00630443 51:0.941854 52:0.0227941 53:0.000247299 54:0.000174493 
0.5 1:0.999541 2:2.02617e-06 3:1.1964e-06 4:0.00045608 5:0.762062 6:0.011592 7:0.431638 8:0.925149 9:0.217323 10:0.0126988 11:0.0155271 12:0.0481246 13:0.0255908 14:0.0517843 15:0.0252568 16:0.324846 17:0.267257 18:0 19:0 20:0 21:0 22:0 23:0 24:0 25:0.0187938 26:0.0574994 27:0.0277841 28:0.0878131 29:0.142769 30:0.0257869 31:0.158198 32:0.478496 33:0.00194777 34:0.000912378 35:0.1 36:0.1 37:0.1 38:0.1 39:0.1 40:0.1 41:0.1 42:0.1 43:0.1 44:0.1 45:0.00707017 46:0.0150943 47:0.00865339 48:0.0156391 49:0.183572 50:0.00265261 51:0.0451548 52:0.716268 53:0.00386502 54:0.0020306 
0.5 1:0.999492 2:7.61319e-07 3:6.64908e-07 4:0.000506651 5:0.954262 6:0.0242506 7:0.425904 8:0.793044 9:0.00598818 10:0.0453502 11:0.167326 12:0.0143287 13:0.111223 14:0.493466 15:0.0365459 16:0.0593399 17:0.0421821 18:0 19:0 20:0 21:0 22:0 23:0 24:0 25:0.0576282 26:0.123285 27:0.0213412 28:0.0483724 29:0.109277 30:0.0446735 31:0.187855 32:0.400108 33:0.00460278 34:0.00285645 35:0.00616507 36:0.0118496 37:0.0138741 38:0.0269096 39:0.0761256 40:0.0247804 41:0.497502 42:0.293953 43:0.0325353 44:0.0163054 45:0.0113943 46:0.0284352 47:0.0043926 48:0.018151 49:0.144344 50:0.00145582 51:0.730566 52:0.056226 53:0.00104968 54:0.0039851 
0.5 1:0.995514 2:0.00339099 3:0.000174934 4:0.000919725 5:0.692168 6:0.0297774 7:0.57669 8:0.980602 9:0.0155932 10:0.0228302 11:0.0979024 12:0.0411864 13:0.0732521 14:0.225832 15:0.0181968 16:0.0584855 17:0.416944 18:0 19:0 20:0 21:0 22:0 23:0 24:0 25:0.0802498 26:0.0611173 27:0.032555 28:0.122869 29:0.399643 30:0.0346987 31:0.104089 32:0.111777 33:0.0408383 34:0.0121631 35:0.1 36:0.1 37:0.1 38:0.1 39:0.1 40:0.1 41:0.1 42:0.1 43:0.1 44:0.1 45:0.176843 46:0.0493081 47:0.0121378 48:0.218575 49:0.11762 50:0.00783945 51:0.311531 52:0.0805485 53:0.0139868 54:0.0116103 
0.5 1:0.994393 2:0.00364546 3:0.000427304 4:0.00153382 5:0.964751 6:0.0525871 7:0.198908 8:0.827358 9:0.0143257 10:0.0910992 11:0.201897 12:0.138596 13:0.196463 14:0.0244168 15:0.259225 16:0.00952324 17:0.0118666 18:0 19:0 20:0 21:0 22:0 23:0 24:0 25:0.0431155 26:0.13633 27:0.0557155 28:0.257449 29:0.0521867 30:0.0591004 31:0.127559 32:0.19843 33:0.0595977 34:0.010516 35:0.000578223 36:0.0118294 37:0.0042159 38:0.000546259 39:0.000887334 40:0.000632499 41:0.954784 42:0.000607645 43:0.0016315 44:0.0242872 45:0.1 46:0.1 47:0.1 48:0.1 49:0.1 50:0.1 51:0.1 52:0.1 53:0.1 54:0.1 
0.5 1:0.999194 2:6.50821e-07 3:6.50891e-07 4:0.000805147 5:0.953966 6:0.015085 7:0.140889 8:0.759207 9:0.0913669 10:0.0474702 11:0.0225535 12:0.0134416 13:0.183266 14:0.293487 15:0.291346 16:0.0265266 17:0.0154574 18:0 19:0 20:0 21:0 22:0 23:0 24:1 25:0.0211065 26:0.0945265 27:0.0210856 28:0.00567835 29:0.0379974 30:0.547688 31:0.19387 32:0.0620503 33:0.0123243 34:0.00367264 35:0.00108326 36:0.0073269 37:0.00280882 38:0.000448615 39:0.000834972 40:0.000766238 41:0.958911 42:0.000281885 43:0.00249771 44:0.0250406 45:0.1 46:0.1 47:0.1 48:0.1 49:0.1 50:0.1 51:0.1 52:0.1 53:0.1 54:0.1 
0.5 1:0.993768 2:0.00457071 3:0.000178326 4:0.00148303 5:0.93977 6:0.00554088 7:0.0297408 8:0.99735 9:0.0151773 10:0.0662264 11:0.0936189 12:0.0197797 13:0.490438 14:0.152545 15:0.142736 16:0.011104 17:0.00283348 18:0 19:0 20:0 21:0 22:0 23:0 24:0 25:0.0103599 26:0.0460736 27:0.0579865 28:0.0233502 29:0.0293878 30:0.0385291 31:0.236376 32:0.554636 33:0.00184147 34:0.00145901 35:0.0222056 36:0.0803357 37:0.0911379 38:0.00850496 39:0.0124609 40:0.22953 41:0.431488 42:0.00448556 43:0.0229413 44:0.0969105 45:0.0285431 46:0.33299 47:0.222382 48:0.0477393 49:0.0265369 50:0.0147311 51:0.306384 52:0.00769974 53:0.00637093 54:0.0066222 
0.5 1:0.972544 2:0.0128539 3:0.00322677 4:0.0113756 5:0.955908 6:0.0111148 7:0.046624 8:0.922537 9:0.0294782 10:0.0607981 11:0.0390295 12:0.0221376 13:0.192001 14:0.330071 15:0.265937 16:0.0381875 17:0.0112449 18:0 19:0 20:0 21:0 22:0 23:0 24:0 25:0.016746 26:0.0543157 27:0.0315246 28:0.0107915 29:0.010147 30:0.0367007 31:0.455913 32:0.378904 33:0.00275589 34:0.00220116 35:0.000262569 36:0.00362586 37:0.00125146 38:0.000210081 39:0.000167581 40:0.000319325 41:0.980493 42:0.000170245 43:0.00149641 44:0.0120033 45:0.1 46:0.1 47:0.1 48:0.1 49:0.1 50:0.1 51:0.1 52:0.1 53:0.1 54:0.1 
0.5 1:0.997475 2:0.00123503 3:0.000172134 4:0.00111771 5:0.965565 6:0.101056 7:0.198069 8:0.878957 9:0.108637 10:0.317584 11:0.0155347 12:0.045546 13:0.0254267 14:0.292734 15:0.055989 16:0.0317526 17:0.00574007 18:0 19:0 20:0 21:0 22:0 23:0 24:0 25:0.00660556 26:0.14276 27:0.0791134 28:0.0432629 29:0.00600452 30:0.134588 31:0.550069 32:0.0350128 33:0.00115393 34:0.00142998 35:0.0112388 36:0.125457 37:0.087501 38:0.00935229 39:0.00479157 40:0.0357552 41:0.126828 42:0.010738 43:0.0208697 44:0.567469 45:0.1 46:0.1 47:0.1 48:0.1 49:0.1 50:0.1 51:0.1 52:0.1 53:0.1 54:0.1 
0.4544865987059116 1:0.970075 2:0.0149061 3:0.00392839 4:0.0110905 5:0.963645 6:0.0435812 7:0.626504 8:-0.528242 9:0.074017 10:0.0410826 11:0.104821 12:0.0735134 13:0.079139 14:0.0124256 15:0.0115835 16:0.448964 17:0.110873 18:0 19:0 20:0 21:0 22:0 23:0 24:0 25:0.00937259 26:0.0855582 27:0.38194 28:0.259494 29:0.057022 30:0.0276271 31:0.13832 32:0.0291808 33:0.00538233 34:0.00610236 35:0.0258648 36:0.0764367 37:0.0176 38:0.142849 39:0.629155 40:0.0338092 41:0.0307635 42:0.012394 43:0.0202071 44:0.0109202 45:0.02756 46:0.192632 47:0.277855 48:0.0215968 49:0.0147661 50:0.0189539 51:0.411277 52:0.0230143 53:0.00767091 54:0.00467481 
0.1882062333933817 1:0.806248 2:0.180477 3:0.00688129 4:0.00639429 5:-0.890872 6:0.207274 7:0.420733 8:0.98021 9:0.0162644 10:0.199385 11:0.0391418 12:0.016645 13:0.0940942 14:0.236704 15:0.0612606 16:0.0752271 17:0.054003 18:0 19:1 20:0 21:0 22:0 23:0 24:0 25:0.0493537 26:0.171102 27:0.0139259 28:0.0163593 29:0.0141552 30:0.0138458 31:0.500128 32:0.218781 33:0.00119838 34:0.00115112 35:0.00428742 36:0.0183626 37:0.00339747 38:0.00806665 39:0.0108012 40:0.00345259 41:0.918167 42:0.0274289 43:0.00401918 44:0.00201683 45:0.1 46:0.1 47:0.1 48:0.1 49:0.1 50:0.1 51:0.1 52:0.1 53:0.1 54:0.1 
0.5 1:0.997021 2:0.000875465 3:5.96876e-05 4:0.00204336 5:0.832576 6:0.00264472 7:0.0369465 8:0.877146 9:0.00840737 10:0.0258522 11:0.0519981 12:0.00192144 13:0.0958685 14:0.355514 15:0.447842 16:0.00552122 17:0.00442969 18:0 19:0 20:0 21:0 22:0 23:0 24:1 25:0.013994 26:0.0393209 27:0.0104651 28:0.0418699 29:0.352606 30:0.00768788 31:0.271424 32:0.25681 33:0.00348345 34:0.00233913 35:0.00491039 36:0.00293931 37:0.00601671 38:0.00152654 39:0.00171242 40:0.00137518 41:0.972181 42:0.00337811 43:0.00186283 44:0.0040977 45:0.0133821 46:0.372585 47:0.0899844 48:0.243462 49:0.0380416 50:0.0167835 51:0.126206 52:0.0810475 53:0.0164237 54:0.00208419 
0.5 1:0.987438 2:0.00988684 3:0.00104564 4:0.00162947 5:-0.687567 6:0.00504432 7:0.0708775 8:0.971316 9:0.0122214 10:0.0648603 11:0.0289205 12:0.00497325 13:0.136401 14:0.202541 15:0.413367 16:0.0306484 17:0.101022 18:0 19:0 20:0 21:0 22:0 23:0 24:0 25:0.115077 26:0.0830784 27:0.00574678 28:0.0806685 29:0.112548 30:0.0250178 31:0.089128 32:0.484118 33:0.00277875 34:0.00183964 35:0.00874414 36:0.042844 37:0.0372841 38:0.773399 39:0.0488911 40:0.0206226 41:0.0136991 42:0.0137703 43:0.0190592 44:0.021686 45:0.00426299 46:0.265706 47:0.142493 48:0.096713 49:0.0130863 50:0.0265646 51:0.137583 52:0.12076 53:0.0656899 54:0.127141 
0.5 1:0.998153 2:0.00136881 3:6.33584e-05 4:0.00041515 5:-0.888272 6:0.0129438 7:0.174731 8:0.906435 9:0.00357409 10:0.044769 11:0.0374719 12:0.00546938 13:0.0764025 14:0.0470899 15:0.0578611 16:0.10051 17:0.613908 18:0 19:0 20:0 21:0 22:0 23:0 24:0 25:0.14699 26:0.0610651 27:0.0118057 28:0.0998532 29:0.432644 30:0.0118249 31:0.0565731 32:0.17321 33:0.00425993 34:0.00177404 35:0.0292025 36:0.627123 37:0.0286282 38:0.0539905 39:0.100027 40:0.045015 41:0.0581974 42:0.0199375 43:0.0256429 44:0.0122362 45:0.00796872 46:0.0111138 47:0.0106998 48:0.0193593 49:0.0856614 50:0.00660324 51:0.685319 52:0.163663 53:0.00542039 54:0.00419146 
0.5 1:0.916185 2:0.0784081 3:0.00262685 4:0.00278022 5:0.640244 6:0.0093472 7:0.21711 8:0.997156 9:0.00421868 10:0.0216008 11:0.0935763 12:0.00633089 13:0.149274 14:0.0420452 15:0.14574 16:0.0448022 17:0.483065 18:0 19:0 20:0 21:0 22:0 23:0 24:1 25:0.0621516 26:0.0900192 27:0.0111077 28:0.104676 29:0.528098 30:0.00893812 31:0.0348299 32:0.156655 33:0.00213873 34:0.00138588 35:0.0275591 36:0.649123 37:0.0257692 38:0.0550128 39:0.0956436 40:0.0453036 41:0.0418404 42:0.0245161 43:0.0245505 44:0.0106817 45:0.00829112 46:0.00917548 47:0.00628873 48:0.0480281 49:0.0585905 50:0.00597654 51:0.813731 52:0.0415789 53:0.00599688 54:0.00234299 
0.5 1:0.939387 2:0.0283041 3:0.00365122 4:0.0286576 5:0.960647 6:0.0828143 7:0.115783 8:0.981122 9:0.00274032 10:0.641716 11:0.073612 12:0.0590924 13:0.0113923 14:0.0892916 15:0.0220301 16:0.00952542 17:0.00778558 18:0 19:0 20:0 21:1 22:0 23:0 24:1 25:0.0278681 26:0.0457451 27:0.222364 28:0.0380165 29:0.012727 30:0.0354904 31:0.562906 32:0.0498722 33:0.0027223 34:0.00228822 35:0.0177864 36:0.137297 37:0.0504245 38:0.0119969 39:0.00682726 40:0.0361715 41:0.0555549 42:0.00737024 43:0.0274449 44:0.649127 45:0.044282 46:0.554342 47:0.0576306 48:0.0312744 49:0.0598973 50:0.0036232 51:0.0732626 52:0.148441 53:0.0230918 54:0.00415492 
0.5 1:0.750805 2:0.236642 3:0.00620721 4:0.00634529 5:0.5 6:0.0253897 7:0.409826 8:0.757887 9:0.0877313 10:0.0556899 11:0.0432576 12:0.00695249 13:0.0932215 14:0.0293614 15:0.150045 16:0.0570874 17:0.451263 18:0 19:1 20:0 21:0 22:0 23:0 24:0 25:0.174753 26:0.109192 27:0.012682 28:0.0605288 29:0.123482 30:0.0216326 31:0.079944 32:0.4134 33:0.00306283 34:0.00132293 35:0.000585347 36:0.0018786 37:0.00198757 38:0.0021806 39:0.0206664 40:0.00235897 41:0.946778 42:0.0178282 43:0.00362309 44:0.00211317 45:0.168874 46:0.302573 47:0.0169698 48:0.135371 49:0.226292 50:0.0113414 51:0.045962 52:0.0808735 53:0.00556644 54:0.00617762 
0.5 1:0.999569 2:1.01112e-06 3:5.36103e-07 4:0.000429935 5:0.925904 6:0.0657455 7:0.33322 8:0.655982 9:0.0493059 10:0.0959139 11:0.151478 12:0.0960665 13:0.36232 14:0.132199 15:0.0248456 16:0.00822856 17:0.0138972 18:0 19:0 20:0 21:0 22:0 23:0 24:0 25:0.166732 26:0.129439 27:0.00871974 28:0.198927 29:0.352765 30:0.00706925 31:0.0336141 32:0.0972166 33:0.003182 34:0.00233542 35:0.0571213 36:0.266793 37:0.116087 38:0.151155 39:0.0307298 40:0.0907301 41:0.0580192 42:0.0592335 43:0.0655528 44:0.104578 45:0.102439 46:0.218991 47:0.133379 48:0.0831206 49:0.0916027 50:0.0132406 51:0.264953 52:0.0431848 53:0.0359166 54:0.0131717 
0.4917460410537622 1:0.982746 2:0.00755959 3:0.00286146 4:0.00683327 5:0.948993 6:0.0184164 7:0.256632 8:0.935323 9:0.00132791 10:0.0445768 11:0.45647 12:0.106558 13:0.0424164 14:0.283115 15:0.0171182 16:0.0286197 17:0.0013805 18:0 19:1 20:0 21:0 22:0 23:0 24:0 25:0.0198576 26:0.0523791 27:0.0291534 28:0.27368 29:0.0775985 30:0.0150051 31:0.367084 32:0.153601 33:0.00689116 34:0.00475106 35:0.0187403 36:0.0927852 37:0.0787279 38:0.237858 39:0.0527424 40:0.0594708 41:0.283668 42:0.0266611 43:0.0693304 44:0.080016 45:0.0193499 46:0.0744665 47:0.0124007 48:0.225229 49:0.034946 50:0.0143048 51:0.411602 52:0.183547 53:0.0190136 54:0.00514005 
0.5 1:0.988876 2:0.0056804 3:0.00103798 4:0.00440561 5:0.959481 6:0.0152663 7:0.217187 8:0.959275 9:0.00684634 10:0.0473012 11:0.0898972 12:0.00292952 13:0.293396 14:0.0869727 15:0.431657 16:0.0122952 17:0.0134384 18:0 19:0 20:0 21:0 22:0 23:0 24:0 25:0.0413752 26:0.0435444 27:0.549746 28:0.0365686 29:0.0343018 30:0.166296 31:0.109235 32:0.0139556 33:0.00269974 34:0.00227808 35:0.0054857 36:0.233873 37:0.0586477 38:0.011914 39:0.0323352 40:0.0144912 41:0.00276408 42:0.0103999 43:0.00554387 44:0.624545 45:0.00768748 46:0.386309 47:0.136515 48:0.0397426 49:0.0181948 50:0.245717 51:0.113865 52:0.0286375 53:0.0170915 54:0.00623982 
0.5 1:0.993375 2:3.17648e-05 3:3.01337e-05 4:0.00656304 5:0.867538 6:0.0243794 7:0.0393713 8:0.989396 9:0.0153919 10:0.40919 11:0.0816973 12:0.00539767 13:0.190712 14:0.127729 15:0.0892663 16:0.0376075 17:0.0186293 18:0 19:0 20:0 21:0 22:0 23:0 24:0 25:0.0290264 26:0.0442539 27:0.0143521 28:0.00417399 29:0.0159634 30:0.00582233 31:0.0620388 32:0.812737 33:0.00800536 34:0.00362707 35:0.0035076 36:0.00795858 37:0.00815407 38:0.00564383 39:0.0074926 40:0.0537208 41:0.855458 42:0.0424608 43:0.00464491 44:0.0109587 45:0.1 46:0.1 47:0.1 48:0.1 49:0.1 50:0.1 51:0.1 52:0.1 53:0.1 54:0.1 
0.5 1:0.495795 2:0.481518 3:0.0142974 4:0.00838965 5:0.961213 6:0.109291 7:0.191724 8:0.987016 9:0.00703003 10:0.20621 11:0.332278 12:0.0212859 13:0.180519 14:0.0694378 15:0.0343127 16:0.0276612 17:0.0119744 18:0 19:0 20:0 21:0 22:0 23:0 24:0 25:0.0733176 26:0.167337 27:0.218943 28:0.0262112 29:0.0129899 30:0.0730129 31:0.36805 32:0.0160067 33:0.0121828 34:0.0319482 35:0.0181932 36:0.119091 37:0.0341085 38:0.0136765 39:0.00936211 40:0.0311566 41:0.650386 42:0.0246848 43:0.0438459 44:0.0554951 45:0.00606476 46:0.546593 47:0.0117863 48:0.0955657 49:0.0793566 50:0.00509242 51:0.230945 52:0.0211725 53:0.00221499 54:0.00120852 
0.2126409973072746 1:0.999388 2:1.55641e-06 3:1.03752e-06 4:0.000609037 5:0.950783 6:0.00417452 7:0.0233445 8:0.821563 9:0.0662136 10:0.0478535 11:0.0218934 12:0.07877 13:0.0391271 14:0.558157 15:0.0350168 16:0.0160069 17:0.132787 18:0 19:0 20:0 21:0 22:0 23:0 24:0 25:0.0311333 26:0.0694259 27:0.0322299 28:0.0349165 29:0.065161 30:0.0818316 31:0.629696 32:0.0333154 33:0.0175037 34:0.00478645 35:0.1 36:0.1 37:0.1 38:0.1 39:0.1 40:0.1 41:0.1 42:0.1 43:0.1 44:0.1 45:0.00239316 46:0.0182949 47:0.0043977 48:0.850101 49:0.0135042 50:0.00564403 51:0.0609965 52:0.0189168 53:0.0233643 54:0.0023874 
0.5 1:0.997882 2:5.06242e-06 3:4.49374e-06 4:0.00210892 5:0.914895 6:0.00210965 7:0.0416866 8:0.66947 9:0.0352695 10:0.0383735 11:0.0453998 12:0.0320198 13:0.0474487 14:0.653248 15:0.0451312 16:0.0331465 17:0.067853 18:0 19:0 20:0 21:0 22:0 23:0 24:1 25:0.0138247 26:0.0488076 27:0.0283154 28:0.0212061 29:0.0435765 30:0.0651578 31:0.74257 32:0.0205068 33:0.0132948 34:0.00274082 35:0.1 36:0.1 37:0.1 38:0.1 39:0.1 40:0.1 41:0.1 42:0.1 43:0.1 44:0.1 45:0.00751865 46:0.134721 47:0.0457744 48:0.303631 49:0.0896483 50:0.0139428 51:0.20189 52:0.189628 53:0.0076239 54:0.0056216 
0.5 1:0.647346 2:0.203153 3:0.0503559 4:0.0991443 5:-0.557065 6:0.000950859 7:0.0263969 8:-0.619751 9:0.0111326 10:0.0448518 11:0.0399387 12:0.0370388 13:0.0477433 14:0.772499 15:0.0161601 16:0.0224142 17:0.00727042 18:0 19:0 20:0 21:0 22:0 23:0 24:1 25:0.0330083 26:0.0620338 27:0.0200082 28:0.0275414 29:0.0325285 30:0.0691701 31:0.712138 32:0.0234665 33:0.0165608 34:0.00354415 35:0.1 36:0.1 37:0.1 38:0.1 39:0.1 40:0.1 41:0.1 42:0.1 43:0.1 44:0.1 45:0.0121577 46:0.289633 47:0.0820937 48:0.508863 49:0.0107349 50:0.0065788 51:0.0802618 52:0.00192949 53:0.00418355 54:0.00356426 
0.5 1:0.309542 2:0.629037 3:0.021361 4:0.0400597 5:0.519752 6:0.00323487 7:0.0364235 8:0.875131 9:0.00841464 10:0.12444 11:0.106076 12:0.101903 13:0.140676 14:0.444564 15:0.0372941 16:0.0225399 17:0.0108582 18:0 19:0 20:0 21:0 22:0 23:0 24:1 25:0.0165232 26:0.0412341 27:0.0292132 28:0.02479 29:0.18904 30:0.0908436 31:0.567531 32:0.0292708 33:0.00913565 34:0.00241838 35:0.1 36:0.1 37:0.1 38:0.1 39:0.1 40:0.1 41:0.1 42:0.1 43:0.1 44:0.1 45:0.1 46:0.1 47:0.1 48:0.1 49:0.1 50:0.1 51:0.1 52:0.1 53:0.1 54:0.1 
0.5 1:0.989631 2:0.00988166 3:6.67981e-05 4:0.000420207 5:0.977978 6:0.00535474 7:0.05524 8:0.952132 9:0.0112034 10:0.0642169 11:0.097916 12:0.0333072 13:0.116967 14:0.564762 15:0.0789178 16:0.0137362 17:0.0136183 18:0 19:0 20:0 21:0 22:0 23:0 24:0 25:0.0230449 26:0.0244769 27:0.0281567 28:0.0304162 29:0.0367065 30:0.0306709 31:0.795604 32:0.0214981 33:0.00750684 34:0.001919 35:0.1 36:0.1 37:0.1 38:0.1 39:0.1 40:0.1 41:0.1 42:0.1 43:0.1 44:0.1 45:0.0210779 46:0.127583 47:0.130638 48:0.369666 49:0.0227765 50:0.0211141 51:0.136546 52:0.0495729 53:0.0817912 54:0.0392338 
0.5 1:0.649088 2:0.24218 3:0.0417392 4:0.0669927 5:0.974296 6:0.304581 7:0.708555 8:0.848058 9:0.00829271 10:0.134266 11:0.0242901 12:0.354106 13:0.0341713 14:0.0329406 15:0.0553336 16:0.00254437 17:0.0494746 18:0 19:0 20:0 21:0 22:0 23:0 24:1 25:0.0895778 26:0.411556 27:0.0114628 28:0.0237996 29:0.276194 30:0.0678874 31:0.0858605 32:0.0270198 33:0.0038053 34:0.00283729 35:0.119383 36:0.650394 37:0.0310051 38:0.0153936 39:0.0442215 40:0.0189627 41:0.0472976 42:0.00998686 43:0.0117482 44:0.0516068 45:0.0129429 46:0.0427719 47:0.0146814 48:0.0161624 49:0.0204319 50:0.00170894 51:0.833951 52:0.0545269 53:0.00239025 54:0.000432216 
0.4324134381303756 1:0.317066 2:0.0676523 3:0.0225195 4:0.592763 5:0.592507 6:0.225916 7:0.356985 8:-0.802206 9:0.0270565 10:0.348165 11:0.0102145 12:0.00574252 13:0.0941522 14:0.166672 15:0.0347046 16:0.00881295 17:0.0785641 18:0 19:0 20:0 21:0 22:0 23:0 24:1 25:0.137736 26:0.0798706 27:0.0220687 28:0.156292 29:0.318077 30:0.0928124 31:0.0604603 32:0.0579809 33:0.0549843 34:0.0197176 35:0.0966162 36:0.262589 37:0.103096 38:0.0300793 39:0.069423 40:0.0378658 41:0.218599 42:0.0195277 43:0.0348708 44:0.127333 45:0.000237651 46:0.00154854 47:0.00812914 48:0.000301005 49:0.000651363 50:0.000176687 51:0.984253 52:0.00456128 53:0.000104181 54:3.74479e-05 
0.5 1:0.997397 2:0.00107703 3:4.22854e-05 4:0.00148397 5:0.970602 6:0.0897324 7:0.134213 8:-0.798686 9:0.0121969 10:0.455009 11:0.0310341 12:0.00843831 13:0.0345614 14:0.348743 15:0.0114526 16:0.00307181 17:0.00576015 18:0 19:0 20:0 21:0 22:0 23:0 24:0 25:0.0457659 26:0.50205 27:0.242811 28:0.0273568 29:0.00835451 30:0.0396274 31:0.110197 32:0.00825832 33:0.00538581 34:0.010193 35:0.0122237 36:0.106559 37:0.692397 38:0.00769039 39:0.0103138 40:0.0288007 41:0.0617251 42:0.0103471 43:0.0138063 44:0.0561364 45:0.0080838 46:0.0290769 47:0.00808977 48:0.257687 49:0.31548 50:0.0060319 51:0.0559868 52:0.312145 53:0.00553005 54:0.00188926 
0.5 1:0.950374 2:0.0307162 3:0.00677184 4:0.0121378 5:0.944301 6:0.00265551 7:0.0814974 8:-0.686157 9:0.00822852 10:0.0293738 11:0.209794 12:0.0069857 13:0.436126 14:0.108745 15:0.01623 16:0.161515 17:0.0203469 18:0 19:0 20:0 21:0 22:0 23:0 24:0 25:0.0342425 26:0.147171 27:0.107251 28:0.0142152 29:0.00499429 30:0.0751952 31:0.597396 32:0.0055245 33:0.00658797 34:0.00742244 35:0.000697805 36:0.0307308 37:0.216335 38:0.000694048 39:0.000851054 40:0.719572 41:0.000624338 42:9.60531e-05 43:0.000406533 44:0.029993 45:0.00800093 46:0.336645 47:0.408534 48:0.0227029 49:0.0341272 50:0.0370431 51:0.0948385 52:0.053293 53:0.00293652 54:0.00187856 
0.5 1:0.0482225 2:0.0420672 3:0.068184 4:0.841526 5:0.850127 6:0.0116772 7:0.14599 8:-0.728318 9:0.00278821 10:0.0781093 11:0.126591 12:0.00697142 13:0.0385629 14:0.380752 15:0.338048 16:0.0051663 17:0.0113339 18:0 19:0 20:0 21:0 22:0 23:0 24:0 25:0.0214457 26:0.0447661 27:0.28986 28:0.0183574 29:0.00982783 30:0.148343 31:0.330092 32:0.110204 33:0.017406 34:0.00969757 35:0.00446183 36:0.0134793 37:0.00934707 38:0.0229997 39:0.0750576 40:0.00923805 41:0.0462614 42:0.802278 43:0.00866744 44:0.00820971 45:0.000785653 46:0.00210413 47:0.00238246 48:0.000973958 49:0.00080757 50:0.00231783 51:0.226164 52:0.763684 53:0.000694609 54:8.5983e-05 
0.5 1:0.338342 2:0.0190646 3:0.0132945 4:0.629299 5:0.965514 6:0.123435 7:0.354765 8:-0.9216 9:0.035854 10:0.182885 11:0.0401183 12:0.0303629 13:0.0451758 14:0.376835 15:0.0294916 16:0.110945 17:0.0248963 18:1 19:0 20:0 21:1 22:0 23:0 24:1 25:0.233179 26:0.434487 27:0.011159 28:0.101268 29:0.0908169 30:0.0312191 31:0.0428264 32:0.0482381 33:0.00389166 34:0.00291433 35:0.1 36:0.1 37:0.1 38:0.1 39:0.1 40:0.1 41:0.1 42:0.1 43:0.1 44:0.1 45:0.0195438 46:0.0301198 47:0.00836871 48:0.00906351 49:0.145962 50:0.00383599 51:0.751384 52:0.0284286 53:0.00278899 54:0.000504942 
0.5 1:0.680132 2:0.0178915 3:0.00861285 4:0.293363 5:0.96894 6:0.119605 7:0.444818 8:-0.957471 9:0.0430327 10:0.154203 11:0.0739724 12:0.0321329 13:0.0445482 14:0.355341 15:0.0227112 16:0.127375 17:0.0270795 18:1 19:0 20:0 21:1 22:0 23:0 24:1 25:0.680991 26:0.110515 27:0.00951824 28:0.108248 29:0.0313473 30:0.0182133 31:0.0134473 32:0.0213704 33:0.0044353 34:0.00191424 35:0.132622 36:0.143603 37:0.078789 38:0.0492831 39:0.0165386 40:0.283335 41:0.0501233 42:0.0388342 43:0.126805 44:0.0800663 45:0.0173529 46:0.127503 47:0.0213183 48:0.0258022 49:0.0139796 50:0.00830953 51:0.726315 52:0.0239199 53:0.0230271 54:0.0124719 
0.5 1:0.284937 2:0.0897536 3:0.0428344 4:0.582475 5:0.960095 6:0.00273726 7:0.0924288 8:-0.952611 9:0.00261649 10:0.00737646 11:0.0703184 12:0.00972825 13:0.0164592 14:0.010112 15:0.870991 16:0.00186492 17:0.00779631 18:0 19:0 20:0 21:0 22:0 23:0 24:0 25:0.0554448 26:0.0580797 27:0.0600019 28:0.0466823 29:0.0203402 30:0.440591 31:0.118866 32:0.118413 33:0.0614324 34:0.0201495 35:0.0303018 36:0.0674063 37:0.045582 38:0.0277573 39:0.0148614 40:0.0871465 41:0.641231 42:0.0161631 43:0.0381342 44:0.0314161 45:0.1 46:0.1 47:0.1 48:0.1 49:0.1 50:0.1 51:0.1 52:0.1 53:0.1 54:0.1 
0.5 1:0.862717 2:0.103318 3:0.0102556 4:0.0237093 5:0.959376 6:0.0287368 7:0.118349 8:-0.559142 9:0.0683711 10:0.0935494 11:0.0311964 12:0.011128 13:0.144741 14:0.432939 15:0.144083 16:0.0146582 17:0.0305972 18:0 19:0 20:0 21:0 22:0 23:0 24:0 25:0.0527381 26:0.161913 27:0.0124868 28:0.0102257 29:0.212796 30:0.0691898 31:0.36807 32:0.0841919 33:0.0227463 34:0.0056424 35:0.00541339 36:0.0190706 37:0.0102586 38:0.0632866 39:0.396032 40:0.0378102 41:0.109626 42:0.321666 43:0.0235011 44:0.0133365 45:0.0913193 46:0.146901 47:0.0875496 48:0.0252862 49:0.126895 50:0.0175096 51:0.40754 52:0.0877037 53:0.00576775 54:0.00352796 
0.5 1:0.389631 2:0.183972 3:0.0417145 4:0.384683 5:0.96663 6:0.00852726 7:0.0677813 8:0.728866 9:0.00712367 10:0.0797782 11:0.0430937 12:0.0104606 13:0.0617265 14:0.1831 15:0.479587 16:0.00974193 17:0.116861 18:0 19:0 20:0 21:0 22:0 23:0 24:0 25:0.0178821 26:0.0602802 27:0.006023 28:0.0310164 29:0.214365 30:0.00788987 31:0.144115 32:0.515913 33:0.0016007 34:0.000914609 35:0.00195938 36:0.00524633 37:0.0043417 38:0.025759 39:0.30087 40:0.0243401 41:0.0403904 42:0.577311 43:0.0149777 44:0.00480411 45:0.0622969 46:0.0627094 47:0.00802957 48:0.0570536 49:0.0500646 50:0.0101677 51:0.591207 52:0.0511809 53:0.101102 54:0.00618759 
0.5 1:0.984655 2:0.00746311 3:0.00118249 4:0.00669964 5:0.970062 6:0.0162618 7:0.0968978 8:0.976882 9:0.0312126 10:0.0269608 11:0.0832674 12:0.0179413 13:0.0930304 14:0.036044 15:0.605255 16:0.0275771 17:0.0624495 18:0 19:0 20:0 21:0 22:0 23:0 24:0 25:0.0294832 26:0.0668316 27:0.0316584 28:0.0158567 29:0.0114267 30:0.00816428 31:0.167979 32:0.665724 33:0.00195054 34:0.000925671 35:0.1 36:0.1 37:0.1 38:0.1 39:0.1 40:0.1 41:0.1 42:0.1 43:0.1 44:0.1 45:0.00488491 46:0.0258257 47:0.0107658 48:0.0120703 49:0.00341665 50:0.00515634 51:0.2072 52:0.67148 53:0.0575822 54:0.00161734 
0.5 1:0.952679 2:0.0287934 3:0.00587441 4:0.0126533 5:0.967949 6:0.00897875 7:0.296526 8:0.998597 9:0.00525763 10:0.0186915 11:0.0422114 12:0.00788578 13:0.0394279 14:0.587012 15:0.125326 16:0.0318572 17:0.133352 18:0 19:0 20:0 21:0 22:0 23:0 24:1 25:0.0957555 26:0.0650692 27:0.00623781 28:0.0775943 29:0.532935 30:0.00382493 31:0.0768459 32:0.138026 33:0.00269275 34:0.00101954 35:0.00275019 36:0.00712273 37:0.00347943 38:0.0176312 39:0.303279 40:0.0250422 41:0.0729884 42:0.55277 43:0.0100396 44:0.00489706 45:0.155142 46:0.0774039 47:0.00917519 48:0.0871456 49:0.0271293 50:0.0196583 51:0.396372 52:0.155743 53:0.067914 54:0.00431747 
0.5 1:0.933987 2:0.0461104 3:0.00637862 4:0.0135236 5:0.969583 6:0.0223382 7:0.233268 8:0.999333 9:0.00686593 10:0.0520508 11:0.0371173 12:0.00677853 13:0.0512584 14:0.551555 15:0.150996 16:0.0315221 17:0.0895172 18:0 19:0 20:0 21:0 22:0 23:0 24:1 25:0.0521232 26:0.0456251 27:0.00971943 28:0.134235 29:0.224974 30:0.00550396 31:0.039765 32:0.486338 33:0.00111109 34:0.00060604 35:0.00309628 36:0.00721814 37:0.00384466 38:0.0200429 39:0.263833 40:0.0138182 41:0.0946876 42:0.572478 43:0.0164964 44:0.00448456 45:0.198141 46:0.20716 47:0.0183591 48:0.0467569 49:0.13815 50:0.0251716 51:0.156191 52:0.0387604 53:0.163598 54:0.00771306 
-0.65 1:0.436751 2:0.431524 3:0.0467079 4:0.085017 5:0.968683 6:0.16891 7:0.332869 8:0.993547 9:0.0831694 10:0.227641 11:0.0738388 12:0.0154477 13:0.0597486 14:0.110816 15:0.216008 16:0.0292655 17:0.0151559 18:0 19:0 20:0 21:0 22:0 23:0 24:0 25:0.0330146 26:0.0345557 27:0.0256986 28:0.0135864 29:0.00502677 30:0.0533995 31:0.0780734 32:0.392994 33:0.361909 34:0.00174199 35:0.1 36:0.1 37:0.1 38:0.1 39:0.1 40:0.1 41:0.1 42:0.1 43:0.1 44:0.1 45:0.00447466 46:0.0068509 47:0.00471438 48:0.00837208 49:0.0109117 50:0.00237436 51:0.548622 52:0.394332 53:0.0188072 54:0.00054081 
-0.65 1:0.98435 2:0.00924488 3:0.000249532 4:0.00615596 5:0.973027 6:0.00653577 7:0.0590565 8:0.987184 9:0.00867415 10:0.0433057 11:0.0078488 12:0.0069905 13:0.0129172 14:0.770686 15:0.128078 16:0.0043863 17:0.0105776 18:0 19:0 20:0 21:0 22:0 23:0 24:0 25:0.0105812 26:0.0639683 27:0.0942338 28:0.0177722 29:0.0342511 30:0.012186 31:0.0322861 32:0.483656 33:0.246594 34:0.00447058 35:0.1 36:0.1 37:0.1 38:0.1 39:0.1 40:0.1 41:0.1 42:0.1 43:0.1 44:0.1 45:0.00783544 46:0.0124048 47:0.0121749 48:0.0219228 49:0.0180607 50:0.00597642 51:0.0957491 52:0.807063 53:0.0167545 54:0.00205823 
-0.65 1:0.689809 2:0.147831 3:0.0269963 4:0.135364 5:0.971292 6:0.00538119 7:0.100638 8:0.997749 9:0.00823279 10:0.0258793 11:0.086087 12:0.0058821 13:0.0372754 14:0.105488 15:0.718222 16:0.00603334 17:0.00151896 18:0 19:0 20:0 21:0 22:0 23:0 24:1 25:0.0242564 26:0.0633457 27:0.0807299 28:0.0747678 29:0.0543521 30:0.0566281 31:0.0355183 32:0.427329 33:0.172098 34:0.0109749 35:0.1 36:0.1 37:0.1 38:0.1 39:0.1 40:0.1 41:0.1 42:0.1 43:0.1 44:0.1 45:0.0582149 46:0.0453264 47:0.00517918 48:0.0119129 49:0.0397768 50:0.00849416 51:0.0176427 52:0.415232 53:0.396127 54:0.00209379 
-0.65 1:0.992502 2:0.00461843 3:0.000368543 4:0.00251124 5:0.973442 6:0.00411498 7:0.0258258 8:0.999269 9:0.161633 10:0.0352014 11:0.00497275 12:0.0019369 13:0.0519802 14:0.599977 15:0.094983 16:0.0254482 17:0.019753 18:0 19:0 20:0 21:0 22:0 23:0 24:1 25:0.0914376 26:0.0409281 27:0.0460113 28:0.0204277 29:0.00591114 30:0.340546 31:0.235897 32:0.186429 33:0.0281766 34:0.00423526 35:0.1 36:0.1 37:0.1 38:0.1 39:0.1 40:0.1 41:0.1 42:0.1 43:0.1 44:0.1 45:0.00244588 46:0.00248069 47:0.00295069 48:0.00248835 49:0.000419569 50:0.00100946 51:0.00420983 52:0.967007 53:0.0168847 54:0.000103473 
-0.65 1:0.000972428 2:0.00695539 3:0.00233902 4:0.989733 5:-0.95559 6:0.0115417 7:0.414347 8:-0.980372 9:0.847259 10:0.0125206 11:0.00155823 12:0.00488621 13:0.0138909 14:0.00497124 15:0.031605 16:0.0612955 17:0.0104712 18:0 19:0 20:0 21:0 22:0 23:0 24:0 25:0.0159069 26:0.0331675 27:0.0180499 28:0.0134424 29:0.0397783 30:0.0095309 31:0.011826 32:0.570673 33:0.284535 34:0.0030901 35:0.1 36:0.1 37:0.1 38:0.1 39:0.1 40:0.1 41:0.1 42:0.1 43:0.1 44:0.1 45:0.0107433 46:0.195252 47:0.0850486 48:0.00919445 49:0.0441898 50:0.0277576 51:0.0560892 52:0.400552 53:0.151829 54:0.0193437 
-0.65 1:0.00204987 2:0.0152385 3:0.0346552 4:0.948056 5:-0.949326 6:0.0570738 7:0.668827 8:-0.974138 9:0.76253 10:0.0389087 11:0.00238194 12:0.00654991 13:0.00907657 14:0.0123436 15:0.0335432 16:0.0677783 17:0.00981375 18:0 19:0 20:0 21:0 22:0 23:0 24:1 25:0.00464089 26:0.031064 27:0.00712984 28:0.0154347 29:0.00820721 30:0.00614162 31:0.0047124 32:0.613591 33:0.30483 34:0.00424835 35:0.1 36:0.1 37:0.1 38:0.1 39:0.1 40:0.1 41:0.1 42:0.1 43:0.1 44:0.1 45:0.0811229 46:0.406607 47:0.0181017 48:0.00393027 49:0.0219768 50:0.0208434 51:0.0175432 52:0.256783 53:0.16953 54:0.00356235 
-0.3565078534368325 1:0.43611 2:0.486882 3:0.0390563 4:0.0379522 5:0.969189 6:0.0171806 7:0.0781062 8:0.979528 9:0.0267375 10:0.0881875 11:0.102816 12:0.0130455 13:0.329978 14:0.0936931 15:0.311997 16:0.00910631 17:0.00725905 18:0 19:0 20:0 21:0 22:0 23:0 24:0 25:0.0316912 26:0.0396209 27:0.0792862 28:0.0205197 29:0.00761035 30:0.0325519 31:0.0524676 32:0.109043 33:0.623935 34:0.00327358 35:0.1 36:0.1 37:0.1 38:0.1 39:0.1 40:0.1 41:0.1 42:0.1 43:0.1 44:0.1 45:0.000478614 46:0.012103 47:0.00150498 48:0.00100926 49:0.000372189 50:0.00150622 51:0.0102817 52:0.933685 53:0.0389595 54:9.99212e-05 
-0.65 1:0.285615 2:0.68939 3:0.0127664 4:0.0122289 5:0.974058 6:0.0236793 7:0.186058 8:0.885644 9:0.21192 10:0.193114 11:0.0165499 12:0.158398 13:0.0710406 14:0.0840969 15:0.0381953 16:0.040007 17:0.162999 18:0 19:0 20:0 21:0 22:0 23:0 24:0 25:0.0291676 26:0.0859171 27:0.06549 28:0.0128998 29:0.0235329 30:0.018195 31:0.143893 32:0.0953166 33:0.521563 34:0.00402515 35:0.0292455 36:0.527521 37:0.0320147 38:0.0971856 39:0.0132382 40:0.0627102 41:0.112593 42:0.0268409 43:0.0762521 44:0.0223993 45:0.00023437 46:0.00271086 47:0.00195013 48:0.000203024 49:0.000436264 50:0.0032419 51:0.00995576 52:0.973168 53:0.00756224 54:0.00053738 
-0.65 1:0.992037 2:0.00460382 3:0.000214309 4:0.00314453 5:0.978343 6:0.00914024 7:0.0399129 8:0.994052 9:0.00383191 10:0.0427706 11:0.115406 12:0.108888 13:0.0614712 14:0.0510894 15:0.552791 16:0.0101669 17:0.0444447 18:0 19:0 20:0 21:0 22:0 23:0 24:0 25:0.116501 26:0.224453 27:0.145141 28:0.0480443 29:0.149574 30:0.0702105 31:0.143639 32:0.0785848 33:0.0129254 34:0.0109272 35:0.1 36:0.1 37:0.1 38:0.1 39:0.1 40:0.1 41:0.1 42:0.1 43:0.1 44:0.1 45:0.1 46:0.1 47:0.1 48:0.1 49:0.1 50:0.1 51:0.1 52:0.1 53:0.1 54:0.1 
-0.65 1:0.357172 2:0.0937276 3:0.0383646 4:0.510736 5:0.970462 6:0.0379326 7:0.132783 8:-0.873028 9:0.0567079 10:0.135125 11:0.0123915 12:0.00910069 13:0.216662 14:0.161927 15:0.0803248 16:0.085444 17:0.204384 18:0 19:0 20:0 21:0 22:0 23:0 24:0 25:0.0203725 26:0.127565 27:0.0134301 28:0.0166417 29:0.15859 30:0.0983958 31:0.217405 32:0.329223 33:0.0142361 34:0.00414181 35:0.1 36:0.1 37:0.1 38:0.1 39:0.1 40:0.1 41:0.1 42:0.1 43:0.1 44:0.1 45:0.1 46:0.1 47:0.1 48:0.1 49:0.1 50:0.1 51:0.1 52:0.1 53:0.1 54:0.1 
-0.65 1:0.98683 2:0.00917931 3:0.00104849 4:0.00294206 5:0.965321 6:0.0176497 7:0.229927 8:0.99363 9:0.00181849 10:0.0155964 11:0.634144 12:0.0907432 13:0.0888384 14:0.0201271 15:0.108907 16:0.00845345 17:0.0137219 18:0 19:0 20:0 21:0 22:0 23:0 24:0 25:0.0296435 26:0.0696119 27:0.0183052 28:0.00915201 29:0.0165242 30:0.0832551 31:0.210354 32:0.560255 33:0.00128397 34:0.00161513 35:0.1 36:0.1 37:0.1 38:0.1 39:0.1 40:0.1 41:0.1 42:0.1 43:0.1 44:0.1 45:0.000431514 46:0.00208362 47:0.000997313 48:0.000825593 49:0.0254361 50:0.000368076 51:0.0276303 52:0.941038 53:0.00100848 54:0.000181462 
-0.3444578793967982 1:0.99984 2:6.33336e-07 3:3.73142e-07 4:0.000158972 5:0.968123 6:0.0206182 7:0.108633 8:0.960809 9:0.000743243 10:0.047349 11:0.686644 12:0.0231818 13:0.0398203 14:0.0178224 15:0.156955 16:0.00339506 17:0.00347087 18:0 19:0 20:0 21:0 22:0 23:0 24:0 25:0.00471986 26:0.0334449 27:0.0165336 28:0.00784097 29:0.0202998 30:0.0308196 31:0.128212 32:0.756387 33:0.00112885 34:0.000613901 35:0.1 36:0.1 37:0.1 38:0.1 39:0.1 40:0.1 41:0.1 42:0.1 43:0.1 44:0.1 45:0.00612673 46:0.0928242 47:0.00714207 48:0.00333091 49:0.0150898 50:0.00480915 51:0.0462352 52:0.820399 53:0.00223242 54:0.00181044 
-0.65 1:0.976186 2:0.00958831 3:0.00133366 4:0.0128919 5:0.95303 6:0.00236606 7:0.0648539 8:0.962725 9:0.0257984 10:0.00779531 11:0.0973159 12:0.145977 13:0.296045 14:0.0552803 15:0.336699 16:0.00936379 17:0.0233594 18:0 19:0 20:0 21:0 22:0 23:0 24:0 25:0.064624 26:0.127033 27:0.0136522 28:0.0221997 29:0.0335298 30:0.0134588 31:0.177163 32:0.545829 33:0.00159856 34:0.000912873 35:0.00244355 36:0.0146941 37:0.00582147 38:0.0076293 39:0.00184572 40:0.00497585 41:0.0228808 42:0.930075 43:0.00462834 44:0.00500633 45:0.1 46:0.1 47:0.1 48:0.1 49:0.1 50:0.1 51:0.1 52:0.1 53:0.1 54:0.1 
-0.65 1:0.992684 2:0.00298984 3:0.000712366 4:0.00361359 5:0.975204 6:0.00925294 7:0.202431 8:0.967279 9:0.00915643 10:0.00890945 11:0.0125011 12:0.0109839 13:0.0167625 14:0.0123851 15:0.80029 16:0.0185762 17:0.101182 18:0 19:0 20:0 21:0 22:0 23:0 24:0 25:0.233996 26:0.165765 27:0.0286185 28:0.117398 29:0.0910163 30:0.0144857 31:0.0989273 32:0.234504 33:0.00844584 34:0.00684267 35:0.00351893 36:0.0140241 37:0.00816263 38:0.0096776 39:0.00267159 40:0.00592253 41:0.0408214 42:0.900527 43:0.00694733 44:0.00772642 45:0.0736317 46:0.60655 47:0.0494094 48:0.0699892 49:0.097857 50:0.00753868 51:0.015294 52:0.0473731 53:0.0201877 54:0.0121695 
-0.65 1:0.923048 2:0.0691812 3:0.00229765 4:0.00547295 5:0.978277 6:0.10084 7:0.67022 8:0.954833 9:0.0151008 10:0.103362 11:0.120492 12:0.00837476 13:0.158848 14:0.0600565 15:0.280474 16:0.10126 17:0.0511917 18:0 19:0 20:0 21:0 22:0 23:0 24:0 25:0.0388113 26:0.0619771 27:0.0129083 28:0.0437199 29:0.0713854 30:0.00732447 31:0.0732751 32:0.688514 33:0.00135052 34:0.000733797 35:0.00244355 36:0.0146941 37:0.00582147 38:0.0076293 39:0.00184572 40:0.00497585 41:0.0228808 42:0.930075 43:0.00462834 44:0.00500633 45:0.1 46:0.1 47:0.1 48:0.1 49:0.1 50:0.1 51:0.1 52:0.1 53:0.1 54:0.1 
-0.65 1:0.973157 2:0.015508 3:0.00247691 4:0.00885853 5:0.974503 6:0.0186364 7:0.51234 8:0.98893 9:0.00144462 10:0.0148623 11:0.144038 12:0.00542848 13:0.0733564 14:0.0266 15:0.709363 16:0.00389806 17:0.00237257 18:0 19:0 20:0 21:1 22:0 23:0 24:0 25:0.0813991 26:0.0894862 27:0.0158042 28:0.0761672 29:0.378859 30:0.0362476 31:0.076256 32:0.239772 33:0.00456464 34:0.0014443 35:0.00265599 36:0.0123922 37:0.0054126 38:0.00860386 39:0.00141352 40:0.00340423 41:0.0217492 42:0.935116 43:0.00488145 44:0.00437052 45:0.030144 46:0.0947078 47:0.0221724 48:0.602004 49:0.0291622 50:0.0219716 51:0.101784 52:0.0477295 53:0.0267471 54:0.0235775 
-0.65 1:0.984457 2:0.00798877 3:0.000753697 4:0.00680103 5:0.967607 6:0.0441374 7:0.0766123 8:0.947704 9:0.00839084 10:0.285605 11:0.0514536 12:0.0236767 13:0.0657944 14:0.0673376 15:0.271175 16:0.0162589 17:0.16617 18:0 19:0 20:0 21:0 22:0 23:0 24:1 25:0.0384858 26:0.191751 27:0.0153451 28:0.0246556 29:0.0659762 30:0.0183917 31:0.4353 32:0.204108 33:0.00275403 34:0.00323234 35:0.1 36:0.1 37:0.1 38:0.1 39:0.1 40:0.1 41:0.1 42:0.1 43:0.1 44:0.1 45:4.23561e-05 46:0.00103456 47:0.000108284 48:0.000296245 49:0.000737425 50:2.73231e-05 51:0.00643223 52:0.991284 53:3.17964e-05 54:5.61788e-06 
-0.65 1:0.000591593 2:0.00244887 3:0.00201209 4:0.994947 5:0.909357 6:0.0234415 7:0.0960942 8:0.760441 9:0.0188733 10:0.198585 11:0.0462313 12:0.102508 13:0.289691 14:0.0814659 15:0.0201338 16:0.158184 17:0.0608857 18:0 19:0 20:0 21:0 22:0 23:0 24:1 25:0.0420611 26:0.236733 27:0.0486551 28:0.382755 29:0.0471839 30:0.049601 31:0.180901 32:0.00429268 33:0.00500306 34:0.00281466 35:0.00802462 36:0.0286339 37:0.0340737 38:0.0102307 39:0.107031 40:0.176761 41:0.0545966 42:0.516491 43:0.0260047 44:0.0381537 45:0.517311 46:0.193966 47:0.0236372 48:0.0470758 49:0.0426831 50:0.00725164 51:0.128798 52:0.0320123 53:0.00512857 54:0.00213593 
-0.65 1:0.60664 2:0.109854 3:0.0432642 4:0.240242 5:0.966092 6:0.0194048 7:0.0940492 8:-0.687592 9:0.0136822 10:0.0555156 11:0.1036 12:0.0797091 13:0.0894889 14:0.151364 15:0.465067 16:0.0159465 17:0.00622148 18:0 19:0 20:0 21:0 22:0 23:0 24:1 25:0.0223673 26:0.0408805 27:0.0226321 28:0.0341524 29:0.00907066 30:0.0389012 31:0.192334 32:0.625443 33:0.0103713 34:0.0038476 35:0.00191234 36:0.00992746 37:0.00439383 38:0.0062903 39:0.0779544 40:0.0041275 41:0.038576 42:0.847989 43:0.00496264 44:0.00386677 45:2.06945e-05 46:0.00030639 47:0.000285733 48:0.000115681 49:0.000132819 50:0.00109208 51:0.912016 52:0.0858798 53:0.000130092 54:2.09093e-05 
-0.65 1:0.929769 2:0.0570309 3:0.00473891 4:0.00846098 5:0.955693 6:0.00326885 7:0.139499 8:0.989338 9:0.00131144 10:0.00770923 11:0.0491991 12:0.00229359 13:0.0518352 14:0.0510934 15:0.825436 16:0.00461278 17:0.0032401 18:0 19:0 20:0 21:0 22:0 23:0 24:1 25:0.0336676 26:0.0950783 27:0.00406585 28:0.0496001 29:0.150315 30:0.027932 31:0.139908 32:0.495503 33:0.00235771 34:0.00157231 35:0.0521161 36:0.282004 37:0.0893881 38:0.108509 39:0.0186919 40:0.0851477 41:0.0626883 42:0.159779 43:0.0688404 44:0.0728358 45:0.0699592 46:0.0555011 47:0.030385 48:0.0441263 49:0.199247 50:0.0168215 51:0.201934 52:0.364643 53:0.00842353 54:0.00895928 
-0.65 1:0.98651 2:0.00677525 3:0.000581429 4:0.00613306 5:0.96842 6:0.0027427 7:0.148994 8:0.997019 9:0.00180836 10:0.00434806 11:0.0364189 12:0.00209732 13:0.0240512 14:0.0277648 15:0.886167 16:0.013452 17:0.0011499 18:0 19:0 20:0 21:0 22:0 23:0 24:0 25:0.0281777 26:0.0660802 27:0.0121424 28:0.0802414 29:0.0665103 30:0.0147571 31:0.146969 32:0.572843 33:0.00996589 34:0.00231298 35:0.1 36:0.1 37:0.1 38:0.1 39:0.1 40:0.1 41:0.1 42:0.1 43:0.1 44:0.1 45:0.598375 46:0.0800575 47:0.0573563 48:0.0813141 49:0.038603 50:0.00252619 51:0.00721226 52:0.0103224 53:0.0739428 54:0.0502909 
-0.65 1:0.978692 2:0.0172965 3:0.00109722 4:0.00291453 5:0.945919 6:0.0262923 7:0.0972707 8:0.929005 9:0.0167886 10:0.15159 11:0.0591646 12:0.0123819 13:0.121563 14:0.0497566 15:0.481016 16:0.0371949 17:0.0442522 18:1 19:0 20:0 21:0 22:0 23:0 24:1 25:0.0175708 26:0.0781416 27:0.00495684 28:0.0477608 29:0.0516283 30:0.0498815 31:0.141722 32:0.604384 33:0.00229471 34:0.00165977 35:0.1 36:0.1 37:0.1 38:0.1 39:0.1 40:0.1 41:0.1 42:0.1 43:0.1 44:0.1 45:0.00179151 46:0.276186 47:0.0149165 48:0.00354304 49:0.000927226 50:0.0113478 51:0.0632673 52:0.626313 53:0.00146984 54:0.000238258 
-0.65 1:0.861792 2:0.0422093 3:0.0283105 4:0.0676881 5:0.950638 6:0.00285193 7:0.0666586 8:-0.668045 9:0.253441 10:0.0243989 11:0.0739918 12:0.0325746 13:0.262963 14:0.0765611 15:0.255954 16:0.00779005 17:0.0094735 18:0 19:0 20:0 21:0 22:0 23:0 24:1 25:0.0530842 26:0.0821127 27:0.00650542 28:0.025145 29:0.676527 30:0.00484948 31:0.0669365 32:0.0792588 33:0.00342933 34:0.00215122 35:0.0118532 36:0.0238599 37:0.0362094 38:0.0134758 39:0.314528 40:0.0715317 41:0.0554681 42:0.406515 43:0.0303107 44:0.0362479 45:0.1 46:0.1 47:0.1 48:0.1 49:0.1 50:0.1 51:0.1 52:0.1 53:0.1 54:0.1 
-0.65 1:0.976738 2:0.0197352 3:0.000474129 4:0.0030531 5:0.973788 6:0.0194864 7:0.0684345 8:0.9989 9:0.0102661 10:0.120574 11:0.279303 12:0.00808868 13:0.217292 14:0.120042 15:0.213096 16:0.00431278 17:0.00753964 18:1 19:0 20:0 21:1 22:0 23:0 24:1 25:0.0122132 26:0.04013 27:0.00707757 28:0.0148859 29:0.0224251 30:0.100614 31:0.185058 32:0.615801 33:0.00102039 34:0.000774873 35:0.1 36:0.1 37:0.1 38:0.1 39:0.1 40:0.1 41:0.1 42:0.1 43:0.1 44:0.1 45:0.00843151 46:0.0592055 47:0.0113933 48:0.12885 49:0.0370541 50:0.00355459 51:0.0726544 52:0.669319 53:0.00697865 54:0.00255914 
-0.65 1:0.0866832 2:0.0326346 3:0.0202312 4:0.860451 5:0.938245 6:0.0936652 7:0.339889 8:-0.863214 9:0.0138358 10:0.192173 11:0.160984 12:0.025473 13:0.292343 14:0.0532684 15:0.0733207 16:0.0747147 17:0.0202218 18:0 19:0 20:0 21:0 22:0 23:0 24:0 25:0.0642267 26:0.0384234 27:0.0114849 28:0.35884 29:0.17802 30:0.0204527 31:0.0376349 32:0.287817 33:0.00228512 34:0.000814648 35:0.0242306 36:0.068897 37:0.0238903 38:0.0455567 39:0.0172881 40:0.0723403 41:0.0435379 42:0.594655 43:0.0787371 44:0.0308667 45:0.00118582 46:0.00862231 47:0.00412753 48:0.0309732 49:0.0363233 50:0.002699 51:0.0950652 52:0.81023 53:0.00593697 54:0.004837 
-0.01017821754427402 1:0.994135 2:0.00335246 3:0.000735462 4:0.00177663 5:0.96573 6:0.00570357 7:0.141834 8:0.928094 9:0.00357699 10:0.019018 11:0.0542007 12:0.00156574 13:0.0362834 14:0.0145093 15:0.824054 16:0.0260888 17:0.0149996 18:0 19:0 20:0 21:0 22:0 23:0 24:0 25:0.0661588 26:0.0928694 27:0.0076188 28:0.0598573 29:0.371513 30:0.0151854 31:0.103082 32:0.281009 33:0.00167331 34:0.00103377 35:0.1 36:0.1 37:0.1 38:0.1 39:0.1 40:0.1 41:0.1 42:0.1 43:0.1 44:0.1 45:0.00624308 46:0.00709811 47:0.00248673 48:0.00889157 49:0.03239 50:0.00187083 51:0.113807 52:0.821851 53:0.00347244 54:0.00188877 
-0.65 1:0.956972 2:0.0237091 3:0.00388786 4:0.0154308 5:-0.858439 6:0.0032214 7:0.0833192 8:0.994568 9:0.0828996 10:0.0348791 11:0.0467965 12:0.0738662 13:0.0492113 14:0.236705 15:0.345348 16:0.0914767 17:0.0355963 18:0 19:0 20:0 21:0 22:0 23:0 24:0 25:0.0239791 26:0.0807058 27:0.0179564 28:0.00691817 29:0.0110522 30:0.0329489 31:0.741268 32:0.0776826 33:0.0052635 34:0.0022255 35:0.00541339 36:0.0190706 37:0.0102586 38:0.0632866 39:0.396032 40:0.0378102 41:0.109626 42:0.321666 43:0.0235011 44:0.0133365 45:0.1 46:0.1 47:0.1 48:0.1 49:0.1 50:0.1 51:0.1 52:0.1 53:0.1 54:0.1 
-0.65 1:0.978013 2:0.0108774 3:0.00172647 4:0.00938293 5:0.974373 6:0.00328023 7:0.101234 8:0.769777 9:0.00779587 10:0.00917656 11:0.00982182 12:0.00426277 13:0.0110783 14:0.0909122 15:0.747019 16:0.0212218 17:0.0954313 18:0 19:0 20:0 21:0 22:0 23:0 24:0 25:0.152805 26:0.142521 27:0.0256073 28:0.126293 29:0.043165 30:0.0143415 31:0.120148 32:0.371133 33:0.00271823 34:0.00126659 35:0.0218673 36:0.0508482 37:0.040003 38:0.0331553 39:0.012661 40:0.0496114 41:0.0243077 42:0.693353 43:0.046814 44:0.0273792 45:0.148737 46:0.108657 47:0.0475219 48:0.0777602 49:0.168658 50:0.0253314 51:0.192497 52:0.196567 53:0.0204935 54:0.0137757 
-0.65 1:0.979667 2:0.0152451 3:0.00162311 4:0.0034647 5:0.948781 6:0.043911 7:0.129352 8:-0.592541 9:0.00533327 10:0.413566 11:0.0684891 12:0.10007 13:0.0943107 14:0.19322 15:0.0452784 16:0.0321676 17:0.0036544 18:0 19:0 20:0 21:0 22:0 23:0 24:0 25:0.0608473 26:0.163587 27:0.115971 28:0.0212809 29:0.00783486 30:0.0273498 31:0.390153 32:0.199744 33:0.00846881 34:0.00476326 35:0.1 36:0.1 37:0.1 38:0.1 39:0.1 40:0.1 41:0.1 42:0.1 43:0.1 44:0.1 45:0.000156635 46:0.0108431 47:0.00398914 48:0.00234103 49:0.0113612 50:0.00061415 51:0.156832 52:0.812882 53:0.000877812 54:0.000102509 
-0.65 1:0.695488 2:0.235748 3:0.0403652 4:0.0283986 5:0.848318 6:0.746089 7:0.79947 8:0.868513 9:0.0194305 10:0.147408 11:0.0102221 12:0.00957772 13:0.0286696 14:0.0084063 15:0.0100604 16:0.00582885 17:0.0143079 18:0 19:0 20:0 21:0 22:0 23:0 24:1 25:0.131908 26:0.102049 27:0.0153677 28:0.22348 29:0.416871 30:0.0162684 31:0.0234463 32:0.0483765 33:0.0194847 34:0.00274899 35:0.1 36:0.1 37:0.1 38:0.1 39:0.1 40:0.1 41:0.1 42:0.1 43:0.1 44:0.1 45:0.00376495 46:0.612526 47:0.0072331 48:0.00383304 49:0.0443032 50:0.00890958 51:0.0592296 52:0.246212 53:0.00658885 54:0.00739955 
-0.65 1:0.999761 2:5.46665e-08 3:5.3696e-08 4:0.000238985 5:0.948021 6:0.0229372 7:0.0355107 8:0.532476 9:0.0433492 10:0.249813 11:0.038863 12:0.0893355 13:0.152761 14:0.0566963 15:0.227184 16:0.0744219 17:0.0446384 18:0 19:0 20:0 21:0 22:0 23:0 24:0 25:0.0804814 26:0.108497 27:0.0693926 28:0.028743 29:0.0340674 30:0.0259735 31:0.181273 32:0.437066 33:0.0175384 34:0.0169679 35:0.0035076 36:0.00795858 37:0.00815407 38:0.00564383 39:0.0074926 40:0.0537208 41:0.855458 42:0.0424608 43:0.00464491 44:0.0109587 45:0.036019 46:0.266702 47:0.0450711 48:0.0417595 49:0.141789 50:0.00686471 51:0.373181 52:0.0268919 53:0.055537 54:0.00618456 
-0.65 1:0.988155 2:0.00124823 3:9.95094e-05 4:0.0104976 5:0.964361 6:0.0481488 7:0.162518 8:-0.610637 9:0.0412964 10:0.301241 11:0.0444253 12:0.04582 13:0.0913794 14:0.124441 15:0.187781 16:0.0692936 17:0.0461729 18:0 19:0 20:0 21:0 22:0 23:0 24:0 25:0.0193289 26:0.0882388 27:0.0311297 28:0.00802061 29:0.0124633 30:0.00479256 31:0.136778 32:0.686364 33:0.0102716 34:0.00261274 35:0.003132 36:0.0041355 37:0.0054534 38:0.00346062 39:0.00739727 40:0.0426139 41:0.85174 42:0.0701525 43:0.00331652 44:0.00859861 45:0.00019316 46:0.00680924 47:0.000519202 48:0.0126951 49:0.0109935 50:0.000249529 51:0.415671 52:0.550723 53:0.00155725 54:0.000589747 
-0.65 1:0.992618 2:0.00295988 3:0.000275432 4:0.00414701 5:-0.841009 6:0.0266937 7:0.37127 8:-0.585765 9:0.0498302 10:0.0883504 11:0.0153942 12:0.0336393 13:0.208516 14:0.289364 15:0.0696532 16:0.0942647 17:0.124294 18:0 19:0 20:0 21:0 22:0 23:0 24:0 25:0.01169 26:0.0954849 27:0.102142 28:0.0106051 29:0.00393996 30:0.251028 31:0.473571 32:0.0451237 33:0.00340606 34:0.00301013 35:0.00397418 36:0.00396082 37:0.00693181 38:0.00591337 39:0.00785298 40:0.0389924 41:0.857711 42:0.0557554 43:0.00558159 44:0.0133268 45:0.1 46:0.1 47:0.1 48:0.1 49:0.1 50:0.1 51:0.1 52:0.1 53:0.1 54:0.1 
-0.65 1:0.992578 2:0.00388602 3:0.00102042 4:0.00251531 5:0.971245 6:0.299113 7:0.706189 8:0.971142 9:0.00916389 10:0.176399 11:0.0204634 12:0.0245378 13:0.0161986 14:0.400858 15:0.0292693 16:0.0204856 17:0.00351186 18:0 19:0 20:0 21:0 22:0 23:0 24:0 25:0.10299 26:0.137555 27:0.0334662 28:0.0628731 29:0.160845 30:0.0421181 31:0.15509 32:0.300843 33:0.00232118 34:0.00189863 35:0.0294246 36:0.564703 37:0.0365556 38:0.113089 39:0.0540702 40:0.0610791 41:0.0468922 42:0.0333526 43:0.028209 44:0.0326242 45:0.402573 46:0.321042 47:0.0427299 48:0.0357756 49:0.0513403 50:0.00811963 51:0.113067 52:0.015684 53:0.00438783 54:0.00528044 
-0.65 1:0.989742 2:0.00795831 3:0.000548278 4:0.0017515 5:0.92089 6:0.00160383 7:0.0237993 8:0.517288 9:0.00621788 10:0.0140642 11:0.0270252 12:0.00229133 13:0.065422 14:0.380185 15:0.190421 16:0.0725066 17:0.240264 18:0 19:0 20:0 21:0 22:0 23:0 24:1 25:0.00151251 26:0.00352186 27:0.00884356 28:0.0446842 29:0.929917 30:0.00442005 31:0.0007201 32:0.0059499 33:0.00034387 34:8.69751e-05 35:0.00677605 36:0.101682 37:0.269784 38:0.0162757 39:0.00762857 40:0.10895 41:0.0320122 42:0.00899377 43:0.0249948 44:0.422904 45:0.103617 46:0.240549 47:0.0886227 48:0.0183183 49:0.164955 50:0.0557131 51:0.227958 52:0.0665358 53:0.0287653 54:0.00496577 
-0.65 1:0.895962 2:0.0888711 3:0.00180121 4:0.0133661 5:-0.929188 6:0.298962 7:0.725328 8:0.85864 9:0.0735924 10:0.127692 11:0.0106414 12:0.0210585 13:0.0565462 14:0.0294101 15:0.0101244 16:0.255555 17:0.116417 18:0 19:0 20:1 21:0 22:0 23:0 24:0 25:0.0455006 26:0.217188 27:0.224438 28:0.210762 29:0.219406 30:0.0239525 31:0.0309194 32:0.011189 33:0.0100465 34:0.0065982 35:0.1 36:0.1 37:0.1 38:0.1 39:0.1 40:0.1 41:0.1 42:0.1 43:0.1 44:0.1 45:0.0133896 46:0.458437 47:0.167167 48:0.142071 49:0.125108 50:0.0240991 51:0.034956 52:0.0226797 53:0.00610767 54:0.00598457 
-0.08094404097979281 1:0.964348 2:0.0142108 3:0.00220873 4:0.0192329 5:0.966317 6:0.00666186 7:0.025393 8:0.989507 9:0.0252913 10:0.0333555 11:0.0213091 12:0.00741355 13:0.046243 14:0.157795 15:0.592064 16:0.0901988 17:0.0196684 18:0 19:0 20:0 21:0 22:0 23:0 24:0 25:0.0355194 26:0.0730228 27:0.0252714 28:0.0210907 29:0.0188614 30:0.0126304 31:0.0665098 32:0.492361 33:0.251445 34:0.00328842 35:0.000330761 36:0.000689917 37:0.00075856 38:0.000254473 39:0.000966751 40:0.00690102 41:0.0101156 42:0.977414 43:0.00185716 44:0.000711828 45:0.1 46:0.1 47:0.1 48:0.1 49:0.1 50:0.1 51:0.1 52:0.1 53:0.1 54:0.1 
-0.65 1:0.985732 2:0.00787886 3:0.00109629 4:0.0052924 5:0.970064 6:0.0200386 7:0.0646307 8:0.995665 9:0.152483 10:0.0884375 11:0.0159041 12:0.0101513 13:0.133696 14:0.0933661 15:0.280657 16:0.101764 17:0.103502 18:0 19:0 20:0 21:0 22:0 23:0 24:0 25:0.0429467 26:0.0771657 27:0.0248151 28:0.0245369 29:0.00986773 30:0.0132915 31:0.094818 32:0.400792 33:0.307637 34:0.00412894 35:0.000421779 36:0.000514231 37:0.000919202 38:0.000278852 39:0.00192292 40:0.00139177 41:0.0106736 42:0.981311 43:0.00197391 44:0.000592909 45:0.1 46:0.1 47:0.1 48:0.1 49:0.1 50:0.1 51:0.1 52:0.1 53:0.1 54:0.1 
-0.65 1:0.996983 2:0.0024268 3:2.98125e-05 4:0.000560547 5:0.964483 6:0.0728178 7:0.286597 8:0.785905 9:0.0646405 10:0.273827 11:0.114275 12:0.0100735 13:0.238867 14:0.0892577 15:0.0380049 16:0.0706983 17:0.0275386 18:0 19:0 20:0 21:0 22:0 23:0 24:0 25:0.114252 26:0.116624 27:0.210426 28:0.0104319 29:0.00668114 30:0.265282 31:0.0876814 32:0.123967 33:0.0596733 34:0.00498243 35:0.00541339 36:0.0190706 37:0.0102586 38:0.0632866 39:0.396032 40:0.0378102 41:0.109626 42:0.321666 43:0.0235011 44:0.0133365 45:0.000991447 46:0.000846893 47:0.000164733 48:6.09966e-05 49:0.000146741 50:5.90467e-05 51:0.00653552 52:0.990263 53:0.000900338 54:3.13473e-05 
-0.65 1:0.998165 2:2.5125e-06 3:2.57954e-06 4:0.0018303 5:0.754932 6:0.131939 7:0.626306 8:0.714958 9:0.317397 10:0.092791 11:0.0111596 12:0.0266306 13:0.0559758 14:0.097675 15:0.100574 16:0.0285505 17:0.137307 18:1 19:0 20:0 21:0 22:0 23:0 24:0 25:0.0116071 26:0.102683 27:0.0434795 28:0.0506171 29:0.0230386 30:0.332282 31:0.0734397 32:0.0699276 33:0.282038 34:0.0108872 35:0.0269826 36:0.0677888 37:0.0228328 38:0.178024 39:0.0463561 40:0.0254001 41:0.026304 42:0.0749243 43:0.494333 44:0.037054 45:0.0629567 46:0.432238 47:0.0235113 48:0.0456245 49:0.00674051 50:0.0279749 51:0.0254528 52:0.0337575 53:0.336757 54:0.0049871 
-0.65 1:0.417101 2:0.568136 3:0.00785839 4:0.00690466 5:0.959733 6:0.0299213 7:0.5 8:0.998009 9:0.735604 10:0.0230826 11:0.0048279 12:0.034408 13:0.0179656 14:0.04379 15:0.0535734 16:0.0122551 17:0.0445724 18:0 19:0 20:0 21:0 22:0 23:0 24:0 25:0.0189756 26:0.0891484 27:0.0305049 28:0.0141472 29:0.0100703 30:0.0219077 31:0.208031 32:0.178259 33:0.425948 34:0.00300702 35:0.0296913 36:0.0496728 37:0.0335494 38:0.32411 39:0.0726074 40:0.0262959 41:0.0256891 42:0.0933472 43:0.31749 44:0.0275472 45:0.00602347 46:0.105739 47:0.0666117 48:0.0588282 49:0.0057187 50:0.0686131 51:0.114652 52:0.475648 53:0.0922932 54:0.00587309 
-0.65 1:0.99757 2:0.00135637 3:0.000222149 4:0.000851383 5:0.963972 6:0.00828521 7:0.0636975 8:-0.577341 9:0.25656 10:0.0502295 11:0.0180119 12:0.129823 13:0.0474138 14:0.16023 15:0.0727646 16:0.0678581 17:0.188825 18:0 19:0 20:0 21:0 22:0 23:0 24:0 25:0.0277527 26:0.220471 27:0.136195 28:0.0275954 29:0.0108153 30:0.0146303 31:0.291847 32:0.0784653 33:0.187202 34:0.00502625 35:0.00195643 36:0.0244104 37:0.0014199 38:0.02113 39:0.00261205 40:0.00159682 41:0.004393 42:0.000793178 43:0.937542 44:0.00414671 45:0.00191759 46:0.0470484 47:0.00407392 48:0.0526576 49:0.0549742 50:0.00128075 51:0.490473 52:0.310381 53:0.0306951 54:0.00649852 
-0.65 1:0.993362 2:3.27091e-05 3:3.34919e-05 4:0.00657161 5:0.901095 6:0.0237478 7:0.292609 8:0.773069 9:0.556431 10:0.0770899 11:0.00331757 12:0.00945345 13:0.0318915 14:0.108558 15:0.0751782 16:0.0519823 17:0.062351 18:0 19:0 20:0 21:0 22:0 23:0 24:0 25:0.133749 26:0.141594 27:0.0395014 28:0.021057 29:0.0122063 30:0.0337221 31:0.101515 32:0.435831 33:0.0745824 34:0.00624211 35:0.0140757 36:0.024954 37:0.0246616 38:0.018821 39:0.128055 40:0.139524 41:0.101456 42:0.496641 43:0.0271779 44:0.0246332 45:6.21959e-11 46:1.46798e-10 47:1.28892e-10 48:5.13709e-11 49:1.03747e-10 50:5.988e-11 51:1.04469e-10 52:1.96222e-10 53:1 54:4.75799e-11 
-0.2944891635983142 1:0.221338 2:0.224895 3:0.238643 4:0.315123 5:0.946615 6:0.0533125 7:0.819154 8:0.683709 9:0.0111419 10:0.00884546 11:0.0450639 12:0.795275 13:0.0315701 14:0.00576274 15:0.0456195 16:0.00150111 17:0.00190762 18:0 19:0 20:0 21:0 22:0 23:0 24:1 25:0.0655706 26:0.0254665 27:0.00947281 28:0.01191 29:0.0374664 30:0.0149061 31:0.018428 32:0.684944 33:0.0868618 34:0.0449741 35:0.000293533 36:0.00344451 37:0.00135711 38:0.00317786 39:0.00569516 40:0.0030049 41:0.0217313 42:0.956739 43:0.00300036 44:0.0015563 45:0.00353037 46:0.0357985 47:0.0231251 48:0.00631049 49:0.00313331 50:0.004322 51:0.00539345 52:0.014913 53:0.339216 54:0.564258 
-0.65 1:0.9971 2:0.000748211 3:4.04948e-05 4:0.00211118 5:0.965071 6:0.0584565 7:0.333844 8:-0.609335 9:0.00946825 10:0.126273 11:0.0718731 12:0.00760702 13:0.0672542 14:0.0424215 15:0.435372 16:0.0834929 17:0.0977816 18:0 19:1 20:0 21:0 22:0 23:0 24:0 25:0.506577 26:0.0290898 27:0.0176641 28:0.0188199 29:0.0259783 30:0.0105357 31:0.0812338 32:0.166527 33:0.119922 34:0.023653 35:0.000348142 36:0.00291706 37:0.00263922 38:0.00216297 39:0.0145854 40:0.00230062 41:0.729592 42:0.239313 43:0.0030682 44:0.00307288 45:0.00481974 46:0.00114836 47:0.0009331 48:0.00251343 49:0.000841303 50:7.45284e-05 51:0.00155515 52:0.958213 53:0.0245965 54:0.00530535 
-0.65 1:0.108183 2:0.450781 3:0.26837 4:0.172666 5:0.971547 6:0.00576761 7:0.115258 8:-0.538608 9:0.0209055 10:0.01899 11:0.110255 12:0.0229472 13:0.048574 14:0.0630773 15:0.681019 16:0.0264134 17:0.00205071 18:0 19:0 20:0 21:0 22:0 23:0 24:0 25:0.168535 26:0.0510233 27:0.0146451 28:0.0127275 29:0.036209 30:0.0333142 31:0.0364892 32:0.496725 33:0.110841 34:0.0394918 35:0.0103585 36:0.0231198 37:0.0157167 38:0.0174841 39:0.00313264 40:0.0122448 41:0.0140425 42:0.870764 43:0.0240129 44:0.00912381 45:0.1 46:0.1 47:0.1 48:0.1 49:0.1 50:0.1 51:0.1 52:0.1 53:0.1 54:0.1 
-0.4754836909559128 1:0.83527 2:0.0963871 3:0.016743 4:0.0515995 5:0.953325 6:0.00915367 7:0.086741 8:0.650238 9:0.0108318 10:0.0328614 11:0.0956717 12:0.019701 13:0.0560126 14:0.142875 15:0.614276 16:0.0157068 17:0.0029101 18:0 19:0 20:0 21:0 22:0 23:0 24:0 25:0.0852028 26:0.0206334 27:0.0100412 28:0.00863664 29:0.0217026 30:0.0284909 31:0.0219539 32:0.715004 33:0.0567568 34:0.031578 35:0.0521161 36:0.282004 37:0.0893881 38:0.108509 39:0.0186919 40:0.0851477 41:0.0626883 42:0.159779 43:0.0688404 44:0.0728358 45:0.05028 46:0.0268282 47:0.0060961 48:0.00448211 49:0.266129 50:0.00347785 51:0.0503378 52:0.547198 53:0.0350302 54:0.0101409 
