svm_type c_svc
kernel_type rbf
gamma 0.1
nr_class 2
total_sv 94
rho 0.626178
label 0 1
probA -6.62901
probB 3.48412
nr_sv 63 31
SV
1.785571227740023 5635:1 
0.2358746998649946 123:1 3712:1 3713:1 4402:1 5515:1 5634:1 6355:1 8270:1 16573:1 45449:1 
1.131720649728485 4652:1 6350:1 16779:1 
0.7713193777092853 4871:1 7165:1 
1.526191481850242 3723:1 
1.784856575720446 5198:1 
0.2763930840912278 3777:1 5524:1 5875:1 7018:1 
1.196441816155868 4725:1 6470:1 8138:1 16311:1 16791:1 17017:1 
1.784856575720446 8083:1 
0.4681819252054252 166:1 3676:1 3824:1 4386:1 5524:1 5622:1 6310:1 8026:1 44237:1 
0.7509064314344847 8270:1 
2.508136538663888 3676:1 
0.8534588884470438 159:1 7165:1 8601:1 
0.5722132259314267 166:1 4812:1 5515:1 5524:1 5737:1 6412:1 6418:1 8270:1 
0.7469882007181895 3779:1 5622:1 
2.044458171767078 3824:1 3950:1 5524:1 5634:1 6471:1 6508:1 8152:1 30693:1 
0.3492966334854038 4672:1 4674:1 4713:1 5524:1 6468:1 
6.362096131845179 6508:1 8234:1 
7.967750900759537 6508:1 8234:1 
0.1223375607025924 4221:1 6511:1 6512:1 
1.356413235470916 795:1 7130:1 
2.947945852482073 3677:1 4553:1 5488:1 5634:1 5975:1 
0.09162999014152716 3677:1 5669:1 6352:1 6355:1 
0.1478859861463767 5488:1 5515:1 16070:1 
1.163400217984917 3824:1 3908:1 6281:1 
0.8953570725660476 5515:1 6139:1 16788:1 
5.11884474376911 6508:1 8235:1 
0.3537334038474454 3677:1 3899:1 5666:1 6383:1 
0.0843546056986314 3676:1 4527:1 5622:1 8270:1 16491:1 
1.782839514190459 6457:1 
1.356661123878783 5643:1 16973:1 
2.123719413065532 5634:1 6955:1 16020:1 19882:1 30528:1 45449:1 
5.603638710046433 3824:1 5488:1 6464:1 6512:1 8152:1 8641:1 
0.8411056688179109 5622:1 5730:1 8283:1 
0.5374790278161411 5515:1 5524:1 5694:1 6259:1 16887:1 51276:1 
0.5063615071276336 3677:1 3824:1 3905:1 6284:1 
1.603438816453199 5524:1 5694:1 6259:1 
1.784261099423672 6950:1 
0.7890583671486081 3824:1 6281:1 6284:1 
0.2684427524083565 3676:1 3723:1 3725:1 4386:1 4525:1 5524:1 5622:1 6396:1 8026:1 
0.8888490108214406 3824:1 4519:1 6281:1 51539:1 
8 3824:1 
5.582969783582523 5488:1 
8 3676:1 
1.125073149413822 3700:1 6355:1 
0.7138009728898678 4519:1 4527:1 5634:1 6259:1 6302:1 16787:1 30145:1 
5.625177835106915 16787:1 
1.783973096587119 7067:1 
0.6220257773359175 3924:1 5515:1 5525:1 6886:1 6913:1 7165:1 7264:1 
1.441478490467915 5525:1 
2.104483803569953 5515:1 
0.4639023503697267 3677:1 6275:1 30337:1 43626:1 
0.1689566983615964 3723:1 3899:1 6350:1 
0.4071203931708103 166:1 3677:1 3684:1 5515:1 5524:1 5622:1 6259:1 6281:1 8094:1 17111:1 43565:1 
2.971594808381958 3824:1 3963:1 
0.2817874405148406 3677:1 3899:1 5665:1 6350:1 6366:1 
0.1061479953041994 166:1 3676:1 
1.358017713698489 16071:1 30529:1 
1.081587933108744 5634:1 6118:1 8121:1 8270:1 16020:1 16568:1 18024:1 
1.784199769840545 228:1 
1.239849161709448 3702:1 5672:1 6367:1 
1.357047329806593 6364:1 32040:1 
0.7466829434193037 166:1 3700:1 4672:1 4674:1 4888:1 5515:1 5524:1 5634:1 6355:1 6468:1 6915:1 6952:1 7165:1 17111:1 31224:1 43565:1 45087:1 45449:1 
-5.171720403063337 4767:1 6685:1 16787:1 
-3.136729829875969 6955:1 16020:1 19882:1 42613:1 
-4.708471628770078 4067:1 6516:1 
-0.4638766455183355 3824:1 4565:1 5975:1 9341:1 43169:1 
-0.1956332774815113 4197:1 6508:1 8234:1 50790:1 
-0.205040727675713 4531:1 5179:1 5576:1 6259:1 
-3.051026000209931 4190:1 4194:1 6508:1 
-5.627179411004364 4531:1 6259:1 
-1.937749684959921 8152:1 8484:1 
-5.809272390746287 4553:1 5975:1 
-10.00394686957117 4197:1 6508:1 8234:1 
-0.2046460318796235 8152:1 8449:1 8484:1 30203:1 
-0.4631843573491068 3824:1 4336:1 5975:1 6683:1 43169:1 
-0.7138777117766001 3824:1 4560:1 5975:1 43169:1 
-0.7168297411529766 3824:1 4563:1 5975:1 43169:1 
-1.658193311258305 323:1 5515:1 5537:1 15578:1 15761:1 16021:1 
-6.40128179059325 6464:1 8474:1 
-1.350951389360119 8158:1 16020:1 16021:1 30301:1 
-7.76972077598296 3824:1 6629:1 
-2.24270154157672 5215:1 5515:1 5737:1 6810:1 16021:1 
-9.252272601381296 3993:1 
-0.816892607336112 3824:1 4559:1 5975:1 6013:1 15923:1 30246:1 
-11.35462258811233 3824:1 5488:1 8152:1 
-2.576592335749653 4601:1 6118:1 6979:1 20037:1 
-5.914894592765389 4185:1 6508:1 
-0.1938308798008156 4289:1 6508:1 8236:1 
-0.1937396184221517 5783:1 8152:1 8484:1 
-0.392908663489493 5764:1 6629:1 6665:1 
-10.17800604039314 3676:1 4522:1 
-2.001303272711507 4872:1 5764:1 7155:1 16020:1 
-5.7432509435186 6508:1 8236:1 
