svm_type c_svc
kernel_type rbf
gamma 0.01
nr_class 2
total_sv 266
rho 0.394971
label 0 1
probA -4.19989
probB 0.539826
nr_sv 234 32
SV
1 1:0.116404 2:0.851015 3:0.0153753 4:0.0172063 5:0.941815 6:0.0688097 7:0.670373 8:0.84952 9:0.00980927 10:0.058219 11:0.282671 12:0.0894298 13:0.275437 14:0.024806 15:0.017351 16:0.0160789 17:0.157388 18:0 19:0 20:1 21:0 22:0 23:0 24:0 25:0.0988252 26:0.364832 27:0.0205648 28:0.0824887 29:0.113046 30:0.0143125 31:0.0941785 32:0.197377 33:0.0111314 34:0.0032434 35:0.00820024 36:0.0205127 37:0.0284076 38:0.0532611 39:0.763522 40:0.019925 41:0.0471108 42:0.0221992 43:0.0146241 44:0.022237 45:0.0557982 46:0.0697092 47:0.0133153 48:0.432377 49:0.282886 50:0.00515857 51:0.0540087 52:0.0475501 53:0.0260768 54:0.0131199 
1 1:0.998189 2:0.00127411 3:6.66304e-05 4:0.000470295 5:-0.71827 6:0.00134804 7:0.0297868 8:0.945806 9:0.0103434 10:0.0217122 11:0.0185492 12:0.00421966 13:0.226738 14:0.480867 15:0.0238135 16:0.00700898 17:0.2054 18:0 19:0 20:0 21:0 22:0 23:0 24:0 25:0.0221201 26:0.054829 27:0.0435828 28:0.179287 29:0.323905 30:0.0352068 31:0.0634036 32:0.275713 33:0.0011969 34:0.000755658 35:0.0117005 36:0.0189154 37:0.0200793 38:0.0512171 39:0.785051 40:0.0197241 41:0.0321517 42:0.0284081 43:0.0142081 44:0.0185449 45:0.161411 46:0.0929325 47:0.0122931 48:0.486788 49:0.106998 50:0.0128797 51:0.0765653 52:0.0424337 53:0.00554977 54:0.00214948 
1 1:0.999158 2:9.41786e-07 3:8.70992e-07 4:0.00083991 5:0.590135 6:0.00579096 7:0.38605 8:0.96194 9:0.00488146 10:0.00845256 11:0.000520126 12:0.00164 13:0.00374236 14:0.00416228 15:0.00053957 16:0.0197226 17:0.950548 18:0 19:0 20:0 21:0 22:0 23:0 24:0 25:0.00806947 26:0.0844906 27:0.041373 28:0.102531 29:0.368953 30:0.0205717 31:0.0993801 32:0.268343 33:0.003968 34:0.00231997 35:0.1 36:0.1 37:0.1 38:0.1 39:0.1 40:0.1 41:0.1 42:0.1 43:0.1 44:0.1 45:0.0150881 46:0.128386 47:0.0240393 48:0.0969633 49:0.252894 50:0.0261454 51:0.0811969 52:0.36337 53:0.00578537 54:0.00613127 
1 1:0.99964 2:1.58631e-07 3:1.54684e-07 4:0.000359279 5:0.937003 6:0.91818 7:0.976351 8:0.985462 9:0.00465104 10:0.0237341 11:0.00249939 12:0.00273287 13:0.00997692 14:0.0233065 15:0.00602254 16:0.00644092 17:0.0024557 18:0 19:0 20:1 21:1 22:0 23:0 24:1 25:0.0290033 26:0.101336 27:0.0163314 28:0.0136191 29:0.362605 30:0.0371067 31:0.371314 32:0.0489543 33:0.016059 34:0.00367109 35:0.00207654 36:0.00648932 37:0.00188012 38:0.00155104 39:0.825142 40:0.100694 41:0.00873482 42:0.0515918 43:0.000566277 44:0.00127346 45:0.0265918 46:0.322602 47:0.164338 48:0.0461175 49:0.0612007 50:0.0214726 51:0.115148 52:0.214771 53:0.021338 54:0.00642119 
1 1:0.996313 2:0.00216644 3:0.000235534 4:0.0012848 5:0.97401 6:0.00782119 7:0.16815 8:0.809075 9:0.00605299 10:0.0281301 11:0.0676451 12:0.00203202 13:0.0719768 14:0.138505 15:0.620478 16:0.025066 17:0.0322925 18:0 19:0 20:0 21:0 22:0 23:0 24:0 25:0.00795088 26:0.124067 27:0.0449145 28:0.174415 29:0.570132 30:0.00567152 31:0.0425565 32:0.0164304 33:0.00968576 34:0.00417586 35:0.00283039 36:0.00882054 37:0.0115176 38:0.00975001 39:0.880958 40:0.00454204 41:0.0100098 42:0.0161426 43:0.0491663 44:0.00626222 45:0.029583 46:0.385537 47:0.0237411 48:0.22853 49:0.0317051 50:0.0483143 51:0.173249 52:0.0629978 53:0.0070786 54:0.00926466 
1 1:0.996936 2:0.00217971 3:0.000153832 4:0.000730324 5:0.973551 6:0.00258684 7:0.0609124 8:0.809099 9:0.0111996 10:0.0289635 11:0.0515465 12:0.00432218 13:0.102666 14:0.0667336 15:0.6701 16:0.0188121 17:0.0430698 18:0 19:0 20:0 21:0 22:0 23:0 24:0 25:0.018809 26:0.0820894 27:0.0290849 28:0.199248 29:0.563892 30:0.00701648 31:0.0423098 32:0.042055 33:0.00972622 34:0.00576945 35:0.00297272 36:0.00501013 37:0.0050456 38:0.00439247 39:0.936418 40:0.0026006 41:0.0035521 42:0.00828628 43:0.0276617 44:0.00405998 45:0.0517824 46:0.26669 47:0.0429361 48:0.205282 49:0.052983 50:0.0451127 51:0.0302191 52:0.0831552 53:0.121206 54:0.100634 
0.129333989738046 1:0.997846 2:0.00101671 3:0.000131012 4:0.00100601 5:0.962038 6:0.180449 7:0.46488 8:0.639144 9:0.0348676 10:0.190057 11:0.00963095 12:0.0179609 13:0.0760486 14:0.00858027 15:0.0432689 16:0.240254 17:0.198883 18:0 19:0 20:0 21:0 22:0 23:0 24:1 25:0.479044 26:0.0846224 27:0.0259012 28:0.119797 29:0.207221 30:0.0129579 31:0.00612324 32:0.0591423 33:0.00328026 34:0.00190978 35:0.00297703 36:0.0174628 37:0.0342 38:0.0116333 39:0.888148 40:0.00464127 41:0.0159539 42:0.00349818 43:0.0168692 44:0.00461649 45:0.1 46:0.1 47:0.1 48:0.1 49:0.1 50:0.1 51:0.1 52:0.1 53:0.1 54:0.1 
1 1:0.0305764 2:0.104999 3:0.0358435 4:0.828581 5:-0.958517 6:0.101183 7:0.510291 8:0.744778 9:0.00965178 10:0.136741 11:0.025366 12:0.0383615 13:0.0288229 14:0.0388924 15:0.0248236 16:0.13624 17:0.459917 18:0 19:0 20:0 21:0 22:0 23:0 24:0 25:0.117864 26:0.0630968 27:0.0463332 28:0.277179 29:0.0526758 30:0.0573877 31:0.0628362 32:0.0686579 33:0.233445 34:0.020524 35:0.1 36:0.1 37:0.1 38:0.1 39:0.1 40:0.1 41:0.1 42:0.1 43:0.1 44:0.1 45:0.964887 46:0.0059197 47:0.00172295 48:0.00579266 49:0.0126533 50:0.000174693 51:0.00721624 52:0.000992877 53:0.000577846 54:6.22823e-05 
1 1:0.952687 2:0.0448671 3:0.00110989 4:0.00133647 5:0.939937 6:0.0193987 7:0.208427 8:0.996562 9:0.0157924 10:0.128681 11:0.0167224 12:0.0101037 13:0.0322317 14:0.137088 15:0.0320666 16:0.15697 17:0.450946 18:0 19:0 20:0 21:0 22:0 23:0 24:0 25:0.0367221 26:0.0669594 27:0.0284757 28:0.07145 29:0.185044 30:0.123478 31:0.0848403 32:0.395527 33:0.00512019 34:0.0023829 35:0.1 36:0.1 37:0.1 38:0.1 39:0.1 40:0.1 41:0.1 42:0.1 43:0.1 44:0.1 45:0.016494 46:0.0137842 47:0.00112903 48:0.0171141 49:0.833039 50:0.00637653 51:0.0523871 52:0.0237367 53:0.0338632 54:0.00207623 
1 1:0.995632 2:0.00238348 3:0.000259797 4:0.00172501 5:0.957803 6:0.0312103 7:0.280299 8:-0.701497 9:0.0516501 10:0.0546059 11:0.243746 12:0.172484 13:0.202389 14:0.132573 15:0.0776399 16:0.0105958 17:0.0231064 18:0 19:0 20:0 21:0 22:0 23:0 24:1 25:0.039786 26:0.0461441 27:0.00888617 28:0.0473768 29:0.313637 30:0.0121648 31:0.100609 32:0.428701 33:0.00162945 34:0.00106543 35:0.0039762 36:0.011392 37:0.00822572 38:0.0178855 39:0.325849 40:0.0252275 41:0.0680984 42:0.516917 43:0.0126619 44:0.00976668 45:0.00205824 46:0.0070379 47:0.00251696 48:0.0238191 49:0.961222 50:0.000233387 51:0.00117647 52:0.00189868 53:2.17418e-05 54:1.58471e-05 
1 1:0.996788 2:0.00112212 3:0.000130905 4:0.00195899 5:0.813296 6:0.0459657 7:0.487147 8:0.841923 9:0.0499632 10:0.102397 11:0.0525477 12:0.358002 13:0.0529324 14:0.272469 15:0.02009 16:0.00793467 17:0.0376976 18:1 19:0 20:0 21:0 22:0 23:0 24:1 25:0.0236016 26:0.0579015 27:0.0307113 28:0.266858 29:0.49465 30:0.0041591 31:0.0133714 32:0.106016 33:0.0017672 34:0.000963349 35:0.00182188 36:0.00793789 37:0.00288106 38:0.00821599 39:0.288263 40:0.0164015 41:0.0443666 42:0.610706 43:0.016099 44:0.00330684 45:0.00398478 46:0.00989763 47:0.00253721 48:0.0263016 49:0.8354 50:0.0013141 51:0.0690721 52:0.0499842 53:0.000838676 54:0.000669547 
1 1:0.966017 2:0.0287576 3:0.00160678 4:0.00361905 5:0.936157 6:0.00918035 7:0.177152 8:0.983379 9:0.0749062 10:0.0994029 11:0.105135 12:0.156567 13:0.139817 14:0.308151 15:0.00632359 16:0.0564282 17:0.0440893 18:0 19:0 20:0 21:0 22:0 23:0 24:1 25:0.0353667 26:0.0236906 27:0.034098 28:0.347204 29:0.466956 30:0.00314601 31:0.0128675 32:0.0741579 33:0.00192984 34:0.000583842 35:0.00309628 36:0.00721814 37:0.00384466 38:0.0200429 39:0.263833 40:0.0138182 41:0.0946876 42:0.572478 43:0.0164964 44:0.00448456 45:0.0139984 46:0.131833 47:0.0108382 48:0.0848125 49:0.458327 50:0.00881592 51:0.122334 52:0.144889 53:0.016332 54:0.00781988 
1 1:0.999582 2:8.54029e-07 3:4.38155e-07 4:0.00041622 5:0.956153 6:0.0202834 7:0.123324 8:0.979508 9:0.00891424 10:0.130177 11:0.182043 12:0.200793 13:0.0986365 14:0.0187653 15:0.0672168 16:0.017691 17:0.25548 18:0 19:0 20:0 21:1 22:0 23:0 24:0 25:0.0371659 26:0.296064 27:0.0163486 28:0.0191549 29:0.356829 30:0.0123365 31:0.22212 32:0.032766 33:0.00494444 34:0.00226957 35:0.0614416 36:0.640273 37:0.0280352 38:0.0151583 39:0.100337 40:0.0192685 41:0.0517155 42:0.0120874 43:0.030381 44:0.0413025 45:0.1 46:0.1 47:0.1 48:0.1 49:0.1 50:0.1 51:0.1 52:0.1 53:0.1 54:0.1 
1 1:2.99384e-05 2:0.00454238 3:0.00146696 4:0.993961 5:-0.956489 6:0.620612 7:0.913889 8:-0.834463 9:0.00269398 10:0.0780618 11:0.115384 12:0.0131657 13:0.0187123 14:0.00781015 15:0.0496355 16:0.00854635 17:0.0853774 18:1 19:0 20:0 21:1 22:0 23:0 24:1 25:0.0595822 26:0.0238709 27:0.00669494 28:0.137067 29:0.41956 30:0.0169419 31:0.0326513 32:0.294428 33:0.00802436 34:0.00117955 35:0.1 36:0.1 37:0.1 38:0.1 39:0.1 40:0.1 41:0.1 42:0.1 43:0.1 44:0.1 45:0.0469805 46:0.0712323 47:0.0162239 48:0.0102909 49:0.845276 50:0.00122544 51:0.00163292 52:0.00499245 53:0.00168153 54:0.000463819 
1 1:0.997975 2:0.00145041 3:4.13409e-05 4:0.000532917 5:0.947644 6:0.0502883 7:0.287829 8:-0.763301 9:0.113319 10:0.163297 11:0.0607652 12:0.0968832 13:0.249688 14:0.0590818 15:0.0147129 16:0.10119 17:0.0907731 18:0 19:0 20:0 21:0 22:0 23:0 24:1 25:0.108893 26:0.0323411 27:0.00966925 28:0.124848 29:0.133792 30:0.00760469 31:0.0397534 32:0.515136 33:0.0248832 34:0.00307933 35:0.1 36:0.1 37:0.1 38:0.1 39:0.1 40:0.1 41:0.1 42:0.1 43:0.1 44:0.1 45:0.0106924 46:0.0343583 47:0.00403314 48:0.050255 49:0.830482 50:0.0013854 51:0.0230983 52:0.0416126 53:0.0030466 54:0.00103632 
1 1:0.987226 2:0.0102814 3:0.000634718 4:0.00185784 5:-0.717877 6:0.0175864 7:0.308883 8:0.910891 9:0.00157679 10:0.069823 11:0.00150297 12:0.000757752 13:0.0386885 14:0.00647195 15:0.00776822 16:0.796655 17:0.0591697 18:0 19:0 20:0 21:0 22:0 23:0 24:0 25:0.0396826 26:0.0790695 27:0.00927454 28:0.0354255 29:0.0904757 30:0.0353091 31:0.187011 32:0.519747 33:0.00258517 34:0.00142038 35:0.0156646 36:0.0592702 37:0.0110844 38:0.730259 39:0.0451751 40:0.0291937 41:0.0267025 42:0.0238376 43:0.039215 44:0.0195984 45:0.1 46:0.1 47:0.1 48:0.1 49:0.1 50:0.1 51:0.1 52:0.1 53:0.1 54:0.1 
1 1:0.437687 2:0.528168 3:0.0244181 4:0.00972679 5:-0.952034 6:0.0316758 7:0.190999 8:0.921994 9:0.0565488 10:0.0494647 11:0.0549673 12:0.0140401 13:0.108189 14:0.0989942 15:0.429526 16:0.0741071 17:0.082487 18:0 19:0 20:1 21:0 22:0 23:0 24:0 25:0.021472 26:0.141794 27:0.309899 28:0.0827336 29:0.101189 30:0.0310637 31:0.11148 32:0.177335 33:0.0110403 34:0.0119924 35:0.0227527 36:0.625374 37:0.176059 38:0.0388125 39:0.0230668 40:0.0191372 41:0.0190871 42:0.0153697 43:0.0137608 44:0.0465803 45:0.00560585 46:0.0252724 47:0.00289874 48:0.0101 49:0.725886 50:0.00330527 51:0.170703 52:0.0484557 53:0.00594956 54:0.00182328 
1 1:0.52514 2:0.458088 3:0.0129748 4:0.00379778 5:-0.578262 6:0.00470986 7:0.0774491 8:0.826611 9:0.108224 10:0.0203708 11:0.0545536 12:0.0251155 13:0.234814 14:0.043445 15:0.388484 16:0.0200011 17:0.100282 18:0 19:0 20:1 21:0 22:0 23:0 24:0 25:0.0257409 26:0.110876 27:0.345639 28:0.205243 29:0.0502622 30:0.0184313 31:0.0817322 32:0.148875 33:0.00734297 34:0.00585855 35:0.019438 36:0.501421 37:0.324711 38:0.0345889 39:0.019243 40:0.0202151 41:0.0138719 42:0.0083759 43:0.00730167 44:0.0508335 45:0.00465314 46:0.0723175 47:0.0242737 48:0.0359759 49:0.613142 50:0.0427546 51:0.0629795 52:0.0930052 53:0.00771897 54:0.0431798 
1 1:0.990026 2:0.0012787 3:0.000678735 4:0.00801665 5:0.806756 6:0.021512 7:0.153772 8:-0.571774 9:0.0220986 10:0.0690862 11:0.0301782 12:0.00291125 13:0.228577 14:0.244434 15:0.0536165 16:0.0890101 17:0.238576 18:0 19:0 20:0 21:0 22:0 23:0 24:0 25:0.0203055 26:0.148386 27:0.446385 28:0.0360804 29:0.073844 30:0.036573 31:0.0868751 32:0.139648 33:0.0058711 34:0.0060326 35:0.0174356 36:0.502179 37:0.341899 38:0.0200015 39:0.0255556 40:0.0126172 41:0.0191467 42:0.00685637 43:0.00928611 44:0.0450225 45:0.00495403 46:0.0859741 47:0.0417549 48:0.0207353 49:0.125864 50:0.00793362 51:0.638888 52:0.0701924 53:0.00186804 54:0.00183525 
1 1:0.998931 2:1.91637e-06 3:2.3211e-06 4:0.00106463 5:0.921346 6:0.0123169 7:0.127925 8:-0.590863 9:0.0525741 10:0.0533334 11:0.0476497 12:0.0094657 13:0.0842974 14:0.20073 15:0.419947 16:0.0472269 17:0.0724585 18:0 19:0 20:0 21:1 22:0 23:0 24:0 25:0.101511 26:0.0495412 27:0.0110619 28:0.0758328 29:0.389283 30:0.00634586 31:0.0145381 32:0.340459 33:0.00777379 34:0.00365424 35:0.0187536 36:0.0309578 37:0.0165232 38:0.73295 39:0.0761173 40:0.0145823 41:0.0104936 42:0.0192025 43:0.0617444 44:0.0186755 45:0.0373207 46:0.13434 47:0.00539075 48:0.0125984 49:0.667878 50:0.0170673 51:0.0314945 52:0.0707255 53:0.0195782 54:0.0036062 
1 1:0.980413 2:0.0106079 3:0.00271828 4:0.00626085 5:0.83222 6:0.0093711 7:0.121322 8:0.997551 9:0.0443653 10:0.0230056 11:0.0877731 12:0.0195541 13:0.184694 14:0.156754 15:0.155538 16:0.0972255 17:0.221719 18:0 19:0 20:0 21:0 22:0 23:0 24:0 25:0.063084 26:0.0553645 27:0.0131027 28:0.103789 29:0.2006 30:0.020586 31:0.129614 32:0.404882 33:0.00606437 34:0.00291365 35:0.00978388 36:0.0118535 37:0.00931273 38:0.0600708 39:0.805918 40:0.0197007 41:0.0353758 42:0.0270067 43:0.0110273 44:0.00995078 45:0.0187814 46:0.050769 47:0.0125097 48:0.0487108 49:0.470252 50:0.00251847 51:0.131006 52:0.262405 53:0.00154861 54:0.00149885 
1 1:0.996708 2:0.000828858 3:0.000121566 4:0.0023412 5:0.738772 6:0.0868173 7:0.811163 8:-0.820536 9:0.102383 10:0.0356953 11:0.0311637 12:0.0223746 13:0.0223714 14:0.102431 15:0.0231101 16:0.101512 17:0.472142 18:1 19:0 20:0 21:0 22:0 23:0 24:1 25:0.122483 26:0.0534197 27:0.0132611 28:0.0667003 29:0.359854 30:0.0133001 31:0.0422834 32:0.323183 33:0.00443357 34:0.0010827 35:0.1 36:0.1 37:0.1 38:0.1 39:0.1 40:0.1 41:0.1 42:0.1 43:0.1 44:0.1 45:0.127778 46:0.0674606 47:0.0124594 48:0.145148 49:0.478193 50:0.00718551 51:0.109326 52:0.0385475 53:0.010338 54:0.00356359 
1 1:0.968831 2:0.00196903 3:0.000657128 4:0.0285433 5:-0.542747 6:0.00297728 7:0.10227 8:-0.644915 9:0.0159122 10:0.00919656 11:0.00844965 12:0.00269122 13:0.0688147 14:0.13319 15:0.519831 16:0.020213 17:0.218725 18:0 19:0 20:0 21:0 22:0 23:0 24:0 25:0.0477632 26:0.0176542 27:0.00664798 28:0.0952885 29:0.59011 30:0.00295655 31:0.0160488 32:0.218122 33:0.00428634 34:0.0011217 35:0.00482474 36:0.0136199 37:0.0118339 38:0.0607914 39:0.782801 40:0.0216112 41:0.0437967 42:0.0316056 43:0.0178398 44:0.0112761 45:0.1 46:0.1 47:0.1 48:0.1 49:0.1 50:0.1 51:0.1 52:0.1 53:0.1 54:0.1 
1 1:0.991649 2:0.00493851 3:0.000130169 4:0.00328262 5:-0.840382 6:0.0282387 7:0.353061 8:0.798725 9:0.212038 10:0.0307015 11:0.0353633 12:0.0809847 13:0.0704219 14:0.0273192 15:0.154163 16:0.21844 17:0.14233 18:0 19:0 20:0 21:0 22:0 23:0 24:1 25:0.0368132 26:0.0381409 27:0.0353026 28:0.593203 29:0.135109 30:0.00742226 31:0.023574 32:0.122442 33:0.00486953 34:0.00312366 35:0.00589393 36:0.00935422 37:0.0101944 38:0.0742336 39:0.73064 40:0.0286583 41:0.0416892 42:0.0688845 43:0.0208863 44:0.00956539 45:0.249156 46:0.533433 47:0.014381 48:0.0745258 49:0.0407209 50:0.00521023 51:0.0230532 52:0.00793948 53:0.0290927 54:0.0224873 
1 1:0.891889 2:0.00919772 3:0.00411856 4:0.0947948 5:0.839518 6:0.0146065 7:0.265845 8:-0.837623 9:0.199754 10:0.0175643 11:0.0423039 12:0.128663 13:0.168288 14:0.0159469 15:0.0515871 16:0.0945991 17:0.266687 18:0 19:0 20:0 21:0 22:0 23:0 24:1 25:0.0723479 26:0.0695562 27:0.0168095 28:0.387111 29:0.22944 30:0.00800332 31:0.013813 32:0.183299 33:0.0168456 34:0.00277447 35:0.00303764 36:0.00768118 37:0.00488172 38:0.0633438 39:0.767122 40:0.0168619 41:0.0391543 42:0.0772731 43:0.0145452 44:0.00609896 45:0.0386504 46:0.282891 47:0.0459911 48:0.168337 49:0.03495 50:0.00547584 51:0.0249313 52:0.381092 53:0.0114227 54:0.00625835 
1 1:0.996481 2:0.00129178 3:0.000191572 4:0.00203573 5:0.814367 6:0.00326746 7:0.638235 8:0.64903 9:0.00324693 10:0.00352975 11:0.0026664 12:0.00146605 13:0.00969776 14:0.00740879 15:0.00987141 16:0.241542 17:0.717303 18:0 19:0 20:0 21:0 22:0 23:0 24:0 25:0.0110549 26:0.00811138 27:0.00227964 28:0.0184109 29:0.0197265 30:0.00175879 31:0.00194015 32:0.931256 33:0.00513474 34:0.00032672 35:0.1 36:0.1 37:0.1 38:0.1 39:0.1 40:0.1 41:0.1 42:0.1 43:0.1 44:0.1 45:0.0709217 46:0.241607 47:0.0591697 48:0.0375156 49:0.41632 50:0.0120162 51:0.114648 52:0.0369142 53:0.00519029 54:0.00569672 
1 1:0.998092 2:3.72072e-06 3:3.4414e-06 4:0.00190035 5:-0.79047 6:0.0404649 7:0.331268 8:0.848804 9:0.00606125 10:0.0710701 11:0.0521931 12:0.00446746 13:0.126998 14:0.0337909 15:0.117924 16:0.120829 17:0.426201 18:0 19:0 20:0 21:0 22:0 23:0 24:1 25:0.0175911 26:0.0508125 27:0.0610556 28:0.494093 29:0.258839 30:0.00602136 31:0.0228891 32:0.0842666 33:0.00284378 34:0.00158833 35:0.1 36:0.1 37:0.1 38:0.1 39:0.1 40:0.1 41:0.1 42:0.1 43:0.1 44:0.1 45:0.0418443 46:0.0526366 47:0.0151328 48:0.0781758 49:0.501995 50:0.00721017 51:0.130127 52:0.149682 53:0.0141291 54:0.00906782 
1 1:0.989981 2:0.00530546 3:0.000434293 4:0.00427907 5:0.962898 6:0.0264104 7:0.783108 8:-0.868552 9:0.00969006 10:0.00872488 11:0.0309424 12:0.0203518 13:0.153547 14:0.021815 15:0.0491675 16:0.282154 17:0.397197 18:1 19:0 20:0 21:0 22:0 23:0 24:0 25:0.0415027 26:0.0390739 27:0.0617607 28:0.610335 29:0.111769 30:0.00912585 31:0.0772008 32:0.0356095 33:0.010868 34:0.00275448 35:0.1 36:0.1 37:0.1 38:0.1 39:0.1 40:0.1 41:0.1 42:0.1 43:0.1 44:0.1 45:0.0239133 46:0.337325 47:0.0132048 48:0.323871 49:0.088307 50:0.0657829 51:0.0706525 52:0.0644253 53:0.0102229 54:0.00229516 
1 1:0.351761 2:0.521229 3:0.0556895 4:0.0713204 5:0.814127 6:0.0987662 7:0.780291 8:0.633 9:0.0116563 10:0.0234724 11:0.0566471 12:0.0319811 13:0.0509294 14:0.0441131 15:0.05726 16:0.146854 17:0.478321 18:0 19:0 20:0 21:1 22:0 23:0 24:0 25:0.168851 26:0.173523 27:0.0586607 28:0.246149 29:0.0794749 30:0.0355139 31:0.0989332 32:0.0974801 33:0.0290473 34:0.0123671 35:0.1 36:0.1 37:0.1 38:0.1 39:0.1 40:0.1 41:0.1 42:0.1 43:0.1 44:0.1 45:0.0348507 46:0.0909702 47:0.0299967 48:0.0480862 49:0.0222869 50:0.0182463 51:0.0593686 52:0.0800365 53:0.105707 54:0.510451 
1 1:0.540071 2:0.428933 3:0.0169998 4:0.0139956 5:0.782176 6:0.019245 7:0.636812 8:0.839737 9:0.00884239 10:0.0129371 11:0.358148 12:0.0134792 13:0.128489 14:0.0544217 15:0.116738 16:0.100895 17:0.186805 18:0 19:0 20:0 21:0 22:0 23:0 24:0 25:0.00670485 26:0.0916177 27:0.0449186 28:0.730857 29:0.052587 30:0.00568373 31:0.0492337 32:0.00879738 33:0.00724997 34:0.00235 35:0.1 36:0.1 37:0.1 38:0.1 39:0.1 40:0.1 41:0.1 42:0.1 43:0.1 44:0.1 45:0.00224533 46:0.0243206 47:0.0305937 48:0.128306 49:0.178296 50:0.00545412 51:0.0101587 52:0.612783 53:0.00560005 54:0.00224223 
1 1:0.77549 2:0.193072 3:0.0120781 4:0.0193604 5:0.882225 6:0.0241161 7:0.465224 8:0.99451 9:0.00594468 10:0.0260284 11:0.24759 12:0.0230738 13:0.46167 14:0.0286968 15:0.0812526 16:0.0503532 17:0.0512749 18:0 19:0 20:0 21:0 22:0 23:0 24:0 25:0.0203703 26:0.0176227 27:0.042591 28:0.707693 29:0.190443 30:0.00434998 31:0.00333926 32:0.0110026 33:0.00174567 34:0.000843059 35:0.1 36:0.1 37:0.1 38:0.1 39:0.1 40:0.1 41:0.1 42:0.1 43:0.1 44:0.1 45:0.00901404 46:0.090079 47:0.0636904 48:0.089595 49:0.582538 50:0.0354477 51:0.0437476 52:0.0326608 53:0.0205104 54:0.0327169 
1 1:0.932936 2:0.0646882 3:0.00104866 4:0.00132716 5:0.941012 6:0.00197996 7:0.211326 8:0.916858 9:0.0692045 10:0.00501014 11:0.00102418 12:0.00147593 13:0.00571839 14:0.00236622 15:0.0132789 16:0.105389 17:0.794553 18:0 19:0 20:0 21:0 22:0 23:0 24:0 25:0.133136 26:0.0893472 27:0.0227936 28:0.0564791 29:0.0353714 30:0.0558627 31:0.13344 32:0.470748 33:0.00142938 34:0.00139287 35:0.0142746 36:0.0446097 37:0.0114371 38:0.734989 39:0.0829522 40:0.0349673 41:0.0265151 42:0.0169308 43:0.0223987 44:0.0109254 45:0.0431666 46:0.0797989 47:0.0200119 48:0.00744423 49:0.485914 50:0.0168101 51:0.055419 52:0.285615 53:0.0025533 54:0.00326685 
1 1:0.997164 2:6.57345e-06 3:6.56345e-06 4:0.00282312 5:0.663415 6:0.0624557 7:0.419257 8:0.940604 9:0.150906 10:0.0617487 11:0.0180573 12:0.0432076 13:0.0381454 14:0.114171 15:0.0540504 16:0.275229 17:0.182029 18:0 19:0 20:0 21:0 22:0 23:0 24:0 25:0.0437859 26:0.115995 27:0.0512957 28:0.0686982 29:0.0661421 30:0.0399565 31:0.271378 32:0.335732 33:0.00390569 34:0.00311048 35:0.1 36:0.1 37:0.1 38:0.1 39:0.1 40:0.1 41:0.1 42:0.1 43:0.1 44:0.1 45:0.0147734 46:0.309796 47:0.0433132 48:0.02579 49:0.480203 50:0.00194234 51:0.101738 52:0.010197 53:0.00737195 54:0.00487526 
1 1:0.619805 2:0.357674 3:0.0124569 4:0.0100649 5:-0.814262 6:0.244625 7:0.533118 8:0.59364 9:0.0153825 10:0.154437 11:0.0282496 12:0.0484073 13:0.0285566 14:0.0336288 15:0.207583 16:0.124901 17:0.114229 18:0 19:0 20:0 21:0 22:0 23:0 24:0 25:0.0361454 26:0.350252 27:0.0469544 28:0.209809 29:0.166331 30:0.0325707 31:0.0472916 32:0.10726 33:0.00189061 34:0.00149492 35:0.00275019 36:0.00712273 37:0.00347943 38:0.0176312 39:0.303279 40:0.0250422 41:0.0729884 42:0.55277 43:0.0100396 44:0.00489706 45:0.00528254 46:0.0216729 47:0.0120268 48:0.0500201 49:0.694024 50:0.00304018 51:0.0940964 52:0.115595 53:0.00299749 54:0.00124421 
1 1:0.997243 2:0.00173542 3:0.000141028 4:0.000880705 5:0.975335 6:0.00931708 7:0.0751065 8:0.746902 9:0.0299441 10:0.0521389 11:0.0131281 12:0.0289443 13:0.0245308 14:0.0517183 15:0.117703 16:0.0972503 17:0.575326 18:0 19:0 20:0 21:0 22:0 23:0 24:0 25:0.0432841 26:0.0543123 27:0.0240016 28:0.0734613 29:0.0874225 30:0.0476534 31:0.323498 32:0.342073 33:0.00254619 34:0.00174797 35:0.1 36:0.1 37:0.1 38:0.1 39:0.1 40:0.1 41:0.1 42:0.1 43:0.1 44:0.1 45:0.0559187 46:0.268285 47:0.0539927 48:0.145544 49:0.296106 50:0.00882472 51:0.147048 52:0.00712483 53:0.00756257 54:0.0095939 
1 1:0.998986 2:1.11714e-06 3:9.36724e-07 4:0.00101196 5:-0.963336 6:0.0454384 7:0.619062 8:0.841679 9:0.0107391 10:0.0236368 11:0.0122392 12:0.00630213 13:0.0201014 14:0.206955 15:0.0274116 16:0.126154 17:0.521022 18:0 19:0 20:0 21:0 22:0 23:0 24:0 25:0.0400613 26:0.0815714 27:0.0118915 28:0.116177 29:0.589672 30:0.00642543 31:0.0243831 32:0.124145 33:0.00341189 34:0.00226105 35:0.0275591 36:0.649123 37:0.0257692 38:0.0550128 39:0.0956436 40:0.0453036 41:0.0418404 42:0.0245161 43:0.0245505 44:0.0106817 45:0.1 46:0.1 47:0.1 48:0.1 49:0.1 50:0.1 51:0.1 52:0.1 53:0.1 54:0.1 
1 1:0.998099 2:0.00130993 3:9.68694e-05 4:0.000494111 5:0.844345 6:0.00822479 7:0.222709 8:0.981929 9:0.00377085 10:0.0246836 11:0.00489252 12:0.00072131 13:0.0134295 14:0.0852983 15:0.0117397 16:0.162893 17:0.684346 18:0 19:0 20:0 21:0 22:0 23:0 24:0 25:0.0564497 26:0.0590425 27:0.0086105 28:0.0631934 29:0.608422 30:0.0419189 31:0.0296086 32:0.127925 33:0.00338265 34:0.00144604 35:0.0289829 36:0.653161 37:0.028248 38:0.0616405 39:0.0438655 40:0.0346825 41:0.0943103 42:0.0206529 43:0.0253049 44:0.00915107 45:0.1 46:0.1 47:0.1 48:0.1 49:0.1 50:0.1 51:0.1 52:0.1 53:0.1 54:0.1 
1 1:0.654553 2:0.312103 3:0.0153676 4:0.0179758 5:0.970115 6:0.00647871 7:0.252074 8:0.892521 9:0.673413 10:0.0173665 11:0.00252007 12:0.00507216 13:0.0284276 14:0.00686494 15:0.0422641 16:0.0765652 17:0.141027 18:0 19:0 20:0 21:0 22:0 23:0 24:1 25:0.0623277 26:0.170488 27:0.00562168 28:0.0661896 29:0.617189 30:0.00336852 31:0.036482 32:0.0333413 33:0.00322512 34:0.00176693 35:0.0322194 36:0.0502681 37:0.0570909 38:0.249577 39:0.371381 40:0.0325536 41:0.0283655 42:0.0179577 43:0.120915 44:0.0396712 45:0.0479326 46:0.0401014 47:0.0207107 48:0.162405 49:0.525137 50:0.00635891 51:0.148632 52:0.0430631 53:0.00338503 54:0.00227532 
0.2031287643882154 1:0.84006 2:0.0802541 3:0.0112626 4:0.0684238 5:-0.9017 6:0.022442 7:0.329712 8:0.87106 9:0.155829 10:0.0336201 11:0.00718776 12:0.0177594 13:0.0591659 14:0.0318014 15:0.150268 16:0.100498 17:0.421428 18:0 19:0 20:0 21:0 22:0 23:0 24:1 25:0.0700577 26:0.108262 27:0.0055672 28:0.108304 29:0.650418 30:0.00287004 31:0.0288432 32:0.0209317 33:0.00351091 34:0.0012358 35:0.0154867 36:0.0251669 37:0.015758 38:0.311599 39:0.56746 40:0.0116438 41:0.0195675 42:0.00400853 43:0.0193848 44:0.00992439 45:0.018512 46:0.0517654 47:0.0226438 48:0.0319865 49:0.278556 50:0.00910991 51:0.103995 52:0.479341 53:0.0020115 54:0.00207932 
1 1:0.816391 2:0.0240805 3:0.00641599 4:0.153112 5:-0.956579 6:0.0890892 7:0.406504 8:0.82798 9:0.00424174 10:0.163179 11:0.112028 12:0.0141101 13:0.297957 14:0.238715 15:0.049497 16:0.0142995 17:0.0168833 18:0 19:0 20:0 21:0 22:0 23:0 24:0 25:0.0784008 26:0.0528535 27:0.0139338 28:0.095109 29:0.177593 30:0.0247531 31:0.134899 32:0.418641 33:0.00231703 34:0.00149954 35:0.00275019 36:0.00712273 37:0.00347943 38:0.0176312 39:0.303279 40:0.0250422 41:0.0729884 42:0.55277 43:0.0100396 44:0.00489706 45:0.1 46:0.1 47:0.1 48:0.1 49:0.1 50:0.1 51:0.1 52:0.1 53:0.1 54:0.1 
1 1:0.997133 2:6.66843e-06 3:6.19432e-06 4:0.00285395 5:0.955881 6:0.297068 7:0.676917 8:0.803464 9:0.0108287 10:0.0688464 11:0.0289636 12:0.422882 13:0.0328596 14:0.00599629 15:0.0110101 16:0.00985229 17:0.111693 18:0 19:0 20:0 21:0 22:0 23:0 24:1 25:0.0860495 26:0.0356604 27:0.0123206 28:0.0795254 29:0.248471 30:0.0199099 31:0.149012 32:0.366018 33:0.00196621 34:0.00106739 35:0.1 36:0.1 37:0.1 38:0.1 39:0.1 40:0.1 41:0.1 42:0.1 43:0.1 44:0.1 45:0.00127696 46:0.00202779 47:0.00290761 48:0.00466491 49:0.976273 50:0.000576189 51:0.00697856 52:0.00492778 53:0.000286229 54:8.1075e-05 
1 1:0.857619 2:0.0803507 3:0.0201223 4:0.0419078 5:0.950186 6:0.0102591 7:0.0779349 8:0.99894 9:0.00872279 10:0.064961 11:0.0977112 12:0.0905514 13:0.130132 14:0.224085 15:0.296234 16:0.00827482 17:0.0690681 18:0 19:0 20:0 21:0 22:0 23:0 24:0 25:0.0358739 26:0.159501 27:0.0132426 28:0.0451713 29:0.62503 30:0.00568711 31:0.0716398 32:0.041633 33:0.00150432 34:0.000716719 35:0.0128945 36:0.0492302 37:0.0161926 38:0.0161038 39:0.842445 40:0.015123 41:0.0172444 42:0.00276699 43:0.0115494 44:0.0164499 45:0.0122813 46:0.0820841 47:0.0259534 48:0.017799 49:0.288791 50:0.0142049 51:0.318014 52:0.196987 53:0.0377861 54:0.00609899 
1 1:0.991966 2:0.00184057 3:0.000140518 4:0.00605329 5:0.942474 6:0.0123691 7:0.242903 8:0.613952 9:0.0549634 10:0.0191347 11:0.00595247 12:0.0206251 13:0.017933 14:0.00718173 15:0.0046262 16:0.782061 17:0.0751535 18:0 19:0 20:0 21:0 22:0 23:0 24:0 25:0.0837223 26:0.0860869 27:0.0113977 28:0.558939 29:0.147664 30:0.019294 31:0.0278188 32:0.045619 33:0.0132067 34:0.00625156 35:0.1 36:0.1 37:0.1 38:0.1 39:0.1 40:0.1 41:0.1 42:0.1 43:0.1 44:0.1 45:0.352509 46:0.38749 47:0.0115301 48:0.00778504 49:0.0557157 50:0.00831072 51:0.0159893 52:0.151746 53:0.00680189 54:0.00212276 
1 1:0.984185 2:0.0066099 3:0.00104713 4:0.00815752 5:0.97372 6:0.152983 7:0.273777 8:0.98915 9:0.0074631 10:0.467483 11:0.0145161 12:0.0362637 13:0.0660322 14:0.0433012 15:0.0245903 16:0.0108929 17:0.176474 18:0 19:0 20:0 21:0 22:0 23:0 24:1 25:0.0300836 26:0.131404 27:0.0348293 28:0.0178744 29:0.145081 30:0.0957124 31:0.470482 32:0.0489912 33:0.0204622 34:0.0050791 35:0.0522934 36:0.0992293 37:0.0379743 38:0.0151453 39:0.334429 40:0.0148963 41:0.327141 42:0.0479638 43:0.0226968 44:0.0482312 45:0.00283858 46:0.0380242 47:0.0100466 48:0.0213134 49:0.873577 50:0.000769698 51:0.0389148 52:0.0133759 53:0.0007377 54:0.000402262 
1 1:0.998966 2:1.19193e-06 3:1.11657e-06 4:0.00103199 5:0.961137 6:0.00126139 7:0.0914378 8:0.68602 9:0.0264076 10:0.00472796 11:0.000293083 12:0.000470488 13:0.00110069 14:0.000717867 15:0.000593643 16:0.0995565 17:0.864871 18:0 19:0 20:0 21:0 22:0 23:0 24:0 25:0.0975172 26:0.19519 27:0.0218109 28:0.083401 29:0.30074 30:0.0192329 31:0.136436 32:0.140391 33:0.0030712 34:0.00220937 35:0.0294246 36:0.564703 37:0.0365556 38:0.113089 39:0.0540702 40:0.0610791 41:0.0468922 42:0.0333526 43:0.028209 44:0.0326242 45:0.00598782 46:0.0395173 47:0.0138616 48:0.124868 49:0.429399 50:0.00150319 51:0.0608698 52:0.320929 53:0.00262842 54:0.000435595 
1 1:0.988266 2:0.00925767 3:0.000196878 4:0.00227986 5:-0.778356 6:0.0282905 7:0.585887 8:0.903696 9:0.274456 10:0.0229952 11:0.00225122 12:0.0092552 13:0.0278519 14:0.00946844 15:0.0145199 16:0.0923777 17:0.518534 18:0 19:0 20:0 21:0 22:0 23:0 24:0 25:0.0726041 26:0.0249898 27:0.0126619 28:0.158177 29:0.344887 30:0.0281048 31:0.0161022 32:0.336707 33:0.00403243 34:0.00173356 35:0.1 36:0.1 37:0.1 38:0.1 39:0.1 40:0.1 41:0.1 42:0.1 43:0.1 44:0.1 45:0.00909005 46:0.0696263 47:0.0107742 48:0.0512383 49:0.640667 50:0.00550661 51:0.16001 52:0.0394575 53:0.00904727 54:0.00458214 
1 1:0.154664 2:0.0162384 3:0.00578868 4:0.823309 5:-0.948705 6:0.0933265 7:0.692019 8:-0.717107 9:0.03769 10:0.0547804 11:0.00880385 12:0.127613 13:0.0395856 14:0.0101096 15:0.0116702 16:0.243596 17:0.372825 18:0 19:0 20:0 21:0 22:0 23:0 24:0 25:0.212929 26:0.100361 27:0.01168 28:0.0715822 29:0.136513 30:0.0197686 31:0.122407 32:0.317345 33:0.00395711 34:0.00345663 35:0.0327171 36:0.741594 37:0.0180346 38:0.0798445 39:0.0378649 40:0.010916 41:0.0513668 42:0.00940594 43:0.0129523 44:0.00530435 45:0.341461 46:0.0884968 47:0.00679516 48:0.0260938 49:0.455065 50:0.00350731 51:0.0583528 52:0.0144373 53:0.00334541 54:0.00244486 
1 1:0.942775 2:0.0524975 3:0.00247816 4:0.00224901 5:0.953282 6:0.0488553 7:0.24548 8:0.999642 9:0.0115863 10:0.067825 11:0.0638135 12:0.341155 13:0.149458 14:0.00589793 15:0.00797147 16:0.0100558 17:0.293382 18:0 19:0 20:0 21:0 22:0 23:0 24:1 25:0.0216749 26:0.0951009 27:0.0749121 28:0.269482 29:0.218161 30:0.0532804 31:0.170624 32:0.0872432 33:0.00614042 34:0.00338087 35:0.00309628 36:0.00721814 37:0.00384466 38:0.0200429 39:0.263833 40:0.0138182 41:0.0946876 42:0.572478 43:0.0164964 44:0.00448456 45:0.00521854 46:0.0258301 47:0.0117237 48:0.846915 49:0.0917495 50:0.000742701 51:0.00316502 52:0.00273629 53:0.00921378 54:0.00270535 
1 1:0.993824 2:0.00125313 3:0.000200832 4:0.00472228 5:0.962494 6:0.0378339 7:0.307952 8:0.873305 9:0.254963 10:0.12666 11:0.025171 12:0.140037 13:0.0508635 14:0.0140217 15:0.0407745 16:0.0471541 17:0.262521 18:0 19:0 20:0 21:0 22:0 23:0 24:0 25:0.0350986 26:0.0131342 27:0.0184398 28:0.143968 29:0.607186 30:0.00493105 31:0.0145181 32:0.160967 33:0.0013907 34:0.000366824 35:0.00182188 36:0.00793789 37:0.00288106 38:0.00821599 39:0.288263 40:0.0164015 41:0.0443666 42:0.610706 43:0.016099 44:0.00330684 45:0.0477659 46:0.663856 47:0.00514058 48:0.0459188 49:0.129725 50:0.00213733 51:0.0452447 52:0.03057 53:0.0280907 54:0.00155124 
1 1:0.999577 2:8.48716e-07 3:5.42765e-07 4:0.000421274 5:0.660426 6:0.0423594 7:0.530412 8:0.582931 9:0.00441615 10:0.0220672 11:0.0180509 12:0.00490769 13:0.0212052 14:0.184466 15:0.005448 16:0.121956 17:0.575124 18:0 19:0 20:0 21:0 22:0 23:0 24:0 25:0.0894755 26:0.124397 27:0.0108318 28:0.140963 29:0.31938 30:0.0215242 31:0.0617128 32:0.222947 33:0.00510697 34:0.00366174 35:0.1 36:0.1 37:0.1 38:0.1 39:0.1 40:0.1 41:0.1 42:0.1 43:0.1 44:0.1 45:0.0348185 46:0.0958399 47:0.0317337 48:0.285994 49:0.353638 50:0.00670867 51:0.0613479 52:0.0975128 53:0.0277969 54:0.00461049 
1 1:0.987835 2:0.00511106 3:0.000523233 4:0.00653033 5:-0.849908 6:0.0296192 7:0.489135 8:-0.716937 9:0.00658791 10:0.0803931 11:0.0332789 12:0.00431733 13:0.1738 14:0.40865 15:0.100823 16:0.0446716 17:0.11786 18:0 19:0 20:0 21:0 22:0 23:0 24:0 25:0.0533537 26:0.201316 27:0.0225879 28:0.0945008 29:0.369949 30:0.0156709 31:0.120142 32:0.113375 33:0.00508166 34:0.00402393 35:0.00195938 36:0.00524633 37:0.0043417 38:0.025759 39:0.30087 40:0.0243401 41:0.0403904 42:0.577311 43:0.0149777 44:0.00480411 45:0.0231726 46:0.0122004 47:0.00379483 48:0.00572098 49:0.811142 50:0.00153729 51:0.0629186 52:0.072394 53:0.00551197 54:0.0016072 
1 1:0.999469 2:2.38833e-06 3:1.31e-06 4:0.00052692 5:0.974549 6:0.00414291 7:0.0160815 8:0.968795 9:0.0505031 10:0.0446306 11:0.0316844 12:0.0221313 13:0.452826 14:0.130031 15:0.181557 16:0.00601618 17:0.0764768 18:0 19:0 20:0 21:0 22:0 23:0 24:0 25:0.0545017 26:0.171929 27:0.0648639 28:0.17511 29:0.158066 30:0.0247873 31:0.129229 32:0.211685 33:0.00517201 34:0.00465636 35:0.00309628 36:0.00721814 37:0.00384466 38:0.0200429 39:0.263833 40:0.0138182 41:0.0946876 42:0.572478 43:0.0164964 44:0.00448456 45:0.0187347 46:0.0608394 47:0.038573 48:0.111336 49:0.612895 50:0.0030556 51:0.0338213 52:0.0208545 53:0.0925127 54:0.00737737 
1 1:0.999578 2:2.06496e-07 3:1.93078e-07 4:0.000421915 5:0.620284 6:0.00389709 7:0.40961 8:0.827407 9:0.0642723 10:0.00757353 11:0.00652497 12:0.00468719 13:0.0698844 14:0.0257898 15:0.72306 16:0.0385891 17:0.0557218 18:0 19:0 20:0 21:0 22:0 23:0 24:0 25:0.0184849 26:0.0268393 27:0.0281144 28:0.155156 29:0.670013 30:0.00653112 31:0.0116099 32:0.0815222 33:0.00133539 34:0.000393624 35:0.1 36:0.1 37:0.1 38:0.1 39:0.1 40:0.1 41:0.1 42:0.1 43:0.1 44:0.1 45:0.00427238 46:0.00330343 47:0.00195435 48:0.00503126 49:0.963132 50:0.000334704 51:0.0173489 52:0.00396125 53:0.000437565 54:0.000223891 
1 1:0.464577 2:0.445613 3:0.0229282 4:0.0668813 5:-0.537042 6:0.0661783 7:0.698944 8:0.799395 9:0.0327956 10:0.0706143 11:0.0765667 12:0.0677794 13:0.136524 14:0.137825 15:0.171008 16:0.0568181 17:0.18389 18:0 19:0 20:0 21:0 22:0 23:0 24:0 25:0.0303283 26:0.0268867 27:0.0133297 28:0.108726 29:0.588568 30:0.00958145 31:0.0399388 32:0.169824 33:0.00985928 34:0.00295744 35:0.1 36:0.1 37:0.1 38:0.1 39:0.1 40:0.1 41:0.1 42:0.1 43:0.1 44:0.1 45:0.0585045 46:0.377264 47:0.0230129 48:0.107134 49:0.112803 50:0.103777 51:0.132865 52:0.0234734 53:0.0264706 54:0.0346953 
1 1:0.946373 2:0.00370863 3:0.000462513 4:0.0494557 5:-0.943895 6:0.0170343 7:0.342487 8:0.510176 9:0.139924 10:0.0347612 11:0.0598122 12:0.0242505 13:0.109567 14:0.0502462 15:0.0705338 16:0.193743 17:0.300128 18:0 19:0 20:0 21:0 22:0 23:0 24:0 25:0.0641973 26:0.0412134 27:0.0117823 28:0.10151 29:0.660762 30:0.00405985 31:0.0219262 32:0.0871058 33:0.00615166 34:0.00129087 35:0.1 36:0.1 37:0.1 38:0.1 39:0.1 40:0.1 41:0.1 42:0.1 43:0.1 44:0.1 45:0.0972346 46:0.121794 47:0.0897504 48:0.20673 49:0.377301 50:0.00590586 51:0.0384914 52:0.0211412 53:0.0206226 54:0.0210291 
1 1:0.82083 2:0.00284893 3:0.00155599 4:0.174765 5:0.605703 6:0.0105193 7:0.362238 8:-0.64929 9:0.12545 10:0.0129866 11:0.0299745 12:0.0358925 13:0.0262771 14:0.0244323 15:0.479314 16:0.0311052 17:0.224048 18:0 19:0 20:0 21:0 22:0 23:0 24:0 25:0.0275913 26:0.0134298 27:0.0118037 28:0.220905 29:0.570085 30:0.000911736 31:0.0126569 32:0.13858 33:0.00351648 34:0.000520625 35:0.468198 36:0.261741 37:0.0531807 38:0.0294838 39:0.0343448 40:0.0116925 41:0.0190473 42:0.0168491 43:0.0323136 44:0.0731487 45:0.11598 46:0.453681 47:0.019705 48:0.149559 49:0.128161 50:0.0137367 51:0.0813454 52:0.0158625 53:0.0131642 54:0.00880585 
1 1:0.989006 2:0.0103507 3:0.000188391 4:0.000454982 5:0.959807 6:0.0428558 7:0.338089 8:0.880064 9:0.033782 10:0.0619132 11:0.0399918 12:0.0140028 13:0.122257 14:0.0312911 15:0.0780588 16:0.0908718 17:0.484976 18:0 19:0 20:0 21:0 22:0 23:0 24:0 25:0.0886845 26:0.178644 27:0.00452346 28:0.0618083 29:0.532975 30:0.0169391 31:0.0450857 32:0.0677319 33:0.00210736 34:0.00150033 35:0.0279348 36:0.63105 37:0.0259033 38:0.0810017 39:0.0441373 40:0.0376101 41:0.108363 42:0.0144617 43:0.018497 44:0.0110412 45:0.00283607 46:0.0196289 47:0.00608048 48:0.0220238 49:0.621262 50:0.00205244 51:0.0554393 52:0.269069 53:0.00124818 54:0.000360267 
1 1:0.720427 2:0.265776 3:0.00663314 4:0.0071642 5:0.933301 6:0.0170046 7:0.11543 8:0.999561 9:0.0224524 10:0.204919 11:0.020486 12:0.0106397 13:0.179491 14:0.0266559 15:0.0558848 16:0.335519 17:0.126948 18:0 19:0 20:0 21:0 22:0 23:0 24:0 25:0.0219091 26:0.180204 27:0.0806989 28:0.506591 29:0.0550058 30:0.0247389 31:0.124347 32:0.00110657 33:0.00330969 34:0.00208853 35:0.1 36:0.1 37:0.1 38:0.1 39:0.1 40:0.1 41:0.1 42:0.1 43:0.1 44:0.1 45:0.0111113 46:0.0167259 47:0.00281667 48:0.226385 49:0.668153 50:0.00168039 51:0.0675618 52:0.00380228 53:0.00109771 54:0.000666035 
1 1:0.163614 2:0.80705 3:0.0211108 4:0.00822571 5:0.829152 6:0.0985288 7:0.691389 8:0.589876 9:0.023862 10:0.0685246 11:0.171923 12:0.201828 13:0.0355535 14:0.0567181 15:0.016403 16:0.058971 17:0.267688 18:0 19:0 20:0 21:0 22:0 23:0 24:0 25:0.00207943 26:0.011856 27:0.0254025 28:0.840238 29:0.108828 30:0.00144146 31:0.00111246 32:0.00148146 33:0.00635021 34:0.00120983 35:0.0077944 36:0.0183779 37:0.0153459 38:0.0097596 39:0.736787 40:0.0200305 41:0.0453255 42:0.110689 43:0.0230775 44:0.0128121 45:0.660063 46:0.082817 47:0.135846 48:0.0373418 49:0.00950427 50:0.00422485 51:0.045104 52:0.00435629 53:0.0159827 54:0.0047604 
1 1:0.68479 2:0.106647 3:0.0420707 4:0.166492 5:0.939621 6:0.018831 7:0.0444902 8:-0.754316 9:0.0183151 10:0.205238 11:0.0145053 12:0.0379587 13:0.0582939 14:0.030687 15:0.0152275 16:0.584945 17:0.0159985 18:0 19:0 20:0 21:0 22:0 23:0 24:0 25:0.00620446 26:0.169456 27:0.229627 28:0.465939 29:0.0355468 30:0.01147 31:0.0691718 32:0.00877577 33:0.00263864 34:0.0011703 35:0.00825733 36:0.019894 37:0.0183534 38:0.0302037 39:0.71839 40:0.0189904 41:0.0699981 42:0.0803955 43:0.0216592 44:0.0138585 45:0.1 46:0.1 47:0.1 48:0.1 49:0.1 50:0.1 51:0.1 52:0.1 53:0.1 54:0.1 
1 1:0.969568 2:0.012335 3:0.00288037 4:0.0152161 5:0.926406 6:0.0311886 7:0.0849228 8:0.765748 9:0.028993 10:0.0989807 11:0.0149596 12:0.0244131 13:0.274264 14:0.0514576 15:0.0198118 16:0.440007 17:0.0159251 18:0 19:0 20:0 21:0 22:0 23:0 24:0 25:0.00216548 26:0.0558145 27:0.0541246 28:0.857406 29:0.020177 30:0.00344906 31:0.00269218 32:0.000459024 33:0.00282393 34:0.000887959 35:0.00579265 36:0.0219973 37:0.0224688 38:0.0339003 39:0.73641 40:0.0223074 41:0.0611098 42:0.0625731 43:0.0160184 44:0.0174217 45:0.1 46:0.1 47:0.1 48:0.1 49:0.1 50:0.1 51:0.1 52:0.1 53:0.1 54:0.1 
1 1:0.997482 2:0.00124875 3:6.78654e-05 4:0.00120103 5:0.704029 6:0.0194433 7:0.432794 8:-0.701322 9:0.063266 10:0.0271647 11:0.0578364 12:0.181238 13:0.123443 14:0.0922718 15:0.0168255 16:0.295817 17:0.122694 18:1 19:0 20:0 21:0 22:0 23:0 24:0 25:0.00907476 26:0.033925 27:0.020971 28:0.0172168 29:0.108878 30:0.0217687 31:0.0892314 32:0.697053 33:0.00128057 34:0.000600098 35:0.00143826 36:0.0117706 37:0.0217748 38:0.00858874 39:0.866031 40:0.0129118 41:0.0340491 42:0.0163127 43:0.0116215 44:0.0155012 45:0.0446378 46:0.0769351 47:0.00471955 48:0.0311519 49:0.215798 50:0.00933641 51:0.129523 52:0.4828 53:0.00327006 54:0.00182834 
1 1:0.998722 2:1.86667e-06 3:2.16232e-06 4:0.00127412 5:-0.889649 6:0.00451513 7:0.068429 8:-0.647528 9:0.05111 10:0.0138851 11:0.158562 12:0.237002 13:0.310602 14:0.0601719 15:0.0950467 16:0.0214783 17:0.0476268 18:0 19:0 20:0 21:0 22:1 23:0 24:1 25:0.0181593 26:0.089362 27:0.0150512 28:0.0195649 29:0.613053 30:0.00529041 31:0.0712564 32:0.165177 33:0.00177648 34:0.00130936 35:0.003843 36:0.0113968 37:0.0223136 38:0.018446 39:0.79629 40:0.0337615 41:0.0457245 42:0.0185624 43:0.0174289 44:0.0322335 45:0.1 46:0.1 47:0.1 48:0.1 49:0.1 50:0.1 51:0.1 52:0.1 53:0.1 54:0.1 
1 1:0.997951 2:0.00144726 3:0.000159583 4:0.000442133 5:0.946307 6:0.0222533 7:0.100554 8:0.993985 9:0.00843695 10:0.0534196 11:0.0512598 12:0.00628746 13:0.0277737 14:0.145365 15:0.230539 16:0.15116 17:0.303506 18:0 19:0 20:0 21:0 22:0 23:0 24:0 25:0.10632 26:0.155096 27:0.0170294 28:0.0946765 29:0.426309 30:0.0163656 31:0.0897011 32:0.0890166 33:0.00316961 34:0.00231587 35:0.0286671 36:0.672143 37:0.0257737 38:0.0543427 39:0.0429411 40:0.0294533 41:0.100093 42:0.0168187 43:0.020826 44:0.00894208 45:0.113511 46:0.138334 47:0.0314867 48:0.0594516 49:0.312713 50:0.0608624 51:0.0532854 52:0.136649 53:0.0670223 54:0.0266853 
1 1:0.920155 2:0.064986 3:0.00694663 4:0.00791241 5:0.955883 6:0.0345137 7:0.488156 8:0.889931 9:0.0217377 10:0.0673911 11:0.102564 12:0.0682689 13:0.040038 14:0.0955629 15:0.00608897 16:0.0741321 17:0.489702 18:0 19:0 20:0 21:0 22:0 23:0 24:0 25:0.00798746 26:0.0189037 27:0.0176987 28:0.873263 29:0.0695565 30:0.00102448 31:0.00442056 32:0.00368741 33:0.00282334 34:0.000634444 35:0.00195938 36:0.00524633 37:0.0043417 38:0.025759 39:0.30087 40:0.0243401 41:0.0403904 42:0.577311 43:0.0149777 44:0.00480411 45:0.00606952 46:0.0110021 47:0.00857179 48:0.0987508 49:0.49173 50:0.00479941 51:0.135688 52:0.22997 53:0.00941956 54:0.00399903 
1 1:0.983003 2:0.00641897 3:0.0021724 4:0.00840518 5:0.952988 6:0.0622476 7:0.246354 8:-0.606103 9:0.104783 10:0.182547 11:0.0743948 12:0.0638085 13:0.0583022 14:0.0746697 15:0.0122534 16:0.144163 17:0.22283 18:0 19:0 20:0 21:0 22:0 23:0 24:0 25:0.0394088 26:0.0981797 27:0.0453018 28:0.454794 29:0.10651 30:0.0533776 31:0.100953 32:0.0490663 33:0.0186223 34:0.0337871 35:0.00182188 36:0.00793789 37:0.00288106 38:0.00821599 39:0.288263 40:0.0164015 41:0.0443666 42:0.610706 43:0.016099 44:0.00330684 45:0.00651698 46:0.0201496 47:0.00940135 48:0.566958 49:0.176092 50:0.00771207 51:0.170736 52:0.025001 53:0.0152457 54:0.00218737 
1 1:0.831477 2:0.0994748 3:0.0280019 4:0.0410468 5:0.946603 6:0.0553814 7:0.303322 8:0.992971 9:0.05189 10:0.132316 11:0.0494099 12:0.0260899 13:0.0358376 14:0.0287371 15:0.00576259 16:0.462741 17:0.151834 18:0 19:0 20:0 21:0 22:0 23:0 24:0 25:0.17335 26:0.296049 27:0.0417053 28:0.210874 29:0.0568463 30:0.0533949 31:0.042026 32:0.0231692 33:0.0392896 34:0.0632951 35:0.1 36:0.1 37:0.1 38:0.1 39:0.1 40:0.1 41:0.1 42:0.1 43:0.1 44:0.1 45:0.0762412 46:0.0529192 47:0.00436046 48:0.713687 49:0.033428 50:0.0110659 51:0.0656062 52:0.0304115 53:0.0103744 54:0.00190671 
1 1:0.984482 2:0.00853525 3:0.000471157 4:0.00651204 5:0.625835 6:0.0431207 7:0.289226 8:0.975554 9:0.0360842 10:0.0674495 11:0.0444969 12:0.0422582 13:0.0360654 14:0.0480237 15:0.00499318 16:0.0728565 17:0.604652 18:0 19:0 20:0 21:0 22:0 23:0 24:0 25:0.182897 26:0.319624 27:0.0705923 28:0.29945 29:0.0408564 30:0.0239597 31:0.0221942 32:0.00836811 33:0.0189379 34:0.01312 35:0.00659514 36:0.00800451 37:0.00835066 38:0.0106552 39:0.349288 40:0.0480097 41:0.0526228 42:0.491769 43:0.0200733 44:0.00463127 45:0.00209351 46:0.00820223 47:0.00180728 48:0.0683808 49:0.500477 50:0.00144798 51:0.0754714 52:0.327903 53:0.012942 54:0.0012744 
1 1:0.999193 2:1.3956e-06 3:1.20286e-06 4:0.000804818 5:0.882471 6:0.0867738 7:0.173513 8:0.986295 9:0.0401877 10:0.379478 11:0.0388869 12:0.0434463 13:0.09207 14:0.119423 15:0.014909 16:0.123383 17:0.0614427 18:0 19:0 20:0 21:0 22:0 23:0 24:0 25:0.0113732 26:0.106975 27:0.0714639 28:0.738541 29:0.0532899 30:0.00474215 31:0.00775899 32:0.00172355 33:0.00298016 34:0.00115234 35:0.00661383 36:0.0117388 37:0.0105908 38:0.00788307 39:0.0977246 40:0.125468 41:0.0548535 42:0.666922 43:0.00824784 44:0.00995741 45:0.274332 46:0.144682 47:0.0101907 48:0.127009 49:0.346129 50:0.0056302 51:0.0161864 52:0.0578074 53:0.0149169 54:0.00311667 
1 1:0.990125 2:7.1153e-05 3:7.4617e-05 4:0.00972912 5:0.935406 6:0.00226033 7:0.11102 8:0.74698 9:0.0289912 10:0.00504252 11:0.0122235 12:0.0117912 13:0.288391 14:0.0715125 15:0.125368 16:0.078984 17:0.375436 18:1 19:0 20:0 21:0 22:1 23:0 24:1 25:0.0190261 26:0.0224011 27:0.00842061 28:0.0718401 29:0.44892 30:0.00421731 31:0.0498151 32:0.37379 33:0.00103304 34:0.000537128 35:0.0174074 36:0.0387051 37:0.040563 38:0.174854 39:0.486404 40:0.0576466 41:0.0528794 42:0.0599785 43:0.0295583 44:0.0420036 45:0.0249231 46:0.179766 47:0.0185921 48:0.0431814 49:0.460286 50:0.00579127 51:0.0715058 52:0.192344 53:0.0018351 54:0.00177571 
0.6007122794103411 1:0.972119 2:0.00855028 3:0.00277681 4:0.0165543 5:-0.751453 6:0.0222093 7:0.485637 8:-0.958605 9:0.00757942 10:0.0118717 11:0.00472456 12:0.00212215 13:0.0108446 14:0.0377255 15:0.00691647 16:0.839328 17:0.0566786 18:0 19:0 20:0 21:0 22:0 23:0 24:0 25:0.0622787 26:0.189203 27:0.0296443 28:0.229242 29:0.243263 30:0.0193445 31:0.0548679 32:0.13927 33:0.0192258 34:0.0136606 35:0.0292025 36:0.627123 37:0.0286282 38:0.0539905 39:0.100027 40:0.045015 41:0.0581974 42:0.0199375 43:0.0256429 44:0.0122362 45:0.0193852 46:0.0473377 47:0.0350957 48:0.223956 49:0.498351 50:0.00600195 51:0.136306 52:0.0229703 53:0.00722936 54:0.00336663 
1 1:0.963016 2:0.0232749 3:0.00265827 4:0.0110506 5:-0.896736 6:0.0653769 7:0.336589 8:0.805472 9:0.0337943 10:0.0958108 11:0.03242 12:0.0301409 13:0.0606071 14:0.0229928 15:0.0120694 16:0.494785 17:0.152003 18:0 19:0 20:0 21:0 22:0 23:0 24:0 25:0.0785032 26:0.1695 27:0.139206 28:0.056951 29:0.0959237 30:0.213337 31:0.0714052 32:0.141995 33:0.015841 34:0.0173383 35:0.1 36:0.1 37:0.1 38:0.1 39:0.1 40:0.1 41:0.1 42:0.1 43:0.1 44:0.1 45:0.000169848 46:0.00655151 47:0.00543979 48:0.242897 49:0.714038 50:0.000610972 51:0.00283018 52:0.0232852 53:0.00407916 54:9.811e-05 
1 1:0.87051 2:0.0511238 3:0.0195323 4:0.0588342 5:-0.672382 6:0.024399 7:0.235272 8:0.602284 9:0.0311146 10:0.0655149 11:0.0290448 12:0.0140466 13:0.0626931 14:0.0724342 15:0.0335627 16:0.295761 17:0.371429 18:0 19:0 20:0 21:0 22:0 23:0 24:0 25:0.0711122 26:0.13322 27:0.300815 28:0.0660968 29:0.0591606 30:0.163359 31:0.08099 32:0.111745 33:0.0065657 34:0.00693659 35:0.0279348 36:0.63105 37:0.0259033 38:0.0810017 39:0.0441373 40:0.0376101 41:0.108363 42:0.0144617 43:0.018497 44:0.0110412 45:0.0156569 46:0.0695854 47:0.0241185 48:0.249259 49:0.499715 50:0.0115135 51:0.0372944 52:0.0894324 53:0.00259238 54:0.000832648 
1 1:0.547297 2:0.414242 3:0.016345 4:0.0221162 5:-0.826175 6:0.00619255 7:0.104728 8:0.967108 9:0.015428 10:0.0383756 11:0.010641 12:0.00264283 13:0.0479477 14:0.0122567 15:0.00857206 16:0.496802 17:0.361141 18:0 19:0 20:0 21:0 22:0 23:0 24:0 25:0.073225 26:0.0729534 27:0.0657998 28:0.158631 29:0.494072 30:0.0184474 31:0.0303587 32:0.0798244 33:0.00415462 34:0.00253301 35:0.0292025 36:0.627123 37:0.0286282 38:0.0539905 39:0.100027 40:0.045015 41:0.0581974 42:0.0199375 43:0.0256429 44:0.0122362 45:0.0137426 46:0.124144 47:0.00552509 48:0.657663 49:0.093601 50:0.01297 51:0.0832367 52:0.00414028 53:0.00244899 54:0.0025288 
1 1:0.990897 2:0.00801011 3:8.22079e-05 4:0.00101095 5:0.96718 6:0.163603 7:0.869895 8:0.990073 9:0.00569202 10:0.1122 11:0.00480574 12:0.0032898 13:0.0210899 14:0.0199273 15:0.0261309 16:0.0848232 17:0.558438 18:0 19:0 20:0 21:0 22:0 23:0 24:0 25:0.197268 26:0.231588 27:0.0372436 28:0.0614009 29:0.0590674 30:0.28904 31:0.00776567 32:0.0736335 33:0.0323925 34:0.0105995 35:0.1 36:0.1 37:0.1 38:0.1 39:0.1 40:0.1 41:0.1 42:0.1 43:0.1 44:0.1 45:0.217637 46:0.16883 47:0.00722405 48:0.0865589 49:0.452437 50:0.00578377 51:0.0178591 52:0.0231654 53:0.0155238 54:0.0049811 
1 1:0.942571 2:0.0367207 3:0.00419571 4:0.0165123 5:0.764257 6:0.00677919 7:0.0392721 8:0.964762 9:0.00600643 10:0.0690669 11:0.110121 12:0.00287451 13:0.160898 14:0.366248 15:0.225063 16:0.013029 17:0.0399137 18:0 19:0 20:0 21:0 22:0 23:0 24:0 25:0.0368934 26:0.0275472 27:0.0121142 28:0.304794 29:0.250976 30:0.0036228 31:0.0183535 32:0.342099 33:0.00244017 34:0.00115951 35:0.0098547 36:0.0212771 37:0.0280329 38:0.0598246 39:0.735104 40:0.0270334 41:0.0397848 42:0.0330413 43:0.0212267 44:0.0248207 45:0.314539 46:0.114966 47:0.0606061 48:0.0695315 49:0.231286 50:0.0191865 51:0.102818 52:0.0734616 53:0.00951057 54:0.00409568 
1 1:0.00676475 2:0.960186 3:0.0214511 4:0.0115987 5:-0.952785 6:0.00660448 7:0.078658 8:0.968582 9:0.00336838 10:0.0495137 11:0.0859085 12:0.00226478 13:0.24627 14:0.126163 15:0.390547 16:0.00610697 17:0.0832532 18:0 19:0 20:0 21:0 22:0 23:0 24:0 25:0.0133925 26:0.011382 27:0.0207916 28:0.436271 29:0.0635971 30:0.0114155 31:0.0280995 32:0.412414 33:0.00158072 34:0.00105595 35:0.0116079 36:0.0187104 37:0.0191262 38:0.0508606 39:0.788848 40:0.0195716 41:0.0318531 42:0.0275044 43:0.0136873 44:0.0182306 45:0.1 46:0.1 47:0.1 48:0.1 49:0.1 50:0.1 51:0.1 52:0.1 53:0.1 54:0.1 
1 1:0.970674 2:0.0109374 3:0.00421211 4:0.0141765 5:0.794699 6:0.0264053 7:0.458564 8:-0.894378 9:0.0241723 10:0.0472109 11:0.0988551 12:0.0128774 13:0.399892 14:0.189553 15:0.0260692 16:0.0274431 17:0.147522 18:0 19:0 20:0 21:0 22:0 23:0 24:0 25:0.124977 26:0.0976534 27:0.0289267 28:0.161029 29:0.220926 30:0.0326724 31:0.0749793 32:0.253858 33:0.00303853 34:0.00194091 35:0.0105799 36:0.0209176 37:0.0235162 38:0.0608476 39:0.747233 40:0.0139347 41:0.0533398 42:0.0333601 43:0.0194845 44:0.0167869 45:0.0165186 46:0.0189964 47:0.00577611 48:0.128455 49:0.257376 50:0.00158275 51:0.301301 52:0.265137 53:0.0029522 54:0.00190432 
0.2548984455535586 1:0.983756 2:0.0147787 3:0.000130227 4:0.00133539 5:0.943682 6:0.0339425 7:0.296695 8:0.98006 9:0.301465 10:0.0704111 11:0.0101726 12:0.0104685 13:0.0709218 14:0.0261967 15:0.0925316 16:0.0618402 17:0.32205 18:1 19:0 20:0 21:0 22:1 23:0 24:1 25:0.059518 26:0.0571407 27:0.00953543 28:0.0558525 29:0.499699 30:0.0122295 31:0.0870131 32:0.182548 33:0.0314297 34:0.00503349 35:0.00293236 36:0.00522154 37:0.00753135 38:0.00151472 39:0.952511 40:0.0042019 41:0.00526554 42:0.00422514 43:0.0106127 44:0.00598363 45:0.1 46:0.1 47:0.1 48:0.1 49:0.1 50:0.1 51:0.1 52:0.1 53:0.1 54:0.1 
1 1:0.995202 2:0.00411644 3:0.000105152 4:0.000576354 5:0.639 6:0.00463842 7:0.123674 8:0.83181 9:0.0052364 10:0.0339805 11:0.0393991 12:0.00303883 13:0.0375511 14:0.0390294 15:0.00735611 16:0.0223407 17:0.807429 18:0 19:0 20:0 21:0 22:0 23:0 24:0 25:0.0632104 26:0.0253167 27:0.00527646 28:0.116722 29:0.203194 30:0.014483 31:0.0192183 32:0.544113 33:0.00644378 34:0.00202164 35:0.00385302 36:0.013198 37:0.00769224 38:0.00972381 39:0.464914 40:0.0205909 41:0.0488637 42:0.405355 43:0.0192153 44:0.00659432 45:0.00383729 46:0.0417031 47:0.111884 48:0.551339 49:0.232802 50:0.00558253 51:0.00986644 52:0.0290143 53:0.00772044 54:0.0062509 
1 1:0.917335 2:0.0790809 3:0.00173793 4:0.00184574 5:0.976369 6:0.0124522 7:0.298008 8:0.881414 9:0.00290475 10:0.0400546 11:0.0131021 12:0.00275802 13:0.0386982 14:0.0186861 15:0.00693854 16:0.0370243 17:0.827381 18:0 19:0 20:0 21:0 22:0 23:0 24:0 25:0.0652371 26:0.0342575 27:0.0101176 28:0.107067 29:0.243985 30:0.00573575 31:0.0133786 32:0.512511 33:0.00586333 34:0.00184727 35:0.00507471 36:0.0226672 37:0.0151443 38:0.0494887 39:0.53548 40:0.0337704 41:0.0930172 42:0.211275 43:0.0195929 44:0.0144897 45:0.0179249 46:0.148453 47:0.0123286 48:0.0792037 49:0.257208 50:0.0079361 51:0.0425354 52:0.416924 53:0.0111721 54:0.00631402 
1 1:0.986452 2:0.00795233 3:0.000844474 4:0.00475088 5:0.955241 6:0.135138 7:0.683278 8:-0.550232 9:0.0216523 10:0.0982814 11:0.00698088 12:0.0059556 13:0.0182118 14:0.0248482 15:0.0619075 16:0.406677 17:0.220348 18:0 19:0 20:0 21:0 22:0 23:0 24:0 25:0.100753 26:0.0986104 27:0.00524842 28:0.0453389 29:0.219766 30:0.0260142 31:0.134374 32:0.366027 33:0.0026622 34:0.00120591 35:0.0258648 36:0.0764367 37:0.0176 38:0.142849 39:0.629155 40:0.0338092 41:0.0307635 42:0.012394 43:0.0202071 44:0.0109202 45:0.0108559 46:0.055031 47:0.0295013 48:0.018584 49:0.285371 50:0.0345492 51:0.3632 52:0.0891728 53:0.0887368 54:0.0249981 
1 1:0.999426 2:3.96614e-07 3:3.87155e-07 4:0.000573332 5:0.843703 6:0.0251221 7:0.321668 8:0.974222 9:0.00898647 10:0.0989672 11:0.0214156 12:0.0233518 13:0.089323 14:0.00752467 15:0.0117985 16:0.439185 17:0.274325 18:0 19:0 20:0 21:0 22:0 23:0 24:1 25:0.257122 26:0.141327 27:0.027264 28:0.049152 29:0.10995 30:0.0145785 31:0.128253 32:0.233134 33:0.0324155 34:0.00680422 35:0.1 36:0.1 37:0.1 38:0.1 39:0.1 40:0.1 41:0.1 42:0.1 43:0.1 44:0.1 45:0.00621053 46:0.0623461 47:0.113472 48:0.184229 49:0.601573 50:0.00687307 51:0.00445111 52:0.0175309 53:0.00148542 54:0.00182893 
1 1:0.955211 2:0.0108727 3:0.00430879 4:0.0296079 5:0.725547 6:0.0232861 7:0.60647 8:-0.551587 9:0.00444791 10:0.0207695 11:0.00268924 12:0.0123254 13:0.0432905 14:0.00231448 15:0.00689485 16:0.230092 17:0.65389 18:0 19:0 20:0 21:0 22:0 23:0 24:0 25:0.117617 26:0.0637925 27:0.0266399 28:0.0735998 29:0.435371 30:0.00939459 31:0.126289 32:0.13553 33:0.00828235 34:0.00348396 35:0.1 36:0.1 37:0.1 38:0.1 39:0.1 40:0.1 41:0.1 42:0.1 43:0.1 44:0.1 45:0.1 46:0.1 47:0.1 48:0.1 49:0.1 50:0.1 51:0.1 52:0.1 53:0.1 54:0.1 
1 1:0.955963 2:0.0171072 3:0.00833663 4:0.0185927 5:0.877522 6:0.00982852 7:0.505876 8:-0.756264 9:0.00262631 10:0.0145635 11:0.00305997 12:0.00809819 13:0.029061 14:0.0021899 15:0.00379544 16:0.0278856 17:0.898892 18:0 19:0 20:0 21:0 22:0 23:0 24:0 25:0.0266855 26:0.0257199 27:0.0176028 28:0.152533 29:0.372497 30:0.0167832 31:0.0356177 32:0.347221 33:0.0038404 34:0.00149974 35:0.1 36:0.1 37:0.1 38:0.1 39:0.1 40:0.1 41:0.1 42:0.1 43:0.1 44:0.1 45:0.1 46:0.1 47:0.1 48:0.1 49:0.1 50:0.1 51:0.1 52:0.1 53:0.1 54:0.1 
1 1:0.999809 2:4.6166e-07 3:2.63983e-07 4:0.000190639 5:0.911973 6:0.0087245 7:0.201104 8:0.761735 9:0.0521686 10:0.0236208 11:0.0112621 12:0.0206307 13:0.072058 14:0.358827 15:0.115462 16:0.049273 17:0.287974 18:0 19:0 20:0 21:0 22:0 23:0 24:0 25:0.0305914 26:0.0588233 27:0.01674 28:0.123581 29:0.517745 30:0.00345122 31:0.0233988 32:0.220967 33:0.00294475 34:0.00175722 35:0.1 36:0.1 37:0.1 38:0.1 39:0.1 40:0.1 41:0.1 42:0.1 43:0.1 44:0.1 45:0.0220738 46:0.029456 47:0.00853332 48:0.113989 49:0.65678 50:0.00709754 51:0.123783 52:0.0302014 53:0.00443991 54:0.00364612 
1 1:0.927002 2:0.0532429 3:0.00606762 4:0.0136875 5:0.961663 6:0.00893606 7:0.532282 8:0.806797 9:0.362621 10:0.00952007 11:0.0096095 12:0.236384 13:0.0519185 14:0.0128232 15:0.0107784 16:0.0332701 17:0.264139 18:0 19:0 20:0 21:0 22:0 23:0 24:0 25:0.0418767 26:0.043769 27:0.0347497 28:0.31301 29:0.315864 30:0.0138486 31:0.0288168 32:0.205123 33:0.00181169 34:0.00113077 35:0.1 36:0.1 37:0.1 38:0.1 39:0.1 40:0.1 41:0.1 42:0.1 43:0.1 44:0.1 45:0.0138667 46:0.0880444 47:0.0223728 48:0.0299665 49:0.683754 50:0.00466958 51:0.0864164 52:0.0590624 53:0.00767763 54:0.00416976 
1 1:0.886556 2:0.107202 3:0.0030502 4:0.00319181 5:0.956311 6:0.0749778 7:0.835899 8:0.999652 9:0.135744 10:0.0283126 11:0.0437255 12:0.250371 13:0.172316 14:0.0103037 15:0.0443377 16:0.0180071 17:0.221904 18:0 19:0 20:0 21:0 22:0 23:0 24:0 25:0.0302917 26:0.144511 27:0.0316332 28:0.103654 29:0.289539 30:0.0107312 31:0.0428431 32:0.342356 33:0.00247664 34:0.00196367 35:0.1 36:0.1 37:0.1 38:0.1 39:0.1 40:0.1 41:0.1 42:0.1 43:0.1 44:0.1 45:0.000619146 46:0.00135164 47:0.000213053 48:0.00226968 49:0.958296 50:9.62085e-05 51:0.0110773 52:0.0255609 53:0.000463787 54:5.26476e-05 
1 1:0.994062 2:0.00407483 3:0.000230047 4:0.00163338 5:0.604836 6:0.0164488 7:0.109459 8:0.896015 9:0.0263267 10:0.130214 11:0.0049351 12:0.0189175 13:0.0440945 14:0.00519712 15:0.0142018 16:0.711896 17:0.0277693 18:0 19:0 20:0 21:0 22:0 23:0 24:0 25:0.024894 26:0.123653 27:0.110725 28:0.148573 29:0.0990555 30:0.0591638 31:0.113423 32:0.308436 33:0.00646417 34:0.00561268 35:0.00659514 36:0.00800451 37:0.00835066 38:0.0106552 39:0.349288 40:0.0480097 41:0.0526228 42:0.491769 43:0.0200733 44:0.00463127 45:0.135025 46:0.196676 47:0.0422734 48:0.20201 49:0.0988715 50:0.00634922 51:0.182231 52:0.104912 53:0.0241341 54:0.00751683 
1 1:0.997695 2:0.00168422 3:4.6979e-05 4:0.000573935 5:0.684591 6:0.049702 7:0.201649 8:0.733887 9:0.096903 10:0.0882021 11:0.00987648 12:0.0371512 13:0.0751284 14:0.213909 15:0.0251424 16:0.101086 17:0.302899 18:0 19:0 20:0 21:0 22:0 23:0 24:0 25:0.0744383 26:0.0251154 27:0.00743914 28:0.0735863 29:0.0963393 30:0.0204864 31:0.00823498 32:0.684113 33:0.0089318 34:0.00131549 35:0.1 36:0.1 37:0.1 38:0.1 39:0.1 40:0.1 41:0.1 42:0.1 43:0.1 44:0.1 45:0.00109226 46:0.00532524 47:0.00151579 48:0.0125138 49:0.962022 50:0.00016306 51:0.00256888 52:0.014162 53:0.000520339 54:0.000116876 
1 1:0.113971 2:0.851307 3:0.0189344 4:0.0157874 5:0.522111 6:0.0740078 7:0.630746 8:0.548261 9:0.0322851 10:0.0404453 11:0.133066 12:0.0441629 13:0.125434 14:0.0468638 15:0.32842 16:0.132544 17:0.0427715 18:0 19:0 20:0 21:0 22:0 23:0 24:0 25:0.0391057 26:0.0290788 27:0.00297271 28:0.120603 29:0.634135 30:0.00110676 31:0.0283444 32:0.141774 33:0.00209335 34:0.000785733 35:0.1 36:0.1 37:0.1 38:0.1 39:0.1 40:0.1 41:0.1 42:0.1 43:0.1 44:0.1 45:0.1 46:0.1 47:0.1 48:0.1 49:0.1 50:0.1 51:0.1 52:0.1 53:0.1 54:0.1 
1 1:0.866124 2:0.120691 3:0.00717134 4:0.00601314 5:-0.950992 6:0.00715413 7:0.279885 8:-0.518987 9:0.345598 10:0.0232412 11:0.0128729 12:0.0966478 13:0.0689429 14:0.0171147 15:0.0287577 16:0.257362 17:0.142309 18:0 19:0 20:0 21:0 22:0 23:0 24:1 25:0.291636 26:0.258894 27:0.00938777 28:0.0525094 29:0.151004 30:0.0407076 31:0.0992561 32:0.0868773 33:0.00622325 34:0.00350446 35:0.1 36:0.1 37:0.1 38:0.1 39:0.1 40:0.1 41:0.1 42:0.1 43:0.1 44:0.1 45:0.1 46:0.1 47:0.1 48:0.1 49:0.1 50:0.1 51:0.1 52:0.1 53:0.1 54:0.1 
1 1:0.99823 2:0.000820523 3:3.01504e-05 4:0.000919694 5:0.966768 6:0.00486989 7:0.221613 8:0.882745 9:0.131825 10:0.00806211 11:0.00105505 12:0.0136459 13:0.016461 14:0.00195518 15:0.0485024 16:0.0531941 17:0.72043 18:0 19:0 20:0 21:0 22:0 23:0 24:1 25:0.195513 26:0.0671506 27:0.0170075 28:0.324515 29:0.225487 30:0.0196311 31:0.0554043 32:0.090652 33:0.00318998 34:0.00144909 35:0.1 36:0.1 37:0.1 38:0.1 39:0.1 40:0.1 41:0.1 42:0.1 43:0.1 44:0.1 45:0.1 46:0.1 47:0.1 48:0.1 49:0.1 50:0.1 51:0.1 52:0.1 53:0.1 54:0.1 
1 1:0.984034 2:0.0138632 3:0.000347332 4:0.0017559 5:-0.640034 6:0.0178221 7:0.700467 8:0.917423 9:0.0259802 10:0.0150631 11:0.00622136 12:0.0047747 13:0.0271487 14:0.0506221 15:0.0292816 16:0.208368 17:0.614718 18:0 19:0 20:0 21:0 22:0 23:0 24:0 25:0.0795413 26:0.17194 27:0.0185711 28:0.0636903 29:0.328779 30:0.028943 31:0.200763 32:0.0977621 33:0.00646579 34:0.00354435 35:0.1 36:0.1 37:0.1 38:0.1 39:0.1 40:0.1 41:0.1 42:0.1 43:0.1 44:0.1 45:0.1 46:0.1 47:0.1 48:0.1 49:0.1 50:0.1 51:0.1 52:0.1 53:0.1 54:0.1 
1 1:0.990133 2:0.0052455 3:0.000485029 4:0.00413603 5:0.723554 6:0.0234474 7:0.248864 8:0.973871 9:0.0125888 10:0.0560282 11:0.0184612 12:0.00359461 13:0.0348846 14:0.423701 15:0.187871 16:0.0408882 17:0.198536 18:0 19:0 20:0 21:0 22:0 23:0 24:0 25:0.0145289 26:0.0262832 27:0.00994052 28:0.100964 29:0.400126 30:0.00464154 31:0.0603567 32:0.379426 33:0.00262215 34:0.00111012 35:0.1 36:0.1 37:0.1 38:0.1 39:0.1 40:0.1 41:0.1 42:0.1 43:0.1 44:0.1 45:0.0235838 46:0.0315187 47:0.00140467 48:0.0318719 49:0.862138 50:0.00166727 51:0.0223458 52:0.0237896 53:0.00113326 54:0.000546777 
1 1:0.998614 2:2.4671e-06 3:2.42178e-06 4:0.00138105 5:0.867496 6:0.00824298 7:0.20697 8:0.807839 9:0.00849541 10:0.035735 11:0.0208951 12:0.00257517 13:0.170112 14:0.231905 15:0.0935947 16:0.0575006 17:0.370944 18:0 19:0 20:0 21:0 22:0 23:0 24:0 25:0.0583618 26:0.097054 27:0.0182651 28:0.0639398 29:0.281924 30:0.0375524 31:0.0687549 32:0.368061 33:0.00365099 34:0.00243614 35:0.1 36:0.1 37:0.1 38:0.1 39:0.1 40:0.1 41:0.1 42:0.1 43:0.1 44:0.1 45:0.0758999 46:0.448045 47:0.022821 48:0.0894834 49:0.133316 50:0.0410212 51:0.0335021 52:0.125815 53:0.0165557 54:0.0135415 
1 1:0.997506 2:5.02286e-06 3:4.9477e-06 4:0.00248369 5:0.923376 6:0.0912342 7:0.753959 8:0.578938 9:0.028527 10:0.0476722 11:0.0543025 12:0.144903 13:0.0277326 14:0.0297528 15:0.00964093 16:0.20621 17:0.360024 18:0 19:0 20:0 21:0 22:0 23:0 24:0 25:0.140289 26:0.239021 27:0.0712584 28:0.130786 29:0.295354 30:0.0194208 31:0.0576967 32:0.0353365 33:0.00642233 34:0.00441592 35:0.1 36:0.1 37:0.1 38:0.1 39:0.1 40:0.1 41:0.1 42:0.1 43:0.1 44:0.1 45:0.00562384 46:0.0170055 47:0.00896418 48:0.314264 49:0.314825 50:0.00827094 51:0.177837 52:0.141585 53:0.00871013 54:0.0029136 
1 1:0.997402 2:0.00211779 3:0.000111321 4:0.000368581 5:0.953264 6:0.0530458 7:0.922954 8:0.988434 9:0.00812948 10:0.0259545 11:0.00450949 12:0.0162051 13:0.0438319 14:0.00651392 15:0.00295975 16:0.0088671 17:0.829983 18:0 19:0 20:0 21:0 22:0 23:0 24:0 25:0.0333188 26:0.115717 27:0.0537728 28:0.0240446 29:0.224597 30:0.0683028 31:0.413474 32:0.0222382 33:0.0345026 34:0.0100324 35:0.1 36:0.1 37:0.1 38:0.1 39:0.1 40:0.1 41:0.1 42:0.1 43:0.1 44:0.1 45:0.0311495 46:0.24526 47:0.00831933 48:0.0687932 49:0.358476 50:0.00743426 51:0.248709 52:0.0136228 53:0.0145808 54:0.00365462 
1 1:0.993506 2:0.00529081 3:0.000213203 4:0.000989762 5:0.869705 6:0.00232388 7:0.0944137 8:0.680501 9:0.580391 10:0.0241569 11:0.00484641 12:0.0335494 13:0.0875155 14:0.0392423 15:0.00613638 16:0.152551 17:0.0692877 18:0 19:0 20:0 21:0 22:0 23:0 24:0 25:0.0186481 26:0.130498 27:0.309414 28:0.043981 29:0.0265981 30:0.289741 31:0.100606 32:0.0248935 33:0.0413875 34:0.0142328 35:0.00309628 36:0.00721814 37:0.00384466 38:0.0200429 39:0.263833 40:0.0138182 41:0.0946876 42:0.572478 43:0.0164964 44:0.00448456 45:0.0060352 46:0.260252 47:0.0314965 48:0.0121442 49:0.0750502 50:0.0181026 51:0.407228 52:0.164784 53:0.0194836 54:0.00542383 
1 1:0.999192 2:4.94818e-07 3:4.91482e-07 4:0.000807287 5:0.873739 6:0.000876663 7:0.0735043 8:0.650098 9:0.087402 10:0.0091541 11:0.00626442 12:0.0102394 13:0.0626115 14:0.0548346 15:0.738109 16:0.00912777 17:0.0213808 18:0 19:0 20:0 21:0 22:0 23:0 24:1 25:0.0788176 26:0.141701 27:0.0156912 28:0.0351463 29:0.240613 30:0.0229621 31:0.0901353 32:0.361179 33:0.00978328 34:0.00397139 35:0.0304548 36:0.0747413 37:0.0623766 38:0.148661 39:0.217248 40:0.064598 41:0.0367579 42:0.0591219 43:0.225847 44:0.0801938 45:0.000908444 46:0.099226 47:0.00708316 48:0.0476178 49:0.638701 50:0.0039636 51:0.024978 52:0.176016 53:0.000449624 54:0.00105689 
1 1:0.997018 2:0.00151835 3:6.6837e-05 4:0.00139686 5:0.809992 6:0.00305121 7:0.0643781 8:-0.821579 9:0.14081 10:0.0139754 11:0.0124449 12:0.0219848 13:0.0620568 14:0.087901 15:0.610278 16:0.0159267 17:0.031571 18:0 19:0 20:0 21:0 22:0 23:0 24:1 25:0.187385 26:0.110319 27:0.0208771 28:0.0884976 29:0.112587 30:0.0691359 31:0.0902753 32:0.305127 33:0.00888184 34:0.00691427 35:0.029267 36:0.0693565 37:0.0553027 38:0.131329 39:0.21223 40:0.0642492 41:0.0620436 42:0.0561444 43:0.244688 44:0.0753895 45:0.00116661 46:0.00333933 47:0.00435858 48:0.922302 49:0.0451718 50:0.00039345 51:0.0183982 52:0.00364311 53:0.00102324 54:0.000204053 
1 1:0.979212 2:0.019899 3:0.000380561 4:0.000508282 5:0.554251 6:0.00113194 7:0.0913322 8:0.783562 9:0.00481769 10:0.00363492 11:0.00730723 12:0.0145794 13:0.00388335 14:0.0200187 15:0.00672468 16:0.008428 17:0.929474 18:0 19:0 20:0 21:0 22:0 23:0 24:0 25:0.0657255 26:0.0702912 27:0.00451368 28:0.0440326 29:0.439428 30:0.026318 31:0.0902026 32:0.255588 33:0.00246328 34:0.00143778 35:0.1 36:0.1 37:0.1 38:0.1 39:0.1 40:0.1 41:0.1 42:0.1 43:0.1 44:0.1 45:0.00637108 46:0.176463 47:0.00750859 48:0.47518 49:0.0414205 50:0.0136066 51:0.200131 52:0.075103 53:0.00179533 54:0.00242088 
1 1:0.913584 2:0.0113905 3:0.00235123 4:0.0726741 5:0.942289 6:0.0139475 7:0.194202 8:0.544489 9:0.0899942 10:0.0392494 11:0.00714234 12:0.266633 13:0.0459196 14:0.0167784 15:0.0224589 16:0.404792 17:0.0930843 18:0 19:0 20:0 21:0 22:0 23:0 24:0 25:0.0314085 26:0.0349787 27:0.0162576 28:0.128186 29:0.478328 30:0.00376905 31:0.0173193 32:0.285944 33:0.00242809 34:0.00138041 35:0.1 36:0.1 37:0.1 38:0.1 39:0.1 40:0.1 41:0.1 42:0.1 43:0.1 44:0.1 45:0.00686208 46:0.0325938 47:0.0098905 48:0.0724284 49:0.734875 50:0.0033352 51:0.101726 52:0.0284786 53:0.00554221 54:0.00426776 
1 1:0.967975 2:0.0177613 3:0.00214825 4:0.012115 5:0.965413 6:0.00728575 7:0.0531007 8:0.939437 9:0.0260282 10:0.0889057 11:0.0649641 12:0.196914 13:0.36832 14:0.0568932 15:0.0557558 16:0.0532441 17:0.0816891 18:0 19:0 20:0 21:0 22:0 23:0 24:1 25:0.0287408 26:0.0282263 27:0.00683326 28:0.0113772 29:0.294544 30:0.00343826 31:0.0610839 32:0.56331 33:0.00179415 34:0.000652292 35:0.00543064 36:0.0302759 37:0.0512431 38:0.0366965 39:0.803763 40:0.029272 41:0.00585127 42:0.00391568 43:0.016233 44:0.0173193 45:0.1 46:0.1 47:0.1 48:0.1 49:0.1 50:0.1 51:0.1 52:0.1 53:0.1 54:0.1 
1 1:0.65299 2:0.167026 3:0.0408487 4:0.139135 5:0.935234 6:0.0140176 7:0.276513 8:-0.674098 9:0.00975812 10:0.0520076 11:0.402376 12:0.0634267 13:0.361529 14:0.0269709 15:0.0380145 16:0.00995119 17:0.0219487 18:1 19:0 20:0 21:1 22:0 23:0 24:1 25:0.0651463 26:0.0790381 27:0.0148617 28:0.0227905 29:0.225815 30:0.00875565 31:0.177164 32:0.397336 33:0.00461817 34:0.00447411 35:0.00565941 36:0.0335397 37:0.0527994 38:0.0375164 39:0.790991 40:0.030619 41:0.00549454 42:0.00338314 43:0.0209462 44:0.0190507 45:0.0240389 46:0.333352 47:0.0510104 48:0.0757288 49:0.146715 50:0.0115761 51:0.135569 52:0.207995 53:0.00680469 54:0.00720964 
1 1:0.940512 2:0.0484439 3:0.00377917 4:0.00726501 5:0.977035 6:0.00588211 7:0.115892 8:-0.868106 9:0.0202886 10:0.0147225 11:0.0160207 12:0.00552384 13:0.438037 14:0.0819078 15:0.340155 16:0.0209401 17:0.0565224 18:0 19:0 20:0 21:0 22:0 23:0 24:0 25:0.0877278 26:0.0669325 27:0.0339169 28:0.125146 29:0.153704 30:0.0310837 31:0.281286 32:0.199943 33:0.0116324 34:0.00862806 35:0.1 36:0.1 37:0.1 38:0.1 39:0.1 40:0.1 41:0.1 42:0.1 43:0.1 44:0.1 45:0.1 46:0.1 47:0.1 48:0.1 49:0.1 50:0.1 51:0.1 52:0.1 53:0.1 54:0.1 
1 1:0.888542 2:0.063456 3:0.0322603 4:0.0157419 5:0.940453 6:0.00561901 7:0.085454 8:-0.57086 9:0.471562 10:0.0095154 11:0.00326979 12:0.00459495 13:0.0383964 14:0.0438247 15:0.0805135 16:0.0612591 17:0.281445 18:0 19:0 20:0 21:0 22:0 23:0 24:0 25:0.138025 26:0.0735299 27:0.0151176 28:0.0575952 29:0.519743 30:0.0458995 31:0.00505359 32:0.124826 33:0.0146901 34:0.00552019 35:0.1 36:0.1 37:0.1 38:0.1 39:0.1 40:0.1 41:0.1 42:0.1 43:0.1 44:0.1 45:0.1 46:0.1 47:0.1 48:0.1 49:0.1 50:0.1 51:0.1 52:0.1 53:0.1 54:0.1 
1 1:0.888123 2:0.0515807 3:0.0233879 4:0.0369088 5:0.967477 6:0.0473261 7:0.704827 8:0.803601 9:0.0319288 10:0.0318737 11:0.0188652 12:0.0316873 13:0.0255854 14:0.0310871 15:0.00503361 16:0.13634 17:0.640273 18:0 19:0 20:0 21:0 22:0 23:0 24:0 25:0.0404679 26:0.0642006 27:0.0316492 28:0.148864 29:0.341827 30:0.0141602 31:0.0786987 32:0.256327 33:0.0179632 34:0.00584278 35:0.1 36:0.1 37:0.1 38:0.1 39:0.1 40:0.1 41:0.1 42:0.1 43:0.1 44:0.1 45:0.319032 46:0.527882 47:0.0052792 48:0.032563 49:0.0469932 50:0.0104447 51:0.0334781 52:0.0160616 53:0.00508376 54:0.00318215 
1 1:0.996657 2:0.00200373 3:5.31164e-05 4:0.00128591 5:0.865002 6:0.00903636 7:0.426238 8:0.93881 9:0.0265315 10:0.0122021 11:0.515854 12:0.153214 13:0.206127 14:0.0205377 15:0.0216301 16:0.00885627 17:0.026011 18:0 19:0 20:0 21:0 22:0 23:0 24:1 25:0.043901 26:0.112283 27:0.0347451 28:0.532103 29:0.207808 30:0.00878685 31:0.0250672 32:0.0320997 33:0.00191309 34:0.00129302 35:0.00195938 36:0.00524633 37:0.0043417 38:0.025759 39:0.30087 40:0.0243401 41:0.0403904 42:0.577311 43:0.0149777 44:0.00480411 45:0.161946 46:0.0629761 47:0.00896969 48:0.216797 49:0.197606 50:0.010592 51:0.140567 52:0.092003 53:0.0774617 54:0.0310821 
1 1:0.430243 2:0.552939 3:0.010145 4:0.00667356 5:0.920374 6:0.0205779 7:0.33353 8:0.787466 9:0.386324 10:0.0314511 11:0.104893 12:0.168976 13:0.0819314 14:0.0218111 15:0.0292567 16:0.0229073 17:0.131872 18:0 19:0 20:0 21:1 22:0 23:0 24:1 25:0.0292404 26:0.0518456 27:0.0160242 28:0.735846 29:0.088113 30:0.00433933 31:0.00850054 32:0.0526503 33:0.0120679 34:0.0013725 35:0.00182188 36:0.00793789 37:0.00288106 38:0.00821599 39:0.288263 40:0.0164015 41:0.0443666 42:0.610706 43:0.016099 44:0.00330684 45:0.117519 46:0.719781 47:0.00474885 48:0.0227666 49:0.0161195 50:0.0061349 51:0.0810689 52:0.0214071 53:0.00720438 54:0.00325028 
1 1:0.519418 2:0.346003 3:0.0754887 4:0.0590904 5:0.927955 6:0.00438963 7:0.229358 8:-0.996154 9:0.0252194 10:0.0186466 11:0.396616 12:0.188508 13:0.248855 14:0.0256309 15:0.043757 16:0.00952027 17:0.0388563 18:0 19:0 20:0 21:0 22:0 23:0 24:1 25:0.049459 26:0.139794 27:0.0524476 28:0.158499 29:0.0836883 30:0.0435589 31:0.18639 32:0.278074 33:0.00415883 34:0.00392967 35:0.00275019 36:0.00712273 37:0.00347943 38:0.0176312 39:0.303279 40:0.0250422 41:0.0729884 42:0.55277 43:0.0100396 44:0.00489706 45:0.0742116 46:0.0818975 47:0.0260787 48:0.0461176 49:0.568922 50:0.0059856 51:0.0241252 52:0.155692 53:0.0149607 54:0.00200943 
1 1:0.992726 2:0.00282133 3:0.00101886 4:0.00343341 5:0.932865 6:0.00240777 7:0.0231335 8:0.913976 9:0.037963 10:0.109311 11:0.00526528 12:0.00771615 13:0.0715486 14:0.618656 15:0.0253034 16:0.00545723 17:0.116372 18:0 19:0 20:0 21:0 22:0 23:0 24:1 25:0.0166736 26:0.0572715 27:0.018977 28:0.0437649 29:0.235724 30:0.0168195 31:0.344812 32:0.251567 33:0.00741028 34:0.00698074 35:0.00455565 36:0.0151972 37:0.0207967 38:0.00573222 39:0.644233 40:0.0295643 41:0.0351529 42:0.156247 43:0.0214674 44:0.0670538 45:0.0593626 46:0.134035 47:0.0224897 48:0.0765459 49:0.253488 50:0.00955883 51:0.0642213 52:0.358697 53:0.0161503 54:0.00545113 
1 1:0.999636 2:4.65482e-07 3:2.75932e-07 4:0.000363523 5:0.906921 6:0.00907794 7:0.034313 8:0.727184 9:0.054468 10:0.110112 11:0.0460953 12:0.128031 13:0.395878 14:0.0993955 15:0.0160642 16:0.0140223 17:0.126856 18:0 19:0 20:0 21:0 22:0 23:0 24:1 25:0.0212274 26:0.0564686 27:0.0322792 28:0.0462939 29:0.160284 30:0.0253842 31:0.372657 32:0.262102 33:0.0122563 34:0.0110477 35:0.00146924 36:0.00606997 37:0.0099811 38:0.00267793 39:0.704063 40:0.0402049 41:0.0141294 42:0.188465 43:0.00766138 44:0.0252774 45:0.1 46:0.1 47:0.1 48:0.1 49:0.1 50:0.1 51:0.1 52:0.1 53:0.1 54:0.1 
1 1:0.994848 2:0.00443549 3:4.48002e-05 4:0.000671869 5:0.941762 6:0.00501962 7:0.0199981 8:0.854329 9:0.0483952 10:0.164398 11:0.0134836 12:0.0478687 13:0.122722 14:0.430318 15:0.0321728 16:0.0133669 17:0.122255 18:0 19:0 20:0 21:0 22:0 23:0 24:1 25:0.0187592 26:0.0470608 27:0.0204752 28:0.0409 29:0.204866 30:0.0148665 31:0.346778 32:0.290119 33:0.00823422 34:0.00794127 35:0.00223917 36:0.00505031 37:0.00991025 38:0.00396676 39:0.729814 40:0.0414942 41:0.0128744 42:0.151447 43:0.0148419 44:0.028362 45:0.0518309 46:0.303449 47:0.0354896 48:0.279497 49:0.0788262 50:0.00687553 51:0.174566 52:0.0555707 53:0.00895099 54:0.00494491 
1 1:0.914763 2:0.0437266 3:0.00989144 4:0.0316189 5:0.940353 6:0.00862057 7:0.318571 8:0.994976 9:0.00357025 10:0.0225198 11:0.0304256 12:0.00369719 13:0.0711566 14:0.0491492 15:0.0610071 16:0.147701 17:0.602153 18:1 19:0 20:0 21:0 22:0 23:0 24:0 25:0.0236846 26:0.0271844 27:0.0132288 28:0.15618 29:0.295022 30:0.00848619 31:0.00944311 32:0.458236 33:0.0073638 34:0.00117061 35:0.1 36:0.1 37:0.1 38:0.1 39:0.1 40:0.1 41:0.1 42:0.1 43:0.1 44:0.1 45:0.1 46:0.1 47:0.1 48:0.1 49:0.1 50:0.1 51:0.1 52:0.1 53:0.1 54:0.1 
1 1:0.922902 2:0.00114909 3:0.00128548 4:0.074663 5:0.521296 6:0.0398289 7:0.230976 8:0.998118 9:0.131825 10:0.0817552 11:0.0237052 12:0.0757272 13:0.127153 14:0.127538 15:0.161667 16:0.0281737 17:0.202626 18:0 19:0 20:0 21:0 22:0 23:0 24:0 25:0.0318021 26:0.053382 27:0.0192355 28:0.0160082 29:0.342203 30:0.0251752 31:0.424414 32:0.060873 33:0.0221191 34:0.00478753 35:0.00918949 36:0.019161 37:0.0177509 38:0.011821 39:0.346128 40:0.0613932 41:0.0800003 42:0.418598 43:0.0193586 44:0.0165993 45:0.00477607 46:0.010948 47:0.00220697 48:0.00478065 49:0.908366 50:0.000199616 51:0.0472148 52:0.0190213 53:0.00238928 54:9.68556e-05 
1 1:0.995837 2:0.001496 3:5.97723e-05 4:0.00260685 5:0.845708 6:0.00928654 7:0.12089 8:0.769934 9:0.237377 10:0.0367119 11:0.00919802 12:0.0116077 13:0.0367044 14:0.0278432 15:0.293902 16:0.13042 17:0.206949 18:0 19:0 20:0 21:0 22:0 23:0 24:0 25:0.129056 26:0.0688673 27:0.00795957 28:0.0637395 29:0.216315 30:0.0134001 31:0.00872054 32:0.480351 33:0.00908151 34:0.00250943 35:0.00481814 36:0.0135556 37:0.0130676 38:0.0086492 39:0.276942 40:0.0883963 41:0.0542271 42:0.51708 43:0.0138943 44:0.00936984 45:0.00208026 46:0.00823633 47:0.00295963 48:0.0033602 49:0.633718 50:0.000455654 51:0.046493 52:0.289565 53:0.0119859 54:0.00114572 
1 1:0.831538 2:0.0945121 3:0.0188131 4:0.0551368 5:0.812421 6:0.00503966 7:0.224767 8:-0.991131 9:0.064662 10:0.0125115 11:0.0111481 12:0.0258496 13:0.0399558 14:0.0490585 15:0.0656964 16:0.0265564 17:0.699522 18:0 19:0 20:0 21:0 22:0 23:0 24:0 25:0.114532 26:0.0924584 27:0.0106018 28:0.0402576 29:0.255121 30:0.00707318 31:0.0941695 32:0.379889 33:0.00307631 34:0.00282104 35:0.0040065 36:0.0115642 37:0.00963932 38:0.00771308 39:0.303851 40:0.0710494 41:0.0386537 42:0.534362 43:0.0125683 44:0.00659246 45:0.0113514 46:0.402089 47:0.014279 48:0.150804 49:0.171572 50:0.0054349 51:0.104006 52:0.119572 53:0.0173445 54:0.00354853 
1 1:0.390692 2:0.529064 3:0.0369324 4:0.0433114 5:0.955646 6:0.00553217 7:0.290603 8:0.997121 9:0.008369 10:0.0183428 11:0.0148943 12:0.0771179 13:0.040372 14:0.715279 15:0.0198686 16:0.0119505 17:0.0882739 18:0 19:0 20:0 21:1 22:0 23:0 24:0 25:0.108788 26:0.084762 27:0.0462472 28:0.106066 29:0.311665 30:0.0182439 31:0.118034 32:0.194207 33:0.00715004 34:0.00483748 35:0.00800771 36:0.0247378 37:0.0234206 38:0.0105573 39:0.503359 40:0.0595724 41:0.0304249 42:0.299584 43:0.00869193 44:0.0316441 45:0.0612224 46:0.0875806 47:0.00637546 48:0.0214103 49:0.594424 50:0.00757496 51:0.115048 52:0.0987337 53:0.00413717 54:0.00349312 
1 1:0.335381 2:0.551993 3:0.0383348 4:0.0742912 5:0.612787 6:0.0492623 7:0.176521 8:0.990466 9:0.0228396 10:0.224364 11:0.0900331 12:0.0435041 13:0.114306 14:0.0902419 15:0.0152836 16:0.0419163 17:0.30825 18:0 19:0 20:0 21:0 22:0 23:0 24:1 25:0.0542391 26:0.0140607 27:0.0219604 28:0.155735 29:0.653236 30:0.00342404 31:0.0426809 32:0.0511183 33:0.0027282 34:0.000817478 35:0.00681289 36:0.0284855 37:0.0302355 38:0.0112039 39:0.456948 40:0.0729548 41:0.0421146 42:0.289432 43:0.0161326 44:0.0456807 45:0.00708526 46:0.0960934 47:0.0120586 48:0.691035 49:0.0624534 50:0.00700994 51:0.0783479 52:0.0351056 53:0.00549471 54:0.0053165 
1 1:0.437104 2:0.131883 3:0.0519705 4:0.379043 5:0.960131 6:0.00273182 7:0.0353934 8:0.621356 9:0.0201413 10:0.019349 11:0.0119536 12:0.0139869 13:0.0191603 14:0.51334 15:0.0542808 16:0.0537332 17:0.291323 18:0 19:0 20:0 21:0 22:0 23:0 24:1 25:0.0607359 26:0.0684642 27:0.0396828 28:0.0888678 29:0.334831 30:0.0192089 31:0.271934 32:0.106416 33:0.00518923 34:0.0046711 35:0.00684894 36:0.013388 37:0.0131414 38:0.0102221 39:0.109572 40:0.148836 41:0.046354 42:0.625391 43:0.0151948 44:0.0110519 45:0.0720069 46:0.0899428 47:0.0100177 48:0.0301851 49:0.562374 50:0.00892956 51:0.128268 52:0.0884374 53:0.00532843 54:0.00451017 
1 1:0.177147 2:0.102812 3:0.0720929 4:0.647948 5:0.895111 6:0.00438358 7:0.0746676 8:-0.728848 9:0.0441834 10:0.016382 11:0.0145016 12:0.0299278 13:0.0704819 14:0.275703 15:0.0404999 16:0.0111809 17:0.492756 18:0 19:0 20:0 21:0 22:0 23:0 24:1 25:0.0474025 26:0.147014 27:0.0264981 28:0.0510105 29:0.230461 30:0.0537284 31:0.26658 32:0.168186 33:0.00470422 34:0.00441626 35:0.00659514 36:0.00800451 37:0.00835066 38:0.0106552 39:0.349288 40:0.0480097 41:0.0526228 42:0.491769 43:0.0200733 44:0.00463127 45:0.0612224 46:0.0875806 47:0.00637546 48:0.0214103 49:0.594424 50:0.00757496 51:0.115048 52:0.0987337 53:0.00413717 54:0.00349312 
1 1:0.547145 2:0.12618 3:0.0550285 4:0.271646 5:0.886287 6:0.00204539 7:0.0850317 8:0.680343 9:0.00870808 10:0.00932304 11:0.00830949 12:0.0269884 13:0.0148453 14:0.0498222 15:0.024383 16:0.0270333 17:0.828542 18:1 19:0 20:0 21:0 22:0 23:0 24:0 25:0.0304619 26:0.0785224 27:0.0138504 28:0.0254764 29:0.0955888 30:0.0890187 31:0.176586 32:0.485934 33:0.0024176 34:0.00214421 35:0.00661383 36:0.0117388 37:0.0105908 38:0.00788307 39:0.0977246 40:0.125468 41:0.0548535 42:0.666922 43:0.00824784 44:0.00995741 45:0.0535258 46:0.404079 47:0.0139849 48:0.193431 49:0.0795237 50:0.00678506 51:0.115769 52:0.0743777 53:0.0530486 54:0.0054752 
1 1:0.909465 2:0.0743317 3:0.0093464 4:0.00685666 5:0.940519 6:0.00758296 7:0.011371 8:0.839873 9:0.313188 10:0.0211707 11:0.0173164 12:0.047415 13:0.107732 14:0.158871 15:0.0346898 16:0.0593964 17:0.232638 18:0 19:0 20:0 21:0 22:0 23:0 24:0 25:0.0981944 26:0.110131 27:0.0187237 28:0.0512829 29:0.278207 30:0.0516484 31:0.189694 32:0.194709 33:0.00391826 34:0.00349118 35:0.0140757 36:0.024954 37:0.0246616 38:0.018821 39:0.128055 40:0.139524 41:0.101456 42:0.496641 43:0.0271779 44:0.0246332 45:0.0189119 46:0.128884 47:0.00518555 48:0.126757 49:0.250132 50:0.00393483 51:0.351076 52:0.076223 53:0.0369044 54:0.00199097 
1 1:0.99045 2:0.00605311 3:0.000477146 4:0.00301992 5:0.970519 6:0.0193932 7:0.28383 8:0.975786 9:0.163544 10:0.0580518 11:0.0273117 12:0.184909 13:0.0471777 14:0.0414828 15:0.0325349 16:0.0754754 17:0.35012 18:0 19:0 20:0 21:0 22:0 23:0 24:1 25:0.0339852 26:0.0736828 27:0.00494646 28:0.0850207 29:0.449248 30:0.0176748 31:0.129384 32:0.198891 33:0.00469959 34:0.00246664 35:0.1 36:0.1 37:0.1 38:0.1 39:0.1 40:0.1 41:0.1 42:0.1 43:0.1 44:0.1 45:0.1 46:0.1 47:0.1 48:0.1 49:0.1 50:0.1 51:0.1 52:0.1 53:0.1 54:0.1 
1 1:0.977731 2:0.011741 3:0.00300366 4:0.00752405 5:0.684764 6:0.0170349 7:0.410334 8:0.677115 9:0.036216 10:0.0261234 11:0.0894824 12:0.24005 13:0.0470962 14:0.0562536 15:0.0231367 16:0.0722217 17:0.392385 18:0 19:0 20:0 21:0 22:0 23:0 24:1 25:0.0386592 26:0.100733 27:0.00274801 28:0.059947 29:0.619065 30:0.0165013 31:0.0958359 32:0.0607698 33:0.0040002 34:0.00174 35:0.1 36:0.1 37:0.1 38:0.1 39:0.1 40:0.1 41:0.1 42:0.1 43:0.1 44:0.1 45:0.1 46:0.1 47:0.1 48:0.1 49:0.1 50:0.1 51:0.1 52:0.1 53:0.1 54:0.1 
1 1:0.972429 2:0.0171524 3:0.00301737 4:0.0074017 5:0.960722 6:0.0459691 7:0.546329 8:-0.676308 9:0.0836476 10:0.0317374 11:0.0201064 12:0.0390812 13:0.0215256 14:0.0203587 15:0.0491744 16:0.132547 17:0.555852 18:0 19:0 20:0 21:0 22:0 23:0 24:1 25:0.0605383 26:0.038953 27:0.0187237 28:0.145311 29:0.494903 30:0.11116 31:0.0482442 32:0.0633996 33:0.0110017 34:0.00776496 35:0.1 36:0.1 37:0.1 38:0.1 39:0.1 40:0.1 41:0.1 42:0.1 43:0.1 44:0.1 45:0.197244 46:0.333271 47:0.0313352 48:0.104015 49:0.0949311 50:0.0401931 51:0.170986 52:0.0150295 53:0.00821647 54:0.00477979 
1 1:0.996512 2:0.00219213 3:0.000221545 4:0.00107386 5:0.940079 6:0.101182 7:0.411513 8:0.963633 9:0.131785 10:0.34149 11:0.021561 12:0.0764449 13:0.119941 14:0.0940485 15:0.0329285 16:0.0356642 17:0.0449542 18:0 19:0 20:0 21:0 22:0 23:0 24:1 25:0.0245041 26:0.0436206 27:0.0109003 28:0.0198691 29:0.630898 30:0.0112476 31:0.169372 32:0.0753384 33:0.010054 34:0.00419651 35:0.0173909 36:0.0364156 37:0.0178449 38:0.0928885 39:0.718499 40:0.0250771 41:0.0328721 42:0.00921072 43:0.0303237 44:0.0194777 45:0.1 46:0.1 47:0.1 48:0.1 49:0.1 50:0.1 51:0.1 52:0.1 53:0.1 54:0.1 
1 1:0.999245 2:2.18226e-06 3:1.25218e-06 4:0.000751384 5:-0.939822 6:0.0354185 7:0.249361 8:0.761315 9:0.0299801 10:0.0332569 11:0.0524886 12:0.0321012 13:0.0444616 14:0.148901 15:0.0291899 16:0.220456 17:0.373746 18:0 19:0 20:0 21:0 22:0 23:0 24:0 25:0.0264627 26:0.0636924 27:0.0767468 28:0.181012 29:0.270735 30:0.0390347 31:0.233201 32:0.0958884 33:0.0073864 34:0.00584059 35:0.1 36:0.1 37:0.1 38:0.1 39:0.1 40:0.1 41:0.1 42:0.1 43:0.1 44:0.1 45:0.306192 46:0.201633 47:0.00855954 48:0.0945037 49:0.232147 50:0.00402455 51:0.0501662 52:0.0966885 53:0.0040718 54:0.00201383 
1 1:0.996794 2:0.00210161 3:0.000216729 4:0.000887364 5:0.973562 6:0.149946 7:0.801123 8:0.913375 9:0.0196525 10:0.0701078 11:0.0223943 12:0.0338873 13:0.142892 14:0.026143 15:0.0128025 16:0.0251944 17:0.49698 18:0 19:0 20:0 21:0 22:0 23:0 24:1 25:0.0372657 26:0.0721217 27:0.00746573 28:0.146232 29:0.63072 30:0.0101122 31:0.0458749 32:0.0466396 33:0.00225265 34:0.00131598 35:0.1 36:0.1 37:0.1 38:0.1 39:0.1 40:0.1 41:0.1 42:0.1 43:0.1 44:0.1 45:0.1 46:0.1 47:0.1 48:0.1 49:0.1 50:0.1 51:0.1 52:0.1 53:0.1 54:0.1 
1 1:0.96031 2:0.000960423 3:0.00101541 4:0.0377143 5:0.509473 6:0.187242 7:0.742363 8:0.828548 9:0.0180254 10:0.103784 11:0.0504975 12:0.113023 13:0.176673 14:0.0471532 15:0.0234098 16:0.0169845 17:0.263208 18:0 19:0 20:0 21:0 22:0 23:0 24:0 25:0.0814344 26:0.0477833 27:0.00895879 28:0.0921416 29:0.491278 30:0.0559123 31:0.0364132 32:0.182364 33:0.002784 34:0.000931314 35:0.1 36:0.1 37:0.1 38:0.1 39:0.1 40:0.1 41:0.1 42:0.1 43:0.1 44:0.1 45:0.00690769 46:0.00936562 47:0.00277664 48:0.0162031 49:0.668226 50:0.00178866 51:0.0378907 52:0.254105 53:0.00159555 54:0.00114155 
1 1:0.989955 2:0.00810533 3:0.00011367 4:0.00182627 5:-0.916993 6:0.0431494 7:0.290149 8:0.995504 9:0.0363903 10:0.0907138 11:0.0228272 12:0.0384675 13:0.106604 14:0.0159079 15:0.00384115 16:0.0214437 17:0.620655 18:0 19:0 20:0 21:0 22:0 23:0 24:1 25:0.0823487 26:0.0184653 27:0.00693504 28:0.226608 29:0.537619 30:0.00170531 31:0.0187376 32:0.103882 33:0.00290787 34:0.000790592 35:0.1 36:0.1 37:0.1 38:0.1 39:0.1 40:0.1 41:0.1 42:0.1 43:0.1 44:0.1 45:0.1 46:0.1 47:0.1 48:0.1 49:0.1 50:0.1 51:0.1 52:0.1 53:0.1 54:0.1 
1 1:0.994533 2:0.00317424 3:0.000257127 4:0.00203528 5:0.908248 6:0.0366691 7:0.520895 8:0.849433 9:0.00647553 10:0.0483722 11:0.0698515 12:0.0130556 13:0.0974283 14:0.0649511 15:0.0923959 16:0.0901569 17:0.480644 18:0 19:0 20:0 21:0 22:0 23:0 24:0 25:0.0146431 26:0.0603454 27:0.00756606 28:0.096809 29:0.695636 30:0.00689693 31:0.0696217 32:0.0447618 33:0.00247923 34:0.00124088 35:0.00806642 36:0.0413557 37:0.0199215 38:0.202529 39:0.509755 40:0.01587 41:0.139971 42:0.0295345 43:0.0184397 44:0.0145571 45:0.0464003 46:0.164387 47:0.100219 48:0.133601 49:0.109036 50:0.0149415 51:0.139128 52:0.279885 53:0.00957865 54:0.00282436 
1 1:0.930133 2:0.0611023 3:0.00226874 4:0.00649564 5:0.923402 6:0.0420211 7:0.578365 8:0.91602 9:0.00660616 10:0.0357676 11:0.0845545 12:0.00930322 13:0.0519288 14:0.0391162 15:0.126059 16:0.0534374 17:0.551206 18:0 19:0 20:0 21:0 22:0 23:0 24:0 25:0.0195206 26:0.0310482 27:0.010316 28:0.0577332 29:0.772162 30:0.00633661 31:0.0489437 32:0.0502658 33:0.00241803 34:0.00125614 35:0.00909026 36:0.0256684 37:0.0216511 38:0.296228 39:0.0170194 40:0.0169021 41:0.563153 42:0.0113705 43:0.0232434 44:0.0156741 45:0.00467938 46:0.104748 47:0.00970164 48:0.584314 49:0.0217108 50:0.0736543 51:0.0608997 52:0.012763 53:0.115268 54:0.012261 
1 1:0.999839 2:5.09975e-08 3:3.14321e-08 4:0.000160683 5:0.5 6:0.0197929 7:0.268635 8:0.868659 9:0.0106115 10:0.0648537 11:0.00703155 12:0.00772341 13:0.0134099 14:0.0481275 15:0.12393 16:0.0801544 17:0.624365 18:0 19:0 20:0 21:0 22:0 23:0 24:0 25:0.0524223 26:0.0387193 27:0.00973912 28:0.108316 29:0.665672 30:0.0442053 31:0.0500959 32:0.0219983 33:0.00544535 34:0.00338686 35:0.0452571 36:0.353102 37:0.139675 38:0.137569 39:0.0166522 40:0.123269 41:0.0329889 42:0.027389 43:0.0597193 44:0.0643786 45:0.0138637 46:0.281798 47:0.0749588 48:0.141604 49:0.0649726 50:0.0595132 51:0.182464 52:0.0761434 53:0.0310542 54:0.0736271 
1 1:0.95462 2:0.0412795 3:0.00184376 4:0.00225714 5:0.967726 6:0.00816394 7:0.440749 8:0.989393 9:0.0533189 10:0.0141263 11:0.0135154 12:0.0286621 13:0.0279045 14:0.169374 15:0.00371656 16:0.0927892 17:0.588429 18:0 19:0 20:0 21:0 22:0 23:0 24:0 25:0.0562395 26:0.0412857 27:0.00471643 28:0.120563 29:0.0914882 30:0.0580598 31:0.0826964 32:0.539037 33:0.00390239 34:0.00201171 35:0.1 36:0.1 37:0.1 38:0.1 39:0.1 40:0.1 41:0.1 42:0.1 43:0.1 44:0.1 45:0.0837213 46:0.349229 47:0.0636798 48:0.110691 49:0.171229 50:0.017815 51:0.0351797 52:0.112032 53:0.0408445 54:0.0155784 
0.03794966893606059 1:0.999621 2:1.59436e-07 3:1.33975e-07 4:0.000379138 5:0.79067 6:0.0255217 7:0.1786 8:0.9018 9:0.0775175 10:0.0536377 11:0.0205589 12:0.00366546 13:0.192051 14:0.0297506 15:0.0259861 16:0.198499 17:0.372811 18:0 19:0 20:1 21:0 22:0 23:0 24:1 25:0.0720811 26:0.0266204 27:0.0134638 28:0.0771058 29:0.634556 30:0.00855546 31:0.0315347 32:0.131679 33:0.00347507 34:0.000928592 35:0.00618569 36:0.0138167 37:0.0140123 38:0.00970807 39:0.096584 40:0.191823 41:0.0611557 42:0.578635 43:0.0167453 44:0.0113348 45:0.000627465 46:0.00687449 47:0.000259305 48:0.00593014 49:0.809227 50:0.000883197 51:0.0204384 52:0.151176 53:0.00431484 54:0.000269067 
1 1:0.886766 2:0.0538695 3:0.0330097 4:0.026355 5:0.913488 6:0.207195 7:0.664439 8:0.890301 9:0.00856563 10:0.0877842 11:0.0158201 12:0.0122485 13:0.017077 14:0.0273265 15:0.00243123 16:0.0153678 17:0.606184 18:0 19:0 20:1 21:0 22:0 23:0 24:0 25:0.046337 26:0.0337844 27:0.0108472 28:0.0510632 29:0.150468 30:0.0371235 31:0.0472928 32:0.606963 33:0.0130706 34:0.00304963 35:0.1 36:0.1 37:0.1 38:0.1 39:0.1 40:0.1 41:0.1 42:0.1 43:0.1 44:0.1 45:0.00318067 46:0.00580918 47:0.0019129 48:0.0318435 49:0.797588 50:0.00548987 51:0.12047 52:0.0244182 53:0.00623035 54:0.00305808 
1 1:0.992067 2:0.0035438 3:0.000814502 4:0.00357445 5:0.953187 6:0.0558074 7:0.527732 8:0.844105 9:0.0404626 10:0.040674 11:0.0170548 12:0.0224093 13:0.0371526 14:0.0235075 15:0.00934893 16:0.0482648 17:0.705318 18:0 19:0 20:1 21:0 22:0 23:0 24:0 25:0.127224 26:0.0863308 27:0.0312446 28:0.122946 29:0.269312 30:0.0404117 31:0.0620572 32:0.233428 33:0.0184682 34:0.00857698 35:0.1 36:0.1 37:0.1 38:0.1 39:0.1 40:0.1 41:0.1 42:0.1 43:0.1 44:0.1 45:0.0206913 46:0.342444 47:0.0139696 48:0.0337228 49:0.461139 50:0.00291989 51:0.0712402 52:0.0368834 53:0.0122696 54:0.00472017 
1 1:0.995372 2:0.00346512 3:9.12147e-05 4:0.00107138 5:0.931068 6:0.0103308 7:0.13549 8:0.994224 9:0.0115499 10:0.062538 11:0.0103741 12:0.00832178 13:0.00795517 14:0.0171685 15:0.00662564 16:0.686046 17:0.17909 18:0 19:0 20:0 21:0 22:0 23:0 24:0 25:0.04009 26:0.0154135 27:0.0321248 28:0.811204 29:0.0464152 30:0.00451149 31:0.02183 32:0.0230063 33:0.00395369 34:0.00145111 35:0.1 36:0.1 37:0.1 38:0.1 39:0.1 40:0.1 41:0.1 42:0.1 43:0.1 44:0.1 45:0.0128568 46:0.670131 47:0.0118843 48:0.0341232 49:0.0838692 50:0.00863168 51:0.0622464 52:0.0626497 53:0.0472966 54:0.00631075 
1 1:0.720799 2:0.0863972 3:0.0338755 4:0.158929 5:0.960046 6:0.0226148 7:0.0669575 8:-0.951292 9:0.0110151 10:0.241298 11:0.0451251 12:0.00740714 13:0.186693 14:0.0937282 15:0.328389 16:0.00964147 17:0.0540879 18:0 19:0 20:0 21:0 22:0 23:0 24:1 25:0.0533511 26:0.273185 27:0.0121332 28:0.0172447 29:0.051807 30:0.0188298 31:0.506458 32:0.0596188 33:0.0054733 34:0.00189907 35:0.0349293 36:0.0652535 37:0.0340405 38:0.0301301 39:0.719041 40:0.0330411 41:0.0277845 42:0.00895559 43:0.0225632 44:0.0242612 45:0.0469015 46:0.601234 47:0.00391804 48:0.00451087 49:0.104453 50:0.00201587 51:0.0148415 52:0.207528 53:0.0132206 54:0.00137656 
1 1:0.994753 2:0.0040198 3:0.000253211 4:0.000974468 5:0.667072 6:0.0253186 7:0.231552 8:0.97156 9:0.0721461 10:0.102208 11:0.119024 12:0.189055 13:0.23887 14:0.0658235 15:0.0142225 16:0.0323119 17:0.14102 18:0 19:0 20:0 21:0 22:0 23:0 24:0 25:0.166405 26:0.0897964 27:0.0106375 28:0.0306245 29:0.279959 30:0.0296726 31:0.105004 32:0.281632 33:0.00318216 34:0.00308746 35:0.1 36:0.1 37:0.1 38:0.1 39:0.1 40:0.1 41:0.1 42:0.1 43:0.1 44:0.1 45:0.0141093 46:0.0475854 47:0.0194224 48:0.128512 49:0.546036 50:0.00637675 51:0.0225081 52:0.204591 53:0.00563437 54:0.00522534 
1 1:0.600866 2:0.339386 3:0.031004 4:0.028744 5:-0.755249 6:0.00274447 7:0.167957 8:-0.733125 9:0.282899 10:0.0148659 11:0.00208374 12:0.0464509 13:0.0805073 14:0.00474583 15:0.0211832 16:0.110335 17:0.434185 18:0 19:0 20:0 21:0 22:0 23:0 24:1 25:0.032819 26:0.0100513 27:0.00350324 28:0.0962769 29:0.367903 30:0.00102888 31:0.0171077 32:0.46544 33:0.00524419 34:0.00062624 35:0.1 36:0.1 37:0.1 38:0.1 39:0.1 40:0.1 41:0.1 42:0.1 43:0.1 44:0.1 45:0.0460106 46:0.468512 47:0.011674 48:0.25222 49:0.0322123 50:0.00776916 51:0.0210829 52:0.0976191 53:0.0551025 54:0.00779758 
1 1:0.998004 2:0.0016133 3:9.04519e-05 4:0.000292744 5:0.907004 6:0.044406 7:0.321733 8:0.899647 9:0.0118717 10:0.0563577 11:0.0467177 12:0.0114499 13:0.0698769 14:0.115541 15:0.00338408 16:0.0467353 17:0.59366 18:0 19:0 20:0 21:0 22:0 23:0 24:0 25:0.15262 26:0.127686 27:0.0196094 28:0.0705867 29:0.145288 30:0.016374 31:0.140753 32:0.321113 33:0.00399439 34:0.00197565 35:0.1 36:0.1 37:0.1 38:0.1 39:0.1 40:0.1 41:0.1 42:0.1 43:0.1 44:0.1 45:0.00249526 46:0.0250599 47:0.00642039 48:0.810503 49:0.118024 50:0.00108906 51:0.0296489 52:0.00470693 53:0.00115728 54:0.000895388 
1 1:0.985082 2:0.00965787 3:0.00099783 4:0.00426187 5:0.963 6:0.00762311 7:0.103484 8:0.999873 9:0.0169381 10:0.0273864 11:0.0269706 12:0.00650706 13:0.0923643 14:0.0668733 15:0.270485 16:0.145828 17:0.339024 18:0 19:0 20:0 21:0 22:0 23:0 24:0 25:0.00261673 26:0.0242153 27:0.0349202 28:0.750307 29:0.154067 30:0.00785643 31:0.00578596 32:0.0178103 33:0.0018456 34:0.0005758 35:0.0106326 36:0.0270933 37:0.0270565 38:0.0113953 39:0.619335 40:0.0520103 41:0.0482392 42:0.157418 43:0.0182499 44:0.0285696 45:0.1 46:0.1 47:0.1 48:0.1 49:0.1 50:0.1 51:0.1 52:0.1 53:0.1 54:0.1 
0.7156636478888579 1:0.999595 2:6.5932e-07 3:4.12142e-07 4:0.000404222 5:0.592958 6:0.026643 7:0.111873 8:0.976254 9:0.0100365 10:0.155685 11:0.00597286 12:0.00332223 13:0.0298331 14:0.0414829 15:0.00686012 16:0.485854 17:0.23431 18:0 19:0 20:0 21:0 22:0 23:0 24:0 25:0.00623418 26:0.0199569 27:0.0209346 28:0.924247 29:0.0178689 30:0.00223885 31:0.00448099 32:0.00178924 33:0.00197935 34:0.000270428 35:0.012375 36:0.025499 37:0.0301253 38:0.0177714 39:0.64031 40:0.0505423 41:0.0416319 42:0.12482 43:0.0237086 44:0.0332162 45:0.1 46:0.1 47:0.1 48:0.1 49:0.1 50:0.1 51:0.1 52:0.1 53:0.1 54:0.1 
1 1:0.944474 2:0.0472053 3:0.00243006 4:0.00589065 5:0.864702 6:0.00404256 7:0.0767994 8:0.996662 9:0.0102836 10:0.0453676 11:0.0122791 12:0.00514363 13:0.023828 14:0.0125896 15:0.0710598 16:0.404079 17:0.411328 18:0 19:0 20:0 21:0 22:0 23:0 24:0 25:0.00609329 26:0.00351453 27:0.00210457 28:0.957573 29:0.0269485 30:0.000629136 31:0.000535401 32:0.00103335 33:0.00148656 34:8.12933e-05 35:0.0069614 36:0.0262824 37:0.0280708 38:0.0117507 39:0.551022 40:0.0691249 41:0.0388697 42:0.214341 43:0.0152537 44:0.0383243 45:0.1 46:0.1 47:0.1 48:0.1 49:0.1 50:0.1 51:0.1 52:0.1 53:0.1 54:0.1 
1 1:0.993345 2:0.00170131 3:0.000238608 4:0.00471553 5:0.899573 6:0.0605932 7:0.666431 8:0.995471 9:0.00660075 10:0.0508246 11:0.0899696 12:0.572216 13:0.0425216 14:0.141743 15:0.00885682 16:0.00999416 17:0.0166807 18:0 19:0 20:0 21:0 22:0 23:0 24:0 25:0.0570085 26:0.289584 27:0.108844 28:0.224612 29:0.152006 30:0.0544489 31:0.080842 32:0.0194672 33:0.00665527 34:0.0065313 35:0.00480553 36:0.0115157 37:0.00721194 38:0.0208516 39:0.475022 40:0.0266135 41:0.0632459 42:0.370716 43:0.0119042 44:0.00811362 45:0.0133359 46:0.521449 47:0.011901 48:0.0560253 49:0.270267 50:0.0139316 51:0.0483609 52:0.0566128 53:0.00615378 54:0.0019626 
1 1:0.396115 2:0.400196 3:0.0397801 4:0.163909 5:0.829692 6:0.108189 7:0.604869 8:0.597291 9:0.02208 10:0.0873909 11:0.034895 12:0.10287 13:0.0263824 14:0.0691406 15:0.00879337 16:0.134191 17:0.406068 18:0 19:0 20:0 21:0 22:0 23:0 24:0 25:0.0519286 26:0.100152 27:0.0615211 28:0.0314538 29:0.119151 30:0.114213 31:0.424252 32:0.0812115 33:0.00937379 34:0.00674327 35:0.00354574 36:0.0102487 37:0.0099872 38:0.0308659 39:0.464496 40:0.0273748 41:0.0432423 42:0.38411 43:0.0175737 44:0.0085565 45:0.1 46:0.1 47:0.1 48:0.1 49:0.1 50:0.1 51:0.1 52:0.1 53:0.1 54:0.1 
1 1:0.942474 2:0.028327 3:0.0186975 4:0.0105012 5:0.952994 6:0.109575 7:0.724441 8:-0.513629 9:0.0538242 10:0.0361812 11:0.0272933 12:0.233361 13:0.220338 14:0.0485644 15:0.0215599 16:0.0638981 17:0.185405 18:0 19:0 20:0 21:0 22:0 23:0 24:0 25:0.00634634 26:0.0722286 27:0.223505 28:0.0239473 29:0.0118731 30:0.508001 31:0.0958099 32:0.0185859 33:0.0322154 34:0.00748721 35:0.00451023 36:0.0117892 37:0.0076218 38:0.024432 39:0.430949 40:0.0162889 41:0.0866456 42:0.392813 43:0.0176894 44:0.00726084 45:0.1 46:0.1 47:0.1 48:0.1 49:0.1 50:0.1 51:0.1 52:0.1 53:0.1 54:0.1 
1 1:0.979495 2:0.000880737 3:0.000147012 4:0.0194776 5:0.617232 6:0.144141 7:0.704383 8:-0.570513 9:0.0233247 10:0.0670282 11:0.0191088 12:0.0571705 13:0.0219775 14:0.0324181 15:0.00654194 16:0.539371 17:0.0889182 18:0 19:0 20:0 21:0 22:0 23:0 24:0 25:0.0304701 26:0.0495812 27:0.137261 28:0.136438 29:0.305804 30:0.0180109 31:0.0410281 32:0.271056 33:0.00648846 34:0.00386235 35:0.1 36:0.1 37:0.1 38:0.1 39:0.1 40:0.1 41:0.1 42:0.1 43:0.1 44:0.1 45:0.0592972 46:0.220864 47:0.0299273 48:0.161032 49:0.150546 50:0.0145102 51:0.0895164 52:0.245452 53:0.018112 54:0.0107441 
1 1:0.995018 2:0.00225993 3:0.000512494 4:0.0022098 5:0.850823 6:0.0226479 7:0.160179 8:-0.679592 9:0.00551976 10:0.0892889 11:0.0450519 12:0.00332035 13:0.0178854 14:0.36117 15:0.0936706 16:0.0974809 17:0.263964 18:0 19:0 20:0 21:0 22:0 23:0 24:0 25:0.0447984 26:0.0289619 27:0.0151137 28:0.0527266 29:0.0942216 30:0.056871 31:0.0938755 32:0.608164 33:0.00288771 34:0.0023794 35:0.0016387 36:0.0233006 37:0.00413581 38:0.00985894 39:0.810403 40:0.00189692 41:0.0995513 42:0.0423521 43:0.00401113 44:0.00285158 45:0.056765 46:0.174847 47:0.079989 48:0.0211501 49:0.223424 50:0.0106061 51:0.117779 52:0.286606 53:0.0251479 54:0.00368628 
1 1:0.967396 2:0.01086 3:0.00406144 4:0.0176822 5:0.952051 6:0.00241819 7:0.160128 8:0.5 9:0.00736901 10:0.0136952 11:0.029228 12:0.00820762 13:0.0586432 14:0.190178 15:0.064942 16:0.0608506 17:0.564468 18:0 19:0 20:0 21:0 22:0 23:0 24:0 25:0.0332085 26:0.0372864 27:0.00436499 28:0.0760181 29:0.709005 30:0.00873831 31:0.0513001 32:0.0781879 33:0.00134385 34:0.000546786 35:0.159671 36:0.139004 37:0.113033 38:0.025506 39:0.285818 40:0.0203846 41:0.0272973 42:0.062891 43:0.0222463 44:0.14415 45:0.1 46:0.1 47:0.1 48:0.1 49:0.1 50:0.1 51:0.1 52:0.1 53:0.1 54:0.1 
0.07445350118013969 1:0.996731 2:8.01697e-06 3:8.25785e-06 4:0.0032529 5:-0.971135 6:0.315638 7:0.887999 8:0.611912 9:0.0281582 10:0.0538728 11:0.0576644 12:0.0982124 13:0.0779146 14:0.0149045 15:0.241634 16:0.0167243 17:0.0952768 18:0 19:0 20:0 21:0 22:0 23:0 24:0 25:0.028596 26:0.0455914 27:0.00394196 28:0.0439962 29:0.801188 30:0.00237509 31:0.0276687 32:0.0440358 33:0.00215051 34:0.000455731 35:0.000430594 36:0.00473188 37:0.00155029 38:0.00334983 39:0.958533 40:0.00208256 41:0.00682429 42:0.0131054 43:0.00779695 44:0.00159563 45:0.129763 46:0.301509 47:0.0143612 48:0.0556187 49:0.137771 50:0.0120418 51:0.182107 52:0.140748 53:0.0174689 54:0.00861099 
1 1:0.287878 2:0.022438 3:0.00573511 4:0.683949 5:0.68608 6:0.517758 7:0.729412 8:0.970861 9:0.00772841 10:0.204154 11:0.0235908 12:0.0132781 13:0.0695999 14:0.0082696 15:0.0741711 16:0.017345 17:0.0641054 18:0 19:0 20:0 21:0 22:0 23:0 24:0 25:0.0408021 26:0.169912 27:0.016031 28:0.0151226 29:0.264878 30:0.0744918 31:0.318188 32:0.0854045 33:0.0129094 34:0.00226106 35:0.0159363 36:0.0455637 37:0.027301 38:0.00489288 39:0.762107 40:0.00551173 41:0.0892462 42:0.0131782 43:0.0147999 44:0.0214631 45:0.0442801 46:0.117191 47:0.0225072 48:0.0413394 49:0.610791 50:0.0109422 51:0.0490812 52:0.0944801 53:0.00576572 54:0.00362157 
1 1:0.864398 2:0.0658274 3:0.0153651 4:0.054409 5:-0.963244 6:0.00918381 7:0.230432 8:0.747666 9:0.388062 10:0.0255028 11:0.0128934 12:0.0768853 13:0.0491782 14:0.062517 15:0.104267 16:0.0488667 17:0.222645 18:0 19:0 20:0 21:0 22:0 23:0 24:0 25:0.829274 26:0.0766179 27:0.00971119 28:0.0196349 29:0.0130541 30:0.0174366 31:0.0234926 32:0.00218971 33:0.00170863 34:0.00687995 35:0.00559249 36:0.00832509 37:0.0206483 38:0.0289423 39:0.0124768 40:0.055218 41:0.759466 42:0.0622147 43:0.0105403 44:0.0365759 45:0.0126913 46:0.0418719 47:0.00549581 48:0.285781 49:0.634299 50:0.000813326 51:0.0155244 52:0.0017894 53:0.00105614 54:0.000677701 
1 1:0.998637 2:2.20709e-06 3:1.96147e-06 4:0.00135888 5:0.962564 6:0.0186671 7:0.104944 8:0.876319 9:0.121802 10:0.121211 11:0.0136067 12:0.0206963 13:0.0826342 14:0.023565 15:0.00335792 16:0.584102 17:0.0103571 18:0 19:0 20:0 21:0 22:0 23:0 24:0 25:0.197293 26:0.05709 27:0.0141132 28:0.223657 29:0.301803 30:0.0179737 31:0.0262618 32:0.121005 33:0.0331362 34:0.00766634 35:0.0034244 36:0.00789822 37:0.00657307 38:0.0166896 39:0.57144 40:0.025116 41:0.0602478 42:0.289366 43:0.0125164 44:0.00672862 45:0.0115845 46:0.0270381 47:0.0153368 48:0.429043 49:0.308714 50:0.00481568 51:0.170023 52:0.012195 53:0.0186526 54:0.00259722 
1 1:0.97907 2:0.0161059 3:0.0010691 4:0.00375542 5:0.765942 6:0.0638907 7:0.692007 8:0.990613 9:0.155264 10:0.0159803 11:0.0231286 12:0.0217542 13:0.0203733 14:0.0105269 15:0.0646553 16:0.560619 17:0.0638077 18:0 19:0 20:0 21:0 22:0 23:0 24:0 25:0.0670681 26:0.103839 27:0.11627 28:0.372302 29:0.121904 30:0.0424493 31:0.0321138 32:0.139702 33:0.00241878 34:0.00193378 35:0.0168693 36:0.0517147 37:0.0106521 38:0.749089 39:0.0376803 40:0.0213309 41:0.0316766 42:0.0295085 43:0.0366051 44:0.0148737 45:0.021249 46:0.0442401 47:0.011452 48:0.0851477 49:0.546808 50:0.00673954 51:0.198742 52:0.0739146 53:0.00691475 54:0.00479232 
1 1:0.976128 2:0.0222487 3:0.000301136 4:0.00132236 5:0.769564 6:0.0108184 7:0.2126 8:0.985148 9:0.0452979 10:0.0192973 11:0.0120015 12:0.0139971 13:0.0151525 14:0.00306264 15:0.00874362 16:0.396385 17:0.475244 18:0 19:0 20:0 21:0 22:0 23:0 24:0 25:0.167714 26:0.082302 27:0.0527228 28:0.206744 29:0.185368 30:0.0890411 31:0.137508 32:0.0568551 33:0.0133022 34:0.00844201 35:0.0152516 36:0.0510912 37:0.0126332 38:0.722503 39:0.0423361 40:0.0272955 41:0.034997 42:0.0276312 43:0.0470588 44:0.0192026 45:0.0596438 46:0.389382 47:0.0233958 48:0.176456 49:0.307862 50:0.00690552 51:0.025714 52:0.00638679 53:0.00248464 54:0.00176882 
1 1:0.99896 2:9.05606e-07 3:8.46745e-07 4:0.0010379 5:-0.761335 6:0.0510303 7:0.301527 8:0.993196 9:0.103661 10:0.0823673 11:0.012187 12:0.0172042 13:0.0405343 14:0.0165586 15:0.00940784 16:0.134941 17:0.532108 18:0 19:0 20:0 21:1 22:0 23:0 24:0 25:0.0493059 26:0.0986107 27:0.0110238 28:0.0834623 29:0.653928 30:0.00643373 31:0.0445246 32:0.0494346 33:0.00204448 34:0.00123192 35:0.1 36:0.1 37:0.1 38:0.1 39:0.1 40:0.1 41:0.1 42:0.1 43:0.1 44:0.1 45:0.541758 46:0.0792501 47:0.0132756 48:0.0402317 49:0.24653 50:0.00574576 51:0.0331687 52:0.0290792 53:0.00791733 54:0.00304337 
1 1:0.903294 2:0.0531999 3:0.00684968 4:0.0366561 5:0.965552 6:0.670699 7:0.913394 8:0.986627 9:0.0237691 10:0.0975539 11:0.017371 12:0.00824847 13:0.0304036 14:0.0472021 15:0.0527587 16:0.024769 17:0.0272251 18:0 19:0 20:0 21:0 22:0 23:0 24:1 25:0.427534 26:0.187779 27:0.0528893 28:0.0781127 29:0.0724291 30:0.0344519 31:0.00782982 32:0.1281 33:0.00678986 34:0.00408434 35:0.1 36:0.1 37:0.1 38:0.1 39:0.1 40:0.1 41:0.1 42:0.1 43:0.1 44:0.1 45:0.0197971 46:0.0440565 47:0.00347534 48:0.00995953 49:0.668335 50:0.00198208 51:0.227225 52:0.0230899 53:0.00137303 54:0.000706692 
1 1:0.9992 2:1.28697e-06 3:8.16706e-07 4:0.000797731 5:0.964845 6:0.716986 7:0.80491 8:0.992696 9:0.000932206 10:0.167343 11:0.0536237 12:0.00786281 13:0.0124527 14:0.0184474 15:0.016415 16:0.0044681 17:0.00146927 18:1 19:0 20:0 21:0 22:0 23:0 24:1 25:0.138393 26:0.302569 27:0.0175874 28:0.0550145 29:0.186587 30:0.0161233 31:0.128819 32:0.146216 33:0.00442806 34:0.00426367 35:0.1 36:0.1 37:0.1 38:0.1 39:0.1 40:0.1 41:0.1 42:0.1 43:0.1 44:0.1 45:0.0150852 46:0.0470964 47:0.00452772 48:0.00946119 49:0.841781 50:0.000751492 51:0.0277536 52:0.0523012 53:0.000967543 54:0.000274436 
1 1:0.213607 2:0.529103 3:0.190868 4:0.0664221 5:-0.777565 6:0.819669 7:0.866867 8:0.862292 9:0.000728789 10:0.125036 11:0.0119138 12:0.00975119 13:0.0207838 14:0.00163075 15:0.00505569 16:0.00153273 17:0.00389873 18:0 19:0 20:0 21:0 22:0 23:0 24:1 25:0.146935 26:0.194906 27:0.0123642 28:0.0521599 29:0.296271 30:0.0120192 31:0.0901311 32:0.187876 33:0.00383055 34:0.00350732 35:0.1 36:0.1 37:0.1 38:0.1 39:0.1 40:0.1 41:0.1 42:0.1 43:0.1 44:0.1 45:0.0318802 46:0.101391 47:0.0160679 48:0.0282508 49:0.638465 50:0.0109327 51:0.098949 52:0.0669248 53:0.00378754 54:0.0033517 
1 1:0.997897 2:3.2686e-06 3:3.26601e-06 4:0.00209634 5:-0.960772 6:0.0444395 7:0.40485 8:0.79729 9:0.0176739 10:0.0619513 11:0.00584608 12:0.00259707 13:0.0245536 14:0.36774 15:0.019441 16:0.111248 17:0.34451 18:0 19:0 20:0 21:0 22:0 23:0 24:0 25:0.0739205 26:0.570305 27:0.0277521 28:0.0788159 29:0.182037 30:0.00602335 31:0.021843 32:0.0288704 33:0.00550891 34:0.00492419 35:0.00249391 36:0.0423669 37:0.00596074 38:0.869647 39:0.0428615 40:0.00726431 41:0.00815901 42:0.0141753 43:0.00372326 44:0.00334835 45:0.0741354 46:0.215959 47:0.0180331 48:0.0450718 49:0.437161 50:0.00339702 51:0.0627022 52:0.131472 53:0.00885764 54:0.00321021 
1 1:0.990453 2:0.00504096 3:0.00119555 4:0.00331034 5:0.783596 6:0.0423252 7:0.18061 8:-0.9063 9:0.0136407 10:0.156694 11:0.0477903 12:0.044514 13:0.146518 14:0.141541 15:0.295407 16:0.0635296 17:0.0480404 18:0 19:0 20:0 21:0 22:0 23:0 24:0 25:0.0701385 26:0.132519 27:0.0487949 28:0.279544 29:0.216691 30:0.0264158 31:0.0912393 32:0.122732 33:0.00649543 34:0.00543039 35:0.00433542 36:0.015004 37:0.00395826 38:0.858337 39:0.00882076 40:0.00522138 41:0.0195142 42:0.0348167 43:0.0478133 44:0.00217941 45:0.00047061 46:0.0036199 47:0.000132499 48:0.00726065 49:0.921814 50:0.000105353 51:0.013287 52:0.0510026 53:0.00227921 54:2.87178e-05 
1 1:0.999471 2:2.84908e-07 3:2.73887e-07 4:0.00052829 5:0.860433 6:0.180805 7:0.433008 8:0.958686 9:0.0154129 10:0.19836 11:0.0403209 12:0.0114834 13:0.0924418 14:0.0856619 15:0.271537 16:0.0559214 17:0.0480554 18:0 19:0 20:0 21:0 22:0 23:0 24:0 25:0.11386 26:0.0759279 27:0.0188416 28:0.189625 29:0.375618 30:0.0268658 31:0.0723448 32:0.0340658 33:0.0737138 34:0.0191376 35:0.0876359 36:0.67625 37:0.0260515 38:0.012797 39:0.100348 40:0.0136593 41:0.0318811 42:0.00720902 43:0.00841548 44:0.0357534 45:0.0591629 46:0.739151 47:0.00977013 48:0.0309121 49:0.0523337 50:0.012689 51:0.0375214 52:0.0101093 53:0.0365648 54:0.0117855 
