svm_type c_svc
kernel_type rbf
gamma 100
nr_class 2
total_sv 243
rho 0.278962
label 0 1
probA -1.53238
probB 0.362721
nr_sv 134 109
SV
0.3468578351869927 1:0.07699115 2:0.085840708 3:0.054867257 4:0.084955752 5:0.02920354 6:0.012389381 7:0.015929204 8:0.025663717 9:0.026548673 10:0.011504425 11:0.079646018 12:0.10619469 13:0.057522124 14:0.03539823 15:0.02920354 16:0.037168142 17:0.080530973 18:0.021238938 19:0.072566372 20:0.056637168 
4.111029483217836 1:0.076119403 2:0.067164179 3:0.065671642 4:0.073134328 5:0.053731343 6:0.020895522 7:0.028358209 8:0.044776119 9:0.050746269 10:0.025373134 11:0.065671642 12:0.052238806 13:0.055223881 14:0.035820896 15:0.02238806 16:0.059701493 17:0.073134328 18:0.023880597 19:0.06119403 20:0.044776119 
0.1123616312777461 1:0.10026385 2:0.081794195 3:0.08707124 4:0.055408971 5:0.079155673 6:0.036939314 7:0.026385224 8:0.050131926 9:0.013192612 10:0.0079155673 11:0.055408971 12:0.068601583 13:0.058047493 14:0.029023747 15:0.021108179 16:0.050131926 17:0.052770449 18:0.015831135 19:0.094986807 20:0.015831135 
1.687415883550645 1:0.10582011 2:0.087301587 3:0.084656085 4:0.079365079 5:0.074074074 6:0.042328042 7:0.010582011 8:0.047619048 9:0.013227513 10:0.0079365079 11:0.044973545 12:0.047619048 13:0.063492063 14:0.044973545 15:0.013227513 16:0.055555556 17:0.05026455 18:0.015873016 19:0.08994709 20:0.021164021 
5.187061868646967 1:0.029411765 2:0.029411765 3:0.068627451 4:0.10784314 5:0.039215686 6:0 7:0.029411765 8:0.058823529 9:0.039215686 10:0.0098039216 11:0.049019608 12:0.088235294 13:0.058823529 14:0.049019608 15:0.078431373 16:0.068627451 17:0.088235294 18:0.019607843 19:0.068627451 20:0.019607843 
2.879254633862716 1:0.052147239 2:0.049079755 3:0.067484663 4:0.09202454 5:0.064417178 6:0.015337423 7:0.024539877 8:0.039877301 9:0.04601227 10:0.012269939 11:0.064417178 12:0.055214724 13:0.055214724 14:0.052147239 15:0.024539877 16:0.049079755 17:0.085889571 18:0.027607362 19:0.076687117 20:0.04601227 
9.025532300542839 1:0.050793651 2:0.06031746 3:0.079365079 4:0.10793651 5:0.057142857 6:0.022222222 7:0.015873016 8:0.034920635 9:0.034920635 10:0.019047619 11:0.063492063 12:0.053968254 13:0.047619048 14:0.047619048 15:0.041269841 16:0.047619048 17:0.073015873 18:0.028571429 19:0.079365079 20:0.034920635 
0.0893701806441445 1:0.032 2:0.04 3:0.024 4:0.048 5:0.04 6:0.048 7:0.024 8:0.056 9:0.024 10:0.032 11:0.056 12:0.056 13:0.048 14:0.024 15:0.072 16:0.112 17:0.072 18:0.024 19:0.056 20:0.112 
6.669849017308042 1:0.051282051 2:0.052083333 3:0.069711538 4:0.11137821 5:0.052884615 6:0.032852564 7:0.020833333 8:0.040064103 9:0.024839744 10:0.020833333 11:0.024038462 12:0.081730769 13:0.050480769 14:0.041666667 15:0.046474359 16:0.068910256 17:0.0625 18:0.038461538 19:0.071314103 20:0.037660256 
9.172581340679029 1:0.078994614 2:0.044883303 3:0.052064632 4:0.071813285 5:0.037701975 6:0.057450628 7:0.028725314 8:0.028725314 9:0.044883303 10:0.021543986 11:0.030520646 12:0.044883303 13:0.035906643 14:0.053859964 15:0.052064632 16:0.071813285 17:0.1005386 18:0.032315978 19:0.064631957 20:0.046678636 
3.203042529703224 1:0.070559611 2:0.065693431 3:0.055961071 4:0.10705596 5:0.0486618 6:0.0243309 7:0.02919708 8:0.04136253 9:0.03163017 10:0.02189781 11:0.0486618 12:0.085158151 13:0.058394161 14:0.03163017 15:0.0243309 16:0.04136253 17:0.087591241 18:0.01946472 19:0.063260341 20:0.04379562 
8.315724663810991 1:0.077220077 2:0.073359073 3:0.077220077 4:0.065637066 5:0.042471042 6:0.027027027 7:0.011583012 8:0.042471042 9:0.030888031 10:0.027027027 11:0.065637066 12:0.077220077 13:0.038610039 14:0.042471042 15:0.038610039 16:0.054054054 17:0.054054054 18:0.057915058 19:0.061776062 20:0.034749035 
1.405248028693366 1:0.058823529 2:0.021008403 3:0.071428571 4:0.0042016807 5:0.050420168 6:0.046218487 7:0.016806723 8:0.0084033613 9:0.029411765 10:0 11:0.20588235 12:0.096638655 13:0.11764706 14:0.033613445 15:0.06302521 16:0.037815126 17:0.058823529 18:0.012605042 19:0.054621849 20:0.012605042 
1.273869189704432 1:0 2:0.02247191 3:0.056179775 4:0 5:0.02247191 6:0.08988764 7:0.011235955 8:0 9:0 10:0 11:0.30337079 12:0.02247191 13:0.056179775 14:0.011235955 15:0.20224719 16:0 17:0.06741573 18:0.011235955 19:0.12359551 20:0 
1.082620066361502 1:0.033653846 2:0.15384615 3:0.038461538 4:0.024038462 5:0 6:0 7:0 8:0.0096153846 9:0.0048076923 10:0.0048076923 11:0.0625 12:0.086538462 13:0.076923077 14:0.033653846 15:0.0625 16:0.048076923 17:0.16826923 18:0.0048076923 19:0.16826923 20:0.019230769 
0.732255847420388 1:0.067961165 2:0.048543689 3:0.077669903 4:0.067961165 5:0.067961165 6:0 7:0.019417476 8:0.029126214 9:0.058252427 10:0 11:0.058252427 12:0.029126214 13:0.067961165 14:0.048543689 15:0.058252427 16:0.038834951 17:0.11650485 18:0.029126214 19:0.087378641 20:0.029126214 
1.259025377087732 1:0.094262295 2:0.079918033 3:0.014344262 4:0.020491803 5:0.006147541 6:0 7:0.006147541 8:0.0081967213 9:0.0081967213 10:0.0040983607 11:0.043032787 12:0.11270492 13:0.022540984 14:0.0081967213 15:0.016393443 16:0.10655738 17:0.11065574 18:0.006147541 19:0.30122951 20:0.030737705 
1.075335020650991 1:0.14814815 2:0.049382716 3:0.074074074 4:0.037037037 5:0.049382716 6:0.024691358 7:0.037037037 8:0.086419753 9:0.012345679 10:0.0061728395 11:0.024691358 12:0.080246914 13:0.061728395 14:0.043209877 15:0.024691358 16:0.055555556 17:0.055555556 18:0.024691358 19:0.086419753 20:0.018518519 
8.675176315948844 1:0.040816327 2:0.081632653 3:0.081632653 4:0.06122449 5:0.030612245 6:0.010204082 7:0.020408163 8:0.071428571 9:0.030612245 10:0 11:0.040816327 12:0.051020408 13:0.071428571 14:0.040816327 15:0.06122449 16:0.051020408 17:0.091836735 18:0.030612245 19:0.1122449 20:0.020408163 
3.82093736937507 1:0.054862843 2:0.089775561 3:0.06234414 4:0.12967581 5:0.029925187 6:0.0049875312 7:0.017456359 8:0.014962594 9:0.019950125 10:0.0024937656 11:0.037406484 12:0.054862843 13:0.087281796 14:0.027431421 15:0.072319202 16:0.06234414 17:0.094763092 18:0.019950125 19:0.082294264 20:0.034912718 
2.28982650503076 1:0.097859327 2:0.11620795 3:0.097859327 4:0.12844037 5:0.012232416 6:0.018348624 7:0.018348624 8:0.039755352 9:0.018348624 10:0.003058104 11:0.06116208 12:0.058103976 13:0.048929664 14:0.01529052 15:0.024464832 16:0.051987768 17:0.070336391 18:0.021406728 19:0.027522936 20:0.070336391 
0.5949682491774898 1:0.07208589 2:0.095092025 3:0.04601227 4:0.059815951 5:0.02607362 6:0.015337423 7:0.009202454 8:0.029141104 9:0.01993865 10:0.012269939 11:0.11042945 12:0.078220859 13:0.047546012 14:0.013803681 15:0.055214724 16:0.053680982 17:0.14417178 18:0.016871166 19:0.036809816 20:0.058282209 
1.231075391163163 1:0.05238829 2:0.1155624 3:0.049306626 4:0.069337442 5:0.026194145 6:0.012326656 7:0.013867488 8:0.027734977 9:0.013867488 10:0.0092449923 11:0.097072419 12:0.064714946 13:0.053929122 14:0.021571649 15:0.057010786 16:0.053929122 17:0.15254237 18:0.018489985 19:0.033898305 20:0.057010786 
10 1:0.0625 2:0.059375 3:0.04375 4:0.1125 5:0.040625 6:0.025 7:0.0125 8:0.046875 9:0.0375 10:0.00625 11:0.06875 12:0.11875 13:0.053125 14:0.05625 15:0.040625 16:0.053125 17:0.053125 18:0.021875 19:0.046875 20:0.040625 
7.153915361504163 1:0.0859375 2:0.083333333 3:0.046875 4:0.14583333 5:0.0234375 6:0.0234375 7:0.013020833 8:0.0390625 9:0.026041667 10:0.0078125 11:0.080729167 12:0.1015625 13:0.026041667 14:0.033854167 15:0.036458333 16:0.0390625 17:0.072916667 18:0.015625 19:0.020833333 20:0.078125 
1.492194143540069 1:0.092807425 2:0.11136891 3:0.067285383 4:0.076566125 5:0.062645012 6:0.018561485 7:0.032482599 8:0.027842227 9:0.027842227 10:0.0092807425 11:0.041763341 12:0.060324826 13:0.046403712 14:0.048723898 15:0.032482599 16:0.060324826 17:0.055684455 18:0.011600928 19:0.078886311 20:0.032482599 
8.769460558147152 1:0.068115942 2:0.08115942 3:0.071014493 4:0.11449275 5:0.044927536 6:0.02173913 7:0.011594203 8:0.034782609 9:0.023188406 10:0.020289855 11:0.049275362 12:0.065217391 13:0.062318841 14:0.043478261 15:0.05942029 16:0.037681159 17:0.065217391 18:0.017391304 19:0.046376812 20:0.062318841 
1.030381325185659 1:0.11450382 2:0.061068702 3:0.1221374 4:0.045801527 5:0.038167939 6:0 7:0.015267176 8:0.038167939 9:0.053435115 10:0.0076335878 11:0.0076335878 12:0.10687023 13:0.06870229 14:0.038167939 15:0.022900763 16:0.091603053 17:0.045801527 18:0.0076335878 19:0.091603053 20:0.022900763 
3.500097896960463 1:0.074074074 2:0.059259259 3:0.074074074 4:0.066666667 5:0.037037037 6:0.044444444 7:0.051851852 8:0.02962963 9:0.014814815 10:0.014814815 11:0.0074074074 12:0.037037037 13:0.11111111 14:0.037037037 15:0.037037037 16:0.059259259 17:0.088888889 18:0.014814815 19:0.1037037 20:0.037037037 
2.268116933589813 1:0.075757576 2:0.045454545 3:0.075757576 4:0.10606061 5:0.053030303 6:0.0075757576 7:0.015151515 8:0.045454545 9:0.015151515 10:0.015151515 11:0.0075757576 12:0.045454545 13:0.14393939 14:0.022727273 15:0.022727273 16:0.083333333 17:0.060606061 18:0.022727273 19:0.10606061 20:0.03030303 
0.4937089130493904 1:0.086614173 2:0.023622047 3:0.078740157 4:0.062992126 5:0.094488189 6:0.0078740157 7:0.031496063 8:0.062992126 9:0.0078740157 10:0 11:0.0078740157 12:0.05511811 13:0.094488189 14:0.05511811 15:0.05511811 16:0.031496063 17:0.1023622 18:0.0078740157 19:0.11811024 20:0.015748031 
4.302414370406574 1:0.035830619 2:0.048859935 3:0.053745928 4:0.091205212 5:0.048859935 6:0.024429967 7:0.042345277 8:0.050488599 9:0.026058632 10:0.006514658 11:0.034201954 12:0.10260586 13:0.058631922 14:0.058631922 15:0.053745928 16:0.060260586 17:0.052117264 18:0.035830619 19:0.053745928 20:0.061889251 
2.001167070167335 1:0.051239669 2:0.061157025 3:0.062809917 4:0.095867769 5:0.05785124 6:0.041322314 7:0.023140496 8:0.024793388 9:0.031404959 10:0.023140496 11:0.036363636 12:0.082644628 13:0.056198347 14:0.044628099 15:0.033057851 16:0.061157025 17:0.05785124 18:0.026446281 19:0.052892562 20:0.076033058 
4.145041476889205 1:0.093373494 2:0.10542169 3:0.10542169 4:0.060240964 5:0.063253012 6:0.0090361446 7:0.021084337 8:0.045180723 9:0.027108434 10:0.0090361446 11:0.036144578 12:0.069277108 13:0.069277108 14:0.051204819 15:0.012048193 16:0.06626506 17:0.036144578 18:0.012048193 19:0.078313253 20:0.030120482 
0.8506620548569214 1:0.073476703 2:0.071684588 3:0.05734767 4:0.094982079 5:0.05734767 6:0.0071684588 7:0.02688172 8:0.050179211 9:0.025089606 10:0.021505376 11:0.039426523 12:0.051971326 13:0.066308244 14:0.050179211 15:0.051971326 16:0.048387097 17:0.05734767 18:0.037634409 19:0.062724014 20:0.048387097 
1.501078432795509 1:0.071111111 2:0.066666667 3:0.11111111 4:0.15555556 5:0.017777778 6:0.022222222 7:0.013333333 8:0.017777778 9:0.035555556 10:0.013333333 11:0.071111111 12:0.044444444 13:0.035555556 14:0.0088888889 15:0.031111111 16:0.075555556 17:0.066666667 18:0.022222222 19:0.048888889 20:0.071111111 
5.588122624816691 1:0.045751634 2:0.08496732 3:0.045751634 4:0.13071895 5:0.019607843 6:0.032679739 7:0.013071895 8:0.045751634 9:0.026143791 10:0.026143791 11:0.039215686 12:0.058823529 13:0.045751634 14:0.039215686 15:0.026143791 16:0.071895425 17:0.065359477 18:0.058823529 19:0.098039216 20:0.026143791 
7.316764963030552 1:0.073333333 2:0.066666667 3:0.053333333 4:0.10666667 5:0.04 6:0.013333333 7:0.06 8:0.06 9:0.026666667 10:0.013333333 11:0.026666667 12:0.066666667 13:0.053333333 14:0.06 15:0.04 16:0.073333333 17:0.026666667 18:0.04 19:0.073333333 20:0.026666667 
9.195230951613718 1:0.082191781 2:0.071232877 3:0.046575342 4:0.057534247 5:0.057534247 6:0.035616438 7:0.016438356 8:0.030136986 9:0.043835616 10:0.021917808 11:0.065753425 12:0.063013699 13:0.052054795 14:0.049315068 15:0.030136986 16:0.079452055 17:0.063013699 18:0.02739726 19:0.046575342 20:0.060273973 
0.2808497125874217 1:0.091152815 2:0.067024129 3:0.045576408 4:0.056300268 5:0.048257373 6:0.029490617 7:0.032171582 8:0.045576408 9:0.040214477 10:0.018766756 11:0.061662198 12:0.056300268 13:0.053619303 14:0.053619303 15:0.032171582 16:0.050938338 17:0.072386059 18:0.029490617 19:0.050938338 20:0.064343164 
8.292800156190243 1:0.069204152 2:0.079584775 3:0.062283737 4:0.083044983 5:0.065743945 6:0.010380623 7:0.031141869 8:0.055363322 9:0.044982699 10:0.010380623 11:0.044982699 12:0.048442907 13:0.055363322 14:0.038062284 15:0.034602076 16:0.062283737 17:0.062283737 18:0.038062284 19:0.079584775 20:0.024221453 
4.826237893322514 1:0.040178571 2:0.049107143 3:0.026785714 4:0.11607143 5:0.058035714 6:0.035714286 7:0.03125 8:0.066964286 9:0.044642857 10:0.017857143 11:0.040178571 12:0.049107143 13:0.035714286 14:0.044642857 15:0.049107143 16:0.075892857 17:0.075892857 18:0.013392857 19:0.080357143 20:0.049107143 
4.047302340617457 1:0.054187192 2:0.093596059 3:0.073891626 4:0.10837438 5:0.034482759 6:0.02955665 7:0.039408867 8:0.049261084 9:0.034482759 10:0.0049261084 11:0.054187192 12:0.034482759 13:0.044334975 14:0.02955665 15:0.019704433 16:0.0591133 17:0.073891626 18:0.024630542 19:0.083743842 20:0.054187192 
2.688247839397554 1:0.037656904 2:0.10041841 3:0.075313808 4:0.15062762 5:0.041841004 6:0.012552301 7:0.016736402 8:0.046025105 9:0.029288703 10:0.020920502 11:0.066945607 12:0.025104603 13:0.050209205 14:0.012552301 15:0.054393305 16:0.062761506 17:0.054393305 18:0.025104603 19:0.066945607 20:0.050209205 
10 1:0.044211196 2:0.075063613 3:0.073791349 4:0.13295165 5:0.047391858 6:0.022264631 7:0.020992366 8:0.030216285 9:0.019720102 10:0.010178117 11:0.059796438 12:0.097328244 13:0.054071247 14:0.028625954 15:0.057888041 16:0.044211196 17:0.06456743 18:0.028307888 19:0.039440204 20:0.048982188 
1.57738832726436 1:0.039797395 2:0.049204052 3:0.03617945 4:0.085383502 5:0.032561505 6:0.005065123 7:0.020984081 8:0.017366136 9:0.017366136 10:0.019536903 11:0.049204052 12:0.049204052 13:0.028219971 14:0.027496382 15:0.049204052 16:0.10202605 17:0.12952243 18:0.016642547 19:0.062228654 20:0.16280753 
1.125027655294852 1:0.014409222 2:0.020172911 3:0.07204611 4:0.083573487 5:0 6:0.0086455331 7:0.0057636888 8:0 9:0.0057636888 10:0.0028818444 11:0.04610951 12:0.051873199 13:0.020172911 14:0 15:0.34005764 16:0.043227666 17:0.16426513 18:0.074927954 19:0.034582133 20:0.011527378 
1.245322475654184 1:0.040492958 2:0.01056338 3:0.033450704 4:0.11443662 5:0.0070422535 6:0.012323944 7:0.0088028169 8:0.0035211268 9:0.0070422535 10:0 11:0.070422535 12:0.044014085 13:0.029929577 14:0.0070422535 15:0.22711268 16:0.029929577 17:0.16373239 18:0.077464789 19:0.095070423 20:0.017605634 
1.959851747091035 1:0.058823529 2:0.053921569 3:0.029411765 4:0.068627451 5:0.024509804 6:0.0098039216 7:0.014705882 8:0.0098039216 9:0.0098039216 10:0.0049019608 11:0.11764706 12:0.098039216 13:0.024509804 14:0.019607843 15:0.06372549 16:0.058823529 17:0.19117647 18:0.024509804 19:0.039215686 20:0.078431373 
4.866193899714433 1:0.087628866 2:0.087628866 3:0.067010309 4:0.10824742 5:0.036082474 6:0.036082474 7:0.010309278 8:0.056701031 9:0.030927835 10:0.010309278 11:0.067010309 12:0.041237113 13:0.036082474 14:0.015463918 15:0.067010309 16:0.046391753 17:0.077319588 18:0.010309278 19:0.067010309 20:0.041237113 
3.33525070420462 1:0.085714286 2:0.047619048 3:0.085714286 4:0.066666667 5:0.047619048 6:0.085714286 7:0 8:0.047619048 9:0.038095238 10:0 11:0.038095238 12:0.12380952 13:0.047619048 14:0.038095238 15:0.019047619 16:0.028571429 17:0.085714286 18:0 19:0.066666667 20:0.047619048 
2.283322984468439 1:0.10714286 2:0.14285714 3:0.035714286 4:0.071428571 5:0.071428571 6:0.035714286 7:0 8:0.035714286 9:0.035714286 10:0 11:0 12:0.071428571 13:0.071428571 14:0.035714286 15:0.071428571 16:0.035714286 17:0.071428571 18:0 19:0.10714286 20:0 
10 1:0.04680468 2:0.04680468 3:0.053105311 4:0.14671467 5:0.0450045 6:0.03690369 7:0.02970297 8:0.03150315 9:0.01980198 10:0.01350135 11:0.03150315 12:0.090009001 13:0.04860486 14:0.04410441 15:0.059405941 16:0.054905491 17:0.073807381 18:0.02070207 19:0.070207021 20:0.03690369 
1.032497492695614 1:0.078895464 2:0.090729783 3:0.078895464 4:0.10848126 5:0.021696252 6:0.019723866 7:0.023668639 8:0.033530572 9:0.019723866 10:0.019723866 11:0.057199211 12:0.069033531 13:0.035502959 14:0.017751479 15:0.033530572 16:0.037475345 17:0.078895464 18:0.039447732 19:0.063116371 20:0.072978304 
1.335531749310964 1:0.070921986 2:0.046099291 3:0.070921986 4:0.085106383 5:0.014184397 6:0.021276596 7:0.042553191 8:0.067375887 9:0.053191489 10:0.024822695 11:0.070921986 12:0.046099291 13:0.039007092 14:0.024822695 15:0.04964539 16:0.10283688 17:0.042553191 18:0.035460993 19:0.053191489 20:0.039007092 
2.70641315898273 1:0.052447552 2:0.073426573 3:0.052447552 4:0.14685315 5:0.017482517 6:0.017482517 7:0.017482517 8:0.031468531 9:0.01048951 10:0.006993007 11:0.15034965 12:0.062937063 13:0.06993007 14:0.020979021 15:0.045454545 16:0.031468531 17:0.062937063 18:0.031468531 19:0.020979021 20:0.076923077 
10 1:0.063324538 2:0.079155673 3:0.065963061 4:0.1055409 5:0.029023747 6:0.026385224 7:0.015831135 8:0.047493404 9:0.031662269 10:0.015831135 11:0.065963061 12:0.055408971 13:0.07651715 14:0.042216359 15:0.058047493 16:0.036939314 17:0.050131926 18:0.044854881 19:0.042216359 20:0.047493404 
0.3052324476504579 1:0.062992126 2:0.062992126 3:0.031496063 4:0.078740157 5:0.094488189 6:0.023622047 7:0.039370079 8:0.062992126 9:0.023622047 10:0.023622047 11:0.039370079 12:0.062992126 13:0.039370079 14:0.039370079 15:0.1023622 16:0.078740157 17:0.031496063 18:0.039370079 19:0.047244094 20:0.015748031 
5.108237479635499 1:0.050410317 2:0.055099648 3:0.053927315 4:0.063305979 5:0.035169988 6:0.017584994 7:0.037514654 8:0.03985932 9:0.052754982 10:0.0082063306 11:0.1137163 12:0.065650645 13:0.043376319 14:0.056271981 15:0.058616647 16:0.051582649 17:0.058616647 18:0.035169988 19:0.046893318 20:0.056271981 
2.216649347989303 1:0.072562358 2:0.0861678 3:0.047619048 4:0.070294785 5:0.020408163 6:0.013605442 7:0.027210884 8:0.024943311 9:0.036281179 10:0.024943311 11:0.031746032 12:0.052154195 13:0.038548753 14:0.036281179 15:0.068027211 16:0.068027211 17:0.11791383 18:0.015873016 19:0.097505669 20:0.049886621 
10 1:0.084183673 2:0.06377551 3:0.068877551 4:0.096938776 5:0.038265306 6:0.025510204 7:0.030612245 8:0.068877551 9:0.025510204 10:0.012755102 11:0.056122449 12:0.056122449 13:0.053571429 14:0.040816327 15:0.053571429 16:0.028061224 17:0.073979592 18:0.028061224 19:0.040816327 20:0.053571429 
1.602053731876607 1:0.1 2:0.04 3:0.08 4:0.08 5:0.06 6:0.12 7:0 8:0.02 9:0.06 10:0 11:0.14 12:0.06 13:0.02 14:0.02 15:0 16:0.02 17:0 18:0.02 19:0.04 20:0.12 
0.8543880335879122 1:0.052631579 2:0.026315789 3:0.026315789 4:0.026315789 5:0.10526316 6:0 7:0 8:0.026315789 9:0.026315789 10:0 11:0.13157895 12:0 13:0.026315789 14:0.078947368 15:0.026315789 16:0.078947368 17:0.026315789 18:0 19:0.078947368 20:0.078947368 
4.13486302968718 1:0.04787234 2:0.058510638 3:0.058510638 4:0.12765957 5:0.090425532 6:0.04787234 7:0.026595745 8:0.037234043 9:0.04787234 10:0.0053191489 11:0.037234043 12:0.10106383 13:0.058510638 14:0.010638298 15:0.042553191 16:0.037234043 17:0.058510638 18:0.015957447 19:0.042553191 20:0.04787234 
4.903603516513479 1:0.041025641 2:0.047435897 3:0.053846154 4:0.06025641 5:0.058974359 6:0.019230769 7:0.016666667 8:0.032051282 9:0.025641026 10:0.011538462 11:0.084615385 12:0.092307692 13:0.069230769 14:0.051282051 15:0.043589744 16:0.062820513 17:0.085897436 18:0.029487179 19:0.061538462 20:0.052564103 
4.317459073277235 1:0.064083458 2:0.050670641 3:0.052160954 4:0.087928465 5:0.052160954 6:0.01490313 7:0.035767511 8:0.026825633 9:0.041728763 10:0.010432191 11:0.056631893 12:0.084947839 13:0.043219076 14:0.059612519 15:0.047690015 16:0.043219076 17:0.086438152 18:0.032786885 19:0.06557377 20:0.043219076 
1.192458038826408 1:0.057620818 2:0.078066914 3:0.065055762 4:0.10966543 5:0.053903346 6:0.024163569 7:0.040892193 8:0.035315985 9:0.022304833 10:0.014869888 11:0.031598513 12:0.05204461 13:0.065055762 14:0.033457249 15:0.035315985 16:0.046468401 17:0.078066914 18:0.024163569 19:0.087360595 20:0.044609665 
0.8345075121567085 1:0.024390244 2:0.048780488 3:0.048780488 4:0.17073171 5:0.048780488 6:0 7:0.024390244 8:0 9:0.097560976 10:0 11:0 12:0.048780488 13:0.048780488 14:0.024390244 15:0 16:0.12195122 17:0.073170732 18:0.048780488 19:0.073170732 20:0 
1.499882558258901 1:0.043956044 2:0.054945055 3:0.076923077 4:0.087912088 5:0.032967033 6:0.021978022 7:0.043956044 8:0.076923077 9:0.010989011 10:0 11:0 12:0.043956044 13:0.032967033 14:0.032967033 15:0.032967033 16:0.076923077 17:0.17582418 18:0.054945055 19:0.087912088 20:0.010989011 
6.242015521549617 1:0.043918919 2:0.037162162 3:0.057432432 4:0.060810811 5:0.064189189 6:0.016891892 7:0.047297297 8:0.054054054 9:0.023648649 10:0.033783784 11:0.050675676 12:0.057432432 13:0.057432432 14:0.040540541 15:0.054054054 16:0.057432432 17:0.077702703 18:0.030405405 19:0.087837838 20:0.047297297 
2.049759134343583 1:0.061381074 2:0.056265985 3:0.058823529 4:0.089514066 5:0.04859335 6:0.0025575448 7:0.028132992 8:0.074168798 9:0.028132992 10:0.010230179 11:0.028132992 12:0.094629156 13:0.058823529 14:0.051150895 15:0.025575448 16:0.04859335 17:0.094629156 18:0.030690537 19:0.084398977 20:0.025575448 
1.204210096543333 1:0.053598775 2:0.062787136 3:0.039816233 4:0.076569678 5:0.050535988 6:0.018376723 7:0.013782542 8:0.019908116 9:0.018376723 10:0.0061255743 11:0.056661562 12:0.087289433 13:0.075038285 14:0.070444104 15:0.052067381 16:0.068912711 17:0.053598775 18:0.019908116 19:0.070444104 20:0.08575804 
1.646722564390605 1:0.097560976 2:0.12195122 3:0.085365854 4:0.10365854 5:0.054878049 6:0.021341463 7:0.024390244 8:0.030487805 9:0.012195122 10:0.018292683 11:0.054878049 12:0.06402439 13:0.045731707 14:0.021341463 15:0.036585366 16:0.027439024 17:0.06097561 18:0.024390244 19:0.070121951 20:0.024390244 
0.2854939139266012 1:0.074550129 2:0.084832905 3:0.038560411 4:0.092544987 5:0.030848329 6:0.01285347 7:0.010282776 8:0.030848329 9:0.025706941 10:0.015424165 11:0.13624679 12:0.06940874 13:0.053984576 14:0.025706941 15:0.071979434 16:0.020565553 17:0.074550129 18:0.038560411 19:0.025706941 20:0.066838046 
3.016054530965707 1:0.09948542 2:0.073756432 3:0.056603774 4:0.097770154 5:0.025728988 6:0.015437393 7:0.027444254 8:0.027444254 9:0.018867925 10:0.0068610635 11:0.11492281 12:0.075471698 13:0.041166381 14:0.036020583 15:0.041166381 16:0.053173242 17:0.063464837 18:0.024013722 19:0.036020583 20:0.065180103 
8.069661539763485 1:0.091428571 2:0.11428571 3:0.062857143 4:0.091428571 5:0.017142857 6:0.085714286 7:0.022857143 8:0.028571429 9:0.022857143 10:0.0057142857 11:0.045714286 12:0.08 13:0.034285714 14:0.0057142857 15:0.057142857 16:0.045714286 17:0.057142857 18:0.022857143 19:0.04 20:0.068571429 
7.528316194606975 1:0.037288136 2:0.13898305 3:0.027118644 4:0.088135593 5:0.057627119 6:0.027118644 7:0.033898305 8:0.044067797 9:0.047457627 10:0.006779661 11:0.010169492 12:0.06779661 13:0.033898305 14:0.040677966 15:0.047457627 16:0.057627119 17:0.094915254 18:0.023728814 19:0.088135593 20:0.027118644 
0.5671821006736328 1:0.17333333 2:0.06 3:0.1 4:0.053333333 5:0.04 6:0.026666667 7:0 8:0.046666667 9:0 10:0 11:0.033333333 12:0.04 13:0.046666667 14:0.053333333 15:0.04 16:0.093333333 17:0.046666667 18:0.046666667 19:0.066666667 20:0.033333333 
2.895899124642423 1:0.088122605 2:0.099616858 3:0.072796935 4:0.18390805 5:0.0076628352 6:0.019157088 7:0.019157088 8:0.026819923 9:0.01532567 10:0.0076628352 11:0.045977011 12:0.076628352 13:0.030651341 14:0.038314176 15:0.042145594 16:0.057471264 17:0.049808429 18:0.0038314176 19:0.053639847 20:0.061302682 
1.708674550632659 1:0.084291188 2:0.11111111 3:0.068965517 4:0.17241379 5:0.0076628352 6:0.022988506 7:0.022988506 8:0.019157088 9:0.022988506 10:0.0076628352 11:0.042145594 12:0.08045977 13:0.038314176 14:0.038314176 15:0.057471264 16:0.057471264 17:0.045977011 18:0.0038314176 19:0.045977011 20:0.049808429 
4.16973342961819 1:0.063897764 2:0.044728435 3:0.060702875 4:0.073482428 5:0.019169329 6:0.086261981 7:0.0095846645 8:0.012779553 9:0.022364217 10:0.0095846645 11:0.076677316 12:0.12460064 13:0.057507987 14:0.031948882 15:0.047923323 16:0.044728435 17:0.044728435 18:0.038338658 19:0.051118211 20:0.079872204 
1.19184760915258 1:0.044117647 2:0.18382353 3:0.044117647 4:0.080882353 5:0.022058824 6:0.014705882 7:0.022058824 8:0.029411765 9:0.022058824 10:0 11:0.029411765 12:0.051470588 13:0.11764706 14:0.036764706 15:0.029411765 16:0.036764706 17:0.044117647 18:0 19:0.14705882 20:0.044117647 
4.607357799074713 1:0.03960396 2:0.099009901 3:0.041018388 4:0.11032532 5:0.046676096 6:0.01980198 7:0.012729844 8:0.024045262 9:0.035360679 10:0.0042432815 11:0.042432815 12:0.079207921 13:0.043847242 14:0.057991513 15:0.066478076 16:0.046676096 17:0.076379066 18:0.0099009901 19:0.079207921 20:0.065063649 
0.1563269972682726 1:0.033962264 2:0.079245283 3:0.067924528 4:0.14716981 5:0.060377358 6:0.024528302 7:0.013207547 8:0.039622642 9:0.013207547 10:0.0037735849 11:0.026415094 12:0.086792453 13:0.045283019 14:0.039622642 15:0.043396226 16:0.062264151 17:0.077358491 18:0.043396226 19:0.037735849 20:0.054716981 
1.314891274251369 1:0.070175439 2:0.031578947 3:0.049122807 4:0.094736842 5:0.080701754 6:0.0070175439 7:0.024561404 8:0.073684211 9:0.035087719 10:0.042105263 11:0.049122807 12:0.063157895 13:0.045614035 14:0.059649123 15:0.024561404 16:0.052631579 17:0.063157895 18:0.014035088 19:0.087719298 20:0.031578947 
1.092592115488655 1:0.040677966 2:0.020338983 3:0.081355932 4:0.06779661 5:0.054237288 6:0.013559322 7:0.047457627 8:0.06779661 9:0.040677966 10:0.020338983 11:0.050847458 12:0.074576271 13:0.044067797 14:0.050847458 15:0.027118644 16:0.057627119 17:0.081355932 18:0.023728814 19:0.10847458 20:0.027118644 
0.556007701069793 1:0 2:0.08 3:0.053333333 4:0.093333333 5:0.026666667 6:0 7:0.026666667 8:0.04 9:0.053333333 10:0.013333333 11:0.026666667 12:0.08 13:0.053333333 14:0.066666667 15:0.026666667 16:0.04 17:0.13333333 18:0.013333333 19:0.16 20:0.013333333 
4.788699582488595 1:0.037647059 2:0.054117647 3:0.04 4:0.091764706 5:0.051764706 6:0.025882353 7:0.011764706 8:0.04 9:0.0094117647 10:0.0047058824 11:0.075294118 12:0.084705882 13:0.072941176 14:0.054117647 15:0.063529412 16:0.072941176 17:0.070588235 18:0.018823529 19:0.068235294 20:0.051764706 
3.408900439861921 1:0.095854922 2:0.067357513 3:0.067357513 4:0.033678756 5:0.041450777 6:0.015544041 7:0.038860104 8:0.041450777 9:0.044041451 10:0.025906736 11:0.059585492 12:0.075129534 13:0.062176166 14:0.059585492 15:0.093264249 16:0.033678756 17:0.041450777 18:0.020725389 19:0.049222798 20:0.033678756 
4.152277259426813 1:0.10755814 2:0.078488372 3:0.058139535 4:0.081395349 5:0.031976744 6:0.0087209302 7:0.020348837 8:0.061046512 9:0.026162791 10:0.0058139535 11:0.081395349 12:0.11918605 13:0.034883721 14:0.043604651 15:0.052325581 16:0.034883721 17:0.055232558 18:0.011627907 19:0.058139535 20:0.029069767 
1.192193094081127 1:0.073469388 2:0.032653061 3:0.053061224 4:0.10204082 5:0.057142857 6:0.032653061 7:0.016326531 8:0.065306122 9:0.032653061 10:0.020408163 11:0.040816327 12:0.06122449 13:0.053061224 14:0.028571429 15:0.036734694 16:0.057142857 17:0.085714286 18:0.028571429 19:0.085714286 20:0.036734694 
10 1:0.035805627 2:0.059676044 3:0.051150895 4:0.11764706 5:0.045183291 6:0.019607843 7:0.034953112 8:0.047740835 9:0.024722933 10:0.0068201194 11:0.057971014 12:0.092924126 13:0.05370844 14:0.038363171 15:0.0571185 16:0.052855925 17:0.074168798 18:0.018755328 19:0.052855925 20:0.057971014 
3.863193625273908 1:0.067264574 2:0.089686099 3:0.076233184 4:0.10313901 5:0.031390135 6:0.02690583 7:0.02690583 8:0.058295964 9:0.0089686099 10:0.0044843049 11:0.040358744 12:0.049327354 13:0.02690583 14:0.049327354 15:0.053811659 16:0.049327354 17:0.098654709 18:0.02690583 19:0.071748879 20:0.040358744 
8.656747420917227 1:0.030848329 2:0.057840617 3:0.059125964 4:0.13496144 5:0.05655527 6:0.019280206 7:0.026992288 8:0.033419023 9:0.026992288 10:0.0077120823 11:0.039845758 12:0.082262211 13:0.055269923 14:0.038560411 15:0.052699229 16:0.043701799 17:0.09125964 18:0.025706941 19:0.074550129 20:0.042416452 
8.758144192699502 1:0.02739726 2:0.037181996 3:0.058708415 4:0.13307241 5:0.088062622 6:0.01369863 7:0.0058708415 8:0.054794521 9:0.031311155 10:0.011741683 11:0.037181996 12:0.095890411 13:0.056751468 14:0.068493151 15:0.025440313 16:0.054794521 17:0.064579256 18:0.023483366 19:0.072407045 20:0.039138943 
4.967714071845927 1:0.035087719 2:0.084795322 3:0.058479532 4:0.10526316 5:0.040935673 6:0.01754386 7:0.029239766 8:0.043859649 9:0.035087719 10:0.01754386 11:0.046783626 12:0.070175439 13:0.058479532 14:0.032163743 15:0.023391813 16:0.061403509 17:0.096491228 18:0.026315789 19:0.055555556 20:0.061403509 
4.989668836714944 1:0.087765957 2:0.071808511 3:0.053191489 4:0.093085106 5:0.058510638 6:0.015957447 7:0.021276596 8:0.037234043 9:0.034574468 10:0.021276596 11:0.063829787 12:0.04787234 13:0.085106383 14:0.045212766 15:0.034574468 16:0.037234043 17:0.071808511 18:0.010638298 19:0.071808511 20:0.037234043 
10 1:0.070559611 2:0.075425791 3:0.075425791 4:0.082725061 5:0.060827251 6:0.01946472 7:0.01216545 8:0.04379562 9:0.04379562 10:0.0072992701 11:0.055961071 12:0.072992701 13:0.063260341 14:0.053527981 15:0.051094891 16:0.04379562 17:0.0486618 18:0.02919708 19:0.055961071 20:0.03406326 
1.869011767755952 1:0.020833333 2:0.045833333 3:0.045833333 4:0.1375 5:0.075 6:0.016666667 7:0.020833333 8:0.058333333 9:0.045833333 10:0 11:0.05 12:0.054166667 13:0.041666667 14:0.033333333 15:0.083333333 16:0.066666667 17:0.058333333 18:0.029166667 19:0.070833333 20:0.045833333 
0.780260214232483 1:0.13580247 2:0.043209877 3:0.074074074 4:0.055555556 5:0.055555556 6:0.012345679 7:0.018518519 8:0.086419753 9:0.024691358 10:0.0061728395 11:0.037037037 12:0.067901235 13:0.074074074 14:0.043209877 15:0.030864198 16:0.061728395 17:0.043209877 18:0.018518519 19:0.086419753 20:0.024691358 
2.760329413801554 1:0.047058824 2:0.10588235 3:0.070588235 4:0.035294118 5:0.082352941 6:0.011764706 7:0.047058824 8:0.11764706 9:0.023529412 10:0.011764706 11:0.011764706 12:0.058823529 13:0.047058824 14:0.011764706 15:0.035294118 16:0.035294118 17:0.070588235 18:0.047058824 19:0.094117647 20:0.035294118 
4.784589643517085 1:0.033854167 2:0.0625 3:0.067708333 4:0.109375 5:0.0546875 6:0.0078125 7:0.0234375 8:0.065104167 9:0.026041667 10:0.0052083333 11:0.049479167 12:0.067708333 13:0.057291667 14:0.033854167 15:0.049479167 16:0.057291667 17:0.072916667 18:0.026041667 19:0.049479167 20:0.080729167 
6.017794099402231 1:0.038126362 2:0.061002179 3:0.055555556 4:0.12091503 5:0.082788671 6:0.017429194 7:0.030501089 8:0.051198257 9:0.022875817 10:0.013071895 11:0.040305011 12:0.074074074 13:0.050108932 14:0.062091503 15:0.040305011 16:0.076252723 17:0.069716776 18:0.020697168 19:0.047930283 20:0.025054466 
3.194294586675123 1:0.055944056 2:0.087412587 3:0.059440559 4:0.06993007 5:0.076923077 6:0.006993007 7:0.006993007 8:0.034965035 9:0.034965035 10:0.020979021 11:0.062937063 12:0.045454545 13:0.055944056 14:0.059440559 15:0.024475524 16:0.08041958 17:0.076923077 18:0.020979021 19:0.094405594 20:0.024475524 
0.2994364076736959 1:0.074468085 2:0.063829787 3:0.090425532 4:0.10106383 5:0.087765957 6:0.013297872 7:0.021276596 8:0.02393617 9:0.026595745 10:0 11:0.053191489 12:0.098404255 13:0.037234043 14:0.063829787 15:0.042553191 16:0.053191489 17:0.037234043 18:0.029255319 19:0.045212766 20:0.037234043 
1.439976504743482 1:0.094808126 2:0.088036117 3:0.074492099 4:0.079006772 5:0.054176072 6:0.0022573363 7:0.0022573363 8:0.058690745 9:0.045146727 10:0.0090293454 11:0.0496614 12:0.065462754 13:0.054176072 14:0.0496614 15:0.040632054 16:0.047404063 17:0.060948081 18:0.036117381 19:0.060948081 20:0.027088036 
0.9834355292363312 1:0.03985932 2:0.071512309 3:0.038686987 4:0.11606096 5:0.051582649 6:0.0093786635 7:0.017584994 8:0.048065651 9:0.055099648 10:0.0093786635 11:0.033997655 12:0.067995311 13:0.033997655 14:0.055099648 15:0.042203986 16:0.069167644 17:0.070339977 18:0.014067995 19:0.11254396 20:0.043376319 
5.162375886391567 1:0.020972355 2:0.043851287 3:0.052430887 4:0.12964728 5:0.045757865 6:0.013346044 7:0.026692088 8:0.05815062 9:0.035271687 10:0.0076263108 11:0.03336511 12:0.09914204 13:0.04957102 14:0.056244042 15:0.03336511 16:0.055290753 17:0.096282173 18:0.017159199 19:0.070543375 20:0.055290753 
0.7265136864806609 1:0.035476718 2:0.062084257 3:0.075388027 4:0.093126386 5:0.046563193 6:0.0088691796 7:0.011086475 8:0.075388027 9:0.035476718 10:0.019955654 11:0.044345898 12:0.046563193 13:0.055432373 14:0.046563193 15:0.033259424 16:0.070953437 17:0.084257206 18:0.022172949 19:0.077605322 20:0.055432373 
2.362160879995013 1:0.04 2:0.04 3:0.056 4:0.112 5:0.048 6:0 7:0.024 8:0.08 9:0.048 10:0 11:0.04 12:0.072 13:0.064 14:0.08 15:0.096 16:0.08 17:0.04 18:0.016 19:0.024 20:0.04 
4.082857597711998 1:0.041420118 2:0.073964497 3:0.062130178 4:0.076923077 5:0.082840237 6:0.020710059 7:0.026627219 8:0.071005917 9:0.01183432 10:0.0029585799 11:0.023668639 12:0.085798817 13:0.056213018 14:0.068047337 15:0.032544379 16:0.065088757 17:0.062130178 18:0.026627219 19:0.076923077 20:0.032544379 
10 1:0.072 2:0.056 3:0.056 4:0.090666667 5:0.058666667 6:0.018666667 7:0.018666667 8:0.061333333 9:0.026666667 10:0.029333333 11:0.034666667 12:0.093333333 13:0.053333333 14:0.082666667 15:0.034666667 16:0.050666667 17:0.037333333 18:0.026666667 19:0.050666667 20:0.048 
3.046977956267367 1:0.061933535 2:0.048338369 3:0.058912387 4:0.10271903 5:0.048338369 6:0.02265861 7:0.027190332 8:0.039274924 9:0.031722054 10:0.0090634441 11:0.040785498 12:0.10271903 13:0.066465257 14:0.051359517 15:0.039274924 16:0.054380665 17:0.064954683 18:0.016616314 19:0.054380665 20:0.058912387 
4.230209578754871 1:0.091575092 2:0.098901099 3:0.071428571 4:0.067765568 5:0.056776557 6:0.012820513 7:0.016483516 8:0.051282051 9:0.04029304 10:0.016483516 11:0.058608059 12:0.065934066 13:0.053113553 14:0.051282051 15:0.042124542 16:0.031135531 17:0.062271062 18:0.014652015 19:0.054945055 20:0.042124542 
0.9387382907493181 1:0.045454545 2:0.050909091 3:0.078181818 4:0.070909091 5:0.056363636 6:0.021818182 7:0.012727273 8:0.050909091 9:0.04 10:0.014545455 11:0.056363636 12:0.12909091 13:0.050909091 14:0.061818182 15:0.038181818 16:0.058181818 17:0.038181818 18:0.021818182 19:0.06 20:0.043636364 
3.783906232946152 1:0.067340067 2:0.10774411 3:0.043771044 4:0.077441077 5:0.047138047 6:0.0033670034 7:0.0067340067 8:0.047138047 9:0.057239057 10:0.0067340067 11:0.033670034 12:0.053872054 13:0.070707071 14:0.013468013 15:0.04040404 16:0.063973064 17:0.090909091 18:0.02020202 19:0.070707071 20:0.077441077 
0.5746123591058924 1:0.068493151 2:0.047945205 3:0.068493151 4:0.10273973 5:0.068493151 6:0.0068493151 7:0.01369863 8:0.020547945 9:0.02739726 10:0.01369863 11:0.01369863 12:0.02739726 13:0.068493151 14:0.061643836 15:0.054794521 16:0.054794521 17:0.047945205 18:0.047945205 19:0.075342466 20:0.10958904 
1.568542643655156 1:0.074074074 2:0.077441077 3:0.090909091 4:0.080808081 5:0.053872054 6:0.01010101 7:0.0033670034 8:0.016835017 9:0.023569024 10:0.050505051 11:0.033670034 12:0.087542088 13:0.060606061 14:0.043771044 15:0.023569024 16:0.057239057 17:0.077441077 18:0.04040404 19:0.067340067 20:0.026936027 
1.314220061035546 1:0.074742268 2:0.087628866 3:0.041237113 4:0.051546392 5:0.023195876 6:0 7:0.010309278 8:0.036082474 9:0.010309278 10:0.010309278 11:0.087628866 12:0.1056701 13:0.085051546 14:0.033505155 15:0.010309278 16:0.072164948 17:0.095360825 18:0.0051546392 19:0.054123711 20:0.1056701 
0.9497792543939035 1:0.061728395 2:0.018518519 3:0.061728395 4:0.080246914 5:0.061728395 6:0.012345679 7:0.037037037 8:0.067901235 9:0.024691358 10:0.0061728395 11:0.061728395 12:0.098765432 13:0.030864198 14:0.049382716 15:0.018518519 16:0.018518519 17:0.098765432 18:0.043209877 19:0.080246914 20:0.067901235 
1.57490775170386 1:0.15 2:0.083333333 3:0.066666667 4:0.058333333 5:0.05 6:0.016666667 7:0.016666667 8:0.016666667 9:0 10:0 11:0.05 12:0.1 13:0.066666667 14:0.075 15:0.025 16:0.075 17:0.025 18:0.083333333 19:0.025 20:0.016666667 
4.468337075922358 1:0.055776892 2:0.053784861 3:0.047808765 4:0.11553785 5:0.053784861 6:0.0019920319 7:0.025896414 8:0.051792829 9:0.029880478 10:0.011952191 11:0.039840637 12:0.061752988 13:0.059760956 14:0.051792829 15:0.049800797 16:0.069721116 17:0.075697211 18:0.023904382 19:0.081673307 20:0.037848606 
4.616241279541971 1:0.033898305 2:0.059322034 3:0.072033898 4:0.13983051 5:0.093220339 6:0.029661017 7:0.016949153 8:0.038135593 9:0.021186441 10:0.0042372881 11:0.042372881 12:0.050847458 13:0.046610169 14:0.042372881 15:0.055084746 16:0.038135593 17:0.072033898 18:0.021186441 19:0.076271186 20:0.046610169 
1.008794706985506 1:0.084269663 2:0.070224719 3:0.087078652 4:0.084269663 5:0.050561798 6:0.019662921 7:0.019662921 8:0.030898876 9:0.039325843 10:0.0084269663 11:0.058988764 12:0.070224719 13:0.078651685 14:0.028089888 15:0.028089888 16:0.047752809 17:0.06741573 18:0.019662921 19:0.06741573 20:0.039325843 
1.350093132466702 1:0.23809524 2:0.095238095 3:0 4:0.023809524 5:0.047619048 6:0 7:0.023809524 8:0.023809524 9:0.023809524 10:0 11:0.047619048 12:0.047619048 13:0.095238095 14:0.071428571 15:0 16:0.047619048 17:0.023809524 18:0 19:0.023809524 20:0 
1.035838944561401 1:0.065789474 2:0.11842105 3:0.13157895 4:0.15789474 5:0 6:0 7:0.013157895 8:0.052631579 9:0.065789474 10:0 11:0.065789474 12:0.026315789 13:0.039473684 14:0 15:0.026315789 16:0.092105263 17:0.039473684 18:0.052631579 19:0.026315789 20:0 
5.043913879009827 1:0.082608696 2:0.11304348 3:0.086956522 4:0.086956522 5:0.039130435 6:0.0086956522 7:0.039130435 8:0.02173913 9:0.039130435 10:0.0086956522 11:0.069565217 12:0.07826087 13:0.047826087 14:0.02173913 15:0.034782609 16:0.060869565 17:0.060869565 18:0.026086957 19:0.030434783 20:0.043478261 
1.916499622918219 1:0.1 2:0.05625 3:0.0625 4:0.04375 5:0.06875 6:0.025 7:0.01875 8:0.0625 9:0.025 10:0.00625 11:0.05 12:0.075 13:0.05 14:0.025 15:0.03125 16:0.025 17:0.03125 18:0.03125 19:0.13125 20:0.08125 
0.4396674721245825 1:0.080213904 2:0.080213904 3:0.080213904 4:0.10160428 5:0.037433155 6:0.0053475936 7:0.021390374 8:0.048128342 9:0.016042781 10:0 11:0.048128342 12:0.053475936 13:0.058823529 14:0.026737968 15:0.010695187 16:0.037433155 17:0.042780749 18:0.021390374 19:0.12834225 20:0.10160428 
7.190960510767797 1:0.049676026 2:0.048596112 3:0.062634989 4:0.12419006 5:0.06587473 6:0.014038877 7:0.033477322 8:0.041036717 9:0.036717063 10:0.018358531 11:0.032397408 12:0.07775378 13:0.044276458 14:0.048596112 15:0.032397408 16:0.046436285 17:0.071274298 18:0.025917927 19:0.064794816 20:0.061555076 
7.951807648359787 1:0.050605061 2:0.0440044 3:0.056105611 4:0.14191419 5:0.057205721 6:0.02860286 7:0.02310231 8:0.03630363 9:0.02530253 10:0.01870187 11:0.03410341 12:0.067106711 13:0.059405941 14:0.03850385 15:0.03630363 16:0.03740374 17:0.097909791 18:0.02420242 19:0.059405941 20:0.063806381 
1.226395479762775 1:0.095238095 2:0.14285714 3:0.23809524 4:0.095238095 5:0 6:0 7:0 8:0.047619048 9:0 10:0 11:0.047619048 12:0.047619048 13:0.095238095 14:0 15:0.047619048 16:0.047619048 17:0 18:0 19:0.095238095 20:0 
7.352733437127717 1:0.082774049 2:0.060402685 3:0.067114094 4:0.073825503 5:0.03803132 6:0.026845638 7:0.046979866 8:0.051454139 9:0.035794183 10:0.011185682 11:0.040268456 12:0.067114094 13:0.058165548 14:0.051454139 15:0.046979866 16:0.055928412 17:0.082774049 18:0.020134228 19:0.031319911 20:0.051454139 
2.088977095319529 1:0.071428571 2:0.1875 3:0.11607143 4:0.0625 5:0.053571429 6:0.017857143 7:0.017857143 8:0.035714286 9:0.017857143 10:0.017857143 11:0.035714286 12:0.035714286 13:0.044642857 14:0.0089285714 15:0.017857143 16:0.089285714 17:0.035714286 18:0.026785714 19:0.10714286 20:0 
-6.845809486845687 1:0.069306931 2:0.084158416 3:0.054455446 4:0.10891089 5:0.034653465 6:0.034653465 7:0.024752475 8:0.034653465 9:0.024752475 10:0.024752475 11:0.02970297 12:0.03960396 13:0.094059406 14:0.03960396 15:0.059405941 16:0.044554455 17:0.079207921 18:0.0099009901 19:0.079207921 20:0.02970297 
-15.85890722964816 1:0.087087087 2:0.066066066 3:0.069069069 4:0.066066066 5:0.036036036 6:0.021021021 7:0.039039039 8:0.051051051 9:0.048048048 10:0.03003003 11:0.033033033 12:0.063063063 13:0.045045045 14:0.051051051 15:0.042042042 16:0.039039039 17:0.075075075 18:0.036036036 19:0.06006006 20:0.042042042 
-1.13918594652335 1:0.089552239 2:0.074626866 3:0.029850746 4:0.10447761 5:0.037313433 6:0.044776119 7:0.014925373 8:0.014925373 9:0.014925373 10:0.0074626866 11:0.082089552 12:0.089552239 13:0.037313433 14:0 15:0.089552239 16:0.037313433 17:0.029850746 18:0.0074626866 19:0.11940299 20:0.074626866 
-1.971402555568401 1:0.073170732 2:0.040650407 3:0.040650407 4:0.06504065 5:0.024390244 6:0 7:0.040650407 8:0.06504065 9:0.0081300813 10:0 11:0.040650407 12:0.19512195 13:0.073170732 14:0.048780488 15:0.0081300813 16:0.0081300813 17:0.089430894 18:0.016260163 19:0.073170732 20:0.089430894 
-4.885095930941604 1:0.11904762 2:0.098639456 3:0.068027211 4:0.088435374 5:0.034013605 6:0.0034013605 7:0.010204082 8:0.051020408 9:0.013605442 10:0.0068027211 11:0.037414966 12:0.10884354 13:0.051020408 14:0.078231293 15:0.051020408 16:0.047619048 17:0.013605442 18:0.023809524 19:0.051020408 20:0.044217687 
-3.823389224639647 1:0.066568047 2:0.036982249 3:0.039940828 4:0.071005917 5:0.022189349 6:0.023668639 7:0.020710059 8:0.025147929 9:0.032544379 10:0.013313609 11:0.035502959 12:0.073964497 13:0.054733728 14:0.056213018 15:0.057692308 16:0.069526627 17:0.11094675 18:0.051775148 19:0.076923077 20:0.060650888 
-6.098953173338823 1:0.017021277 2:0.042553191 3:0.093617021 4:0.12765957 5:0.059574468 6:0.042553191 7:0.025531915 8:0.021276596 9:0.034042553 10:0.021276596 11:0.05106383 12:0.076595745 13:0.05106383 14:0.034042553 15:0.063829787 16:0.059574468 17:0.063829787 18:0.021276596 19:0.055319149 20:0.038297872 
-3.675449475783338 1:0.089552239 2:0.067164179 3:0.049751244 4:0.17412935 5:0.024875622 6:0.0099502488 7:0.017412935 8:0.024875622 9:0.0024875622 10:0.027363184 11:0.087064677 12:0.087064677 13:0.042288557 14:0.027363184 15:0.049751244 16:0.05721393 17:0.042288557 18:0.032338308 19:0.029850746 20:0.05721393 
-1.770550675939076 1:0.12676056 2:0.037558685 3:0.061032864 4:0.061032864 5:0.070422535 6:0.0046948357 7:0.03286385 8:0.037558685 9:0.0046948357 10:0.0046948357 11:0.056338028 12:0.042253521 13:0.10328638 14:0.028169014 15:0.056338028 16:0.014084507 17:0.028169014 18:0.079812207 19:0.10328638 20:0.046948357 
-0.2814822712605132 1:0.036363636 2:0.036363636 3:0.090909091 4:0.072727273 5:0.10909091 6:0.10909091 7:0.018181818 8:0.018181818 9:0.054545455 10:0 11:0.036363636 12:0.054545455 13:0.10909091 14:0.018181818 15:0.090909091 16:0.036363636 17:0.018181818 18:0 19:0.054545455 20:0.036363636 
-2.754352053762748 1:0.082043344 2:0.074303406 3:0.035603715 4:0.07120743 5:0.0092879257 6:0.0030959752 7:0.010835913 8:0.021671827 9:0.026315789 10:0.0092879257 11:0.061919505 12:0.077399381 13:0.03250774 14:0.040247678 15:0.052631579 16:0.047987616 17:0.15944272 18:0.03250774 19:0.060371517 20:0.091331269 
-0.4413481567478125 1:0.10638298 2:0.074468085 3:0.021276596 4:0.074468085 5:0.074468085 6:0.074468085 7:0.074468085 8:0.021276596 9:0.031914894 10:0.010638298 11:0.010638298 12:0.031914894 13:0.053191489 14:0.063829787 15:0.031914894 16:0.021276596 17:0.063829787 18:0.031914894 19:0.11702128 20:0.010638298 
-0.03727373386318781 1:0.051724138 2:0.051724138 3:0.051724138 4:0.086206897 5:0.068965517 6:0.12068966 7:0.034482759 8:0.051724138 9:0.034482759 10:0.034482759 11:0.017241379 12:0.13793103 13:0.051724138 14:0.034482759 15:0.034482759 16:0 17:0.017241379 18:0 19:0.086206897 20:0.034482759 
-2.269716192132405 1:0.074829932 2:0.034013605 3:0.06122449 4:0.10204082 5:0.047619048 6:0.054421769 7:0.040816327 8:0.027210884 9:0.034013605 10:0.0068027211 11:0.034013605 12:0.054421769 13:0.068027211 14:0.054421769 15:0.054421769 16:0.040816327 17:0.034013605 18:0.047619048 19:0.034013605 20:0.095238095 
-0.1251192738977428 1:0.052631579 2:0.037593985 3:0.060150376 4:0.07518797 5:0.11278195 6:0.067669173 7:0.022556391 8:0.037593985 9:0.030075188 10:0.007518797 11:0.045112782 12:0.07518797 13:0.11278195 14:0.090225564 15:0.045112782 16:0.007518797 17:0.015037594 18:0.022556391 19:0.037593985 20:0.045112782 
-0.1223611228322125 1:0.041916168 2:0.053892216 3:0.083832335 4:0.10179641 5:0.017964072 6:0.047904192 7:0.035928144 8:0.017964072 9:0.035928144 10:0 11:0.077844311 12:0.11377246 13:0.053892216 14:0.053892216 15:0.047904192 16:0.02994012 17:0.023952096 18:0.035928144 19:0.077844311 20:0.047904192 
-1.206212801253565 1:0.044642857 2:0.053571429 3:0.080357143 4:0.14285714 5:0.0625 6:0.053571429 7:0.035714286 8:0.044642857 9:0.017857143 10:0.017857143 11:0.035714286 12:0.035714286 13:0.044642857 14:0.053571429 15:0.044642857 16:0.035714286 17:0.089285714 18:0 19:0.053571429 20:0.053571429 
-16.65019361014762 1:0.033613445 2:0.058823529 3:0.042016807 4:0.13865546 5:0.050420168 6:0.029411765 7:0.025210084 8:0.06302521 9:0.025210084 10:0.016806723 11:0.033613445 12:0.092436975 13:0.046218487 14:0.054621849 15:0.046218487 16:0.058823529 17:0.071428571 18:0.016806723 19:0.058823529 20:0.037815126 
-8.683286874481716 1:0.061135371 2:0.043668122 3:0.061135371 4:0.13537118 5:0.048034934 6:0.030567686 7:0.034934498 8:0.026200873 9:0.030567686 10:0.0087336245 11:0.048034934 12:0.087336245 13:0.03930131 14:0.056768559 15:0.03930131 16:0.048034934 17:0.065502183 18:0.034934498 19:0.048034934 20:0.052401747 
-17 1:0.039647577 2:0.052863436 3:0.052863436 4:0.14096916 5:0.061674009 6:0.030837004 7:0.026431718 8:0.022026432 9:0.030837004 10:0.013215859 11:0.044052863 12:0.092511013 13:0.035242291 14:0.052863436 15:0.044052863 16:0.035242291 17:0.079295154 18:0.039647577 19:0.052863436 20:0.052863436 
-11.6221776963547 1:0.058823529 2:0.085192698 3:0.073022312 4:0.13590264 5:0.044624746 6:0.0081135903 7:0.032454361 8:0.054766734 9:0.024340771 10:0.0060851927 11:0.054766734 12:0.077079108 13:0.058823529 14:0.028397566 15:0.040567951 16:0.042596349 17:0.058823529 18:0.018255578 19:0.034482759 20:0.062880325 
-1.508070291711943 1:0.047619048 2:0.085714286 3:0.085714286 4:0.17142857 5:0.066666667 6:0.038095238 7:0.0095238095 8:0.0095238095 9:0.0095238095 10:0 11:0.066666667 12:0.1047619 13:0.038095238 14:0.0095238095 15:0.019047619 16:0.028571429 17:0.047619048 18:0.019047619 19:0.085714286 20:0.057142857 
-2.272707061578116 1:0.088235294 2:0.10294118 3:0.10294118 4:0.073529412 5:0.029411765 6:0.014705882 7:0.058823529 8:0.088235294 9:0.014705882 10:0.014705882 11:0.029411765 12:0.014705882 13:0.044117647 14:0.029411765 15:0.014705882 16:0.044117647 17:0.073529412 18:0.044117647 19:0.10294118 20:0.014705882 
-17 1:0.0625 2:0.067307692 3:0.060096154 4:0.12740385 5:0.055288462 6:0.0048076923 7:0.012019231 8:0.048076923 9:0.026442308 10:0.0096153846 11:0.057692308 12:0.081730769 13:0.069711538 14:0.036057692 15:0.045673077 16:0.050480769 17:0.0625 18:0.012019231 19:0.060096154 20:0.050480769 
-0.2464712541183759 1:0.10869565 2:0.050724638 3:0.065217391 4:0.050724638 5:0.043478261 6:0.10144928 7:0.02173913 8:0.02173913 9:0.065217391 10:0.036231884 11:0.036231884 12:0.043478261 13:0.036231884 14:0.050724638 15:0.014492754 16:0.079710145 17:0.043478261 18:0.0072463768 19:0.072463768 20:0.050724638 
-3.141350914221615 1:0.08 2:0.13 3:0.05 4:0.13 5:0.01 6:0.03 7:0.02 8:0.03 9:0.04 10:0.01 11:0.09 12:0.03 13:0.02 14:0.01 15:0.02 16:0.07 17:0.08 18:0.02 19:0.05 20:0.08 
-6.022356254593106 1:0.07628866 2:0.078350515 3:0.049484536 4:0.10103093 5:0.024742268 6:0.072164948 7:0.037113402 8:0.039175258 9:0.0082474227 10:0.0020618557 11:0.055670103 12:0.084536082 13:0.057731959 14:0.026804124 15:0.04742268 16:0.057731959 17:0.080412371 18:0.020618557 19:0.032989691 20:0.04742268 
-0.54660919195519 1:0.092307692 2:0.046153846 3:0 4:0.092307692 5:0.061538462 6:0.092307692 7:0.030769231 8:0.092307692 9:0.030769231 10:0.015384615 11:0.076923077 12:0.061538462 13:0 14:0.015384615 15:0 16:0.030769231 17:0.030769231 18:0.030769231 19:0.15384615 20:0.046153846 
-1.989378457886932 1:0.064338235 2:0.049632353 3:0.068014706 4:0.068014706 5:0.040441176 6:0.011029412 7:0.022058824 8:0.034926471 9:0.03125 10:0.0091911765 11:0.025735294 12:0.058823529 13:0.040441176 14:0.15992647 15:0.071691176 16:0.075367647 17:0.038602941 18:0.022058824 19:0.058823529 20:0.049632353 
-0.8588423678044375 1:0.03 2:0.07 3:0.06 4:0.19 5:0.04 6:0.04 7:0.02 8:0.01 9:0 10:0 11:0.1 12:0.05 13:0.09 14:0.03 15:0.08 16:0.02 17:0.04 18:0.02 19:0.05 20:0.06 
-2.122062423950541 1:0.057142857 2:0.15714286 3:0.1 4:0.085714286 5:0.071428571 6:0 7:0.028571429 8:0.028571429 9:0.042857143 10:0.014285714 11:0.1 12:0.028571429 13:0.028571429 14:0.014285714 15:0.028571429 16:0.028571429 17:0.1 18:0 19:0.057142857 20:0.028571429 
-0.4356417537884812 1:0.070886076 2:0.06835443 3:0.063291139 4:0.093670886 5:0.055696203 6:0.010126582 7:0.035443038 8:0.065822785 9:0.048101266 10:0.025316456 11:0.053164557 12:0.063291139 13:0.055696203 14:0.06835443 15:0.035443038 16:0.048101266 17:0.037974684 18:0.027848101 19:0.055696203 20:0.017721519 
-5.523107546124126 1:0.044025157 2:0.075471698 3:0.056603774 4:0.075471698 5:0.06918239 6:0.056603774 7:0.025157233 8:0.050314465 9:0.025157233 10:0.025157233 11:0.056603774 12:0.081761006 13:0.037735849 14:0.037735849 15:0.031446541 16:0.062893082 17:0.081761006 18:0.018867925 19:0.06918239 20:0.018867925 
-0.8803014920177825 1:0.056737589 2:0.035460993 3:0.035460993 4:0.10638298 5:0.092198582 6:0.056737589 7:0.042553191 8:0.042553191 9:0.028368794 10:0.028368794 11:0.014184397 12:0.056737589 13:0.04964539 14:0.042553191 15:0.04964539 16:0.10638298 17:0.042553191 18:0.021276596 19:0.085106383 20:0.0070921986 
-3.249507773896728 1:0.035211268 2:0.049295775 3:0.035211268 4:0.12676056 5:0.091549296 6:0.056338028 7:0.021126761 8:0.042253521 9:0.035211268 10:0.021126761 11:0.028169014 12:0.063380282 13:0.042253521 14:0.028169014 15:0.049295775 16:0.11267606 17:0.042253521 18:0.028169014 19:0.077464789 20:0.014084507 
-10.9111083576804 1:0.071428571 2:0.045031056 3:0.045031056 4:0.062111801 5:0.049689441 6:0.029503106 7:0.01242236 8:0.038819876 9:0.02484472 10:0.010869565 11:0.060559006 12:0.077639752 13:0.082298137 14:0.046583851 15:0.055900621 16:0.063664596 17:0.063664596 18:0.048136646 19:0.079192547 20:0.032608696 
-2.242805408783018 1:0.033653846 2:0.051282051 3:0.1025641 4:0.09775641 5:0.046474359 6:0.0064102564 7:0.020833333 8:0.048076923 9:0.052884615 10:0.017628205 11:0.056089744 12:0.051282051 13:0.049679487 14:0.056089744 15:0.046474359 16:0.048076923 17:0.072115385 18:0.043269231 19:0.051282051 20:0.048076923 
-2.67783934554626 1:0.085526316 2:0.072368421 3:0.072368421 4:0.065789474 5:0.039473684 6:0.046052632 7:0.019736842 8:0.052631579 9:0.039473684 10:0.039473684 11:0.0065789474 12:0.092105263 13:0.039473684 14:0.032894737 15:0.046052632 16:0.039473684 17:0.092105263 18:0.013157895 19:0.065789474 20:0.039473684 
-0.4526049628155347 1:0.088607595 2:0.063291139 3:0.037974684 4:0.088607595 5:0.088607595 6:0.075949367 7:0.025316456 8:0.037974684 9:0.025316456 10:0 11:0.088607595 12:0.063291139 13:0.063291139 14:0.063291139 15:0.025316456 16:0.012658228 17:0.037974684 18:0.012658228 19:0.050632911 20:0.050632911 
-0.2381143037004354 1:0.10619469 2:0.061946903 3:0.097345133 4:0.11504425 5:0.017699115 6:0.053097345 7:0.053097345 8:0.053097345 9:0.026548673 10:0.017699115 11:0.061946903 12:0.03539823 13:0.017699115 14:0.03539823 15:0.053097345 16:0.053097345 17:0.044247788 18:0.026548673 19:0.03539823 20:0.03539823 
-0.3937738339978258 1:0.074766355 2:0.074766355 3:0.074766355 4:0.14018692 5:0.018691589 6:0.056074766 7:0.0093457944 8:0.037383178 9:0.056074766 10:0.0093457944 11:0.056074766 12:0.074766355 13:0.018691589 14:0.037383178 15:0.056074766 16:0.0093457944 17:0.08411215 18:0.028037383 19:0.028037383 20:0.056074766 
-0.5383498015483155 1:0.1 2:0.063636364 3:0.054545455 4:0.16363636 5:0.018181818 6:0.054545455 7:0.036363636 8:0.027272727 9:0.027272727 10:0.018181818 11:0.036363636 12:0.036363636 13:0.063636364 14:0.027272727 15:0.081818182 16:0.045454545 17:0.054545455 18:0.027272727 19:0.018181818 20:0.045454545 
-5.317035371768089 1:0.02994012 2:0.035928144 3:0.047904192 4:0.11976048 5:0.05988024 6:0.017964072 7:0.017964072 8:0.065868263 9:0.041916168 10:0.005988024 11:0.011976048 12:0.10179641 13:0.047904192 14:0.071856287 15:0.041916168 16:0.05988024 17:0.047904192 18:0.011976048 19:0.10179641 20:0.05988024 
-13.03947643919933 1:0.036065574 2:0.055737705 3:0.055737705 4:0.072131148 5:0.045901639 6:0.02295082 7:0.016393443 8:0.026229508 9:0.045901639 10:0 11:0.081967213 12:0.078688525 13:0.06557377 14:0.062295082 15:0.039344262 16:0.062295082 17:0.085245902 18:0.02295082 19:0.062295082 20:0.062295082 
-2.028389573957873 1:0.048192771 2:0.030120482 3:0.06626506 4:0.14457831 5:0.042168675 6:0.024096386 7:0.024096386 8:0.036144578 9:0.012048193 10:0 11:0.060240964 12:0.10843373 13:0.06626506 14:0.048192771 15:0.024096386 16:0.060240964 17:0.054216867 18:0.024096386 19:0.054216867 20:0.072289157 
-2.288415695987363 1:0.062146893 2:0.039548023 3:0.039548023 4:0.14689266 5:0.050847458 6:0.033898305 7:0.033898305 8:0.062146893 9:0.011299435 10:0.0056497175 11:0.028248588 12:0.062146893 13:0.039548023 14:0.056497175 15:0.039548023 16:0.050847458 17:0.06779661 18:0.02259887 19:0.10734463 20:0.039548023 
-1.682379363387596 1:0.019417476 2:0.087378641 3:0.10679612 4:0.10679612 5:0.058252427 6:0.048543689 7:0.0097087379 8:0.048543689 9:0 10:0.0097087379 11:0.038834951 12:0.058252427 13:0.038834951 14:0.029126214 15:0.077669903 16:0.0097087379 17:0.087378641 18:0.029126214 19:0.097087379 20:0.038834951 
-0.8909288453713013 1:0.066666667 2:0.094444444 3:0.05 4:0.10555556 5:0.022222222 6:0.044444444 7:0.022222222 8:0.055555556 9:0.027777778 10:0.0055555556 11:0.083333333 12:0.066666667 13:0.055555556 14:0.011111111 15:0.027777778 16:0.038888889 17:0.055555556 18:0.016666667 19:0.038888889 20:0.11111111 
-17 1:0.062146893 2:0.050847458 3:0.056497175 4:0.10169492 5:0.050847458 6:0.033898305 7:0.033898305 8:0.062146893 9:0.016949153 10:0.011299435 11:0.04519774 12:0.073446328 13:0.056497175 14:0.04519774 15:0.04519774 16:0.050847458 17:0.073446328 18:0.02259887 19:0.050847458 20:0.056497175 
-0.7987441036512268 1:0.073359073 2:0.10810811 3:0.061776062 4:0.084942085 5:0.034749035 6:0.069498069 7:0.015444015 8:0.015444015 9:0.023166023 10:0.023166023 11:0.073359073 12:0.084942085 13:0.042471042 14:0.034749035 15:0.038610039 16:0.027027027 17:0.088803089 18:0.023166023 19:0.034749035 20:0.042471042 
-5.423556170809048 1:0.082474227 2:0.082474227 3:0.054982818 4:0.085910653 5:0.020618557 6:0.06185567 7:0.010309278 8:0.017182131 9:0.030927835 10:0.0068728522 11:0.089347079 12:0.092783505 13:0.037800687 14:0.020618557 15:0.037800687 16:0.041237113 17:0.058419244 18:0.024054983 19:0.065292096 20:0.079037801 
-2.109080648871414 1:0.066666667 2:0.041904762 3:0.04952381 4:0.064761905 5:0.024761905 6:0.032380952 7:0.0057142857 8:0.04952381 9:0.020952381 10:0.0038095238 11:0.12380952 12:0.068571429 13:0.032380952 14:0.038095238 15:0.034285714 16:0.059047619 17:0.053333333 18:0.12571429 19:0.041904762 20:0.062857143 
-3.372860752423855 1:0.14418605 2:0.074418605 3:0.055813953 4:0.069767442 5:0.051162791 6:0.013953488 7:0.027906977 8:0.055813953 9:0.023255814 10:0.0093023256 11:0.12093023 12:0.074418605 13:0.018604651 14:0.03255814 15:0.037209302 16:0.027906977 17:0.055813953 18:0.013953488 19:0.060465116 20:0.03255814 
-1.903752336315656 1:0.069565217 2:0.10434783 3:0.052173913 4:0.13043478 5:0.043478261 6:0.060869565 7:0.0086956522 8:0.052173913 9:0.0086956522 10:0.0086956522 11:0.095652174 12:0.034782609 13:0.026086957 14:0.052173913 15:0.043478261 16:0.026086957 17:0.10434783 18:0 19:0.052173913 20:0.026086957 
-6.186368404393573 1:0.091324201 2:0.03196347 3:0.082191781 4:0.095890411 5:0.0456621 6:0.01826484 7:0.01826484 8:0.077625571 9:0.050228311 10:0.01369863 11:0.059360731 12:0.03652968 13:0.054794521 14:0.050228311 15:0.050228311 16:0.03652968 17:0.073059361 18:0.02739726 19:0.068493151 20:0.01826484 
-1.342162643624109 1:0.073170732 2:0.06097561 3:0.13414634 4:0.1097561 5:0.024390244 6:0 7:0.048780488 8:0.012195122 9:0.024390244 10:0.036585366 11:0.048780488 12:0.073170732 13:0.06097561 14:0.012195122 15:0.036585366 16:0.036585366 17:0.06097561 18:0.036585366 19:0.06097561 20:0.048780488 
-2.408059131822872 1:0.058139535 2:0.058139535 3:0.034883721 4:0.1627907 5:0.069767442 6:0.046511628 7:0.011627907 8:0.023255814 9:0.034883721 10:0.023255814 11:0.034883721 12:0.11627907 13:0.023255814 14:0.011627907 15:0.046511628 16:0.023255814 17:0.058139535 18:0.023255814 19:0.069767442 20:0.069767442 
-3.102171219209666 1:0.0875 2:0.075 3:0.125 4:0.0875 5:0.0375 6:0.025 7:0.0375 8:0.0125 9:0.025 10:0.0375 11:0.0625 12:0.075 13:0.0125 14:0.025 15:0.0375 16:0.025 17:0.075 18:0.025 19:0.05 20:0.0625 
-3.2330293926648 1:0.057803468 2:0.10982659 3:0.092485549 4:0.080924855 5:0.01734104 6:0.0057803468 7:0.023121387 8:0.092485549 9:0.011560694 10:0.023121387 11:0.028901734 12:0.046242775 13:0.01734104 14:0.046242775 15:0.034682081 16:0.063583815 17:0.052023121 18:0.046242775 19:0.11560694 20:0.034682081 
-0.8626364211078869 1:0.076923077 2:0.13461538 3:0.038461538 4:0.10576923 5:0.0096153846 6:0.019230769 7:0.038461538 8:0.019230769 9:0.0096153846 10:0.028846154 11:0.096153846 12:0.048076923 13:0 14:0.0096153846 15:0.076923077 16:0.057692308 17:0.076923077 18:0.048076923 19:0.038461538 20:0.067307692 
-10.83233120002585 1:0.047738693 2:0.072864322 3:0.087939698 4:0.090452261 5:0.08040201 6:0.010050251 7:0.027638191 8:0.050251256 9:0.012562814 10:0.015075377 11:0.057788945 12:0.085427136 13:0.057788945 14:0.060301508 15:0.030150754 16:0.045226131 17:0.037688442 18:0.022613065 19:0.072864322 20:0.035175879 
-0.8236996523353982 1:0.10576923 2:0.10576923 3:0.028846154 4:0.125 5:0.0096153846 6:0.019230769 7:0.019230769 8:0.019230769 9:0.0096153846 10:0.048076923 11:0.086538462 12:0.067307692 13:0.0096153846 14:0.019230769 15:0.086538462 16:0.048076923 17:0.067307692 18:0.038461538 19:0.028846154 20:0.057692308 
-17 1:0.052631579 2:0.11004785 3:0.057416268 4:0.081339713 5:0.057416268 6:0.009569378 7:0.023923445 8:0.057416268 9:0.043062201 10:0.004784689 11:0.019138756 12:0.038277512 13:0.052631579 14:0.028708134 15:0.052631579 16:0.057416268 17:0.09569378 18:0.038277512 19:0.090909091 20:0.028708134 
-0.1452024170525896 1:0.082397004 2:0.19101124 3:0.082397004 4:0.097378277 5:0.074906367 6:0.011235955 7:0.0037453184 8:0.014981273 9:0.029962547 10:0.0037453184 11:0.037453184 12:0.086142322 13:0.029962547 14:0.097378277 15:0.056179775 16:0.041198502 17:0.02247191 18:0 19:0 20:0.037453184 
-1.19716135509787 1:0.064516129 2:0.041474654 3:0.073732719 4:0.078341014 5:0.023041475 6:0.036866359 7:0.01843318 8:0.073732719 9:0.036866359 10:0.0092165899 11:0.036866359 12:0.11059908 13:0.069124424 14:0.01843318 15:0.023041475 16:0.059907834 17:0.082949309 18:0.064516129 19:0.055299539 20:0.023041475 
-0.7784559617718447 1:0.080357143 2:0.058035714 3:0.040178571 4:0.10267857 5:0.026785714 6:0.09375 7:0.013392857 8:0.026785714 9:0 10:0.0089285714 11:0.053571429 12:0.053571429 13:0.0625 14:0.026785714 15:0.066964286 16:0.058035714 17:0.049107143 18:0.026785714 19:0.058035714 20:0.09375 
-1.505622311983398 1:0.027777778 2:0.0625 3:0.041666667 4:0.13194444 5:0.041666667 6:0.034722222 7:0.034722222 8:0.034722222 9:0.013888889 10:0.020833333 11:0.076388889 12:0.083333333 13:0.083333333 14:0.027777778 15:0.0625 16:0.027777778 17:0.090277778 18:0.020833333 19:0.041666667 20:0.041666667 
-5.687626402475117 1:0.054621849 2:0.046218487 3:0.071428571 4:0.10084034 5:0.054621849 6:0.021008403 7:0.012605042 8:0.067226891 9:0.033613445 10:0.025210084 11:0.050420168 12:0.088235294 13:0.058823529 14:0.046218487 15:0.054621849 16:0.046218487 17:0.050420168 18:0.025210084 19:0.06302521 20:0.029411765 
-4.961515299860761 1:0.043209877 2:0.074074074 3:0.055555556 4:0.11111111 5:0.024691358 6:0.0061728395 7:0.037037037 8:0.030864198 9:0.030864198 10:0.0061728395 11:0.074074074 12:0.074074074 13:0.037037037 14:0.049382716 15:0.055555556 16:0.043209877 17:0.098765432 18:0.012345679 19:0.030864198 20:0.10493827 
-3.814205850413762 1:0.079207921 2:0.11881188 3:0.084158416 4:0.11881188 5:0.01980198 6:0.014851485 7:0.0099009901 8:0.054455446 9:0.02970297 10:0.0099009901 11:0.04950495 12:0.054455446 13:0.059405941 14:0.004950495 15:0.084158416 16:0.03960396 17:0.044554455 18:0.024752475 19:0.024752475 20:0.074257426 
-8.482232909214371 1:0.031180401 2:0.035634744 3:0.06013363 4:0.10244989 5:0.028953229 6:0.022271715 7:0.035634744 8:0.051224944 9:0.024498886 10:0.011135857 11:0.04454343 12:0.075723831 13:0.06013363 14:0.048997773 15:0.06013363 16:0.053452116 17:0.095768374 18:0.028953229 19:0.064587973 20:0.064587973 
-0.5461626973762014 1:0.035211268 2:0.1056338 3:0.056338028 4:0.091549296 5:0.035211268 6:0.049295775 7:0.056338028 8:0.021126761 9:0.070422535 10:0 11:0.035211268 12:0.063380282 13:0.056338028 14:0.035211268 15:0.035211268 16:0.070422535 17:0.035211268 18:0.028169014 19:0.049295775 20:0.070422535 
-0.8252880763211697 1:0.059701493 2:0.02238806 3:0.12686567 4:0.10447761 5:0.02238806 6:0.059701493 7:0.029850746 8:0.044776119 9:0.037313433 10:0 11:0.02238806 12:0.1119403 13:0.037313433 14:0.052238806 15:0.037313433 16:0.059701493 17:0.037313433 18:0.0074626866 19:0.052238806 20:0.074626866 
-0.9478103354524773 1:0.048387097 2:0.19354839 3:0.14516129 4:0.048387097 5:0.032258065 6:0.016129032 7:0.032258065 8:0.080645161 9:0 10:0.016129032 11:0.048387097 12:0.032258065 13:0.064516129 14:0.032258065 15:0.032258065 16:0.016129032 17:0.032258065 18:0 19:0.080645161 20:0.048387097 
-15.56186884786843 1:0.040767386 2:0.06235012 3:0.050359712 4:0.067146283 5:0.079136691 6:0.011990408 7:0.03117506 8:0.045563549 9:0.050359712 10:0.023980815 11:0.045563549 12:0.059952038 13:0.057553957 14:0.057553957 15:0.026378897 16:0.055155875 17:0.064748201 18:0.026378897 19:0.088729017 20:0.055155875 
-1.305521963752219 1:0.010989011 2:0.076923077 3:0.093406593 4:0.054945055 5:0.087912088 6:0.010989011 7:0.0054945055 8:0.049450549 9:0.038461538 10:0 11:0.12637363 12:0.043956044 13:0.1043956 14:0.054945055 15:0.065934066 16:0.010989011 17:0.065934066 18:0.010989011 19:0.043956044 20:0.043956044 
-1.998914773014945 1:0.021551724 2:0.060344828 3:0.081896552 4:0.13362069 5:0.043103448 6:0.0043103448 7:0.025862069 8:0.038793103 9:0.021551724 10:0 11:0.15948276 12:0.056034483 13:0.034482759 14:0.021551724 15:0.099137931 16:0.017241379 17:0.077586207 18:0.021551724 19:0.060344828 20:0.021551724 
-0.9878905317365178 1:0 2:0.041958042 3:0.062937063 4:0.041958042 5:0.062937063 6:0.006993007 7:0.090909091 8:0.034965035 9:0.055944056 10:0.013986014 11:0.048951049 12:0.1048951 13:0.055944056 14:0.048951049 15:0.1048951 16:0.034965035 17:0.076923077 18:0.006993007 19:0.083916084 20:0.020979021 
-1.095956317154628 1:0.011173184 2:0.067039106 3:0.061452514 4:0.033519553 5:0.055865922 6:0.011173184 7:0.011173184 8:0.055865922 9:0.044692737 10:0.0055865922 11:0.067039106 12:0.15642458 13:0.044692737 14:0.033519553 15:0.11731844 16:0.033519553 17:0.072625698 18:0.016759777 19:0.083798883 20:0.016759777 
-2.731424091893303 1:0.015151515 2:0.060606061 3:0.055555556 4:0.070707071 5:0.055555556 6:0.0050505051 7:0.035353535 8:0.055555556 9:0.03030303 10:0.01010101 11:0.060606061 12:0.1010101 13:0.03030303 14:0.03030303 15:0.11111111 16:0.02020202 17:0.12121212 18:0.03030303 19:0.060606061 20:0.04040404 
-3.045231582673852 1:0.056782334 2:0.034700315 3:0.066246057 4:0.072555205 5:0.047318612 6:0.0063091483 7:0.025236593 8:0.041009464 9:0.050473186 10:0.015772871 11:0.047318612 12:0.085173502 13:0.072555205 14:0.066246057 15:0.03785489 16:0.056782334 17:0.072555205 18:0.041009464 19:0.069400631 20:0.034700315 
-2.060432592989326 1:0.026455026 2:0.15873016 3:0.074074074 4:0.068783069 5:0.010582011 6:0.0052910053 7:0.021164021 8:0.047619048 9:0.0052910053 10:0 11:0.015873016 12:0.074074074 13:0.037037037 14:0.052910053 15:0.079365079 16:0.047619048 17:0.1005291 18:0.026455026 19:0.12698413 20:0.021164021 
-17 1:0.045364892 2:0.060267368 3:0.055226824 4:0.11724742 5:0.062458909 6:0.0054788516 7:0.017313171 8:0.049090511 9:0.033092264 10:0.0081087004 11:0.037475345 12:0.085908394 13:0.06574622 14:0.054131054 15:0.050405435 16:0.051062897 17:0.065307911 18:0.025202718 19:0.078238001 20:0.03287311 
-4.928674412758802 1:0.041509434 2:0.10188679 3:0.067924528 4:0.14339623 5:0.01509434 6:0 7:0.0075471698 8:0.026415094 9:0.022641509 10:0.018867925 11:0.030188679 12:0.056603774 13:0.033962264 14:0.01509434 15:0.086792453 16:0.064150943 17:0.10188679 18:0.018867925 19:0.086792453 20:0.060377358 
-2.962554038386268 1:0.041198502 2:0.086142322 3:0.056179775 4:0.15355805 5:0 6:0 7:0.014981273 8:0.029962547 9:0.026217228 10:0.018726592 11:0.037453184 12:0.059925094 13:0.04494382 14:0.018726592 15:0.071161049 16:0.059925094 17:0.11235955 18:0.02247191 19:0.082397004 20:0.063670412 
-13.99068153098591 1:0.089238845 2:0.072178478 3:0.07480315 4:0.085301837 5:0.028871391 6:0.01312336 7:0.020997375 8:0.060367454 9:0.040682415 10:0.019685039 11:0.083989501 12:0.066929134 13:0.049868766 14:0.031496063 15:0.059055118 16:0.04855643 17:0.051181102 18:0.031496063 19:0.022309711 20:0.049868766 
-0.05054759141715901 1:0.066115702 2:0.033057851 3:0.024793388 4:0.17355372 5:0.041322314 6:0.016528926 7:0.041322314 8:0.033057851 9:0 10:0 11:0.049586777 12:0.12396694 13:0.016528926 14:0.016528926 15:0.090909091 16:0.041322314 17:0.05785124 18:0.024793388 19:0.066115702 20:0.082644628 
-3.819736918495048 1:0.02800659 2:0.07907743 3:0.062602965 4:0.10708402 5:0.024711697 6:0.057660626 7:0.0082372323 8:0.049423394 9:0.034596376 10:0.0049423394 11:0.046128501 12:0.052718287 13:0.05601318 14:0.02306425 15:0.032948929 16:0.065897858 17:0.097199341 18:0.02800659 19:0.098846787 20:0.042833608 
-3.251166755259232 1:0.04379562 2:0.068126521 3:0.058394161 4:0.12408759 5:0.04622871 6:0.0072992701 7:0.03163017 8:0.063260341 9:0.02189781 10:0.00486618 11:0.04379562 12:0.080291971 13:0.070559611 14:0.051094891 15:0.04136253 16:0.063260341 17:0.055961071 18:0.02676399 19:0.063260341 20:0.03406326 
-17 1:0.048309179 2:0.048309179 3:0.062801932 4:0.11111111 5:0.06763285 6:0.0096618357 7:0.038647343 8:0.043478261 9:0.019323671 10:0.014492754 11:0.038647343 12:0.038647343 13:0.057971014 14:0.048309179 15:0.053140097 16:0.06763285 17:0.086956522 18:0.033816425 19:0.077294686 20:0.033816425 
-4.27947492729699 1:0.078313253 2:0.10542169 3:0.06626506 4:0.09939759 5:0.048192771 6:0.024096386 7:0.024096386 8:0.030120482 9:0.039156627 10:0.012048193 11:0.048192771 12:0.081325301 13:0.054216867 14:0.045180723 15:0.048192771 16:0.051204819 17:0.039156627 18:0.015060241 19:0.069277108 20:0.021084337 
-4.458879169820328 1:0.073394495 2:0.11314985 3:0.067278287 4:0.070336391 5:0.073394495 6:0.006116208 7:0.018348624 8:0.03058104 9:0.039755352 10:0.021406728 11:0.042813456 12:0.088685015 13:0.055045872 14:0.051987768 15:0.03058104 16:0.064220183 17:0.039755352 18:0.024464832 19:0.067278287 20:0.021406728 
-0.3212110620207088 1:0.11764706 2:0.080882353 3:0.11029412 4:0.11029412 5:0.058823529 6:0.058823529 7:0.0073529412 8:0.036764706 9:0.0073529412 10:0 11:0.073529412 12:0.088235294 13:0.14705882 14:0.044117647 15:0.029411765 16:0.0073529412 17:0.0073529412 18:0.0073529412 19:0 20:0.0073529412 
-1.482748419194267 1:0.11392405 2:0.078481013 3:0.065822785 4:0.060759494 5:0.040506329 6:0.043037975 7:0.02278481 8:0 9:0.027848101 10:0 11:0.12658228 12:0.11139241 13:0.10379747 14:0.035443038 15:0.098734177 16:0.012658228 17:0.027848101 18:0.0075949367 19:0.02278481 20:0 
-1.084517351745582 1:0.097959184 2:0.057142857 3:0.044897959 4:0.032653061 5:0.057142857 6:0.0081632653 7:0.036734694 8:0.057142857 9:0.073469388 10:0.036734694 11:0.053061224 12:0.06122449 13:0.073469388 14:0.085714286 15:0.016326531 16:0.069387755 17:0.032653061 18:0.028571429 19:0.044897959 20:0.032653061 
-3.630593953335033 1:0.066047472 2:0.060887513 3:0.067079463 4:0.079463364 5:0.055727554 6:0.008255934 7:0.025799794 8:0.045407637 9:0.072239422 10:0.018575851 11:0.053663571 12:0.092879257 13:0.072239422 14:0.074303406 15:0.039215686 16:0.058823529 17:0.044375645 18:0.01754386 19:0.01754386 20:0.029927761 
-1.623974987765484 1:0.10731707 2:0.068292683 3:0.075609756 4:0.065853659 5:0.070731707 6:0.041463415 7:0.026829268 8:0.024390244 9:0.02195122 10:0.0073170732 11:0.034146341 12:0.065853659 13:0.082926829 14:0.070731707 15:0.012195122 16:0.073170732 17:0.024390244 18:0.014634146 19:0.10243902 20:0.0097560976 
-6.460445062034713 1:0.11895911 2:0.074349442 3:0.066914498 4:0.05204461 5:0.040892193 6:0.029739777 7:0.018587361 8:0.037174721 9:0.029739777 10:0.022304833 11:0.063197026 12:0.063197026 13:0.059479554 14:0.029739777 15:0.0074349442 16:0.074349442 17:0.07063197 18:0.018587361 19:0.10037175 20:0.022304833 
-0.7234075473922128 1:0.0065359477 2:0.022875817 3:0.049019608 4:0.019607843 5:0.0065359477 6:0 7:0.016339869 8:0.0065359477 9:0.10784314 10:0 11:0.37908497 12:0.11764706 13:0.039215686 14:0.0032679739 15:0 16:0 17:0.026143791 18:0.08496732 19:0.10784314 20:0.0065359477 
-4.366810081465882 1:0.10958904 2:0.11187215 3:0.063926941 4:0.077625571 5:0.052511416 6:0.01369863 7:0.029680365 8:0.03652968 9:0.03652968 10:0.03652968 11:0.038812785 12:0.054794521 13:0.038812785 14:0.04109589 15:0.02739726 16:0.084474886 17:0.029680365 18:0.029680365 19:0.052511416 20:0.034246575 
-0.5057018529708117 1:0.10784314 2:0.11764706 3:0.049019608 4:0.029411765 5:0.049019608 6:0.058823529 7:0.049019608 8:0.068627451 9:0.039215686 10:0.019607843 11:0.019607843 12:0.11764706 13:0.058823529 14:0.049019608 15:0.039215686 16:0.0098039216 17:0.019607843 18:0.019607843 19:0.039215686 20:0.039215686 
-9.366729310531662 1:0.075284091 2:0.092329545 3:0.069602273 4:0.090909091 5:0.029829545 6:0.048295455 7:0.0085227273 8:0.045454545 9:0.03125 10:0.014204545 11:0.045454545 12:0.066761364 13:0.048295455 14:0.046875 15:0.056818182 16:0.044034091 17:0.055397727 18:0.011363636 19:0.066761364 20:0.052556818 
-17 1:0.070247934 2:0.093663912 3:0.055096419 4:0.08953168 5:0.046831956 6:0.038567493 7:0.013774105 8:0.027548209 9:0.041322314 10:0.011019284 11:0.060606061 12:0.063360882 13:0.044077135 14:0.049586777 15:0.02892562 16:0.068870523 17:0.064738292 18:0.033057851 19:0.050964187 20:0.048209366 
-1.645057969799922 1:0.0625 2:0.0625 3:0.05625 4:0.03125 5:0.0625 6:0.04375 7:0.0125 8:0.0875 9:0.0375 10:0.00625 11:0.03125 12:0.08125 13:0.0875 14:0.05 15:0.0375 16:0.075 17:0.075 18:0.00625 19:0.08125 20:0.0125 
-2.407557604330421 1:0.10569106 2:0.081300813 3:0.073170732 4:0.06504065 5:0.077235772 6:0.048780488 7:0.020325203 8:0.020325203 9:0.040650407 10:0.016260163 11:0.048780488 12:0.10162602 13:0.032520325 14:0.06097561 15:0.056910569 16:0.040650407 17:0.020325203 18:0.012195122 19:0.048780488 20:0.028455285 
-6.075268606088704 1:0.074829932 2:0.10204082 3:0.095238095 4:0.088435374 5:0.034013605 6:0.013605442 7:0.013605442 8:0.040816327 9:0.034013605 10:0.013605442 11:0.054421769 12:0.088435374 13:0.081632653 14:0.020408163 15:0 16:0.034013605 17:0.088435374 18:0.034013605 19:0.054421769 20:0.034013605 
-4.100169961558467 1:0.053030303 2:0.068181818 3:0.098484848 4:0.11363636 5:0.037878788 6:0.053030303 7:0.015151515 8:0.0075757576 9:0.045454545 10:0 11:0.037878788 12:0.03030303 13:0.075757576 14:0.037878788 15:0.022727273 16:0.075757576 17:0.083333333 18:0.022727273 19:0.083333333 20:0.037878788 
-7.459842418997792 1:0.077894737 2:0.067368421 3:0.04 4:0.067368421 5:0.033684211 6:0.027368421 7:0.010526316 8:0.048421053 9:0.056842105 10:0.021052632 11:0.075789474 12:0.086315789 13:0.046315789 14:0.023157895 15:0.054736842 16:0.058947368 17:0.08 18:0.012631579 19:0.04 20:0.071578947 
-3.803200561861232 1:0.054054054 2:0.054054054 3:0.063063063 4:0.12387387 5:0.036036036 6:0.0045045045 7:0.047297297 8:0.063063063 9:0.022522523 10:0.009009009 11:0.058558559 12:0.058558559 13:0.067567568 14:0.036036036 15:0.038288288 16:0.040540541 17:0.078828829 18:0.02027027 19:0.072072072 20:0.051801802 
