svm_type c_svc
kernel_type rbf
gamma 100
nr_class 2
total_sv 127
rho 0.937976
label 0 1
probA -2.71325
probB -0.180712
nr_sv 47 80
SV
3.4 1:0.080796253 2:0.06440281 3:0.079625293 4:0.097189696 5:0.039812646 6:0.019906323 7:0.012880562 8:0.021077283 9:0.017564403 10:0.012880562 11:0.084309133 12:0.10187354 13:0.06440281 14:0.023419204 15:0.053864169 16:0.055035129 17:0.069086651 18:0.016393443 19:0.045667447 20:0.039812646 
2.673463429682994 1:0.078014184 2:0.12056738 3:0.070921986 4:0.13475177 5:0.063829787 6:0.021276596 7:0.028368794 8:0.070921986 9:0.014184397 10:0 11:0.035460993 12:0.15602837 13:0.056737589 14:0.0070921986 15:0.028368794 16:0.021276596 17:0.021276596 18:0 19:0.035460993 20:0.035460993 
2.26591546290204 1:0.06547619 2:0.19642857 3:0.095238095 4:0.11309524 5:0.029761905 6:0 7:0.017857143 8:0.035714286 9:0.011904762 10:0 11:0.047619048 12:0.053571429 13:0.05952381 14:0.035714286 15:0.041666667 16:0.035714286 17:0.06547619 18:0.017857143 19:0.023809524 20:0.053571429 
2.781641691272251 1:0.082840237 2:0.094674556 3:0.071005917 4:0.18934911 5:0.035502959 6:0.023668639 7:0.029585799 8:0.041420118 9:0.023668639 10:0.023668639 11:0.047337278 12:0.10059172 13:0.029585799 14:0.035502959 15:0.01183432 16:0.0059171598 17:0.023668639 18:0.041420118 19:0.041420118 20:0.047337278 
3.4 1:0.066889632 2:0.060200669 3:0.066889632 4:0.10033445 5:0.02006689 6:0.023411371 7:0.013377926 8:0.036789298 9:0.036789298 10:0.030100334 11:0.070234114 12:0.080267559 13:0.053511706 14:0.030100334 15:0.043478261 16:0.053511706 17:0.053511706 18:0.046822742 19:0.040133779 20:0.073578595 
1.670902232392543 1:0.070336391 2:0.048929664 3:0.048929664 4:0.082568807 5:0.04587156 6:0.003058104 7:0.021406728 8:0.076452599 9:0.036697248 10:0.018348624 11:0.051987768 12:0.082568807 13:0.048929664 14:0.024464832 15:0.039755352 16:0.067278287 17:0.070336391 18:0.024464832 19:0.070336391 20:0.067278287 
1.985169225839811 1:0.092783505 2:0.10309278 3:0.041237113 4:0.12371134 5:0.020618557 6:0.020618557 7:0.030927835 8:0.041237113 9:0.020618557 10:0.030927835 11:0.092783505 12:0.041237113 13:0.051546392 14:0.051546392 15:0 16:0.020618557 17:0.030927835 18:0.10309278 19:0.030927835 20:0.051546392 
3.4 1:0.042 2:0.076 3:0.064 4:0.132 5:0.026 6:0.014 7:0.044 8:0.052 9:0.028 10:0.02 11:0.058 12:0.058 13:0.044 14:0.046 15:0.056 16:0.026 17:0.068 18:0.034 19:0.038 20:0.074 
3.011106723458234 1:0.052224371 2:0.069632495 3:0.03868472 4:0.14119923 5:0.056092843 6:0.0096711799 7:0.032882012 8:0.056092843 9:0.027079304 10:0.015473888 11:0.048355899 12:0.048355899 13:0.063829787 14:0.042553191 15:0.048355899 16:0.040618956 17:0.065764023 18:0.027079304 19:0.044487427 20:0.071566731 
1.645843193564877 1:0.076923077 2:0.076923077 3:0.071005917 4:0.088757396 5:0.035502959 6:0.01183432 7:0.029585799 8:0.047337278 9:0.047337278 10:0.029585799 11:0.041420118 12:0.076923077 13:0.029585799 14:0.029585799 15:0.041420118 16:0.029585799 17:0.082840237 18:0.017751479 19:0.088757396 20:0.047337278 
0.8523282870780713 1:0.080952381 2:0.080952381 3:0.047619048 4:0.13333333 5:0.019047619 6:0.0095238095 7:0.0095238095 8:0.019047619 9:0.038095238 10:0.023809524 11:0.052380952 12:0.09047619 13:0.080952381 14:0.033333333 15:0.033333333 16:0.061904762 17:0.047619048 18:0.014285714 19:0.061904762 20:0.061904762 
0.8667437332637761 1:0.059101655 2:0.073286052 3:0.066193853 4:0.061465721 5:0.059101655 6:0.021276596 7:0.033096927 8:0.044917258 9:0.037825059 10:0.026004728 11:0.06855792 12:0.059101655 13:0.054373522 14:0.040189125 15:0.026004728 16:0.061465721 17:0.056737589 18:0.028368794 19:0.054373522 20:0.06855792 
2.8527774746356 1:0.069364162 2:0.086705202 3:0.086705202 4:0.12138728 5:0.034682081 6:0.023121387 7:0.01734104 8:0.01734104 9:0.028901734 10:0.01734104 11:0.063583815 12:0.075144509 13:0.057803468 14:0.040462428 15:0.01734104 16:0.023121387 17:0.11560694 18:0.0057803468 19:0.052023121 20:0.046242775 
1.809572449832908 1:0.084313725 2:0.082352941 3:0.055882353 4:0.093137255 5:0.054901961 6:0.02745098 7:0.029411765 8:0.034313725 9:0.02745098 10:0.010784314 11:0.053921569 12:0.066666667 13:0.048039216 14:0.035294118 15:0.039215686 16:0.050980392 17:0.061764706 18:0.037254902 19:0.046078431 20:0.060784314 
1.079995445866424 1:0.057777778 2:0.088888889 3:0.084444444 4:0.11555556 5:0.04 6:0.026666667 7:0.0044444444 8:0.022222222 9:0.013333333 10:0.017777778 11:0.048888889 12:0.044444444 13:0.048888889 14:0.0044444444 15:0.044444444 16:0.053333333 17:0.10222222 18:0.022222222 19:0.066666667 20:0.093333333 
3.4 1:0.066929134 2:0.080708661 3:0.057086614 4:0.10629921 5:0.031496063 6:0.017716535 7:0.027559055 8:0.041338583 9:0.045275591 10:0.011811024 11:0.045275591 12:0.086614173 13:0.066929134 14:0.035433071 15:0.047244094 16:0.059055118 17:0.045275591 18:0.015748031 19:0.057086614 20:0.05511811 
1.799267598375267 1:0.073394495 2:0.1559633 3:0.036697248 4:0.04587156 5:0.036697248 6:0 7:0.018348624 8:0.027522936 9:0.0091743119 10:0.018348624 11:0 12:0.073394495 13:0.018348624 14:0.018348624 15:0.064220183 16:0.04587156 17:0.11926606 18:0.04587156 19:0.091743119 20:0.10091743 
1.031784858718335 1:0.085294118 2:0.12352941 3:0.073529412 4:0.094117647 5:0.05 6:0.023529412 7:0.026470588 8:0.047058824 9:0.05 10:0.011764706 11:0.070588235 12:0.061764706 13:0.055882353 14:0.020588235 15:0.041176471 16:0.017647059 17:0.047058824 18:0.0058823529 19:0.061764706 20:0.032352941 
3.4 1:0.037593985 2:0.045112782 3:0.042606516 4:0.13283208 5:0.07518797 6:0.020050125 7:0.025062657 8:0.05764411 9:0.01754386 10:0.012531328 11:0.030075188 12:0.097744361 13:0.045112782 14:0.082706767 15:0.022556391 16:0.040100251 17:0.062656642 18:0.010025063 19:0.077694236 20:0.065162907 
2.132695612277459 1:0.08033241 2:0.10249307 3:0.10249307 4:0.077562327 5:0.060941828 6:0.027700831 7:0.033240997 8:0.033240997 9:0.022160665 10:0.011080332 11:0.052631579 12:0.055401662 13:0.03601108 14:0.03601108 15:0.03601108 16:0.066481994 17:0.047091413 18:0.019390582 19:0.049861496 20:0.049861496 
3.4 1:0.062857143 2:0.068571429 3:0.048571429 4:0.12571429 5:0.054285714 6:0.011428571 7:0.034285714 8:0.034285714 9:0.04 10:0.017142857 11:0.037142857 12:0.065714286 13:0.068571429 14:0.037142857 15:0.037142857 16:0.045714286 17:0.065714286 18:0.034285714 19:0.071428571 20:0.04 
0.5566721309732082 1:0.066513761 2:0.066513761 3:0.064220183 4:0.098623853 5:0.048165138 6:0.0091743119 7:0.029816514 8:0.04587156 9:0.050458716 10:0.0068807339 11:0.061926606 12:0.087155963 13:0.036697248 14:0.04587156 15:0.036697248 16:0.052752294 17:0.050458716 18:0.025229358 19:0.04587156 20:0.071100917 
3.4 1:0.056097561 2:0.083739837 3:0.078861789 4:0.12926829 5:0.014634146 6:0.025203252 7:0.024390244 8:0.030894309 9:0.021138211 10:0.015447154 11:0.068292683 12:0.059349593 13:0.040650407 14:0.015447154 15:0.07398374 16:0.038211382 17:0.063414634 18:0.033333333 19:0.051219512 20:0.076422764 
1.162351543878747 1:0.019379845 2:0.1124031 3:0.069767442 4:0.10077519 5:0.050387597 6:0.011627907 7:0.019379845 8:0.015503876 9:0.023255814 10:0.003875969 11:0.058139535 12:0.054263566 13:0.027131783 14:0.034883721 15:0.058139535 16:0.034883721 17:0.073643411 18:0.023255814 19:0.12403101 20:0.085271318 
3.101861166739011 1:0.035 2:0.12 3:0.07 4:0.12 5:0.02 6:0 7:0.015 8:0.015 9:0.015 10:0.015 11:0.05 12:0.015 13:0.035 14:0.035 15:0.085 16:0.015 17:0.135 18:0.015 19:0.055 20:0.135 
0.1026576074344683 1:0.075289575 2:0.081081081 3:0.054054054 4:0.11969112 5:0.032818533 6:0.015444015 7:0.023166023 8:0.042471042 9:0.028957529 10:0.0057915058 11:0.065637066 12:0.052123552 13:0.052123552 14:0.030888031 15:0.061776062 16:0.036679537 17:0.075289575 18:0.028957529 19:0.028957529 20:0.088803089 
0.2488156542854603 1:0.11369509 2:0.098191214 3:0.054263566 4:0.082687339 5:0.056847545 6:0.010335917 7:0.028423773 8:0.064599483 9:0.043927649 10:0.012919897 11:0.031007752 12:0.07751938 13:0.036175711 14:0.049095607 15:0.036175711 16:0.043927649 17:0.025839793 18:0.0051679587 19:0.069767442 20:0.059431525 
0.3788330984545093 1:0.045685279 2:0.096446701 3:0.096446701 4:0.081218274 5:0.050761421 6:0 7:0.010152284 8:0.050761421 9:0.010152284 10:0.0050761421 11:0.07106599 12:0.086294416 13:0.11167513 14:0.035532995 15:0.035532995 16:0.050761421 17:0.050761421 18:0.010152284 19:0.050761421 20:0.050761421 
3.4 1:0.073995772 2:0.067653277 3:0.080338266 4:0.12684989 5:0.035940803 6:0.012684989 7:0.023255814 8:0.027484144 9:0.035940803 10:0.019027484 11:0.050739958 12:0.084566596 13:0.038054968 14:0.033826638 15:0.044397463 16:0.048625793 17:0.063424947 18:0.029598309 19:0.059196617 20:0.044397463 
1.619005977708541 1:0.085889571 2:0.10429448 3:0.085889571 4:0.09202454 5:0.024539877 6:0.018404908 7:0.024539877 8:0.024539877 9:0.018404908 10:0.018404908 11:0.055214724 12:0.14110429 13:0.036809816 14:0.030674847 15:0.0061349693 16:0.036809816 17:0.085889571 18:0.036809816 19:0.061349693 20:0.012269939 
2.011876101502078 1:0.27848101 2:0.075949367 3:0.050632911 4:0.063291139 5:0.03164557 6:0.0063291139 7:0.025316456 8:0.050632911 9:0.03164557 10:0.0063291139 11:0.025316456 12:0.069620253 13:0.03164557 14:0.056962025 15:0.0063291139 16:0.063291139 17:0.025316456 18:0.012658228 19:0.025316456 20:0.063291139 
1.748605926117595 1:0.03960396 2:0.054455446 3:0.079207921 4:0.10891089 5:0.02970297 6:0 7:0.02970297 8:0.03960396 9:0.014851485 10:0.004950495 11:0.044554455 12:0.11881188 13:0.034653465 14:0.04950495 15:0.01980198 16:0.084158416 17:0.074257426 18:0.0099009901 19:0.074257426 20:0.089108911 
0.6587133419299595 1:0.056872038 2:0.071090047 3:0.061611374 4:0.071090047 5:0.052132701 6:0.0047393365 7:0.023696682 8:0.028436019 9:0.014218009 10:0.014218009 11:0.037914692 12:0.11848341 13:0.028436019 14:0.018957346 15:0.018957346 16:0.09478673 17:0.085308057 18:0.028436019 19:0.061611374 20:0.10900474 
1.311539419910985 1:0.10810811 2:0.033783784 3:0.087837838 4:0.10810811 5:0.067567568 6:0.02027027 7:0.0067567568 8:0.02027027 9:0.027027027 10:0 11:0.013513514 12:0.074324324 13:0.033783784 14:0.054054054 15:0.040540541 16:0.040540541 17:0.040540541 18:0.033783784 19:0.060810811 20:0.12837838 
3.009862641000222 1:0.11764706 2:0.090909091 3:0.10695187 4:0.072192513 5:0.053475936 6:0.016042781 7:0.018716578 8:0.026737968 9:0.032085561 10:0.013368984 11:0.045454545 12:0.06684492 13:0.050802139 14:0.045454545 15:0.024064171 16:0.040106952 17:0.056149733 18:0.021390374 19:0.072192513 20:0.029411765 
1.444109035081511 1:0.040935673 2:0.040935673 3:0.055555556 4:0.090643275 5:0.061403509 6:0.011695906 7:0.023391813 8:0.055555556 9:0.040935673 10:0.020467836 11:0.061403509 12:0.055555556 13:0.052631579 14:0.043859649 15:0.026315789 16:0.061403509 17:0.070175439 18:0.038011696 19:0.081871345 20:0.067251462 
3.4 1:0.072562358 2:0.077097506 3:0.074829932 4:0.092970522 5:0.065759637 6:0.015873016 7:0.027210884 8:0.040816327 9:0.01814059 10:0.0068027211 11:0.022675737 12:0.079365079 13:0.083900227 14:0.065759637 15:0.034013605 16:0.063492063 17:0.045351474 18:0.0045351474 19:0.079365079 20:0.029478458 
2.7232972336361 1:0.083102493 2:0.091412742 3:0.041551247 4:0.085872576 5:0.024930748 6:0.0027700831 7:0.016620499 8:0.055401662 9:0.04432133 10:0.024930748 11:0.049861496 12:0.072022161 13:0.055401662 14:0.063711911 15:0.030470914 16:0.069252078 17:0.055401662 18:0.022160665 19:0.072022161 20:0.038781163 
3.4 1:0.05065666 2:0.067542214 3:0.067542214 4:0.10131332 5:0.07879925 6:0.020637899 7:0.016885553 8:0.037523452 9:0.030018762 10:0.0075046904 11:0.04315197 12:0.08630394 13:0.071294559 14:0.052532833 15:0.030018762 16:0.03564728 17:0.063789869 18:0.030018762 19:0.054409006 20:0.054409006 
0.6051869700396326 1:0.04526749 2:0.055555556 3:0.04526749 4:0.10699588 5:0.04526749 6:0.0061728395 7:0.016460905 8:0.049382716 9:0.032921811 10:0.016460905 11:0.057613169 12:0.067901235 13:0.041152263 14:0.049382716 15:0.049382716 16:0.043209877 17:0.076131687 18:0.020576132 19:0.12139918 20:0.053497942 
2.230431070765947 1:0.069033531 2:0.062130178 3:0.059171598 4:0.096646943 5:0.045364892 6:0.0069033531 7:0.01183432 8:0.049309665 9:0.033530572 10:0.016765286 11:0.050295858 12:0.078895464 13:0.061143984 14:0.040433925 15:0.045364892 16:0.052268245 17:0.070019724 18:0.033530572 19:0.069033531 20:0.048323471 
1.458381504870327 1:0.044776119 2:0.089552239 3:0.049751244 4:0.10199005 5:0.074626866 6:0.0024875622 7:0.027363184 8:0.047263682 9:0.017412935 10:0.019900498 11:0.049751244 12:0.097014925 13:0.072139303 14:0.054726368 15:0.059701493 16:0.029850746 17:0.029850746 18:0.02238806 19:0.059701493 20:0.049751244 
0.3154162051104771 1:0.079439252 2:0.03271028 3:0.093457944 4:0.093457944 5:0.08411215 6:0.0046728972 7:0.018691589 8:0.03271028 9:0.018691589 10:0.0046728972 11:0.051401869 12:0.070093458 13:0.046728972 14:0.051401869 15:0.051401869 16:0.037383178 17:0.051401869 18:0.028037383 19:0.098130841 20:0.051401869 
2.256425818744101 1:0.06010929 2:0.027322404 3:0.038251366 4:0.10928962 5:0.054644809 6:0.021857923 7:0.016393443 8:0.021857923 9:0.032786885 10:0.016393443 11:0.049180328 12:0.043715847 13:0.049180328 14:0.038251366 15:0.06557377 16:0.054644809 17:0.049180328 18:0.049180328 19:0.1420765 20:0.06010929 
0.7728836898822032 1:0.08583691 2:0.10300429 3:0.051502146 4:0.098712446 5:0.0472103 6:0.0042918455 7:0.008583691 8:0.0472103 9:0.034334764 10:0.025751073 11:0.038626609 12:0.042918455 13:0.068669528 14:0.064377682 15:0.055793991 16:0.0472103 17:0.0472103 18:0.025751073 19:0.081545064 20:0.021459227 
1.868780551929091 1:0.047244094 2:0.05511811 3:0.062992126 4:0.094488189 5:0.078740157 6:0.031496063 7:0.047244094 8:0.047244094 9:0.031496063 10:0.0078740157 11:0.062992126 12:0.039370079 13:0.070866142 14:0.031496063 15:0.039370079 16:0.062992126 17:0.039370079 18:0.0078740157 19:0.1023622 20:0.039370079 
0.4801718235685933 1:0.054347826 2:0.095108696 3:0.089673913 4:0.12771739 5:0.032608696 6:0.0027173913 7:0.0027173913 8:0.048913043 9:0.04076087 10:0 11:0.032608696 12:0.086956522 13:0.051630435 14:0.048913043 15:0.024456522 16:0.067934783 17:0.057065217 18:0.0081521739 19:0.08423913 20:0.043478261 
-2 1:0.074889868 2:0.022026432 3:0.052863436 4:0.10572687 5:0.026431718 6:0.0088105727 7:0.017621145 8:0.026431718 9:0.017621145 10:0.013215859 11:0.066079295 12:0.057268722 13:0.035242291 14:0.035242291 15:0.057268722 16:0.079295154 17:0.10572687 18:0.039647577 19:0.066079295 20:0.092511013 
-0.01508022960451729 1:0.066666667 2:0.043333333 3:0.026666667 4:0.056666667 5:0.06 6:0.063333333 7:0.01 8:0.073333333 9:0.033333333 10:0.01 11:0.06 12:0.04 13:0.07 14:0.066666667 15:0.033333333 16:0.036666667 17:0.076666667 18:0.016666667 19:0.11 20:0.046666667 
-2 1:0.077283372 2:0.077283372 3:0.051522248 4:0.15925059 5:0.037470726 6:0.018735363 7:0.028103044 8:0.032786885 9:0.032786885 10:0.0093676815 11:0.051522248 12:0.06557377 13:0.049180328 14:0.018735363 15:0.053864169 16:0.044496487 17:0.058548009 18:0.042154567 19:0.042154567 20:0.049180328 
-1.611551181187691 1:0.047619048 2:0.03968254 3:0.031746032 4:0.079365079 5:0.063492063 6:0.03968254 7:0.023809524 8:0.023809524 9:0.0079365079 10:0.0079365079 11:0.03968254 12:0.071428571 13:0.071428571 14:0.063492063 15:0.055555556 16:0.031746032 17:0.031746032 18:0.015873016 19:0.17460317 20:0.079365079 
-2 1:0.040816327 2:0.071428571 3:0.071428571 4:0.14285714 5:0.051020408 6:0.040816327 7:0.020408163 8:0.020408163 9:0.020408163 10:0.020408163 11:0.081632653 12:0.071428571 13:0.071428571 14:0.020408163 15:0.051020408 16:0.040816327 17:0.020408163 18:0.010204082 19:0.040816327 20:0.091836735 
-0.5355251144571788 1:0.030927835 2:0.13402062 3:0.06185567 4:0.12371134 5:0.051546392 6:0.06185567 7:0.030927835 8:0.030927835 9:0.020618557 10:0.020618557 11:0.030927835 12:0.06185567 13:0.030927835 14:0.041237113 15:0.041237113 16:0.041237113 17:0.020618557 18:0.020618557 19:0.082474227 20:0.06185567 
-0.9702524910404865 1:0.02020202 2:0.090909091 3:0.03030303 4:0.1010101 5:0.050505051 6:0.050505051 7:0.02020202 8:0.04040404 9:0.02020202 10:0.01010101 11:0.060606061 12:0.060606061 13:0.1010101 14:0.02020202 15:0.060606061 16:0.04040404 17:0.03030303 18:0.02020202 19:0.12121212 20:0.050505051 
-0.1075825636706328 1:0.043010753 2:0.032258065 3:0.043010753 4:0.032258065 5:0.096774194 6:0.043010753 7:0.032258065 8:0.043010753 9:0.064516129 10:0.010752688 11:0.064516129 12:0.096774194 13:0.096774194 14:0.032258065 15:0.032258065 16:0.043010753 17:0.043010753 18:0.021505376 19:0.086021505 20:0.043010753 
-1.678836817721962 1:0.11904762 2:0.098639456 3:0.068027211 4:0.088435374 5:0.034013605 6:0.0034013605 7:0.010204082 8:0.051020408 9:0.013605442 10:0.0068027211 11:0.037414966 12:0.10884354 13:0.051020408 14:0.078231293 15:0.051020408 16:0.047619048 17:0.013605442 18:0.023809524 19:0.051020408 20:0.044217687 
-0.8583563197981219 1:0.05 2:0.06 3:0.075 4:0.075 5:0.015 6:0.025 7:0.04 8:0.05 9:0.035 10:0.02 11:0.06 12:0.135 13:0.045 14:0.045 15:0.025 16:0.045 17:0.065 18:0.015 19:0.02 20:0.1 
-2 1:0.041666667 2:0.069444444 3:0.041666667 4:0.13888889 5:0.032407407 6:0.018518519 7:0.027777778 8:0.055555556 9:0.037037037 10:0.0092592593 11:0.055555556 12:0.064814815 13:0.064814815 14:0.041666667 15:0.046296296 16:0.050925926 17:0.064814815 18:0.018518519 19:0.060185185 20:0.060185185 
-0.2079759947018516 1:0.075555556 2:0.072592593 3:0.035555556 4:0.056296296 5:0.01037037 6:0.002962963 7:0.0088888889 8:0.023703704 9:0.031111111 10:0.014814815 11:0.053333333 12:0.081481481 13:0.028148148 14:0.035555556 15:0.051851852 16:0.060740741 17:0.16888889 18:0.035555556 19:0.072592593 20:0.08 
-0.008969199631613054 1:0.11671924 2:0.05362776 3:0.025236593 4:0.034700315 5:0.022082019 6:0.0031545741 7:0.0094637224 8:0.022082019 9:0.072555205 10:0 11:0.03785489 12:0.078864353 13:0.094637224 14:0.075709779 15:0.025236593 16:0.05362776 17:0.18611987 18:0.015772871 19:0.047318612 20:0.025236593 
-2 1:0.067264574 2:0.044843049 3:0.085201794 4:0.11210762 5:0.062780269 6:0.0089686099 7:0.0089686099 8:0.049327354 9:0.053811659 10:0.02690583 11:0.058295964 12:0.085201794 13:0.040358744 14:0.040358744 15:0.040358744 16:0.040358744 17:0.062780269 18:0.01793722 19:0.053811659 20:0.040358744 
-1.834422741680696 1:0.04519774 2:0.039548023 3:0.039548023 4:0.14689266 5:0.056497175 6:0.033898305 7:0.028248588 8:0.02259887 9:0.011299435 10:0.02259887 11:0.04519774 12:0.079096045 13:0.028248588 14:0.033898305 15:0.039548023 16:0.050847458 17:0.084745763 18:0.016949153 19:0.084745763 20:0.09039548 
-0.8318632525950947 1:0.12030075 2:0.045112782 3:0.037593985 4:0.12030075 5:0.060150376 6:0.030075188 7:0.015037594 8:0.030075188 9:0.052631579 10:0.022556391 11:0.052631579 12:0.090225564 13:0.082706767 14:0.015037594 15:0.015037594 16:0.045112782 17:0.045112782 18:0.015037594 19:0.07518797 20:0.030075188 
-1.544998615326734 1:0.01793722 2:0.049327354 3:0.067264574 4:0.12556054 5:0.062780269 6:0.022421525 7:0.02690583 8:0.040358744 9:0.022421525 10:0.01793722 11:0.02690583 12:0.085201794 13:0.053811659 14:0.053811659 15:0.02690583 16:0.062780269 17:0.071748879 18:0.035874439 19:0.080717489 20:0.049327354 
-2 1:0.036199095 2:0.058823529 3:0.063348416 4:0.13122172 5:0.036199095 6:0.027149321 7:0.036199095 8:0.031674208 9:0.022624434 10:0.018099548 11:0.036199095 12:0.090497738 13:0.07239819 14:0.054298643 15:0.031674208 16:0.045248869 17:0.058823529 18:0.040723982 19:0.049773756 20:0.058823529 
-1.684674551299696 1:0.038135593 2:0.06779661 3:0.055084746 4:0.11864407 5:0.038135593 6:0.038135593 7:0.021186441 8:0.038135593 9:0.025423729 10:0.012711864 11:0.046610169 12:0.072033898 13:0.050847458 14:0.063559322 15:0.033898305 16:0.042372881 17:0.080508475 18:0.038135593 19:0.059322034 20:0.059322034 
-2 1:0.1047619 2:0.060714286 3:0.064285714 4:0.10952381 5:0.045238095 6:0.013095238 7:0.021428571 8:0.051190476 9:0.042857143 10:0.016666667 11:0.042857143 12:0.094047619 13:0.048809524 14:0.038095238 15:0.030952381 16:0.057142857 17:0.044047619 18:0.033333333 19:0.039285714 20:0.041666667 
-1.548174733842913 1:0.08 2:0.13 3:0.05 4:0.13 5:0.01 6:0.03 7:0.02 8:0.03 9:0.04 10:0.01 11:0.09 12:0.03 13:0.02 14:0.01 15:0.02 16:0.07 17:0.08 18:0.02 19:0.05 20:0.08 
-2 1:0.079365079 2:0.063492063 3:0.031746032 4:0.15079365 5:0.023809524 6:0.01984127 7:0.031746032 8:0.027777778 9:0.015873016 10:0.003968254 11:0.063492063 12:0.067460317 13:0.051587302 14:0.027777778 15:0.05952381 16:0.03968254 17:0.047619048 18:0.027777778 19:0.043650794 20:0.12301587 
-1.758274254723676 1:0.041237113 2:0.06185567 3:0.030927835 4:0.10309278 5:0.041237113 6:0.010309278 7:0.051546392 8:0.020618557 9:0.051546392 10:0.041237113 11:0.072164948 12:0.10309278 13:0.06185567 14:0.041237113 15:0.020618557 16:0.06185567 17:0.06185567 18:0.010309278 19:0.030927835 20:0.082474227 
-0.1058999913047511 1:0.092307692 2:0.046153846 3:0 4:0.092307692 5:0.061538462 6:0.092307692 7:0.030769231 8:0.092307692 9:0.030769231 10:0.015384615 11:0.076923077 12:0.061538462 13:0 14:0.015384615 15:0 16:0.030769231 17:0.030769231 18:0.030769231 19:0.15384615 20:0.046153846 
-1.533340830715998 1:0.090551181 2:0.059055118 3:0.027559055 4:0.12992126 5:0.015748031 6:0.027559055 7:0.019685039 8:0.047244094 9:0.031496063 10:0.011811024 11:0.047244094 12:0.098425197 13:0.039370079 14:0.023622047 15:0.039370079 16:0.05511811 17:0.090551181 18:0.0039370079 19:0.078740157 20:0.062992126 
-2 1:0.083160083 2:0.097713098 3:0.064449064 4:0.095634096 5:0.045738046 6:0.058212058 7:0.016632017 8:0.022869023 9:0.029106029 10:0.0020790021 11:0.033264033 12:0.072765073 13:0.066528067 14:0.029106029 15:0.035343035 16:0.056133056 17:0.047817048 18:0.037422037 19:0.051975052 20:0.054054054 
-1.934168896122508 1:0.052173913 2:0.10434783 3:0.069565217 4:0.10434783 5:0.034782609 6:0 7:0.060869565 8:0.017391304 9:0.017391304 10:0.0086956522 11:0.060869565 12:0.060869565 13:0.034782609 14:0.026086957 15:0.060869565 16:0.0086956522 17:0.13043478 18:0.017391304 19:0.069565217 20:0.060869565 
-2 1:0.042016807 2:0.10084034 3:0.092436975 4:0.1092437 5:0.033613445 6:0 7:0.033613445 8:0.016806723 9:0.016806723 10:0 11:0.050420168 12:0.067226891 13:0.042016807 14:0.025210084 15:0.084033613 16:0.025210084 17:0.10084034 18:0.016806723 19:0.075630252 20:0.067226891 
-0.2221280561105681 1:0.05 2:0.11 3:0.08 4:0.16 5:0.05 6:0.05 7:0.01 8:0.01 9:0 10:0 11:0.08 12:0.04 13:0.07 14:0.04 15:0.07 16:0.02 17:0.03 18:0.02 19:0.08 20:0.03 
-0.2308795298857777 1:0.054726368 2:0.10447761 3:0.054726368 4:0.16915423 5:0.019900498 6:0.029850746 7:0.0099502488 8:0.059701493 9:0.0099502488 10:0.0049751244 11:0.059701493 12:0.029850746 13:0.059701493 14:0.024875622 15:0.094527363 16:0.049751244 17:0.049751244 18:0.044776119 19:0.014925373 20:0.054726368 
-2 1:0.08097166 2:0.044534413 3:0.056680162 4:0.099190283 5:0.070850202 6:0.024291498 7:0.026315789 8:0.048582996 9:0.022267206 10:0.020242915 11:0.042510121 12:0.070850202 13:0.058704453 14:0.044534413 15:0.05465587 16:0.038461538 17:0.05465587 18:0.04048583 19:0.062753036 20:0.038461538 
-0.2937011144370688 1:0.033653846 2:0.051282051 3:0.1025641 4:0.09775641 5:0.046474359 6:0.0064102564 7:0.020833333 8:0.048076923 9:0.052884615 10:0.017628205 11:0.056089744 12:0.051282051 13:0.049679487 14:0.056089744 15:0.046474359 16:0.048076923 17:0.072115385 18:0.043269231 19:0.051282051 20:0.048076923 
-0.08892431752401357 1:0.02688172 2:0.064516129 3:0.043010753 4:0.14516129 5:0.043010753 6:0.021505376 7:0.043010753 8:0.032258065 9:0.043010753 10:0.02688172 11:0.021505376 12:0.059139785 13:0.069892473 14:0.064516129 15:0.069892473 16:0.02688172 17:0.080645161 18:0.016129032 19:0.037634409 20:0.064516129 
-0.1970890507747197 1:0.019736842 2:0.072368421 3:0.026315789 4:0.18421053 5:0.059210526 6:0.013157895 7:0.026315789 8:0.032894737 9:0.0065789474 10:0.013157895 11:0.078947368 12:0.046052632 13:0.072368421 14:0.085526316 15:0.059210526 16:0.039473684 17:0.046052632 18:0.019736842 19:0.046052632 20:0.052631579 
-2 1:0.068181818 2:0.083333333 3:0.068181818 4:0.14393939 5:0.053030303 6:0.037878788 7:0.03030303 8:0.045454545 9:0.0075757576 10:0.0075757576 11:0.045454545 12:0.083333333 13:0.060606061 14:0.045454545 15:0.037878788 16:0.015151515 17:0.053030303 18:0.022727273 19:0.053030303 20:0.037878788 
-0.7118013925946193 1:0.13829787 2:0.088652482 3:0.067375887 4:0.088652482 5:0.031914894 6:0.063829787 7:0.010638298 8:0 9:0.021276596 10:0.010638298 11:0.081560284 12:0.085106383 13:0.046099291 14:0.014184397 15:0.031914894 16:0.028368794 17:0.067375887 18:0.014184397 19:0.053191489 20:0.056737589 
-2 1:0.07635468 2:0.073891626 3:0.088669951 4:0.07635468 5:0.044334975 6:0.02955665 7:0.012315271 8:0.019704433 9:0.051724138 10:0.019704433 11:0.051724138 12:0.044334975 13:0.054187192 14:0.051724138 15:0.041871921 16:0.061576355 17:0.061576355 18:0.032019704 19:0.086206897 20:0.022167488 
-0.7719790141683203 1:0.13488372 2:0.079069767 3:0.074418605 4:0.069767442 5:0.03255814 6:0.018604651 7:0.037209302 8:0.046511628 9:0.013953488 10:0.013953488 11:0.10697674 12:0.051162791 13:0.046511628 14:0.037209302 15:0.051162791 16:0.023255814 17:0.065116279 18:0.03255814 19:0.03255814 20:0.03255814 
-2 1:0.079903148 2:0.065375303 3:0.099273608 4:0.05811138 5:0.043583535 6:0.021791768 7:0.014527845 8:0.026634383 9:0.050847458 10:0.00968523 11:0.065375303 12:0.053268765 13:0.060532688 14:0.053268765 15:0.02905569 16:0.062953995 17:0.05811138 18:0.016949153 19:0.094430993 20:0.036319613 
-2 1:0.086956522 2:0.076086957 3:0.054347826 4:0.086956522 5:0.030434783 6:0.02826087 7:0.0086956522 8:0.045652174 9:0.034782609 10:0.039130435 11:0.07173913 12:0.089130435 13:0.041304348 14:0.043478261 15:0.026086957 16:0.05 17:0.05 18:0.034782609 19:0.052173913 20:0.05 
-2 1:0.0875 2:0.075 3:0.125 4:0.0875 5:0.0375 6:0.025 7:0.0375 8:0.0125 9:0.025 10:0.0375 11:0.0625 12:0.075 13:0.0125 14:0.025 15:0.0375 16:0.025 17:0.075 18:0.025 19:0.05 20:0.0625 
-0.6456732193384839 1:0.079207921 2:0.10891089 3:0.02970297 4:0.10891089 5:0.0099009901 6:0.0099009901 7:0.01980198 8:0.02970297 9:0.01980198 10:0.03960396 11:0.099009901 12:0.059405941 13:0.0099009901 14:0.01980198 15:0.079207921 16:0.04950495 17:0.099009901 18:0.02970297 19:0.02970297 20:0.069306931 
-0.4371258002235653 1:0.082397004 2:0.19101124 3:0.082397004 4:0.097378277 5:0.074906367 6:0.011235955 7:0.0037453184 8:0.014981273 9:0.029962547 10:0.0037453184 11:0.037453184 12:0.086142322 13:0.029962547 14:0.097378277 15:0.056179775 16:0.041198502 17:0.02247191 18:0 19:0 20:0.037453184 
-2 1:0.054870268 2:0.046788601 3:0.053168864 4:0.094427903 5:0.046788601 6:0.011059124 7:0.025946406 8:0.04636325 9:0.033602722 10:0.015737984 11:0.054444917 12:0.09315185 13:0.065929392 14:0.053168864 15:0.046788601 16:0.051467461 17:0.062951935 18:0.031901319 19:0.067205444 20:0.044236495 
-0.05340805536101197 1:0.1025641 2:0.05982906 3:0.13675214 4:0.05982906 5:0.051282051 6:0.068376068 7:0.025641026 8:0.034188034 9:0 10:0 11:0.094017094 12:0.051282051 13:0.042735043 14:0.025641026 15:0.051282051 16:0.042735043 17:0.025641026 18:0 19:0.094017094 20:0.034188034 
-2 1:0.033707865 2:0.10674157 3:0.078651685 4:0.1011236 5:0.02247191 6:0.016853933 7:0.04494382 8:0.033707865 9:0.04494382 10:0.011235955 11:0.028089888 12:0.078651685 13:0.073033708 14:0.011235955 15:0.0056179775 16:0.056179775 17:0.1011236 18:0.011235955 19:0.06741573 20:0.073033708 
-0.1595295154865632 1:0.042553191 2:0.19148936 3:0.053191489 4:0.095744681 5:0.074468085 6:0.063829787 7:0.021276596 8:0.010638298 9:0.031914894 10:0.021276596 11:0.063829787 12:0.031914894 13:0.021276596 14:0.010638298 15:0.053191489 16:0.042553191 17:0.063829787 18:0.010638298 19:0.021276596 20:0.074468085 
-1.25534190308103 1:0.035460993 2:0.078014184 3:0.063829787 4:0.11347518 5:0.056737589 6:0.035460993 7:0.014184397 8:0.035460993 9:0.042553191 10:0.021276596 11:0.035460993 12:0.042553191 13:0.042553191 14:0.035460993 15:0.070921986 16:0.056737589 17:0.09929078 18:0.014184397 19:0.028368794 20:0.078014184 
-0.8470269231414096 1:0.10646388 2:0.079847909 3:0.098859316 4:0.076045627 5:0.038022814 6:0.038022814 7:0.02661597 8:0.02661597 9:0.022813688 10:0.030418251 11:0.045627376 12:0.072243346 13:0.072243346 14:0.053231939 15:0.038022814 16:0.038022814 17:0.038022814 18:0.02661597 19:0.030418251 20:0.041825095 
-2 1:0.071111111 2:0.057777778 3:0.08 4:0.075555556 5:0.057777778 6:0.013333333 7:0.022222222 8:0.071111111 9:0.035555556 10:0.031111111 11:0.035555556 12:0.093333333 13:0.057777778 14:0.04 15:0.031111111 16:0.057777778 17:0.053333333 18:0.017777778 19:0.075555556 20:0.022222222 
-0.1075720245772357 1:0.051851852 2:0.044444444 3:0.13333333 4:0.088888889 5:0.02962963 6:0.044444444 7:0.022222222 8:0.037037037 9:0.044444444 10:0.0074074074 11:0.014814815 12:0.14074074 13:0.02962963 14:0.02962963 15:0.059259259 16:0.066666667 17:0.037037037 18:0 19:0.044444444 20:0.074074074 
-0.3956709332651512 1:0.056795132 2:0.056795132 3:0.081135903 4:0.11561866 5:0.073022312 6:0.014198783 7:0.026369168 8:0.060851927 9:0.020283976 10:0.010141988 11:0.032454361 12:0.095334686 13:0.064908722 14:0.032454361 15:0.054766734 16:0.050709939 17:0.048681542 18:0.028397566 19:0.052738337 20:0.024340771 
-0.1590066714595834 1:0.073529412 2:0.066176471 3:0.044117647 4:0.13235294 5:0.014705882 6:0.022058824 7:0.044117647 8:0.044117647 9:0.029411765 10:0 11:0.051470588 12:0.088235294 13:0.058823529 14:0.036764706 15:0.058823529 16:0.029411765 17:0.088235294 18:0.022058824 19:0.051470588 20:0.044117647 
-0.3794262061870985 1:0.068833652 2:0.072657744 3:0.072657744 4:0.10325048 5:0.045889101 6:0.028680688 7:0.022944551 8:0.063097514 9:0.045889101 10:0.013384321 11:0.053537285 12:0.051625239 13:0.055449331 14:0.045889101 15:0.030592734 16:0.051625239 17:0.059273423 18:0.04206501 19:0.034416826 20:0.038240918 
-2 1:0.051668461 2:0.057050592 3:0.06350915 4:0.1065662 5:0.050592034 6:0.010764263 7:0.030139935 8:0.051668461 9:0.032292788 10:0.023681378 11:0.040904198 12:0.087190527 13:0.066738428 14:0.036598493 15:0.041980624 16:0.048439182 17:0.069967707 18:0.029063509 19:0.06350915 20:0.037674919 
-0.2809463442737993 1:0.026455026 2:0.15873016 3:0.074074074 4:0.068783069 5:0.010582011 6:0.0052910053 7:0.021164021 8:0.047619048 9:0.0052910053 10:0 11:0.015873016 12:0.074074074 13:0.037037037 14:0.052910053 15:0.079365079 16:0.047619048 17:0.1005291 18:0.026455026 19:0.12698413 20:0.021164021 
-2 1:0.057877814 2:0.13504823 3:0.073954984 4:0.11575563 5:0.0064308682 6:0.0064308682 7:0.035369775 8:0.012861736 9:0.012861736 10:0.028938907 11:0.028938907 12:0.048231511 13:0.022508039 14:0.0096463023 15:0.083601286 16:0.025723473 17:0.1318328 18:0.0096463023 19:0.041800643 20:0.11254019 
-0.6977561786013733 1:0.03030303 2:0.15151515 3:0.090909091 4:0.11111111 5:0 6:0 7:0.03030303 8:0.04040404 9:0.02020202 10:0.03030303 11:0.03030303 12:0.12121212 13:0.050505051 14:0 15:0.060606061 16:0.070707071 17:0.050505051 18:0.01010101 19:0.060606061 20:0.04040404 
-0.3313866311604548 1:0.05 2:0.14 3:0.04 4:0.12 5:0 6:0.01 7:0.04 8:0.05 9:0.02 10:0.02 11:0.04 12:0.11 13:0.08 14:0 15:0.07 16:0.06 17:0.05 18:0.01 19:0.05 20:0.04 
-2 1:0.045364892 2:0.060267368 3:0.055226824 4:0.11724742 5:0.062458909 6:0.0054788516 7:0.017313171 8:0.049090511 9:0.033092264 10:0.0081087004 11:0.037475345 12:0.085908394 13:0.06574622 14:0.054131054 15:0.050405435 16:0.051062897 17:0.065307911 18:0.025202718 19:0.078238001 20:0.03287311 
-0.5411230410094905 1:0.029411765 2:0.11764706 3:0.049019608 4:0.1372549 5:0.019607843 6:0.0098039216 7:0.049019608 8:0.039215686 9:0.029411765 10:0 11:0.049019608 12:0.058823529 13:0.068627451 14:0.029411765 15:0.098039216 16:0.039215686 17:0.068627451 18:0 19:0.058823529 20:0.049019608 
-0.06590100260585915 1:0.11428571 2:0.076190476 3:0.038095238 4:0.038095238 5:0.057142857 6:0.038095238 7:0.019047619 8:0.028571429 9:0.019047619 10:0 11:0.16190476 12:0.066666667 13:0.047619048 14:0.019047619 15:0.028571429 16:0.028571429 17:0.038095238 18:0.028571429 19:0.038095238 20:0.11428571 
-2 1:0.045258621 2:0.066810345 3:0.068965517 4:0.096982759 5:0.051724138 6:0.017241379 7:0.028017241 8:0.058189655 9:0.025862069 10:0.010775862 11:0.045258621 12:0.075431034 13:0.056034483 14:0.051724138 15:0.028017241 16:0.051724138 17:0.081896552 18:0.010775862 19:0.079741379 20:0.049568966 
-0.05819184329949532 1:0.041884817 2:0.036649215 3:0.047120419 4:0.083769634 5:0.041884817 6:0.0052356021 7:0.057591623 8:0.020942408 9:0.036649215 10:0.020942408 11:0.2565445 12:0.031413613 13:0.041884817 14:0.010471204 15:0.12565445 16:0.015706806 17:0.02617801 18:0.073298429 19:0.015706806 20:0.010471204 
-0.5060815572543544 1:0.063953488 2:0.046511628 3:0.063953488 4:0.098837209 5:0.069767442 6:0.029069767 7:0.01744186 8:0.029069767 9:0.058139535 10:0.0058139535 11:0.046511628 12:0.034883721 13:0.081395349 14:0.063953488 15:0.029069767 16:0.040697674 17:0.11627907 18:0.0058139535 19:0.058139535 20:0.040697674 
-0.6923010242855175 1:0.049180328 2:0.18032787 3:0.06557377 4:0.14754098 5:0.032786885 6:0.032786885 7:0.032786885 8:0.032786885 9:0.032786885 10:0.016393443 11:0.032786885 12:0.049180328 13:0.06557377 14:0.032786885 15:0.049180328 16:0.049180328 17:0.016393443 18:0 19:0.016393443 20:0.06557377 
-0.1186946401696778 1:0.021834061 2:0.048034934 3:0.10043668 4:0.069868996 5:0.069868996 6:0.030567686 7:0.0087336245 8:0.030567686 9:0.030567686 10:0.026200873 11:0.048034934 12:0.12227074 13:0.061135371 14:0.043668122 15:0.043668122 16:0.069868996 17:0.061135371 18:0.013100437 19:0.030567686 20:0.069868996 
-2 1:0.073235686 2:0.06391478 3:0.07057257 4:0.091877497 5:0.029294274 6:0.0093209055 7:0.017310253 8:0.055925433 9:0.045272969 10:0.023968043 11:0.082556591 12:0.061251664 13:0.059920107 14:0.037283622 15:0.039946738 16:0.042609854 17:0.057256991 18:0.047936085 19:0.03195739 20:0.058588549 
-2 1:0.055288462 2:0.091346154 3:0.057692308 4:0.13942308 5:0.045673077 6:0.014423077 7:0.016826923 8:0.055288462 9:0.019230769 10:0.0048076923 11:0.036057692 12:0.057692308 13:0.0625 14:0.060096154 15:0.033653846 16:0.050480769 17:0.067307692 18:0.043269231 19:0.072115385 20:0.016826923 
-0.5644642167997914 1:0.080675422 2:0.099437148 3:0.076923077 4:0.082551595 5:0.063789869 6:0.009380863 7:0.011257036 8:0.048780488 9:0.028142589 10:0.015009381 11:0.082551595 12:0.075046904 13:0.07879925 14:0.061913696 15:0.022514071 16:0.067542214 17:0.024390244 18:0.031894934 19:0.011257036 20:0.028142589 
-0.2056470433002769 1:0.056939502 2:0.10320285 3:0.033807829 4:0.090747331 5:0.040925267 6:0.021352313 7:0.0053380783 8:0.044483986 9:0.035587189 10:0.010676157 11:0.024911032 12:0.16725979 13:0.14412811 14:0.040925267 15:0.044483986 16:0.048042705 17:0.037366548 18:0.0035587189 19:0.039145907 20:0.0071174377 
-1.199195574908339 1:0.10731707 2:0.068292683 3:0.075609756 4:0.065853659 5:0.070731707 6:0.041463415 7:0.026829268 8:0.024390244 9:0.02195122 10:0.0073170732 11:0.034146341 12:0.065853659 13:0.082926829 14:0.070731707 15:0.012195122 16:0.073170732 17:0.024390244 18:0.014634146 19:0.10243902 20:0.0097560976 
-2 1:0.071428571 2:0.10248447 3:0.043478261 4:0.090062112 5:0.062111801 6:0.031055901 7:0.01863354 8:0.049689441 9:0.01242236 10:0.0031055901 11:0.040372671 12:0.10559006 13:0.062111801 14:0.055900621 15:0.043478261 16:0.062111801 17:0.034161491 18:0.01242236 19:0.037267081 20:0.062111801 
-2 1:0.099447514 2:0.099447514 3:0.071823204 4:0.10497238 5:0.044198895 6:0.038674033 7:0.022099448 8:0.049723757 9:0.033149171 10:0.0055248619 11:0.049723757 12:0.093922652 13:0.055248619 14:0.027624309 15:0.033149171 16:0.044198895 17:0.038674033 18:0.016574586 19:0.044198895 20:0.027624309 
-1.553410947823881 1:0.068376068 2:0.085470085 3:0.048433048 4:0.094017094 5:0.085470085 6:0.0056980057 7:0.017094017 8:0.048433048 9:0.065527066 10:0.0085470085 11:0.045584046 12:0.065527066 13:0.03988604 14:0.1025641 15:0.03988604 16:0.031339031 17:0.056980057 18:0.014245014 19:0.051282051 20:0.025641026 
-2 1:0.056105611 2:0.11881188 3:0.099009901 4:0.095709571 5:0.02970297 6:0.01980198 7:0.01320132 8:0.056105611 9:0.02640264 10:0.01320132 11:0.056105611 12:0.079207921 13:0.04620462 14:0.01980198 15:0.0330033 16:0.056105611 17:0.04950495 18:0.02970297 19:0.052805281 20:0.04950495 
-1.465402187608282 1:0.084158416 2:0.074257426 3:0.064356436 4:0.17326733 5:0.024752475 6:0.004950495 7:0.0099009901 8:0.064356436 9:0.034653465 10:0.0099009901 11:0.079207921 12:0.11881188 13:0.044554455 14:0.014851485 15:0.04950495 16:0.014851485 17:0.0099009901 18:0.054455446 19:0.024752475 20:0.044554455 
-0.02085751169450123 1:0.065620542 2:0.084165478 3:0.065620542 4:0.081312411 5:0.038516405 6:0.05278174 7:0.011412268 8:0.035663338 9:0.034236805 10:0.014265335 11:0.034236805 12:0.078459344 13:0.059914408 14:0.031383738 15:0.041369472 16:0.067047076 17:0.061340942 18:0.015691869 19:0.098430813 20:0.02853067 
-0.4974946808859257 1:0.10042735 2:0.057692308 3:0.057692308 4:0.064102564 5:0.047008547 6:0.053418803 7:0.027777778 8:0.02991453 9:0.019230769 10:0.014957265 11:0.042735043 12:0.081196581 13:0.040598291 14:0.066239316 15:0.038461538 16:0.032051282 17:0.053418803 18:0.038461538 19:0.044871795 20:0.08974359 
-2 1:0.057627119 2:0.06440678 3:0.081355932 4:0.088135593 5:0.030508475 6:0.013559322 7:0.013559322 8:0.030508475 9:0.061016949 10:0.027118644 11:0.06779661 12:0.06440678 13:0.030508475 14:0.037288136 15:0.06779661 16:0.061016949 17:0.071186441 18:0.023728814 19:0.06779661 20:0.040677966 
