svm_type c_svc
kernel_type rbf
gamma 0.5
nr_class 2
total_sv 100
rho -0.376912
label 0 1
probA -7.62151
probB 4.37217
nr_sv 80 20
SV
0.3468787145171527 1:0.833331 2:0.0432015 3:0.123467 4:0.867616 5:0.913397 6:0.984999 7:0.00688981 8:0.0215874 9:0.00200028 10:0.00593934 11:0.0318817 12:0.00499595 13:0.00912822 14:0.00418036 15:0 16:0 17:1 18:1 19:0 20:0 21:1 22:0.0172085 23:0.120154 24:0.00970011 25:0.0202398 26:0.325903 27:0.0374157 28:0.36137 29:0.0816885 30:0.0263202 31:0.00111218 32:0.00443136 33:0.00218111 34:0.00972868 35:0.938474 36:0.0297059 37:0.00841264 38:0.00426941 39:0.00168511 40:0.02022 41:0.380409 42:0.279496 43:0.0620635 44:0.0658425 45:0.0132341 46:0.0810989 47:0.0833898 48:0.014246 
0.09121235995653651 1:0.189393 2:0.170638 3:0.639969 4:-0.956478 5:0.00118245 6:0.200918 7:0.00272259 8:0.00268208 9:0.0025269 10:0.0180424 11:0.0151526 12:0.034459 13:0.00664618 14:0.916586 15:0 16:0 17:0 18:0 19:1 20:0 21:0 22:0.010637 23:0.0407208 24:0.0142841 25:0.0363445 26:0.742138 27:0.00460774 28:0.0235386 29:0.125381 30:0.00234825 31:0.00412332 32:0.0121823 33:0.0179724 34:0.0152886 35:0.863739 36:0.0226838 37:0.0377915 38:0.0117627 39:0.0144566 40:0.0478962 41:0.183449 42:0.0326741 43:0.571355 44:0.132766 45:0.00155451 46:0.0254746 47:0.00119239 48:0.00363835 
0.04259885840592847 1:0.903529 2:0.0390567 3:0.0574139 4:-0.612715 5:0.0142581 6:0.180549 7:0.00872723 8:0.022949 9:0.0084373 10:0.028245 11:0.673965 12:0.127114 13:0.00769025 14:0.108614 15:0 16:0 17:0 18:0 19:1 20:0 21:1 22:0.00905243 23:0.0213385 24:0.0349533 25:0.033982 26:0.743209 27:0.0168647 28:0.0299701 29:0.108714 30:0.00191599 31:0.00412332 32:0.0121823 33:0.0179724 34:0.0152886 35:0.863739 36:0.0226838 37:0.0377915 38:0.0117627 39:0.0144566 40:0.00169741 41:0.00447834 42:0.0164793 43:0.000959795 44:0.960021 45:0.000312904 46:0.011538 47:0.00412271 48:0.000390471 
0.02126180912762627 1:0.923777 2:0.0188227 3:0.0574008 4:0.963319 5:0.0392602 6:0.830912 7:0.0288061 8:0.0164604 9:0.009923 10:0.0916828 11:0.0734068 12:0.0611191 13:0.0135638 14:0.665778 15:0 16:0 17:0 18:1 19:1 20:0 21:1 22:0.025765 23:0.043986 24:0.0114748 25:0.0155871 26:0.29489 27:0.0228143 28:0.330741 29:0.246591 30:0.00815039 31:0.00558312 32:0.0106084 33:0.0214681 34:0.0181429 35:0.819025 36:0.0348651 37:0.058114 38:0.0138311 39:0.018362 40:0.0353249 41:0.0405807 42:0.0773724 43:0.00419075 44:0.721559 45:0.00321817 46:0.0912209 47:0.00574197 48:0.0207913 
0.3564433596410623 1:0.254342 2:0.0799296 3:0.665728 4:-0.960453 5:0.0721133 6:0.562807 7:0.0164816 8:0.108439 9:0.0350954 10:0.0159751 11:0.11529 12:0.0334657 13:0.192674 14:0.410466 15:0 16:0 17:0 18:0 19:0 20:0 21:0 22:0.125601 23:0.0757876 24:0.0244178 25:0.298309 26:0.0540458 27:0.054224 28:0.0608207 29:0.118522 30:0.188273 31:0.11 32:0.11 33:0.11 34:0.11 35:0.11 36:0.11 37:0.11 38:0.11 39:0.11 40:0.987046 41:0.00271412 42:0.000457019 43:0.00155347 44:0.00276181 45:7.84074e-05 46:0.000409837 47:0.00491076 48:6.81488e-05 
0.3290414109557261 1:0.265734 2:0.0696071 3:0.664659 4:-0.945257 5:0.608251 6:0.73147 7:0.00318084 8:0.143674 9:0.112251 10:0.0191965 11:0.00547818 12:0.0694675 13:0.00962248 14:0.0288786 15:1 16:0 17:0 18:1 19:0 20:0 21:1 22:0.054084 23:0.0253316 24:0.0103961 25:0.183378 26:0.292991 27:0.0275374 28:0.0240925 29:0.374355 30:0.00783475 31:0.11 32:0.11 33:0.11 34:0.11 35:0.11 36:0.11 37:0.11 38:0.11 39:0.11 40:0.00735496 41:0.0364028 42:0.00344287 43:0.00849652 44:0.940312 45:0.000459889 46:0.000254069 47:0.00266658 48:0.000610736 
0.438284510077718 1:0.875395 2:0.065937 3:0.0586682 4:-0.673154 5:0.00155983 6:0.149642 7:0.0310391 8:0.013757 9:0.00615436 10:0.0547102 11:0.0888039 12:0.0280191 13:0.00548301 14:0.770474 15:0 16:0 17:0 18:0 19:0 20:0 21:0 22:0.256724 23:0.212701 24:0.0340058 25:0.0210005 26:0.0705845 27:0.146513 28:0.211269 29:0.0299726 30:0.0172306 31:0.0185081 32:0.0348337 33:0.0222233 34:0.0741316 35:0.0260841 36:0.013732 37:0.0188083 38:0.0496444 39:0.742034 40:0.00485984 41:0.205654 42:0.0198038 43:0.13943 44:0.187574 45:0.0101477 46:0.0917773 47:0.104847 48:0.235907 
0.5 1:0.914386 2:0.0371722 3:0.0484418 4:-0.656033 5:0.00123717 6:0.105212 7:0.0608668 8:0.00881227 9:0.0151713 10:0.0788458 11:0.184616 12:0.016159 13:0.0191742 14:0.615117 15:0 16:0 17:0 18:0 19:0 20:0 21:0 22:0.273415 23:0.105728 24:0.0587523 25:0.0240199 26:0.0527207 27:0.280193 28:0.1607 29:0.0287303 30:0.0157414 31:0.0185081 32:0.0348337 33:0.0222233 34:0.0741316 35:0.0260841 36:0.013732 37:0.0188083 38:0.0496444 39:0.742034 40:0.00625764 41:0.276362 42:0.0255689 43:0.23766 44:0.167263 45:0.0147179 46:0.060628 47:0.0663645 48:0.145179 
0.3869616459014075 1:0.852307 2:0.0644631 3:0.08323 4:-0.639526 5:0.0118588 6:0.195587 7:0.00157865 8:0.0510376 9:0.00191261 10:0.0395337 11:0.0100727 12:0.00666467 13:0.815333 14:0.062008 15:0 16:0 17:0 18:0 19:0 20:0 21:0 22:0.0511205 23:0.0606593 24:0.0114657 25:0.0202921 26:0.0673493 27:0.0293083 28:0.0757481 29:0.674909 30:0.00914715 31:0.0129499 32:0.0559276 33:0.0159222 34:0.784806 35:0.0263889 36:0.0168471 37:0.0281457 38:0.020586 39:0.0384265 40:0.11 41:0.11 42:0.11 43:0.11 44:0.11 45:0.11 46:0.11 47:0.11 48:0.11 
0.1147168089434514 1:0.893575 2:0.05164 3:0.0547845 4:0.963008 5:0.0310913 6:0.156535 7:0.00888669 8:0.170369 9:0.243795 10:0.0958129 11:0.0336322 12:0.134209 13:0.0222469 14:0.259957 15:0 16:0 17:0 18:1 19:0 20:0 21:0 22:0.0448856 23:0.310155 24:0.0114259 25:0.0208979 26:0.428005 27:0.0111489 28:0.143471 29:0.0250387 30:0.00497153 31:0.0611461 32:0.670661 33:0.0251211 34:0.0177681 35:0.12168 36:0.0222372 37:0.0490079 38:0.0116834 39:0.0206954 40:0.11 41:0.11 42:0.11 43:0.11 44:0.11 45:0.11 46:0.11 47:0.11 48:0.11 
0.1811634209130898 1:0.706004 2:0.218694 3:0.0753013 4:0.620489 5:0.0404341 6:0.894341 7:0.00623179 8:0.0121534 9:0.0359219 10:0.0414412 11:0.0232531 12:0.0378658 13:0.118092 14:0.684607 15:0 16:0 17:0 18:1 19:0 20:0 21:0 22:0.224232 23:0.0869028 24:0.0696985 25:0.257919 26:0.0676069 27:0.0751095 28:0.15272 29:0.0420488 30:0.0237617 31:0.11 32:0.11 33:0.11 34:0.11 35:0.11 36:0.11 37:0.11 38:0.11 39:0.11 40:0.0303284 41:0.121302 42:0.0489619 43:0.348582 44:0.126414 45:0.0287229 46:0.150705 47:0.0347855 48:0.110199 
0.5 1:0.766184 2:0.163166 3:0.0706499 4:-0.862264 5:0.00367563 6:0.230925 7:0.156986 8:0.017447 9:0.0503903 10:0.298114 11:0.0863922 12:0.27324 13:0.0215572 14:0.0921972 15:0 16:0 17:1 18:0 19:0 20:0 21:0 22:0.0178916 23:0.141398 24:0.261222 25:0.193188 26:0.0278382 27:0.0159803 28:0.0831058 29:0.250423 30:0.00895244 31:0.0253397 32:0.681031 33:0.161534 34:0.0395893 35:0.0187091 36:0.0214048 37:0.0136841 38:0.0150857 39:0.0236224 40:0.0117836 41:0.124511 42:0.0732043 43:0.0730763 44:0.39368 45:0.0649367 46:0.13986 47:0.0621487 48:0.0567991 
0.5 1:0.827888 2:0.0393476 3:0.132765 4:0.936346 5:0.0169437 6:0.583885 7:0.11276 8:0.0457445 9:0.0175307 10:0.0496628 11:0.0147974 12:0.00491258 13:0.659023 14:0.0786251 15:0 16:0 17:0 18:0 19:0 20:0 21:0 22:0.32267 23:0.137891 24:0.0105452 25:0.397802 26:0.0590321 27:0.0226444 28:0.0209079 29:0.0100047 30:0.0185022 31:0.11 32:0.11 33:0.11 34:0.11 35:0.11 36:0.11 37:0.11 38:0.11 39:0.11 40:0.150366 41:0.436194 42:0.00913885 43:0.0196446 44:0.0559642 45:0.0065121 46:0.0121084 47:0.303382 48:0.00669016 
0.2113163144493532 1:0.831377 2:0.0730974 3:0.0955252 4:-0.866383 5:0.0126313 6:0.355814 7:0.495531 8:0.0162796 9:0.00361343 10:0.0171221 11:0.0308444 12:0.144716 13:0.0869022 14:0.19236 15:0 16:0 17:0 18:0 19:0 20:0 21:1 22:0.0476257 23:0.151263 24:0.00497494 25:0.100592 26:0.623852 27:0.00311101 28:0.0587849 29:0.0064287 30:0.00336812 31:0.0275336 32:0.0235356 33:0.0146346 34:0.0795418 35:0.774731 36:0.0269039 37:0.0265027 38:0.00559795 39:0.0210185 40:0.0106622 41:0.0522262 42:0.0313858 43:0.0173796 44:0.126623 45:0.0119148 46:0.0519852 47:0.696054 48:0.00176859 
0.03878190545505449 1:0.940125 2:0.0341045 3:0.0257703 4:-0.637658 5:0.0014374 6:0.440103 7:0.159276 8:0.00468596 9:0.00670426 10:0.0383945 11:0.0133801 12:0.0115377 13:0.0388992 14:0.725685 15:0 16:0 17:0 18:0 19:1 20:0 21:1 22:0.0424087 23:0.0413604 24:0.0203354 25:0.043174 26:0.0931499 27:0.0106543 28:0.0496015 29:0.68738 30:0.0119357 31:0.00220392 32:0.00565841 33:0.00558087 34:0.0246119 35:0.870972 36:0.0300927 37:0.0317467 38:0.017998 39:0.0111358 40:0.0242804 41:0.00232963 42:0.000533881 43:0.0142111 44:0.956776 45:0.000139016 46:0.000878189 47:0.000822863 48:2.90242e-05 
0.1562553054742165 1:0.912923 2:0.0401894 3:0.0468878 4:0.976042 5:0.0740742 6:0.826184 7:0.013526 8:0.0248682 9:0.00451259 10:0.0020885 11:0.00209976 12:0.0041407 13:0.0878664 14:0.786824 15:1 16:0 17:0 18:1 19:0 20:0 21:1 22:0.0549406 23:0.038484 24:0.00480022 25:0.105003 26:0.730469 27:0.0176473 28:0.0231021 29:0.0222067 30:0.00334718 31:0.00157485 32:0.0304353 33:0.00417184 34:0.0160916 35:0.551268 36:0.00521443 37:0.0411633 38:0.336716 39:0.0133644 40:0.000520112 41:0.00103968 42:0.000332854 43:0.968332 44:0.0227939 45:0.000310397 46:0.00486351 47:0.000265359 48:0.00154238 
0.1267592640508898 1:0.915995 2:0.0295477 3:0.0544577 4:-0.695502 5:0.000862592 6:0.0952127 7:0.0193376 8:0.00236629 9:0.00487545 10:0.0691595 11:0.00885135 12:0.715954 13:0.0116693 14:0.166924 15:1 16:0 17:0 18:0 19:1 20:0 21:0 22:0.0840371 23:0.0519671 24:0.0188593 25:0.126913 26:0.463232 27:0.0398578 28:0.0634183 29:0.14559 30:0.00612557 31:0.0110464 32:0.033135 33:0.0532077 34:0.0401988 35:0.683882 36:0.0462479 37:0.0654325 38:0.0290314 39:0.037818 40:0.0413608 41:0.1038 42:0.0541097 43:0.207404 44:0.51557 45:0.00287253 46:0.0456667 47:0.0166709 48:0.012545 
0.4915759457820402 1:0.939687 2:0.0164573 3:0.0438555 4:0.904023 5:0.00527675 6:0.12354 7:0.0149619 8:0.0337714 9:0.00350755 10:0.02119 11:0.0075843 12:0.00317025 13:0.797198 14:0.113339 15:0 16:0 17:0 18:0 19:0 20:0 21:0 22:0.107431 23:0.254327 24:0.0378219 25:0.1284 26:0.28205 27:0.0182752 28:0.0711379 29:0.095383 30:0.0051749 31:0.0291629 32:0.652482 33:0.0320303 34:0.0634517 35:0.0392764 36:0.0277341 37:0.116455 38:0.0196404 39:0.0197668 40:0.00123113 41:0.00381057 42:0.00249517 43:0.006078 44:0.887045 45:0.000581618 46:0.0531084 47:0.0379099 48:0.00774001 
0.5 1:0.927306 2:0.0322428 3:0.0404509 4:0.92733 5:0.0557471 6:0.248061 7:0.0749868 8:0.116409 9:0.0447066 10:0.0351178 11:0.040963 12:0.00808137 13:0.438603 14:0.185386 15:0 16:0 17:0 18:0 19:0 20:0 21:0 22:0.252667 23:0.181041 24:0.0747693 25:0.254315 26:0.0457012 27:0.0766039 28:0.0461831 29:0.0270588 30:0.0416605 31:0.11 32:0.11 33:0.11 34:0.11 35:0.11 36:0.11 37:0.11 38:0.11 39:0.11 40:0.0339813 41:0.0487097 42:0.00704142 43:0.689501 44:0.0534909 45:0.00836319 46:0.0622645 47:0.035734 48:0.060914 
0.2833081790732387 1:0.241792 2:0.568553 3:0.189655 4:-0.950857 5:0.00281245 6:0.0268304 7:0.00327732 8:0.0608576 9:0.118945 10:0.153088 11:0.119932 12:0.439674 13:0.00928561 14:0.092127 15:0 16:0 17:0 18:0 19:0 20:0 21:0 22:0.0259401 23:0.0275391 24:0.0513217 25:0.21074 26:0.189307 27:0.0204891 28:0.0424717 29:0.424091 30:0.00809988 31:0.0126631 32:0.0149288 33:0.0150983 34:0.0250533 35:0.856139 36:0.0147437 37:0.0356026 38:0.0170684 39:0.0087026 40:0.11 41:0.11 42:0.11 43:0.11 44:0.11 45:0.11 46:0.11 47:0.11 48:0.11 
0.03806144780863434 1:0.888218 2:0.0383953 3:0.0733865 4:0.939586 5:0.0223848 6:0.590288 7:0.152572 8:0.0232506 9:0.00383456 10:0.0606976 11:0.0135571 12:0.0572541 13:0.0436363 14:0.622813 15:1 16:0 17:0 18:0 19:1 20:0 21:1 22:0.108329 23:0.06243 24:0.0129333 25:0.0815341 26:0.376684 27:0.0205621 28:0.100646 29:0.204221 30:0.03266 31:0.000651752 32:0.00502714 33:0.0040481 34:0.00482304 35:0.979031 36:0.00167176 37:0.000993628 38:0.00204196 39:0.00171145 40:0.11 41:0.11 42:0.11 43:0.11 44:0.11 45:0.11 46:0.11 47:0.11 48:0.11 
0.259126074761668 1:0.857544 2:0.0301069 3:0.112349 4:0.90033 5:0.0122665 6:0.53947 7:0.00735065 8:0.0103743 9:0.0083049 10:0.00750598 11:0.00625061 12:0.00105005 13:0.937143 14:0.00975441 15:0 16:0 17:0 18:0 19:0 20:0 21:0 22:0.179929 23:0.219814 24:0.0698924 25:0.242339 26:0.0450375 27:0.0734951 28:0.123279 29:0.0229309 30:0.0232835 31:0.00673519 32:0.0151521 33:0.0166396 34:0.0183381 35:0.806924 36:0.0224648 37:0.0679865 38:0.0270312 39:0.0187286 40:0.0382452 41:0.132622 42:0.0294972 43:0.0741551 44:0.355852 45:0.0107658 46:0.0396392 47:0.240507 48:0.0787158 
0.20646571846305 1:0.876373 2:0.0282217 3:0.0954056 4:0.938353 5:0.021177 6:0.32296 7:0.0113846 8:0.0324007 9:0.0100471 10:0.0116362 11:0.0100956 12:0.00297828 13:0.744713 14:0.155567 15:0 16:0 17:0 18:0 19:0 20:0 21:0 22:0.103739 23:0.171791 24:0.182096 25:0.260808 26:0.0515816 27:0.127763 28:0.0335602 29:0.0440398 30:0.0246215 31:0.00673519 32:0.0151521 33:0.0166396 34:0.0183381 35:0.806924 36:0.0224648 37:0.0679865 38:0.0270312 39:0.0187286 40:0.11 41:0.11 42:0.11 43:0.11 44:0.11 45:0.11 46:0.11 47:0.11 48:0.11 
0.110483907743634 1:0.915219 2:0.0399578 3:0.0448236 4:0.897439 5:0.00116406 6:0.0738506 7:0.0431155 8:0.00282729 9:0.00234069 10:0.0262628 11:0.0286878 12:0.0459923 13:0.00872788 14:0.840882 15:1 16:0 17:0 18:1 19:1 20:0 21:1 22:0.015874 23:0.0407615 24:0.00727552 25:0.0319002 26:0.797147 27:0.0034508 28:0.0245221 29:0.0763236 30:0.00274565 31:0.0030348 32:0.0118788 33:0.016995 34:0.0164973 35:0.863387 36:0.0272118 37:0.0371342 38:0.00912316 39:0.0147384 40:0.00189724 41:0.0145547 42:0.00956804 43:0.0265898 44:0.940521 45:0.000186899 46:0.00534059 47:0.00114139 48:0.0002004 
0.05696048872858661 1:0.780848 2:0.125637 3:0.0935154 4:0.784066 5:0.0017023 6:0.120284 7:0.0115306 8:0.00387728 9:0.0229998 10:0.0325418 11:0.0642701 12:0.815911 13:0.012947 14:0.0342198 15:1 16:0 17:0 18:0 19:1 20:0 21:1 22:0.0186752 23:0.027209 24:0.010115 25:0.0412011 26:0.672774 27:0.00589383 28:0.071688 29:0.149966 30:0.002477 31:0.00268355 32:0.00926478 33:0.0174144 34:0.0152463 35:0.838732 36:0.0305181 37:0.0581545 38:0.0146376 39:0.0133483 40:0.0287469 41:0.0965811 42:0.0241711 43:0.0671048 44:0.693278 45:0.00577998 46:0.0425249 47:0.0390139 48:0.00279964 
0.2471810920313409 1:0.897206 2:0.0369863 3:0.0658075 4:0.967045 5:0.113761 6:0.720667 7:0.0251347 8:0.0835974 9:0.00572398 10:0.0130273 11:0.0425917 12:0.034801 13:0.477557 14:0.203806 15:0 16:0 17:0 18:0 19:0 20:0 21:0 22:0.120699 23:0.138048 24:0.00597249 25:0.0572816 26:0.290027 27:0.0269889 28:0.156178 29:0.193767 30:0.0110373 31:0.027 32:0.169506 33:0.0129109 34:0.578591 35:0.0838039 36:0.0415356 37:0.0479745 38:0.0129386 39:0.02574 40:0.0134347 41:0.0604166 42:0.0464078 43:0.0238205 44:0.243258 45:0.0706118 46:0.37656 47:0.0603377 48:0.105153 
0.1139217223884683 1:0.826549 2:0.0920406 3:0.0814105 4:0.938523 5:0.0299659 6:0.25545 7:0.0162691 8:0.0730899 9:0.00715035 10:0.0261864 11:0.0275544 12:0.171649 13:0.0328805 14:0.615254 15:1 16:0 17:0 18:1 19:1 20:0 21:0 22:0.0426662 23:0.0661013 24:0.00131638 25:0.0152247 26:0.833634 27:0.0012795 28:0.0249459 29:0.0121985 30:0.00263316 31:0.00447495 32:0.0103428 33:0.005348 34:0.00660227 35:0.948154 36:0.00268381 37:0.0103656 38:0.00379671 39:0.00823199 40:0.00229502 41:0.00304958 42:0.00270863 43:0.00230673 44:0.976304 45:0.000338822 46:0.0118469 47:0.000654805 48:0.000495531 
0.5 1:0.893786 2:0.0381895 3:0.0680241 4:0.578407 5:0.0101793 6:0.054145 7:0.0363529 8:0.0464296 9:0.00445897 10:0.0353908 11:0.00494847 12:0.0075778 13:0.834814 14:0.0198481 15:0 16:0 17:0 18:0 19:0 20:0 21:0 22:0.0186134 23:0.142432 24:0.160282 25:0.241292 26:0.0555109 27:0.0917195 28:0.0700267 29:0.211339 30:0.00878412 31:0.0040511 32:0.00752432 33:0.00526369 34:0.00427036 35:0.134317 36:0.0461156 37:0.0546687 38:0.731651 39:0.0121384 40:0.0732549 41:0.158454 42:0.0303807 43:0.0699819 44:0.124081 45:0.00809144 46:0.377238 47:0.132754 48:0.0257644 
0.3595667074183197 1:0.846565 2:0.073441 3:0.0799943 4:-0.950633 5:0.00356972 6:0.19951 7:0.479195 8:0.0119478 9:0.00447923 10:0.039283 11:0.00971878 12:0.0347254 13:0.233935 14:0.183146 15:0 16:0 17:0 18:0 19:0 20:0 21:1 22:0.263561 23:0.214302 24:0.0106687 25:0.0439334 26:0.171414 27:0.0320418 28:0.171983 29:0.0801666 30:0.011929 31:0.11 32:0.11 33:0.11 34:0.11 35:0.11 36:0.11 37:0.11 38:0.11 39:0.11 40:0.11 41:0.11 42:0.11 43:0.11 44:0.11 45:0.11 46:0.11 47:0.11 48:0.11 
0.1076728839740252 1:0.864733 2:0.0578381 3:0.0774292 4:-0.955564 5:0.00196904 6:0.15418 7:0.0185549 8:0.00226204 9:0.000553984 10:0.0080754 11:0.000513151 12:0.00180012 13:0.0517347 14:0.914537 15:0 16:0 17:0 18:1 19:0 20:0 21:1 22:0.0590115 23:0.0985709 24:0.0112555 25:0.128967 26:0.179868 27:0.0205301 28:0.0564085 29:0.440261 30:0.00512815 31:0.000132555 32:0.00138867 33:0.000664085 34:0.00599873 35:0.985087 36:0.0028345 37:0.00263769 38:0.000331474 39:0.000925408 40:0.00105678 41:0.00438007 42:0.000786272 43:0.00538662 44:0.972829 45:0.000118981 46:0.00387287 47:0.0114312 48:0.000138106 
0.5 1:0.84527 2:0.073655 3:0.0810747 4:0.85117 5:0.00180526 6:0.0742219 7:0.642126 8:0.0187153 9:0.00443777 10:0.0968351 11:0.0209236 12:0.00326128 13:0.179212 14:0.0326837 15:0 16:0 17:0 18:0 19:0 20:0 21:0 22:0.0251053 23:0.210016 24:0.0229246 25:0.0453867 26:0.0219537 27:0.481582 28:0.109827 29:0.0258445 30:0.0573603 31:0.00352295 32:0.00729111 33:0.0111803 34:0.00892474 35:0.488447 36:0.0246149 37:0.139854 38:0.303704 39:0.012461 40:0.00907326 41:0.248735 42:0.0569477 43:0.0228616 44:0.0981554 45:0.0249156 46:0.307924 47:0.217168 48:0.0142202 
0.062352284315601 1:0.890163 2:0.0337443 3:0.0760922 4:0.788194 5:0.00121457 6:0.0778467 7:0.294661 8:0.0106882 9:0.00669864 10:0.064261 11:0.0830866 12:0.498445 13:0.0166861 14:0.0242591 15:0 16:0 17:0 18:0 19:0 20:0 21:1 22:0.170177 23:0.107936 24:0.0388953 25:0.111316 26:0.096684 27:0.0250394 28:0.171924 29:0.248455 30:0.0295725 31:0.0354488 32:0.0695098 33:0.0549016 34:0.120065 35:0.300962 36:0.0852998 37:0.0411257 38:0.0769442 39:0.215743 40:0.00101665 41:0.00444733 42:0.00396396 43:0.91648 44:0.0334964 45:0.000831246 46:0.0298958 47:0.00706616 48:0.00280256 
0.09451690991583253 1:0.88282 2:0.0320949 3:0.085085 4:0.88628 5:0.0157908 6:0.105679 7:0.00794089 8:0.0970749 9:0.506907 10:0.281217 11:0.0187916 12:0.0350118 13:0.0106448 14:0.0266208 15:1 16:0 17:0 18:1 19:0 20:0 21:1 22:0.0461494 23:0.0447548 24:0.00823074 25:0.0120664 26:0.173334 27:0.00421925 28:0.15269 29:0.546119 30:0.0124357 31:0.00576048 32:0.0286667 33:0.0343387 34:0.0242243 35:0.841322 36:0.0268486 37:0.0136628 38:0.00507802 39:0.0200984 40:0.0383005 41:0.35168 42:0.0399743 43:0.051383 44:0.241588 45:0.00471951 46:0.150075 47:0.109478 48:0.0128015 
0.05503590421841667 1:0.765363 2:0.0339835 3:0.200654 4:-0.645752 5:0.0393463 6:0.53264 7:0.0894026 8:0.0590801 9:0.124284 10:0.241514 11:0.00994476 12:0.02372 13:0.0302975 14:0.382411 15:0 16:0 17:0 18:1 19:1 20:0 21:1 22:0.0148504 23:0.0340588 24:0.00505211 25:0.086264 26:0.55393 27:0.00237983 28:0.200193 29:0.100743 30:0.00252875 31:0.000190725 32:0.0034988 33:0.00106517 34:0.00738971 35:0.977272 36:0.00182868 37:0.0019575 38:0.00464779 39:0.00214961 40:0.00381406 41:0.0344426 42:0.0127101 43:0.0829637 44:0.85051 45:0.00345374 46:0.00818123 47:0.00331652 48:0.000607802 
0.05305259155444103 1:0.876663 2:0.0752972 3:0.0480401 4:0.972108 5:0.00311314 6:0.196475 7:0.00896871 8:0.0213755 9:0.0162248 10:0.415471 11:0.0640457 12:0.355303 13:0.0142607 14:0.101238 15:0 16:0 17:0 18:0 19:0 20:0 21:0 22:0.0534542 23:0.0700912 24:0.0439469 25:0.192354 26:0.141838 27:0.0239182 28:0.157054 29:0.302334 30:0.0150097 31:0.11 32:0.11 33:0.11 34:0.11 35:0.11 36:0.11 37:0.11 38:0.11 39:0.11 40:0.11 41:0.11 42:0.11 43:0.11 44:0.11 45:0.11 46:0.11 47:0.11 48:0.11 
0.3769417406568138 1:0.849268 2:0.0963806 3:0.0543517 4:0.859421 5:0.0189927 6:0.482517 7:0.707698 8:0.0301195 9:0.071024 10:0.0362595 11:0.0145392 12:0.0423794 13:0.0217473 14:0.0572402 15:0 16:0 17:0 18:1 19:0 20:0 21:1 22:0.0231006 23:0.0546411 24:0.0160799 25:0.648954 26:0.142693 27:0.0079197 28:0.0248392 29:0.0643469 30:0.0174256 31:0.00384884 32:0.0130905 33:0.0120742 34:0.0155794 35:0.318807 36:0.0473644 37:0.241739 38:0.331726 39:0.0157707 40:0.42039 41:0.289427 42:0.0128614 43:0.0438712 44:0.0677274 45:0.0238697 46:0.0210919 47:0.10809 48:0.0126712 
0.07816658457143456 1:0.448114 2:0.118811 3:0.433075 4:0.883728 5:0.00142654 6:0.0682887 7:0.0144402 8:0.00658276 9:0.00389443 10:0.0218258 11:0.0152932 12:0.0210776 13:0.0151129 14:0.900346 15:1 16:0 17:0 18:0 19:0 20:0 21:0 22:0.0373196 23:0.0798033 24:0.027468 25:0.0508111 26:0.105349 27:0.071194 28:0.25912 29:0.360354 30:0.0085818 31:0.0117392 32:0.0282182 33:0.0248236 34:0.015902 35:0.210763 36:0.227526 37:0.0898656 38:0.357839 39:0.0333232 40:0.113673 41:0.225812 42:0.0202358 43:0.220759 44:0.118978 45:0.00886661 46:0.124698 47:0.123898 48:0.0430799 
0.135451190402982 1:0.793964 2:0.113539 3:0.0924969 4:0.558551 5:0.00980438 6:0.15106 7:0.0950634 8:0.0168906 9:0.00183626 10:0.00368096 11:0.0033415 12:0.00185454 13:0.0415609 14:0.825967 15:1 16:0 17:0 18:1 19:0 20:0 21:1 22:0.392094 23:0.210658 24:0.0155366 25:0.108743 26:0.168117 27:0.0105044 28:0.0515119 29:0.0221226 30:0.0207128 31:0.0108849 32:0.130428 33:0.0351717 34:0.0397184 35:0.602878 36:0.0347429 37:0.0362371 38:0.0685168 39:0.0414229 40:0.194936 41:0.074888 42:0.00433612 43:0.0142381 44:0.149415 45:0.00167412 46:0.00712103 47:0.0756256 48:0.477766 
0.1677978130593839 1:0.907441 2:0.0221071 3:0.0704522 4:-0.665512 5:0.0154892 6:0.211187 7:0.00269913 8:0.053739 9:0.127865 10:0.119312 11:0.0148146 12:0.017409 13:0.00201305 14:0.646659 15:1 16:0 17:0 18:0 19:0 20:1 21:1 22:0.041879 23:0.140085 24:0.00335338 25:0.0231862 26:0.726297 27:0.00175024 28:0.0504689 29:0.010631 30:0.00234991 31:0.043786 32:0.0511366 33:0.0209967 34:0.0182554 35:0.773572 36:0.0272052 37:0.030416 38:0.00958262 39:0.0250492 40:0.00560346 41:0.0767932 42:0.00072735 43:0.00401915 44:0.8898 45:0.000413171 46:0.00779362 47:0.0131254 48:0.00172513 
0.1302362094403222 1:0.89854 2:0.0420666 3:0.0593933 4:0.867558 5:0.00826597 6:0.306987 7:0.0135391 8:0.0385612 9:0.00659392 10:0.00711545 11:0.0295033 12:0.00776722 13:0.471585 14:0.417069 15:0 16:0 17:0 18:0 19:0 20:0 21:0 22:0.0594466 23:0.0402377 24:0.0498345 25:0.516212 26:0.0464853 27:0.161676 28:0.0625446 29:0.0567311 30:0.00683296 31:0.11 32:0.11 33:0.11 34:0.11 35:0.11 36:0.11 37:0.11 38:0.11 39:0.11 40:0.018218 41:0.438689 42:0.0244841 43:0.0646348 44:0.160124 45:0.0198536 46:0.0644002 47:0.0837476 48:0.125848 
0.1809708570321269 1:0.900947 2:0.0393933 3:0.0596594 4:0.940513 5:0.0276554 6:0.552203 7:0.0208708 8:0.0195129 9:0.0062559 10:0.0378953 11:0.00793885 12:0.0603729 13:0.0205189 14:0.798979 15:0 16:0 17:0 18:0 19:0 20:0 21:0 22:0.0816317 23:0.0438151 24:0.00698885 25:0.0973869 26:0.365035 27:0.00790251 28:0.0183063 29:0.368594 30:0.0103388 31:0.000505674 32:0.00927375 33:0.00198642 34:0.00741741 35:0.959797 36:0.00331025 37:0.00800476 38:0.00529408 39:0.0044103 40:0.0285443 41:0.134358 42:0.00400846 43:0.0374365 44:0.0516022 45:0.00710157 46:0.061345 47:0.060954 48:0.61465 
0.3143530962584345 1:0.907072 2:0.0293705 3:0.0635574 4:-0.951703 5:0.00437071 6:0.22081 7:0.612301 8:0.0261135 9:0.00778877 10:0.0153447 11:0.0432997 12:0.0916417 13:0.0488299 14:0.15031 15:0 16:0 17:0 18:0 19:0 20:0 21:0 22:0.517366 23:0.227571 24:0.0191343 25:0.0174942 26:0.097052 27:0.0428574 28:0.0592329 29:0.0056762 30:0.0136162 31:0.00476992 32:0.0351144 33:0.0317933 34:0.0350972 35:0.0179103 36:0.0346003 37:0.739589 38:0.0944947 39:0.00663121 40:0.0132898 41:0.0179046 42:0.00353311 43:0.219972 44:0.72235 45:0.00075281 46:0.0112407 47:0.00949258 48:0.0014642 
0.4675015512383421 1:0.875932 2:0.0623205 3:0.0617475 4:0.914643 5:0.00659177 6:0.0719389 7:0.0303704 8:0.0115912 9:0.00877565 10:0.0167102 11:0.00271526 12:0.00641553 13:0.625226 14:0.291604 15:0 16:0 17:0 18:0 19:0 20:0 21:0 22:0.15511 23:0.0624625 24:0.0399635 25:0.299423 26:0.194921 27:0.072148 28:0.111782 29:0.05035 30:0.0138401 31:0.0172035 32:0.0636765 33:0.0161595 34:0.755299 35:0.0245245 36:0.0244609 37:0.0260471 38:0.0321995 39:0.0404291 40:0.0507636 41:0.227296 42:0.00953416 43:0.102581 44:0.580951 45:0.00105241 46:0.0217056 47:0.00551782 48:0.000598106 
0.100572178597148 1:0.840936 2:0.0533726 3:0.105691 4:0.942662 5:0.698293 6:0.77177 7:0.000519915 8:0.20019 9:0.0304419 10:0.0120589 11:0.0424209 12:0.00855338 13:0.00655655 14:0.000966017 15:1 16:0 17:0 18:0 19:0 20:0 21:1 22:0.173476 23:0.411278 24:0.0187188 25:0.0424935 26:0.102819 27:0.0131425 28:0.0647922 29:0.165613 30:0.00766805 31:0.11 32:0.11 33:0.11 34:0.11 35:0.11 36:0.11 37:0.11 38:0.11 39:0.11 40:0.0262384 41:0.0834219 42:0.00154867 43:0.0297463 44:0.780747 45:0.000684922 46:0.0370881 47:0.0401114 48:0.000413361 
0.1572178763017013 1:0.839001 2:0.0714869 3:0.0895121 4:-0.637459 5:0.0344082 6:0.861908 7:0.0284506 8:0.0255035 9:0.00488373 10:0.00857556 11:0.0100464 12:0.00288709 13:0.774179 14:0.111066 15:1 16:0 17:0 18:1 19:0 20:0 21:1 22:0.0440586 23:0.0485708 24:0.00521044 25:0.0646529 26:0.722957 27:0.0123852 28:0.0494411 29:0.0488705 30:0.00385322 31:0.11 32:0.11 33:0.11 34:0.11 35:0.11 36:0.11 37:0.11 38:0.11 39:0.11 40:0.000212678 41:0.000886022 42:7.65307e-05 43:0.0140742 44:0.980697 45:1.51295e-05 46:0.00272308 47:0.00123928 48:7.64673e-05 
0.0494299438440931 1:0.933621 2:0.0292247 3:0.0371547 4:0.976902 5:0.00893157 6:0.282649 7:0.000413307 8:0.0125113 9:0.00480989 10:0.0127855 11:0.00221721 12:0.000391114 13:0.0149342 14:0.943006 15:1 16:0 17:1 18:0 19:0 20:0 21:1 22:0.0890503 23:0.0539607 24:0.0127442 25:0.0727803 26:0.480868 27:0.00486476 28:0.0909589 29:0.18689 30:0.00788271 31:0.000336365 32:0.00530799 33:0.00156832 34:0.0081954 35:0.969011 36:0.00305942 37:0.00196417 38:0.00532672 39:0.00523084 40:0.0032412 41:0.0279605 42:0.00143556 43:0.0137362 44:0.778621 45:0.000384564 46:0.0649807 47:0.108112 48:0.00152885 
0.06789526227675141 1:0.909403 2:0.0208533 3:0.0697438 4:-0.956893 5:0.023808 6:0.797964 7:0.0140049 8:0.0224338 9:0.00733647 10:0.22813 11:0.0449944 12:0.0922946 13:0.0557665 14:0.511231 15:0 16:0 17:0 18:0 19:1 20:0 21:1 22:0.0238155 23:0.0414889 24:0.00671703 25:0.0738189 26:0.716855 27:0.00219681 28:0.0518199 29:0.0812016 30:0.00208608 31:0.00178688 32:0.0194754 33:0.00344005 34:0.021467 35:0.896952 36:0.00783755 37:0.0373977 38:0.00802612 39:0.00361738 40:0.00163348 41:0.00191283 42:0.00367666 43:0.00133825 44:0.982571 45:0.000480811 46:0.00447722 47:0.00367359 48:0.000235938 
0.5 1:0.91935 2:0.0272536 3:0.0533965 4:0.962699 5:0.00738746 6:0.0413022 7:0.0407327 8:0.0992046 9:0.115298 10:0.17507 11:0.339775 12:0.0906341 13:0.0552429 14:0.076655 15:0 16:0 17:0 18:0 19:0 20:0 21:0 22:0.166811 23:0.0566242 24:0.013555 25:0.241331 26:0.0472354 27:0.0331631 28:0.0455539 29:0.0566331 30:0.339093 31:0.11 32:0.11 33:0.11 34:0.11 35:0.11 36:0.11 37:0.11 38:0.11 39:0.11 40:0.0532673 41:0.201905 42:0.0712271 43:0.0323382 44:0.0950872 45:0.0269718 46:0.0423613 47:0.277187 48:0.199655 
0.5 1:0.17084 2:0.122299 3:0.706861 4:0.958095 5:0.047467 6:0.653981 7:0.00774025 8:0.0493988 9:0.112546 10:0.0362505 11:0.51432 12:0.146928 13:0.0225083 14:0.0628413 15:0 16:0 17:0 18:0 19:0 20:0 21:0 22:0.0168005 23:0.0154192 24:0.0179225 25:0.00447736 26:0.00479711 27:0.00674182 28:0.17641 29:0.749202 30:0.00822881 31:0.0239726 32:0.0762491 33:0.0467417 34:0.0424277 35:0.0134643 36:0.0549594 37:0.06857 38:0.0217353 39:0.65188 40:0.127308 41:0.050199 42:0.00381681 43:0.0160573 44:0.744164 45:0.00794375 46:0.039285 47:0.0109063 48:0.000320412 
0.5 1:0.841179 2:0.0457792 3:0.113042 4:-0.507628 5:0.0967461 6:0.759497 7:0.270754 8:0.0441974 9:0.0110147 10:0.0393799 11:0.0195305 12:0.00712275 13:0.49054 14:0.0207144 15:0 16:0 17:0 18:0 19:0 20:0 21:0 22:0.130998 23:0.112036 24:0.0853914 25:0.380164 26:0.0386031 27:0.0227898 28:0.163515 29:0.0383047 30:0.0281985 31:0.11 32:0.11 33:0.11 34:0.11 35:0.11 36:0.11 37:0.11 38:0.11 39:0.11 40:0.00883164 41:0.0222672 42:0.00415298 43:0.0621323 44:0.0442323 45:0.00838215 46:0.0696915 47:0.773728 48:0.00658221 
0.3396640708689898 1:0.202786 2:0.0646196 3:0.732594 4:0.963875 5:0.00358351 6:0.0970059 7:0.473303 8:0.0929213 9:0.00648195 10:0.0747502 11:0.0752722 12:0.10511 13:0.120007 14:0.0485714 15:0 16:0 17:0 18:0 19:0 20:0 21:0 22:0.196312 23:0.0535176 24:0.0251615 25:0.113082 26:0.214631 27:0.0164349 28:0.0284662 29:0.322353 30:0.0300411 31:0.010109 32:0.0183961 33:0.0200321 34:0.0197273 35:0.794983 36:0.0304554 37:0.0596102 38:0.0231199 39:0.0235666 40:0.00339694 41:0.022718 42:0.00807133 43:0.0457883 44:0.540648 45:0.0016264 46:0.347234 47:0.0201033 48:0.0104139 
0.1893102300095005 1:0.921508 2:0.018755 3:0.0597372 4:0.961146 5:0.00489892 6:0.100004 7:0.0485789 8:0.016428 9:0.0217759 10:0.111965 11:0.217145 12:0.428745 13:0.0664257 14:0.0840374 15:0 16:0 17:0 18:0 19:0 20:0 21:0 22:0.131162 23:0.324448 24:0.0410286 25:0.0645639 26:0.0407769 27:0.0471481 28:0.294215 29:0.0463409 30:0.0103174 31:0.0161278 32:0.0335736 33:0.0176731 34:0.796772 35:0.0207784 36:0.044646 37:0.0161456 38:0.0170261 39:0.0372571 40:0.0061187 41:0.0410347 42:0.0588431 43:0.0870048 44:0.325852 45:0.238376 46:0.172164 47:0.0668181 48:0.00378894 
0.03721779234761565 1:0.224769 2:0.0548612 3:0.72037 4:0.945202 5:0.00572196 6:0.0322242 7:0.257436 8:0.0437074 9:0.00839045 10:0.124117 11:0.0247854 12:0.050792 13:0.359288 14:0.125761 15:0 16:0 17:0 18:0 19:0 20:0 21:0 22:0.0194193 23:0.0303194 24:0.0214527 25:0.0241668 26:0.200886 27:0.023385 28:0.0420547 29:0.630461 30:0.00785525 31:0.00824007 32:0.0184545 33:0.0183092 34:0.0188095 35:0.824247 36:0.0189576 37:0.058007 38:0.0253583 39:0.00961707 40:0.00173951 41:0.173423 42:0.0434435 43:0.0396487 44:0.683766 45:0.00212393 46:0.0295109 47:0.0240789 48:0.00226547 
0.5 1:0.210292 2:0.0969257 3:0.692782 4:0.956045 5:0.00916804 6:0.139027 7:0.796576 8:0.0423165 9:0.00526765 10:0.0290496 11:0.0330147 12:0.01651 13:0.0224084 14:0.0456889 15:0 16:0 17:0 18:0 19:0 20:0 21:0 22:0.0365449 23:0.0223446 24:0.0164672 25:0.049706 26:0.611933 27:0.0119795 28:0.0218334 29:0.227396 30:0.00179551 31:0.00902671 32:0.018161 33:0.0214345 34:0.0161537 35:0.816733 36:0.0230368 37:0.0561412 38:0.0219953 39:0.0173182 40:0.00702828 41:0.0203043 42:0.0394064 43:0.440728 44:0.0828826 45:0.00550062 46:0.297424 47:0.0583558 48:0.0483696 
0.5 1:0.248244 2:0.0697165 3:0.682039 4:0.955812 5:0.00785796 6:0.377327 7:0.384361 8:0.045665 9:0.0166238 10:0.0959168 11:0.0597798 12:0.27823 13:0.0382784 14:0.0732872 15:0 16:0 17:0 18:0 19:0 20:0 21:0 22:0.0322656 23:0.0338604 24:0.0196851 25:0.10161 26:0.663615 27:0.00538581 28:0.0236756 29:0.117653 30:0.00224907 31:0.00824007 32:0.0184545 33:0.0183092 34:0.0188095 35:0.824247 36:0.0189576 37:0.058007 38:0.0253583 39:0.00961707 40:0.0204351 41:0.133392 42:0.0417534 43:0.186616 44:0.110298 45:0.010642 46:0.0523856 47:0.0331462 48:0.411332 
0.5 1:0.878716 2:0.0409394 3:0.0803448 4:0.970974 5:0.00130809 6:0.0361578 7:0.569905 8:0.00445859 9:0.00179702 10:0.0222747 11:0.0284432 12:0.145175 13:0.0382575 14:0.18838 15:0 16:0 17:0 18:0 19:0 20:0 21:0 22:0.0493984 23:0.111344 24:0.16671 25:0.0785632 26:0.261817 27:0.117841 28:0.187014 29:0.0159869 30:0.0113254 31:0.0002239 32:0.00421171 33:0.000892867 34:0.00976514 35:0.00287518 36:0.000711937 37:0.000854587 38:0.00203093 39:0.978434 40:0.0158936 41:0.259599 42:0.0183846 43:0.192062 44:0.184209 45:0.00484013 46:0.0703919 47:0.251284 48:0.00333574 
0.5 1:0.236549 2:0.0957948 3:0.667656 4:-0.965611 5:0.0175899 6:0.167343 7:0.00599358 8:0.0962076 9:0.0293024 10:0.0422396 11:0.223974 12:0.0122685 13:0.0170429 14:0.555382 15:0 16:0 17:0 18:0 19:0 20:0 21:0 22:0.0296 23:0.15616 24:0.101227 25:0.0185009 26:0.518366 27:0.0759227 28:0.0850756 29:0.00767049 30:0.00747791 31:0.0362362 32:0.0965869 33:0.0501288 34:0.0976985 35:0.441113 36:0.0632683 37:0.0803078 38:0.0694188 39:0.0652421 40:0.0540563 41:0.137819 42:0.0109635 43:0.0248144 44:0.170731 45:0.00821592 46:0.0186361 47:0.559712 48:0.0150518 
0.5 1:0.18577 2:0.474093 3:0.340137 4:-0.912043 5:0.0182179 6:0.130126 7:0.087112 8:0.157071 9:0.0356525 10:0.238923 11:0.162875 12:0.129211 13:0.00622745 14:0.164711 15:0 16:0 17:0 18:0 19:0 20:0 21:0 22:0.0224433 23:0.0426539 24:0.0644294 25:0.0273387 26:0.725607 27:0.0570795 28:0.0508917 29:0.00622448 30:0.00333168 31:0.000434409 32:0.00468899 33:0.000996894 34:0.014271 35:0.00600894 36:0.0011548 37:0.00176701 38:0.014868 39:0.95581 40:0.136341 41:0.373703 42:0.0584786 43:0.149733 44:0.0160577 45:0.0110224 46:0.188036 47:0.0283612 48:0.0382672 
0.1631342313013776 1:0.147884 2:0.477283 3:0.374833 4:0.860219 5:0.0874254 6:0.140931 7:0.00980254 8:0.290982 9:0.166966 10:0.0327213 11:0.0931695 12:0.0334405 13:0.116477 14:0.169015 15:0 16:0 17:0 18:0 19:0 20:0 21:1 22:0.0119545 23:0.086402 24:0.127934 25:0.649383 26:0.0758974 27:0.0174868 28:0.0241016 29:0.00343373 30:0.00340696 31:0.11 32:0.11 33:0.11 34:0.11 35:0.11 36:0.11 37:0.11 38:0.11 39:0.11 40:0.00260343 41:0.00784608 42:0.00139394 43:0.861306 44:0.040264 45:0.00099125 46:0.0395226 47:0.00286135 48:0.0432108 
0.1115852684390811 1:0.185832 2:0.0900842 3:0.724084 4:0.951159 5:0.364176 6:0.914032 7:0.0294133 8:0.0726442 9:0.031514 10:0.02684 11:0.0119328 12:0.0581676 13:0.112002 14:0.293311 15:1 16:0 17:0 18:0 19:0 20:0 21:1 22:0.0793258 23:0.109232 24:0.0311127 25:0.171296 26:0.499283 27:0.0219887 28:0.00892394 29:0.0676473 30:0.0111912 31:0.0161952 32:0.0755784 33:0.0141735 34:0.691418 35:0.0974255 36:0.0114841 37:0.0610402 38:0.00898807 39:0.0236971 40:0.00129639 41:0.00141435 42:0.000415412 43:0.0158591 44:0.894726 45:0.000501258 46:0.0288007 47:0.0558148 48:0.00117185 
0.5 1:0.886313 2:0.0253992 3:0.0882881 4:0.963645 5:0.00780588 6:0.14715 7:0.0280897 8:0.0771177 9:0.437253 10:0.397615 11:0.0239198 12:0.00506982 13:0.0042816 14:0.0188478 15:0 16:0 17:0 18:0 19:0 20:0 21:0 22:0.0773266 23:0.25987 24:0.310716 25:0.0475915 26:0.112288 27:0.130694 28:0.0325844 29:0.0113817 30:0.0175468 31:0.143679 32:0.461134 33:0.0602105 34:0.040015 35:0.169039 36:0.0410766 37:0.022563 38:0.0271879 39:0.0350942 40:0.0127031 41:0.478685 42:0.197436 43:0.0564583 44:0.0152274 45:0.0084703 46:0.154671 47:0.0682491 48:0.00809996 
0.410158034086565 1:0.89693 2:0.0252994 3:0.0777703 4:0.95795 5:0.00448913 6:0.132806 7:0.0477964 8:0.0627172 9:0.366384 10:0.471338 11:0.0223067 12:0.00650689 13:0.00261343 14:0.0158488 15:0 16:0 17:0 18:0 19:0 20:0 21:0 22:0.0729917 23:0.223132 24:0.455554 25:0.0324389 26:0.105548 27:0.0628991 28:0.0237382 29:0.00822213 30:0.0154757 31:0.0473187 32:0.126285 33:0.0544414 34:0.0988382 35:0.309891 36:0.102776 37:0.0804859 38:0.0962272 39:0.0837369 40:0.0224482 41:0.0985187 42:0.201121 43:0.412518 44:0.0952045 45:0.0565691 46:0.0663627 47:0.0351111 48:0.0121477 
0.1908890716752176 1:0.211515 2:0.0444536 3:0.744031 4:0.794005 5:0.0749542 6:0.137744 7:0.00660837 8:0.244243 9:0.175299 10:0.205988 11:0.0539518 12:0.172588 13:0.0207941 14:0.0455733 15:0 16:0 17:0 18:0 19:0 20:0 21:0 22:0.154109 23:0.051286 24:0.0191263 25:0.178095 26:0.150662 27:0.041698 28:0.112144 29:0.211623 30:0.0812564 31:0.11 32:0.11 33:0.11 34:0.11 35:0.11 36:0.11 37:0.11 38:0.11 39:0.11 40:0.198 41:0.198887 42:0.0144787 43:0.107609 44:0.296968 45:0.010555 46:0.0506974 47:0.0606782 48:0.0621274 
0.5 1:0.928631 2:0.0352952 3:0.0360737 4:0.965351 5:0.00061537 6:0.0443648 7:0.547779 8:0.0077604 9:0.00252282 10:0.0522666 11:0.027596 12:0.163925 13:0.021452 14:0.176082 15:0 16:0 17:0 18:0 19:0 20:0 21:0 22:0.0278733 23:0.0454293 24:0.0209121 25:0.0181047 26:0.776271 27:0.0433305 28:0.0603911 29:0.00280295 30:0.00488485 31:0.00074637 32:0.00596783 33:0.00272509 34:0.00940172 35:0.00243011 36:0.0013894 37:0.00726668 38:0.00210671 39:0.967966 40:0.000659208 41:0.0112799 42:0.00401578 43:0.00555419 44:0.921916 45:0.000293379 46:0.0418069 47:0.0136779 48:0.000796806 
0.2166290044931332 1:0.326171 2:0.0704858 3:0.603343 4:-0.95425 5:0.0139247 6:0.161323 7:0.0143935 8:0.0770639 9:0.0223099 10:0.0940158 11:0.399881 12:0.253699 13:0.0725638 14:0.0521487 15:0 16:0 17:0 18:0 19:0 20:0 21:0 22:0.134597 23:0.142519 24:0.104549 25:0.158913 26:0.291809 27:0.0860402 28:0.0421851 29:0.0240374 30:0.015351 31:0.00936819 32:0.17744 33:0.0794168 34:0.0697738 35:0.215898 36:0.0254177 37:0.0125334 38:0.15888 39:0.251272 40:0.0283911 41:0.118934 42:0.0212751 43:0.041117 44:0.345188 45:0.0163411 46:0.246038 47:0.137447 48:0.0452682 
0.3450938634406589 1:0.911914 2:0.0272147 3:0.0608712 4:0.953392 5:0.207635 6:0.358168 7:0.0225083 8:0.342648 9:0.0529382 10:0.069723 11:0.0581271 12:0.00978142 13:0.103316 14:0.133323 15:0 16:0 17:1 18:0 19:0 20:0 21:0 22:0.0794247 23:0.060525 24:0.0196456 25:0.0540347 26:0.0857383 27:0.0228602 28:0.11167 29:0.552523 30:0.0135794 31:0.11 32:0.11 33:0.11 34:0.11 35:0.11 36:0.11 37:0.11 38:0.11 39:0.11 40:0.11 41:0.11 42:0.11 43:0.11 44:0.11 45:0.11 46:0.11 47:0.11 48:0.11 
0.2568801368412708 1:0.756232 2:0.131016 3:0.112753 4:0.967152 5:0.0197601 6:0.17625 7:0.0718409 8:0.0457005 9:0.00591579 10:0.0458658 11:0.0202714 12:0.478018 13:0.0835516 14:0.229076 15:0 16:0 17:0 18:0 19:0 20:0 21:0 22:0.128872 23:0.122582 24:0.0472196 25:0.0143452 26:0.160632 27:0.0842681 28:0.383428 29:0.0461349 30:0.0125187 31:0.00897469 32:0.021122 33:0.829016 34:0.00378407 35:0.0136262 36:0.119991 37:0.000993255 38:0.00162894 39:0.000863749 40:0.0104945 41:0.198764 42:0.0208494 43:0.107544 44:0.117447 45:0.00737408 46:0.162391 47:0.370233 48:0.00490213 
0.0779878922758149 1:0.409867 2:0.0344742 3:0.555659 4:0.967865 5:0.00641404 6:0.132266 7:0.0274609 8:0.0245304 9:0.00203173 10:0.0206337 11:0.011909 12:0.281192 13:0.0700899 14:0.555739 15:0 16:0 17:0 18:0 19:0 20:0 21:1 22:0.103194 23:0.0878968 24:0.0653171 25:0.0244242 26:0.161707 27:0.148554 28:0.354419 29:0.0412329 30:0.0132555 31:0.00897469 32:0.021122 33:0.829016 34:0.00378407 35:0.0136262 36:0.119991 37:0.000993255 38:0.00162894 39:0.000863749 40:0.00192671 41:0.0107519 42:0.00654245 43:0.00555462 44:0.306125 45:0.00069343 46:0.0229603 47:0.6437 48:0.00174528 
0.007797357167297653 1:0.334833 2:0.0712188 3:0.593948 4:-0.965522 5:0.0938557 6:0.247123 7:0.00297368 8:0.373509 9:0.139254 10:0.068711 11:0.295605 12:0.00726443 13:0.00299864 14:0.0158294 15:0 16:0 17:0 18:0 19:0 20:0 21:0 22:0.254335 23:0.127149 24:0.0247062 25:0.0851836 26:0.340301 27:0.0244787 28:0.0209542 29:0.102171 30:0.0207212 31:0.00139233 32:0.0745033 33:0.0406414 34:0.00166021 35:0.00265018 36:0.00127229 37:0.868937 38:0.00713264 39:0.00181029 40:0.00155454 41:0.00731956 42:0.000546721 43:0.00407944 44:0.889844 45:0.000308546 46:0.0377893 47:0.0569186 48:0.00163893 
0.2622225991896867 1:0.226764 2:0.0942047 3:0.679031 4:0.949326 5:0.0200791 6:0.241229 7:0.27176 8:0.0780624 9:0.0456313 10:0.100027 11:0.355483 12:0.0405865 13:0.0513487 14:0.0370219 15:0 16:0 17:0 18:0 19:0 20:0 21:0 22:0.0992759 23:0.119939 24:0.0407246 25:0.355714 26:0.0569818 27:0.0473214 28:0.0936349 29:0.0560847 30:0.130324 31:0.00515838 32:0.0118551 33:0.0111745 34:0.054774 35:0.803496 36:0.018815 37:0.0600049 38:0.0168798 39:0.0178424 40:0.0148357 41:0.0970775 42:0.022374 43:0.0554442 44:0.137939 45:0.0097398 46:0.0711662 47:0.562413 48:0.0290105 
0.3631539108951102 1:0.891889 2:0.050956 3:0.0571547 4:0.966771 5:0.000651639 6:0.210652 7:0.0454504 8:0.00176734 9:0.00505043 10:0.0199707 11:0.0108173 12:0.893729 13:0.00863116 14:0.0139324 15:0 16:0 17:0 18:0 19:0 20:0 21:1 22:0.0863243 23:0.112011 24:0.170667 25:0.0551615 26:0.0266853 27:0.037927 28:0.07535 29:0.305566 30:0.130307 31:0.11 32:0.11 33:0.11 34:0.11 35:0.11 36:0.11 37:0.11 38:0.11 39:0.11 40:0.11 41:0.11 42:0.11 43:0.11 44:0.11 45:0.11 46:0.11 47:0.11 48:0.11 
0.5 1:0.879696 2:0.0481703 3:0.0721342 4:0.966407 5:0.00241905 6:0.115821 7:0.612546 8:0.0174853 9:0.00162599 10:0.0711588 11:0.112551 12:0.0550763 13:0.0913469 14:0.0357908 15:0 16:0 17:0 18:0 19:0 20:0 21:0 22:0.0101789 23:0.0470442 24:0.0733597 25:0.0360085 26:0.0387605 27:0.0789517 28:0.0199833 29:0.268319 30:0.427395 31:0.0107185 32:0.0332009 33:0.0231778 34:0.823362 35:0.0122132 36:0.0225928 37:0.025037 38:0.0142501 39:0.0354475 40:0.0116916 41:0.0775796 42:0.112747 43:0.00391525 44:0.00387661 45:0.733432 46:0.0112284 47:0.029994 48:0.0155363 
0.5 1:0.909907 2:0.0292924 3:0.0608011 4:0.924634 5:0.00839186 6:0.10971 7:0.136272 8:0.0496972 9:0.00399043 10:0.0581179 11:0.0609415 12:0.142816 13:0.324119 14:0.215655 15:0 16:0 17:0 18:0 19:0 20:0 21:0 22:0.0344293 23:0.0927682 24:0.0711574 25:0.0231065 26:0.0366915 27:0.0316803 28:0.0607161 29:0.478617 30:0.170833 31:0.00417657 32:0.0372429 33:0.17259 34:0.168113 35:0.0350331 36:0.558202 37:0.0103377 38:0.00593854 39:0.0083657 40:0.00952487 41:0.263311 42:0.178703 43:0.0147334 44:0.0282776 45:0.451109 46:0.0129596 47:0.0213065 48:0.0200747 
0.09713028435610165 1:0.927916 2:0.035296 3:0.0367885 4:0.970309 5:0.00581399 6:0.389597 7:0.175365 8:0.00591826 9:0.0175064 10:0.0367913 11:0.0470288 12:0.189845 13:0.045743 14:0.475988 15:0 16:0 17:0 18:1 19:0 20:0 21:0 22:0.487419 23:0.0727438 24:0.00926113 25:0.0582116 26:0.032242 27:0.0203759 28:0.0389105 29:0.0540778 30:0.226758 31:0.129439 32:0.574814 33:0.0416464 34:0.0593968 35:0.0806724 36:0.0263188 37:0.0452438 38:0.0140372 39:0.0284312 40:0.0337739 41:0.0170844 42:0.00223257 43:0.00849434 44:0.789563 45:0.00332874 46:0.033112 47:0.0800746 48:0.0323369 
0.3278102020683 1:0.879335 2:0.0675042 3:0.0531608 4:0.969796 5:0.00691636 6:0.258603 7:0.186086 8:0.0154994 9:0.00875391 10:0.0267874 11:0.0491257 12:0.111276 13:0.0220929 14:0.573462 15:1 16:0 17:0 18:1 19:0 20:0 21:1 22:0.182072 23:0.0343567 24:0.00353992 25:0.0150743 26:0.00949498 27:0.00607986 28:0.0896567 29:0.0371235 30:0.622602 31:0.0580656 32:0.603723 33:0.026046 34:0.0499776 35:0.0857495 36:0.0230021 37:0.0956087 38:0.0313537 39:0.0264743 40:0.00976288 41:0.00750513 42:0.00216273 43:0.010514 44:0.900629 45:0.00581796 46:0.0305294 47:0.0224125 48:0.0106661 
0.5 1:0.87781 2:0.035851 3:0.0863393 4:0.970669 5:0.0282863 6:0.363679 7:0.139921 8:0.0362176 9:0.0209761 10:0.128681 11:0.133532 12:0.124929 13:0.0121275 14:0.375329 15:0 16:0 17:0 18:0 19:0 20:0 21:1 22:0.458997 23:0.0349844 24:0.019161 25:0.0128869 26:0.0690627 27:0.0152906 28:0.0691435 29:0.0889702 30:0.231503 31:0.0182993 32:0.848566 33:0.0217774 34:0.00728779 35:0.0126259 36:0.00751737 37:0.0733875 38:0.00448831 39:0.00605025 40:0.843929 41:0.0902362 42:0.0141964 43:0.00857571 44:0.00571306 45:0.00543878 46:0.010296 47:0.00830169 48:0.0133132 
0.5 1:0.888457 2:0.0351075 3:0.0764358 4:0.928848 5:0.0112869 6:0.0425858 7:0.15788 8:0.0366558 9:0.053563 10:0.0961223 11:0.0964214 12:0.0167748 13:0.130231 14:0.401065 15:0 16:0 17:0 18:0 19:0 20:0 21:0 22:0.0722406 23:0.0360432 24:0.157051 25:0.0286662 26:0.15944 27:0.217299 28:0.0510477 29:0.0195423 30:0.258669 31:0.017539 32:0.0646167 33:0.0365077 34:0.0368576 35:0.385389 36:0.0548098 37:0.0462055 38:0.308397 39:0.0496777 40:0.14907 41:0.161243 42:0.0796184 43:0.0306823 44:0.177845 45:0.0114572 46:0.0456576 47:0.0607162 48:0.28371 
0.2504933197081525 1:0.274215 2:0.0489869 3:0.676798 4:0.969544 5:0.0354867 6:0.169852 7:0.0606002 8:0.0750141 9:0.00567858 10:0.0657674 11:0.0348396 12:0.0157209 13:0.263057 14:0.443835 15:0 16:0 17:1 18:0 19:0 20:0 21:0 22:0.0701939 23:0.026221 24:0.0251335 25:0.0364935 26:0.174346 27:0.0271693 28:0.125238 29:0.504546 30:0.0106597 31:0.11 32:0.11 33:0.11 34:0.11 35:0.11 36:0.11 37:0.11 38:0.11 39:0.11 40:0.00719448 41:0.0120355 42:0.0105516 43:0.0396535 44:0.24541 45:0.00129105 46:0.166221 47:0.502851 48:0.0147926 
0.2460437271442318 1:0.87843 2:0.0399949 3:0.0815751 4:0.959235 5:0.0125734 6:0.219617 7:0.417755 8:0.0362362 9:0.057957 10:0.0476327 11:0.0947306 12:0.0113218 13:0.118106 14:0.203687 15:0 16:0 17:0 18:0 19:0 20:0 21:1 22:0.0854537 23:0.0518556 24:0.00749074 25:0.00856046 26:0.0176403 27:0.0148449 28:0.0274326 29:0.771045 30:0.0156767 31:0.00842092 32:0.0203237 33:0.0147178 34:0.0126734 35:0.226335 36:0.0781001 37:0.0655612 38:0.530553 39:0.0433151 40:0.11 41:0.11 42:0.11 43:0.11 44:0.11 45:0.11 46:0.11 47:0.11 48:0.11 
0.5 1:0.873425 2:0.0435222 3:0.0830525 4:0.943315 5:0.00192482 6:0.14314 7:0.498508 8:0.0118242 9:0.0109911 10:0.0941285 11:0.188527 12:0.0206967 13:0.0655388 14:0.10786 15:0 16:0 17:0 18:0 19:0 20:0 21:0 22:0.301218 23:0.0292324 24:0.0170106 25:0.0082722 26:0.0278595 27:0.0494773 28:0.0393152 29:0.0516736 30:0.475941 31:0.00915645 32:0.0490506 33:0.0368517 34:0.0375943 35:0.544079 36:0.0281519 37:0.128327 38:0.139562 39:0.0272275 40:0.194027 41:0.112202 42:0.0857299 43:0.0431914 44:0.197151 45:0.0317176 46:0.103531 47:0.0441006 48:0.188349 
-1.193437533173636 1:0.870046 2:0.0555288 3:0.0744253 4:-0.580357 5:0.00323711 6:0.074474 7:0.83898 8:0.00803438 9:0.00275798 10:0.0138896 11:0.00952581 12:0.050532 13:0.0392365 14:0.0338063 15:0 16:0 17:0 18:0 19:0 20:0 21:0 22:0.0525264 23:0.030871 24:0.0137189 25:0.360855 26:0.004903 27:0.0280415 28:0.020597 29:0.0107561 30:0.477731 31:0.00558604 32:0.0274456 33:0.00789421 34:0.0453068 35:0.0050745 36:0.0164685 37:0.0413879 38:0.00861387 39:0.842223 40:0.11 41:0.11 42:0.11 43:0.11 44:0.11 45:0.11 46:0.11 47:0.11 48:0.11 
-0.8060585952285979 1:0.898546 2:0.0361891 3:0.0652649 4:0.964598 5:0.0432704 6:0.5 7:0.658308 8:0.0528796 9:0.014698 10:0.0289487 11:0.0226104 12:0.0430421 13:0.119982 14:0.0162611 15:0 16:0 17:0 18:1 19:0 20:0 21:1 22:0.164168 23:0.0311006 24:0.00221064 25:0.0336032 26:0.00524557 27:0.00282593 28:0.0229524 29:0.0195857 30:0.718308 31:0.00143736 32:0.00388901 33:0.000899951 34:0.0167684 35:0.000465994 36:0.00192616 37:0.00372379 38:0.0016044 39:0.969285 40:0.11 41:0.11 42:0.11 43:0.11 44:0.11 45:0.11 46:0.11 47:0.11 48:0.11 
-3.741250989353124 1:0.906592 2:0.0422909 3:0.0511166 4:0.90391 5:0.00616656 6:0.00991273 7:0.0330222 8:0.0465742 9:0.00865228 10:0.00583032 11:0.00354434 12:0.00604472 13:0.879185 14:0.0109805 15:0 16:0 17:0 18:0 19:0 20:0 21:0 22:0.1519 23:0.217223 24:0.168792 25:0.0758422 26:0.020561 27:0.0667435 28:0.193441 29:0.01578 30:0.0897167 31:0.0276807 32:0.16729 33:0.0256485 34:0.2112 35:0.0132703 36:0.0659862 37:0.108 38:0.0185338 39:0.362391 40:0.11 41:0.11 42:0.11 43:0.11 44:0.11 45:0.11 46:0.11 47:0.11 48:0.11 
-0.2527674928783702 1:0.85046 2:0.055414 3:0.0941262 4:0.969899 5:0.0094748 6:0.258654 7:0.863124 8:0.0160246 9:0.00538186 10:0.0172075 11:0.0112807 12:0.00459094 13:0.0681168 14:0.00479862 15:0 16:0 17:0 18:1 19:0 20:0 21:0 22:0.0177978 23:0.0298051 24:0.00283223 25:0.0274135 26:0.00382417 27:0.00551227 28:0.0378014 29:0.00542094 30:0.869593 31:0.00150767 32:0.00992759 33:0.00431255 34:0.0190867 35:0.000884976 36:0.0020521 37:0.0359417 38:0.00163206 39:0.924655 40:0.11 41:0.11 42:0.11 43:0.11 44:0.11 45:0.11 46:0.11 47:0.11 48:0.11 
-0.776064214860077 1:0.890847 2:0.0359256 3:0.0732273 4:0.965513 5:0.00296494 6:0.0265339 7:0.158607 8:0.0396909 9:0.000857394 10:0.0128273 11:0.00433224 12:0.00452783 13:0.769961 14:0.00623182 15:0 16:0 17:0 18:0 19:0 20:0 21:0 22:0.03728 23:0.0699537 24:0.170262 25:0.0655245 26:0.0104489 27:0.487805 28:0.0853476 29:0.00668518 30:0.0666929 31:0.00548967 32:0.00929148 33:0.00356453 34:0.93648 35:0.00521413 36:0.00503112 37:0.0198143 38:0.00935454 39:0.00576025 40:0.000640163 41:0.000805091 42:0.000411516 43:0.00259471 44:0.00234516 45:6.71425e-05 46:0.000716053 47:0.0024239 48:0.989996 
-0.5726804507952472 1:0.893099 2:0.033007 3:0.0738941 4:0.796053 5:0.000687642 6:0.0349274 7:0.835587 8:0.00459725 9:0.00184301 10:0.0186309 11:0.00820534 12:0.0800824 13:0.0462134 14:0.0041532 15:0 16:0 17:0 18:0 19:0 20:0 21:1 22:0.0421884 23:0.024565 24:0.0245049 25:0.0105114 26:0.00822486 27:0.0719136 28:0.0772687 29:0.0185195 30:0.722304 31:0.000595614 32:0.0063859 33:0.00179715 34:0.0321111 35:0.000866757 36:0.00135757 37:0.0040938 38:0.000953844 39:0.951838 40:0.729701 41:0.0671537 42:0.010557 43:0.0130971 44:0.0224717 45:0.00146159 46:0.107855 47:0.0378414 48:0.00986236 
-1.699235270155518 1:0.805907 2:0.0944517 3:0.0996417 4:0.960313 5:0.0184258 6:0.190116 7:0.51109 8:0.0612283 9:0.13255 10:0.0649608 11:0.0567229 12:0.01329 13:0.115999 14:0.0257336 15:0 16:0 17:0 18:0 19:0 20:0 21:0 22:0.695202 23:0.0313473 24:0.0409799 25:0.011371 26:0.0165213 27:0.013596 28:0.0933935 29:0.0512727 30:0.046316 31:0.0200603 32:0.0605265 33:0.0312793 34:0.0343133 35:0.0331453 36:0.0390468 37:0.0527159 38:0.0219793 39:0.706933 40:0.11 41:0.11 42:0.11 43:0.11 44:0.11 45:0.11 46:0.11 47:0.11 48:0.11 
-0.2499058876556277 1:0.227496 2:0.0715042 3:0.701 4:0.965857 5:0.00891823 6:0.343937 7:0.483158 8:0.019515 9:0.0111202 10:0.0238363 11:0.0695268 12:0.248157 13:0.022636 14:0.113133 15:0 16:0 17:0 18:0 19:0 20:0 21:0 22:0.0328592 23:0.0279427 24:0.00253931 25:0.0124604 26:0.0100446 27:0.00762884 28:0.0273501 29:0.0287398 30:0.850435 31:0.00115578 32:0.00911371 33:0.00192631 34:0.0395134 35:0.00198652 36:0.00253483 37:0.0138995 38:0.003324 39:0.926546 40:0.0151405 41:0.0697114 42:0.0221394 43:0.157002 44:0.0539181 45:0.0249583 46:0.0609748 47:0.285956 48:0.310199 
-0.1365707518367983 1:0.211617 2:0.0842613 3:0.704122 4:0.965374 5:0.000594597 6:0.133817 7:0.892809 8:0.00798885 9:0.00300907 10:0.0175974 11:0.0160692 12:0.0243475 13:0.0226653 14:0.0149188 15:0 16:0 17:0 18:0 19:0 20:0 21:1 22:0.0269977 23:0.0394381 24:0.00608913 25:0.0217843 26:0.0112783 27:0.0158858 28:0.0487624 29:0.00675869 30:0.823006 31:0.00109057 32:0.0131833 33:0.00273191 34:0.0392661 35:0.00167888 36:0.00119524 37:0.0105341 38:0.00271892 39:0.927601 40:0.000225529 41:0.00238878 42:0.000178458 43:0.0421757 44:0.000221716 45:0.000552793 46:0.00373826 47:0.000406078 48:0.950113 
-0.3964192640742717 1:0.888855 2:0.0391622 3:0.0719828 4:0.966172 5:0.0956652 6:0.372792 7:0.138826 8:0.125437 9:0.0774631 10:0.0223156 11:0.0456488 12:0.0201017 13:0.459606 14:0.0149375 15:1 16:0 17:0 18:0 19:0 20:0 21:1 22:0.0312201 23:0.0137252 24:0.00713185 25:0.101725 26:0.00289823 27:0.00464565 28:0.0219332 29:0.00410647 30:0.812614 31:0.00143736 32:0.00388901 33:0.000899951 34:0.0167684 35:0.000465994 36:0.00192616 37:0.00372379 38:0.0016044 39:0.969285 40:1.30798e-10 41:2.30214e-10 42:9.2611e-11 43:1.24026e-10 44:4.97286e-11 45:4.31789e-11 46:1.50421e-10 47:6.11842e-11 48:1 
-0.2413045562928429 1:0.836653 2:0.0770551 3:0.086292 4:0.969018 5:0.00500331 6:0.374719 7:0.743653 8:0.0149128 9:0.0062576 10:0.0311375 11:0.0130729 12:0.0390762 13:0.123629 14:0.0232584 15:0 16:0 17:0 18:0 19:0 20:0 21:0 22:0.390433 23:0.105496 24:0.0293595 25:0.0965768 26:0.0265567 27:0.0408081 28:0.0613945 29:0.0456747 30:0.2037 31:0.11 32:0.11 33:0.11 34:0.11 35:0.11 36:0.11 37:0.11 38:0.11 39:0.11 40:0.00246999 41:0.02192 42:0.00109547 43:0.00943893 44:0.000400266 45:0.000909175 46:0.268496 47:0.00100354 48:0.694266 
-1.067319876857742 1:0.437045 2:0.350747 3:0.212208 4:0.963051 5:0.00542483 6:0.0568817 7:0.0550009 8:0.0486061 9:0.00586642 10:0.0578339 11:0.729122 12:0.0790536 13:0.00669626 14:0.0123963 15:0 16:0 17:0 18:1 19:0 20:0 21:0 22:0.0244667 23:0.0582189 24:0.0673291 25:0.011097 26:0.00761701 27:0.0242049 28:0.0625737 29:0.709131 30:0.0353614 31:0.0280909 32:0.228411 33:0.0334796 34:0.113953 35:0.101655 36:0.0261574 37:0.035604 38:0.265616 39:0.167033 40:1.25891e-12 41:4.16306e-12 42:3.07027e-12 43:5.36884e-12 44:1.60671e-12 45:1.45018e-12 46:3.74961e-12 47:3.72766e-12 48:1 
-0.4165918086703969 1:0.868084 2:0.0278235 3:0.104092 4:0.829734 5:0.0840294 6:0.396287 7:0.26304 8:0.21531 9:0.0706637 10:0.0794947 11:0.180237 12:0.0646629 13:0.0328335 14:0.0097285 15:1 16:0 17:0 18:0 19:0 20:0 21:1 22:0.0229595 23:0.0761778 24:0.0479659 25:0.0224362 26:0.0109806 27:0.0448446 28:0.0201372 29:0.0700956 30:0.684403 31:0.00039039 32:0.00254375 33:0.000349201 34:0.0319579 35:0.000586758 36:0.000267802 37:0.000303418 38:0.00138961 39:0.962211 40:0.0152653 41:0.0377541 42:0.0160625 43:0.102172 44:0.00418681 45:0.00923452 46:0.122977 47:0.0463006 48:0.646047 
-2.44254009550865 1:0.239023 2:0.172274 3:0.588703 4:-0.954455 5:0.00861812 6:0.157264 7:0.405796 8:0.037367 9:0.0060241 10:0.0859337 11:0.178608 12:0.224625 13:0.0170769 14:0.0359501 15:0 16:0 17:0 18:0 19:0 20:0 21:0 22:0.0569148 23:0.123313 24:0.065258 25:0.03584 26:0.0150518 27:0.0833082 28:0.365621 29:0.186221 30:0.068472 31:0.0145081 32:0.0431274 33:0.0320405 34:0.0500629 35:0.206711 36:0.0253902 37:0.037801 38:0.404656 39:0.185703 40:7.4849e-05 41:0.00264461 42:0.000433777 43:0.000272828 44:0.00324282 45:0.00026923 46:0.022118 47:0.969891 48:0.00105329 
-0.4673699112998039 1:0.836577 2:0.0727651 3:0.090658 4:-0.588265 5:0.00156788 6:0.29234 7:0.732504 8:0.012063 9:0.00164284 10:0.0182039 11:0.016008 12:0.153833 13:0.0448852 14:0.0192917 15:0 16:0 17:0 18:0 19:0 20:0 21:1 22:0.0032495 23:0.0248269 24:0.0073656 25:0.00353809 26:0.00994199 27:0.0123311 28:0.0107675 29:0.0266637 30:0.901316 31:0.00215842 32:0.0163538 33:0.00354429 34:0.0191082 35:0.00608207 36:0.00402578 37:0.00847943 38:0.00511625 39:0.935132 40:0.0394108 41:0.109059 42:0.0643461 43:0.0124195 44:0.0069184 45:0.0774245 46:0.0135798 47:0.152508 48:0.524334 
-1.512188831154645 1:0.712204 2:0.0561713 3:0.231624 4:0.916194 5:0.0254147 6:0.555431 7:0.0883311 8:0.0360839 9:0.0201822 10:0.163563 11:0.0208589 12:0.176608 13:0.0369409 14:0.432017 15:0 16:0 17:0 18:0 19:0 20:0 21:0 22:0.186672 23:0.0370831 24:0.00403635 25:0.0211259 26:0.00378586 27:0.00614574 28:0.0343683 29:0.0590384 30:0.647745 31:0.0188515 32:0.183604 33:0.132183 34:0.0200458 35:0.0135981 36:0.575793 37:0.0288547 38:0.00660605 39:0.020464 40:0.096969 41:0.121084 42:0.0148824 43:0.054161 44:0.00769558 45:0.0332998 46:0.0255377 47:0.0881801 48:0.55819 
-2.503247604781555 1:0.278253 2:0.0888815 3:0.632865 4:0.968775 5:0.000743651 6:0.134003 7:0.795569 8:0.00503848 9:0.000276364 10:0.00992984 11:0.119038 12:0.0574597 13:0.0069095 14:0.00503549 15:0 16:0 17:0 18:0 19:0 20:0 21:0 22:0.0177839 23:0.0360978 24:0.0371018 25:0.0160791 26:0.0133774 27:0.0216632 28:0.096438 29:0.672604 30:0.0888545 31:0.00492662 32:0.017851 33:0.0150718 34:0.0170078 35:0.827547 36:0.00743552 37:0.0258495 38:0.0358569 39:0.0484537 40:0.0243997 41:0.080776 42:0.0149231 43:0.0425371 44:0.115824 45:0.00722062 46:0.0759731 47:0.0298031 48:0.608543 
-0.4701105119489218 1:0.904677 2:0.0322975 3:0.0630253 4:-0.623775 5:0.000342815 6:0.323482 7:0.877645 8:0.00361266 9:0.000837259 10:0.00768392 11:0.010935 12:0.0128281 13:0.0821531 14:0.00396186 15:0 16:0 17:1 18:0 19:0 20:0 21:0 22:0.00772441 23:0.0266134 24:0.0149781 25:0.0150578 26:0.00566879 27:0.0469259 28:0.0192228 29:0.0230837 30:0.840725 31:0.00134139 32:0.00955729 33:0.00254993 34:0.00895629 35:0.00484168 36:0.00285876 37:0.00758118 38:0.00279233 39:0.959521 40:0.0211709 41:0.323826 42:0.0105365 43:0.0937113 44:0.0181835 45:0.0135591 46:0.0262199 47:0.392737 48:0.100056 
-1.957369376312708 1:0.869638 2:0.0374645 3:0.0928974 4:0.921169 5:0.00335195 6:0.371043 7:0.0196397 8:0.0129894 9:0.0221107 10:0.532082 11:0.22883 12:0.0697577 13:0.00759059 14:0.103647 15:0 16:0 17:0 18:0 19:0 20:0 21:0 22:0.0126671 23:0.156244 24:0.511564 25:0.0516243 26:0.0133723 27:0.167251 28:0.0819262 29:0.00289994 30:0.00245116 31:0.000655727 32:0.0472446 33:0.0492633 34:0.00263566 35:0.00303557 36:0.876493 37:0.0116381 38:0.00800114 39:0.00103316 40:0.0340168 41:0.388425 42:0.0309469 43:0.0117577 44:0.0641614 45:0.00661575 46:0.0588185 47:0.0491013 48:0.356157 
-1.098259823195615 1:0.894421 2:0.036965 3:0.0686138 4:-0.622628 5:0.0235923 6:0.248028 7:0.252433 8:0.256139 9:0.191198 10:0.161247 11:0.0470174 12:0.010548 13:0.0504379 14:0.00738759 15:0 16:0 17:1 18:0 19:0 20:0 21:0 22:0.026083 23:0.123913 24:0.0765349 25:0.0790519 26:0.01859 27:0.350335 28:0.0275561 29:0.0404634 30:0.257473 31:0.000685797 32:0.00736196 33:0.00173119 34:0.0321636 35:0.000901029 36:0.000710888 37:0.00413919 38:0.00165522 39:0.950651 40:2.43741e-06 41:0.00259223 42:2.43624e-05 43:0.000358808 44:2.3074e-05 45:0.000143509 46:5.24956e-05 47:1.83593e-05 48:0.996785 
